{"learner":{"attributes":{},"feature_names":["day_of_week","hour_of_day"],"feature_types":[],"gradient_booster":{"model":{"cats":{"enc":[],"feature_segments":[],"sorted_idx":[]},"gbtree_model_param":{"num_parallel_tree":"1","num_trees":"50"},"iteration_indptr":[0,1,2,3,4,5,6,7,8,9,10,11,12,13,14,15,16,17,18,19,20,21,22,23,24,25,26,27,28,29,30,31,32,33,34,35,36,37,38,39,40,41,42,43,44,45,46,47,48,49,50],"tree_info":[0,0,0,0,0,0,0,0,0,0,0,0,0,0,0,0,0,0,0,0,0,0,0,0,0,0,0,0,0,0,0,0,0,0,0,0,0,0,0,0,0,0,0,0,0,0,0,0,0,0],"trees":[{"base_weights":[-1.2243763E-7,-1.0245519E1,1.283291E0,-1.0616357E1,-7.2346163E0,3.0174177E0,-4.2207484E0,-1.1830041E0,-9.135516E-1,-2.4154738E-1,-1.0065717E0,-1.9629536E0,3.7994268E0,-2.0965326E0,-7.0175385E0,2.3159854E-1,-7.445557E-1,4.2065307E-1,-1.5281147E-2,-4.6887454E-1,-6.0308952E-2,-1.0543627E0,-5.0521004E-1],"categories":[],"categories_nodes":[],"categories_segments":[],"categories_sizes":[],"default_left":[0,0,0,0,0,0,0,0,0,0,0,0,0,0,0,0,0,0,0,0,0,0,0],"id":0,"left_children":[1,3,5,7,9,11,13,-1,-1,-1,-1,15,17,19,21,-1,-1,-1,-1,-1,-1,-1,-1],"loss_changes":[6.555584E4,5.428828E2,4.230531E4,7.761797E2,8.4886865E2,1.313258E4,6.294615E3,0E0,0E0,0E0,0E0,1.0761798E4,4.687578E3,2.339322E3,3.1208145E3,0E0,0E0,0E0,0E0,0E0,0E0,0E0,0E0],"parents":[2147483647,0,0,1,1,2,2,3,3,4,4,5,5,6,6,11,11,12,12,13,13,14,14],"right_children":[2,4,6,8,10,12,14,-1,-1,-1,-1,16,18,20,22,-1,-1,-1,-1,-1,-1,-1,-1],"split_conditions":[4E0,3E0,2E1,5E0,2E0,7E0,2.2E1,-1.1830041E0,-9.135516E-1,-2.4154738E-1,-1.0065717E0,5E0,1.9E1,4E0,4E0,2.3159854E-1,-7.445557E-1,4.2065307E-1,-1.5281147E-2,-4.6887454E-1,-6.0308952E-2,-1.0543627E0,-5.0521004E-1],"split_indices":[1,1,1,0,0,1,1,0,0,0,0,0,1,0,0,0,0,0,0,0,0,0,0],"split_type":[0,0,0,0,0,0,0,0,0,0,0,0,0,0,0,0,0,0,0,0,0,0,0],"sum_hessian":[4.984E3,5.54E2,4.43E3,4.91E2,6.3E1,3.369E3,1.061E3,2.66E2,2.25E2,2.4E1,3.9E1,4.57E2,2.912E3,6.04E2,4.57E2,2.57E2,2E2,2.64E3,2.72E2,2.2E2,3.84E2,1.62E2,2.95E2],"tree_param":{"num_deleted":"0","num_feature":"2","num_nodes":"23","size_leaf_vector":"1"}},{"base_weights":[-1.1118668E-3,-9.226994E0,1.1544659E0,-9.558982E0,-6.5306563E0,2.4663556E0,-4.8211746E0,-1.0651468E0,-8.226008E-1,-2.183588E-1,-9.0843076E-1,-1.7677785E0,3.0759768E0,-8.070296E0,-3.1350598E0,2.0852844E-1,-6.7047065E-1,3.7860367E-1,-4.2186953E-2,-5.8846927E-1,-9.4957334E-1,-2.160321E-1,-6.5323466E-1],"categories":[],"categories_nodes":[],"categories_segments":[],"categories_sizes":[],"default_left":[0,0,0,0,0,0,0,0,0,0,0,0,0,0,0,0,0,0,0,0,0,0,0],"id":1,"left_children":[1,3,5,7,9,11,13,-1,-1,-1,-1,15,17,19,21,-1,-1,-1,-1,-1,-1,-1,-1],"loss_changes":[5.315685E4,4.343828E2,3.4748188E4,6.288594E2,6.9062085E2,9.385586E3,4.346455E3,0E0,0E0,0E0,0E0,8.72619E3,7.892246E3,7.9151953E2,1.7310312E3,0E0,0E0,0E0,0E0,0E0,0E0,0E0,0E0],"parents":[2147483647,0,0,1,1,2,2,3,3,4,4,5,5,6,6,11,11,12,12,13,13,14,14],"right_children":[2,4,6,8,10,12,14,-1,-1,-1,-1,16,18,20,22,-1,-1,-1,-1,-1,-1,-1,-1],"split_conditions":[4E0,3E0,2.1E1,5E0,2E0,7E0,4E0,-1.0651468E0,-8.226008E-1,-2.183588E-1,-9.0843076E-1,5E0,1.9E1,2.2E1,7E0,2.0852844E-1,-6.7047065E-1,3.7860367E-1,-4.2186953E-2,-5.8846927E-1,-9.4957334E-1,-2.160321E-1,-6.5323466E-1],"split_indices":[1,1,1,0,0,1,0,0,0,0,0,0,1,1,0,0,0,0,0,0,0,0,0],"split_type":[0,0,0,0,0,0,0,0,0,0,0,0,0,0,0,0,0,0,0,0,0,0,0],"sum_hessian":[4.984E3,5.54E2,4.43E3,4.91E2,6.3E1,3.633E3,7.97E2,2.66E2,2.25E2,2.4E1,3.9E1,4.57E2,3.176E3,2.71E2,5.26E2,2.57E2,2E2,2.64E3,5.36E2,1.09E2,1.62E2,4.1E2,1.16E2],"tree_param":{"num_deleted":"0","num_feature":"2","num_nodes":"23","size_leaf_vector":"1"}},{"base_weights":[-2.1136368E-3,-8.309726E0,1.0384476E0,-8.606921E0,-5.895197E0,2.2196853E0,-4.342074E0,-9.5903105E-1,-7.4070463E0,-1.9739632E-1,-8.1985873E-1,-2.4116936E0,2.676832E0,-7.2689214E0,-2.8232036E0,-6.5535027E-1,-7.71094E-1,5.07936E-2,-6.515791E-1,3.2679984E-1,-3.7976135E-2,-5.3015727E-1,-8.551985E-1,-1.9269817E-1,-6.164657E-1],"categories":[],"categories_nodes":[],"categories_segments":[],"categories_sizes":[],"default_left":[0,0,0,0,0,0,0,0,0,0,0,0,0,0,0,0,0,0,0,0,0,0,0,0,0],"id":2,"left_children":[1,3,5,7,9,11,13,-1,15,-1,-1,17,19,21,23,-1,-1,-1,-1,-1,-1,-1,-1,-1,-1],"loss_changes":[4.3101855E4,3.4752344E2,2.8171633E4,5.094961E2,5.618728E2,7.7004277E3,3.5269902E3,0E0,8.086914E0,0E0,0E0,3.9215684E3,5.9786523E3,6.4125195E2,1.5663188E3,0E0,0E0,0E0,0E0,0E0,0E0,0E0,0E0,0E0,0E0],"parents":[2147483647,0,0,1,1,2,2,3,3,4,4,5,5,6,6,8,8,11,11,12,12,13,13,14,14],"right_children":[2,4,6,8,10,12,14,-1,16,-1,-1,18,20,22,24,-1,-1,-1,-1,-1,-1,-1,-1,-1,-1],"split_conditions":[4E0,3E0,2.1E1,5E0,2E0,6E0,4E0,-9.5903105E-1,1E0,-1.9739632E-1,-8.1985873E-1,5E0,1.9E1,2.2E1,2.3E1,-6.5535027E-1,-7.71094E-1,5.07936E-2,-6.515791E-1,3.2679984E-1,-3.7976135E-2,-5.3015727E-1,-8.551985E-1,-1.9269817E-1,-6.164657E-1],"split_indices":[1,1,1,0,0,1,0,0,1,0,0,0,1,1,1,0,0,0,0,0,0,0,0,0,0],"split_type":[0,0,0,0,0,0,0,0,0,0,0,0,0,0,0,0,0,0,0,0,0,0,0,0,0],"sum_hessian":[4.984E3,5.54E2,4.43E3,4.91E2,6.3E1,3.633E3,7.97E2,2.66E2,2.25E2,2.4E1,3.9E1,3.26E2,3.307E3,2.71E2,5.26E2,6.5E1,1.6E2,1.91E2,1.35E2,2.771E3,5.36E2,1.09E2,1.62E2,4.16E2,1.1E2],"tree_param":{"num_deleted":"0","num_feature":"2","num_nodes":"25","size_leaf_vector":"1"}},{"base_weights":[-3.087363E-3,-7.4848843E0,9.340375E-1,-7.751077E0,-5.321572E0,1.9976312E0,-3.9106162E0,-8.6348706E-1,-6.672653E0,-1.784463E-1,-7.399226E-1,-1.5146059E0,2.5033307E0,-6.5471225E0,-2.5424182E0,-5.9080815E-1,-6.944635E-1,1.7563611E-1,-5.7056254E-1,3.0809006E-1,-3.4185585E-2,-4.7762355E-1,-7.702033E-1,-1.6639136E-1,-5.6067175E-1],"categories":[],"categories_nodes":[],"categories_segments":[],"categories_sizes":[],"default_left":[0,0,0,0,0,0,0,0,0,0,0,0,0,0,0,0,0,0,0,0,0,0,0,0,0],"id":3,"left_children":[1,3,5,7,9,11,13,-1,15,-1,-1,17,19,21,23,-1,-1,-1,-1,-1,-1,-1,-1,-1,-1],"loss_changes":[3.495871E4,2.7835156E2,2.2839617E4,4.113125E2,4.5712524E2,6.4582705E3,2.8619492E3,0E0,5.966797E0,0E0,0E0,6.2885996E3,5.221797E3,5.195127E2,1.4093547E3,0E0,0E0,0E0,0E0,0E0,0E0,0E0,0E0,0E0,0E0],"parents":[2147483647,0,0,1,1,2,2,3,3,4,4,5,5,6,6,8,8,11,11,12,12,13,13,14,14],"right_children":[2,4,6,8,10,12,14,-1,16,-1,-1,18,20,22,24,-1,-1,-1,-1,-1,-1,-1,-1,-1,-1],"split_conditions":[4E0,3E0,2.1E1,5E0,2E0,7E0,4E0,-8.6348706E-1,1E0,-1.784463E-1,-7.399226E-1,5E0,1.9E1,2.2E1,7E0,-5.9080815E-1,-6.944635E-1,1.7563611E-1,-5.7056254E-1,3.0809006E-1,-3.4185585E-2,-4.7762355E-1,-7.702033E-1,-1.6639136E-1,-5.6067175E-1],"split_indices":[1,1,1,0,0,1,0,0,1,0,0,0,1,1,0,0,0,0,0,0,0,0,0,0,0],"split_type":[0,0,0,0,0,0,0,0,0,0,0,0,0,0,0,0,0,0,0,0,0,0,0,0,0],"sum_hessian":[4.984E3,5.54E2,4.43E3,4.91E2,6.3E1,3.633E3,7.97E2,2.66E2,2.25E2,2.4E1,3.9E1,4.57E2,3.176E3,2.71E2,5.26E2,6.5E1,1.6E2,2.57E2,2E2,2.64E3,5.36E2,1.09E2,1.62E2,4.1E2,1.16E2],"tree_param":{"num_deleted":"0","num_feature":"2","num_nodes":"25","size_leaf_vector":"1"}},{"base_weights":[-3.8144344E-3,-6.741922E0,8.401606E-1,-6.9803367E0,-4.8037643E0,1.7978346E0,-3.5220292E0,-7.774617E-1,-6.011075E0,-1.6131549E-1,-6.677801E-1,-2.039397E0,2.1766064E0,-5.8969975E0,-2.289556E0,-5.326225E-1,-6.2544847E-1,2.826855E-2,-5.302636E-1,2.657095E-1,-3.077341E-2,-4.3029538E-1,-6.9365543E-1,-1.4817654E-1,-5.303603E-1],"categories":[],"categories_nodes":[],"categories_segments":[],"categories_sizes":[],"default_left":[0,0,0,0,0,0,0,0,0,0,0,0,0,0,0,0,0,0,0,0,0,0,0,0,0],"id":4,"left_children":[1,3,5,7,9,11,13,-1,15,-1,-1,17,19,21,23,-1,-1,-1,-1,-1,-1,-1,-1,-1,-1],"loss_changes":[2.8354336E4,2.2292383E2,1.851708E4,3.3204102E2,3.7190417E2,5.2862227E3,2.3223115E3,0E0,4.361328E0,0E0,0E0,2.4793447E3,3.9495664E3,4.208838E2,1.2752378E3,0E0,0E0,0E0,0E0,0E0,0E0,0E0,0E0,0E0,0E0],"parents":[2147483647,0,0,1,1,2,2,3,3,4,4,5,5,6,6,8,8,11,11,12,12,13,13,14,14],"right_children":[2,4,6,8,10,12,14,-1,16,-1,-1,18,20,22,24,-1,-1,-1,-1,-1,-1,-1,-1,-1,-1],"split_conditions":[4E0,3E0,2.1E1,5E0,2E0,6E0,4E0,-7.774617E-1,1E0,-1.6131549E-1,-6.677801E-1,5E0,1.9E1,2.2E1,2.3E1,-5.326225E-1,-6.2544847E-1,2.826855E-2,-5.302636E-1,2.657095E-1,-3.077341E-2,-4.3029538E-1,-6.9365543E-1,-1.4817654E-1,-5.303603E-1],"split_indices":[1,1,1,0,0,1,0,0,1,0,0,0,1,1,1,0,0,0,0,0,0,0,0,0,0],"split_type":[0,0,0,0,0,0,0,0,0,0,0,0,0,0,0,0,0,0,0,0,0,0,0,0,0],"sum_hessian":[4.984E3,5.54E2,4.43E3,4.91E2,6.3E1,3.633E3,7.97E2,2.66E2,2.25E2,2.4E1,3.9E1,3.26E2,3.307E3,2.71E2,5.26E2,6.5E1,1.6E2,1.91E2,1.35E2,2.771E3,5.36E2,1.09E2,1.62E2,4.16E2,1.1E2],"tree_param":{"num_deleted":"0","num_feature":"2","num_nodes":"25","size_leaf_vector":"1"}},{"base_weights":[-4.4029513E-3,-6.072711E0,7.556772E-1,-6.2862372E0,-4.3363423E0,1.7894365E0,-2.5254188E0,-7.000067E-1,-5.4150915E0,-1.4582917E-1,-6.0267156E-1,-5.306086E-1,2.4458218E0,-1.1254234E0,-4.3692436E0,-4.801673E-1,-5.6329215E-1,2.3519821E-1,-3.9442042E-1,2.9025707E-1,6.9157355E-2,-3.149585E-1,3.942103E-3,-6.247155E-1,-3.320363E-1],"categories":[],"categories_nodes":[],"categories_segments":[],"categories_sizes":[],"default_left":[0,0,0,0,0,0,0,0,0,0,0,0,0,0,0,0,0,0,0,0,0,0,0,0,0],"id":5,"left_children":[1,3,5,7,9,11,13,-1,15,-1,-1,17,19,21,23,-1,-1,-1,-1,-1,-1,-1,-1,-1,-1],"loss_changes":[2.2997408E4,1.7851172E2,1.5033865E4,2.6804492E2,3.0257007E2,5.1332803E3,2.7364727E3,0E0,3.150879E0,0E0,0E0,7.3302354E3,2.10288E3,1.4266133E3,8.8138184E2,0E0,0E0,0E0,0E0,0E0,0E0,0E0,0E0,0E0,0E0],"parents":[2147483647,0,0,1,1,2,2,3,3,4,4,5,5,6,6,8,8,11,11,12,12,13,13,14,14],"right_children":[2,4,6,8,10,12,14,-1,16,-1,-1,18,20,22,24,-1,-1,-1,-1,-1,-1,-1,-1,-1,-1],"split_conditions":[4E0,3E0,2E1,5E0,2E0,9E0,2.2E1,-7.000067E-1,1E0,-1.4582917E-1,-6.0267156E-1,5E0,1.8E1,4E0,4E0,-4.801673E-1,-5.6329215E-1,2.3519821E-1,-3.9442042E-1,2.9025707E-1,6.9157355E-2,-3.149585E-1,3.942103E-3,-6.247155E-1,-3.320363E-1],"split_indices":[1,1,1,0,0,1,1,0,1,0,0,0,1,0,0,0,0,0,0,0,0,0,0,0,0],"split_type":[0,0,0,0,0,0,0,0,0,0,0,0,0,0,0,0,0,0,0,0,0,0,0,0,0],"sum_hessian":[4.984E3,5.54E2,4.43E3,4.91E2,6.3E1,3.369E3,1.061E3,2.66E2,2.25E2,2.4E1,3.9E1,7.43E2,2.626E3,6.04E2,4.57E2,6.5E1,1.6E2,4.03E2,3.4E2,2.083E3,5.43E2,2.2E2,3.84E2,1.62E2,2.95E2],"tree_param":{"num_deleted":"0","num_feature":"2","num_nodes":"25","size_leaf_vector":"1"}},{"base_weights":[-4.676956E-3,-5.4699297E0,6.798683E-1,-5.661157E0,-3.9144034E0,1.4615427E0,-2.8806388E0,-6.302683E-1,-4.8781996E0,-1.3182956E-1,-5.439111E-1,-1.255238E0,1.852737E0,-4.813142E0,-1.8777518E0,-4.3287808E-1,-5.073128E-1,1.2582193E-1,-4.4752216E-1,2.2791965E-1,-2.4806796E-2,-3.5644752E-1,-5.626272E-1,-1.09341405E-1,-4.6169406E-1],"categories":[],"categories_nodes":[],"categories_segments":[],"categories_sizes":[],"default_left":[0,0,0,0,0,0,0,0,0,0,0,0,0,0,0,0,0,0,0,0,0,0,0,0,0],"id":6,"left_children":[1,3,5,7,9,11,13,-1,15,-1,-1,17,19,21,23,-1,-1,-1,-1,-1,-1,-1,-1,-1,-1],"loss_changes":[1.8653666E4,1.4292773E2,1.233638E4,2.1638086E2,2.461612E2,3.8645E3,1.5375518E3,0E0,2.243164E0,0E0,0E0,3.7123586E3,2.8468662E3,2.5611475E2,1.1271844E3,0E0,0E0,0E0,0E0,0E0,0E0,0E0,0E0,0E0,0E0],"parents":[2147483647,0,0,1,1,2,2,3,3,4,4,5,5,6,6,8,8,11,11,12,12,13,13,14,14],"right_children":[2,4,6,8,10,12,14,-1,16,-1,-1,18,20,22,24,-1,-1,-1,-1,-1,-1,-1,-1,-1,-1],"split_conditions":[4E0,3E0,2.1E1,5E0,2E0,7E0,4E0,-6.302683E-1,1E0,-1.3182956E-1,-5.439111E-1,5E0,1.9E1,2.2E1,7E0,-4.3287808E-1,-5.073128E-1,1.2582193E-1,-4.4752216E-1,2.2791965E-1,-2.4806796E-2,-3.5644752E-1,-5.626272E-1,-1.09341405E-1,-4.6169406E-1],"split_indices":[1,1,1,0,0,1,0,0,1,0,0,0,1,1,0,0,0,0,0,0,0,0,0,0,0],"split_type":[0,0,0,0,0,0,0,0,0,0,0,0,0,0,0,0,0,0,0,0,0,0,0,0,0],"sum_hessian":[4.984E3,5.54E2,4.43E3,4.91E2,6.3E1,3.633E3,7.97E2,2.66E2,2.25E2,2.4E1,3.9E1,4.57E2,3.176E3,2.71E2,5.26E2,6.5E1,1.6E2,2.57E2,2E2,2.64E3,5.36E2,1.09E2,1.62E2,4.1E2,1.16E2],"tree_param":{"num_deleted":"0","num_feature":"2","num_nodes":"25","size_leaf_vector":"1"}},{"base_weights":[-4.9824785E-3,-4.9269843E0,6.115185E-1,-5.098233E0,-3.5335217E0,1.3153559E0,-2.5944421E0,-5.6747746E-1,-4.3945394E0,-1.1917396E-1,-4.9087977E-1,-1.7002726E0,1.613057E0,-4.335207E0,-1.6910601E0,-3.9024612E-1,-4.568966E-1,-1.0457597E-2,-3.9405188E-1,2.0066784E-1,-1.0352543E-2,-3.2112682E-1,-5.067097E-1,-1.0020057E-1,-4.264435E-1],"categories":[],"categories_nodes":[],"categories_segments":[],"categories_sizes":[],"default_left":[0,0,0,0,0,0,0,0,0,0,0,0,0,0,0,0,0,0,0,0,0,0,0,0,0],"id":7,"left_children":[1,3,5,7,9,11,13,-1,15,-1,-1,17,19,21,23,-1,-1,-1,-1,-1,-1,-1,-1,-1,-1],"loss_changes":[1.5129591E4,1.14424805E2,1.0001854E4,1.746709E2,2.0026819E2,3.265187E3,1.247584E3,0E0,1.5678711E0,0E0,0E0,1.1685322E3,2.2353682E3,2.074751E2,9.302009E2,0E0,0E0,0E0,0E0,0E0,0E0,0E0,0E0,0E0,0E0],"parents":[2147483647,0,0,1,1,2,2,3,3,4,4,5,5,6,6,8,8,11,11,12,12,13,13,14,14],"right_children":[2,4,6,8,10,12,14,-1,16,-1,-1,18,20,22,24,-1,-1,-1,-1,-1,-1,-1,-1,-1,-1],"split_conditions":[4E0,3E0,2.1E1,5E0,2E0,6E0,4E0,-5.6747746E-1,1E0,-1.1917396E-1,-4.9087977E-1,5E0,7E0,2.2E1,2.3E1,-3.9024612E-1,-4.568966E-1,-1.0457597E-2,-3.9405188E-1,2.0066784E-1,-1.0352543E-2,-3.2112682E-1,-5.067097E-1,-1.0020057E-1,-4.264435E-1],"split_indices":[1,1,1,0,0,1,0,0,1,0,0,0,0,1,1,0,0,0,0,0,0,0,0,0,0],"split_type":[0,0,0,0,0,0,0,0,0,0,0,0,0,0,0,0,0,0,0,0,0,0,0,0,0],"sum_hessian":[4.984E3,5.54E2,4.43E3,4.91E2,6.3E1,3.633E3,7.97E2,2.66E2,2.25E2,2.4E1,3.9E1,3.26E2,3.307E3,2.71E2,5.26E2,6.5E1,1.6E2,1.91E2,1.35E2,2.69E3,6.17E2,1.09E2,1.62E2,4.16E2,1.1E2],"tree_param":{"num_deleted":"0","num_feature":"2","num_nodes":"25","size_leaf_vector":"1"}},{"base_weights":[-5.2049197E-3,-4.437934E0,5.500128E-1,-4.591285E0,-3.1897016E0,1.454299E0,-1.5504583E0,-5.1094234E-1,-3.9588337E0,-1.0773324E-1,-4.4301897E-1,-5.0696766E-1,2.0732918E0,-6.423723E-1,-3.285919E0,-3.5181275E-1,-4.1149068E-1,1.8546025E-1,-3.303353E-1,2.8903624E-1,1.407984E-1,-2.4111083E-1,3.337549E-2,-4.993383E-1,-2.6921785E-1],"categories":[],"categories_nodes":[],"categories_segments":[],"categories_sizes":[],"default_left":[0,0,0,0,0,0,0,0,0,0,0,0,0,0,0,0,0,0,0,0,0,0,0,0,0],"id":8,"left_children":[1,3,5,7,9,11,13,-1,15,-1,-1,17,19,21,23,-1,-1,-1,-1,-1,-1,-1,-1,-1,-1],"loss_changes":[1.2271172E4,9.15918E1,8.418615E3,1.41E2,1.6293079E2,3.7620537E3,2.1002031E3,0E0,1.0678711E0,0E0,0E0,4.9193984E3,1.2761162E3,1.5149552E3,4.5087305E2,0E0,0E0,0E0,0E0,0E0,0E0,0E0,0E0,0E0,0E0],"parents":[2147483647,0,0,1,1,2,2,3,3,4,4,5,5,6,6,8,8,11,11,12,12,13,13,14,14],"right_children":[2,4,6,8,10,12,14,-1,16,-1,-1,18,20,22,24,-1,-1,-1,-1,-1,-1,-1,-1,-1,-1],"split_conditions":[4E0,3E0,1.9E1,5E0,2E0,9E0,2.2E1,-5.1094234E-1,1E0,-1.0773324E-1,-4.4301897E-1,5E0,5E0,4E0,3E0,-3.5181275E-1,-4.1149068E-1,1.8546025E-1,-3.303353E-1,2.8903624E-1,1.407984E-1,-2.4111083E-1,3.337549E-2,-4.993383E-1,-2.6921785E-1],"split_indices":[1,1,1,0,0,1,1,0,1,0,0,0,0,0,0,0,0,0,0,0,0,0,0,0,0],"split_type":[0,0,0,0,0,0,0,0,0,0,0,0,0,0,0,0,0,0,0,0,0,0,0,0,0],"sum_hessian":[4.984E3,5.54E2,4.43E3,4.91E2,6.3E1,3.097E3,1.333E3,2.66E2,2.25E2,2.4E1,3.9E1,7.43E2,2.354E3,8.76E2,4.57E2,6.5E1,1.6E2,4.03E2,3.4E2,1.055E3,1.299E3,3.11E2,5.65E2,1.16E2,3.41E2],"tree_param":{"num_deleted":"0","num_feature":"2","num_nodes":"25","size_leaf_vector":"1"}},{"base_weights":[-5.1892204E-3,-3.0762715E0,6.539164E-1,-3.9974287E0,-1.5034319E0,1.6402539E0,-1.3961445E0,-4.1347466E0,-2.879337E0,-7.1371925E-1,-4.3926096E-1,2.740783E0,7.119408E-1,-5.783721E-1,-2.9590054E0,-4.6003944E-1,-3.566328E-1,-9.7390905E-2,-3.9982462E-1,-2.2743578E-1,-1.9784957E-2,2.9863164E-1,7.086172E-2,-3.7808836E-1,1.15022555E-1,-2.1707702E-1,3.004381E-2,-4.4983125E-1,-2.4237482E-1],"categories":[],"categories_nodes":[],"categories_segments":[],"categories_sizes":[],"default_left":[0,0,0,0,0,0,0,0,0,0,0,0,0,0,0,0,0,0,0,0,0,0,0,0,0,0,0,0,0],"id":9,"left_children":[1,3,5,7,9,11,13,15,17,19,-1,21,23,25,27,-1,-1,-1,-1,-1,-1,-1,-1,-1,-1,-1,-1,-1,-1],"loss_changes":[1.0092487E4,1.2704111E3,8.302813E3,7.330664E1,7.429548E2,2.830023E3,1.7032266E3,1.1381738E2,1.3255414E2,2.0726227E2,0E0,6.305703E2,2.9678982E3,1.2279398E3,3.6645508E2,0E0,0E0,0E0,0E0,0E0,0E0,0E0,0E0,0E0,0E0,0E0,0E0,0E0,0E0],"parents":[2147483647,0,0,1,1,2,2,3,3,4,4,5,5,6,6,7,7,8,8,9,9,11,11,12,12,13,13,14,14],"right_children":[2,4,6,8,10,12,14,16,18,20,-1,22,24,26,28,-1,-1,-1,-1,-1,-1,-1,-1,-1,-1,-1,-1,-1,-1],"split_conditions":[6E0,4E0,1.9E1,3E0,7E0,5E0,2.2E1,5E0,2E0,2E0,-4.3926096E-1,1.8E1,8E0,4E0,3E0,-4.6003944E-1,-3.566328E-1,-9.7390905E-2,-3.9982462E-1,-2.2743578E-1,-1.9784957E-2,2.9863164E-1,7.086172E-2,-3.7808836E-1,1.15022555E-1,-2.1707702E-1,3.004381E-2,-4.4983125E-1,-2.4237482E-1],"split_indices":[1,1,1,1,0,0,1,0,0,0,0,1,1,0,0,0,0,0,0,0,0,0,0,0,0,0,0,0,0],"split_type":[0,0,0,0,0,0,0,0,0,0,0,0,0,0,0,0,0,0,0,0,0,0,0,0,0,0,0,0,0],"sum_hessian":[4.984E3,8.8E2,4.104E3,5.54E2,3.26E2,2.771E3,1.333E3,4.91E2,6.3E1,2.57E2,6.9E1,1.267E3,1.504E3,8.76E2,4.57E2,2.66E2,2.25E2,2.4E1,3.9E1,6.3E1,1.94E2,1.13E3,1.37E2,1.33E2,1.371E3,3.11E2,5.65E2,1.16E2,3.41E2],"tree_param":{"num_deleted":"0","num_feature":"2","num_nodes":"29","size_leaf_vector":"1"}},{"base_weights":[-5.22662E-3,-2.7709148E0,5.8833647E-1,-3.600053E0,-1.3551881E0,1.4762667E0,-1.257189E0,-3.7229319E0,-2.5991724E0,-1.908491E-1,-2.9889963E0,2.466996E0,6.4057183E-1,-5.207479E-1,-2.6646163E0,-4.1420776E-1,-3.2112733E-1,-8.804135E-2,-3.6084172E-1,-2.0504753E-1,7.332357E-2,-1.9302954E-1,-3.9596245E-1,2.6879486E-1,6.382688E-2,-2.5922665E-1,1.1523596E-1,-2.3749264E-1,1.0752697E-2,-2.2538772E-1,-4.732073E-1],"categories":[],"categories_nodes":[],"categories_segments":[],"categories_sizes":[],"default_left":[0,0,0,0,0,0,0,0,0,0,0,0,0,0,0,0,0,0,0,0,0,0,0,0,0,0,0,0,0,0,0],"id":10,"left_children":[1,3,5,7,9,11,13,15,17,19,21,23,25,27,29,-1,-1,-1,-1,-1,-1,-1,-1,-1,-1,-1,-1,-1,-1,-1,-1],"loss_changes":[8.185058E3,1.0292686E3,6.728711E3,5.8581055E1,6.214839E2,2.2934897E3,1.3812864E3,9.221387E1,1.0784064E2,3.3144635E2,1.3211084E2,5.1063574E2,2.4930505E3,1.0219021E3,3.7826147E2,0E0,0E0,0E0,0E0,0E0,0E0,0E0,0E0,0E0,0E0,0E0,0E0,0E0,0E0,0E0,0E0],"parents":[2147483647,0,0,1,1,2,2,3,3,4,4,5,5,6,6,7,7,8,8,9,9,10,10,11,11,12,12,13,13,14,14],"right_children":[2,4,6,8,10,12,14,16,18,20,22,24,26,28,30,-1,-1,-1,-1,-1,-1,-1,-1,-1,-1,-1,-1,-1,-1,-1,-1],"split_conditions":[6E0,4E0,1.9E1,3E0,5E0,5E0,2.2E1,5E0,2E0,2E0,7E0,1.8E1,9E0,3E0,7E0,-4.1420776E-1,-3.2112733E-1,-8.804135E-2,-3.6084172E-1,-2.0504753E-1,7.332357E-2,-1.9302954E-1,-3.9596245E-1,2.6879486E-1,6.382688E-2,-2.5922665E-1,1.1523596E-1,-2.3749264E-1,1.0752697E-2,-2.2538772E-1,-4.732073E-1],"split_indices":[1,1,1,1,0,0,1,0,0,0,0,1,1,0,0,0,0,0,0,0,0,0,0,0,0,0,0,0,0,0,0],"split_type":[0,0,0,0,0,0,0,0,0,0,0,0,0,0,0,0,0,0,0,0,0,0,0,0,0,0,0,0,0,0,0],"sum_hessian":[4.984E3,8.8E2,4.104E3,5.54E2,3.26E2,2.771E3,1.333E3,4.91E2,6.3E1,1.91E2,1.35E2,1.267E3,1.504E3,8.76E2,4.57E2,2.66E2,2.25E2,2.4E1,3.9E1,6.3E1,1.28E2,6.6E1,6.9E1,1.13E3,1.37E2,2.05E2,1.299E3,2.21E2,6.55E2,3.83E2,7.4E1],"tree_param":{"num_deleted":"0","num_feature":"2","num_nodes":"31","size_leaf_vector":"1"}},{"base_weights":[-5.2339705E-3,-2.4959855E0,5.293232E-1,-3.2421813E0,-1.2218732E0,1.3287079E0,-1.1321639E0,-3.352133E0,-2.346269E0,-1.7244995E-1,-2.6944273E0,2.2205586E0,5.764187E-1,-2.3880827E0,-4.3943712E-1,-3.729421E-1,-2.8915668E-1,-7.958939E-2,-3.2565966E-1,-1.8486318E-1,6.604809E-2,-1.740147E-1,-3.569318E-1,1.8709028E-1,3.4038636E-1,-3.148325E-1,9.397855E-2,-1.7892666E-1,-3.5196325E-1,2.2101182E-2,-2.2523253E-1],"categories":[],"categories_nodes":[],"categories_segments":[],"categories_sizes":[],"default_left":[0,0,0,0,0,0,0,0,0,0,0,0,0,0,0,0,0,0,0,0,0,0,0,0,0,0,0,0,0,0,0],"id":11,"left_children":[1,3,5,7,9,11,13,15,17,19,21,23,25,27,29,-1,-1,-1,-1,-1,-1,-1,-1,-1,-1,-1,-1,-1,-1,-1,-1],"loss_changes":[6.6385947E3,8.336382E2,5.4536313E3,4.6806152E1,5.0485913E2,1.8585371E3,1.1595422E3,7.470947E1,8.773447E1,2.6928052E2,1.0733411E2,5.182661E2,2.0398982E3,3.1488013E2,1.0313903E3,0E0,0E0,0E0,0E0,0E0,0E0,0E0,0E0,0E0,0E0,0E0,0E0,0E0,0E0,0E0,0E0],"parents":[2147483647,0,0,1,1,2,2,3,3,4,4,5,5,6,6,7,7,8,8,9,9,10,10,11,11,12,12,13,13,14,14],"right_children":[2,4,6,8,10,12,14,16,18,20,22,24,26,28,30,-1,-1,-1,-1,-1,-1,-1,-1,-1,-1,-1,-1,-1,-1,-1,-1],"split_conditions":[6E0,4E0,1.9E1,3E0,5E0,5E0,4E0,5E0,2E0,2E0,7E0,4E0,8E0,2.2E1,7E0,-3.729421E-1,-2.8915668E-1,-7.958939E-2,-3.2565966E-1,-1.8486318E-1,6.604809E-2,-1.740147E-1,-3.569318E-1,1.8709028E-1,3.4038636E-1,-3.148325E-1,9.397855E-2,-1.7892666E-1,-3.5196325E-1,2.2101182E-2,-2.2523253E-1],"split_indices":[1,1,1,1,0,0,0,0,0,0,0,0,1,1,0,0,0,0,0,0,0,0,0,0,0,0,0,0,0,0,0],"split_type":[0,0,0,0,0,0,0,0,0,0,0,0,0,0,0,0,0,0,0,0,0,0,0,0,0,0,0,0,0,0,0],"sum_hessian":[4.984E3,8.8E2,4.104E3,5.54E2,3.26E2,2.771E3,1.333E3,4.91E2,6.3E1,1.91E2,1.35E2,1.267E3,1.504E3,4.73E2,8.6E2,2.66E2,2.25E2,2.4E1,3.9E1,6.3E1,1.28E2,6.6E1,6.9E1,9.8E2,2.87E2,1.33E2,1.371E3,3.11E2,1.62E2,6.31E2,2.29E2],"tree_param":{"num_deleted":"0","num_feature":"2","num_nodes":"31","size_leaf_vector":"1"}},{"base_weights":[-5.140789E-3,-2.2483358E0,4.7628674E-1,-2.9198864E0,-1.1016726E0,1.0970538E0,-1.30346E0,-3.0182655E0,-2.1179738E0,-1.5582354E-1,-2.4288886E0,1.7645574E0,5.2603996E-1,-5.851599E-1,-2.24946E0,-3.357876E-1,-2.6036894E-1,-7.194877E-2,-2.9390785E-1,-1.6666572E-1,5.9494525E-2,-1.5687293E-1,-3.2174855E-1,2.199666E-1,-4.4499696E-3,-2.1638794E-1,9.112851E-2,-1.7948018E-1,1.1072579E-2,-1.8933119E-1,-4.0429458E-1],"categories":[],"categories_nodes":[],"categories_segments":[],"categories_sizes":[],"default_left":[0,0,0,0,0,0,0,0,0,0,0,0,0,0,0,0,0,0,0,0,0,0,0,0,0,0,0,0,0,0,0],"id":12,"left_children":[1,3,5,7,9,11,13,15,17,19,21,23,25,27,29,-1,-1,-1,-1,-1,-1,-1,-1,-1,-1,-1,-1,-1,-1,-1,-1],"loss_changes":[5.3845513E3,6.7518994E2,4.536667E3,3.739209E1,4.101196E2,1.159304E3,7.203253E2,6.052832E1,7.137677E1,2.1877463E2,8.720404E1,1.1044507E3,1.7035411E3,5.0947104E2,2.848916E2,0E0,0E0,0E0,0E0,0E0,0E0,0E0,0E0,0E0,0E0,0E0,0E0,0E0,0E0,0E0,0E0],"parents":[2147483647,0,0,1,1,2,2,3,3,4,4,5,5,6,6,7,7,8,8,9,9,10,10,11,11,12,12,13,13,14,14],"right_children":[2,4,6,8,10,12,14,16,18,20,22,24,26,28,30,-1,-1,-1,-1,-1,-1,-1,-1,-1,-1,-1,-1,-1,-1,-1,-1],"split_conditions":[6E0,4E0,2E1,3E0,5E0,5E0,2.2E1,5E0,2E0,2E0,7E0,1.8E1,9E0,4E0,7E0,-3.357876E-1,-2.6036894E-1,-7.194877E-2,-2.9390785E-1,-1.6666572E-1,5.9494525E-2,-1.5687293E-1,-3.2174855E-1,2.199666E-1,-4.4499696E-3,-2.1638794E-1,9.112851E-2,-1.7948018E-1,1.1072579E-2,-1.8933119E-1,-4.0429458E-1],"split_indices":[1,1,1,1,0,0,1,0,0,0,0,1,1,0,0,0,0,0,0,0,0,0,0,0,0,0,0,0,0,0,0],"split_type":[0,0,0,0,0,0,0,0,0,0,0,0,0,0,0,0,0,0,0,0,0,0,0,0,0,0,0,0,0,0,0],"sum_hessian":[4.984E3,8.8E2,4.104E3,5.54E2,3.26E2,3.043E3,1.061E3,4.91E2,6.3E1,1.91E2,1.35E2,1.402E3,1.641E3,6.04E2,4.57E2,2.66E2,2.25E2,2.4E1,3.9E1,6.3E1,1.28E2,6.6E1,6.9E1,1.13E3,2.72E2,2.05E2,1.436E3,2.2E2,3.84E2,3.83E2,7.4E1],"tree_param":{"num_deleted":"0","num_feature":"2","num_nodes":"31","size_leaf_vector":"1"}},{"base_weights":[-5.0721993E-3,-2.0252593E0,4.2849413E-1,-2.629631E0,-9.932969E-1,9.873775E-1,-1.1738312E0,-2.7176507E0,-1.9118929E0,-1.407996E-1,-2.189519E0,1.2682766E0,-2.1839882E-1,-2.5008206E0,-7.205388E-1,-3.0233458E-1,-2.3444727E-1,-6.504166E-2,-2.6525185E-1,-1.5025952E-1,5.359114E-2,-1.414198E-1,-2.900333E-1,1.443459E-1,4.2235646E-2,-3.2721713E-1,2.1052655E-2,-1.883341E-1,-3.292197E-1,-2.3731679E-2,-2.6458558E-1],"categories":[],"categories_nodes":[],"categories_segments":[],"categories_sizes":[],"default_left":[0,0,0,0,0,0,0,0,0,0,0,0,0,0,0,0,0,0,0,0,0,0,0,0,0,0,0,0,0,0,0],"id":13,"left_children":[1,3,5,7,9,11,13,15,17,19,21,23,25,27,29,-1,-1,-1,-1,-1,-1,-1,-1,-1,-1,-1,-1,-1,-1,-1,-1],"loss_changes":[4.367155E3,5.4685815E2,3.6772405E3,2.9865967E1,3.3315854E2,1.0312839E3,6.3700635E2,4.9038574E1,5.8068787E1,1.7774133E2,7.084918E1,3.6527222E2,7.55157E2,1.2573743E2,7.3714404E2,0E0,0E0,0E0,0E0,0E0,0E0,0E0,0E0,0E0,0E0,0E0,0E0,0E0,0E0,0E0,0E0],"parents":[2147483647,0,0,1,1,2,2,3,3,4,4,5,5,6,6,7,7,8,8,9,9,10,10,11,11,12,12,13,13,14,14],"right_children":[2,4,6,8,10,12,14,16,18,20,22,24,26,28,30,-1,-1,-1,-1,-1,-1,-1,-1,-1,-1,-1,-1,-1,-1,-1,-1],"split_conditions":[6E0,4E0,2E1,3E0,5E0,7E0,3E0,5E0,2E0,2E0,7E0,1.8E1,9E0,2.2E1,7E0,-3.0233458E-1,-2.3444727E-1,-6.504166E-2,-2.6525185E-1,-1.5025952E-1,5.359114E-2,-1.414198E-1,-2.900333E-1,1.443459E-1,4.2235646E-2,-3.2721713E-1,2.1052655E-2,-1.883341E-1,-3.292197E-1,-2.3731679E-2,-2.6458558E-1],"split_indices":[1,1,1,1,0,0,0,0,0,0,0,1,1,1,0,0,0,0,0,0,0,0,0,0,0,0,0,0,0,0,0],"split_type":[0,0,0,0,0,0,0,0,0,0,0,0,0,0,0,0,0,0,0,0,0,0,0,0,0,0,0,0,0,0,0],"sum_hessian":[4.984E3,8.8E2,4.104E3,5.54E2,3.26E2,3.043E3,1.061E3,4.91E2,6.3E1,1.91E2,1.35E2,2.468E3,5.75E2,2.69E2,7.92E2,2.66E2,2.25E2,2.4E1,3.9E1,6.3E1,1.28E2,6.6E1,6.9E1,2.044E3,4.24E2,7E1,5.05E2,1.53E2,1.16E2,6.34E2,1.58E2],"tree_param":{"num_deleted":"0","num_feature":"2","num_nodes":"31","size_leaf_vector":"1"}},{"base_weights":[-5.0307354E-3,-1.8243167E0,3.8541895E-1,-2.36823E0,-8.9558214E-1,8.095715E-1,-1.3733305E0,-2.4469764E0,-1.7258646E0,-1.2722275E-1,-1.9737396E0,1.062554E0,-2.933173E-1,-2.3478847E0,-8.6772895E-1,-2.7221432E-1,-2.1110626E-1,-5.879767E-2,-2.393898E-1,-1.354683E-1,4.8273604E-2,-1.2748893E-1,-2.614443E-1,1.2991832E-1,3.1298753E-2,-2.949563E-1,5.136657E-3,-1.7445031E-1,-2.7406704E-1,-3.5560157E-2,-2.659324E-1],"categories":[],"categories_nodes":[],"categories_segments":[],"categories_sizes":[],"default_left":[0,0,0,0,0,0,0,0,0,0,0,0,0,0,0,0,0,0,0,0,0,0,0,0,0,0,0,0,0,0,0],"id":14,"left_children":[1,3,5,7,9,11,13,15,17,19,21,23,25,27,29,-1,-1,-1,-1,-1,-1,-1,-1,-1,-1,-1,-1,-1,-1,-1,-1],"loss_changes":[3.5417463E3,4.4291748E2,3.063352E3,2.3850586E1,2.706398E2,9.2328174E2,3.9116602E2,3.972998E1,4.7241867E1,1.444044E2,5.7561707E1,4.768943E2,5.659707E2,5.968274E1,4.8258997E2,0E0,0E0,0E0,0E0,0E0,0E0,0E0,0E0,0E0,0E0,0E0,0E0,0E0,0E0,0E0,0E0],"parents":[2147483647,0,0,1,1,2,2,3,3,4,4,5,5,6,6,7,7,8,8,9,9,10,10,11,11,12,12,13,13,14,14],"right_children":[2,4,6,8,10,12,14,16,18,20,22,24,26,28,30,-1,-1,-1,-1,-1,-1,-1,-1,-1,-1,-1,-1,-1,-1,-1,-1],"split_conditions":[6E0,4E0,2.1E1,3E0,5E0,7E0,4E0,5E0,2E0,2E0,7E0,1.8E1,9E0,2.2E1,7E0,-2.7221432E-1,-2.1110626E-1,-5.879767E-2,-2.393898E-1,-1.354683E-1,4.8273604E-2,-1.2748893E-1,-2.614443E-1,1.2991832E-1,3.1298753E-2,-2.949563E-1,5.136657E-3,-1.7445031E-1,-2.7406704E-1,-3.5560157E-2,-2.659324E-1],"split_indices":[1,1,1,1,0,0,0,0,0,0,0,1,1,1,0,0,0,0,0,0,0,0,0,0,0,0,0,0,0,0,0],"split_type":[0,0,0,0,0,0,0,0,0,0,0,0,0,0,0,0,0,0,0,0,0,0,0,0,0,0,0,0,0,0,0],"sum_hessian":[4.984E3,8.8E2,4.104E3,5.54E2,3.26E2,3.307E3,7.97E2,4.91E2,6.3E1,1.91E2,1.35E2,2.69E3,6.17E2,2.71E2,5.26E2,2.66E2,2.25E2,2.4E1,3.9E1,6.3E1,1.28E2,6.6E1,6.9E1,2.044E3,6.46E2,7E1,5.47E2,1.09E2,1.62E2,4.1E2,1.16E2],"tree_param":{"num_deleted":"0","num_feature":"2","num_nodes":"31","size_leaf_vector":"1"}},{"base_weights":[-4.956457E-3,-1.6433126E0,3.4666273E-1,-2.1328151E0,-8.0748016E-1,7.2857505E-1,-1.2369372E0,-2.203261E0,-1.5579371E0,-1.14954896E-1,-1.7792256E0,9.563579E-1,-2.6445436E-1,-9.3923384E-1,-2.6920342E0,-2.4509482E-1,-1.9008903E-1,-5.3153075E-2,-2.160493E-1,-1.2213313E-1,4.348361E-2,-1.14930294E-1,-2.3567341E-1,1.1693279E-1,2.817369E-2,-2.0919669E-1,1.530623E-2,-2.0318237E-1,-2.8719181E-2,-2.2664939E-1,-4.473753E-1],"categories":[],"categories_nodes":[],"categories_segments":[],"categories_sizes":[],"default_left":[0,0,0,0,0,0,0,0,0,0,0,0,0,0,0,0,0,0,0,0,0,0,0,0,0,0,0,0,0,0,0],"id":15,"left_children":[1,3,5,7,9,11,13,15,17,19,21,23,25,27,29,-1,-1,-1,-1,-1,-1,-1,-1,-1,-1,-1,-1,-1,-1,-1,-1],"loss_changes":[2.8723157E3,3.5873193E2,2.4835903E3,1.9043945E1,2.1985281E2,7.4850635E2,3.4315503E2,3.2188477E1,3.8433517E1,1.1732003E2,4.6766266E1,3.8629688E2,4.718647E2,4.7245972E2,9.221637E1,0E0,0E0,0E0,0E0,0E0,0E0,0E0,0E0,0E0,0E0,0E0,0E0,0E0,0E0,0E0,0E0],"parents":[2147483647,0,0,1,1,2,2,3,3,4,4,5,5,6,6,7,7,8,8,9,9,10,10,11,11,12,12,13,13,14,14],"right_children":[2,4,6,8,10,12,14,16,18,20,22,24,26,28,30,-1,-1,-1,-1,-1,-1,-1,-1,-1,-1,-1,-1,-1,-1,-1,-1],"split_conditions":[6E0,4E0,2.1E1,3E0,5E0,7E0,2.3E1,5E0,2E0,2E0,7E0,1.8E1,1E1,4E0,7E0,-2.4509482E-1,-1.9008903E-1,-5.3153075E-2,-2.160493E-1,-1.2213313E-1,4.348361E-2,-1.14930294E-1,-2.3567341E-1,1.1693279E-1,2.817369E-2,-2.0919669E-1,1.530623E-2,-2.0318237E-1,-2.8719181E-2,-2.2664939E-1,-4.473753E-1],"split_indices":[1,1,1,1,0,0,1,0,0,0,0,1,1,0,0,0,0,0,0,0,0,0,0,0,0,0,0,0,0,0,0],"split_type":[0,0,0,0,0,0,0,0,0,0,0,0,0,0,0,0,0,0,0,0,0,0,0,0,0,0,0,0,0,0,0],"sum_hessian":[4.984E3,8.8E2,4.104E3,5.54E2,3.26E2,3.307E3,7.97E2,4.91E2,6.3E1,1.91E2,1.35E2,2.69E3,6.17E2,6.63E2,1.34E2,2.66E2,2.25E2,2.4E1,3.9E1,6.3E1,1.28E2,6.6E1,6.9E1,2.044E3,6.46E2,1.14E2,5.03E2,2.47E2,4.16E2,1.1E2,2.4E1],"tree_param":{"num_deleted":"0","num_feature":"2","num_nodes":"31","size_leaf_vector":"1"}},{"base_weights":[-4.87944E-3,-1.4802681E0,3.1176424E-1,-1.9208027E0,-7.280449E-1,8.012169E-1,-7.055331E-1,-1.9838194E0,-1.4063498E0,-1.0386912E-1,-1.603881E0,1.4437615E0,2.5932476E-1,-1.916235E0,-2.9437682E-1,-2.2067717E-1,-1.7116421E-1,-4.805038E-2,-1.9498448E-1,-1.1011064E-1,3.9168946E-2,-1.03608824E-1,-2.1244274E-1,1.1216574E-1,2.5359154E-1,-2.5805357E-1,5.364982E-2,-2.370181E-1,-1.3840805E-1,-3.5644134E-3,-2.3592554E-1],"categories":[],"categories_nodes":[],"categories_segments":[],"categories_sizes":[],"default_left":[0,0,0,0,0,0,0,0,0,0,0,0,0,0,0,0,0,0,0,0,0,0,0,0,0,0,0,0,0,0,0],"id":16,"left_children":[1,3,5,7,9,11,13,15,17,19,21,23,25,27,29,-1,-1,-1,-1,-1,-1,-1,-1,-1,-1,-1,-1,-1,-1,-1,-1],"loss_changes":[2.3293164E3,2.905476E2,2.0445225E3,1.5202637E1,1.7859636E2,9.6480786E2,6.634847E2,2.6078735E1,3.1267418E1,9.5315674E1,3.7995422E1,4.4322168E2,1.186021E3,7.836987E1,5.325647E2,0E0,0E0,0E0,0E0,0E0,0E0,0E0,0E0,0E0,0E0,0E0,0E0,0E0,0E0,0E0,0E0],"parents":[2147483647,0,0,1,1,2,2,3,3,4,4,5,5,6,6,7,7,8,8,9,9,10,10,11,11,12,12,13,13,14,14],"right_children":[2,4,6,8,10,12,14,16,18,20,22,24,26,28,30,-1,-1,-1,-1,-1,-1,-1,-1,-1,-1,-1,-1,-1,-1,-1,-1],"split_conditions":[6E0,4E0,1.9E1,3E0,5E0,5E0,3E0,5E0,2E0,2E0,7E0,4E0,8E0,2E0,2.3E1,-2.2067717E-1,-1.7116421E-1,-4.805038E-2,-1.9498448E-1,-1.1011064E-1,3.9168946E-2,-1.03608824E-1,-2.1244274E-1,1.1216574E-1,2.5359154E-1,-2.5805357E-1,5.364982E-2,-2.370181E-1,-1.3840805E-1,-3.5644134E-3,-2.3592554E-1],"split_indices":[1,1,1,1,0,0,0,0,0,0,0,0,1,0,1,0,0,0,0,0,0,0,0,0,0,0,0,0,0,0,0],"split_type":[0,0,0,0,0,0,0,0,0,0,0,0,0,0,0,0,0,0,0,0,0,0,0,0,0,0,0,0,0,0,0],"sum_hessian":[4.984E3,8.8E2,4.104E3,5.54E2,3.26E2,2.771E3,1.333E3,4.91E2,6.3E1,1.91E2,1.35E2,1.267E3,1.504E3,3.37E2,9.96E2,2.66E2,2.25E2,2.4E1,3.9E1,6.3E1,1.28E2,6.6E1,6.9E1,9.8E2,2.87E2,1.33E2,1.371E3,1.8E2,1.57E2,8.86E2,1.1E2],"tree_param":{"num_deleted":"0","num_feature":"2","num_nodes":"31","size_leaf_vector":"1"}},{"base_weights":[-4.6873908E-3,-1.3334013E0,2.8047746E-1,-1.7298665E0,-6.564241E-1,5.967094E-1,-1.0307703E0,-1.7862339E0,-1.2695124E0,-9.3852036E-2,-1.4458169E0,7.927108E-1,-2.5771874E-1,-1.7658097E0,-6.4943916E-1,-1.9869208E-1,-1.5412356E-1,-4.343759E-2,-1.759735E-1,-9.9271655E-2,3.528238E-2,-9.34026E-2,-1.9150195E-1,-2.9178958E-3,9.577619E-2,-1.8103808E-1,9.707066E-3,-1.2233684E-1,-2.1210411E-1,-1.9788565E-2,-2.230115E-1],"categories":[],"categories_nodes":[],"categories_segments":[],"categories_sizes":[],"default_left":[0,0,0,0,0,0,0,0,0,0,0,0,0,0,0,0,0,0,0,0,0,0,0,0,0,0,0,0,0,0,0],"id":17,"left_children":[1,3,5,7,9,11,13,15,17,19,21,23,25,27,29,-1,-1,-1,-1,-1,-1,-1,-1,-1,-1,-1,-1,-1,-1,-1,-1],"loss_changes":[1.889203E3,2.35323E2,1.7027876E3,1.2134033E1,1.4508185E2,5.5419226E2,2.2252722E2,2.1128418E1,2.5437386E1,7.743845E1,3.0869476E1,3.650724E2,3.406122E2,4.9817444E1,3.7571002E2,0E0,0E0,0E0,0E0,0E0,0E0,0E0,0E0,0E0,0E0,0E0,0E0,0E0,0E0,0E0,0E0],"parents":[2147483647,0,0,1,1,2,2,3,3,4,4,5,5,6,6,7,7,8,8,9,9,10,10,11,11,12,12,13,13,14,14],"right_children":[2,4,6,8,10,12,14,16,18,20,22,24,26,28,30,-1,-1,-1,-1,-1,-1,-1,-1,-1,-1,-1,-1,-1,-1,-1,-1],"split_conditions":[6E0,4E0,2.1E1,3E0,5E0,7E0,4E0,5E0,2E0,2E0,7E0,2E0,1E1,2.2E1,7E0,-1.9869208E-1,-1.5412356E-1,-4.343759E-2,-1.759735E-1,-9.9271655E-2,3.528238E-2,-9.34026E-2,-1.9150195E-1,-2.9178958E-3,9.577619E-2,-1.8103808E-1,9.707066E-3,-1.2233684E-1,-2.1210411E-1,-1.9788565E-2,-2.230115E-1],"split_indices":[1,1,1,1,0,0,0,0,0,0,0,0,1,1,0,0,0,0,0,0,0,0,0,0,0,0,0,0,0,0,0],"split_type":[0,0,0,0,0,0,0,0,0,0,0,0,0,0,0,0,0,0,0,0,0,0,0,0,0,0,0,0,0,0,0],"sum_hessian":[4.984E3,8.8E2,4.104E3,5.54E2,3.26E2,3.307E3,7.97E2,4.91E2,6.3E1,1.91E2,1.35E2,2.69E3,6.17E2,2.71E2,5.26E2,2.66E2,2.25E2,2.4E1,3.9E1,6.3E1,1.28E2,6.6E1,6.9E1,4.5E2,2.24E3,1.14E2,5.03E2,1.09E2,1.62E2,4.1E2,1.16E2],"tree_param":{"num_deleted":"0","num_feature":"2","num_nodes":"31","size_leaf_vector":"1"}},{"base_weights":[-4.5347065E-3,-1.2011067E0,2.5227028E-1,-1.5579108E0,-5.9184855E-1,7.294561E-1,-4.9146435E-1,-1.2748907E0,-1.6432152E0,-8.479991E-2,-1.3033301E0,1.382177E0,1.9046502E-1,-1.4482676E0,2.9729957E-2,-1.4632502E-1,-3.1042108E-2,-1.24748826E-1,-1.7817166E-1,-8.949959E-2,3.1781517E-2,-8.420176E-2,-1.7262529E-1,9.8716855E-2,2.2463985E-1,-2.3223777E-1,4.62299E-2,-2.0586346E-1,-1.0986171E-1,5.5743676E-2,-1.4187233E-1],"categories":[],"categories_nodes":[],"categories_segments":[],"categories_sizes":[],"default_left":[0,0,0,0,0,0,0,0,0,0,0,0,0,0,0,0,0,0,0,0,0,0,0,0,0,0,0,0,0,0,0],"id":18,"left_children":[1,3,5,7,9,11,13,15,17,19,21,23,25,27,29,-1,-1,-1,-1,-1,-1,-1,-1,-1,-1,-1,-1,-1,-1,-1,-1],"loss_changes":[1.5321218E3,1.9059485E2,1.4572216E3,1.1304321E1,1.178566E2,8.7961536E2,8.004249E2,2.3707504E1,2.0961548E1,6.291429E1,2.5079987E1,3.838772E2,9.3757086E2,1.1853137E2,7.9572375E2,0E0,0E0,0E0,0E0,0E0,0E0,0E0,0E0,0E0,0E0,0E0,0E0,0E0,0E0,0E0,0E0],"parents":[2147483647,0,0,1,1,2,2,3,3,4,4,5,5,6,6,7,7,8,8,9,9,10,10,11,11,12,12,13,13,14,14],"right_children":[2,4,6,8,10,12,14,16,18,20,22,24,26,28,30,-1,-1,-1,-1,-1,-1,-1,-1,-1,-1,-1,-1,-1,-1,-1,-1],"split_conditions":[6E0,4E0,1.8E1,1E0,5E0,5E0,4E0,7E0,2E0,2E0,7E0,1.4E1,8E0,2E0,7E0,-1.4632502E-1,-3.1042108E-2,-1.24748826E-1,-1.7817166E-1,-8.949959E-2,3.1781517E-2,-8.420176E-2,-1.7262529E-1,9.8716855E-2,2.2463985E-1,-2.3223777E-1,4.62299E-2,-2.0586346E-1,-1.0986171E-1,5.5743676E-2,-1.4187233E-1],"split_indices":[1,1,1,1,0,0,0,0,0,0,0,1,1,0,0,0,0,0,0,0,0,0,0,0,0,0,0,0,0,0,0],"split_type":[0,0,0,0,0,0,0,0,0,0,0,0,0,0,0,0,0,0,0,0,0,0,0,0,0,0,0,0,0,0,0],"sum_hessian":[4.984E3,8.8E2,4.104E3,5.54E2,3.26E2,2.5E3,1.604E3,1.32E2,4.22E2,1.91E2,1.35E2,1.13E3,1.37E3,5.65E2,1.039E3,1.1E2,2.2E1,1.12E2,3.1E2,6.3E1,1.28E2,6.6E1,6.9E1,7.77E2,3.53E2,1.33E2,1.237E3,2.04E2,3.61E2,7.62E2,2.77E2],"tree_param":{"num_deleted":"0","num_feature":"2","num_nodes":"31","size_leaf_vector":"1"}},{"base_weights":[-4.2937906E-3,-1.0818981E0,2.2697873E-1,-1.4029851E0,-5.336255E-1,4.953425E-1,-8.85771E-1,-1.4537725E0,-9.9063516E-1,-7.66203E-2,-1.1748856E0,6.567294E-1,-2.0819725E-1,-6.422073E-1,-2.077182E0,-1.6370676E-1,-1.2307922E-1,-2.7291626E-2,-1.4144437E-1,-8.068949E-2,2.8628042E-2,-7.590725E-2,-1.556094E-1,-9.378786E-3,8.074775E-2,-1.5629368E-1,1.0133298E-2,-1.3791E-1,-2.0241937E-2,-1.3815543E-1,-2.742263E-1],"categories":[],"categories_nodes":[],"categories_segments":[],"categories_sizes":[],"default_left":[0,0,0,0,0,0,0,0,0,0,0,0,0,0,0,0,0,0,0,0,0,0,0,0,0,0,0,0,0,0,0],"id":19,"left_children":[1,3,5,7,9,11,13,15,17,19,21,23,25,27,29,-1,-1,-1,-1,-1,-1,-1,-1,-1,-1,-1,-1,-1,-1,-1,-1],"loss_changes":[1.2426086E3,1.5434546E2,1.2262806E3,1.0182617E1,9.574032E1,3.75734E2,2.3023322E2,1.8093872E1,1.9081196E1,5.11143E1,2.0376373E1,3.0453296E2,2.593061E2,2.149076E2,5.8669006E1,0E0,0E0,0E0,0E0,0E0,0E0,0E0,0E0,0E0,0E0,0E0,0E0,0E0,0E0,0E0,0E0],"parents":[2147483647,0,0,1,1,2,2,3,3,4,4,5,5,6,6,7,7,8,8,9,9,10,10,11,11,12,12,13,13,14,14],"right_children":[2,4,6,8,10,12,14,16,18,20,22,24,26,28,30,-1,-1,-1,-1,-1,-1,-1,-1,-1,-1,-1,-1,-1,-1,-1,-1],"split_conditions":[6E0,4E0,2.1E1,3E0,5E0,7E0,2.3E1,5E0,2E0,2E0,7E0,2E0,1E1,4E0,6E0,-1.6370676E-1,-1.2307922E-1,-2.7291626E-2,-1.4144437E-1,-8.068949E-2,2.8628042E-2,-7.590725E-2,-1.556094E-1,-9.378786E-3,8.074775E-2,-1.5629368E-1,1.0133298E-2,-1.3791E-1,-2.0241937E-2,-1.3815543E-1,-2.742263E-1],"split_indices":[1,1,1,1,0,0,1,0,0,0,0,0,1,0,0,0,0,0,0,0,0,0,0,0,0,0,0,0,0,0,0],"split_type":[0,0,0,0,0,0,0,0,0,0,0,0,0,0,0,0,0,0,0,0,0,0,0,0,0,0,0,0,0,0,0],"sum_hessian":[4.984E3,8.8E2,4.104E3,5.54E2,3.26E2,3.307E3,7.97E2,4.91E2,6.3E1,1.91E2,1.35E2,2.69E3,6.17E2,6.63E2,1.34E2,2.66E2,2.25E2,2.4E1,3.9E1,6.3E1,1.28E2,6.6E1,6.9E1,4.5E2,2.24E3,1.14E2,5.03E2,2.47E2,4.16E2,6.7E1,6.7E1],"tree_param":{"num_deleted":"0","num_feature":"2","num_nodes":"31","size_leaf_vector":"1"}},{"base_weights":[-4.1421675E-3,-9.7454727E-1,2.0412362E-1,-1.2635074E0,-4.811303E-1,6.091757E-1,-4.2717808E-1,-1.0061147E0,-1.3414499E0,-6.92297E-2,-1.0590993E0,1.1920173E0,1.2791882E-1,-1.2650918E0,2.9251043E-2,-1.17175E-1,-1.6300064E-2,-9.905585E-2,-1.4646308E-1,-7.274663E-2,2.5787389E-2,-8.877032E-2,-1.9068925E-1,8.360848E-2,1.9708973E-1,-1.6418228E-1,4.404736E-2,-1.7748187E-1,-9.729394E-2,4.9635045E-2,-1.2528573E-1],"categories":[],"categories_nodes":[],"categories_segments":[],"categories_sizes":[],"default_left":[0,0,0,0,0,0,0,0,0,0,0,0,0,0,0,0,0,0,0,0,0,0,0,0,0,0,0,0,0,0,0],"id":20,"left_children":[1,3,5,7,9,11,13,15,17,19,21,23,25,27,29,-1,-1,-1,-1,-1,-1,-1,-1,-1,-1,-1,-1,-1,-1,-1,-1],"loss_changes":[1.00767834E3,1.2500311E2,1.04995E3,9.784668E0,7.7774185E1,7.013692E2,6.138664E2,1.83824E1,1.683258E1,4.152741E1,1.8069183E1,3.1189807E2,7.590797E2,8.256079E1,6.234487E2,0E0,0E0,0E0,0E0,0E0,0E0,0E0,0E0,0E0,0E0,0E0,0E0,0E0,0E0,0E0,0E0],"parents":[2147483647,0,0,1,1,2,2,3,3,4,4,5,5,6,6,7,7,8,8,9,9,10,10,11,11,12,12,13,13,14,14],"right_children":[2,4,6,8,10,12,14,16,18,20,22,24,26,28,30,-1,-1,-1,-1,-1,-1,-1,-1,-1,-1,-1,-1,-1,-1,-1,-1],"split_conditions":[6E0,4E0,1.8E1,1E0,5E0,5E0,4E0,7E0,2E0,2E0,5E0,1.4E1,9E0,2E0,7E0,-1.17175E-1,-1.6300064E-2,-9.905585E-2,-1.4646308E-1,-7.274663E-2,2.5787389E-2,-8.877032E-2,-1.9068925E-1,8.360848E-2,1.9708973E-1,-1.6418228E-1,4.404736E-2,-1.7748187E-1,-9.729394E-2,4.9635045E-2,-1.2528573E-1],"split_indices":[1,1,1,1,0,0,0,0,0,0,1,1,1,0,0,0,0,0,0,0,0,0,0,0,0,0,0,0,0,0,0],"split_type":[0,0,0,0,0,0,0,0,0,0,0,0,0,0,0,0,0,0,0,0,0,0,0,0,0,0,0,0,0,0,0],"sum_hessian":[4.984E3,8.8E2,4.104E3,5.54E2,3.26E2,2.5E3,1.604E3,1.32E2,4.22E2,1.91E2,1.35E2,1.13E3,1.37E3,5.65E2,1.039E3,1.1E2,2.2E1,1.12E2,3.1E2,6.3E1,1.28E2,1.14E2,2.1E1,7.77E2,3.53E2,2.05E2,1.165E3,2.04E2,3.61E2,7.62E2,2.77E2],"tree_param":{"num_deleted":"0","num_feature":"2","num_nodes":"31","size_leaf_vector":"1"}},{"base_weights":[-3.907792E-3,-8.7789327E-1,1.8366471E-1,-1.1836605E0,-4.8990512E-1,3.5059005E-1,-1.1463075E0,-1.3510337E0,-9.806857E-1,-7.3150165E-2,-1.0015004E0,5.920518E-1,-3.845215E-2,-9.188634E-1,-2.2955372E0,-1.08139716E-1,-1.6066681E-1,-7.079141E-2,-1.086414E-1,-5.200612E-2,2.3228645E-2,-8.916585E-2,-1.7248711E-1,2.7813224E-2,1.6365068E-1,-1.6088647E-1,1.9791624E-2,-1.3484387E-1,-2.3973636E-2,-1.8640427E-1,-3.0839643E-1],"categories":[],"categories_nodes":[],"categories_segments":[],"categories_sizes":[],"default_left":[0,0,0,0,0,0,0,0,0,0,0,0,0,0,0,0,0,0,0,0,0,0,0,0,0,0,0,0,0,0,0],"id":21,"left_children":[1,3,5,7,9,11,13,15,17,19,21,23,25,27,29,-1,-1,-1,-1,-1,-1,-1,-1,-1,-1,-1,-1,-1,-1,-1,-1],"loss_changes":[8.1738043E2,1.0393671E2,9.1173676E2,1.5389587E1,8.307859E1,3.4271146E2,1.17605286E2,1.6666412E1,5.7486725E0,2.9605453E1,1.2366867E1,7.375912E2,5.192502E2,1.1170343E2,1.976648E1,0E0,0E0,0E0,0E0,0E0,0E0,0E0,0E0,0E0,0E0,0E0,0E0,0E0,0E0,0E0,0E0],"parents":[2147483647,0,0,1,1,2,2,3,3,4,4,5,5,6,6,7,7,8,8,9,9,10,10,11,11,12,12,13,13,14,14],"right_children":[2,4,6,8,10,12,14,16,18,20,22,24,26,28,30,-1,-1,-1,-1,-1,-1,-1,-1,-1,-1,-1,-1,-1,-1,-1,-1],"split_conditions":[6E0,3E0,2.2E1,5E0,5E0,1.7E1,7E0,2E0,1E0,2E0,5E0,1.5E1,2E0,5E0,2.3E1,-1.08139716E-1,-1.6066681E-1,-7.079141E-2,-1.086414E-1,-5.200612E-2,2.3228645E-2,-8.916585E-2,-1.7248711E-1,2.7813224E-2,1.6365068E-1,-1.6088647E-1,1.9791624E-2,-1.3484387E-1,-2.3973636E-2,-1.8640427E-1,-3.0839643E-1],"split_indices":[1,1,1,0,0,1,0,0,1,0,1,1,0,0,1,0,0,0,0,0,0,0,0,0,0,0,0,0,0,0,0],"split_type":[0,0,0,0,0,0,0,0,0,0,0,0,0,0,0,0,0,0,0,0,0,0,0,0,0,0,0,0,0,0,0],"sum_hessian":[4.984E3,8.8E2,4.104E3,4.91E2,3.89E2,3.647E3,4.57E2,2.66E2,2.25E2,2.15E2,1.74E2,2.25E3,1.397E3,3.83E2,7.4E1,1.32E2,1.34E2,6.5E1,1.6E2,8.7E1,1.28E2,1.53E2,2.1E1,1.731E3,5.19E2,1.82E2,1.215E3,2.34E2,1.49E2,5E1,2.4E1],"tree_param":{"num_deleted":"0","num_feature":"2","num_nodes":"31","size_leaf_vector":"1"}},{"base_weights":[-3.7861753E-3,-7.9094243E-1,1.6515133E-1,-1.0662055E0,-4.4165942E-1,4.1797388E-1,-5.5966693E-1,-1.2169372E0,-8.8341093E-1,-6.5968454E-2,-9.028456E-1,8.0339015E-1,8.8402E-2,-3.8762143E-1,-1.7381747E0,-9.740705E-2,-1.4471915E-1,-6.381954E-2,-9.784471E-2,-4.6864644E-2,2.0923799E-2,-6.306484E-2,-1.1587818E-1,-2.9406938E-4,1.1573517E-1,-1.9535246E-1,2.696676E-2,-1.0303048E-1,1.7836377E-3,-1.11555554E-1,-2.3352325E-1],"categories":[],"categories_nodes":[],"categories_segments":[],"categories_sizes":[],"default_left":[0,0,0,0,0,0,0,0,0,0,0,0,0,0,0,0,0,0,0,0,0,0,0,0,0,0,0,0,0,0,0],"id":22,"left_children":[1,3,5,7,9,11,13,15,17,19,21,23,25,27,29,-1,-1,-1,-1,-1,-1,-1,-1,-1,-1,-1,-1,-1,-1,-1,-1],"loss_changes":[6.630369E2,8.4232605E1,7.524768E2,1.2480957E1,6.751321E1,3.8658508E2,2.1465411E2,1.352124E1,4.642334E0,2.4035086E1,1.1460602E1,4.004339E2,6.082819E2,2.4183754E2,4.7579773E1,0E0,0E0,0E0,0E0,0E0,0E0,0E0,0E0,0E0,0E0,0E0,0E0,0E0,0E0,0E0,0E0],"parents":[2147483647,0,0,1,1,2,2,3,3,4,4,5,5,6,6,7,7,8,8,9,9,10,10,11,11,12,12,13,13,14,14],"right_children":[2,4,6,8,10,12,14,16,18,20,22,24,26,28,30,-1,-1,-1,-1,-1,-1,-1,-1,-1,-1,-1,-1,-1,-1,-1,-1],"split_conditions":[6E0,3E0,2E1,5E0,5E0,5E0,2.3E1,2E0,1E0,2E0,7E0,2E0,8E0,4E0,6E0,-9.740705E-2,-1.4471915E-1,-6.381954E-2,-9.784471E-2,-4.6864644E-2,2.0923799E-2,-6.306484E-2,-1.1587818E-1,-2.9406938E-4,1.1573517E-1,-1.9535246E-1,2.696676E-2,-1.0303048E-1,1.7836377E-3,-1.11555554E-1,-2.3352325E-1],"split_indices":[1,1,1,0,0,0,1,0,1,0,0,0,1,0,0,0,0,0,0,0,0,0,0,0,0,0,0,0,0,0,0],"split_type":[0,0,0,0,0,0,0,0,0,0,0,0,0,0,0,0,0,0,0,0,0,0,0,0,0,0,0,0,0,0,0],"sum_hessian":[4.984E3,8.8E2,4.104E3,4.91E2,3.89E2,3.043E3,1.061E3,2.66E2,2.25E2,2.15E2,1.74E2,1.402E3,1.641E3,9.27E2,1.34E2,1.32E2,1.34E2,6.5E1,1.6E2,8.7E1,1.28E2,8.6E1,8.8E1,4.28E2,9.74E2,1.33E2,1.508E3,3.58E2,5.69E2,6.7E1,6.7E1],"tree_param":{"num_deleted":"0","num_feature":"2","num_nodes":"31","size_leaf_vector":"1"}},{"base_weights":[-3.6297974E-3,-7.125391E-1,1.4851458E-1,-9.604057E-1,-3.9801875E-1,2.8667912E-1,-9.522993E-1,-1.0961503E0,-7.957853E-1,-5.949163E-2,-8.1358355E-1,4.9497437E-1,-4.891406E-2,-7.4537724E-1,-1.9990426E0,-8.773958E-2,-1.3035443E-1,-5.7534296E-2,-8.812103E-2,-4.223144E-2,1.8847657E-2,-7.102374E-2,-1.5000255E-1,2.1691212E-2,1.4201836E-1,-1.4131966E-1,1.5644172E-2,-1.1322087E-1,-1.3437222E-2,-1.6830425E-1,-2.5637215E-1],"categories":[],"categories_nodes":[],"categories_segments":[],"categories_sizes":[],"default_left":[0,0,0,0,0,0,0,0,0,0,0,0,0,0,0,0,0,0,0,0,0,0,0,0,0,0,0,0,0,0,0],"id":23,"left_children":[1,3,5,7,9,11,13,15,17,19,21,23,25,27,29,-1,-1,-1,-1,-1,-1,-1,-1,-1,-1,-1,-1,-1,-1,-1,-1],"loss_changes":[5.377708E2,6.829968E1,6.246165E2,1.0122101E1,5.481678E1,2.5502841E2,9.771008E1,1.0969635E1,3.7488556E0,1.9512796E1,1.1349319E1,5.7879724E2,3.9188937E2,9.060852E1,9.068054E0,0E0,0E0,0E0,0E0,0E0,0E0,0E0,0E0,0E0,0E0,0E0,0E0,0E0,0E0,0E0,0E0],"parents":[2147483647,0,0,1,1,2,2,3,3,4,4,5,5,6,6,7,7,8,8,9,9,10,10,11,11,12,12,13,13,14,14],"right_children":[2,4,6,8,10,12,14,16,18,20,22,24,26,28,30,-1,-1,-1,-1,-1,-1,-1,-1,-1,-1,-1,-1,-1,-1,-1,-1],"split_conditions":[6E0,3E0,2.2E1,5E0,5E0,1.7E1,7E0,2E0,1E0,2E0,5E0,1.5E1,2E0,5E0,2.3E1,-8.773958E-2,-1.3035443E-1,-5.7534296E-2,-8.812103E-2,-4.223144E-2,1.8847657E-2,-7.102374E-2,-1.5000255E-1,2.1691212E-2,1.4201836E-1,-1.4131966E-1,1.5644172E-2,-1.1322087E-1,-1.3437222E-2,-1.6830425E-1,-2.5637215E-1],"split_indices":[1,1,1,0,0,1,0,0,1,0,1,1,0,0,1,0,0,0,0,0,0,0,0,0,0,0,0,0,0,0,0],"split_type":[0,0,0,0,0,0,0,0,0,0,0,0,0,0,0,0,0,0,0,0,0,0,0,0,0,0,0,0,0,0,0],"sum_hessian":[4.984E3,8.8E2,4.104E3,4.91E2,3.89E2,3.647E3,4.57E2,2.66E2,2.25E2,2.15E2,1.74E2,2.25E3,1.397E3,3.83E2,7.4E1,1.32E2,1.34E2,6.5E1,1.6E2,8.7E1,1.28E2,1.53E2,2.1E1,1.731E3,5.19E2,1.82E2,1.215E3,2.34E2,1.49E2,5E1,2.4E1],"tree_param":{"num_deleted":"0","num_feature":"2","num_nodes":"31","size_leaf_vector":"1"}},{"base_weights":[-3.491606E-3,-6.4197546E-1,1.335383E-1,-8.6510456E-1,-3.5884345E-1,3.416711E-1,-4.6315646E-1,-6.4022064E-1,-9.4578356E-1,-5.3650647E-2,-7.33488E-1,6.959368E-1,3.876222E-2,-3.1525853E-1,-1.476387E0,-7.746498E-2,3.638168E-3,-1.063533E-1,-7.936367E-2,-3.805628E-2,1.697751E-2,-4.7903698E-2,-9.739797E-2,4.3942884E-2,1.5220831E-1,-1.4110008E-1,2.4656488E-2,-8.660809E-2,3.2216005E-3,-9.249004E-2,-2.006162E-1],"categories":[],"categories_nodes":[],"categories_segments":[],"categories_sizes":[],"default_left":[0,0,0,0,0,0,0,0,0,0,0,0,0,0,0,0,0,0,0,0,0,0,0,0,0,0,0,0,0,0,0],"id":24,"left_children":[1,3,5,7,9,11,13,15,17,19,21,23,25,27,29,-1,-1,-1,-1,-1,-1,-1,-1,-1,-1,-1,-1,-1,-1,-1,-1],"loss_changes":[4.362303E2,5.534674E1,5.099654E2,8.321045E0,4.45528E1,3.2662534E2,1.5868025E2,1.2125206E1,5.605438E0,1.5841379E1,1.0242264E1,2.9664526E2,4.9502432E2,1.7764409E2,3.758664E1,0E0,0E0,0E0,0E0,0E0,0E0,0E0,0E0,0E0,0E0,0E0,0E0,0E0,0E0,0E0,0E0],"parents":[2147483647,0,0,1,1,2,2,3,3,4,4,5,5,6,6,7,7,8,8,9,9,10,10,11,11,12,12,13,13,14,14],"right_children":[2,4,6,8,10,12,14,16,18,20,22,24,26,28,30,-1,-1,-1,-1,-1,-1,-1,-1,-1,-1,-1,-1,-1,-1,-1,-1],"split_conditions":[6E0,3E0,2E1,1E0,5E0,5E0,2.3E1,7E0,5E0,2E0,7E0,4E0,9E0,4E0,6E0,-7.746498E-2,3.638168E-3,-1.063533E-1,-7.936367E-2,-3.805628E-2,1.697751E-2,-4.7903698E-2,-9.739797E-2,4.3942884E-2,1.5220831E-1,-1.4110008E-1,2.4656488E-2,-8.660809E-2,3.2216005E-3,-9.249004E-2,-2.006162E-1],"split_indices":[1,1,1,1,0,0,1,0,0,0,0,0,1,0,0,0,0,0,0,0,0,0,0,0,0,0,0,0,0,0,0],"split_type":[0,0,0,0,0,0,0,0,0,0,0,0,0,0,0,0,0,0,0,0,0,0,0,0,0,0,0,0,0,0,0],"sum_hessian":[4.984E3,8.8E2,4.104E3,4.91E2,3.89E2,3.043E3,1.061E3,1.32E2,3.59E2,2.15E2,1.74E2,1.402E3,1.641E3,9.27E2,1.34E2,1.1E2,2.2E1,1.99E2,1.6E2,8.7E1,1.28E2,8.6E1,8.8E1,1.071E3,3.31E2,2.05E2,1.436E3,3.58E2,5.69E2,6.7E1,6.7E1],"tree_param":{"num_deleted":"0","num_feature":"2","num_nodes":"31","size_leaf_vector":"1"}},{"base_weights":[-3.2874595E-3,-5.782613E-1,1.20112106E-1,-7.791215E-1,-3.2338563E-1,3.8463727E-1,-2.9216048E-1,-5.767536E-1,-8.51721E-1,-4.838287E-2,-6.609697E-1,8.391402E-1,9.416669E-3,-9.218343E-1,5.0808277E-2,-6.978826E-2,3.2901596E-3,-9.577114E-2,-7.147657E-2,-3.4293886E-2,1.529296E-2,-5.6379974E-2,-1.3111153E-1,5.5458363E-2,1.4621511E-1,-1.6411124E-1,1.8806083E-2,-1.4294812E-1,-8.202879E-2,4.439433E-2,-1.0283746E-1],"categories":[],"categories_nodes":[],"categories_segments":[],"categories_sizes":[],"default_left":[0,0,0,0,0,0,0,0,0,0,0,0,0,0,0,0,0,0,0,0,0,0,0,0,0,0,0,0,0,0,0],"id":25,"left_children":[1,3,5,7,9,11,13,15,17,19,21,23,25,27,29,-1,-1,-1,-1,-1,-1,-1,-1,-1,-1,-1,-1,-1,-1,-1,-1],"loss_changes":[3.5376282E2,4.485028E1,4.477892E2,6.737152E0,3.617428E1,4.2650977E2,3.4666016E2,9.8446045E0,4.5411987E0,1.2860768E1,1.031636E1,1.9969489E2,4.0455814E2,2.8004578E1,4.416917E2,0E0,0E0,0E0,0E0,0E0,0E0,0E0,0E0,0E0,0E0,0E0,0E0,0E0,0E0,0E0,0E0],"parents":[2147483647,0,0,1,1,2,2,3,3,4,4,5,5,6,6,7,7,8,8,9,9,10,10,11,11,12,12,13,13,14,14],"right_children":[2,4,6,8,10,12,14,16,18,20,22,24,26,28,30,-1,-1,-1,-1,-1,-1,-1,-1,-1,-1,-1,-1,-1,-1,-1,-1],"split_conditions":[6E0,3E0,1.8E1,1E0,5E0,5E0,4E0,7E0,5E0,2E0,5E0,1.4E1,8E0,1.9E1,7E0,-6.978826E-2,3.2901596E-3,-9.577114E-2,-7.147657E-2,-3.4293886E-2,1.529296E-2,-5.6379974E-2,-1.3111153E-1,5.5458363E-2,1.4621511E-1,-1.6411124E-1,1.8806083E-2,-1.4294812E-1,-8.202879E-2,4.439433E-2,-1.0283746E-1],"split_indices":[1,1,1,1,0,0,0,0,0,0,1,1,1,1,0,0,0,0,0,0,0,0,0,0,0,0,0,0,0,0,0],"split_type":[0,0,0,0,0,0,0,0,0,0,0,0,0,0,0,0,0,0,0,0,0,0,0,0,0,0,0,0,0,0,0],"sum_hessian":[4.984E3,8.8E2,4.104E3,4.91E2,3.89E2,2.5E3,1.604E3,1.32E2,3.59E2,2.15E2,1.74E2,1.13E3,1.37E3,5.65E2,1.039E3,1.1E2,2.2E1,1.99E2,1.6E2,8.7E1,1.28E2,1.53E2,2.1E1,7.77E2,3.53E2,1.33E2,1.237E3,9.2E1,4.73E2,7.62E2,2.77E2],"tree_param":{"num_deleted":"0","num_feature":"2","num_nodes":"31","size_leaf_vector":"1"}},{"base_weights":[-3.0926755E-3,7.411453E-2,-7.6639205E-1,-5.2093494E-1,2.1779996E-1,-5.935188E-1,-1.6412847E0,-7.0168453E-1,-2.915766E-1,3.2053873E-1,-2.4781212E-1,-9.0824556E-1,-9.64901E-2,-1.4203754E-1,-2.0262885E-1,-5.1957823E-2,-7.670136E-2,-1.3431491E-2,-8.2192995E-2,-1.6350834E-2,4.1574713E-2,-7.6311074E-2,1.1313658E-2,-1.1154687E-1,-6.968729E-2,8.661479E-2,-1.3686498E-1],"categories":[],"categories_nodes":[],"categories_segments":[],"categories_sizes":[],"default_left":[0,0,0,0,0,0,0,0,0,0,0,0,0,0,0,0,0,0,0,0,0,0,0,0,0,0,0],"id":26,"left_children":[1,3,5,7,9,11,13,15,17,19,21,23,25,-1,-1,-1,-1,-1,-1,-1,-1,-1,-1,-1,-1,-1,-1],"loss_changes":[2.938339E2,3.8725717E2,6.8296326E1,3.6318512E1,1.7458664E2,5.998079E1,3.5007324E0,5.454712E0,3.241726E1,1.3781711E2,1.2284395E2,9.515961E0,1.8487985E2,0E0,0E0,0E0,0E0,0E0,0E0,0E0,0E0,0E0,0E0,0E0,0E0,0E0,0E0],"parents":[2147483647,0,0,1,1,2,2,3,3,4,4,5,5,6,6,7,7,8,8,9,9,10,10,11,11,12,12],"right_children":[2,4,6,8,10,12,14,16,18,20,22,24,26,-1,-1,-1,-1,-1,-1,-1,-1,-1,-1,-1,-1,-1,-1],"split_conditions":[2.2E1,6E0,7E0,3E0,7E0,5E0,2.3E1,1E0,7E0,2E0,1.4E1,3E0,2.3E1,-1.4203754E-1,-2.0262885E-1,-5.1957823E-2,-7.670136E-2,-1.3431491E-2,-8.2192995E-2,-1.6350834E-2,4.1574713E-2,-7.6311074E-2,1.1313658E-2,-1.1154687E-1,-6.968729E-2,8.661479E-2,-1.3686498E-1],"split_indices":[1,1,0,1,0,0,1,1,0,0,1,0,1,0,0,0,0,0,0,0,0,0,0,0,0,0,0],"split_type":[0,0,0,0,0,0,0,0,0,0,0,0,0,0,0,0,0,0,0,0,0,0,0,0,0,0,0],"sum_hessian":[4.984E3,4.527E3,4.57E2,8.8E2,3.647E3,3.83E2,7.4E1,4.91E2,3.89E2,2.988E3,6.59E2,2.34E2,1.49E2,5E1,2.4E1,1.32E2,3.59E2,3.01E2,8.8E1,4.91E2,2.497E3,2.71E2,3.88E2,1.16E2,1.18E2,8.5E1,6.4E1],"tree_param":{"num_deleted":"0","num_feature":"2","num_nodes":"27","size_leaf_vector":"1"}},{"base_weights":[-2.9518036E-3,6.664493E-2,-6.910109E-1,-4.6909603E-1,1.9600928E-1,-5.3476983E-1,-1.4817518E0,-6.3177764E-1,-2.6266408E-1,3.6394262E-1,-7.4530035E-2,-8.1819236E-1,-8.717606E-2,-1.281123E-1,-1.8317646E-1,-7.2954886E-2,-5.134737E-2,-1.2092784E-2,-7.406606E-2,1.3490296E-2,1.12612106E-1,-1.22544445E-1,9.8736305E-3,-1.0048752E-1,-6.277715E-2,7.8054056E-2,-1.23389065E-1],"categories":[],"categories_nodes":[],"categories_segments":[],"categories_sizes":[],"default_left":[0,0,0,0,0,0,0,0,0,0,0,0,0,0,0,0,0,0,0,0,0,0,0,0,0,0,0],"id":27,"left_children":[1,3,5,7,9,11,13,15,17,19,21,23,25,-1,-1,-1,-1,-1,-1,-1,-1,-1,-1,-1,-1,-1,-1],"loss_changes":[2.3876108E2,3.1390854E2,5.5791763E1,2.9420395E1,1.6576514E2,4.8642204E1,2.9199982E0,5.316208E0,2.6332708E1,3.928031E2,2.7890277E2,7.7230225E0,1.502166E2,0E0,0E0,0E0,0E0,0E0,0E0,0E0,0E0,0E0,0E0,0E0,0E0,0E0,0E0],"parents":[2147483647,0,0,1,1,2,2,3,3,4,4,5,5,6,6,7,7,8,8,9,9,10,10,11,11,12,12],"right_children":[2,4,6,8,10,12,14,16,18,20,22,24,26,-1,-1,-1,-1,-1,-1,-1,-1,-1,-1,-1,-1,-1,-1],"split_conditions":[2.2E1,6E0,7E0,3E0,1.7E1,5E0,2.3E1,5E0,7E0,1.5E1,2E0,3E0,2.3E1,-1.281123E-1,-1.8317646E-1,-7.2954886E-2,-5.134737E-2,-1.2092784E-2,-7.406606E-2,1.3490296E-2,1.12612106E-1,-1.22544445E-1,9.8736305E-3,-1.0048752E-1,-6.277715E-2,7.8054056E-2,-1.23389065E-1],"split_indices":[1,1,0,1,1,0,1,0,0,1,0,0,1,0,0,0,0,0,0,0,0,0,0,0,0,0,0],"split_type":[0,0,0,0,0,0,0,0,0,0,0,0,0,0,0,0,0,0,0,0,0,0,0,0,0,0,0],"sum_hessian":[4.984E3,4.527E3,4.57E2,8.8E2,3.647E3,3.83E2,7.4E1,4.91E2,3.89E2,2.25E3,1.397E3,2.34E2,1.49E2,5E1,2.4E1,2.66E2,2.25E2,3.01E2,8.8E1,1.731E3,5.19E2,1.82E2,1.215E3,1.16E2,1.18E2,8.5E1,6.4E1],"tree_param":{"num_deleted":"0","num_feature":"2","num_nodes":"27","size_leaf_vector":"1"}},{"base_weights":[-2.8005862E-3,5.9936766E-2,-6.2304497E-1,-4.224254E-1,1.7641185E-1,-4.818361E-1,-1.3377271E0,-5.4969865E-1,-2.0511937E-1,2.7016672E-1,-2.4845138E-1,-7.370678E-1,-7.876088E-2,-1.1555226E-1,-1.6559152E-1,-3.8366344E-2,-6.1365314E-2,-5.988713E-3,-7.374737E-2,-1.2362815E-2,3.4761947E-2,-1.11502044E-1,-6.547724E-3,-9.0524666E-2,-5.6552168E-2,7.033937E-2,-1.11239985E-1],"categories":[],"categories_nodes":[],"categories_segments":[],"categories_sizes":[],"default_left":[0,0,0,0,0,0,0,0,0,0,0,0,0,0,0,0,0,0,0,0,0,0,0,0,0,0,0],"id":28,"left_children":[1,3,5,7,9,11,13,15,17,19,21,23,25,-1,-1,-1,-1,-1,-1,-1,-1,-1,-1,-1,-1,-1,-1],"loss_changes":[1.9401611E2,2.5447194E2,4.5576553E1,2.425328E1,1.453779E2,3.9446938E1,2.4346924E0,5.6579437E0,2.523784E1,9.1208954E1,1.04576416E2,6.267906E0,1.2205225E2,0E0,0E0,0E0,0E0,0E0,0E0,0E0,0E0,0E0,0E0,0E0,0E0,0E0,0E0],"parents":[2147483647,0,0,1,1,2,2,3,3,4,4,5,5,6,6,7,7,8,8,9,9,10,10,11,11,12,12],"right_children":[2,4,6,8,10,12,14,16,18,20,22,24,26,-1,-1,-1,-1,-1,-1,-1,-1,-1,-1,-1,-1,-1,-1],"split_conditions":[2.2E1,6E0,7E0,4E0,7E0,5E0,2.3E1,2E0,7E0,2E0,1E1,3E0,2.3E1,-1.1555226E-1,-1.6559152E-1,-3.8366344E-2,-6.1365314E-2,-5.988713E-3,-7.374737E-2,-1.2362815E-2,3.4761947E-2,-1.11502044E-1,-6.547724E-3,-9.0524666E-2,-5.6552168E-2,7.033937E-2,-1.11239985E-1],"split_indices":[1,1,0,1,0,0,1,0,0,0,1,0,1,0,0,0,0,0,0,0,0,0,0,0,0,0,0],"split_type":[0,0,0,0,0,0,0,0,0,0,0,0,0,0,0,0,0,0,0,0,0,0,0,0,0,0,0],"sum_hessian":[4.984E3,4.527E3,4.57E2,8.8E2,3.647E3,3.83E2,7.4E1,5.54E2,3.26E2,2.988E3,6.59E2,2.34E2,1.49E2,5E1,2.4E1,1.56E2,3.98E2,2.57E2,6.9E1,4.91E2,2.497E3,1.14E2,5.45E2,1.16E2,1.18E2,8.5E1,6.4E1],"tree_param":{"num_deleted":"0","num_feature":"2","num_nodes":"27","size_leaf_vector":"1"}},{"base_weights":[-2.669636E-3,7.560701E-2,-4.1347155E-1,-3.8038656E-1,1.9702621E-1,-2.1954162E-1,-7.363862E-1,-5.1378256E-1,-2.1112706E-1,4.1621643E-1,7.945485E-3,-5.395266E-1,9.1985536E-1,-5.472787E-1,-1.3707472E-1,-6.07102E-2,-4.0126007E-2,-1.5422799E-2,-1.155883E-1,6.838552E-2,-3.378026E-2,-1.1708354E-1,1.6241172E-2,-2.0864485E-2,-6.699525E-2,1.2425119E-1,-4.272484E-2,-3.740407E-2,-8.021825E-2],"categories":[],"categories_nodes":[],"categories_segments":[],"categories_sizes":[],"default_left":[0,0,0,0,0,0,0,0,0,0,0,0,0,0,0,0,0,0,0,0,0,0,0,0,0,0,0,0,0],"id":29,"left_children":[1,3,5,7,9,11,13,15,17,19,21,23,25,27,-1,-1,-1,-1,-1,-1,-1,-1,-1,-1,-1,-1,-1,-1,-1],"loss_changes":[1.6032991E2,2.3194933E2,4.9811325E1,1.9783218E1,1.3709558E2,1.8279124E2,3.5118576E1,4.9226685E0,2.0786463E1,3.0939578E2,3.237496E2,1.6734032E1,4.834256E1,9.9448395E0,0E0,0E0,0E0,0E0,0E0,0E0,0E0,0E0,0E0,0E0,0E0,0E0,0E0,0E0,0E0],"parents":[2147483647,0,0,1,1,2,2,3,3,4,4,5,5,6,6,7,7,8,8,9,9,10,10,11,11,12,12,13,13],"right_children":[2,4,6,8,10,12,14,16,18,20,22,24,26,28,-1,-1,-1,-1,-1,-1,-1,-1,-1,-1,-1,-1,-1,-1,-1],"split_conditions":[2.1E1,6E0,6E0,3E0,5E0,5E0,2.3E1,5E0,5E0,1.8E1,9E0,2E0,2.3E1,7E0,-1.3707472E-1,-6.07102E-2,-4.0126007E-2,-1.5422799E-2,-1.155883E-1,6.838552E-2,-3.378026E-2,-1.1708354E-1,1.6241172E-2,-2.0864485E-2,-6.699525E-2,1.2425119E-1,-4.272484E-2,-3.740407E-2,-8.021825E-2],"split_indices":[1,1,0,1,0,0,1,0,1,1,1,0,1,0,0,0,0,0,0,0,0,0,0,0,0,0,0,0,0],"split_type":[0,0,0,0,0,0,0,0,0,0,0,0,0,0,0,0,0,0,0,0,0,0,0,0,0,0,0,0,0],"sum_hessian":[4.984E3,4.187E3,7.97E2,8.8E2,3.307E3,4.99E2,2.98E2,4.91E2,3.89E2,1.531E3,1.776E3,3.9E2,1.09E2,2.31E2,6.7E1,2.66E2,2.25E2,3.68E2,2.1E1,1.13E3,4.01E2,2.05E2,1.571E3,1.11E2,2.79E2,8.8E1,2.1E1,1.39E2,9.2E1],"tree_param":{"num_deleted":"0","num_feature":"2","num_nodes":"29","size_leaf_vector":"1"}},{"base_weights":[-2.5149235E-3,7.814695E-2,-3.4078804E-1,-4.9028444E-1,1.4046647E-1,-1.1943269E-1,-7.749318E-1,-2.921409E-1,-6.1680615E-1,2.3935291E-1,-2.8718406E-1,-5.4364204E-1,1.3903937E0,-5.601061E-1,-9.943414E-1,-3.6918744E-2,1.2943238E-2,-4.1653004E-2,-6.895431E-2,-2.2736734E-2,3.3777382E-2,-4.857986E-2,-2.0247574E-3,-2.127862E-2,-3.790035E-1,1.8412845E-1,3.64785E-2,-8.791997E-2,-1.3130069E-2,-1.3196169E-1,-8.662971E-2],"categories":[],"categories_nodes":[],"categories_segments":[],"categories_sizes":[],"default_left":[0,0,0,0,0,0,0,0,0,0,0,0,0,0,0,0,0,0,0,0,0,0,0,0,0,0,0,0,0,0,0],"id":30,"left_children":[1,3,5,7,9,11,13,15,17,19,21,23,25,27,29,-1,-1,-1,-1,-1,-1,-1,-1,-1,-1,-1,-1,-1,-1,-1,-1],"loss_changes":[1.3604608E2,1.426874E2,9.2163475E1,9.797455E0,1.5353493E2,4.0874326E2,1.4714752E1,5.1472654E0,3.2381058E0,1.3549324E2,3.6148083E1,5.340894E2,6.406958E1,2.259819E1,5.4791107E0,0E0,0E0,0E0,0E0,0E0,0E0,0E0,0E0,0E0,0E0,0E0,0E0,0E0,0E0,0E0,0E0],"parents":[2147483647,0,0,1,1,2,2,3,3,4,4,5,5,6,6,7,7,8,8,9,9,10,10,11,11,12,12,13,13,14,14],"right_children":[2,4,6,8,10,12,14,16,18,20,22,24,26,28,30,-1,-1,-1,-1,-1,-1,-1,-1,-1,-1,-1,-1,-1,-1,-1,-1],"split_conditions":[7E0,4E0,1.7E1,2E0,2.1E1,1.4E1,2E1,3E0,1E0,2E0,5E0,1.3E1,1.6E1,1.9E1,2.1E1,-3.6918744E-2,1.2943238E-2,-4.1653004E-2,-6.895431E-2,-2.2736734E-2,3.3777382E-2,-4.857986E-2,-2.0247574E-3,-2.127862E-2,-3.790035E-1,1.8412845E-1,3.64785E-2,-8.791997E-2,-1.3130069E-2,-1.3196169E-1,-8.662971E-2],"split_indices":[0,1,1,0,1,1,1,1,1,0,0,1,1,1,1,0,0,0,0,0,0,0,0,0,0,0,0,0,0,0,0],"split_type":[0,0,0,0,0,0,0,0,0,0,0,0,0,0,0,0,0,0,0,0,0,0,0,0,0,0,0,0,0,0,0],"sum_hessian":[4.984E3,4.025E3,9.59E2,3.97E2,3.628E3,6.36E2,3.23E2,1.56E2,2.41E2,2.947E3,6.81E2,4.97E2,1.39E2,1.65E2,1.58E2,1.32E2,2.4E1,6.6E1,1.75E2,5.13E2,2.434E3,3.9E2,2.91E2,4.52E2,4.5E1,9.6E1,4.3E1,9.4E1,7.1E1,4.2E1,1.16E2],"tree_param":{"num_deleted":"0","num_feature":"2","num_nodes":"31","size_leaf_vector":"1"}},{"base_weights":[-2.3984127E-3,4.5159917E-2,-4.7257683E-1,-3.209683E-1,1.335683E-1,-3.6347345E-1,-1.024885E0,-3.012345E-1,-1.0777906E-1,2.658502E-1,-7.952191E-2,-5.626446E-1,-4.9015503E-2,-8.786593E-2,-1.2821904E-1,-4.0685743E-2,-1.0867906E-2,7.1686595E-3,9.1205314E-2,-1.0589676E-1,6.794362E-3,-7.285079E-2,-3.9484076E-2,5.9201486E-2,-8.963939E-2],"categories":[],"categories_nodes":[],"categories_segments":[],"categories_sizes":[],"default_left":[0,0,0,0,0,0,0,0,0,0,0,0,0,0,0,0,0,0,0,0,0,0,0,0,0],"id":31,"left_children":[1,3,5,7,9,11,13,15,-1,17,19,21,23,-1,-1,-1,-1,-1,-1,-1,-1,-1,-1,-1,-1],"loss_changes":[1.11490425E2,1.4660881E2,2.7225952E1,1.2833038E1,1.0285088E2,2.4022701E1,1.6952438E0,1.7446701E1,0E0,2.8236554E2,2.0199133E2,6.2529984E0,8.200997E1,0E0,0E0,0E0,0E0,0E0,0E0,0E0,0E0,0E0,0E0,0E0,0E0],"parents":[2147483647,0,0,1,1,2,2,3,3,4,4,5,5,6,6,7,7,9,9,10,10,11,11,12,12],"right_children":[2,4,6,8,10,12,14,16,-1,18,20,22,24,-1,-1,-1,-1,-1,-1,-1,-1,-1,-1,-1,-1],"split_conditions":[2.2E1,6E0,7E0,5E0,1.7E1,5E0,2.3E1,4E0,-1.0777906E-1,1.5E1,2E0,3E0,2.3E1,-8.786593E-2,-1.2821904E-1,-4.0685743E-2,-1.0867906E-2,7.1686595E-3,9.1205314E-2,-1.0589676E-1,6.794362E-3,-7.285079E-2,-3.9484076E-2,5.9201486E-2,-8.963939E-2],"split_indices":[1,1,0,1,1,0,1,1,0,1,0,0,1,0,0,0,0,0,0,0,0,0,0,0,0],"split_type":[0,0,0,0,0,0,0,0,0,0,0,0,0,0,0,0,0,0,0,0,0,0,0,0,0],"sum_hessian":[4.984E3,4.527E3,4.57E2,8.8E2,3.647E3,3.83E2,7.4E1,8.59E2,2.1E1,2.25E3,1.397E3,2.34E2,1.49E2,5E1,2.4E1,5.54E2,3.05E2,1.731E3,5.19E2,1.82E2,1.215E3,1.16E2,1.18E2,8.5E1,6.4E1],"tree_param":{"num_deleted":"0","num_feature":"2","num_nodes":"25","size_leaf_vector":"1"}},{"base_weights":[-2.2623509E-3,6.981623E-2,-3.0453953E-1,-4.0101075E-1,1.2143356E-1,-1.12789676E-1,-6.805893E-1,-2.2265309E-1,-5.15065E-1,2.0373008E-1,-2.3447779E-1,-4.7964996E-1,1.1929904E0,-5.114577E-1,-8.5288656E-1,-2.9216662E-2,1.5606507E-2,-6.131969E-2,-3.8763106E-2,-1.8939272E-2,2.8663004E-2,-1.5069151E-2,-6.641289E-2,-1.7937457E-2,-3.4262827E-1,1.6129743E-1,2.4000324E-2,-7.989284E-2,-1.2505248E-2,-1.1973599E-1,-7.189956E-2],"categories":[],"categories_nodes":[],"categories_segments":[],"categories_sizes":[],"default_left":[0,0,0,0,0,0,0,0,0,0,0,0,0,0,0,0,0,0,0,0,0,0,0,0,0,0,0,0,0,0,0],"id":32,"left_children":[1,3,5,7,9,11,13,15,17,19,21,23,25,27,29,-1,-1,-1,-1,-1,-1,-1,-1,-1,-1,-1,-1,-1,-1,-1,-1],"loss_changes":[1.08632996E2,9.7891914E1,6.914643E1,7.981613E0,1.0634213E2,3.0571994E2,9.005447E0,4.178786E0,2.788597E0,9.612919E1,2.4451149E1,4.4001642E2,5.5646378E1,1.8339401E1,6.472481E0,0E0,0E0,0E0,0E0,0E0,0E0,0E0,0E0,0E0,0E0,0E0,0E0,0E0,0E0,0E0,0E0],"parents":[2147483647,0,0,1,1,2,2,3,3,4,4,5,5,6,6,7,7,8,8,9,9,10,10,11,11,12,12,13,13,14,14],"right_children":[2,4,6,8,10,12,14,16,18,20,22,24,26,28,30,-1,-1,-1,-1,-1,-1,-1,-1,-1,-1,-1,-1,-1,-1,-1,-1],"split_conditions":[7E0,4E0,1.7E1,2E0,2.1E1,1.4E1,2E1,3E0,5E0,2E0,2.3E1,1.3E1,1.6E1,1.9E1,2.1E1,-2.9216662E-2,1.5606507E-2,-6.131969E-2,-3.8763106E-2,-1.8939272E-2,2.8663004E-2,-1.5069151E-2,-6.641289E-2,-1.7937457E-2,-3.4262827E-1,1.6129743E-1,2.4000324E-2,-7.989284E-2,-1.2505248E-2,-1.1973599E-1,-7.189956E-2],"split_indices":[0,1,1,0,1,1,1,1,0,0,1,1,1,1,1,0,0,0,0,0,0,0,0,0,0,0,0,0,0,0,0],"split_type":[0,0,0,0,0,0,0,0,0,0,0,0,0,0,0,0,0,0,0,0,0,0,0,0,0,0,0,0,0,0,0],"sum_hessian":[4.984E3,4.025E3,9.59E2,3.97E2,3.628E3,6.36E2,3.23E2,1.56E2,2.41E2,2.947E3,6.81E2,4.97E2,1.39E2,1.65E2,1.58E2,1.32E2,2.4E1,1.34E2,1.07E2,5.13E2,2.434E3,5.71E2,1.1E2,4.52E2,4.5E1,9.6E1,4.3E1,9.4E1,7.1E1,4.2E1,1.16E2],"tree_param":{"num_deleted":"0","num_feature":"2","num_nodes":"31","size_leaf_vector":"1"}},{"base_weights":[-2.1656002E-3,6.278835E-2,-2.74564E-1,-3.6119536E-1,1.0927023E-1,-1.0178583E-1,-6.1340696E-1,-2.0047444E-1,-4.6397218E-1,1.8336013E-1,-2.1114956E-1,-4.3240908E-1,1.0750153E0,-4.608682E-1,-7.688033E-1,-2.6316954E-2,1.41082425E-2,-2.8949246E-2,-5.2775722E-2,-1.7048987E-2,2.5797842E-2,-3.7363697E-2,7.150885E-4,-1.6147684E-2,-3.0911025E-1,1.4533404E-1,2.1654854E-2,-7.198762E-2,-1.1272058E-2,-1.08040884E-1,-6.477107E-2],"categories":[],"categories_nodes":[],"categories_segments":[],"categories_sizes":[],"default_left":[0,0,0,0,0,0,0,0,0,0,0,0,0,0,0,0,0,0,0,0,0,0,0,0,0,0,0,0,0,0,0],"id":33,"left_children":[1,3,5,7,9,11,13,15,17,19,21,23,25,27,29,-1,-1,-1,-1,-1,-1,-1,-1,-1,-1,-1,-1,-1,-1,-1,-1],"loss_changes":[8.82186E1,7.9382095E1,5.614044E1,6.4812965E0,8.6190704E1,2.4830742E2,7.325775E0,3.3991165E0,2.5404892E0,7.788205E1,2.4193943E1,3.5822308E2,4.5154404E1,1.4887577E1,5.2997665E0,0E0,0E0,0E0,0E0,0E0,0E0,0E0,0E0,0E0,0E0,0E0,0E0,0E0,0E0,0E0,0E0],"parents":[2147483647,0,0,1,1,2,2,3,3,4,4,5,5,6,6,7,7,8,8,9,9,10,10,11,11,12,12,13,13,14,14],"right_children":[2,4,6,8,10,12,14,16,18,20,22,24,26,28,30,-1,-1,-1,-1,-1,-1,-1,-1,-1,-1,-1,-1,-1,-1,-1,-1],"split_conditions":[7E0,4E0,1.7E1,2E0,2.1E1,1.4E1,2E1,3E0,1E0,2E0,5E0,1.3E1,1.6E1,1.9E1,2.1E1,-2.6316954E-2,1.41082425E-2,-2.8949246E-2,-5.2775722E-2,-1.7048987E-2,2.5797842E-2,-3.7363697E-2,7.150885E-4,-1.6147684E-2,-3.0911025E-1,1.4533404E-1,2.1654854E-2,-7.198762E-2,-1.1272058E-2,-1.08040884E-1,-6.477107E-2],"split_indices":[0,1,1,0,1,1,1,1,1,0,0,1,1,1,1,0,0,0,0,0,0,0,0,0,0,0,0,0,0,0,0],"split_type":[0,0,0,0,0,0,0,0,0,0,0,0,0,0,0,0,0,0,0,0,0,0,0,0,0,0,0,0,0,0,0],"sum_hessian":[4.984E3,4.025E3,9.59E2,3.97E2,3.628E3,6.36E2,3.23E2,1.56E2,2.41E2,2.947E3,6.81E2,4.97E2,1.39E2,1.65E2,1.58E2,1.32E2,2.4E1,6.6E1,1.75E2,5.13E2,2.434E3,3.9E2,2.91E2,4.52E2,4.5E1,9.6E1,4.3E1,9.4E1,7.1E1,4.2E1,1.16E2],"tree_param":{"num_deleted":"0","num_feature":"2","num_nodes":"31","size_leaf_vector":"1"}},{"base_weights":[-2.0562222E-3,5.647973E-2,-2.4753922E-1,-3.2531187E-1,9.833604E-2,-9.185571E-2,-5.528567E-1,-1.8050486E-1,-4.1791263E-1,1.6502774E-1,-1.9008838E-1,-3.8982132E-1,9.6870667E-1,-4.1528305E-1,-6.930099E-1,-2.370505E-2,1.2753819E-2,-5.040061E-2,-3.0642629E-2,-1.5347356E-2,2.3219187E-2,-7.6956996E-3,-4.981518E-2,-1.4536487E-2,-2.7887118E-1,1.3095044E-1,1.9538654E-2,-6.486469E-2,-1.0160471E-2,-9.7488046E-2,-5.834933E-2],"categories":[],"categories_nodes":[],"categories_segments":[],"categories_sizes":[],"default_left":[0,0,0,0,0,0,0,0,0,0,0,0,0,0,0,0,0,0,0,0,0,0,0,0,0,0,0,0,0,0,0],"id":34,"left_children":[1,3,5,7,9,11,13,15,17,19,21,23,25,27,29,-1,-1,-1,-1,-1,-1,-1,-1,-1,-1,-1,-1,-1,-1,-1,-1],"loss_changes":[7.164634E1,6.436903E1,4.5580795E1,5.261448E0,6.983705E1,2.016767E2,5.9593735E0,2.7649364E0,2.1683311E0,6.309884E1,2.3730482E1,2.9163388E2,3.664055E1,1.2085489E1,4.3394165E0,0E0,0E0,0E0,0E0,0E0,0E0,0E0,0E0,0E0,0E0,0E0,0E0,0E0,0E0,0E0,0E0],"parents":[2147483647,0,0,1,1,2,2,3,3,4,4,5,5,6,6,7,7,8,8,9,9,10,10,11,11,12,12,13,13,14,14],"right_children":[2,4,6,8,10,12,14,16,18,20,22,24,26,28,30,-1,-1,-1,-1,-1,-1,-1,-1,-1,-1,-1,-1,-1,-1,-1,-1],"split_conditions":[7E0,4E0,1.7E1,2E0,2.1E1,1.4E1,2E1,3E0,5E0,2E0,6E0,1.3E1,1.6E1,1.9E1,2.1E1,-2.370505E-2,1.2753819E-2,-5.040061E-2,-3.0642629E-2,-1.5347356E-2,2.3219187E-2,-7.6956996E-3,-4.981518E-2,-1.4536487E-2,-2.7887118E-1,1.3095044E-1,1.9538654E-2,-6.486469E-2,-1.0160471E-2,-9.7488046E-2,-5.834933E-2],"split_indices":[0,1,1,0,1,1,1,1,0,0,0,1,1,1,1,0,0,0,0,0,0,0,0,0,0,0,0,0,0,0,0],"split_type":[0,0,0,0,0,0,0,0,0,0,0,0,0,0,0,0,0,0,0,0,0,0,0,0,0,0,0,0,0,0,0],"sum_hessian":[4.984E3,4.025E3,9.59E2,3.97E2,3.628E3,6.36E2,3.23E2,1.56E2,2.41E2,2.947E3,6.81E2,4.97E2,1.39E2,1.65E2,1.58E2,1.32E2,2.4E1,1.34E2,1.07E2,5.13E2,2.434E3,4.99E2,1.82E2,4.52E2,4.5E1,9.6E1,4.3E1,9.4E1,7.1E1,4.2E1,1.16E2],"tree_param":{"num_deleted":"0","num_feature":"2","num_nodes":"31","size_leaf_vector":"1"}},{"base_weights":[-1.9543397E-3,-2.412245E-1,4.9397416E-2,-2.2027844E-1,-1.04905985E-1,1.971009E-1,-1.2986399E-1,-1.0994687E-1,-2.8133062E-1,5.224945E-1,-7.101444E-2,-7.432808E-1,-3.2967974E-2,-2.7206436E-2,1.0541123E-2,-5.6045663E-2,-2.2801641E-2,2.3478942E-1,3.9334174E-2,-1.4126538E-1,9.218945E-3,-1.336183E-1,1.5070898E-3,8.484076E-3,-4.9828343E-2],"categories":[],"categories_nodes":[],"categories_segments":[],"categories_sizes":[],"default_left":[0,0,0,0,0,0,0,0,0,0,0,0,0,0,0,0,0,0,0,0,0,0,0,0,0],"id":35,"left_children":[1,3,5,7,-1,9,11,13,15,17,19,21,23,-1,-1,-1,-1,-1,-1,-1,-1,-1,-1,-1,-1],"loss_changes":[6.1262325E1,1.4676277E1,1.0871586E2,5.7620163E0,0E0,1.9642117E2,1.1023233E2,1.078198E1,8.101608E0,2.3883972E2,2.7054675E2,1.1377612E2,8.791588E1,0E0,0E0,0E0,0E0,0E0,0E0,0E0,0E0,0E0,0E0,0E0,0E0],"parents":[2147483647,0,0,1,1,2,2,3,3,5,5,6,6,7,7,8,8,9,9,10,10,11,11,12,12],"right_children":[2,4,6,8,-1,10,12,14,16,18,20,22,24,-1,-1,-1,-1,-1,-1,-1,-1,-1,-1,-1,-1],"split_conditions":[6E0,5E0,1.7E1,3E0,-1.04905985E-1,5E0,2E0,3E0,4E0,7E0,8E0,2.1E1,7E0,-2.7206436E-2,1.0541123E-2,-5.6045663E-2,-2.2801641E-2,2.3478942E-1,3.9334174E-2,-1.4126538E-1,9.218945E-3,-1.336183E-1,1.5070898E-3,8.484076E-3,-4.9828343E-2],"split_indices":[1,1,1,0,0,0,0,1,0,1,1,1,0,0,0,0,0,0,0,0,0,0,0,0,0],"split_type":[0,0,0,0,0,0,0,0,0,0,0,0,0,0,0,0,0,0,0,0,0,0,0,0,0],"sum_hessian":[4.984E3,8.8E2,4.104E3,8.59E2,2.1E1,2.25E3,1.854E3,3.07E2,5.52E2,1.016E3,1.234E3,2.52E2,1.602E3,1.75E2,1.32E2,8.7E1,4.65E2,6.6E1,9.5E2,1.33E2,1.101E3,1.41E2,1.11E2,1.279E3,3.23E2],"tree_param":{"num_deleted":"0","num_feature":"2","num_nodes":"25","size_leaf_vector":"1"}},{"base_weights":[-1.8050581E-3,1.5862904E-2,-6.3666046E-1,-2.1732944E-1,6.75946E-2,-3.161603E-1,-9.47798E-2,-1.9836156E-1,-9.4892226E-2,1.7745455E-1,-7.613713E-2,-6.5795586E-2,-1.1477282E-1,-9.90062E-3,-2.5334004E-2,1.8452526E-3,7.067124E-2,-3.876876E-2,1.1565765E-2,7.1384595E-4,-2.3700858E-2],"categories":[],"categories_nodes":[],"categories_segments":[],"categories_sizes":[],"default_left":[0,0,0,0,0,0,0,0,0,0,0,0,0,0,0,0,0,0,0,0,0],"id":36,"left_children":[1,3,5,7,9,11,-1,13,-1,15,17,-1,19,-1,-1,-1,-1,-1,-1,-1,-1],"loss_changes":[5.5924854E1,5.8534424E1,1.3162487E1,1.20371895E1,6.2717033E1,4.6051507E0,0E0,4.6725883E0,0E0,1.894155E2,1.0288104E2,0E0,6.573763E-1,0E0,0E0,0E0,0E0,0E0,0E0,0E0,0E0],"parents":[2147483647,0,0,1,1,2,2,3,3,4,4,5,5,7,7,9,9,10,10,12,12],"right_children":[2,4,6,8,10,12,-1,14,-1,16,18,-1,20,-1,-1,-1,-1,-1,-1,-1,-1],"split_conditions":[2.3E1,6E0,6E0,5E0,1.7E1,2E0,-9.47798E-2,3E0,-9.4892226E-2,1.5E1,4E0,-6.5795586E-2,5E0,-9.90062E-3,-2.5334004E-2,1.8452526E-3,7.067124E-2,-3.876876E-2,1.1565765E-2,7.1384595E-4,-2.3700858E-2],"split_indices":[1,1,0,1,1,0,0,0,0,1,0,0,0,0,0,0,0,0,0,0,0],"split_type":[0,0,0,0,0,0,0,0,0,0,0,0,0,0,0,0,0,0,0,0,0],"sum_hessian":[4.984E3,4.85E3,1.34E2,8.8E2,3.97E3,6.7E1,6.7E1,8.59E2,2.1E1,2.25E3,1.72E3,2.4E1,4.3E1,3.07E2,5.52E2,1.731E3,5.19E2,6.55E2,1.065E3,2.2E1,2.1E1],"tree_param":{"num_deleted":"0","num_feature":"2","num_nodes":"21","size_leaf_vector":"1"}},{"base_weights":[-1.6782073E-3,2.9422725E-2,-3.0915275E-1,1.5177849E-1,-8.3042994E-2,-1.97698E-1,-5.743542E-1,8.721498E-3,6.497998E-1,-5.0425625E-1,6.212617E-2,-4.3978894E-1,1.4019085E-1,-2.8585005E-1,-8.5441194E-2,2.1753764E-2,-6.544464E-2,2.173813E-2,1.2950782E-1,-1.9821744E-2,-1.0129982E-1,3.7778836E-2,-6.2085222E-3,-1.0870202E-2,-5.4553222E-2,9.415107E-2,-2.4043566E-2,-5.9479207E-2,-1.03818225E-2],"categories":[],"categories_nodes":[],"categories_segments":[],"categories_sizes":[],"default_left":[0,0,0,0,0,0,0,0,0,0,0,0,0,0,0,0,0,0,0,0,0,0,0,0,0,0,0,0,0],"id":37,"left_children":[1,3,5,7,9,11,13,15,17,19,21,23,25,27,-1,-1,-1,-1,-1,-1,-1,-1,-1,-1,-1,-1,-1,-1,-1],"loss_changes":[4.7679382E1,6.232164E1,1.3423996E1,1.545257E2,1.4433867E2,2.6564796E1,1.0663467E1,2.3361987E2,1.3476913E2,9.399454E1,6.8874176E1,6.5576324E0,4.1706863E1,3.762385E0,0E0,0E0,0E0,0E0,0E0,0E0,0E0,0E0,0E0,0E0,0E0,0E0,0E0,0E0,0E0],"parents":[2147483647,0,0,1,1,2,2,3,3,4,4,5,5,6,6,7,7,8,8,9,9,10,10,11,11,12,12,13,13],"right_children":[2,4,6,8,10,12,14,16,18,20,22,24,26,28,-1,-1,-1,-1,-1,-1,-1,-1,-1,-1,-1,-1,-1,-1,-1],"split_conditions":[2.2E1,5E0,2.3E1,4E0,9E0,5E0,6E0,1.8E1,1.6E1,5E0,1.3E1,2E0,6E0,2E0,-8.5441194E-2,2.1753764E-2,-6.544464E-2,2.173813E-2,1.2950782E-1,-1.9821744E-2,-1.0129982E-1,3.7778836E-2,-6.2085222E-3,-1.0870202E-2,-5.4553222E-2,9.415107E-2,-2.4043566E-2,-5.9479207E-2,-1.03818225E-2],"split_indices":[1,0,1,0,1,0,0,1,1,1,1,0,0,0,0,0,0,0,0,0,0,0,0,0,0,0,0,0,0],"split_type":[0,0,0,0,0,0,0,0,0,0,0,0,0,0,0,0,0,0,0,0,0,0,0,0,0,0,0,0,0],"sum_hessian":[4.984E3,4.527E3,4.57E2,2.168E3,2.359E3,3.23E2,1.34E2,1.685E3,4.83E2,6.04E2,1.755E3,1.88E2,1.35E2,6.7E1,6.7E1,1.282E3,4.03E2,2.9E2,1.93E2,3.78E2,2.26E2,4.95E2,1.26E3,4.6E1,1.42E2,4.3E1,9.2E1,2.4E1,4.3E1],"tree_param":{"num_deleted":"0","num_feature":"2","num_nodes":"29","size_leaf_vector":"1"}},{"base_weights":[-1.5368835E-3,4.2895768E-2,-1.8787472E-1,-2.594654E-1,7.604453E-2,-4.405058E-1,-4.8624594E-2,-1.5303887E-1,-3.2743853E-1,1.2654454E-1,-1.4235735E-1,-1.6051167E-1,-6.785415E-1,1.2919072E0,-2.757418E-1,-1.9828599E-2,9.379727E-3,-4.1997243E-2,-2.0873932E-2,-1.4796442E-2,1.8443821E-2,-4.2404216E-3,-4.1467544E-2,3.964265E-2,-2.535195E-2,-5.0297618E-2,-7.79507E-2,1.7817694E-1,1.11699596E-1,-1.7414601E-1,-5.6713065E-3],"categories":[],"categories_nodes":[],"categories_segments":[],"categories_sizes":[],"default_left":[0,0,0,0,0,0,0,0,0,0,0,0,0,0,0,0,0,0,0,0,0,0,0,0,0,0,0,0,0,0,0],"id":38,"left_children":[1,3,5,7,9,11,13,15,17,19,21,23,25,27,29,-1,-1,-1,-1,-1,-1,-1,-1,-1,-1,-1,-1,-1,-1,-1,-1],"loss_changes":[4.1281284E1,4.0371918E1,3.3750336E1,2.8290768E0,4.0043335E1,2.2618256E1,1.8912007E2,1.7720721E0,2.5703907E0,4.6877872E1,1.8545807E1,8.284842E0,2.8695145E0,5.7211914E0,1.703705E2,0E0,0E0,0E0,0E0,0E0,0E0,0E0,0E0,0E0,0E0,0E0,0E0,0E0,0E0,0E0,0E0],"parents":[2147483647,0,0,1,1,2,2,3,3,4,4,5,5,6,6,7,7,8,8,9,9,10,10,11,11,12,12,13,13,14,14],"right_children":[2,4,6,8,10,12,14,16,18,20,22,24,26,28,30,-1,-1,-1,-1,-1,-1,-1,-1,-1,-1,-1,-1,-1,-1,-1,-1],"split_conditions":[7E0,4E0,1E1,2E0,2.1E1,4E0,1.2E1,3E0,5E0,2E0,6E0,1E0,5E0,1.1E1,1.4E1,-1.9828599E-2,9.379727E-3,-4.1997243E-2,-2.0873932E-2,-1.4796442E-2,1.8443821E-2,-4.2404216E-3,-4.1467544E-2,3.964265E-2,-2.535195E-2,-5.0297618E-2,-7.79507E-2,1.7817694E-1,1.11699596E-1,-1.7414601E-1,-5.6713065E-3],"split_indices":[0,1,1,0,1,1,1,1,0,0,0,1,1,1,1,0,0,0,0,0,0,0,0,0,0,0,0,0,0,0,0],"split_type":[0,0,0,0,0,0,0,0,0,0,0,0,0,0,0,0,0,0,0,0,0,0,0,0,0,0,0,0,0,0,0],"sum_hessian":[4.984E3,4.025E3,9.59E2,3.97E2,3.628E3,3.4E2,6.19E2,1.56E2,2.41E2,2.947E3,6.81E2,1.57E2,1.83E2,8.9E1,5.3E2,1.32E2,2.4E1,1.34E2,1.07E2,5.13E2,2.434E3,4.99E2,1.82E2,2.2E1,1.35E2,6.9E1,1.14E2,2.1E1,6.8E1,6.8E1,4.62E2],"tree_param":{"num_deleted":"0","num_feature":"2","num_nodes":"31","size_leaf_vector":"1"}},{"base_weights":[-1.4072232E-3,2.5477111E-2,-2.6719514E-1,1.3387197E-1,-7.415591E-2,-1.991333E-1,-6.1210907E-1,7.2874743E-3,5.7454884E-1,-4.3749565E-1,5.1068857E-2,-3.699861E-1,6.986357E-2,-5.3467553E-2,-7.4558906E-2,1.9655319E-2,-5.9378978E-2,1.8668383E-2,1.1533847E-1,-1.5885845E-2,-9.00782E-2,3.1961266E-2,-5.460029E-3,-5.042618E-2,-2.3485797E-2,5.430868E-2,-5.5732198E-2],"categories":[],"categories_nodes":[],"categories_segments":[],"categories_sizes":[],"default_left":[0,0,0,0,0,0,0,0,0,0,0,0,0,0,0,0,0,0,0,0,0,0,0,0,0,0,0],"id":39,"left_children":[1,3,5,7,9,11,13,15,17,19,21,23,25,-1,-1,-1,-1,-1,-1,-1,-1,-1,-1,-1,-1,-1,-1],"loss_changes":[3.562728E1,4.8911007E1,1.0629875E1,1.2098883E2,1.074003E2,1.7674053E1,3.7653923E-1,1.9192166E2,1.0844762E2,7.795563E1,4.9847095E1,4.1455116E0,4.4822483E1,0E0,0E0,0E0,0E0,0E0,0E0,0E0,0E0,0E0,0E0,0E0,0E0,0E0,0E0],"parents":[2147483647,0,0,1,1,2,2,3,3,4,4,5,5,6,6,7,7,8,8,9,9,10,10,11,11,12,12],"right_children":[2,4,6,8,10,12,14,16,18,20,22,24,26,-1,-1,-1,-1,-1,-1,-1,-1,-1,-1,-1,-1,-1,-1],"split_conditions":[2.2E1,5E0,7E0,4E0,9E0,5E0,2.3E1,1.8E1,1.6E1,5E0,1.3E1,3E0,2.3E1,-5.3467553E-2,-7.4558906E-2,1.9655319E-2,-5.9378978E-2,1.8668383E-2,1.1533847E-1,-1.5885845E-2,-9.00782E-2,3.1961266E-2,-5.460029E-3,-5.042618E-2,-2.3485797E-2,5.430868E-2,-5.5732198E-2],"split_indices":[1,0,0,0,1,0,1,1,1,1,1,0,1,0,0,0,0,0,0,0,0,0,0,0,0,0,0],"split_type":[0,0,0,0,0,0,0,0,0,0,0,0,0,0,0,0,0,0,0,0,0,0,0,0,0,0,0],"sum_hessian":[4.984E3,4.527E3,4.57E2,2.168E3,2.359E3,3.83E2,7.4E1,1.685E3,4.83E2,6.04E2,1.755E3,2.34E2,1.49E2,5E1,2.4E1,1.282E3,4.03E2,2.9E2,1.93E2,3.78E2,2.26E2,4.95E2,1.26E3,1.16E2,1.18E2,8.5E1,6.4E1],"tree_param":{"num_deleted":"0","num_feature":"2","num_nodes":"27","size_leaf_vector":"1"}},{"base_weights":[-1.3042885E-3,-1.829016E-1,3.7669778E-2,-1.69633E-1,-6.932696E-2,1.3648744E-1,-8.226349E-2,-2.1132621E-1,-9.345864E-2,-2.1825195E-3,5.9810257E-1,-5.383624E-1,-1.02265095E-2,-8.268815E-3,-2.512731E-2,8.6216343E-4,-4.3773815E-2,1.2769776E-2,-4.479553E-2,1.9937824E-1,2.2310773E-2,-1.0825645E-1,1.564148E-2,9.194287E-3,-4.1382704E-2],"categories":[],"categories_nodes":[],"categories_segments":[],"categories_sizes":[],"default_left":[0,0,0,0,0,0,0,0,0,0,0,0,0,0,0,0,0,0,0,0,0,0,0,0,0],"id":40,"left_children":[1,3,5,7,-1,9,11,13,15,17,19,21,23,-1,-1,-1,-1,-1,-1,-1,-1,-1,-1,-1,-1],"loss_changes":[3.528866E1,5.8484154E0,4.866174E1,2.7115688E0,0E0,1.4409268E2,6.0942356E1,2.8311958E0,1.0757883E1,1.00334984E2,2.7170898E2,9.582841E1,6.613874E1,0E0,0E0,0E0,0E0,0E0,0E0,0E0,0E0,0E0,0E0,0E0,0E0],"parents":[2147483647,0,0,1,1,2,2,3,3,5,5,6,6,7,7,8,8,9,9,10,10,11,11,12,12],"right_children":[2,4,6,8,-1,10,12,14,16,18,20,22,24,-1,-1,-1,-1,-1,-1,-1,-1,-1,-1,-1,-1],"split_conditions":[6E0,5E0,1.7E1,4E0,-6.932696E-2,1.5E1,2E0,1E0,7E0,1.3E1,3E0,2.1E1,7E0,-8.268815E-3,-2.512731E-2,8.6216343E-4,-4.3773815E-2,1.2769776E-2,-4.479553E-2,1.9937824E-1,2.2310773E-2,-1.0825645E-1,1.564148E-2,9.194287E-3,-4.1382704E-2],"split_indices":[1,1,1,1,0,1,0,1,0,1,0,1,0,0,0,0,0,0,0,0,0,0,0,0,0],"split_type":[0,0,0,0,0,0,0,0,0,0,0,0,0,0,0,0,0,0,0,0,0,0,0,0,0],"sum_hessian":[4.984E3,8.8E2,4.104E3,8.59E2,2.1E1,2.25E3,1.854E3,5.54E2,3.05E2,1.731E3,5.19E2,2.52E2,1.602E3,1.32E2,4.22E2,2.36E2,6.9E1,1.341E3,3.9E2,1.09E2,4.1E2,1.41E2,1.11E2,1.279E3,3.23E2],"tree_param":{"num_deleted":"0","num_feature":"2","num_nodes":"25","size_leaf_vector":"1"}},{"base_weights":[-1.1899278E-3,2.3259673E-2,-2.429074E-1,-5.6892093E-2,1.3245799E-1,-1.5563527E-1,-4.505612E-1,4.08548E-3,-4.0327388E-1,5.387189E-1,-1.8749557E-2,-3.661777E-1,1.3810116E-1,-2.2284204E-1,-6.716545E-2,-9.268173E-3,2.6824012E-2,3.544348E-2,-6.510518E-2,1.796216E-1,2.0085176E-2,-5.866569E-2,6.6732178E-3,-5.9868125E-3,-4.642922E-2,7.915828E-2,-1.7255789E-2,-5.002277E-2,-6.0171974E-3],"categories":[],"categories_nodes":[],"categories_segments":[],"categories_sizes":[],"default_left":[0,0,0,0,0,0,0,0,0,0,0,0,0,0,0,0,0,0,0,0,0,0,0,0,0,0,0,0,0],"id":41,"left_children":[1,3,5,7,9,11,13,15,17,19,21,23,25,27,-1,-1,-1,-1,-1,-1,-1,-1,-1,-1,-1,-1,-1,-1,-1],"loss_changes":[2.9466478E1,3.9638573E1,8.229931E0,5.517106E1,1.1777086E2,2.008802E1,6.647194E0,5.6822533E1,7.363844E1,2.2057007E2,6.7906044E1,5.652298E0,2.7745949E1,3.0382195E0,0E0,0E0,0E0,0E0,0E0,0E0,0E0,0E0,0E0,0E0,0E0,0E0,0E0,0E0,0E0],"parents":[2147483647,0,0,1,1,2,2,3,3,4,4,5,5,6,6,7,7,8,8,9,9,10,10,11,11,12,12,13,13],"right_children":[2,4,6,8,10,12,14,16,18,20,22,24,26,28,-1,-1,-1,-1,-1,-1,-1,-1,-1,-1,-1,-1,-1,-1,-1],"split_conditions":[2.2E1,1.5E1,2.3E1,1.3E1,1.7E1,5E0,6E0,1E1,4E0,3E0,2E0,2E0,6E0,2E0,-6.716545E-2,-9.268173E-3,2.6824012E-2,3.544348E-2,-6.510518E-2,1.796216E-1,2.0085176E-2,-5.866569E-2,6.6732178E-3,-5.9868125E-3,-4.642922E-2,7.915828E-2,-1.7255789E-2,-5.002277E-2,-6.0171974E-3],"split_indices":[1,1,1,1,1,0,0,1,0,0,0,0,0,0,0,0,0,0,0,0,0,0,0,0,0,0,0,0,0],"split_type":[0,0,0,0,0,0,0,0,0,0,0,0,0,0,0,0,0,0,0,0,0,0,0,0,0,0,0,0,0],"sum_hessian":[4.984E3,4.527E3,4.57E2,2.611E3,1.916E3,3.23E2,1.34E2,2.221E3,3.9E2,5.19E2,1.397E3,1.88E2,1.35E2,6.7E1,6.7E1,1.626E3,5.95E2,9.6E1,2.94E2,1.09E2,4.1E2,1.82E2,1.215E3,4.6E1,1.42E2,4.3E1,9.2E1,2.4E1,4.3E1],"tree_param":{"num_deleted":"0","num_feature":"2","num_nodes":"29","size_leaf_vector":"1"}},{"base_weights":[-1.0666064E-3,-1.5551904E-1,3.2081667E-2,-1.4350098E-1,-6.1824698E-2,1.0477347E-1,-8.121071E-2,-1.8100215E-1,-7.5015195E-2,3.9284468E-1,-1.3294595E-1,-4.5333928E-1,1.213912E-1,-6.5282895E-3,-2.169588E-2,1.6992085E-3,-3.8545392E-2,2.0752063E-1,2.8663713E-2,-1.0722964E-1,-3.1164137E-3,-1.10675395E-1,-3.2418128E-2,4.8913486E-2,-1.5992029E-2],"categories":[],"categories_nodes":[],"categories_segments":[],"categories_sizes":[],"default_left":[0,0,0,0,0,0,0,0,0,0,0,0,0,0,0,0,0,0,0,0,0,0,0,0,0],"id":42,"left_children":[1,3,5,7,-1,9,11,13,15,17,19,21,23,-1,-1,-1,-1,-1,-1,-1,-1,-1,-1,-1,-1],"loss_changes":[2.552735E1,4.810604E0,3.3814934E1,2.195156E0,0E0,1.7132101E2,1.2106233E2,2.2951221E0,8.746712E0,2.0149171E2,1.3104623E2,4.7408066E1,1.0766675E2,0E0,0E0,0E0,0E0,0E0,0E0,0E0,0E0,0E0,0E0,0E0,0E0],"parents":[2147483647,0,0,1,1,2,2,3,3,5,5,6,6,7,7,8,8,9,9,10,10,11,11,12,12],"right_children":[2,4,6,8,-1,10,12,14,16,18,20,22,24,-1,-1,-1,-1,-1,-1,-1,-1,-1,-1,-1,-1],"split_conditions":[6E0,5E0,1.8E1,4E0,-6.1824698E-2,5E0,4E0,1E0,7E0,7E0,8E0,1.9E1,6E0,-6.5282895E-3,-2.169588E-2,1.6992085E-3,-3.8545392E-2,2.0752063E-1,2.8663713E-2,-1.0722964E-1,-3.1164137E-3,-1.10675395E-1,-3.2418128E-2,4.8913486E-2,-1.5992029E-2],"split_indices":[1,1,1,1,0,0,0,1,0,1,1,1,0,0,0,0,0,0,0,0,0,0,0,0,0],"split_type":[0,0,0,0,0,0,0,0,0,0,0,0,0,0,0,0,0,0,0,0,0,0,0,0,0],"sum_hessian":[4.984E3,8.8E2,4.104E3,8.59E2,2.1E1,2.5E3,1.604E3,5.54E2,3.05E2,1.13E3,1.37E3,5.65E2,1.039E3,1.32E2,4.22E2,2.36E2,6.9E1,6.6E1,1.064E3,1.33E2,1.237E3,9.2E1,4.73E2,4.5E2,5.89E2],"tree_param":{"num_deleted":"0","num_feature":"2","num_nodes":"25","size_leaf_vector":"1"}},{"base_weights":[-9.822405E-4,2.0804213E-2,-2.1637106E-1,-5.2617356E-2,1.208336E-1,-1.3573377E-1,-4.0829784E-1,3.4256724E-3,-3.7096772E-1,4.737358E-1,-1.0518317E-2,-3.19107E-1,1.2009915E-1,-2.2087142E-1,-5.897199E-2,-8.04786E-3,2.3246733E-2,2.9098779E-2,-5.8737017E-2,1.5898252E-1,1.7387314E-2,-5.0182898E-2,6.342935E-3,-2.228028E-3,-4.1443393E-2,4.3252338E-2,-4.0908873E-2,-4.2108443E-2,-1.0209422E-2],"categories":[],"categories_nodes":[],"categories_segments":[],"categories_sizes":[],"default_left":[0,0,0,0,0,0,0,0,0,0,0,0,0,0,0,0,0,0,0,0,0,0,0,0,0,0,0,0,0],"id":43,"left_children":[1,3,5,7,9,11,13,15,17,19,21,23,25,27,-1,-1,-1,-1,-1,-1,-1,-1,-1,-1,-1,-1,-1,-1,-1],"loss_changes":[2.3396906E1,3.3261414E1,7.032795E0,4.6602795E1,8.886633E1,1.5238107E1,4.4601917E0,4.2720154E1,5.6181183E1,1.7375378E2,5.0822952E1,5.338629E0,2.266197E1,1.5741E0,0E0,0E0,0E0,0E0,0E0,0E0,0E0,0E0,0E0,0E0,0E0,0E0,0E0,0E0,0E0],"parents":[2147483647,0,0,1,1,2,2,3,3,4,4,5,5,6,6,7,7,8,8,9,9,10,10,11,11,12,12,13,13],"right_children":[2,4,6,8,10,12,14,16,18,20,22,24,26,28,-1,-1,-1,-1,-1,-1,-1,-1,-1,-1,-1,-1,-1,-1,-1],"split_conditions":[2.2E1,1.5E1,2.3E1,1.3E1,1.7E1,5E0,6E0,1E1,4E0,3E0,2E0,2E0,7E0,2E0,-5.897199E-2,-8.04786E-3,2.3246733E-2,2.9098779E-2,-5.8737017E-2,1.5898252E-1,1.7387314E-2,-5.0182898E-2,6.342935E-3,-2.228028E-3,-4.1443393E-2,4.3252338E-2,-4.0908873E-2,-4.2108443E-2,-1.0209422E-2],"split_indices":[1,1,1,1,1,0,0,1,0,0,0,0,0,0,0,0,0,0,0,0,0,0,0,0,0,0,0,0,0],"split_type":[0,0,0,0,0,0,0,0,0,0,0,0,0,0,0,0,0,0,0,0,0,0,0,0,0,0,0,0,0],"sum_hessian":[4.984E3,4.527E3,4.57E2,2.611E3,1.916E3,3.23E2,1.34E2,2.221E3,3.9E2,5.19E2,1.397E3,1.88E2,1.35E2,6.7E1,6.7E1,1.626E3,5.95E2,9.6E1,2.94E2,1.09E2,4.1E2,1.82E2,1.215E3,4.6E1,1.42E2,8.5E1,5E1,2.4E1,4.3E1],"tree_param":{"num_deleted":"0","num_feature":"2","num_nodes":"29","size_leaf_vector":"1"}},{"base_weights":[-8.9107547E-4,1.8749721E-2,-1.9506714E-1,-4.7361255E-2,1.08819164E-1,-1.2228781E-1,-3.682926E-1,3.0898368E-3,-3.3394682E-1,4.267012E-1,-9.498052E-3,-2.8742728E-1,1.0810667E-1,-1.9955386E-1,-5.316153E-2,-7.2435825E-3,2.0925958E-2,2.6218927E-2,-5.2883245E-2,1.4322872E-1,1.5652804E-2,-4.5192022E-2,5.7091387E-3,-2.0099676E-3,-3.7328023E-2,3.8977433E-2,-3.6898207E-2,-3.8066026E-2,-9.21172E-3],"categories":[],"categories_nodes":[],"categories_segments":[],"categories_sizes":[],"default_left":[0,0,0,0,0,0,0,0,0,0,0,0,0,0,0,0,0,0,0,0,0,0,0,0,0,0,0,0,0],"id":44,"left_children":[1,3,5,7,9,11,13,15,17,19,21,23,25,27,-1,-1,-1,-1,-1,-1,-1,-1,-1,-1,-1,-1,-1,-1,-1],"loss_changes":[1.9015316E1,2.6967487E1,5.7290745E0,3.7766777E1,7.210418E1,1.2358374E1,3.6143608E0,3.4614155E1,4.556439E1,1.4105063E2,4.121178E1,4.3302097E0,1.8419563E1,1.2880421E0,0E0,0E0,0E0,0E0,0E0,0E0,0E0,0E0,0E0,0E0,0E0,0E0,0E0,0E0,0E0],"parents":[2147483647,0,0,1,1,2,2,3,3,4,4,5,5,6,6,7,7,8,8,9,9,10,10,11,11,12,12,13,13],"right_children":[2,4,6,8,10,12,14,16,18,20,22,24,26,28,-1,-1,-1,-1,-1,-1,-1,-1,-1,-1,-1,-1,-1,-1,-1],"split_conditions":[2.2E1,1.5E1,2.3E1,1.3E1,1.7E1,5E0,6E0,1E1,4E0,3E0,2E0,2E0,7E0,2E0,-5.316153E-2,-7.2435825E-3,2.0925958E-2,2.6218927E-2,-5.2883245E-2,1.4322872E-1,1.5652804E-2,-4.5192022E-2,5.7091387E-3,-2.0099676E-3,-3.7328023E-2,3.8977433E-2,-3.6898207E-2,-3.8066026E-2,-9.21172E-3],"split_indices":[1,1,1,1,1,0,0,1,0,0,0,0,0,0,0,0,0,0,0,0,0,0,0,0,0,0,0,0,0],"split_type":[0,0,0,0,0,0,0,0,0,0,0,0,0,0,0,0,0,0,0,0,0,0,0,0,0,0,0,0,0],"sum_hessian":[4.984E3,4.527E3,4.57E2,2.611E3,1.916E3,3.23E2,1.34E2,2.221E3,3.9E2,5.19E2,1.397E3,1.88E2,1.35E2,6.7E1,6.7E1,1.626E3,5.95E2,9.6E1,2.94E2,1.09E2,4.1E2,1.82E2,1.215E3,4.6E1,1.42E2,8.5E1,5E1,2.4E1,4.3E1],"tree_param":{"num_deleted":"0","num_feature":"2","num_nodes":"29","size_leaf_vector":"1"}},{"base_weights":[-8.0812525E-4,-1.24837E-1,2.5810694E-2,-1.1395281E-1,-5.4463584E-2,1.0387088E-1,-4.2896952E-2,-1.4768873E-1,-5.239271E-2,1.8858451E0,3.9487187E-2,-9.506901E-1,1.6433703E-2,-2.0551141E-2,-8.363556E-3,3.0526707E-3,-3.323857E-2,1.457948E-1,2.7537176E-1,-1.0931528E-2,4.7978215E-2,-1.1802695E-1,-7.173143E-2,3.5771101E-3,-4.1026015E-2],"categories":[],"categories_nodes":[],"categories_segments":[],"categories_sizes":[],"default_left":[0,0,0,0,0,0,0,0,0,0,0,0,0,0,0,0,0,0,0,0,0,0,0,0,0],"id":45,"left_children":[1,3,5,7,-1,9,11,13,15,17,19,21,23,-1,-1,-1,-1,-1,-1,-1,-1,-1,-1,-1,-1],"loss_changes":[1.646121E1,3.963379E0,2.2020933E1,1.7782984E0,0E0,2.2043677E2,1.1764578E2,2.0383797E0,7.1145043E0,2.0866379E1,1.21651955E2,6.332863E0,1.6937782E1,0E0,0E0,0E0,0E0,0E0,0E0,0E0,0E0,0E0,0E0,0E0,0E0],"parents":[2147483647,0,0,1,1,2,2,3,3,5,5,6,6,7,7,8,8,9,9,10,10,11,11,12,12],"right_children":[2,4,6,8,-1,10,12,14,16,18,20,22,24,-1,-1,-1,-1,-1,-1,-1,-1,-1,-1,-1,-1],"split_conditions":[6E0,5E0,5E0,4E0,-5.4463584E-2,7E0,8E0,5E0,7E0,2E0,4E0,7E0,2.3E1,-2.0551141E-2,-8.363556E-3,3.0526707E-3,-3.323857E-2,1.457948E-1,2.7537176E-1,-1.0931528E-2,4.7978215E-2,-1.1802695E-1,-7.173143E-2,3.5771101E-3,-4.1026015E-2],"split_indices":[1,1,0,1,0,1,1,0,0,0,0,1,1,0,0,0,0,0,0,0,0,0,0,0,0],"split_type":[0,0,0,0,0,0,0,0,0,0,0,0,0,0,0,0,0,0,0,0,0,0,0,0,0],"sum_hessian":[4.984E3,8.8E2,4.104E3,8.59E2,2.1E1,1.921E3,2.183E3,5.54E2,3.05E2,6.6E1,1.855E3,1.33E2,2.05E3,2.9E2,2.64E2,2.36E2,6.9E1,4.6E1,2E1,1.387E3,4.68E2,6.5E1,6.8E1,1.962E3,8.8E1],"tree_param":{"num_deleted":"0","num_feature":"2","num_nodes":"25","size_leaf_vector":"1"}},{"base_weights":[-7.0360664E-4,1.6694587E-2,-1.7270866E-1,-4.0587667E-2,9.473556E-2,-3.4430927E-1,-1.134982E-1,5.988161E-3,-3.0516797E-1,3.8063726E-1,-1.1676175E-2,-1.22393675E-1,-6.7221776E-2,2.1335196E-2,-2.6700455E-1,-5.9441244E-3,1.8459162E-2,2.4705943E-2,-4.8571337E-2,1.3011925E-1,1.3333383E-2,5.933021E-3,-3.3797484E-2,-7.433663E-4,-3.3362277E-2,-1.5684813E-2,3.4721952E-2,-1.3851046E-2,-4.388126E-2],"categories":[],"categories_nodes":[],"categories_segments":[],"categories_sizes":[],"default_left":[0,0,0,0,0,0,0,0,0,0,0,0,0,0,0,0,0,0,0,0,0,0,0,0,0,0,0,0,0],"id":46,"left_children":[1,3,5,7,9,11,13,15,17,19,21,23,-1,25,27,-1,-1,-1,-1,-1,-1,-1,-1,-1,-1,-1,-1,-1,-1],"loss_changes":[1.492088E1,2.024565E1,4.614455E0,3.2189625E1,5.8325905E1,8.431581E0,7.0843377E0,2.5977077E1,3.910353E1,1.1820784E2,3.2410713E1,1.7216057E0,0E0,1.068075E1,3.4714308E0,0E0,0E0,0E0,0E0,0E0,0E0,0E0,0E0,0E0,0E0,0E0,0E0,0E0,0E0],"parents":[2147483647,0,0,1,1,2,2,3,3,4,4,5,5,6,6,7,7,8,8,9,9,10,10,11,11,13,13,14,14],"right_children":[2,4,6,8,10,12,14,16,18,20,22,24,-1,26,28,-1,-1,-1,-1,-1,-1,-1,-1,-1,-1,-1,-1,-1,-1],"split_conditions":[2.2E1,1.5E1,3E0,1.3E1,1.7E1,2E0,6E0,1E1,4E0,3E0,7E0,2.3E1,-6.7221776E-2,5E0,2.3E1,-5.9441244E-3,1.8459162E-2,2.4705943E-2,-4.8571337E-2,1.3011925E-1,1.3333383E-2,5.933021E-3,-3.3797484E-2,-7.433663E-4,-3.3362277E-2,-1.5684813E-2,3.4721952E-2,-1.3851046E-2,-4.388126E-2],"split_indices":[1,1,0,1,1,0,0,1,0,0,0,1,0,0,1,0,0,0,0,0,0,0,0,0,0,0,0,0,0],"split_type":[0,0,0,0,0,0,0,0,0,0,0,0,0,0,0,0,0,0,0,0,0,0,0,0,0,0,0,0,0],"sum_hessian":[4.984E3,4.527E3,4.57E2,2.611E3,1.916E3,1.16E2,3.41E2,2.221E3,3.9E2,5.19E2,1.397E3,7E1,4.6E1,1.82E2,1.59E2,1.626E3,5.95E2,9.6E1,2.94E2,1.09E2,4.1E2,1.148E3,2.49E2,4.6E1,2.4E1,1.18E2,6.4E1,9.2E1,6.7E1],"tree_param":{"num_deleted":"0","num_feature":"2","num_nodes":"29","size_leaf_vector":"1"}},{"base_weights":[-6.4063875E-4,1.5047915E-2,-1.5574354E-1,-3.6533453E-2,8.532204E-2,-3.1074435E-1,-1.02261566E-1,5.3948024E-3,-2.7471262E-1,3.428487E-1,-1.0528592E-2,-1.1063465E-1,-6.064261E-2,1.930557E-2,-2.4066485E-1,-5.3500957E-3,1.6616326E-2,-1.504244E-1,-2.0437604E-2,1.172256E-1,1.2003201E-2,-4.020038E-2,4.839451E-3,-6.706141E-4,-3.0159486E-2,-1.4129511E-2,3.1303134E-2,-1.2480822E-2,-3.955766E-2],"categories":[],"categories_nodes":[],"categories_segments":[],"categories_sizes":[],"default_left":[0,0,0,0,0,0,0,0,0,0,0,0,0,0,0,0,0,0,0,0,0,0,0,0,0,0,0,0,0],"id":47,"left_children":[1,3,5,7,9,11,13,15,17,19,21,23,-1,25,27,-1,-1,-1,-1,-1,-1,-1,-1,-1,-1,-1,-1,-1,-1],"loss_changes":[1.2132545E1,1.641637E1,3.7649279E0,2.6086052E1,4.732301E1,6.8556547E0,5.758895E0,2.1048075E1,3.350666E1,9.595829E1,3.226703E1,1.4070582E0,0E0,8.676807E0,2.822238E0,0E0,0E0,0E0,0E0,0E0,0E0,0E0,0E0,0E0,0E0,0E0,0E0,0E0,0E0],"parents":[2147483647,0,0,1,1,2,2,3,3,4,4,5,5,6,6,7,7,8,8,9,9,10,10,11,11,13,13,14,14],"right_children":[2,4,6,8,10,12,14,16,18,20,22,24,-1,26,28,-1,-1,-1,-1,-1,-1,-1,-1,-1,-1,-1,-1,-1,-1],"split_conditions":[2.2E1,1.5E1,3E0,1.3E1,1.7E1,2E0,6E0,1E1,2E0,3E0,2E0,2.3E1,-6.064261E-2,5E0,2.3E1,-5.3500957E-3,1.6616326E-2,-1.504244E-1,-2.0437604E-2,1.172256E-1,1.2003201E-2,-4.020038E-2,4.839451E-3,-6.706141E-4,-3.0159486E-2,-1.4129511E-2,3.1303134E-2,-1.2480822E-2,-3.955766E-2],"split_indices":[1,1,0,1,1,0,0,1,0,0,0,1,0,0,1,0,0,0,0,0,0,0,0,0,0,0,0,0,0],"split_type":[0,0,0,0,0,0,0,0,0,0,0,0,0,0,0,0,0,0,0,0,0,0,0,0,0,0,0,0,0],"sum_hessian":[4.984E3,4.527E3,4.57E2,2.611E3,1.916E3,1.16E2,3.41E2,2.221E3,3.9E2,5.19E2,1.397E3,7E1,4.6E1,1.82E2,1.59E2,1.626E3,5.95E2,2E1,3.7E2,1.09E2,4.1E2,1.82E2,1.215E3,4.6E1,2.4E1,1.18E2,6.4E1,9.2E1,6.7E1],"tree_param":{"num_deleted":"0","num_feature":"2","num_nodes":"29","size_leaf_vector":"1"}},{"base_weights":[-6.1519485E-4,-1.0120077E-1,2.0972261E-2,-9.134512E-2,-4.8186705E-2,2.5459465E-1,-5.315486E-4,-1.2169799E-1,-3.5994817E-2,9.456835E-1,-8.458271E-1,-4.0617636E-1,5.7964396E-2,-1.7977292E-3,-1.5402223E-2,-3.1298384E-2,3.7105156E-3,1.5629175E-1,4.9864743E-2,-1.05290785E-1,-6.354915E-2,-1.0672033E-1,-8.164225E-3,1.1643418E-2,-1.634881E-2],"categories":[],"categories_nodes":[],"categories_segments":[],"categories_sizes":[],"default_left":[0,0,0,0,0,0,0,0,0,0,0,0,0,0,0,0,0,0,0,0,0,0,0,0,0],"id":48,"left_children":[1,3,5,7,-1,9,11,13,15,17,19,21,23,-1,-1,-1,-1,-1,-1,-1,-1,-1,-1,-1,-1],"loss_changes":[1.0826485E1,3.2612438E0,2.0622717E1,1.4404545E0,0E0,2.6392914E2,8.9243E1,1.857975E0,6.207467E0,5.7992874E1,5.16745E0,1.0159811E2,4.258003E1,0E0,0E0,0E0,0E0,0E0,0E0,0E0,0E0,0E0,0E0,0E0,0E0],"parents":[2147483647,0,0,1,1,2,2,3,3,5,5,6,6,7,7,8,8,9,9,10,10,11,11,12,12],"right_children":[2,4,6,8,-1,10,12,14,16,18,20,22,24,-1,-1,-1,-1,-1,-1,-1,-1,-1,-1,-1,-1],"split_conditions":[6E0,5E0,8E0,4E0,-4.8186705E-2,5E0,2E0,1E0,2E0,2E0,7E0,1.4E1,2.1E1,-1.7977292E-3,-1.5402223E-2,-3.1298384E-2,3.7105156E-3,1.5629175E-1,4.9864743E-2,-1.05290785E-1,-6.354915E-2,-1.0672033E-1,-8.164225E-3,1.1643418E-2,-1.634881E-2],"split_indices":[1,1,1,1,0,0,0,1,0,0,1,1,1,0,0,0,0,0,0,0,0,0,0,0,0],"split_type":[0,0,0,0,0,0,0,0,0,0,0,0,0,0,0,0,0,0,0,0,0,0,0,0,0],"sum_hessian":[4.984E3,8.8E2,4.104E3,8.59E2,2.1E1,3.45E2,3.759E3,5.54E2,3.05E2,2.12E2,1.33E2,4.73E2,3.286E3,1.32E2,4.22E2,6.3E1,2.42E2,8.8E1,1.24E2,6.5E1,6.8E1,1.55E2,3.18E2,2.6E3,6.86E2],"tree_param":{"num_deleted":"0","num_feature":"2","num_nodes":"25","size_leaf_vector":"1"}},{"base_weights":[-5.8920274E-4,-9.118624E-2,1.8854544E-2,-8.22627E-2,-4.3587055E-2,2.2924326E-1,-5.1070884E-4,-1.2245085E-1,-4.802112E-2,8.5208344E-1,-7.625045E-1,-3.6580133E-1,5.2165978E-2,-3.3265245E-3,-4.3320898E-2,-1.1339044E-2,8.135793E-3,1.5924825E-1,5.088262E-2,-9.492125E-2,-5.7286352E-2,-9.6116744E-2,-7.350381E-3,1.0479454E-2,-1.4716305E-2],"categories":[],"categories_nodes":[],"categories_segments":[],"categories_sizes":[],"default_left":[0,0,0,0,0,0,0,0,0,0,0,0,0,0,0,0,0,0,0,0,0,0,0,0,0],"id":49,"left_children":[1,3,5,7,-1,9,11,13,15,17,19,21,23,-1,-1,-1,-1,-1,-1,-1,-1,-1,-1,-1,-1],"loss_changes":[8.783025E0,2.6739264E0,1.6724833E1,1.1775703E0,0E0,2.1437407E2,7.237013E1,1.0933074E1,3.9503832E0,5.3323074E1,4.2008286E0,8.241675E1,3.4497364E1,0E0,0E0,0E0,0E0,0E0,0E0,0E0,0E0,0E0,0E0,0E0,0E0],"parents":[2147483647,0,0,1,1,2,2,3,3,5,5,6,6,7,7,8,8,9,9,10,10,11,11,12,12],"right_children":[2,4,6,8,-1,10,12,14,16,18,20,22,24,-1,-1,-1,-1,-1,-1,-1,-1,-1,-1,-1,-1],"split_conditions":[6E0,5E0,8E0,4E0,-4.3587055E-2,5E0,2E0,3E0,4E0,7E0,7E0,1.4E1,2.1E1,-3.3265245E-3,-4.3320898E-2,-1.1339044E-2,8.135793E-3,1.5924825E-1,5.088262E-2,-9.492125E-2,-5.7286352E-2,-9.6116744E-2,-7.350381E-3,1.0479454E-2,-1.4716305E-2],"split_indices":[1,1,1,0,0,0,0,0,1,1,1,1,1,0,0,0,0,0,0,0,0,0,0,0,0],"split_type":[0,0,0,0,0,0,0,0,0,0,0,0,0,0,0,0,0,0,0,0,0,0,0,0,0],"sum_hessian":[4.984E3,8.8E2,4.104E3,8.59E2,2.1E1,3.45E2,3.759E3,3.94E2,4.65E2,2.12E2,1.33E2,4.73E2,3.286E3,3.07E2,8.7E1,3.09E2,1.56E2,6.6E1,1.46E2,6.5E1,6.8E1,1.55E2,3.18E2,2.6E3,6.86E2],"tree_param":{"num_deleted":"0","num_feature":"2","num_nodes":"25","size_leaf_vector":"1"}}]},"name":"gbtree"},"learner_model_param":{"base_score":"[1.3682785E1]","boost_from_average":"1","num_class":"0","num_feature":"2","num_target":"1"},"objective":{"name":"reg:squarederror","reg_loss_param":{"scale_pos_weight":"1"}}},"version":[3,2,1]}