{"learner":{"attributes":{},"feature_names":["day_of_week","hour_of_day"],"feature_types":[],"gradient_booster":{"model":{"cats":{"enc":[],"feature_segments":[],"sorted_idx":[]},"gbtree_model_param":{"num_parallel_tree":"1","num_trees":"50"},"iteration_indptr":[0,1,2,3,4,5,6,7,8,9,10,11,12,13,14,15,16,17,18,19,20,21,22,23,24,25,26,27,28,29,30,31,32,33,34,35,36,37,38,39,40,41,42,43,44,45,46,47,48,49,50],"tree_info":[0,0,0,0,0,0,0,0,0,0,0,0,0,0,0,0,0,0,0,0,0,0,0,0,0,0,0,0,0,0,0,0,0,0,0,0,0,0,0,0,0,0,0,0,0,0,0,0,0,0],"trees":[{"base_weights":[4.4356945E-9,-5.4132664E-1,1.008836E0,-2.1717782E0,3.2018002E-2,-1.6986917E-1,-2.377212E-1],"categories":[],"categories_nodes":[],"categories_segments":[],"categories_sizes":[],"default_left":[0,0,0,0,0,0,0],"id":0,"left_children":[1,3,-1,5,-1,-1,-1],"loss_changes":[1.1795972E3,2.8864758E2,0E0,2.8622131E0,0E0,0E0,0E0],"parents":[2147483647,0,0,1,1,3,3],"right_children":[2,4,-1,6,-1,-1,-1],"split_conditions":[1.2E1,4E0,1.008836E0,2E0,3.2018002E-2,-1.6986917E-1,-2.377212E-1],"split_indices":[1,0,0,1,0,0,0],"split_type":[0,0,0,0,0,0,0],"sum_hessian":[2.14E2,2.04E2,1E1,7E1,1.34E2,2.4E1,4.6E1],"tree_param":{"num_deleted":"0","num_feature":"2","num_nodes":"7","size_leaf_vector":"1"}},{"base_weights":[2.945291E-3,-4.8902616E-1,9.171236E-1,-1.9603412E0,2.88399E-2,-1.5356171E-1,-2.1445489E-1],"categories":[],"categories_nodes":[],"categories_segments":[],"categories_sizes":[],"default_left":[0,0,0,0,0,0,0],"id":1,"left_children":[1,3,-1,5,-1,-1,-1],"loss_changes":[9.742504E2,2.35052E2,0E0,2.2616577E0,0E0,0E0,0E0],"parents":[2147483647,0,0,1,1,3,3],"right_children":[2,4,-1,6,-1,-1,-1],"split_conditions":[1.2E1,4E0,9.171236E-1,2E0,2.88399E-2,-1.5356171E-1,-2.1445489E-1],"split_indices":[1,0,0,1,0,0,0],"split_type":[0,0,0,0,0,0,0],"sum_hessian":[2.14E2,2.04E2,1E1,7E1,1.34E2,2.4E1,4.6E1],"tree_param":{"num_deleted":"0","num_feature":"2","num_nodes":"7","size_leaf_vector":"1"}},{"base_weights":[5.338824E-3,-4.4177812E-1,8.3374876E-1,-1.7694904E0,2.5977258E-2,-1.3881978E-1,-1.934657E-1],"categories":[],"categories_nodes":[],"categories_segments":[],"categories_sizes":[],"default_left":[0,0,0,0,0,0,0],"id":2,"left_children":[1,3,-1,5,-1,-1,-1],"loss_changes":[8.0465405E2,1.9140845E2,0E0,1.785675E0,0E0,0E0,0E0],"parents":[2147483647,0,0,1,1,3,3],"right_children":[2,4,-1,6,-1,-1,-1],"split_conditions":[1.2E1,4E0,8.3374876E-1,2E0,2.5977258E-2,-1.3881978E-1,-1.934657E-1],"split_indices":[1,0,0,1,0,0,0],"split_type":[0,0,0,0,0,0,0],"sum_hessian":[2.14E2,2.04E2,1E1,7E1,1.34E2,2.4E1,4.6E1],"tree_param":{"num_deleted":"0","num_feature":"2","num_nodes":"7","size_leaf_vector":"1"}},{"base_weights":[7.2582136E-3,-3.9909443E-1,7.579534E-1,-1.5972214E0,2.3398785E-2,-1.254931E-1,-1.7453073E-1],"categories":[],"categories_nodes":[],"categories_segments":[],"categories_sizes":[],"default_left":[0,0,0,0,0,0,0],"id":3,"left_children":[1,3,-1,5,-1,-1,-1],"loss_changes":[6.6458307E2,1.558689E2,0E0,1.4086304E0,0E0,0E0,0E0],"parents":[2147483647,0,0,1,1,3,3],"right_children":[2,4,-1,6,-1,-1,-1],"split_conditions":[1.2E1,4E0,7.579534E-1,2E0,2.3398785E-2,-1.254931E-1,-1.7453073E-1],"split_indices":[1,0,0,1,0,0,0],"split_type":[0,0,0,0,0,0,0],"sum_hessian":[2.14E2,2.04E2,1E1,7E1,1.34E2,2.4E1,4.6E1],"tree_param":{"num_deleted":"0","num_feature":"2","num_nodes":"7","size_leaf_vector":"1"}},{"base_weights":[8.771072E-3,-3.6053443E-1,6.890485E-1,-1.441725E0,2.1076236E-2,-1.1344576E-1,-1.57449E-1],"categories":[],"categories_nodes":[],"categories_segments":[],"categories_sizes":[],"default_left":[0,0,0,0,0,0,0],"id":4,"left_children":[1,3,-1,5,-1,-1,-1],"loss_changes":[5.4889703E2,1.26928406E2,0E0,1.1102142E0,0E0,0E0,0E0],"parents":[2147483647,0,0,1,1,3,3],"right_children":[2,4,-1,6,-1,-1,-1],"split_conditions":[1.2E1,4E0,6.890485E-1,2E0,2.1076236E-2,-1.1344576E-1,-1.57449E-1],"split_indices":[1,0,0,1,0,0,0],"split_type":[0,0,0,0,0,0,0],"sum_hessian":[2.14E2,2.04E2,1E1,7E1,1.34E2,2.4E1,4.6E1],"tree_param":{"num_deleted":"0","num_feature":"2","num_nodes":"7","size_leaf_vector":"1"}},{"base_weights":[9.936901E-3,-3.256996E-1,6.2640774E-1,-1.3013679E0,1.8984227E-2,-1.0255497E-1,-1.420391E-1],"categories":[],"categories_nodes":[],"categories_segments":[],"categories_sizes":[],"default_left":[0,0,0,0,0,0,0],"id":5,"left_children":[1,3,-1,5,-1,-1,-1],"loss_changes":[4.5335046E2,1.033616E2,0E0,8.741684E-1,0E0,0E0,0E0],"parents":[2147483647,0,0,1,1,3,3],"right_children":[2,4,-1,6,-1,-1,-1],"split_conditions":[1.2E1,4E0,6.2640774E-1,2E0,1.8984227E-2,-1.0255497E-1,-1.420391E-1],"split_indices":[1,0,0,1,0,0,0],"split_type":[0,0,0,0,0,0,0],"sum_hessian":[2.14E2,2.04E2,1E1,7E1,1.34E2,2.4E1,4.6E1],"tree_param":{"num_deleted":"0","num_feature":"2","num_nodes":"7","size_leaf_vector":"1"}},{"base_weights":[1.0807353E-2,-2.9423022E-1,5.694616E-1,-1.1746761E0,1.7099857E-2,-1.1222568E0,-1.988762E-1,-9.270968E-2,-1.2057399E-1],"categories":[],"categories_nodes":[],"categories_segments":[],"categories_sizes":[],"default_left":[0,0,0,0,0,0,0,0,0],"id":6,"left_children":[1,3,-1,5,-1,7,-1,-1,-1],"loss_changes":[3.7443716E2,8.417066E1,0E0,7.9795074E-1,0E0,6.3476562E-3,0E0,0E0,0E0],"parents":[2147483647,0,0,1,1,3,3,5,5],"right_children":[2,4,-1,6,-1,8,-1,-1,-1],"split_conditions":[1.2E1,4E0,5.694616E-1,3E0,1.7099857E-2,2E0,-1.988762E-1,-9.270968E-2,-1.2057399E-1],"split_indices":[1,0,0,1,0,1,0,0,0],"split_type":[0,0,0,0,0,0,0,0,0],"sum_hessian":[2.14E2,2.04E2,1E1,7E1,1.34E2,6.8E1,2E0,2.4E1,4.4E1],"tree_param":{"num_deleted":"0","num_feature":"2","num_nodes":"9","size_leaf_vector":"1"}},{"base_weights":[1.0537725E-2,-2.6673436E-1,5.176923E-1,-1.0630136E0,1.5402532E-2,-1.0131221E-1,-1.8561779E-1],"categories":[],"categories_nodes":[],"categories_segments":[],"categories_sizes":[],"default_left":[0,0,0,0,0,0,0],"id":7,"left_children":[1,3,-1,5,-1,-1,-1],"loss_changes":[3.093672E2,6.884737E1,0E0,9.290848E-1,0E0,0E0,0E0],"parents":[2147483647,0,0,1,1,3,3],"right_children":[2,4,-1,6,-1,-1,-1],"split_conditions":[1.2E1,4E0,5.176923E-1,3E0,1.5402532E-2,-1.0131221E-1,-1.8561779E-1],"split_indices":[1,0,0,1,0,0,0],"split_type":[0,0,0,0,0,0,0],"sum_hessian":[2.14E2,2.04E2,1E1,7E1,1.34E2,6.8E1,2E0],"tree_param":{"num_deleted":"0","num_feature":"2","num_nodes":"7","size_leaf_vector":"1"}},{"base_weights":[1.0629032E-2,-2.413853E-1,4.7062936E-1,-9.607535E-1,1.3873713E-1,-9.132782E-1,-1.7324328E-1,1.4610924E-2,1.2074602E-2,-7.4083574E-2,-9.887846E-2],"categories":[],"categories_nodes":[],"categories_segments":[],"categories_sizes":[],"default_left":[0,0,0,0,0,0,0,0,0,0,0],"id":8,"left_children":[1,3,-1,5,7,9,-1,-1,-1,-1,-1],"loss_changes":[2.5556158E2,5.619013E1,0E0,1.0189362E0,2.6345253E-4,1.6588593E-1,0E0,0E0,0E0,0E0,0E0],"parents":[2147483647,0,0,1,1,3,3,4,4,5,5],"right_children":[2,4,-1,6,8,10,-1,-1,-1,-1,-1],"split_conditions":[1.2E1,4E0,4.7062936E-1,3E0,3E0,2E0,-1.7324328E-1,1.4610924E-2,1.2074602E-2,-7.4083574E-2,-9.887846E-2],"split_indices":[1,0,0,1,1,1,0,0,0,0,0],"split_type":[0,0,0,0,0,0,0,0,0,0,0],"sum_hessian":[2.14E2,2.04E2,1E1,7E1,1.34E2,6.8E1,2E0,9E1,4.4E1,2.4E1,4.4E1],"tree_param":{"num_deleted":"0","num_feature":"2","num_nodes":"11","size_leaf_vector":"1"}},{"base_weights":[1.0269055E-2,-2.1880531E-1,4.2784485E-1,-8.695543E-1,1.2506124E-1,-8.2445717E-1,-1.6169374E-1,1.3165905E-2,1.0893985E-2,-6.697155E-2,-8.9210354E-2],"categories":[],"categories_nodes":[],"categories_segments":[],"categories_sizes":[],"default_left":[0,0,0,0,0,0,0,0,0,0,0],"id":9,"left_children":[1,3,-1,5,7,9,-1,-1,-1,-1,-1],"loss_changes":[2.1114821E2,4.5981766E1,0E0,1.0599518E0,1.6450882E-5,1.2481308E-1,0E0,0E0,0E0,0E0,0E0],"parents":[2147483647,0,0,1,1,3,3,4,4,5,5],"right_children":[2,4,-1,6,8,10,-1,-1,-1,-1,-1],"split_conditions":[1.2E1,4E0,4.2784485E-1,3E0,3E0,2E0,-1.6169374E-1,1.3165905E-2,1.0893985E-2,-6.697155E-2,-8.9210354E-2],"split_indices":[1,0,0,1,1,1,0,0,0,0,0],"split_type":[0,0,0,0,0,0,0,0,0,0,0],"sum_hessian":[2.14E2,2.04E2,1E1,7E1,1.34E2,6.8E1,2E0,9E1,4.4E1,2.4E1,4.4E1],"tree_param":{"num_deleted":"0","num_feature":"2","num_nodes":"11","size_leaf_vector":"1"}},{"base_weights":[9.865528E-3,-1.9835803E-1,3.8894987E-1,-7.8707606E-1,1.1273335E-2,-7.44275E-1,-1.5091415E-1,-6.054228E-2,-8.0487564E-2],"categories":[],"categories_nodes":[],"categories_segments":[],"categories_sizes":[],"default_left":[0,0,0,0,0,0,0,0,0],"id":10,"left_children":[1,3,-1,5,-1,7,-1,-1,-1],"loss_changes":[1.7445518E2,3.7633476E1,0E0,1.0710487E0,0E0,9.3315125E-2,0E0,0E0,0E0],"parents":[2147483647,0,0,1,1,3,3,5,5],"right_children":[2,4,-1,6,-1,8,-1,-1,-1],"split_conditions":[1.2E1,4E0,3.8894987E-1,3E0,1.1273335E-2,2E0,-1.5091415E-1,-6.054228E-2,-8.0487564E-2],"split_indices":[1,0,0,1,0,1,0,0,0],"split_type":[0,0,0,0,0,0,0,0,0],"sum_hessian":[2.14E2,2.04E2,1E1,7E1,1.34E2,6.8E1,2E0,2.4E1,4.4E1],"tree_param":{"num_deleted":"0","num_feature":"2","num_nodes":"9","size_leaf_vector":"1"}},{"base_weights":[9.382578E-3,-1.798914E-1,3.5359082E-1,-7.1248037E-1,1.01543486E-1,-6.7189145E-1,-1.4085321E-1,1.0748829E-2,8.726525E-3,-5.4730214E-2,-7.261768E-2],"categories":[],"categories_nodes":[],"categories_segments":[],"categories_sizes":[],"default_left":[0,0,0,0,0,0,0,0,0,0,0],"id":11,"left_children":[1,3,-1,5,7,9,-1,-1,-1,-1,-1],"loss_changes":[1.4414418E2,3.0799614E1,0E0,1.0595131E0,2.07901E-3,6.923294E-2,0E0,0E0,0E0,0E0,0E0],"parents":[2147483647,0,0,1,1,3,3,4,4,5,5],"right_children":[2,4,-1,6,8,10,-1,-1,-1,-1,-1],"split_conditions":[1.2E1,4E0,3.5359082E-1,3E0,3E0,2E0,-1.4085321E-1,1.0748829E-2,8.726525E-3,-5.4730214E-2,-7.261768E-2],"split_indices":[1,0,0,1,1,1,0,0,0,0,0],"split_type":[0,0,0,0,0,0,0,0,0,0,0],"sum_hessian":[2.14E2,2.04E2,1E1,7E1,1.34E2,6.8E1,2E0,9E1,4.4E1,2.4E1,4.4E1],"tree_param":{"num_deleted":"0","num_feature":"2","num_nodes":"11","size_leaf_vector":"1"}},{"base_weights":[8.932016E-3,-1.6311558E-1,3.2144615E-1,-6.4500976E-1,9.153332E-2,-6.0654783E-1,-1.3146299E-1,9.685751E-3,7.873255E-3,-4.9476117E-2,-6.551727E-2],"categories":[],"categories_nodes":[],"categories_segments":[],"categories_sizes":[],"default_left":[0,0,0,0,0,0,0,0,0,0,0],"id":12,"left_children":[1,3,-1,5,7,9,-1,-1,-1,-1,-1],"loss_changes":[1.1909762E2,2.5215372E1,0E0,1.031208E0,1.5748739E-3,5.090332E-2,0E0,0E0,0E0,0E0,0E0],"parents":[2147483647,0,0,1,1,3,3,4,4,5,5],"right_children":[2,4,-1,6,8,10,-1,-1,-1,-1,-1],"split_conditions":[1.2E1,4E0,3.2144615E-1,3E0,3E0,2E0,-1.3146299E-1,9.685751E-3,7.873255E-3,-4.9476117E-2,-6.551727E-2],"split_indices":[1,0,0,1,1,1,0,0,0,0,0],"split_type":[0,0,0,0,0,0,0,0,0,0,0],"sum_hessian":[2.14E2,2.04E2,1E1,7E1,1.34E2,6.8E1,2E0,9E1,4.4E1,2.4E1,4.4E1],"tree_param":{"num_deleted":"0","num_feature":"2","num_nodes":"11","size_leaf_vector":"1"}},{"base_weights":[8.469409E-3,-1.4792044E-1,2.9222378E-1,-5.8398E-1,8.25103E-2,-5.475597E-1,-1.22698784E-1,8.727843E-3,7.1034515E-3,-4.4726413E-2,-5.9111148E-2],"categories":[],"categories_nodes":[],"categories_segments":[],"categories_sizes":[],"default_left":[0,0,0,0,0,0,0,0,0,0,0],"id":13,"left_children":[1,3,-1,5,7,9,-1,-1,-1,-1,-1],"loss_changes":[9.840428E1,2.0646898E1,0E0,9.908695E-1,1.1871457E-3,3.7014008E-2,0E0,0E0,0E0,0E0,0E0],"parents":[2147483647,0,0,1,1,3,3,4,4,5,5],"right_children":[2,4,-1,6,8,10,-1,-1,-1,-1,-1],"split_conditions":[1.2E1,4E0,2.9222378E-1,3E0,3E0,2E0,-1.22698784E-1,8.727843E-3,7.1034515E-3,-4.4726413E-2,-5.9111148E-2],"split_indices":[1,0,0,1,1,1,0,0,0,0,0],"split_type":[0,0,0,0,0,0,0,0,0,0,0],"sum_hessian":[2.14E2,2.04E2,1E1,7E1,1.34E2,6.8E1,2E0,9E1,4.4E1,2.4E1,4.4E1],"tree_param":{"num_deleted":"0","num_feature":"2","num_nodes":"11","size_leaf_vector":"1"}},{"base_weights":[8.001506E-3,-1.3415635E-1,2.6565796E-1,-5.287727E-1,7.437639E-2,-4.9430865E-1,-1.1451887E-1,7.864632E-3,6.408885E-3,-4.043268E-2,-5.3331394E-2],"categories":[],"categories_nodes":[],"categories_segments":[],"categories_sizes":[],"default_left":[0,0,0,0,0,0,0,0,0,0,0],"id":14,"left_children":[1,3,-1,5,7,9,-1,-1,-1,-1,-1],"loss_changes":[8.130737E1,1.6908865E1,0E0,9.4226265E-1,8.8977814E-4,2.6540756E-2,0E0,0E0,0E0,0E0,0E0],"parents":[2147483647,0,0,1,1,3,3,4,4,5,5],"right_children":[2,4,-1,6,8,10,-1,-1,-1,-1,-1],"split_conditions":[1.2E1,4E0,2.6565796E-1,3E0,3E0,2E0,-1.1451887E-1,7.864632E-3,6.408885E-3,-4.043268E-2,-5.3331394E-2],"split_indices":[1,0,0,1,1,1,0,0,0,0,0],"split_type":[0,0,0,0,0,0,0,0,0,0,0],"sum_hessian":[2.14E2,2.04E2,1E1,7E1,1.34E2,6.8E1,2E0,9E1,4.4E1,2.4E1,4.4E1],"tree_param":{"num_deleted":"0","num_feature":"2","num_nodes":"11","size_leaf_vector":"1"}},{"base_weights":[7.5347093E-3,-1.2168697E-1,2.415072E-1,-4.78829E-1,6.704467E-2,-4.462367E-1,-1.0688428E-1,7.0868293E-3,5.7822578E-3,-3.655114E-2,-4.811677E-2],"categories":[],"categories_nodes":[],"categories_segments":[],"categories_sizes":[],"default_left":[0,0,0,0,0,0,0,0,0,0,0],"id":15,"left_children":[1,3,-1,5,7,9,-1,-1,-1,-1,-1],"loss_changes":[6.718168E1,1.3849923E1,0E0,8.883667E-1,6.625056E-4,1.8694878E-2,0E0,0E0,0E0,0E0,0E0],"parents":[2147483647,0,0,1,1,3,3,4,4,5,5],"right_children":[2,4,-1,6,8,10,-1,-1,-1,-1,-1],"split_conditions":[1.2E1,4E0,2.415072E-1,3E0,3E0,2E0,-1.0688428E-1,7.0868293E-3,5.7822578E-3,-3.655114E-2,-4.811677E-2],"split_indices":[1,0,0,1,1,1,0,0,0,0,0],"split_type":[0,0,0,0,0,0,0,0,0,0,0],"sum_hessian":[2.14E2,2.04E2,1E1,7E1,1.34E2,6.8E1,2E0,9E1,4.4E1,2.4E1,4.4E1],"tree_param":{"num_deleted":"0","num_feature":"2","num_nodes":"11","size_leaf_vector":"1"}},{"base_weights":[7.0734876E-3,-1.1038985E-1,2.19552E-1,-4.3364406E-1,6.043562E-2,-4.028401E-1,-9.9758655E-2,6.385936E-3,5.216905E-3,-3.304222E-2,-4.341203E-2],"categories":[],"categories_nodes":[],"categories_segments":[],"categories_sizes":[],"default_left":[0,0,0,0,0,0,0,0,0,0,0],"id":16,"left_children":[1,3,-1,5,7,9,-1,-1,-1,-1,-1],"loss_changes":[5.5510735E1,1.1346319E1,0E0,8.315191E-1,4.8938394E-4,1.2857437E-2,0E0,0E0,0E0,0E0,0E0],"parents":[2147483647,0,0,1,1,3,3,4,4,5,5],"right_children":[2,4,-1,6,8,10,-1,-1,-1,-1,-1],"split_conditions":[1.2E1,4E0,2.19552E-1,3E0,3E0,2E0,-9.9758655E-2,6.385936E-3,5.216905E-3,-3.304222E-2,-4.341203E-2],"split_indices":[1,0,0,1,1,1,0,0,0,0,0],"split_type":[0,0,0,0,0,0,0,0,0,0,0],"sum_hessian":[2.14E2,2.04E2,1E1,7E1,1.34E2,6.8E1,2E0,9E1,4.4E1,2.4E1,4.4E1],"tree_param":{"num_deleted":"0","num_feature":"2","num_nodes":"11","size_leaf_vector":"1"}},{"base_weights":[6.6216667E-3,-1.0015384E-1,1.995927E-1,-3.9276156E-1,5.4478012E-2,-3.6366415E-1,-9.310808E-2,5.754373E-3,4.706783E-3,-2.9870167E-2,-3.91673E-2],"categories":[],"categories_nodes":[],"categories_segments":[],"categories_sizes":[],"default_left":[0,0,0,0,0,0,0,0,0,0,0],"id":17,"left_children":[1,3,-1,5,7,9,-1,-1,-1,-1,-1],"loss_changes":[4.5867855E1,9.296924E0,0E0,7.7352047E-1,3.5840273E-4,8.553505E-3,0E0,0E0,0E0,0E0,0E0],"parents":[2147483647,0,0,1,1,3,3,4,4,5,5],"right_children":[2,4,-1,6,8,10,-1,-1,-1,-1,-1],"split_conditions":[1.2E1,4E0,1.995927E-1,3E0,3E0,2E0,-9.310808E-2,5.754373E-3,4.706783E-3,-2.9870167E-2,-3.91673E-2],"split_indices":[1,0,0,1,1,1,0,0,0,0,0],"split_type":[0,0,0,0,0,0,0,0,0,0,0],"sum_hessian":[2.14E2,2.04E2,1E1,7E1,1.34E2,6.8E1,2E0,9E1,4.4E1,2.4E1,4.4E1],"tree_param":{"num_deleted":"0","num_feature":"2","num_nodes":"11","size_leaf_vector":"1"}},{"base_weights":[6.182315E-3,-9.0878405E-2,1.8144791E-1,-3.5576907E-1,4.9107637E-2,-3.282982E-1,-8.690088E-2,5.1852497E-3,4.2465646E-3,-2.7002623E-2,-3.5337605E-2],"categories":[],"categories_nodes":[],"categories_segments":[],"categories_sizes":[],"default_left":[0,0,0,0,0,0,0,0,0,0,0],"id":18,"left_children":[1,3,-1,5,7,9,-1,-1,-1,-1,-1],"loss_changes":[3.7900536E1,7.619075E0,0E0,7.15744E-1,2.592802E-4,5.411148E-3,0E0,0E0,0E0,0E0,0E0],"parents":[2147483647,0,0,1,1,3,3,4,4,5,5],"right_children":[2,4,-1,6,8,10,-1,-1,-1,-1,-1],"split_conditions":[1.2E1,4E0,1.8144791E-1,3E0,3E0,2E0,-8.690088E-2,5.1852497E-3,4.2465646E-3,-2.7002623E-2,-3.5337605E-2],"split_indices":[1,0,0,1,1,1,0,0,0,0,0],"split_type":[0,0,0,0,0,0,0,0,0,0,0],"sum_hessian":[2.14E2,2.04E2,1E1,7E1,1.34E2,6.8E1,2E0,9E1,4.4E1,2.4E1,4.4E1],"tree_param":{"num_deleted":"0","num_feature":"2","num_nodes":"11","size_leaf_vector":"1"}},{"base_weights":[5.7577854E-3,-8.247252E-2,1.6495265E-1,-3.222941E-1,4.426677E-2,-2.9637182E-1,-8.110749E-2,4.67244E-3,3.83132E-3,-2.441038E-2,-3.1882357E-2],"categories":[],"categories_nodes":[],"categories_segments":[],"categories_sizes":[],"default_left":[0,0,0,0,0,0,0,0,0,0,0],"id":19,"left_children":[1,3,-1,5,7,9,-1,-1,-1,-1,-1],"loss_changes":[3.1317535E1,6.245204E0,0E0,6.592121E-1,1.8510222E-4,3.1456947E-3,0E0,0E0,0E0,0E0,0E0],"parents":[2147483647,0,0,1,1,3,3,4,4,5,5],"right_children":[2,4,-1,6,8,10,-1,-1,-1,-1,-1],"split_conditions":[1.2E1,4E0,1.6495265E-1,3E0,3E0,2E0,-8.110749E-2,4.67244E-3,3.83132E-3,-2.441038E-2,-3.1882357E-2],"split_indices":[1,0,0,1,1,1,0,0,0,0,0],"split_type":[0,0,0,0,0,0,0,0,0,0,0],"sum_hessian":[2.14E2,2.04E2,1E1,7E1,1.34E2,6.8E1,2E0,9E1,4.4E1,2.4E1,4.4E1],"tree_param":{"num_deleted":"0","num_feature":"2","num_nodes":"11","size_leaf_vector":"1"}},{"base_weights":[5.3496826E-3,-7.485409E-2,1.49957E-1,-2.9199994E-1,3.990301E-2,-2.675505E-1,-7.570033E-2,4.210319E-3,3.456703E-3,-2.2066973E-2,-2.8764982E-2],"categories":[],"categories_nodes":[],"categories_segments":[],"categories_sizes":[],"default_left":[0,0,0,0,0,0,0,0,0,0,0],"id":20,"left_children":[1,3,-1,5,7,9,-1,-1,-1,-1,-1],"loss_changes":[2.58783E1,5.1200523E0,0E0,6.0466623E-1,1.295358E-4,1.5411377E-3,0E0,0E0,0E0,0E0,0E0],"parents":[2147483647,0,0,1,1,3,3,4,4,5,5],"right_children":[2,4,-1,6,8,10,-1,-1,-1,-1,-1],"split_conditions":[1.2E1,4E0,1.49957E-1,3E0,3E0,2E0,-7.570033E-2,4.210319E-3,3.456703E-3,-2.2066973E-2,-2.8764982E-2],"split_indices":[1,0,0,1,1,1,0,0,0,0,0],"split_type":[0,0,0,0,0,0,0,0,0,0,0],"sum_hessian":[2.14E2,2.04E2,1E1,7E1,1.34E2,6.8E1,2E0,9E1,4.4E1,2.4E1,4.4E1],"tree_param":{"num_deleted":"0","num_feature":"2","num_nodes":"11","size_leaf_vector":"1"}},{"base_weights":[4.9592718E-3,-6.794857E-2,1.3632455E-1,-2.6458204E-1,3.596939E-2,-2.4153212E-1,-7.065364E-2,3.7938957E-3,3.1187176E-3,-1.9948531E-2,-2.5952408E-2],"categories":[],"categories_nodes":[],"categories_segments":[],"categories_sizes":[],"default_left":[0,0,0,0,0,0,0,0,0,0,0],"id":21,"left_children":[1,3,-1,5,7,9,-1,-1,-1,-1,-1],"loss_changes":[2.1384024E1,4.198436E0,0E0,5.526266E-1,8.8348985E-5,4.272461E-4,0E0,0E0,0E0,0E0,0E0],"parents":[2147483647,0,0,1,1,3,3,4,4,5,5],"right_children":[2,4,-1,6,8,10,-1,-1,-1,-1,-1],"split_conditions":[1.2E1,4E0,1.3632455E-1,3E0,3E0,2E0,-7.065364E-2,3.7938957E-3,3.1187176E-3,-1.9948531E-2,-2.5952408E-2],"split_indices":[1,0,0,1,1,1,0,0,0,0,0],"split_type":[0,0,0,0,0,0,0,0,0,0,0],"sum_hessian":[2.14E2,2.04E2,1E1,7E1,1.34E2,6.8E1,2E0,9E1,4.4E1,2.4E1,4.4E1],"tree_param":{"num_deleted":"0","num_feature":"2","num_nodes":"11","size_leaf_vector":"1"}},{"base_weights":[4.5875916E-3,-6.1688397E-2,1.239314E-1,-2.3976544E-1,3.2423884E-2,-2.1804413E-2,-6.59434E-2,3.4186994E-3,2.813796E-3],"categories":[],"categories_nodes":[],"categories_segments":[],"categories_sizes":[],"default_left":[0,0,0,0,0,0,0,0,0],"id":22,"left_children":[1,3,-1,5,7,-1,-1,-1,-1],"loss_changes":[1.7670485E1,3.443418E0,0E0,5.0343275E-1,5.8189034E-5,0E0,0E0,0E0,0E0],"parents":[2147483647,0,0,1,1,3,3,4,4],"right_children":[2,4,-1,6,8,-1,-1,-1,-1],"split_conditions":[1.2E1,4E0,1.239314E-1,3E0,3E0,-2.1804413E-2,-6.59434E-2,3.4186994E-3,2.813796E-3],"split_indices":[1,0,0,1,1,0,0,0,0],"split_type":[0,0,0,0,0,0,0,0,0],"sum_hessian":[2.14E2,2.04E2,1E1,7E1,1.34E2,6.8E1,2E0,9E1,4.4E1],"tree_param":{"num_deleted":"0","num_feature":"2","num_nodes":"9","size_leaf_vector":"1"}},{"base_weights":[4.3260297E-3,-5.59173E-2,1.1266494E-1,-2.1702477E-1,2.9227505E-2,-1.9655572E-1,-6.1547168E-2,3.0805608E-3,2.5386724E-3,-1.5940264E-2,-2.1282842E-2],"categories":[],"categories_nodes":[],"categories_segments":[],"categories_sizes":[],"default_left":[0,0,0,0,0,0,0,0,0,0,0],"id":23,"left_children":[1,3,-1,5,7,9,-1,-1,-1,-1,-1],"loss_changes":[1.4599685E1,2.8184233E0,0E0,4.5808983E-1,3.620237E-5,7.790804E-3,0E0,0E0,0E0,0E0,0E0],"parents":[2147483647,0,0,1,1,3,3,4,4,5,5],"right_children":[2,4,-1,6,8,10,-1,-1,-1,-1,-1],"split_conditions":[1.2E1,4E0,1.1266494E-1,3E0,3E0,2E0,-6.1547168E-2,3.0805608E-3,2.5386724E-3,-1.5940264E-2,-2.1282842E-2],"split_indices":[1,0,0,1,1,1,0,0,0,0,0],"split_type":[0,0,0,0,0,0,0,0,0,0,0],"sum_hessian":[2.14E2,2.04E2,1E1,7E1,1.34E2,6.8E1,2E0,9E1,4.4E1,2.4E1,4.4E1],"tree_param":{"num_deleted":"0","num_feature":"2","num_nodes":"11","size_leaf_vector":"1"}},{"base_weights":[3.984239E-3,-5.07799E-2,1.0242265E-1,-1.9671349E-1,2.6346503E-2,-1.7743966E-1,-5.7444025E-2,2.7759091E-3,2.290446E-3,-1.4410004E-2,-1.9201858E-2],"categories":[],"categories_nodes":[],"categories_segments":[],"categories_sizes":[],"default_left":[0,0,0,0,0,0,0,0,0,0,0],"id":24,"left_children":[1,3,-1,5,7,9,-1,-1,-1,-1,-1],"loss_changes":[1.2064637E1,2.312526E0,0E0,4.1496825E-1,2.0593405E-5,5.8681965E-3,0E0,0E0,0E0,0E0,0E0],"parents":[2147483647,0,0,1,1,3,3,4,4,5,5],"right_children":[2,4,-1,6,8,10,-1,-1,-1,-1,-1],"split_conditions":[1.2E1,4E0,1.0242265E-1,3E0,3E0,2E0,-5.7444025E-2,2.7759091E-3,2.290446E-3,-1.4410004E-2,-1.9201858E-2],"split_indices":[1,0,0,1,1,1,0,0,0,0,0],"split_type":[0,0,0,0,0,0,0,0,0,0,0],"sum_hessian":[2.14E2,2.04E2,1E1,7E1,1.34E2,6.8E1,2E0,9E1,4.4E1,2.4E1,4.4E1],"tree_param":{"num_deleted":"0","num_feature":"2","num_nodes":"11","size_leaf_vector":"1"}},{"base_weights":[3.6621632E-3,-4.6121456E-2,9.311149E-2,-1.7832461E-1,2.3749249E-2,-1.6018282E-1,-5.361442E-2,2.5013422E-3,2.0665051E-3,-1.3026642E-2,-1.7324343E-2],"categories":[],"categories_nodes":[],"categories_segments":[],"categories_sizes":[],"default_left":[0,0,0,0,0,0,0,0,0,0,0],"id":25,"left_children":[1,3,-1,5,7,9,-1,-1,-1,-1,-1],"loss_changes":[9.9699135E0,1.8978462E0,0E0,3.7501454E-1,9.454787E-6,4.3923855E-3,0E0,0E0,0E0,0E0,0E0],"parents":[2147483647,0,0,1,1,3,3,4,4,5,5],"right_children":[2,4,-1,6,8,10,-1,-1,-1,-1,-1],"split_conditions":[1.2E1,4E0,9.311149E-2,3E0,3E0,2E0,-5.361442E-2,2.5013422E-3,2.0665051E-3,-1.3026642E-2,-1.7324343E-2],"split_indices":[1,0,0,1,1,1,0,0,0,0,0],"split_type":[0,0,0,0,0,0,0,0,0,0,0],"sum_hessian":[2.14E2,2.04E2,1E1,7E1,1.34E2,6.8E1,2E0,9E1,4.4E1,2.4E1,4.4E1],"tree_param":{"num_deleted":"0","num_feature":"2","num_nodes":"11","size_leaf_vector":"1"}},{"base_weights":[3.3597108E-3,-4.189666E-2,8.464685E-2,-1.6167475E-1,2.1408085E-2,-1.446044E-1,-5.0040126E-2,2.2539455E-3,1.8644471E-3,-1.1776079E-2,-1.5630407E-2],"categories":[],"categories_nodes":[],"categories_segments":[],"categories_sizes":[],"default_left":[0,0,0,0,0,0,0,0,0,0,0],"id":26,"left_children":[1,3,-1,5,7,9,-1,-1,-1,-1,-1],"loss_changes":[8.239014E0,1.557878E0,0E0,3.381747E-1,1.8626451E-6,3.263712E-3,0E0,0E0,0E0,0E0,0E0],"parents":[2147483647,0,0,1,1,3,3,4,4,5,5],"right_children":[2,4,-1,6,8,10,-1,-1,-1,-1,-1],"split_conditions":[1.2E1,4E0,8.464685E-2,3E0,3E0,2E0,-5.0040126E-2,2.2539455E-3,1.8644471E-3,-1.1776079E-2,-1.5630407E-2],"split_indices":[1,0,0,1,1,1,0,0,0,0,0],"split_type":[0,0,0,0,0,0,0,0,0,0,0],"sum_hessian":[2.14E2,2.04E2,1E1,7E1,1.34E2,6.8E1,2E0,9E1,4.4E1,2.4E1,4.4E1],"tree_param":{"num_deleted":"0","num_feature":"2","num_nodes":"11","size_leaf_vector":"1"}},{"base_weights":[3.0763005E-3,-3.8064774E-2,7.6951675E-2,-1.4659813E-1,1.9297692E-3,-1.3054122E-1,-4.6704117E-2,-1.0645586E-2,-1.4102104E-2],"categories":[],"categories_nodes":[],"categories_segments":[],"categories_sizes":[],"default_left":[0,0,0,0,0,0,0,0,0],"id":27,"left_children":[1,3,-1,5,-1,7,-1,-1,-1],"loss_changes":[6.80871E0,1.2791059E0,0E0,3.0435002E-1,0E0,2.4038553E-3,0E0,0E0,0E0],"parents":[2147483647,0,0,1,1,3,3,5,5],"right_children":[2,4,-1,6,-1,8,-1,-1,-1],"split_conditions":[1.2E1,4E0,7.6951675E-2,3E0,1.9297692E-3,2E0,-4.6704117E-2,-1.0645586E-2,-1.4102104E-2],"split_indices":[1,0,0,1,0,1,0,0,0],"split_type":[0,0,0,0,0,0,0,0,0],"sum_hessian":[2.14E2,2.04E2,1E1,7E1,1.34E2,6.8E1,2E0,2.4E1,4.4E1],"tree_param":{"num_deleted":"0","num_feature":"2","num_nodes":"9","size_leaf_vector":"1"}},{"base_weights":[2.803238E-3,-3.4597386E-2,6.9956E-2,-1.3294466E-1,1.7382275E-2,-1.1784574E-1,-4.3590512E-2,1.8401692E-3,1.4934519E-3,-9.623606E-3,-1.2723232E-2],"categories":[],"categories_nodes":[],"categories_segments":[],"categories_sizes":[],"default_left":[0,0,0,0,0,0,0,0,0,0,0],"id":28,"left_children":[1,3,-1,5,7,9,-1,-1,-1,-1,-1],"loss_changes":[5.6269174E0,1.0502827E0,0E0,2.7341115E-1,6.2040985E-5,1.7517805E-3,0E0,0E0,0E0,0E0,0E0],"parents":[2147483647,0,0,1,1,3,3,4,4,5,5],"right_children":[2,4,-1,6,8,10,-1,-1,-1,-1,-1],"split_conditions":[1.2E1,4E0,6.9956E-2,3E0,3E0,2E0,-4.3590512E-2,1.8401692E-3,1.4934519E-3,-9.623606E-3,-1.2723232E-2],"split_indices":[1,0,0,1,1,1,0,0,0,0,0],"split_type":[0,0,0,0,0,0,0,0,0,0,0],"sum_hessian":[2.14E2,2.04E2,1E1,7E1,1.34E2,6.8E1,2E0,9E1,4.4E1,2.4E1,4.4E1],"tree_param":{"num_deleted":"0","num_feature":"2","num_nodes":"11","size_leaf_vector":"1"}},{"base_weights":[2.5571485E-3,-3.144302E-2,6.359642E-2,-1.20578945E-1,1.5668787E-2,-1.0638508E-1,-4.0684476E-2,1.6581792E-3,1.3474295E-3,-8.699748E-3,-1.1479187E-2],"categories":[],"categories_nodes":[],"categories_segments":[],"categories_sizes":[],"default_left":[0,0,0,0,0,0,0,0,0,0,0],"id":29,"left_children":[1,3,-1,5,7,9,-1,-1,-1,-1,-1],"loss_changes":[4.650224E0,8.62757E-1,0E0,2.4520612E-1,4.705414E-5,1.2595654E-3,0E0,0E0,0E0,0E0,0E0],"parents":[2147483647,0,0,1,1,3,3,4,4,5,5],"right_children":[2,4,-1,6,8,10,-1,-1,-1,-1,-1],"split_conditions":[1.2E1,4E0,6.359642E-2,3E0,3E0,2E0,-4.0684476E-2,1.6581792E-3,1.3474295E-3,-8.699748E-3,-1.1479187E-2],"split_indices":[1,0,0,1,1,1,0,0,0,0,0],"split_type":[0,0,0,0,0,0,0,0,0,0,0],"sum_hessian":[2.14E2,2.04E2,1E1,7E1,1.34E2,6.8E1,2E0,9E1,4.4E1,2.4E1,4.4E1],"tree_param":{"num_deleted":"0","num_feature":"2","num_nodes":"11","size_leaf_vector":"1"}},{"base_weights":[2.3281414E-3,-2.8580898E-2,5.7814863E-2,-1.0937833E-1,1.4124277E-2,-9.603907E-2,-3.797218E-2,1.4942054E-3,1.2156678E-3,-7.8645805E-3,-1.035678E-2],"categories":[],"categories_nodes":[],"categories_segments":[],"categories_sizes":[],"default_left":[0,0,0,0,0,0,0,0,0,0,0],"id":30,"left_children":[1,3,-1,5,7,9,-1,-1,-1,-1,-1],"loss_changes":[3.843106E0,7.0889086E-1,0E0,2.195707E-1,3.5578385E-5,8.903146E-4,0E0,0E0,0E0,0E0,0E0],"parents":[2147483647,0,0,1,1,3,3,4,4,5,5],"right_children":[2,4,-1,6,8,10,-1,-1,-1,-1,-1],"split_conditions":[1.2E1,4E0,5.7814863E-2,3E0,3E0,2E0,-3.797218E-2,1.4942054E-3,1.2156678E-3,-7.8645805E-3,-1.035678E-2],"split_indices":[1,0,0,1,1,1,0,0,0,0,0],"split_type":[0,0,0,0,0,0,0,0,0,0,0],"sum_hessian":[2.14E2,2.04E2,1E1,7E1,1.34E2,6.8E1,2E0,9E1,4.4E1,2.4E1,4.4E1],"tree_param":{"num_deleted":"0","num_feature":"2","num_nodes":"11","size_leaf_vector":"1"}},{"base_weights":[2.115433E-3,-2.5983768E-2,5.2559E-2,-9.9232E-2,1.2731852E-2,-8.669929E-2,-3.5440706E-2,1.3464037E-3,1.0968283E-3,-7.1095885E-3,-9.3441205E-3],"categories":[],"categories_nodes":[],"categories_segments":[],"categories_sizes":[],"default_left":[0,0,0,0,0,0,0,0,0,0,0],"id":31,"left_children":[1,3,-1,5,7,9,-1,-1,-1,-1,-1],"loss_changes":[3.1761384E0,5.826128E-1,0E0,1.963337E-1,2.6641414E-5,6.1523914E-4,0E0,0E0,0E0,0E0,0E0],"parents":[2147483647,0,0,1,1,3,3,4,4,5,5],"right_children":[2,4,-1,6,8,10,-1,-1,-1,-1,-1],"split_conditions":[1.2E1,4E0,5.2559E-2,3E0,3E0,2E0,-3.5440706E-2,1.3464037E-3,1.0968283E-3,-7.1095885E-3,-9.3441205E-3],"split_indices":[1,0,0,1,1,1,0,0,0,0,0],"split_type":[0,0,0,0,0,0,0,0,0,0,0],"sum_hessian":[2.14E2,2.04E2,1E1,7E1,1.34E2,6.8E1,2E0,9E1,4.4E1,2.4E1,4.4E1],"tree_param":{"num_deleted":"0","num_feature":"2","num_nodes":"11","size_leaf_vector":"1"}},{"base_weights":[1.9183045E-3,-2.3626663E-2,4.7780924E-2,-9.003968E-2,1.1476676E-2,-7.826779E-2,-3.307799E-2,1.2132246E-3,9.89593E-4,-6.427063E-3,-8.430471E-3],"categories":[],"categories_nodes":[],"categories_segments":[],"categories_sizes":[],"default_left":[0,0,0,0,0,0,0,0,0,0,0],"id":32,"left_children":[1,3,-1,5,7,9,-1,-1,-1,-1,-1],"loss_changes":[2.6249619E0,4.7895363E-1,0E0,1.7532223E-1,1.9839033E-5,4.1216612E-4,0E0,0E0,0E0,0E0,0E0],"parents":[2147483647,0,0,1,1,3,3,4,4,5,5],"right_children":[2,4,-1,6,8,10,-1,-1,-1,-1,-1],"split_conditions":[1.2E1,4E0,4.7780924E-2,3E0,3E0,2E0,-3.307799E-2,1.2132246E-3,9.89593E-4,-6.427063E-3,-8.430471E-3],"split_indices":[1,0,0,1,1,1,0,0,0,0,0],"split_type":[0,0,0,0,0,0,0,0,0,0,0],"sum_hessian":[2.14E2,2.04E2,1E1,7E1,1.34E2,6.8E1,2E0,9E1,4.4E1,2.4E1,4.4E1],"tree_param":{"num_deleted":"0","num_feature":"2","num_nodes":"11","size_leaf_vector":"1"}},{"base_weights":[1.7360798E-3,-2.1486996E-2,4.3437194E-2,-8.171086E-2,1.0345459E-2,-7.0656344E-2,-3.087279E-2,1.0932504E-3,8.9284265E-4,-5.8100685E-3,-7.606157E-3],"categories":[],"categories_nodes":[],"categories_segments":[],"categories_sizes":[],"default_left":[0,0,0,0,0,0,0,0,0,0,0],"id":33,"left_children":[1,3,-1,5,7,9,-1,-1,-1,-1,-1],"loss_changes":[2.1694677E0,3.9384544E-1,0E0,1.5636551E-1,1.4690682E-5,2.6354194E-4,0E0,0E0,0E0,0E0,0E0],"parents":[2147483647,0,0,1,1,3,3,4,4,5,5],"right_children":[2,4,-1,6,8,10,-1,-1,-1,-1,-1],"split_conditions":[1.2E1,4E0,4.3437194E-2,3E0,3E0,2E0,-3.087279E-2,1.0932504E-3,8.9284265E-4,-5.8100685E-3,-7.606157E-3],"split_indices":[1,0,0,1,1,1,0,0,0,0,0],"split_type":[0,0,0,0,0,0,0,0,0,0,0],"sum_hessian":[2.14E2,2.04E2,1E1,7E1,1.34E2,6.8E1,2E0,9E1,4.4E1,2.4E1,4.4E1],"tree_param":{"num_deleted":"0","num_feature":"2","num_nodes":"11","size_leaf_vector":"1"}},{"base_weights":[1.5677322E-3,-1.9544668E-2,3.948836E-2,-7.41636E-2,9.325617E-3,-6.378518E-2,-2.8814605E-2,9.851157E-4,8.0556236E-4,-5.252302E-3,-6.862448E-3],"categories":[],"categories_nodes":[],"categories_segments":[],"categories_sizes":[],"default_left":[0,0,0,0,0,0,0,0,0,0,0],"id":34,"left_children":[1,3,-1,5,7,9,-1,-1,-1,-1,-1],"loss_changes":[1.7930439E0,3.2394874E-1,0E0,1.3929728E-1,1.0746531E-5,1.5622377E-4,0E0,0E0,0E0,0E0,0E0],"parents":[2147483647,0,0,1,1,3,3,4,4,5,5],"right_children":[2,4,-1,6,8,10,-1,-1,-1,-1,-1],"split_conditions":[1.2E1,4E0,3.948836E-2,3E0,3E0,2E0,-2.8814605E-2,9.851157E-4,8.0556236E-4,-5.252302E-3,-6.862448E-3],"split_indices":[1,0,0,1,1,1,0,0,0,0,0],"split_type":[0,0,0,0,0,0,0,0,0,0,0],"sum_hessian":[2.14E2,2.04E2,1E1,7E1,1.34E2,6.8E1,2E0,9E1,4.4E1,2.4E1,4.4E1],"tree_param":{"num_deleted":"0","num_feature":"2","num_nodes":"11","size_leaf_vector":"1"}},{"base_weights":[1.4125865E-3,-1.7781109E-2,3.5898488E-2,-6.7323714E-2,8.406342E-3,-5.758224E-2,-2.689363E-2,8.8767847E-4,7.2681956E-4,-4.7480776E-3,-6.191456E-3],"categories":[],"categories_nodes":[],"categories_segments":[],"categories_sizes":[],"default_left":[0,0,0,0,0,0,0,0,0,0,0],"id":35,"left_children":[1,3,-1,5,7,9,-1,-1,-1,-1,-1],"loss_changes":[1.4819568E0,2.6653183E-1,0E0,1.2395826E-1,7.765368E-6,7.9885125E-5,0E0,0E0,0E0,0E0,0E0],"parents":[2147483647,0,0,1,1,3,3,4,4,5,5],"right_children":[2,4,-1,6,8,10,-1,-1,-1,-1,-1],"split_conditions":[1.2E1,4E0,3.5898488E-2,3E0,3E0,2E0,-2.689363E-2,8.8767847E-4,7.2681956E-4,-4.7480776E-3,-6.191456E-3],"split_indices":[1,0,0,1,1,1,0,0,0,0,0],"split_type":[0,0,0,0,0,0,0,0,0,0,0],"sum_hessian":[2.14E2,2.04E2,1E1,7E1,1.34E2,6.8E1,2E0,9E1,4.4E1,2.4E1,4.4E1],"tree_param":{"num_deleted":"0","num_feature":"2","num_nodes":"11","size_leaf_vector":"1"}},{"base_weights":[1.2698274E-3,-1.61797E-2,3.2635015E-2,-6.1124172E-2,7.5776135E-3,-5.1982533E-2,-2.5100721E-2,7.998724E-4,6.557645E-4,-4.292257E-3,-5.5860677E-3],"categories":[],"categories_nodes":[],"categories_segments":[],"categories_sizes":[],"default_left":[0,0,0,0,0,0,0,0,0,0,0],"id":36,"left_children":[1,3,-1,5,7,9,-1,-1,-1,-1,-1],"loss_changes":[1.2248671E0,2.1935394E-1,0E0,1.1019683E-1,5.532056E-6,2.668798E-5,0E0,0E0,0E0,0E0,0E0],"parents":[2147483647,0,0,1,1,3,3,4,4,5,5],"right_children":[2,4,-1,6,8,10,-1,-1,-1,-1,-1],"split_conditions":[1.2E1,4E0,3.2635015E-2,3E0,3E0,2E0,-2.5100721E-2,7.998724E-4,6.557645E-4,-4.292257E-3,-5.5860677E-3],"split_indices":[1,0,0,1,1,1,0,0,0,0,0],"split_type":[0,0,0,0,0,0,0,0,0,0,0],"sum_hessian":[2.14E2,2.04E2,1E1,7E1,1.34E2,6.8E1,2E0,9E1,4.4E1,2.4E1,4.4E1],"tree_param":{"num_deleted":"0","num_feature":"2","num_nodes":"11","size_leaf_vector":"1"}},{"base_weights":[1.1388208E-3,-1.4725159E-2,2.9668218E-2,-5.550445E-2,6.8308017E-3,-4.6927477E-3,-2.342734E-2,7.20786E-4,5.9165107E-4],"categories":[],"categories_nodes":[],"categories_segments":[],"categories_sizes":[],"default_left":[0,0,0,0,0,0,0,0,0],"id":37,"left_children":[1,3,-1,5,7,-1,-1,-1,-1],"loss_changes":[1.0123949E0,1.8058167E-1,0E0,9.78702E-2,3.894791E-6,0E0,0E0,0E0,0E0],"parents":[2147483647,0,0,1,1,3,3,4,4],"right_children":[2,4,-1,6,8,-1,-1,-1,-1],"split_conditions":[1.2E1,4E0,2.9668218E-2,3E0,3E0,-4.6927477E-3,-2.342734E-2,7.20786E-4,5.9165107E-4],"split_indices":[1,0,0,1,1,0,0,0,0],"split_type":[0,0,0,0,0,0,0,0,0],"sum_hessian":[2.14E2,2.04E2,1E1,7E1,1.34E2,6.8E1,2E0,9E1,4.4E1],"tree_param":{"num_deleted":"0","num_feature":"2","num_nodes":"9","size_leaf_vector":"1"}},{"base_weights":[1.0381901E-3,-1.3383496E-2,2.697116E-2,-5.035003E-2,6.1572995E-3,-4.23027E-2,-2.1865517E-2,6.4948056E-4,5.3379586E-4,-3.4296971E-3,-4.581027E-3],"categories":[],"categories_nodes":[],"categories_segments":[],"categories_sizes":[],"default_left":[0,0,0,0,0,0,0,0,0,0,0],"id":38,"left_children":[1,3,-1,5,7,9,-1,-1,-1,-1,-1],"loss_changes":[8.3667517E-1,1.4839289E-1,0E0,8.691314E-2,2.663117E-6,3.6640465E-4,0E0,0E0,0E0,0E0,0E0],"parents":[2147483647,0,0,1,1,3,3,4,4,5,5],"right_children":[2,4,-1,6,8,10,-1,-1,-1,-1,-1],"split_conditions":[1.2E1,4E0,2.697116E-2,3E0,3E0,2E0,-2.1865517E-2,6.4948056E-4,5.3379586E-4,-3.4296971E-3,-4.581027E-3],"split_indices":[1,0,0,1,1,1,0,0,0,0,0],"split_type":[0,0,0,0,0,0,0,0,0,0,0],"sum_hessian":[2.14E2,2.04E2,1E1,7E1,1.34E2,6.8E1,2E0,9E1,4.4E1,2.4E1,4.4E1],"tree_param":{"num_deleted":"0","num_feature":"2","num_nodes":"11","size_leaf_vector":"1"}},{"base_weights":[9.263898E-4,-1.2185088E-2,2.4519244E-2,-4.5735843E-2,5.5503845E-3,-3.8188558E-2,-2.0407816E-2,5.8524584E-4,4.8161825E-4,-3.1004467E-3,-4.1331085E-3],"categories":[],"categories_nodes":[],"categories_segments":[],"categories_sizes":[],"default_left":[0,0,0,0,0,0,0,0,0,0,0],"id":39,"left_children":[1,3,-1,5,7,9,-1,-1,-1,-1,-1],"loss_changes":[6.9156575E-1,1.2223675E-1,0E0,7.705544E-2,1.7541461E-6,2.7630478E-4,0E0,0E0,0E0,0E0,0E0],"parents":[2147483647,0,0,1,1,3,3,4,4,5,5],"right_children":[2,4,-1,6,8,10,-1,-1,-1,-1,-1],"split_conditions":[1.2E1,4E0,2.4519244E-2,3E0,3E0,2E0,-2.0407816E-2,5.8524584E-4,4.8161825E-4,-3.1004467E-3,-4.1331085E-3],"split_indices":[1,0,0,1,1,1,0,0,0,0,0],"split_type":[0,0,0,0,0,0,0,0,0,0,0],"sum_hessian":[2.14E2,2.04E2,1E1,7E1,1.34E2,6.8E1,2E0,9E1,4.4E1,2.4E1,4.4E1],"tree_param":{"num_deleted":"0","num_feature":"2","num_nodes":"11","size_leaf_vector":"1"}},{"base_weights":[8.242499E-4,-1.1096164E-2,2.2290248E-2,-4.155161E-2,5.003339E-3,-3.447457E-2,-1.9047296E-2,5.2737823E-4,4.3452583E-4,-2.8028125E-3,-3.7289828E-3],"categories":[],"categories_nodes":[],"categories_segments":[],"categories_sizes":[],"default_left":[0,0,0,0,0,0,0,0,0,0,0],"id":40,"left_children":[1,3,-1,5,7,9,-1,-1,-1,-1,-1],"loss_changes":[5.716352E-1,1.0072299E-1,0E0,6.8261966E-2,1.1103693E-6,2.0708144E-4,0E0,0E0,0E0,0E0,0E0],"parents":[2147483647,0,0,1,1,3,3,4,4,5,5],"right_children":[2,4,-1,6,8,10,-1,-1,-1,-1,-1],"split_conditions":[1.2E1,4E0,2.2290248E-2,3E0,3E0,2E0,-1.9047296E-2,5.2737823E-4,4.3452583E-4,-2.8028125E-3,-3.7289828E-3],"split_indices":[1,0,0,1,1,1,0,0,0,0,0],"split_type":[0,0,0,0,0,0,0,0,0,0,0],"sum_hessian":[2.14E2,2.04E2,1E1,7E1,1.34E2,6.8E1,2E0,9E1,4.4E1,2.4E1,4.4E1],"tree_param":{"num_deleted":"0","num_feature":"2","num_nodes":"11","size_leaf_vector":"1"}},{"base_weights":[7.310834E-4,-1.0106555E-2,2.026388E-2,-7.5789145E-3,-1.7777475E-2,-3.1121748E-2,4.5102296E-4,-2.5337355E-3,-3.364371E-3],"categories":[],"categories_nodes":[],"categories_segments":[],"categories_sizes":[],"default_left":[0,0,0,0,0,0,0,0,0],"id":41,"left_children":[1,3,-1,5,-1,7,-1,-1,-1],"loss_changes":[4.725116E-1,8.553268E-2,0E0,5.7916753E-2,0E0,1.5412271E-4,0E0,0E0,0E0],"parents":[2147483647,0,0,1,1,3,3,5,5],"right_children":[2,4,-1,6,-1,8,-1,-1,-1],"split_conditions":[1.2E1,9E0,2.026388E-2,4E0,-1.7777475E-2,2E0,4.5102296E-4,-2.5337355E-3,-3.364371E-3],"split_indices":[1,1,0,0,0,1,0,0,0],"split_type":[0,0,0,0,0,0,0,0,0],"sum_hessian":[2.14E2,2.04E2,1E1,2.02E2,2E0,6.8E1,1.34E2,2.4E1,4.4E1],"tree_param":{"num_deleted":"0","num_feature":"2","num_nodes":"9","size_leaf_vector":"1"}},{"base_weights":[6.441097E-4,-9.2093E-3,1.8421728E-2,-6.8479665E-3,-1.659231E-2,-2.8095115E-2,4.0624123E-3,-2.2905064E-3,-3.035414E-3,4.306065E-4,3.4794174E-4],"categories":[],"categories_nodes":[],"categories_segments":[],"categories_sizes":[],"default_left":[0,0,0,0,0,0,0,0,0,0,0],"id":42,"left_children":[1,3,-1,5,-1,7,9,-1,-1,-1,-1],"loss_changes":[3.9059317E-1,7.472474E-2,0E0,4.7172464E-2,0E0,1.1372939E-4,4.1939784E-6,0E0,0E0,0E0,0E0],"parents":[2147483647,0,0,1,1,3,3,5,5,6,6],"right_children":[2,4,-1,6,-1,8,10,-1,-1,-1,-1],"split_conditions":[1.2E1,9E0,1.8421728E-2,4E0,-1.659231E-2,2E0,3E0,-2.2905064E-3,-3.035414E-3,4.306065E-4,3.4794174E-4],"split_indices":[1,1,0,0,0,1,1,0,0,0,0],"split_type":[0,0,0,0,0,0,0,0,0,0,0],"sum_hessian":[2.14E2,2.04E2,1E1,2.02E2,2E0,6.8E1,1.34E2,2.4E1,4.4E1,9E1,4.4E1],"tree_param":{"num_deleted":"0","num_feature":"2","num_nodes":"11","size_leaf_vector":"1"}},{"base_weights":[5.670549E-4,-8.391464E-3,1.6746974E-2,-6.1855437E-3,-1.5486156E-2,-2.536279E-2,3.6619788E-3,-2.0706176E-3,-2.738618E-3,3.8802702E-4,3.1391674E-4],"categories":[],"categories_nodes":[],"categories_segments":[],"categories_sizes":[],"default_left":[0,0,0,0,0,0,0,0,0,0,0],"id":43,"left_children":[1,3,-1,5,-1,7,9,-1,-1,-1,-1],"loss_changes":[3.2287344E-1,6.527787E-2,0E0,3.8429096E-2,0E0,8.30628E-5,3.225985E-6,0E0,0E0,0E0,0E0],"parents":[2147483647,0,0,1,1,3,3,5,5,6,6],"right_children":[2,4,-1,6,-1,8,10,-1,-1,-1,-1],"split_conditions":[1.2E1,9E0,1.6746974E-2,4E0,-1.5486156E-2,2E0,3E0,-2.0706176E-3,-2.738618E-3,3.8802702E-4,3.1391674E-4],"split_indices":[1,1,0,0,0,1,1,0,0,0,0],"split_type":[0,0,0,0,0,0,0,0,0,0,0],"sum_hessian":[2.14E2,2.04E2,1E1,2.02E2,2E0,6.8E1,1.34E2,2.4E1,4.4E1,9E1,4.4E1],"tree_param":{"num_deleted":"0","num_feature":"2","num_nodes":"11","size_leaf_vector":"1"}},{"base_weights":[4.9707707E-4,-7.6479516E-3,1.5224561E-2,-5.5872793E-3,-1.4453746E-2,-2.2896213E-2,3.3008964E-3,-1.8718357E-3,-2.4708442E-3,3.4963587E-4,2.832275E-4],"categories":[],"categories_nodes":[],"categories_segments":[],"categories_sizes":[],"default_left":[0,0,0,0,0,0,0,0,0,0,0],"id":44,"left_children":[1,3,-1,5,-1,7,9,-1,-1,-1,-1],"loss_changes":[2.6690355E-1,5.7019733E-2,0E0,3.130608E-2,0E0,5.991757E-5,2.4631154E-6,0E0,0E0,0E0,0E0],"parents":[2147483647,0,0,1,1,3,3,5,5,6,6],"right_children":[2,4,-1,6,-1,8,10,-1,-1,-1,-1],"split_conditions":[1.2E1,9E0,1.5224561E-2,4E0,-1.4453746E-2,2E0,3E0,-1.8718357E-3,-2.4708442E-3,3.4963587E-4,2.832275E-4],"split_indices":[1,1,0,0,0,1,1,0,0,0,0],"split_type":[0,0,0,0,0,0,0,0,0,0,0],"sum_hessian":[2.14E2,2.04E2,1E1,2.02E2,2E0,6.8E1,1.34E2,2.4E1,4.4E1,9E1,4.4E1],"tree_param":{"num_deleted":"0","num_feature":"2","num_nodes":"11","size_leaf_vector":"1"}},{"base_weights":[4.3379123E-4,-6.9716685E-3,1.3840519E-2,-5.0467346E-3,-1.3490163E-2,-2.0669503E-2,2.9756192E-3,-1.6921386E-3,-2.229247E-3,3.150704E-4,2.555434E-4],"categories":[],"categories_nodes":[],"categories_segments":[],"categories_sizes":[],"default_left":[0,0,0,0,0,0,0,0,0,0,0],"id":45,"left_children":[1,3,-1,5,-1,7,9,-1,-1,-1,-1],"loss_changes":[2.2063936E-1,4.9801804E-2,0E0,2.5503773E-2,0E0,4.2513013E-5,1.8803403E-6,0E0,0E0,0E0,0E0],"parents":[2147483647,0,0,1,1,3,3,5,5,6,6],"right_children":[2,4,-1,6,-1,8,10,-1,-1,-1,-1],"split_conditions":[1.2E1,9E0,1.3840519E-2,4E0,-1.3490163E-2,2E0,3E0,-1.6921386E-3,-2.229247E-3,3.150704E-4,2.555434E-4],"split_indices":[1,1,0,0,0,1,1,0,0,0,0],"split_type":[0,0,0,0,0,0,0,0,0,0,0],"sum_hessian":[2.14E2,2.04E2,1E1,2.02E2,2E0,6.8E1,1.34E2,2.4E1,4.4E1,9E1,4.4E1],"tree_param":{"num_deleted":"0","num_feature":"2","num_nodes":"11","size_leaf_vector":"1"}},{"base_weights":[3.763598E-4,-6.356737E-3,1.2582259E-2,-4.558653E-3,-1.2590818E-2,-1.8659461E-2,2.6821948E-3,-1.5297031E-3,-2.0112824E-3,2.8389838E-4,2.3055289E-4],"categories":[],"categories_nodes":[],"categories_segments":[],"categories_sizes":[],"default_left":[0,0,0,0,0,0,0,0,0,0,0],"id":46,"left_children":[1,3,-1,5,-1,7,9,-1,-1,-1,-1],"loss_changes":[1.8239777E-1,4.3493554E-2,0E0,2.0776719E-2,0E0,2.9524788E-5,1.42731E-6,0E0,0E0,0E0,0E0],"parents":[2147483647,0,0,1,1,3,3,5,5,6,6],"right_children":[2,4,-1,6,-1,8,10,-1,-1,-1,-1],"split_conditions":[1.2E1,9E0,1.2582259E-2,4E0,-1.2590818E-2,2E0,3E0,-1.5297031E-3,-2.0112824E-3,2.8389838E-4,2.3055289E-4],"split_indices":[1,1,0,0,0,1,1,0,0,0,0],"split_type":[0,0,0,0,0,0,0,0,0,0,0],"sum_hessian":[2.14E2,2.04E2,1E1,2.02E2,2E0,6.8E1,1.34E2,2.4E1,4.4E1,9E1,4.4E1],"tree_param":{"num_deleted":"0","num_feature":"2","num_nodes":"11","size_leaf_vector":"1"}},{"base_weights":[3.246679E-4,-5.7972125E-3,1.1438474E-2,-4.1176635E-3,-1.1751429E-2,-1.6844813E-2,2.4178259E-3,-1.3828526E-3,-1.81462E-3,2.558378E-4,2.0798683E-4],"categories":[],"categories_nodes":[],"categories_segments":[],"categories_sizes":[],"default_left":[0,0,0,0,0,0,0,0,0,0,0],"id":47,"left_children":[1,3,-1,5,-1,7,9,-1,-1,-1,-1],"loss_changes":[1.5078945E-1,3.7981153E-2,0E0,1.692589E-2,0E0,1.9915402E-5,1.0915101E-6,0E0,0E0,0E0,0E0],"parents":[2147483647,0,0,1,1,3,3,5,5,6,6],"right_children":[2,4,-1,6,-1,8,10,-1,-1,-1,-1],"split_conditions":[1.2E1,9E0,1.1438474E-2,4E0,-1.1751429E-2,2E0,3E0,-1.3828526E-3,-1.81462E-3,2.558378E-4,2.0798683E-4],"split_indices":[1,1,0,0,0,1,1,0,0,0,0],"split_type":[0,0,0,0,0,0,0,0,0,0,0],"sum_hessian":[2.14E2,2.04E2,1E1,2.02E2,2E0,6.8E1,1.34E2,2.4E1,4.4E1,9E1,4.4E1],"tree_param":{"num_deleted":"0","num_feature":"2","num_nodes":"11","size_leaf_vector":"1"}},{"base_weights":[2.7792357E-4,-5.2882675E-3,1.0398622E-2,-3.7194819E-3,-1.0968001E-2,-1.5206709E-2,2.1793188E-4,-1.2501011E-3,-1.6371947E-3],"categories":[],"categories_nodes":[],"categories_segments":[],"categories_sizes":[],"default_left":[0,0,0,0,0,0,0,0,0],"id":48,"left_children":[1,3,-1,5,-1,7,-1,-1,-1],"loss_changes":[1.2466085E-1,3.3164542E-2,0E0,1.3788596E-2,0E0,1.2874603E-5,0E0,0E0,0E0],"parents":[2147483647,0,0,1,1,3,3,5,5],"right_children":[2,4,-1,6,-1,8,-1,-1,-1],"split_conditions":[1.2E1,9E0,1.0398622E-2,4E0,-1.0968001E-2,2E0,2.1793188E-4,-1.2501011E-3,-1.6371947E-3],"split_indices":[1,1,0,0,0,1,0,0,0],"split_type":[0,0,0,0,0,0,0,0,0],"sum_hessian":[2.14E2,2.04E2,1E1,2.02E2,2E0,6.8E1,1.34E2,2.4E1,4.4E1],"tree_param":{"num_deleted":"0","num_feature":"2","num_nodes":"9","size_leaf_vector":"1"}},{"base_weights":[2.3506062E-4,-4.82596E-3,9.453271E-3,-3.3606784E-3,-1.0236801E-2,-1.37278605E-2,1.9629973E-3,-1.1300965E-3,-1.4771073E-3,2.0895583E-4,1.663441E-4],"categories":[],"categories_nodes":[],"categories_segments":[],"categories_sizes":[],"default_left":[0,0,0,0,0,0,0,0,0,0,0],"id":49,"left_children":[1,3,-1,5,-1,7,9,-1,-1,-1,-1],"loss_changes":[1.03063315E-1,2.8955912E-2,0E0,1.1230825E-2,0E0,7.763505E-6,1.642271E-6,0E0,0E0,0E0,0E0],"parents":[2147483647,0,0,1,1,3,3,5,5,6,6],"right_children":[2,4,-1,6,-1,8,10,-1,-1,-1,-1],"split_conditions":[1.2E1,9E0,9.453271E-3,4E0,-1.0236801E-2,2E0,3E0,-1.1300965E-3,-1.4771073E-3,2.0895583E-4,1.663441E-4],"split_indices":[1,1,0,0,0,1,1,0,0,0,0],"split_type":[0,0,0,0,0,0,0,0,0,0,0],"sum_hessian":[2.14E2,2.04E2,1E1,2.02E2,2E0,6.8E1,1.34E2,2.4E1,4.4E1,9E1,4.4E1],"tree_param":{"num_deleted":"0","num_feature":"2","num_nodes":"11","size_leaf_vector":"1"}}]},"name":"gbtree"},"learner_model_param":{"base_score":"[4.1028037E0]","boost_from_average":"1","num_class":"0","num_feature":"2","num_target":"1"},"objective":{"name":"reg:squarederror","reg_loss_param":{"scale_pos_weight":"1"}}},"version":[3,2,0]}