{"learner":{"attributes":{},"feature_names":["day_of_week","hour_of_day"],"feature_types":[],"gradient_booster":{"model":{"cats":{"enc":[],"feature_segments":[],"sorted_idx":[]},"gbtree_model_param":{"num_parallel_tree":"1","num_trees":"50"},"iteration_indptr":[0,1,2,3,4,5,6,7,8,9,10,11,12,13,14,15,16,17,18,19,20,21,22,23,24,25,26,27,28,29,30,31,32,33,34,35,36,37,38,39,40,41,42,43,44,45,46,47,48,49,50],"tree_info":[0,0,0,0,0,0,0,0,0,0,0,0,0,0,0,0,0,0,0,0,0,0,0,0,0,0,0,0,0,0,0,0,0,0,0,0,0,0,0,0,0,0,0,0,0,0,0,0,0,0],"trees":[{"base_weights":[-4.957298E-7,-1.11188135E1,1.1560339E0,-1.2222326E1,-9.7079945E-1,3.1690578E0,-5.2720275E0,-1.2579719E0,-5.0062656E-1,-1.8615706E0,3.6949935E0,-2.865839E0,-8.368203E0,8.307333E-2,-6.379666E-1,4.342516E-1,6.68195E-2,-5.1638776E-1,-8.8224776E-2,-1.0938979E0,-6.016352E-1],"categories":[],"categories_nodes":[],"categories_segments":[],"categories_sizes":[],"default_left":[0,0,0,0,0,0,0,0,0,0,0,0,0,0,0,0,0,0,0,0,0],"id":0,"left_children":[1,3,5,7,-1,9,11,-1,-1,13,15,17,19,-1,-1,-1,-1,-1,-1,-1,-1],"loss_changes":[1.0577335E5,1.0879062E3,9.647027E4,1.0485586E3,0E0,1.5027008E4,1.3222086E4,0E0,0E0,6.5495776E3,1.0071094E4,4.5629307E3,4.631992E3,0E0,0E0,0E0,0E0,0E0,0E0,0E0,0E0],"parents":[2147483647,0,0,1,1,2,2,3,3,5,5,6,6,9,9,10,10,11,11,12,12],"right_children":[2,4,6,8,-1,10,12,-1,-1,14,16,18,20,-1,-1,-1,-1,-1,-1,-1,-1],"split_conditions":[4E0,5E0,2E1,3E0,-9.7079945E-1,6E0,2.2E1,-1.2579719E0,-5.0062656E-1,5E0,1.8E1,4E0,4E0,8.307333E-2,-6.379666E-1,4.342516E-1,6.68195E-2,-5.1638776E-1,-8.8224776E-2,-1.0938979E0,-6.016352E-1],"split_indices":[1,0,1,1,0,1,1,0,0,0,1,0,0,0,0,0,0,0,0,0,0],"split_type":[0,0,0,0,0,0,0,0,0,0,0,0,0,0,0,0,0,0,0,0,0],"sum_hessian":[8.227E3,7.74E2,7.453E3,4.3E2,3.44E2,5.676E3,1.777E3,4.09E2,2.1E1,5.37E2,5.139E3,1.001E3,7.76E2,3.37E2,2E2,4.233E3,9.06E2,4.63E2,5.38E2,3.69E2,4.07E2],"tree_param":{"num_deleted":"0","num_feature":"2","num_nodes":"21","size_leaf_vector":"1"}},{"base_weights":[-6.1816873E-4,-1.0010454E1,1.0401148E0,-1.0819986E1,-8.438617E-1,2.8521428E0,-4.7461185E0,-1.1081988E1,-4.5283952E-1,-1.6764452E0,3.3255918E0,-2.5798585E0,-7.533565E0,-1.1324816E0,-9.6635115E-1,7.479056E-2,-5.744874E-1,3.9083672E-1,6.014495E-2,-4.6486026E-1,-7.941869E-2,-9.848038E-1,-5.416192E-1],"categories":[],"categories_nodes":[],"categories_segments":[],"categories_sizes":[],"default_left":[0,0,0,0,0,0,0,0,0,0,0,0,0,0,0,0,0,0,0,0,0,0,0],"id":1,"left_children":[1,3,5,7,-1,9,11,13,-1,15,17,19,21,-1,-1,-1,-1,-1,-1,-1,-1,-1,-1],"loss_changes":[8.572615E4,8.9484375E2,7.816735E4,7.8721094E2,0E0,1.2177375E4,1.0716723E4,5.8308594E1,0E0,5.3107505E3,8.1577266E3,3.697794E3,3.7544297E3,0E0,0E0,0E0,0E0,0E0,0E0,0E0,0E0,0E0,0E0],"parents":[2147483647,0,0,1,1,2,2,3,3,5,5,6,6,7,7,9,9,10,10,11,11,12,12],"right_children":[2,4,6,8,-1,10,12,14,-1,16,18,20,22,-1,-1,-1,-1,-1,-1,-1,-1,-1,-1],"split_conditions":[4E0,6E0,2E1,3E0,-8.438617E-1,6E0,2.2E1,5E0,-4.5283952E-1,5E0,1.8E1,4E0,4E0,-1.1324816E0,-9.6635115E-1,7.479056E-2,-5.744874E-1,3.9083672E-1,6.014495E-2,-4.6486026E-1,-7.941869E-2,-9.848038E-1,-5.416192E-1],"split_indices":[1,0,1,1,0,1,1,0,0,0,1,0,0,0,0,0,0,0,0,0,0,0,0],"split_type":[0,0,0,0,0,0,0,0,0,0,0,0,0,0,0,0,0,0,0,0,0,0,0],"sum_hessian":[8.227E3,7.74E2,7.453E3,5.07E2,2.67E2,5.676E3,1.777E3,4.86E2,2.1E1,5.37E2,5.139E3,1.001E3,7.76E2,4.09E2,7.7E1,3.37E2,2E2,4.233E3,9.06E2,4.63E2,5.38E2,3.69E2,4.07E2],"tree_param":{"num_deleted":"0","num_feature":"2","num_nodes":"23","size_leaf_vector":"1"}},{"base_weights":[-1.2268169E-3,-9.01379E0,9.358188E-1,-9.7430105E0,-7.5979036E-1,2.5669196E0,-4.2726707E0,-9.978099E0,-4.0961385E-1,-8.134778E-1,3.1055193E0,-2.3224158E0,-6.7821727E0,-1.0195097E0,-8.7095493E-1,1.1810493E-1,-5.9698987E-1,3.6874732E-1,5.4137032E-2,-4.1847444E-1,-7.149152E-2,-8.865895E-1,-4.8759E-1],"categories":[],"categories_nodes":[],"categories_segments":[],"categories_sizes":[],"default_left":[0,0,0,0,0,0,0,0,0,0,0,0,0,0,0,0,0,0,0,0,0,0,0],"id":2,"left_children":[1,3,5,7,-1,9,11,13,-1,15,17,19,21,-1,-1,-1,-1,-1,-1,-1,-1,-1,-1],"loss_changes":[6.94954E4,7.2615625E2,6.333696E4,6.335039E2,0E0,1.0338535E4,8.68608E3,4.526172E1,0E0,8.0393403E3,7.305383E3,2.99669E3,3.043125E3,0E0,0E0,0E0,0E0,0E0,0E0,0E0,0E0,0E0,0E0],"parents":[2147483647,0,0,1,1,2,2,3,3,5,5,6,6,7,7,9,9,10,10,11,11,12,12],"right_children":[2,4,6,8,-1,10,12,14,-1,16,18,20,22,-1,-1,-1,-1,-1,-1,-1,-1,-1,-1],"split_conditions":[4E0,6E0,2E1,3E0,-7.5979036E-1,7E0,2.2E1,5E0,-4.0961385E-1,6E0,1.8E1,4E0,4E0,-1.0195097E0,-8.7095493E-1,1.1810493E-1,-5.9698987E-1,3.6874732E-1,5.4137032E-2,-4.1847444E-1,-7.149152E-2,-8.865895E-1,-4.8759E-1],"split_indices":[1,0,1,1,0,1,1,0,0,0,1,0,0,0,0,0,0,0,0,0,0,0,0],"split_type":[0,0,0,0,0,0,0,0,0,0,0,0,0,0,0,0,0,0,0,0,0,0,0],"sum_hessian":[8.227E3,7.74E2,7.453E3,5.07E2,2.67E2,5.676E3,1.777E3,4.86E2,2.1E1,7.8E2,4.896E3,1.001E3,7.76E2,4.09E2,7.7E1,5.63E2,2.17E2,3.99E3,9.06E2,4.63E2,5.38E2,3.69E2,4.07E2],"tree_param":{"num_deleted":"0","num_feature":"2","num_nodes":"23","size_leaf_vector":"1"}},{"base_weights":[-1.7096604E-3,-8.11636E0,8.41979E-1,-8.773237E0,-6.8409485E-1,2.3102174E0,-3.8464525E0,-8.984171E0,-3.705144E-1,-1.4495059E0,2.7032955E0,-2.0906634E0,-6.1057243E0,-9.178073E-1,-7.8497607E-1,5.5558037E-2,-4.8140317E-1,3.177365E-1,4.872929E-2,-3.767172E-1,-6.4355664E-2,-7.9817027E-1,-4.389505E-1],"categories":[],"categories_nodes":[],"categories_segments":[],"categories_sizes":[],"default_left":[0,0,0,0,0,0,0,0,0,0,0,0,0,0,0,0,0,0,0,0,0,0,0],"id":3,"left_children":[1,3,5,7,-1,9,11,13,-1,15,17,19,21,-1,-1,-1,-1,-1,-1,-1,-1,-1,-1],"loss_changes":[5.6337684E4,5.892656E2,5.1320246E4,5.0978516E2,0E0,8.393756E3,7.040213E3,3.507422E1,0E0,3.632111E3,5.3982305E3,2.4285151E3,2.466586E3,0E0,0E0,0E0,0E0,0E0,0E0,0E0,0E0,0E0,0E0],"parents":[2147483647,0,0,1,1,2,2,3,3,5,5,6,6,7,7,9,9,10,10,11,11,12,12],"right_children":[2,4,6,8,-1,10,12,14,-1,16,18,20,22,-1,-1,-1,-1,-1,-1,-1,-1,-1,-1],"split_conditions":[4E0,6E0,2E1,3E0,-6.8409485E-1,6E0,2.2E1,5E0,-3.705144E-1,5E0,1.8E1,4E0,4E0,-9.178073E-1,-7.8497607E-1,5.5558037E-2,-4.8140317E-1,3.177365E-1,4.872929E-2,-3.767172E-1,-6.4355664E-2,-7.9817027E-1,-4.389505E-1],"split_indices":[1,0,1,1,0,1,1,0,0,0,1,0,0,0,0,0,0,0,0,0,0,0,0],"split_type":[0,0,0,0,0,0,0,0,0,0,0,0,0,0,0,0,0,0,0,0,0,0,0],"sum_hessian":[8.227E3,7.74E2,7.453E3,5.07E2,2.67E2,5.676E3,1.777E3,4.86E2,2.1E1,5.37E2,5.139E3,1.001E3,7.76E2,4.09E2,7.7E1,3.37E2,2E2,4.233E3,9.06E2,4.63E2,5.38E2,3.69E2,4.07E2],"tree_param":{"num_deleted":"0","num_feature":"2","num_nodes":"23","size_leaf_vector":"1"}},{"base_weights":[-2.0849109E-3,-7.3082814E0,7.575481E-1,-7.8999944E0,-6.1594063E-1,2.2802052E0,-2.9248228E0,-8.089251E0,-3.3514717E-1,7.3342256E-2,2.9999003E0,-1.5004045E0,-5.496744E0,-8.262505E-1,-7.0748484E-1,2.092192E-1,-2.4608622E-1,3.25576E-1,1.23034395E-1,-3.187503E-1,-2.5718093E-2,-6.6584337E-1,-3.1745598E-1],"categories":[],"categories_nodes":[],"categories_segments":[],"categories_sizes":[],"default_left":[0,0,0,0,0,0,0,0,0,0,0,0,0,0,0,0,0,0,0,0,0,0,0],"id":4,"left_children":[1,3,5,7,-1,9,11,13,-1,15,17,19,21,-1,-1,-1,-1,-1,-1,-1,-1,-1,-1],"loss_changes":[4.5671168E4,4.781875E2,4.1801156E4,4.101914E2,0E0,8.376309E3,7.981828E3,2.7136719E1,0E0,6.6459478E3,1.7966133E3,2.9460845E3,2.0749453E3,0E0,0E0,0E0,0E0,0E0,0E0,0E0,0E0,0E0,0E0],"parents":[2147483647,0,0,1,1,2,2,3,3,5,5,6,6,7,7,9,9,10,10,11,11,12,12],"right_children":[2,4,6,8,-1,10,12,14,-1,16,18,20,22,-1,-1,-1,-1,-1,-1,-1,-1,-1,-1],"split_conditions":[4E0,6E0,1.9E1,3E0,-6.1594063E-1,9E0,2.2E1,5E0,-3.3514717E-1,5E0,1.8E1,4E0,5E0,-8.262505E-1,-7.0748484E-1,2.092192E-1,-2.4608622E-1,3.25576E-1,1.23034395E-1,-3.187503E-1,-2.5718093E-2,-6.6584337E-1,-3.1745598E-1],"split_indices":[1,0,1,1,0,1,1,0,0,0,1,0,0,0,0,0,0,0,0,0,0,0,0],"split_type":[0,0,0,0,0,0,0,0,0,0,0,0,0,0,0,0,0,0,0,0,0,0,0],"sum_hessian":[8.227E3,7.74E2,7.453E3,5.07E2,2.67E2,5.273E3,2.18E3,4.86E2,2.1E1,1.297E3,3.976E3,1.404E3,7.76E2,4.09E2,7.7E1,7.22E2,5.75E2,3.473E3,5.03E2,5.95E2,8.09E2,5.16E2,2.6E2],"tree_param":{"num_deleted":"0","num_feature":"2","num_nodes":"23","size_leaf_vector":"1"}},{"base_weights":[-2.2896398E-3,-6.5806594E0,6.816705E-1,-7.113674E0,-5.5457634E-1,1.6631321E0,-4.013732E0,-7.283475E0,-3.0315587E-1,2.052263E0,-6.36912E-1,-5.946051E0,-2.4735818E0,-7.438269E-1,-6.3764334E-1,-7.506158E-2,2.5389108E-1,-2.3031226E-1,8.506525E-3,-4.8623082E-1,-6.5216464E-1,-1.8281502E-1,-5.038131E-1],"categories":[],"categories_nodes":[],"categories_segments":[],"categories_sizes":[],"default_left":[0,0,0,0,0,0,0,0,0,0,0,0,0,0,0,0,0,0,0,0,0,0,0],"id":5,"left_children":[1,3,5,7,-1,9,11,13,-1,15,17,19,21,-1,-1,-1,-1,-1,-1,-1,-1,-1,-1],"loss_changes":[3.702508E4,3.8805078E2,3.435737E4,3.3003906E2,0E0,5.51999E3,3.8214355E3,2.0947266E1,0E0,7.1957227E3,1.0744447E3,3.2447656E2,1.1809082E3,0E0,0E0,0E0,0E0,0E0,0E0,0E0,0E0,0E0,0E0],"parents":[2147483647,0,0,1,1,2,2,3,3,5,5,6,6,7,7,9,9,10,10,11,11,12,12],"right_children":[2,4,6,8,-1,10,12,14,-1,16,18,20,22,-1,-1,-1,-1,-1,-1,-1,-1,-1,-1],"split_conditions":[4E0,6E0,2.1E1,3E0,-5.5457634E-1,1.9E1,4E0,5E0,-3.0315587E-1,7E0,3E0,2.2E1,2.3E1,-7.438269E-1,-6.3764334E-1,-7.506158E-2,2.5389108E-1,-2.3031226E-1,8.506525E-3,-4.8623082E-1,-6.5216464E-1,-1.8281502E-1,-5.038131E-1],"split_indices":[1,0,1,1,0,1,0,0,0,1,0,1,1,0,0,0,0,0,0,0,0,0,0],"split_type":[0,0,0,0,0,0,0,0,0,0,0,0,0,0,0,0,0,0,0,0,0,0,0],"sum_hessian":[8.227E3,7.74E2,7.453E3,5.07E2,2.67E2,6.165E3,1.288E3,4.86E2,2.1E1,5.273E3,8.92E2,5.7E2,7.18E2,4.09E2,7.7E1,7.8E2,4.493E3,2.69E2,6.23E2,2.01E2,3.69E2,5.75E2,1.43E2],"tree_param":{"num_deleted":"0","num_feature":"2","num_nodes":"23","size_leaf_vector":"1"}},{"base_weights":[-2.5602977E-3,-5.925483E0,6.132524E-1,-6.405623E0,-4.9932572E-1,1.4968114E0,-3.6137748E0,-6.557964E0,-2.7421826E-1,-1.2699963E0,1.7609872E0,-5.35344E0,-2.227179E0,-6.696257E-1,-5.746965E-1,3.6642637E-2,-4.0154734E-1,2.3604642E-1,-5.8458573E-3,-4.3784842E-1,-5.871244E-1,-1.6878754E-1,-5.229815E-1],"categories":[],"categories_nodes":[],"categories_segments":[],"categories_sizes":[],"default_left":[0,0,0,0,0,0,0,0,0,0,0,0,0,0,0,0,0,0,0,0,0,0,0],"id":6,"left_children":[1,3,5,7,-1,9,11,13,-1,15,17,19,21,-1,-1,-1,-1,-1,-1,-1,-1,-1,-1],"loss_changes":[3.001453E4,3.1490625E2,2.7844816E4,2.6552734E2,0E0,4.5091104E3,3.097418E3,1.6134766E1,0E0,2.4185767E3,6.1397793E3,2.625537E2,1.1554729E3,0E0,0E0,0E0,0E0,0E0,0E0,0E0,0E0,0E0,0E0],"parents":[2147483647,0,0,1,1,2,2,3,3,5,5,6,6,7,7,9,9,10,10,11,11,12,12],"right_children":[2,4,6,8,-1,10,12,14,-1,16,18,20,22,-1,-1,-1,-1,-1,-1,-1,-1,-1,-1],"split_conditions":[4E0,6E0,2.1E1,3E0,-4.9932572E-1,6E0,4E0,5E0,-2.7421826E-1,5E0,1.8E1,2.2E1,7E0,-6.696257E-1,-5.746965E-1,3.6642637E-2,-4.0154734E-1,2.3604642E-1,-5.8458573E-3,-4.3784842E-1,-5.871244E-1,-1.6878754E-1,-5.229815E-1],"split_indices":[1,0,1,1,0,1,0,0,0,0,1,1,0,0,0,0,0,0,0,0,0,0,0],"split_type":[0,0,0,0,0,0,0,0,0,0,0,0,0,0,0,0,0,0,0,0,0,0,0],"sum_hessian":[8.227E3,7.74E2,7.453E3,5.07E2,2.67E2,6.165E3,1.288E3,4.86E2,2.1E1,5.37E2,5.628E3,5.7E2,7.18E2,4.09E2,7.7E1,3.37E2,2E2,4.233E3,1.395E3,2.01E2,3.69E2,6.1E2,1.08E2],"tree_param":{"num_deleted":"0","num_feature":"2","num_nodes":"23","size_leaf_vector":"1"}},{"base_weights":[-2.7742342E-3,-5.3355384E0,5.516791E-1,-5.7680497E0,-4.4957945E-1,1.5263171E0,-2.560566E0,-5.9047227E0,-2.4804285E-1,-6.62076E-1,1.8750222E0,-1.3736992E0,-4.0878243E0,-6.028264E-1,-5.179636E-1,9.091656E-2,-4.724086E-1,2.2292173E-1,3.1441763E-2,-2.5920528E-1,-3.2232698E-2,-4.978961E-1,-2.3069608E-1],"categories":[],"categories_nodes":[],"categories_segments":[],"categories_sizes":[],"default_left":[0,0,0,0,0,0,0,0,0,0,0,0,0,0,0,0,0,0,0,0,0,0,0],"id":7,"left_children":[1,3,5,7,-1,9,11,13,-1,15,17,19,21,-1,-1,-1,-1,-1,-1,-1,-1,-1,-1],"loss_changes":[2.4331236E4,2.5554688E2,2.2614217E4,2.1361523E2,0E0,4.333382E3,3.2172812E3,1.23984375E1,0E0,4.988948E3,2.7061582E3,1.2826694E3,1.2216064E3,0E0,0E0,0E0,0E0,0E0,0E0,0E0,0E0,0E0,0E0],"parents":[2147483647,0,0,1,1,2,2,3,3,5,5,6,6,7,7,9,9,10,10,11,11,12,12],"right_children":[2,4,6,8,-1,10,12,14,-1,16,18,20,22,-1,-1,-1,-1,-1,-1,-1,-1,-1,-1],"split_conditions":[4E0,6E0,2E1,3E0,-4.4957945E-1,7E0,2.2E1,5E0,-2.4804285E-1,6E0,1.8E1,4E0,5E0,-6.028264E-1,-5.179636E-1,9.091656E-2,-4.724086E-1,2.2292173E-1,3.1441763E-2,-2.5920528E-1,-3.2232698E-2,-4.978961E-1,-2.3069608E-1],"split_indices":[1,0,1,1,0,1,1,0,0,0,1,0,0,0,0,0,0,0,0,0,0,0,0],"split_type":[0,0,0,0,0,0,0,0,0,0,0,0,0,0,0,0,0,0,0,0,0,0,0],"sum_hessian":[8.227E3,7.74E2,7.453E3,5.07E2,2.67E2,5.676E3,1.777E3,4.86E2,2.1E1,7.8E2,4.896E3,1.001E3,7.76E2,4.09E2,7.7E1,5.63E2,2.17E2,3.99E3,9.06E2,4.63E2,5.38E2,5.16E2,2.6E2],"tree_param":{"num_deleted":"0","num_feature":"2","num_nodes":"23","size_leaf_vector":"1"}},{"base_weights":[-2.857121E-3,-4.804331E0,4.9635738E-1,-5.193939E0,-4.0478927E-1,1.2187617E0,-2.9596872E0,-5.3165517E0,-2.24366E-1,1.5037224E0,-1.1527303E0,-4.406889E0,-1.8062631E0,-5.426908E-1,-4.668313E-1,1.817204E-1,-3.7231784E-2,-6.3430613E-1,-1.6291387E-2,-4.1405997E-1,-5.714116E-1,-1.3111614E-1,-4.5649862E-1],"categories":[],"categories_nodes":[],"categories_segments":[],"categories_sizes":[],"default_left":[0,0,0,0,0,0,0,0,0,0,0,0,0,0,0,0,0,0,0,0,0,0,0],"id":8,"left_children":[1,3,5,7,-1,9,11,13,-1,15,17,19,21,-1,-1,-1,-1,-1,-1,-1,-1,-1,-1],"loss_changes":[1.9724617E4,2.0738086E2,1.861372E4,1.7183496E2,0E0,4.1686074E3,2.1436875E3,9.503906E0,0E0,3.2381895E3,3.399975E3,1.7510645E2,9.760593E2,0E0,0E0,0E0,0E0,0E0,0E0,0E0,0E0,0E0,0E0],"parents":[2147483647,0,0,1,1,2,2,3,3,5,5,6,6,7,7,9,9,10,10,11,11,12,12],"right_children":[2,4,6,8,-1,10,12,14,-1,16,18,20,22,-1,-1,-1,-1,-1,-1,-1,-1,-1,-1],"split_conditions":[4E0,6E0,2.1E1,3E0,-4.0478927E-1,7E0,4E0,5E0,-2.24366E-1,1.9E1,8E0,2.3E1,7E0,-5.426908E-1,-4.668313E-1,1.817204E-1,-3.7231784E-2,-6.3430613E-1,-1.6291387E-2,-4.1405997E-1,-5.714116E-1,-1.3111614E-1,-4.5649862E-1],"split_indices":[1,0,1,1,0,0,0,0,0,1,1,1,0,0,0,0,0,0,0,0,0,0,0],"split_type":[0,0,0,0,0,0,0,0,0,0,0,0,0,0,0,0,0,0,0,0,0,0,0],"sum_hessian":[8.227E3,7.74E2,7.453E3,5.07E2,2.67E2,6.165E3,1.288E3,4.86E2,2.1E1,5.504E3,6.61E2,5.7E2,7.18E2,4.09E2,7.7E1,4.716E3,7.88E2,1.05E2,5.56E2,4.77E2,9.3E1,6.1E2,1.08E2],"tree_param":{"num_deleted":"0","num_feature":"2","num_nodes":"23","size_leaf_vector":"1"}},{"base_weights":[-3.0235273E-3,-4.326012E0,4.4644243E-1,-4.6769743E0,-3.644614E-1,1.0968032E0,-2.664939E0,-4.7869697E0,-2.0294924E-1,1.3533762E0,-1.0384405E0,-3.967926E0,-1.6264541E0,-4.885541E-1,-4.2074665E-1,1.728165E-1,7.621286E-3,-5.1586854E-1,-1.2243283E-3,-3.727406E-1,-5.148784E-1,-1.07856475E-1,-3.806717E-1],"categories":[],"categories_nodes":[],"categories_segments":[],"categories_sizes":[],"default_left":[0,0,0,0,0,0,0,0,0,0,0,0,0,0,0,0,0,0,0,0,0,0,0],"id":9,"left_children":[1,3,5,7,-1,9,11,13,-1,15,17,19,21,-1,-1,-1,-1,-1,-1,-1,-1,-1,-1],"loss_changes":[1.5989234E4,1.6829102E2,1.5086243E4,1.3821973E2,0E0,3.3794233E3,1.7377334E3,7.2626953E0,0E0,2.6349268E3,2.7989946E3,1.429834E2,8.547704E2,0E0,0E0,0E0,0E0,0E0,0E0,0E0,0E0,0E0,0E0],"parents":[2147483647,0,0,1,1,2,2,3,3,5,5,6,6,7,7,9,9,10,10,11,11,12,12],"right_children":[2,4,6,8,-1,10,12,14,-1,16,18,20,22,-1,-1,-1,-1,-1,-1,-1,-1,-1,-1],"split_conditions":[4E0,6E0,2.1E1,3E0,-3.644614E-1,7E0,4E0,5E0,-2.0294924E-1,1.8E1,9E0,2.3E1,2.3E1,-4.885541E-1,-4.2074665E-1,1.728165E-1,7.621286E-3,-5.1586854E-1,-1.2243283E-3,-3.727406E-1,-5.148784E-1,-1.07856475E-1,-3.806717E-1],"split_indices":[1,0,1,1,0,0,0,0,0,1,1,1,1,0,0,0,0,0,0,0,0,0,0],"split_type":[0,0,0,0,0,0,0,0,0,0,0,0,0,0,0,0,0,0,0,0,0,0,0],"sum_hessian":[8.227E3,7.74E2,7.453E3,5.07E2,2.67E2,6.165E3,1.288E3,4.86E2,2.1E1,5.504E3,6.61E2,5.7E2,7.18E2,4.09E2,7.7E1,4.255E3,1.249E3,1.31E2,5.3E2,4.77E2,9.3E1,5.75E2,1.43E2],"tree_param":{"num_deleted":"0","num_feature":"2","num_nodes":"23","size_leaf_vector":"1"}},{"base_weights":[-3.1090358E-3,-3.8953166E0,4.0156817E-1,-4.2114663E0,-3.2815125E0,1.233493E0,-1.6103406E0,-4.3101397E0,-1.8357678E-1,-3.0198827E0,-3.4499912E0,-3.3991998E-1,1.746708E0,-8.0267894E-1,-3.0687115E0,-4.3949318E-1,-3.751428E-1,-3.1497976E-1,-2.4068733E-1,-2.3262942E-1,-3.6466792E-1,1.199103E-1,-2.2711244E-1,1.9160108E-1,3.3466842E-2,-2.3534249E-1,-1.3002895E-2,-3.7727845E-1,-1.662296E-1],"categories":[],"categories_nodes":[],"categories_segments":[],"categories_sizes":[],"default_left":[0,0,0,0,0,0,0,0,0,0,0,0,0,0,0,0,0,0,0,0,0,0,0,0,0,0,0,0,0],"id":10,"left_children":[1,3,5,7,9,11,13,15,-1,17,19,21,23,25,27,-1,-1,-1,-1,-1,-1,-1,-1,-1,-1,-1,-1,-1,-1],"loss_changes":[1.2961386E4,1.3657227E2,1.247817E4,1.111709E2,1.3947754E0,4.2593457E3,2.5664712E3,6.584961E0,0E0,1.4179688E0,2.5995605E1,3.860597E3,9.501084E2,1.4652622E3,7.631284E2,0E0,0E0,0E0,0E0,0E0,0E0,0E0,0E0,0E0,0E0,0E0,0E0,0E0,0E0],"parents":[2147483647,0,0,1,1,2,2,3,3,4,4,5,5,6,6,7,7,9,9,10,10,11,11,12,12,13,13,14,14],"right_children":[2,4,6,8,10,12,14,16,-1,18,20,22,24,26,28,-1,-1,-1,-1,-1,-1,-1,-1,-1,-1,-1,-1,-1,-1],"split_conditions":[4E0,6E0,1.9E1,3E0,7E0,9E0,2.2E1,2E0,-1.8357678E-1,2E0,1E0,5E0,7E0,3E0,5E0,-4.3949318E-1,-3.751428E-1,-3.1497976E-1,-2.4068733E-1,-2.3262942E-1,-3.6466792E-1,1.199103E-1,-2.2711244E-1,1.9160108E-1,3.3466842E-2,-2.3534249E-1,-1.3002895E-2,-3.7727845E-1,-1.662296E-1],"split_indices":[1,0,1,1,0,1,1,1,0,1,1,0,0,0,0,0,0,0,0,0,0,0,0,0,0,0,0,0,0],"split_type":[0,0,0,0,0,0,0,0,0,0,0,0,0,0,0,0,0,0,0,0,0,0,0,0,0,0,0,0,0],"sum_hessian":[8.227E3,7.74E2,7.453E3,5.07E2,2.67E2,5.273E3,2.18E3,4.86E2,2.1E1,1.12E2,1.55E2,1.297E3,3.976E3,1.404E3,7.76E2,4.16E2,7E1,8.9E1,2.3E1,2.5E1,1.3E2,7.22E2,5.75E2,3.55E3,4.26E2,4.24E2,9.8E2,5.16E2,2.6E2],"tree_param":{"num_deleted":"0","num_feature":"2","num_nodes":"29","size_leaf_vector":"1"}},{"base_weights":[-3.1413895E-3,-3.5085607E0,3.6132106E-1,-3.862034E0,-3.0568051E0,1.1101662E0,-1.4496696E0,-3.970744E0,-1.6605358E-1,-2.1253428E0,-3.257361E0,-3.0601084E-1,1.5720942E0,-7.225877E-1,-2.76254E0,-4.0820986E-1,-3.381569E-1,-7.281154E-2,-2.575916E-1,-4.0252575E-1,-3.0271938E-1,1.079358E-1,-2.0444062E-1,1.7244641E-1,3.0128032E-2,-1.8011372E-1,7.1903826E-3,-3.396236E-1,-1.4967036E-1],"categories":[],"categories_nodes":[],"categories_segments":[],"categories_sizes":[],"default_left":[0,0,0,0,0,0,0,0,0,0,0,0,0,0,0,0,0,0,0,0,0,0,0,0,0,0,0,0,0],"id":11,"left_children":[1,3,5,7,9,11,13,15,-1,17,19,21,23,25,27,-1,-1,-1,-1,-1,-1,-1,-1,-1,-1,-1,-1,-1,-1],"loss_changes":[1.0513309E4,1.1194922E2,1.0110362E4,9.655469E1,5.752661E1,3.450583E3,2.0799092E3,1.3095703E1,0E0,3.8415863E1,3.765674E1,3.1282046E3,7.695625E2,1.204072E3,6.181909E2,0E0,0E0,0E0,0E0,0E0,0E0,0E0,0E0,0E0,0E0,0E0,0E0,0E0,0E0],"parents":[2147483647,0,0,1,1,2,2,3,3,4,4,5,5,6,6,7,7,9,9,10,10,11,11,12,12,13,13,14,14],"right_children":[2,4,6,8,10,12,14,16,-1,18,20,22,24,26,28,-1,-1,-1,-1,-1,-1,-1,-1,-1,-1,-1,-1,-1,-1],"split_conditions":[4E0,5E0,1.9E1,3E0,1E0,9E0,2.2E1,2E0,-1.6605358E-1,6E0,6E0,5E0,7E0,4E0,5E0,-4.0820986E-1,-3.381569E-1,-7.281154E-2,-2.575916E-1,-4.0252575E-1,-3.0271938E-1,1.079358E-1,-2.0444062E-1,1.7244641E-1,3.0128032E-2,-1.8011372E-1,7.1903826E-3,-3.396236E-1,-1.4967036E-1],"split_indices":[1,0,1,1,1,1,1,1,0,0,0,0,0,0,0,0,0,0,0,0,0,0,0,0,0,0,0,0,0],"split_type":[0,0,0,0,0,0,0,0,0,0,0,0,0,0,0,0,0,0,0,0,0,0,0,0,0,0,0,0,0],"sum_hessian":[8.227E3,7.74E2,7.453E3,4.3E2,3.44E2,5.273E3,2.18E3,4.09E2,2.1E1,6.3E1,2.81E2,1.297E3,3.976E3,1.404E3,7.76E2,3.39E2,7E1,1.6E1,4.7E1,6.1E1,2.2E2,7.22E2,5.75E2,3.55E3,4.26E2,5.95E2,8.09E2,5.16E2,2.6E2],"tree_param":{"num_deleted":"0","num_feature":"2","num_nodes":"29","size_leaf_vector":"1"}},{"base_weights":[-3.131866E-3,-2.3809955E0,4.4789606E-1,-3.255041E0,-1.360473E0,1.2548693E0,-1.3050064E0,-3.57549E0,-2.8017104E0,2.377599E-2,-2.4047296E0,1.4395919E0,-3.3105534E-1,-6.5045214E-1,-2.4869158E0,-3.2218763E-1,-3.7336442E-1,-1.917971E-1,-3.031444E-1,-2.1231018E-1,1.0311165E-1,-1.8685569E-1,-3.9320084E-1,1.0336738E-1,1.8425445E-1,-1.9026569E-1,1.5027817E-1,-1.9389465E-1,-9.157288E-3,-3.0572695E-1,-1.3476066E-1],"categories":[],"categories_nodes":[],"categories_segments":[],"categories_sizes":[],"default_left":[0,0,0,0,0,0,0,0,0,0,0,0,0,0,0,0,0,0,0,0,0,0,0,0,0,0,0,0,0,0,0],"id":12,"left_children":[1,3,5,7,9,11,13,15,17,19,21,23,25,27,29,-1,-1,-1,-1,-1,-1,-1,-1,-1,-1,-1,-1,-1,-1,-1,-1],"loss_changes":[8.825455E3,1.165853E3,9.786049E3,9.254297E1,8.774822E2,1.388209E3,1.6856558E3,1.0899902E1,5.4483887E1,5.688E2,2.7598718E2,6.921045E2,1.4294794E3,1.01158093E3,5.0078174E2,0E0,0E0,0E0,0E0,0E0,0E0,0E0,0E0,0E0,0E0,0E0,0E0,0E0,0E0,0E0,0E0],"parents":[2147483647,0,0,1,1,2,2,3,3,4,4,5,5,6,6,7,7,8,8,9,9,10,10,11,11,12,12,13,13,14,14],"right_children":[2,4,6,8,10,12,14,16,18,20,22,24,26,28,30,-1,-1,-1,-1,-1,-1,-1,-1,-1,-1,-1,-1,-1,-1,-1,-1],"split_conditions":[6E0,3E0,1.9E1,5E0,4E0,7E0,2.2E1,2E0,1E0,2E0,7E0,1.3E1,1.4E1,3E0,5E0,-3.2218763E-1,-3.7336442E-1,-1.917971E-1,-3.031444E-1,-2.1231018E-1,1.0311165E-1,-1.8685569E-1,-3.9320084E-1,1.0336738E-1,1.8425445E-1,-1.9026569E-1,1.5027817E-1,-1.9389465E-1,-9.157288E-3,-3.0572695E-1,-1.3476066E-1],"split_indices":[1,1,1,0,0,0,1,0,1,0,0,1,1,0,0,0,0,0,0,0,0,0,0,0,0,0,0,0,0,0,0],"split_type":[0,0,0,0,0,0,0,0,0,0,0,0,0,0,0,0,0,0,0,0,0,0,0,0,0,0,0,0,0,0,0],"sum_hessian":[8.227E3,1.311E3,6.916E3,7.05E2,6.06E2,4.736E3,2.18E3,4.09E2,2.96E2,2.61E2,3.45E2,4.242E3,4.94E2,1.404E3,7.76E2,1.33E2,2.76E2,6.3E1,2.33E2,8.3E1,1.78E2,2.57E2,8.8E1,2.115E3,2.127E3,2.66E2,2.28E2,4.24E2,9.8E2,5.16E2,2.6E2],"tree_param":{"num_deleted":"0","num_feature":"2","num_nodes":"31","size_leaf_vector":"1"}},{"base_weights":[-3.0950056E-3,-2.1443286E0,4.030495E-1,-2.931223E0,-1.2255613E0,1.1294351E0,-1.1748008E0,-3.2196374E0,-2.5232058E0,2.0981738E-2,-2.1659334E0,1.615443E0,6.3131875E-1,-5.8555156E-1,-2.238791E0,-3.312306E-1,-2.7305257E-1,-1.7291705E-1,-2.729595E-1,-1.9133195E-1,9.285813E-2,-1.6824257E-1,-3.5432255E-1,9.9232E-2,2.2330792E-1,-2.4691442E-1,9.817365E-2,-1.4807601E-1,7.386797E-3,-2.7521336E-1,-1.213362E-1],"categories":[],"categories_nodes":[],"categories_segments":[],"categories_sizes":[],"default_left":[0,0,0,0,0,0,0,0,0,0,0,0,0,0,0,0,0,0,0,0,0,0,0,0,0,0,0,0,0,0,0],"id":13,"left_children":[1,3,5,7,9,11,13,15,17,19,21,23,25,27,29,-1,-1,-1,-1,-1,-1,-1,-1,-1,-1,-1,-1,-1,-1,-1,-1],"loss_changes":[7.156347E3,9.4494775E2,7.929092E3,7.495703E1,7.115794E2,1.1457529E3,1.3660791E3,9.539551E0,4.3952393E1,4.617363E2,2.2445105E2,9.2030176E2,2.54582E3,8.2950616E2,4.056709E2,0E0,0E0,0E0,0E0,0E0,0E0,0E0,0E0,0E0,0E0,0E0,0E0,0E0,0E0,0E0,0E0],"parents":[2147483647,0,0,1,1,2,2,3,3,4,4,5,5,6,6,7,7,8,8,9,9,10,10,11,11,12,12,13,13,14,14],"right_children":[2,4,6,8,10,12,14,16,18,20,22,24,26,28,30,-1,-1,-1,-1,-1,-1,-1,-1,-1,-1,-1,-1,-1,-1,-1,-1],"split_conditions":[6E0,3E0,1.9E1,5E0,4E0,5E0,2.2E1,2E0,1E0,2E0,7E0,1.3E1,8E0,4E0,5E0,-3.312306E-1,-2.7305257E-1,-1.7291705E-1,-2.729595E-1,-1.9133195E-1,9.285813E-2,-1.6824257E-1,-3.5432255E-1,9.9232E-2,2.2330792E-1,-2.4691442E-1,9.817365E-2,-1.4807601E-1,7.386797E-3,-2.7521336E-1,-1.213362E-1],"split_indices":[1,1,1,0,0,0,1,1,1,0,0,1,1,0,0,0,0,0,0,0,0,0,0,0,0,0,0,0,0,0,0],"split_type":[0,0,0,0,0,0,0,0,0,0,0,0,0,0,0,0,0,0,0,0,0,0,0,0,0,0,0,0,0,0,0],"sum_hessian":[8.227E3,1.311E3,6.916E3,7.05E2,6.06E2,4.736E3,2.18E3,4.09E2,2.96E2,2.61E2,3.45E2,2.396E3,2.34E3,1.404E3,7.76E2,3.39E2,7E1,6.3E1,2.33E2,8.3E1,1.78E2,2.57E2,8.8E1,1.194E3,1.202E3,2.37E2,2.103E3,5.95E2,8.09E2,5.16E2,2.6E2],"tree_param":{"num_deleted":"0","num_feature":"2","num_nodes":"31","size_leaf_vector":"1"}},{"base_weights":[-3.0327532E-3,-1.9311696E0,3.6269206E-1,-2.639588E0,-1.1040285E0,1.1413597E0,-8.657883E-1,-2.8991475E0,-2.2723863E0,1.8507488E-2,-1.9508504E0,7.5813854E-1,2.0391812E0,-1.3258243E-1,-1.6591859E0,-2.603726E-1,-3.031593E-1,-1.5589555E-1,-2.4578016E-1,-1.7242654E-1,8.362416E-2,-1.5148354E-1,-3.1928846E-1,9.815895E-2,-1.1411177E-1,3.0635664E-1,1.0418943E-1,-1.3325398E-1,3.7119295E-2,-2.500147E-1,-9.8902196E-2],"categories":[],"categories_nodes":[],"categories_segments":[],"categories_sizes":[],"default_left":[0,0,0,0,0,0,0,0,0,0,0,0,0,0,0,0,0,0,0,0,0,0,0,0,0,0,0,0,0,0,0],"id":14,"left_children":[1,3,5,7,9,11,13,15,17,19,21,23,25,27,29,-1,-1,-1,-1,-1,-1,-1,-1,-1,-1,-1,-1,-1,-1,-1,-1],"loss_changes":[5.802819E3,7.658677E2,6.6176367E3,6.070166E1,5.77043E2,1.4552217E3,1.5611267E3,8.148682E0,3.545569E1,3.7482455E2,1.8253809E2,1.2611355E3,1.2901606E3,8.443891E2,7.239844E2,0E0,0E0,0E0,0E0,0E0,0E0,0E0,0E0,0E0,0E0,0E0,0E0,0E0,0E0,0E0,0E0],"parents":[2147483647,0,0,1,1,2,2,3,3,4,4,5,5,6,6,7,7,8,8,9,9,10,10,11,11,12,12,13,13,14,14],"right_children":[2,4,6,8,10,12,14,16,18,20,22,24,26,28,30,-1,-1,-1,-1,-1,-1,-1,-1,-1,-1,-1,-1,-1,-1,-1,-1],"split_conditions":[6E0,3E0,1.8E1,5E0,4E0,1.5E1,2.1E1,2E0,1E0,2E0,7E0,7E0,5E0,3E0,4E0,-2.603726E-1,-3.031593E-1,-1.5589555E-1,-2.4578016E-1,-1.7242654E-1,8.362416E-2,-1.5148354E-1,-3.1928846E-1,9.815895E-2,-1.1411177E-1,3.0635664E-1,1.0418943E-1,-1.3325398E-1,3.7119295E-2,-2.500147E-1,-9.8902196E-2],"split_indices":[1,1,1,0,0,1,1,0,1,0,0,0,0,0,0,0,0,0,0,0,0,0,0,0,0,0,0,0,0,0,0],"split_type":[0,0,0,0,0,0,0,0,0,0,0,0,0,0,0,0,0,0,0,0,0,0,0,0,0,0,0,0,0,0,0],"sum_hessian":[8.227E3,1.311E3,6.916E3,7.05E2,6.06E2,4.233E3,2.683E3,4.09E2,2.96E2,2.61E2,3.45E2,2.968E3,1.265E3,1.395E3,1.288E3,1.33E2,2.76E2,6.3E1,2.33E2,8.3E1,1.78E2,2.57E2,8.8E1,2.656E3,3.12E2,6.23E2,6.42E2,4.12E2,9.83E2,5.7E2,7.18E2],"tree_param":{"num_deleted":"0","num_feature":"2","num_nodes":"31","size_leaf_vector":"1"}},{"base_weights":[-2.921121E-3,-1.7392148E0,3.2641533E-1,-2.3769965E0,-9.9454737E-1,1.0273165E0,-7.793752E-1,-2.5628524E0,-1.9547745E0,1.6318012E-2,-1.757126E0,5.3863347E-1,1.6302141E0,-1.1939274E-1,-1.4935383E0,-2.6177016E-1,-2.2046135E-1,-1.8272571E-1,-2.1394782E-1,-1.5538919E-1,7.530851E-2,-1.3639389E-1,-2.877184E-1,7.6532E-2,-1.595621E-1,2.505074E-1,8.279379E-2,-1.1996084E-1,3.341118E-2,-2.25057E-1,-8.9025766E-2],"categories":[],"categories_nodes":[],"categories_segments":[],"categories_sizes":[],"default_left":[0,0,0,0,0,0,0,0,0,0,0,0,0,0,0,0,0,0,0,0,0,0,0,0,0,0,0,0,0,0,0],"id":15,"left_children":[1,3,5,7,9,11,13,15,17,19,21,23,25,27,29,-1,-1,-1,-1,-1,-1,-1,-1,-1,-1,-1,-1,-1,-1,-1,-1],"loss_changes":[4.705542E3,6.20751E2,5.3618203E3,5.03916E1,4.6794336E2,1.2465679E3,1.2648851E3,3.7983398E0,1.2722778E0,3.042725E2,1.4845142E2,1.1333286E3,1.3279873E3,6.84277E2,5.8668604E2,0E0,0E0,0E0,0E0,0E0,0E0,0E0,0E0,0E0,0E0,0E0,0E0,0E0,0E0,0E0,0E0],"parents":[2147483647,0,0,1,1,2,2,3,3,4,4,5,5,6,6,7,7,8,8,9,9,10,10,11,11,12,12,13,13,14,14],"right_children":[2,4,6,8,10,12,14,16,18,20,22,24,26,28,30,-1,-1,-1,-1,-1,-1,-1,-1,-1,-1,-1,-1,-1,-1,-1,-1],"split_conditions":[6E0,3E0,1.8E1,6E0,4E0,1.3E1,2.1E1,2E0,2E0,2E0,7E0,7E0,5E0,3E0,4E0,-2.6177016E-1,-2.2046135E-1,-1.8272571E-1,-2.1394782E-1,-1.5538919E-1,7.530851E-2,-1.3639389E-1,-2.877184E-1,7.6532E-2,-1.595621E-1,2.505074E-1,8.279379E-2,-1.1996084E-1,3.341118E-2,-2.25057E-1,-8.9025766E-2],"split_indices":[1,1,1,0,0,1,1,1,1,0,0,0,0,0,0,0,0,0,0,0,0,0,0,0,0,0,0,0,0,0,0],"split_type":[0,0,0,0,0,0,0,0,0,0,0,0,0,0,0,0,0,0,0,0,0,0,0,0,0,0,0,0,0,0,0],"sum_hessian":[8.227E3,1.311E3,6.916E3,7.05E2,6.06E2,4.233E3,2.683E3,4.86E2,2.19E2,2.61E2,3.45E2,2.339E3,1.894E3,1.395E3,1.288E3,4.16E2,7E1,1.36E2,8.3E1,8.3E1,1.78E2,2.57E2,8.8E1,2.115E3,2.24E2,9.05E2,9.89E2,4.12E2,9.83E2,5.7E2,7.18E2],"tree_param":{"num_deleted":"0","num_feature":"2","num_nodes":"31","size_leaf_vector":"1"}},{"base_weights":[-2.8155749E-3,-1.5663476E0,2.9375184E-1,-2.1405416E0,-8.959236E-1,9.2464364E-1,-7.01587E-1,-2.356528E0,-1.8351713E0,1.4380175E-2,-1.5826393E0,4.8473424E-1,1.4673684E0,-2.981469E-1,-1.691371E0,-2.1070588E-1,-2.4687028E-1,-1.2058637E-1,-1.999447E-1,-1.4003529E-1,6.781969E-2,-1.4182566E-1,-3.939085E-1,6.8882376E-2,-1.4367686E-1,2.2548433E-1,7.4522726E-2,-1.3078825E-1,1.2976359E-2,-1.4507824E-1,-4.34901E-1],"categories":[],"categories_nodes":[],"categories_segments":[],"categories_sizes":[],"default_left":[0,0,0,0,0,0,0,0,0,0,0,0,0,0,0,0,0,0,0,0,0,0,0,0,0,0,0,0,0,0,0],"id":16,"left_children":[1,3,5,7,9,11,13,15,17,19,21,23,25,27,29,-1,-1,-1,-1,-1,-1,-1,-1,-1,-1,-1,-1,-1,-1,-1,-1],"loss_changes":[3.8157234E3,5.0314136E2,4.3441865E3,4.223999E1,3.794706E2,1.0101548E3,1.0712668E3,6.2717285E0,2.8292786E1,2.4700006E2,1.284397E2,9.186407E2,1.0759453E3,8.2457166E2,4.905027E2,0E0,0E0,0E0,0E0,0E0,0E0,0E0,0E0,0E0,0E0,0E0,0E0,0E0,0E0,0E0,0E0],"parents":[2147483647,0,0,1,1,2,2,3,3,4,4,5,5,6,6,7,7,8,8,9,9,10,10,11,11,12,12,13,13,14,14],"right_children":[2,4,6,8,10,12,14,16,18,20,22,24,26,28,30,-1,-1,-1,-1,-1,-1,-1,-1,-1,-1,-1,-1,-1,-1,-1,-1],"split_conditions":[6E0,3E0,1.8E1,5E0,4E0,1.3E1,2.2E1,2E0,1E0,2E0,5E0,7E0,5E0,3E0,7E0,-2.1070588E-1,-2.4687028E-1,-1.2058637E-1,-1.999447E-1,-1.4003529E-1,6.781969E-2,-1.4182566E-1,-3.939085E-1,6.8882376E-2,-1.4367686E-1,2.2548433E-1,7.4522726E-2,-1.3078825E-1,1.2976359E-2,-1.4507824E-1,-4.34901E-1],"split_indices":[1,1,1,0,0,1,1,0,1,0,1,0,0,0,0,0,0,0,0,0,0,0,0,0,0,0,0,0,0,0,0],"split_type":[0,0,0,0,0,0,0,0,0,0,0,0,0,0,0,0,0,0,0,0,0,0,0,0,0,0,0,0,0,0,0],"sum_hessian":[8.227E3,1.311E3,6.916E3,7.05E2,6.06E2,4.233E3,2.683E3,4.09E2,2.96E2,2.61E2,3.45E2,2.339E3,1.894E3,1.907E3,7.76E2,1.33E2,2.76E2,6.3E1,2.33E2,8.3E1,1.78E2,3.24E2,2.1E1,2.115E3,2.24E2,9.05E2,9.89E2,5.67E2,1.34E3,7.13E2,6.3E1],"tree_param":{"num_deleted":"0","num_feature":"2","num_nodes":"31","size_leaf_vector":"1"}},{"base_weights":[-2.7598348E-3,-1.4107693E0,2.6430842E-1,-1.9275898E0,-8.073327E-1,6.0662824E-1,-1.2307905E0,-2.0810971E0,-1.5790181E0,-2.0954952E-1,-1.6659545E0,8.839082E-1,2.0140002E-2,-1.7123463E0,-4.289694E-1,-2.1274546E-1,-1.779519E-1,-1.474605E-1,-1.7305133E-1,-1.2619843E-1,1.1151595E-2,-1.4755915E-1,-3.5630816E-1,5.3801257E-2,2.0854072E-1,1.7713279E-2,-1.2868884E-1,-1.497403E-1,-2.6969275E-1,3.6749974E-2,-3.1797943E-1],"categories":[],"categories_nodes":[],"categories_segments":[],"categories_sizes":[],"default_left":[0,0,0,0,0,0,0,0,0,0,0,0,0,0,0,0,0,0,0,0,0,0,0,0,0,0,0,0,0,0,0],"id":17,"left_children":[1,3,5,7,9,11,13,15,17,19,21,23,25,27,29,-1,-1,-1,-1,-1,-1,-1,-1,-1,-1,-1,-1,-1,-1,-1,-1],"loss_changes":[3.0943857E3,4.07615E2,3.5408809E3,3.4490967E1,3.1120563E2,9.153784E2,4.9697595E2,3.022705E0,9.281616E-1,1.2144699E2,8.466681E1,1.5872756E3,3.7121872E2,1.66323E2,1.0637778E3,0E0,0E0,0E0,0E0,0E0,0E0,0E0,0E0,0E0,0E0,0E0,0E0,0E0,0E0,0E0,0E0],"parents":[2147483647,0,0,1,1,2,2,3,3,4,4,5,5,6,6,7,7,8,8,9,9,10,10,11,11,12,12,13,13,14,14],"right_children":[2,4,6,8,10,12,14,16,18,20,22,24,26,28,30,-1,-1,-1,-1,-1,-1,-1,-1,-1,-1,-1,-1,-1,-1,-1,-1],"split_conditions":[6E0,3E0,2.1E1,6E0,5E0,1.7E1,5E0,2E0,2E0,2E0,5E0,1.5E1,7E0,2.3E1,7E0,-2.1274546E-1,-1.779519E-1,-1.474605E-1,-1.7305133E-1,-1.2619843E-1,1.1151595E-2,-1.4755915E-1,-3.5630816E-1,5.3801257E-2,2.0854072E-1,1.7713279E-2,-1.2868884E-1,-1.497403E-1,-2.6969275E-1,3.6749974E-2,-3.1797943E-1],"split_indices":[1,1,1,0,0,1,0,1,1,0,1,1,0,1,0,0,0,0,0,0,0,0,0,0,0,0,0,0,0,0,0],"split_type":[0,0,0,0,0,0,0,0,0,0,0,0,0,0,0,0,0,0,0,0,0,0,0,0,0,0,0,0,0,0,0],"sum_hessian":[8.227E3,1.311E3,6.916E3,7.05E2,6.06E2,5.628E3,1.288E3,4.86E2,2.19E2,3.58E2,2.48E2,3.821E3,1.807E3,8.04E2,4.84E2,4.16E2,7E1,1.36E2,8.3E1,8.3E1,2.75E2,2.27E2,2.1E1,2.968E3,8.53E2,1.614E3,1.93E2,6.62E2,1.42E2,3.76E2,1.08E2],"tree_param":{"num_deleted":"0","num_feature":"2","num_nodes":"31","size_leaf_vector":"1"}},{"base_weights":[-2.7120064E-3,-1.270706E0,2.3779847E-1,-1.7358382E0,-7.2761893E-1,7.52407E-1,-5.740832E-1,-1.9157053E0,-1.4816921E0,4.5069538E-2,-1.3106154E0,1.8906242E-1,1.0623733E0,-1.2048831E0,-6.702423E-2,-2.1634929E-1,-1.8093754E-1,-9.2568375E-2,-1.6274308E-1,-1.137288E-1,5.996671E-2,-9.619715E-2,-2.3065649E-1,4.2218834E-2,-2.1401738E-1,1.3935302E-1,7.381156E-2,-7.251816E-2,-1.7286806E-1,3.174347E-2,-1.9287488E-1],"categories":[],"categories_nodes":[],"categories_segments":[],"categories_sizes":[],"default_left":[0,0,0,0,0,0,0,0,0,0,0,0,0,0,0,0,0,0,0,0,0,0,0,0,0,0,0,0,0,0,0],"id":18,"left_children":[1,3,5,7,9,11,13,15,17,19,21,23,25,27,29,-1,-1,-1,-1,-1,-1,-1,-1,-1,-1,-1,-1,-1,-1,-1,-1],"loss_changes":[2.5095615E3,3.3015747E2,2.890363E3,2.9434326E1,2.7349713E2,7.3913086E2,8.5840405E2,6.8879395E0,2.2559998E1,1.7248392E2,1.1792328E2,8.175835E2,2.9222656E2,2.9926086E2,1.0663739E3,0E0,0E0,0E0,0E0,0E0,0E0,0E0,0E0,0E0,0E0,0E0,0E0,0E0,0E0,0E0,0E0],"parents":[2147483647,0,0,1,1,2,2,3,3,4,4,5,5,6,6,7,7,8,8,9,9,10,10,11,11,12,12,13,13,14,14],"right_children":[2,4,6,8,10,12,14,16,18,20,22,24,26,28,30,-1,-1,-1,-1,-1,-1,-1,-1,-1,-1,-1,-1,-1,-1,-1,-1],"split_conditions":[6E0,3E0,1.8E1,5E0,4E0,1.1E1,4E0,1E0,1E0,2E0,7E0,7E0,5E0,2.1E1,7E0,-2.1634929E-1,-1.8093754E-1,-9.2568375E-2,-1.6274308E-1,-1.137288E-1,5.996671E-2,-9.619715E-2,-2.3065649E-1,4.2218834E-2,-2.1401738E-1,1.3935302E-1,7.381156E-2,-7.251816E-2,-1.7286806E-1,3.174347E-2,-1.9287488E-1],"split_indices":[1,1,1,0,0,1,0,1,1,0,0,0,0,1,0,0,0,0,0,0,0,0,0,0,0,0,0,0,0,0,0],"split_type":[0,0,0,0,0,0,0,0,0,0,0,0,0,0,0,0,0,0,0,0,0,0,0,0,0,0,0,0,0,0,0],"sum_hessian":[8.227E3,1.311E3,6.916E3,7.05E2,6.06E2,4.233E3,2.683E3,4.09E2,2.96E2,2.61E2,3.45E2,1.503E3,2.73E3,1.195E3,1.488E3,1.17E2,2.92E2,6.3E1,2.33E2,8.3E1,1.78E2,2.57E2,8.8E1,1.367E3,1.36E2,1.349E3,1.381E3,6.25E2,5.7E2,1.234E3,2.54E2],"tree_param":{"num_deleted":"0","num_feature":"2","num_nodes":"31","size_leaf_vector":"1"}},{"base_weights":[-2.6108653E-3,-1.144423E0,2.1396571E-1,-1.5631787E0,-6.554842E-1,4.989411E-1,-1.0306739E0,-1.7251037E0,-1.3343825E0,4.0357087E-2,-1.1804985E0,7.237693E-1,2.3392303E-2,-7.6856595E-1,-2.1908805E0,-1.9489771E-1,-1.6290554E-1,-8.345618E-2,-1.4653832E-1,-1.02491334E-1,5.4003507E-2,-8.661472E-2,-2.0784998E-1,4.221469E-2,1.7715363E-1,-9.5359646E-2,1.9927328E-2,-1.6493876E-1,-3.516857E-2,-1.8149452E-1,-5.3062147E-1],"categories":[],"categories_nodes":[],"categories_segments":[],"categories_sizes":[],"default_left":[0,0,0,0,0,0,0,0,0,0,0,0,0,0,0,0,0,0,0,0,0,0,0,0,0,0,0,0,0,0,0],"id":19,"left_children":[1,3,5,7,9,11,13,15,17,19,21,23,25,27,29,-1,-1,-1,-1,-1,-1,-1,-1,-1,-1,-1,-1,-1,-1,-1,-1],"loss_changes":[2.0349452E3,2.6760205E2,2.4539165E3,2.385376E1,2.2180084E2,6.018176E2,3.903003E2,5.6411133E0,1.8223694E1,1.4001402E2,9.587131E1,1.2071187E3,3.108654E2,3.8607855E2,2.6793542E2,0E0,0E0,0E0,0E0,0E0,0E0,0E0,0E0,0E0,0E0,0E0,0E0,0E0,0E0,0E0,0E0],"parents":[2147483647,0,0,1,1,2,2,3,3,4,4,5,5,6,6,7,7,8,8,9,9,10,10,11,11,12,12,13,13,14,14],"right_children":[2,4,6,8,10,12,14,16,18,20,22,24,26,28,30,-1,-1,-1,-1,-1,-1,-1,-1,-1,-1,-1,-1,-1,-1,-1,-1],"split_conditions":[6E0,3E0,2.1E1,5E0,4E0,1.7E1,2.3E1,1E0,1E0,2E0,7E0,1.5E1,2E0,3E0,7E0,-1.9489771E-1,-1.6290554E-1,-8.345618E-2,-1.4653832E-1,-1.02491334E-1,5.4003507E-2,-8.661472E-2,-2.0784998E-1,4.221469E-2,1.7715363E-1,-9.5359646E-2,1.9927328E-2,-1.6493876E-1,-3.516857E-2,-1.8149452E-1,-5.3062147E-1],"split_indices":[1,1,1,0,0,1,1,1,1,0,0,1,0,0,0,0,0,0,0,0,0,0,0,0,0,0,0,0,0,0,0],"split_type":[0,0,0,0,0,0,0,0,0,0,0,0,0,0,0,0,0,0,0,0,0,0,0,0,0,0,0,0,0,0,0],"sum_hessian":[8.227E3,1.311E3,6.916E3,7.05E2,6.06E2,5.628E3,1.288E3,4.09E2,2.96E2,2.61E2,3.45E2,3.821E3,1.807E3,1.052E3,2.36E2,1.17E2,2.92E2,6.3E1,2.33E2,8.3E1,1.78E2,2.57E2,8.8E1,2.968E3,8.53E2,2.75E2,1.532E3,3.37E2,7.15E2,2.12E2,2.4E1],"tree_param":{"num_deleted":"0","num_feature":"2","num_nodes":"31","size_leaf_vector":"1"}},{"base_weights":[-2.5565485E-3,-1.0306902E0,1.9245777E-1,-1.4076935E0,-5.9050083E-1,4.4907215E-1,-9.283141E-1,-1.5243019E0,-1.1431662E0,3.613629E-2,-1.0632998E0,5.6198287E-1,-5.0001454E-1,-6.918993E-1,-1.974797E0,-1.3420369E-1,-1.5889889E-1,-1.066913E-1,-1.2539226E-1,-9.236421E-2,4.863332E-2,-9.2564754E-2,-3.0484673E-1,7.5662054E-2,1.4982258E-2,-4.3787652E-1,-1.9968009E-2,-1.1312976E-1,5.4936945E-3,-1.6343026E-1,-4.796818E-1],"categories":[],"categories_nodes":[],"categories_segments":[],"categories_sizes":[],"default_left":[0,0,0,0,0,0,0,0,0,0,0,0,0,0,0,0,0,0,0,0,0,0,0,0,0,0,0,0,0,0,0],"id":20,"left_children":[1,3,5,7,9,11,13,15,17,19,21,23,25,27,29,-1,-1,-1,-1,-1,-1,-1,-1,-1,-1,-1,-1,-1,-1,-1,-1],"loss_changes":[1.6499187E3,2.168988E2,1.9897891E3,2.003479E1,1.7987633E2,6.034962E2,3.1753748E2,3.609375E0,5.2020264E-1,1.1365656E2,9.172714E1,4.0348315E2,6.969142E2,3.456131E2,2.1988971E2,0E0,0E0,0E0,0E0,0E0,0E0,0E0,0E0,0E0,0E0,0E0,0E0,0E0,0E0,0E0,0E0],"parents":[2147483647,0,0,1,1,2,2,3,3,4,4,5,5,6,6,7,7,8,8,9,9,10,10,11,11,12,12,13,13,14,14],"right_children":[2,4,6,8,10,12,14,16,18,20,22,24,26,28,30,-1,-1,-1,-1,-1,-1,-1,-1,-1,-1,-1,-1,-1,-1,-1,-1],"split_conditions":[6E0,3E0,2.1E1,6E0,4E0,7E0,2.3E1,2E0,2E0,2E0,5E0,1.7E1,8E0,5E0,7E0,-1.3420369E-1,-1.5889889E-1,-1.066913E-1,-1.2539226E-1,-9.236421E-2,4.863332E-2,-9.2564754E-2,-3.0484673E-1,7.5662054E-2,1.4982258E-2,-4.3787652E-1,-1.9968009E-2,-1.1312976E-1,5.4936945E-3,-1.6343026E-1,-4.796818E-1],"split_indices":[1,1,1,0,0,0,1,0,1,0,1,1,1,0,0,0,0,0,0,0,0,0,0,0,0,0,0,0,0,0,0],"split_type":[0,0,0,0,0,0,0,0,0,0,0,0,0,0,0,0,0,0,0,0,0,0,0,0,0,0,0,0,0,0,0],"sum_hessian":[8.227E3,1.311E3,6.916E3,7.05E2,6.06E2,5.628E3,1.288E3,4.86E2,2.19E2,2.61E2,3.45E2,5.03E3,5.98E2,1.052E3,2.36E2,1.33E2,3.53E2,1.36E2,8.3E1,8.3E1,1.78E2,3.24E2,2.1E1,3.416E3,1.614E3,4.2E1,5.56E2,6.62E2,3.9E2,2.12E2,2.4E1],"tree_param":{"num_deleted":"0","num_feature":"2","num_nodes":"31","size_leaf_vector":"1"}},{"base_weights":[-2.5544597E-3,-9.2835784E-1,1.7305008E-1,-1.267668E0,-5.321777E-1,4.040994E-1,-8.360653E-1,-1.4029657E0,-1.0766251E0,-1.888167E-1,-1.3266927E0,5.058023E-1,-4.5077738E-1,-6.884021E-1,-2.4283056E0,-1.20883465E-1,-1.4918126E-1,-6.343336E-2,-1.19299285E-1,-4.847178E-3,-2.7574772E-1,-8.8668175E-2,-1.7814606E-1,6.541967E-2,5.641551E-3,-3.9510715E-1,-1.7974792E-2,-1.1913319E-1,3.873189E-2,-1.8385556E-1,-4.3363234E-1],"categories":[],"categories_nodes":[],"categories_segments":[],"categories_sizes":[],"default_left":[0,0,0,0,0,0,0,0,0,0,0,0,0,0,0,0,0,0,0,0,0,0,0,0,0,0,0,0,0,0,0],"id":21,"left_children":[1,3,5,7,9,11,13,15,17,19,21,23,25,27,29,-1,-1,-1,-1,-1,-1,-1,-1,-1,-1,-1,-1,-1,-1,-1,-1],"loss_changes":[1.3378301E3,1.7569482E2,1.6130741E3,1.6737915E1,1.6534239E2,4.8963245E2,3.013919E2,5.2683105E0,1.4529388E1,1.5307817E2,3.5039246E1,3.354629E2,5.675509E2,6.3939667E2,1.1468005E2,0E0,0E0,0E0,0E0,0E0,0E0,0E0,0E0,0E0,0E0,0E0,0E0,0E0,0E0,0E0,0E0],"parents":[2147483647,0,0,1,1,2,2,3,3,4,4,5,5,6,6,7,7,8,8,9,9,10,10,11,11,12,12,13,13,14,14],"right_children":[2,4,6,8,10,12,14,16,18,20,22,24,26,28,30,-1,-1,-1,-1,-1,-1,-1,-1,-1,-1,-1,-1,-1,-1,-1,-1],"split_conditions":[6E0,3E0,2.1E1,5E0,6E0,7E0,7E0,2E0,1E0,5E0,7E0,1.8E1,8E0,5E0,2.3E1,-1.20883465E-1,-1.4918126E-1,-6.343336E-2,-1.19299285E-1,-4.847178E-3,-2.7574772E-1,-8.8668175E-2,-1.7814606E-1,6.541967E-2,5.641551E-3,-3.9510715E-1,-1.7974792E-2,-1.1913319E-1,3.873189E-2,-1.8385556E-1,-4.3363234E-1],"split_indices":[1,1,1,0,0,0,0,0,1,1,0,1,1,0,1,0,0,0,0,0,0,0,0,0,0,0,0,0,0,0,0],"split_type":[0,0,0,0,0,0,0,0,0,0,0,0,0,0,0,0,0,0,0,0,0,0,0,0,0,0,0,0,0,0,0],"sum_hessian":[8.227E3,1.311E3,6.916E3,7.05E2,6.06E2,5.628E3,1.288E3,4.09E2,2.96E2,4.24E2,1.82E2,5.03E3,5.98E2,1.18E3,1.08E2,1.33E2,2.76E2,6.3E1,2.33E2,4.03E2,2.1E1,9.4E1,8.8E1,3.781E3,1.249E3,4.2E1,5.56E2,8.04E2,3.76E2,8.4E1,2.4E1],"tree_param":{"num_deleted":"0","num_feature":"2","num_nodes":"31","size_leaf_vector":"1"}},{"base_weights":[-2.5472029E-3,-8.362843E-1,1.5559442E-1,-1.1415424E0,-4.7986162E-1,4.5285818E-1,-4.9011585E-1,-1.2378868E0,-9.230823E-1,-1.7059496E-1,-1.1954817E0,7.470642E-1,1.5142094E-1,-3.4534097E-1,-1.676179E0,-1.2731098E-1,-1.01357915E-1,-8.229493E-2,-9.848296E-2,-4.3636286E-3,-2.4942636E-1,-7.9894714E-2,-1.6053165E-1,5.0451E-2,1.5009044E-1,-2.410214E-1,4.411157E-2,-1.0086759E-1,-4.437785E-3,-1.4049463E-1,-3.9200363E-1],"categories":[],"categories_nodes":[],"categories_segments":[],"categories_sizes":[],"default_left":[0,0,0,0,0,0,0,0,0,0,0,0,0,0,0,0,0,0,0,0,0,0,0,0,0,0,0,0,0,0,0],"id":22,"left_children":[1,3,5,7,9,11,13,15,17,19,21,23,25,27,29,-1,-1,-1,-1,-1,-1,-1,-1,-1,-1,-1,-1,-1,-1,-1,-1],"loss_changes":[1.0849799E3,1.4219916E2,1.3279143E3,1.3716797E1,1.3413573E2,4.1998608E2,3.7392535E2,2.55719E0,5.4977417E-1,1.25270386E2,2.8457458E1,4.3752722E2,1.7383009E3,3.8825375E2,1.387326E2,0E0,0E0,0E0,0E0,0E0,0E0,0E0,0E0,0E0,0E0,0E0,0E0,0E0,0E0,0E0,0E0],"parents":[2147483647,0,0,1,1,2,2,3,3,4,4,5,5,6,6,7,7,8,8,9,9,10,10,11,11,12,12,13,13,14,14],"right_children":[2,4,6,8,10,12,14,16,18,20,22,24,26,28,30,-1,-1,-1,-1,-1,-1,-1,-1,-1,-1,-1,-1,-1,-1,-1,-1],"split_conditions":[6E0,3E0,1.9E1,6E0,6E0,5E0,2.3E1,2E0,7E0,5E0,7E0,4E0,8E0,3E0,7E0,-1.2731098E-1,-1.01357915E-1,-8.229493E-2,-9.848296E-2,-4.3636286E-3,-2.4942636E-1,-7.9894714E-2,-1.6053165E-1,5.0451E-2,1.5009044E-1,-2.410214E-1,4.411157E-2,-1.0086759E-1,-4.437785E-3,-1.4049463E-1,-3.9200363E-1],"split_indices":[1,1,1,0,0,0,1,1,0,1,0,0,1,0,0,0,0,0,0,0,0,0,0,0,0,0,0,0,0,0,0],"split_type":[0,0,0,0,0,0,0,0,0,0,0,0,0,0,0,0,0,0,0,0,0,0,0,0,0,0,0,0,0,0,0],"sum_hessian":[8.227E3,1.311E3,6.916E3,7.05E2,6.06E2,4.736E3,2.18E3,4.86E2,2.19E2,4.24E2,1.82E2,2.396E3,2.34E3,1.944E3,2.36E2,4.16E2,7E1,8.9E1,1.3E2,4.03E2,2.1E1,9.4E1,8.8E1,1.814E3,5.82E2,2.37E2,2.103E3,6.06E2,1.338E3,2.12E2,2.4E1],"tree_param":{"num_deleted":"0","num_feature":"2","num_nodes":"31","size_leaf_vector":"1"}},{"base_weights":[-2.4794464E-3,-7.533445E-1,1.399432E-1,-1.0279682E0,-4.3268937E-1,4.6015778E-1,-3.6524624E-1,-1.1407583E0,-8.6880344E-1,-1.5413223E-1,-1.0772473E0,2.3199862E-1,9.9486893E-1,-8.55376E-1,2.8682865E-2,-1.3433407E-1,-1.0552788E-1,-4.7330495E-2,-9.7326115E-2,-3.9283074E-3,-2.2561745E-1,-7.198932E-2,-1.4465886E-1,3.4877244E-2,-7.600143E-2,1.6969171E-1,3.1201843E-2,-1.3522334E-1,-5.8668878E-2,3.4165062E-2,-1.4871754E-1],"categories":[],"categories_nodes":[],"categories_segments":[],"categories_sizes":[],"default_left":[0,0,0,0,0,0,0,0,0,0,0,0,0,0,0,0,0,0,0,0,0,0,0,0,0,0,0,0,0,0,0],"id":23,"left_children":[1,3,5,7,9,11,13,15,17,19,21,23,25,27,29,-1,-1,-1,-1,-1,-1,-1,-1,-1,-1,-1,-1,-1,-1,-1,-1],"loss_changes":[8.800093E2,1.1508917E2,1.1191244E3,1.16831665E1,1.088185E2,5.163141E2,5.182415E2,5.682251E0,1.180928E1,1.0251393E2,2.3112E1,3.441974E2,6.0638306E2,1.5887177E2,7.0691156E2,0E0,0E0,0E0,0E0,0E0,0E0,0E0,0E0,0E0,0E0,0E0,0E0,0E0,0E0,0E0,0E0],"parents":[2147483647,0,0,1,1,2,2,3,3,4,4,5,5,6,6,7,7,8,8,9,9,10,10,11,11,12,12,13,13,14,14],"right_children":[2,4,6,8,10,12,14,16,18,20,22,24,26,28,30,-1,-1,-1,-1,-1,-1,-1,-1,-1,-1,-1,-1,-1,-1,-1,-1],"split_conditions":[6E0,3E0,1.8E1,5E0,6E0,1.5E1,4E0,1E0,1E0,5E0,7E0,7E0,5E0,2E0,7E0,-1.3433407E-1,-1.0552788E-1,-4.7330495E-2,-9.7326115E-2,-3.9283074E-3,-2.2561745E-1,-7.198932E-2,-1.4465886E-1,3.4877244E-2,-7.600143E-2,1.6969171E-1,3.1201843E-2,-1.3522334E-1,-5.8668878E-2,3.4165062E-2,-1.4871754E-1],"split_indices":[1,1,1,0,0,1,0,1,1,1,0,0,0,0,0,0,0,0,0,0,0,0,0,0,0,0,0,0,0,0,0],"split_type":[0,0,0,0,0,0,0,0,0,0,0,0,0,0,0,0,0,0,0,0,0,0,0,0,0,0,0,0,0,0,0],"sum_hessian":[8.227E3,1.311E3,6.916E3,7.05E2,6.06E2,4.233E3,2.683E3,4.09E2,2.96E2,4.24E2,1.82E2,2.968E3,1.265E3,1.195E3,1.488E3,1.17E2,2.92E2,6.3E1,2.33E2,4.03E2,2.1E1,9.4E1,8.8E1,2.656E3,3.12E2,6.23E2,6.42E2,4.18E2,7.77E2,1.234E3,2.54E2],"tree_param":{"num_deleted":"0","num_feature":"2","num_nodes":"31","size_leaf_vector":"1"}},{"base_weights":[-2.3506929E-3,-6.786432E-1,1.259272E-1,-9.25716E-1,-3.9015552E-1,3.05347E-1,-6.57688E-1,-1.0272675E0,-7.824101E-1,-1.3925917E-1,-9.7070634E-1,3.8372535E-1,-3.5346246E-1,-5.374835E-1,-1.9540539E0,-1.210145E-1,-9.5011115E-2,-4.2671412E-2,-8.7635085E-2,-3.5364542E-3,-2.0408125E-1,-3.7340492E-2,-1.1803142E-1,5.190567E-2,9.715519E-3,-3.255503E-1,-1.2879245E-2,-9.49777E-2,3.443035E-2,-1.5055092E-1,-3.4009442E-1],"categories":[],"categories_nodes":[],"categories_segments":[],"categories_sizes":[],"default_left":[0,0,0,0,0,0,0,0,0,0,0,0,0,0,0,0,0,0,0,0,0,0,0,0,0,0,0,0,0,0,0],"id":24,"left_children":[1,3,5,7,9,11,13,15,17,19,21,23,25,27,29,-1,-1,-1,-1,-1,-1,-1,-1,-1,-1,-1,-1,-1,-1,-1,-1],"loss_changes":[7.138922E2,9.315485E1,9.727039E2,9.470642E0,8.827929E1,2.9079694E2,1.9981335E2,4.635437E0,9.550125E0,8.389133E1,2.2470688E1,1.950614E2,3.9012958E2,4.2968542E2,6.562033E1,0E0,0E0,0E0,0E0,0E0,0E0,0E0,0E0,0E0,0E0,0E0,0E0,0E0,0E0,0E0,0E0],"parents":[2147483647,0,0,1,1,2,2,3,3,4,4,5,5,6,6,7,7,8,8,9,9,10,10,11,11,12,12,13,13,14,14],"right_children":[2,4,6,8,10,12,14,16,18,20,22,24,26,28,30,-1,-1,-1,-1,-1,-1,-1,-1,-1,-1,-1,-1,-1,-1,-1,-1],"split_conditions":[6E0,3E0,2.1E1,5E0,6E0,7E0,7E0,1E0,1E0,5E0,4E0,1.7E1,8E0,5E0,2.3E1,-1.210145E-1,-9.5011115E-2,-4.2671412E-2,-8.7635085E-2,-3.5364542E-3,-2.0408125E-1,-3.7340492E-2,-1.1803142E-1,5.190567E-2,9.715519E-3,-3.255503E-1,-1.2879245E-2,-9.49777E-2,3.443035E-2,-1.5055092E-1,-3.4009442E-1],"split_indices":[1,1,1,0,0,0,0,1,1,1,1,1,1,0,1,0,0,0,0,0,0,0,0,0,0,0,0,0,0,0,0],"split_type":[0,0,0,0,0,0,0,0,0,0,0,0,0,0,0,0,0,0,0,0,0,0,0,0,0,0,0,0,0,0,0],"sum_hessian":[8.227E3,1.311E3,6.916E3,7.05E2,6.06E2,5.628E3,1.288E3,4.09E2,2.96E2,4.24E2,1.82E2,5.03E3,5.98E2,1.18E3,1.08E2,1.17E2,2.92E2,6.3E1,2.33E2,4.03E2,2.1E1,4.8E1,1.34E2,3.416E3,1.614E3,4.2E1,5.56E2,8.04E2,3.76E2,8.4E1,2.4E1],"tree_param":{"num_deleted":"0","num_feature":"2","num_nodes":"31","size_leaf_vector":"1"}},{"base_weights":[-2.3028338E-3,-6.113196E-1,1.13214344E-1,-8.33635E-1,-3.517381E-1,2.747626E-1,-5.9234685E-1,-9.068556E-1,-6.67762E-1,-2.0396557E-1,-1.2095157E0,3.4536454E-1,-3.186816E-1,-4.115356E-1,-1.393199E0,-7.594194E-2,-9.6010305E-2,-8.564696E-2,-6.115439E-2,-1.3101602E-2,-1.8460074E-1,-2.0797648E-2,-1.5974924E-1,4.6716534E-2,8.744593E-3,-1.8648297E-1,4.8587895E-3,-1.2539275E-1,-2.3054892E-2,-1.1893278E-1,-3.0744535E-1],"categories":[],"categories_nodes":[],"categories_segments":[],"categories_sizes":[],"default_left":[0,0,0,0,0,0,0,0,0,0,0,0,0,0,0,0,0,0,0,0,0,0,0,0,0,0,0,0,0,0,0],"id":25,"left_children":[1,3,5,7,9,11,13,15,17,19,21,23,25,27,29,-1,-1,-1,-1,-1,-1,-1,-1,-1,-1,-1,-1,-1,-1,-1,-1],"loss_changes":[5.789246E2,7.542093E1,7.8857764E2,7.969055E0,7.669417E1,2.3595554E2,1.8607782E2,3.0941162E0,1.8101654E0,6.19272E1,3.4250824E1,1.5800647E2,3.4023456E2,1.6025307E2,7.757742E1,0E0,0E0,0E0,0E0,0E0,0E0,0E0,0E0,0E0,0E0,0E0,0E0,0E0,0E0,0E0,0E0],"parents":[2147483647,0,0,1,1,2,2,3,3,4,4,5,5,6,6,7,7,8,8,9,9,10,10,11,11,12,12,13,13,14,14],"right_children":[2,4,6,8,10,12,14,16,18,20,22,24,26,28,30,-1,-1,-1,-1,-1,-1,-1,-1,-1,-1,-1,-1,-1,-1,-1,-1],"split_conditions":[6E0,3E0,2.1E1,6E0,7E0,7E0,2.3E1,2E0,1E0,5E0,4E0,1.7E1,1E1,2E0,7E0,-7.594194E-2,-9.6010305E-2,-8.564696E-2,-6.115439E-2,-1.3101602E-2,-1.8460074E-1,-2.0797648E-2,-1.5974924E-1,4.6716534E-2,8.744593E-3,-1.8648297E-1,4.8587895E-3,-1.2539275E-1,-2.3054892E-2,-1.1893278E-1,-3.0744535E-1],"split_indices":[1,1,1,0,0,0,1,0,1,1,1,1,1,0,0,0,0,0,0,0,0,0,0,0,0,0,0,0,0,0,0],"split_type":[0,0,0,0,0,0,0,0,0,0,0,0,0,0,0,0,0,0,0,0,0,0,0,0,0,0,0,0,0,0,0],"sum_hessian":[8.227E3,1.311E3,6.916E3,7.05E2,6.06E2,5.628E3,1.288E3,4.86E2,2.19E2,5.18E2,8.8E1,5.03E3,5.98E2,1.052E3,2.36E2,1.33E2,3.53E2,4.7E1,1.72E2,4.97E2,2.1E1,2.5E1,6.3E1,3.416E3,1.614E3,1.14E2,4.84E2,1.85E2,8.67E2,2.12E2,2.4E1],"tree_param":{"num_deleted":"0","num_feature":"2","num_nodes":"31","size_leaf_vector":"1"}},{"base_weights":[-2.2424513E-3,-5.5071896E-1,1.0179158E-1,-7.50723E-1,-3.171875E-1,3.7756646E-1,-2.3868433E-1,-8.358016E-1,-6.3074684E-1,6.2019445E-2,-6.034159E-1,1.3317125E-1,1.2267841E0,-9.7949207E-1,-9.289227E-2,-1.0022724E-1,-7.659062E-2,-2.9781004E-2,-7.19111E-2,-8.029542E-2,4.6758242E-2,-4.3301996E-2,-1.0905929E-1,2.153217E-2,-5.6461453E-2,1.919249E-1,5.6780424E-2,-1.3280801E-1,-7.400558E-2,5.2813655E-3,-1.1959934E-1],"categories":[],"categories_nodes":[],"categories_segments":[],"categories_sizes":[],"default_left":[0,0,0,0,0,0,0,0,0,0,0,0,0,0,0,0,0,0,0,0,0,0,0,0,0,0,0,0,0,0,0],"id":26,"left_children":[1,3,5,7,9,11,13,15,17,19,21,23,25,27,29,-1,-1,-1,-1,-1,-1,-1,-1,-1,-1,-1,-1,-1,-1,-1,-1],"loss_changes":[4.6954758E2,6.104181E1,6.495598E2,6.679199E0,6.592108E1,7.930725E2,3.3428903E2,4.0029297E0,8.523491E0,9.228538E1,2.8250252E1,1.7031483E2,3.886079E2,4.150064E1,4.160282E2,0E0,0E0,0E0,0E0,0E0,0E0,0E0,0E0,0E0,0E0,0E0,0E0,0E0,0E0,0E0,0E0],"parents":[2147483647,0,0,1,1,2,2,3,3,4,4,5,5,6,6,7,7,8,8,9,9,10,10,11,11,12,12,13,13,14,14],"right_children":[2,4,6,8,10,12,14,16,18,20,22,24,26,28,30,-1,-1,-1,-1,-1,-1,-1,-1,-1,-1,-1,-1,-1,-1,-1,-1],"split_conditions":[6E0,3E0,1.7E1,5E0,4E0,1.5E1,2E0,1E0,1E0,2E0,7E0,7E0,5E0,2E1,7E0,-1.0022724E-1,-7.659062E-2,-2.9781004E-2,-7.19111E-2,-8.029542E-2,4.6758242E-2,-4.3301996E-2,-1.0905929E-1,2.153217E-2,-5.6461453E-2,1.919249E-1,5.6780424E-2,-1.3280801E-1,-7.400558E-2,5.2813655E-3,-1.1959934E-1],"split_indices":[1,1,1,0,0,1,0,1,1,0,0,0,0,1,0,0,0,0,0,0,0,0,0,0,0,0,0,0,0,0,0],"split_type":[0,0,0,0,0,0,0,0,0,0,0,0,0,0,0,0,0,0,0,0,0,0,0,0,0,0,0,0,0,0,0],"sum_hessian":[8.227E3,1.311E3,6.916E3,7.05E2,6.06E2,3.821E3,3.095E3,4.09E2,2.96E2,2.61E2,3.45E2,2.968E3,8.53E2,5.08E2,2.587E3,1.17E2,2.92E2,6.3E1,2.33E2,8.3E1,1.78E2,2.57E2,8.8E1,2.656E3,3.12E2,4.15E2,4.38E2,2.05E2,3.03E2,2.286E3,3.01E2],"tree_param":{"num_deleted":"0","num_feature":"2","num_nodes":"31","size_leaf_vector":"1"}},{"base_weights":[-2.0876906E-3,7.069467E-2,-7.001213E-1,-2.813006E-1,2.8432038E-1,-5.840603E-1,-1.9839865E0,-8.155522E-2,-7.3910105E-1,6.209897E-1,-5.2326348E-2,-9.701063E-1,4.268984E-1,-1.509072E-1,-2.6644903E-1,-7.365353E-2,1.3475451E-2,-1.3394567E-1,2.4894921E-2,3.389631E-2,1.1043971E-1,-7.6170504E-2,8.223154E-3,-7.878303E-2,-1.441319E-1,8.1128314E-2,-2.7208958E-2],"categories":[],"categories_nodes":[],"categories_segments":[],"categories_sizes":[],"default_left":[0,0,0,0,0,0,0,0,0,0,0,0,0,0,0,0,0,0,0,0,0,0,0,0,0,0,0],"id":27,"left_children":[1,3,5,7,9,11,13,15,17,19,21,23,25,-1,-1,-1,-1,-1,-1,-1,-1,-1,-1,-1,-1,-1,-1],"loss_changes":[4.180692E2,5.6043494E2,1.1461932E2,2.5735327E2,5.25697E2,2.7907156E2,1.666269E1,2.779309E2,5.075037E2,3.1578357E2,2.2151244E2,4.327005E1,5.341944E1,0E0,0E0,0E0,0E0,0E0,0E0,0E0,0E0,0E0,0E0,0E0,0E0,0E0,0E0],"parents":[2147483647,0,0,1,1,2,2,3,3,4,4,5,5,6,6,7,7,8,8,9,9,10,10,11,11,12,12],"right_children":[2,4,6,8,10,12,14,16,18,20,22,24,26,-1,-1,-1,-1,-1,-1,-1,-1,-1,-1,-1,-1,-1,-1],"split_conditions":[2.2E1,1.1E1,7E0,6E0,1.7E1,5E0,2.3E1,3E0,8E0,1.5E1,2E0,2.3E1,2.3E1,-1.509072E-1,-2.6644903E-1,-7.365353E-2,1.3475451E-2,-1.3394567E-1,2.4894921E-2,3.389631E-2,1.1043971E-1,-7.6170504E-2,8.223154E-3,-7.878303E-2,-1.441319E-1,8.1128314E-2,-2.7208958E-2],"split_indices":[1,1,0,0,1,0,1,1,1,1,0,1,1,0,0,0,0,0,0,0,0,0,0,0,0,0,0],"split_type":[0,0,0,0,0,0,0,0,0,0,0,0,0,0,0,0,0,0,0,0,0,0,0,0,0,0,0],"sum_hessian":[8.227E3,7.451E3,7.76E2,2.814E3,4.637E3,7.13E2,6.3E1,1.96E3,8.54E2,2.318E3,2.319E3,5.16E2,1.97E2,3.9E1,2.4E1,4.86E2,1.474E3,5.31E2,3.23E2,1.465E3,8.53E2,3.69E2,1.95E3,3.74E2,1.42E2,1.27E2,7E1],"tree_param":{"num_deleted":"0","num_feature":"2","num_nodes":"27","size_leaf_vector":"1"}},{"base_weights":[-1.9613204E-3,6.36129E-2,-6.308637E-1,-2.5323066E-1,2.5590506E-1,-5.258909E-1,-1.7921093E0,-7.343038E-2,-6.6531855E-1,5.5895364E-1,-4.7123164E-2,-8.735269E-1,3.8448113E-1,-1.3619378E-1,-2.4086992E-1,-6.6303305E-2,1.2128822E-2,-1.205763E-1,2.2413133E-2,3.0509073E-2,9.9408716E-2,-6.857403E-2,7.4012387E-3,-7.0925735E-2,-1.2981951E-1,7.3078886E-2,-2.4526348E-2],"categories":[],"categories_nodes":[],"categories_segments":[],"categories_sizes":[],"default_left":[0,0,0,0,0,0,0,0,0,0,0,0,0,0,0,0,0,0,0,0,0,0,0,0,0,0,0],"id":28,"left_children":[1,3,5,7,9,11,13,15,17,19,21,23,25,-1,-1,-1,-1,-1,-1,-1,-1,-1,-1,-1,-1,-1,-1],"loss_changes":[3.3936108E2,4.5408936E2,9.3773224E1,2.0852443E2,4.2594443E2,2.2630118E2,1.3694809E1,2.2521616E2,4.112672E2,2.558634E2,1.7952419E2,3.5145203E1,4.3360153E1,0E0,0E0,0E0,0E0,0E0,0E0,0E0,0E0,0E0,0E0,0E0,0E0,0E0,0E0],"parents":[2147483647,0,0,1,1,2,2,3,3,4,4,5,5,6,6,7,7,8,8,9,9,10,10,11,11,12,12],"right_children":[2,4,6,8,10,12,14,16,18,20,22,24,26,-1,-1,-1,-1,-1,-1,-1,-1,-1,-1,-1,-1,-1,-1],"split_conditions":[2.2E1,1.1E1,7E0,6E0,1.7E1,5E0,2.3E1,3E0,8E0,1.5E1,2E0,2.3E1,2.3E1,-1.3619378E-1,-2.4086992E-1,-6.6303305E-2,1.2128822E-2,-1.205763E-1,2.2413133E-2,3.0509073E-2,9.9408716E-2,-6.857403E-2,7.4012387E-3,-7.0925735E-2,-1.2981951E-1,7.3078886E-2,-2.4526348E-2],"split_indices":[1,1,0,0,1,0,1,1,1,1,0,1,1,0,0,0,0,0,0,0,0,0,0,0,0,0,0],"split_type":[0,0,0,0,0,0,0,0,0,0,0,0,0,0,0,0,0,0,0,0,0,0,0,0,0,0,0],"sum_hessian":[8.227E3,7.451E3,7.76E2,2.814E3,4.637E3,7.13E2,6.3E1,1.96E3,8.54E2,2.318E3,2.319E3,5.16E2,1.97E2,3.9E1,2.4E1,4.86E2,1.474E3,5.31E2,3.23E2,1.465E3,8.53E2,3.69E2,1.95E3,3.74E2,1.42E2,1.27E2,7E1],"tree_param":{"num_deleted":"0","num_feature":"2","num_nodes":"27","size_leaf_vector":"1"}},{"base_weights":[-1.8398992E-3,7.753348E-2,-4.2918625E-1,-2.2796176E-1,2.8594154E-1,-3.4372503E-1,-1.3512094E0,-6.611498E-2,-5.989016E-1,5.0311357E-1,7.2314E-3,-6.4277077E-1,2.9573268E-1,-1.0922968E0,-2.177464E-1,-5.9686597E-2,1.0916762E-2,-1.0854135E-1,2.0178722E-2,2.7460158E-2,8.947945E-2,1.0608624E-2,-8.157469E-2,-5.2823972E-2,-1.16928354E-1,6.216987E-2,-7.61029E-3,-9.495495E-2,-1.2291487E-1],"categories":[],"categories_nodes":[],"categories_segments":[],"categories_sizes":[],"default_left":[0,0,0,0,0,0,0,0,0,0,0,0,0,0,0,0,0,0,0,0,0,0,0,0,0,0,0,0,0],"id":29,"left_children":[1,3,5,7,9,11,13,15,17,19,21,23,25,27,-1,-1,-1,-1,-1,-1,-1,-1,-1,-1,-1,-1,-1,-1,-1],"loss_changes":[2.791264E2,4.419188E2,1.01105225E2,1.6896014E2,2.497351E2,2.2602928E2,2.0939667E1,1.8249974E2,3.3327966E2,2.0731354E2,1.4717708E2,4.7925476E1,4.5741882E1,4.9336243E-1,0E0,0E0,0E0,0E0,0E0,0E0,0E0,0E0,0E0,0E0,0E0,0E0,0E0,0E0,0E0],"parents":[2147483647,0,0,1,1,2,2,3,3,4,4,5,5,6,6,7,7,8,8,9,9,10,10,11,11,12,12,13,13],"right_children":[2,4,6,8,10,12,14,16,18,20,22,24,26,28,-1,-1,-1,-1,-1,-1,-1,-1,-1,-1,-1,-1,-1,-1,-1],"split_conditions":[2.1E1,1.1E1,7E0,6E0,1.7E1,5E0,2.3E1,3E0,8E0,1.5E1,7E0,2.3E1,6E0,2.2E1,-2.177464E-1,-5.9686597E-2,1.0916762E-2,-1.0854135E-1,2.0178722E-2,2.7460158E-2,8.947945E-2,1.0608624E-2,-8.157469E-2,-5.2823972E-2,-1.16928354E-1,6.216987E-2,-7.61029E-3,-9.495495E-2,-1.2291487E-1],"split_indices":[1,1,0,0,1,0,1,1,1,1,0,1,0,1,0,0,0,0,0,0,0,0,0,0,0,0,0,0,0],"split_type":[0,0,0,0,0,0,0,0,0,0,0,0,0,0,0,0,0,0,0,0,0,0,0,0,0,0,0,0,0],"sum_hessian":[8.227E3,6.939E3,1.288E3,2.814E3,4.125E3,1.18E3,1.08E2,1.96E3,8.54E2,2.318E3,1.807E3,8.04E2,3.76E2,8.4E1,2.4E1,4.86E2,1.474E3,5.31E2,3.23E2,1.465E3,8.53E2,1.614E3,1.93E2,6.62E2,1.42E2,2E2,1.76E2,4.5E1,3.9E1],"tree_param":{"num_deleted":"0","num_feature":"2","num_nodes":"29","size_leaf_vector":"1"}},{"base_weights":[-1.7340018E-3,5.1952783E-2,-5.1662743E-1,-2.0521453E-1,2.080274E-1,-4.311436E-1,-1.4622338E0,-5.952881E-2,-5.391145E-1,4.528527E-1,-3.678205E-2,-7.162337E-1,3.1543562E-1,-1.1093068E-1,-1.9684276E-1,-5.373019E-2,9.825765E-3,-9.77076E-2,1.8167142E-2,2.4716021E-2,8.054198E-2,-6.1181612E-2,7.2289915E-3,-5.8583762E-2,-1.0531727E-1,6.2003817E-2,-2.3814978E-2],"categories":[],"categories_nodes":[],"categories_segments":[],"categories_sizes":[],"default_left":[0,0,0,0,0,0,0,0,0,0,0,0,0,0,0,0,0,0,0,0,0,0,0,0,0,0,0],"id":30,"left_children":[1,3,5,7,9,11,13,15,17,19,21,23,25,-1,-1,-1,-1,-1,-1,-1,-1,-1,-1,-1,-1,-1,-1],"loss_changes":[2.2747324E2,2.9914575E2,6.217758E1,1.3690207E2,2.7799768E2,1.5219533E2,9.249985E0,1.4788498E2,2.700809E2,1.6797574E2,1.4555486E2,2.2097687E1,3.353512E1,0E0,0E0,0E0,0E0,0E0,0E0,0E0,0E0,0E0,0E0,0E0,0E0,0E0,0E0],"parents":[2147483647,0,0,1,1,2,2,3,3,4,4,5,5,6,6,7,7,8,8,9,9,10,10,11,11,12,12],"right_children":[2,4,6,8,10,12,14,16,18,20,22,24,26,-1,-1,-1,-1,-1,-1,-1,-1,-1,-1,-1,-1,-1,-1],"split_conditions":[2.2E1,1.1E1,7E0,6E0,1.7E1,5E0,2.3E1,3E0,8E0,1.5E1,2E0,2.3E1,2.3E1,-1.1093068E-1,-1.9684276E-1,-5.373019E-2,9.825765E-3,-9.77076E-2,1.8167142E-2,2.4716021E-2,8.054198E-2,-6.1181612E-2,7.2289915E-3,-5.8583762E-2,-1.0531727E-1,6.2003817E-2,-2.3814978E-2],"split_indices":[1,1,0,0,1,0,1,1,1,1,0,1,1,0,0,0,0,0,0,0,0,0,0,0,0,0,0],"split_type":[0,0,0,0,0,0,0,0,0,0,0,0,0,0,0,0,0,0,0,0,0,0,0,0,0,0,0],"sum_hessian":[8.227E3,7.451E3,7.76E2,2.814E3,4.637E3,7.13E2,6.3E1,1.96E3,8.54E2,2.318E3,2.319E3,5.16E2,1.97E2,3.9E1,2.4E1,4.86E2,1.474E3,5.31E2,3.23E2,1.465E3,8.53E2,3.69E2,1.95E3,3.74E2,1.42E2,1.27E2,7E1],"tree_param":{"num_deleted":"0","num_feature":"2","num_nodes":"27","size_leaf_vector":"1"}},{"base_weights":[-1.6219801E-3,6.378477E-2,-3.5377187E-1,-1.8473727E-1,2.3332566E-1,-2.809042E-1,-1.1400372E0,-5.3598765E-2,-4.8529613E-1,4.076133E-1,9.649558E-3,-5.275069E-1,2.4640632E-1,-9.385599E-2,-1.7794587E-1,-3.2285653E-2,1.7984312E-2,-8.79552E-2,1.6355997E-2,2.2246165E-2,7.249725E-2,9.99087E-3,-7.417843E-2,-4.3588903E-2,-9.48592E-2,5.33615E-2,-8.1138015E-3],"categories":[],"categories_nodes":[],"categories_segments":[],"categories_sizes":[],"default_left":[0,0,0,0,0,0,0,0,0,0,0,0,0,0,0,0,0,0,0,0,0,0,0,0,0,0,0],"id":31,"left_children":[1,3,5,7,9,11,13,15,17,19,21,23,25,-1,-1,-1,-1,-1,-1,-1,-1,-1,-1,-1,-1,-1,-1],"loss_changes":[1.8953792E2,2.9245758E2,7.353082E1,1.1092676E2,1.6084395E2,1.5370273E2,1.2372223E1,1.2331875E2,2.1886589E2,1.361022E2,1.2269949E2,3.0642532E1,3.5509033E1,0E0,0E0,0E0,0E0,0E0,0E0,0E0,0E0,0E0,0E0,0E0,0E0,0E0,0E0],"parents":[2147483647,0,0,1,1,2,2,3,3,4,4,5,5,6,6,7,7,8,8,9,9,10,10,11,11,12,12],"right_children":[2,4,6,8,10,12,14,16,18,20,22,24,26,-1,-1,-1,-1,-1,-1,-1,-1,-1,-1,-1,-1,-1,-1],"split_conditions":[2.1E1,1.1E1,7E0,6E0,1.7E1,5E0,2.3E1,6E0,8E0,1.5E1,7E0,2.3E1,6E0,-9.385599E-2,-1.7794587E-1,-3.2285653E-2,1.7984312E-2,-8.79552E-2,1.6355997E-2,2.2246165E-2,7.249725E-2,9.99087E-3,-7.417843E-2,-4.3588903E-2,-9.48592E-2,5.33615E-2,-8.1138015E-3],"split_indices":[1,1,0,0,1,0,1,1,1,1,0,1,0,0,0,0,0,0,0,0,0,0,0,0,0,0,0],"split_type":[0,0,0,0,0,0,0,0,0,0,0,0,0,0,0,0,0,0,0,0,0,0,0,0,0,0,0],"sum_hessian":[8.227E3,6.939E3,1.288E3,2.814E3,4.125E3,1.18E3,1.08E2,1.96E3,8.54E2,2.318E3,1.807E3,8.04E2,3.76E2,8.4E1,2.4E1,9.1E2,1.05E3,5.31E2,3.23E2,1.465E3,8.53E2,1.614E3,1.93E2,6.62E2,1.42E2,2E2,1.76E2],"tree_param":{"num_deleted":"0","num_feature":"2","num_nodes":"27","size_leaf_vector":"1"}},{"base_weights":[-1.5106103E-3,5.7398632E-2,-3.186779E-1,-1.6629404E-1,2.1000102E-1,-2.5289276E-1,-1.0285271E0,-4.8246205E-2,-4.368502E-1,3.6689362E-1,8.649283E-3,-4.749282E-1,2.2188559E-1,-8.4580824E-2,-1.6086306E-1,2.098617E-3,-8.90327E-2,-7.917621E-2,1.4725464E-2,2.0023141E-2,6.52561E-2,-5.6905568E-2,1.1265314E-2,-3.9236587E-2,-8.5439615E-2,4.805187E-2,-7.307E-3],"categories":[],"categories_nodes":[],"categories_segments":[],"categories_sizes":[],"default_left":[0,0,0,0,0,0,0,0,0,0,0,0,0,0,0,0,0,0,0,0,0,0,0,0,0,0,0],"id":32,"left_children":[1,3,5,7,9,11,13,15,17,19,21,23,25,-1,-1,-1,-1,-1,-1,-1,-1,-1,-1,-1,-1,-1,-1],"loss_changes":[1.5375095E2,2.3693901E2,5.993303E1,8.988597E1,1.3033963E2,1.246036E2,1.0192963E1,1.1434353E2,1.7736302E2,1.10276825E2,1.0869516E2,2.4885223E1,2.879466E1,0E0,0E0,0E0,0E0,0E0,0E0,0E0,0E0,0E0,0E0,0E0,0E0,0E0,0E0],"parents":[2147483647,0,0,1,1,2,2,3,3,4,4,5,5,6,6,7,7,8,8,9,9,10,10,11,11,12,12],"right_children":[2,4,6,8,10,12,14,16,18,20,22,24,26,-1,-1,-1,-1,-1,-1,-1,-1,-1,-1,-1,-1,-1,-1],"split_conditions":[2.1E1,1.1E1,7E0,6E0,1.7E1,5E0,2.3E1,1E1,8E0,1.5E1,2E0,2.3E1,6E0,-8.4580824E-2,-1.6086306E-1,2.098617E-3,-8.90327E-2,-7.917621E-2,1.4725464E-2,2.0023141E-2,6.52561E-2,-5.6905568E-2,1.1265314E-2,-3.9236587E-2,-8.5439615E-2,4.805187E-2,-7.307E-3],"split_indices":[1,1,0,0,1,0,1,1,1,1,0,1,0,0,0,0,0,0,0,0,0,0,0,0,0,0,0],"split_type":[0,0,0,0,0,0,0,0,0,0,0,0,0,0,0,0,0,0,0,0,0,0,0,0,0,0,0],"sum_hessian":[8.227E3,6.939E3,1.288E3,2.814E3,4.125E3,1.18E3,1.08E2,1.96E3,8.54E2,2.318E3,1.807E3,8.04E2,3.76E2,8.4E1,2.4E1,1.812E3,1.48E2,5.31E2,3.23E2,1.465E3,8.53E2,2.75E2,1.532E3,6.62E2,1.42E2,2E2,1.76E2],"tree_param":{"num_deleted":"0","num_feature":"2","num_nodes":"27","size_leaf_vector":"1"}},{"base_weights":[-1.4131633E-3,3.8662236E-2,-3.8576382E-1,-1.4971823E-1,1.5299004E-1,-5.3548986E-1,-8.7702096E-2,-4.3465737E-2,-3.9324036E-1,3.302409E-1,-2.4250368E-2,-4.448054E-1,-7.6955396E-1,2.3510978E-1,-1.085031E0,-4.5355693E-2,9.196333E-3,-6.3223295E-2,3.4381874E-2,1.8022174E-2,5.8738124E-2,5.149138E-3,-6.839578E-2,-9.91703E-2,-2.6607519E-2,-2.4640998E-2,-1.0312855E-1,4.9714617E-2,-2.4060527E-2,-8.271734E-2,-1.454202E-1],"categories":[],"categories_nodes":[],"categories_segments":[],"categories_sizes":[],"default_left":[0,0,0,0,0,0,0,0,0,0,0,0,0,0,0,0,0,0,0,0,0,0,0,0,0,0,0,0,0,0,0],"id":33,"left_children":[1,3,5,7,9,11,13,15,17,19,21,23,25,27,29,-1,-1,-1,-1,-1,-1,-1,-1,-1,-1,-1,-1,-1,-1,-1,-1],"loss_changes":[1.2675085E2,1.6051758E2,3.4628662E1,7.282057E1,1.457155E2,1.0631546E1,8.428395E1,1.08952255E2,1.50827E2,8.935184E1,1.1595956E2,3.6391304E1,1.9325912E1,2.4801237E1,4.889511E0,0E0,0E0,0E0,0E0,0E0,0E0,0E0,0E0,0E0,0E0,0E0,0E0,0E0,0E0,0E0,0E0],"parents":[2147483647,0,0,1,1,2,2,3,3,4,4,5,5,6,6,7,7,8,8,9,9,10,10,11,11,12,12,13,13,14,14],"right_children":[2,4,6,8,10,12,14,16,18,20,22,24,26,28,30,-1,-1,-1,-1,-1,-1,-1,-1,-1,-1,-1,-1,-1,-1,-1,-1],"split_conditions":[2.2E1,1.1E1,5E0,6E0,1.7E1,2.3E1,7E0,3E0,9E0,1.5E1,7E0,2E0,2E0,2.3E1,2.3E1,-4.5355693E-2,9.196333E-3,-6.3223295E-2,3.4381874E-2,1.8022174E-2,5.8738124E-2,5.149138E-3,-6.839578E-2,-9.91703E-2,-2.6607519E-2,-2.4640998E-2,-1.0312855E-1,4.9714617E-2,-2.4060527E-2,-8.271734E-2,-1.454202E-1],"split_indices":[1,1,0,0,1,1,0,1,1,1,0,0,0,1,1,0,0,0,0,0,0,0,0,0,0,0,0,0,0,0,0],"split_type":[0,0,0,0,0,0,0,0,0,0,0,0,0,0,0,0,0,0,0,0,0,0,0,0,0,0,0,0,0,0,0],"sum_hessian":[8.227E3,7.451E3,7.76E2,2.814E3,4.637E3,5.16E2,2.6E2,1.96E3,8.54E2,2.318E3,2.319E3,3.74E2,1.42E2,1.97E2,6.3E1,4.86E2,1.474E3,6.45E2,2.09E2,1.465E3,8.53E2,2.081E3,2.38E2,9.1E1,2.83E2,4.8E1,9.4E1,1.27E2,7E1,3.9E1,2.4E1],"tree_param":{"num_deleted":"0","num_feature":"2","num_nodes":"31","size_leaf_vector":"1"}},{"base_weights":[-1.3337838E-3,4.7386494E-2,-2.6364362E-1,-1.3476984E-1,1.7165278E-1,-2.104035E-1,-8.380744E-1,-3.9138045E-2,-3.5395017E-1,2.9724947E-1,1.0463416E-2,-3.953563E-1,1.8508033E-1,-6.880605E-2,-1.3145988E-1,2.4320635E-3,-8.110269E-2,5.969825E-3,-7.194408E-2,1.6221149E-2,5.2871134E-2,-5.174867E-2,1.0550827E-2,-3.3045616E-2,-6.9349214E-2,4.125909E-2,-7.432481E-3],"categories":[],"categories_nodes":[],"categories_segments":[],"categories_sizes":[],"default_left":[0,0,0,0,0,0,0,0,0,0,0,0,0,0,0,0,0,0,0,0,0,0,0,0,0,0,0],"id":34,"left_children":[1,3,5,7,9,11,13,15,17,19,21,23,25,-1,-1,-1,-1,-1,-1,-1,-1,-1,-1,-1,-1,-1,-1],"loss_changes":[1.0516476E2,1.5711621E2,3.9244858E1,5.899026E1,8.3527145E1,8.645841E1,6.8873672E0,9.607549E1,1.2930577E2,7.239722E1,9.0778114E1,1.5346817E1,2.2280231E1,0E0,0E0,0E0,0E0,0E0,0E0,0E0,0E0,0E0,0E0,0E0,0E0,0E0,0E0],"parents":[2147483647,0,0,1,1,2,2,3,3,4,4,5,5,6,6,7,7,8,8,9,9,10,10,11,11,12,12],"right_children":[2,4,6,8,10,12,14,16,18,20,22,24,26,-1,-1,-1,-1,-1,-1,-1,-1,-1,-1,-1,-1,-1,-1],"split_conditions":[2.1E1,1.1E1,7E0,6E0,1.7E1,5E0,2.3E1,1E1,5E0,1.5E1,2E0,2.3E1,6E0,-6.880605E-2,-1.3145988E-1,2.4320635E-3,-8.110269E-2,5.969825E-3,-7.194408E-2,1.6221149E-2,5.2871134E-2,-5.174867E-2,1.0550827E-2,-3.3045616E-2,-6.9349214E-2,4.125909E-2,-7.432481E-3],"split_indices":[1,1,0,0,1,0,1,1,1,1,0,1,0,0,0,0,0,0,0,0,0,0,0,0,0,0,0],"split_type":[0,0,0,0,0,0,0,0,0,0,0,0,0,0,0,0,0,0,0,0,0,0,0,0,0,0,0],"sum_hessian":[8.227E3,6.939E3,1.288E3,2.814E3,4.125E3,1.18E3,1.08E2,1.96E3,8.54E2,2.318E3,1.807E3,8.04E2,3.76E2,8.4E1,2.4E1,1.812E3,1.48E2,4.01E2,4.53E2,1.465E3,8.53E2,2.75E2,1.532E3,6.62E2,1.42E2,2E2,1.76E2],"tree_param":{"num_deleted":"0","num_feature":"2","num_nodes":"27","size_leaf_vector":"1"}},{"base_weights":[-1.247455E-3,3.1636428E-2,-3.166264E-1,-1.2134425E-1,1.24480106E-1,-4.3947837E-1,-7.206287E-2,-3.526427E-2,-3.1863254E-1,2.6755357E-1,-1.8585334E-2,-3.6770278E-1,-6.2462777E-1,1.9231835E-1,-8.8886625E-1,-2.752159E-2,1.7275779E-2,-6.365499E-2,2.0436328E-2,1.4600053E-2,4.7590155E-2,4.9476377E-3,-6.114133E-2,-8.6092435E-2,-2.0663206E-2,-1.5433781E-2,-8.6062334E-2,4.2324048E-2,-2.2670066E-2,-6.794378E-2,-1.1883972E-1],"categories":[],"categories_nodes":[],"categories_segments":[],"categories_sizes":[],"default_left":[0,0,0,0,0,0,0,0,0,0,0,0,0,0,0,0,0,0,0,0,0,0,0,0,0,0,0,0,0,0,0],"id":35,"left_children":[1,3,5,7,9,11,13,15,17,19,21,23,25,27,29,-1,-1,-1,-1,-1,-1,-1,-1,-1,-1,-1,-1,-1,-1,-1,-1],"loss_changes":[8.534166E1,1.0585802E2,2.3313377E1,4.7794712E1,9.4939575E1,6.6408386E0,5.6533234E1,9.793131E1,1.4229047E2,5.8659943E1,9.3639656E1,2.9613445E1,1.5738224E1,1.9254578E1,3.2072983E0,0E0,0E0,0E0,0E0,0E0,0E0,0E0,0E0,0E0,0E0,0E0,0E0,0E0,0E0,0E0,0E0],"parents":[2147483647,0,0,1,1,2,2,3,3,4,4,5,5,6,6,7,7,8,8,9,9,10,10,11,11,12,12,13,13,14,14],"right_children":[2,4,6,8,10,12,14,16,18,20,22,24,26,28,30,-1,-1,-1,-1,-1,-1,-1,-1,-1,-1,-1,-1,-1,-1,-1,-1],"split_conditions":[2.2E1,1.1E1,5E0,6E0,1.7E1,2.3E1,7E0,6E0,8E0,1.5E1,7E0,2E0,2E0,2.3E1,2.3E1,-2.752159E-2,1.7275779E-2,-6.365499E-2,2.0436328E-2,1.4600053E-2,4.7590155E-2,4.9476377E-3,-6.114133E-2,-8.6092435E-2,-2.0663206E-2,-1.5433781E-2,-8.6062334E-2,4.2324048E-2,-2.2670066E-2,-6.794378E-2,-1.1883972E-1],"split_indices":[1,1,0,0,1,1,0,1,1,1,0,0,0,1,1,0,0,0,0,0,0,0,0,0,0,0,0,0,0,0,0],"split_type":[0,0,0,0,0,0,0,0,0,0,0,0,0,0,0,0,0,0,0,0,0,0,0,0,0,0,0,0,0,0,0],"sum_hessian":[8.227E3,7.451E3,7.76E2,2.814E3,4.637E3,5.16E2,2.6E2,1.96E3,8.54E2,2.318E3,2.319E3,3.74E2,1.42E2,1.97E2,6.3E1,9.1E2,1.05E3,5.31E2,3.23E2,1.465E3,8.53E2,2.081E3,2.38E2,9.1E1,2.83E2,4.8E1,9.4E1,1.27E2,7E1,3.9E1,2.4E1],"tree_param":{"num_deleted":"0","num_feature":"2","num_nodes":"31","size_leaf_vector":"1"}},{"base_weights":[-1.1741848E-3,3.9163277E-2,-2.1835092E-1,-1.0922864E-1,1.4039548E-1,-3.2975167E-1,-3.299847E-2,-3.1742677E-2,-2.8682014E-1,-4.8069973E-3,2.3579952E-1,-5.0313455E-1,-2.582458E-1,1.5426476E-1,-6.80386E-1,1.1248729E-2,-3.728428E-2,1.1723967E-2,-6.439682E-2,3.0827332E-2,-5.109292E-2,7.1207725E-2,1.0229124E-2,-5.9629973E-2,-1.3921902E-2,-1.5491056E-2,-7.7546686E-2,3.544294E-2,-7.3912363E-3,-5.565212E-2,-1.07431106E-1],"categories":[],"categories_nodes":[],"categories_segments":[],"categories_sizes":[],"default_left":[0,0,0,0,0,0,0,0,0,0,0,0,0,0,0,0,0,0,0,0,0,0,0,0,0,0,0,0,0,0,0],"id":36,"left_children":[1,3,5,7,9,11,13,15,17,19,21,23,25,27,29,-1,-1,-1,-1,-1,-1,-1,-1,-1,-1,-1,-1,-1,-1,-1,-1],"loss_changes":[7.208878E1,1.042683E2,2.6604908E1,3.8727684E1,5.715821E1,9.850365E0,5.8902428E1,9.651699E1,1.2345985E2,2.5955145E2,1.5825887E2,7.8505783E0,3.0451645E1,1.7244911E1,4.7206078E0,0E0,0E0,0E0,0E0,0E0,0E0,0E0,0E0,0E0,0E0,0E0,0E0,0E0,0E0,0E0,0E0],"parents":[2147483647,0,0,1,1,2,2,3,3,4,4,5,5,6,6,7,7,8,8,9,9,10,10,11,11,12,12,13,13,14,14],"right_children":[2,4,6,8,10,12,14,16,18,20,22,24,26,28,30,-1,-1,-1,-1,-1,-1,-1,-1,-1,-1,-1,-1,-1,-1,-1,-1],"split_conditions":[2.1E1,1.1E1,5E0,6E0,4E0,2E0,7E0,8E0,5E0,1.8E1,5E0,2.3E1,2.3E1,6E0,2.3E1,1.1248729E-2,-3.728428E-2,1.1723967E-2,-6.439682E-2,3.0827332E-2,-5.109292E-2,7.1207725E-2,1.0229124E-2,-5.9629973E-2,-1.3921902E-2,-1.5491056E-2,-7.7546686E-2,3.544294E-2,-7.3912363E-3,-5.565212E-2,-1.07431106E-1],"split_indices":[1,1,0,0,0,0,0,1,1,1,0,1,1,0,1,0,0,0,0,0,0,0,0,0,0,0,0,0,0,0,0],"split_type":[0,0,0,0,0,0,0,0,0,0,0,0,0,0,0,0,0,0,0,0,0,0,0,0,0,0,0,0,0,0,0],"sum_hessian":[8.227E3,6.939E3,1.288E3,2.814E3,4.125E3,8.04E2,4.84E2,1.96E3,8.54E2,1.636E3,2.489E3,2.33E2,5.71E2,3.76E2,1.08E2,1.378E3,5.82E2,4.01E2,4.53E2,1.011E3,6.25E2,5.44E2,1.945E3,1.85E2,4.8E1,4.77E2,9.4E1,2E2,1.76E2,8.4E1,2.4E1],"tree_param":{"num_deleted":"0","num_feature":"2","num_nodes":"31","size_leaf_vector":"1"}},{"base_weights":[-1.0954489E-3,3.0127648E-2,-2.4763858E-1,-7.82823E-2,1.22250624E-1,-1.01594396E-1,-1.0075626E0,9.799835E-2,-3.9673063E-1,-2.0689508E-1,2.0567341E-1,-5.4324543E-1,6.298129E-1,-2.0297042E-1,-6.138438E-1,-1.7575463E-2,7.0352614E-2,-6.4396374E-2,-2.8821973E-2,5.6295004E-2,-6.164929E-2,3.7087373E-2,1.19829355E-2,-3.7600804E-2,-2.2535455E-1,1.5149365E-1,-1.7893465E-2,-5.0152402E-2,-9.711771E-2],"categories":[],"categories_nodes":[],"categories_segments":[],"categories_sizes":[],"default_left":[0,0,0,0,0,0,0,0,0,0,0,0,0,0,0,0,0,0,0,0,0,0,0,0,0,0,0,0,0],"id":37,"left_children":[1,3,5,7,9,11,13,15,17,19,21,23,25,-1,27,-1,-1,-1,-1,-1,-1,-1,-1,-1,-1,-1,-1,-1,-1],"loss_changes":[6.3345287E1,7.295496E1,1.0255645E2,1.8843222E2,1.08475174E2,2.5133395E2,5.8717102E1,3.5834192E2,3.190007E1,2.5229318E2,4.4641342E1,1.3787529E2,2.1001266E2,0E0,3.8877106E0,0E0,0E0,0E0,0E0,0E0,0E0,0E0,0E0,0E0,0E0,0E0,0E0,0E0,0E0],"parents":[2147483647,0,0,1,1,2,2,3,3,4,4,5,5,6,6,7,7,8,8,9,9,10,10,11,11,12,12,14,14],"right_children":[2,4,6,8,10,12,14,16,18,20,22,24,26,-1,28,-1,-1,-1,-1,-1,-1,-1,-1,-1,-1,-1,-1,-1,-1],"split_conditions":[7E0,4E0,2E1,1.8E1,8E0,1.4E1,2.1E1,1.3E1,2E1,5E0,1.4E1,1.3E1,1.7E1,-2.0297042E-1,2.3E1,-1.7575463E-2,7.0352614E-2,-6.4396374E-2,-2.8821973E-2,5.6295004E-2,-6.164929E-2,3.7087373E-2,1.19829355E-2,-3.7600804E-2,-2.2535455E-1,1.5149365E-1,-1.7893465E-2,-5.0152402E-2,-9.711771E-2],"split_indices":[0,0,1,1,1,1,1,1,1,0,1,1,1,0,1,0,0,0,0,0,0,0,0,0,0,0,0,0,0],"split_type":[0,0,0,0,0,0,0,0,0,0,0,0,0,0,0,0,0,0,0,0,0,0,0,0,0,0,0,0,0],"sum_hessian":[8.227E3,7.303E3,9.24E2,3.355E3,3.948E3,7.76E2,1.48E2,2.16E3,1.195E3,7.98E2,3.15E3,4.84E2,2.92E2,4E1,1.08E2,1.488E3,6.72E2,3.63E2,8.32E2,2.77E2,5.21E2,1.076E3,2.074E3,4.42E2,4.2E1,1.39E2,1.53E2,8.4E1,2.4E1],"tree_param":{"num_deleted":"0","num_feature":"2","num_nodes":"29","size_leaf_vector":"1"}},{"base_weights":[-1.0437041E-3,2.4570711E-2,-2.4670339E-1,-8.7319426E-2,9.247631E-2,-1.5415639E-1,-4.5691955E-1,-4.8780277E-2,-3.5424206E-1,-4.3465406E-2,1.8164746E-1,-6.882773E-2,-4.4615764E-2,-9.734745E-3,-5.4772437E-1,-2.7235022E-2,1.9525699E-3,2.5791217E-2,-8.299511E-2,2.3664858E-2,-3.8618837E-2,5.593173E-2,7.15696E-3,-1.5596523E-2,1.4501214E-2,-6.568272E-2,-3.5286643E-2],"categories":[],"categories_nodes":[],"categories_segments":[],"categories_sizes":[],"default_left":[0,0,0,0,0,0,0,0,0,0,0,0,0,0,0,0,0,0,0,0,0,0,0,0,0,0,0],"id":38,"left_children":[1,3,5,7,9,11,13,15,17,19,21,-1,23,-1,25,-1,-1,-1,-1,-1,-1,-1,-1,-1,-1,-1,-1],"loss_changes":[5.178017E1,5.6628124E1,1.5045998E1,2.894054E1,5.6230106E1,3.1622086E1,7.6849403E0,3.758765E1,1.03592636E2,1.7654213E2,1.1640618E2,0E0,9.52435E0,0E0,3.7862816E0,0E0,0E0,0E0,0E0,0E0,0E0,0E0,0E0,0E0,0E0,0E0,0E0],"parents":[2147483647,0,0,1,1,2,2,3,3,4,4,5,5,6,6,7,7,8,8,9,9,10,10,12,12,14,14],"right_children":[2,4,6,8,10,12,14,16,18,20,22,-1,24,-1,26,-1,-1,-1,-1,-1,-1,-1,-1,-1,-1,-1,-1],"split_conditions":[2.2E1,1.1E1,2.3E1,7E0,4E0,2E0,2E0,3E0,4E0,1.8E1,5E0,-6.882773E-2,5E0,-9.734745E-3,6E0,-2.7235022E-2,1.9525699E-3,2.5791217E-2,-8.299511E-2,2.3664858E-2,-3.8618837E-2,5.593173E-2,7.15696E-3,-1.5596523E-2,1.4501214E-2,-6.568272E-2,-3.5286643E-2],"split_indices":[1,1,1,0,0,0,0,1,1,1,0,0,0,0,0,0,0,0,0,0,0,0,0,0,0,0,0],"split_type":[0,0,0,0,0,0,0,0,0,0,0,0,0,0,0,0,0,0,0,0,0,0,0,0,0,0,0],"sum_hessian":[8.227E3,7.451E3,7.76E2,2.814E3,4.637E3,5.4E2,2.36E2,2.46E3,3.54E2,1.837E3,2.8E3,9.1E1,4.49E2,4.8E1,1.88E2,5.75E2,1.885E3,1.55E2,1.99E2,1.011E3,8.26E2,6.31E2,2.169E3,2.83E2,1.66E2,1.19E2,6.9E1],"tree_param":{"num_deleted":"0","num_feature":"2","num_nodes":"27","size_leaf_vector":"1"}},{"base_weights":[-9.653562E-4,2.5948012E-2,-2.1347809E-1,-1.6201064E-1,6.277849E-2,-7.9376854E-2,-9.113518E-1,4.4806104E-4,-4.6366534E-1,-2.5350136E-1,8.749596E-2,-4.655699E-1,5.601556E-1,-1.838667E-1,-5.541842E-1,-4.1177507E-2,1.5933257E-2,-1.481225E-1,-7.386078E-3,-4.093181E-2,3.621944E-2,1.0322052E-2,-4.3737665E-2,-3.1165529E-2,-2.0404212E-1,1.6584633E-1,2.4813672E-3,-4.6240415E-2,-8.440689E-2],"categories":[],"categories_nodes":[],"categories_segments":[],"categories_sizes":[],"default_left":[0,0,0,0,0,0,0,0,0,0,0,0,0,0,0,0,0,0,0,0,0,0,0,0,0,0,0,0,0],"id":39,"left_children":[1,3,5,7,9,11,13,15,17,19,21,23,25,-1,27,-1,-1,-1,-1,-1,-1,-1,-1,-1,-1,-1,-1,-1,-1],"loss_changes":[4.706504E1,5.057289E1,8.649447E1,5.8660892E1,4.777231E1,1.9216656E2,4.8330864E1,5.1086887E1,1.6608669E2,4.2647766E1,4.6808826E1,1.1692452E2,1.7223412E2,0E0,2.5097122E0,0E0,0E0,0E0,0E0,0E0,0E0,0E0,0E0,0E0,0E0,0E0,0E0,0E0,0E0],"parents":[2147483647,0,0,1,1,2,2,3,3,4,4,5,5,6,6,7,7,8,8,9,9,10,10,11,11,12,12,14,14],"right_children":[2,4,6,8,10,12,14,16,18,20,22,24,26,-1,28,-1,-1,-1,-1,-1,-1,-1,-1,-1,-1,-1,-1,-1,-1],"split_conditions":[7E0,2E0,2E1,1.8E1,2E0,1.4E1,2.1E1,5E0,2E1,6E0,2.3E1,1.3E1,1.6E1,-1.838667E-1,2.3E1,-4.1177507E-2,1.5933257E-2,-1.481225E-1,-7.386078E-3,-4.093181E-2,3.621944E-2,1.0322052E-2,-4.3737665E-2,-3.1165529E-2,-2.0404212E-1,1.6584633E-1,2.4813672E-3,-4.6240415E-2,-8.440689E-2],"split_indices":[0,0,1,1,1,1,1,1,1,0,1,1,1,0,1,0,0,0,0,0,0,0,0,0,0,0,0,0,0],"split_type":[0,0,0,0,0,0,0,0,0,0,0,0,0,0,0,0,0,0,0,0,0,0,0,0,0,0,0,0,0],"sum_hessian":[8.227E3,7.303E3,9.24E2,1.196E3,6.107E3,7.76E2,1.48E2,7.78E2,4.18E2,4.42E2,5.665E3,4.84E2,2.92E2,4E1,1.08E2,2.16E2,5.62E2,1.15E2,3.03E2,3.53E2,8.9E1,5.501E3,1.64E2,4.42E2,4.2E1,9.5E1,1.97E2,8.4E1,2.4E1],"tree_param":{"num_deleted":"0","num_feature":"2","num_nodes":"29","size_leaf_vector":"1"}},{"base_weights":[-9.4191456E-4,2.9278794E-2,-1.6365004E-1,-5.6142204E-2,1.24063835E-1,-2.5381798E-1,-1.3652426E-2,-2.5143992E-2,-2.8056008E-1,2.9352963E-1,-6.54382E-2,-3.728054E-1,-2.0469758E-1,3.025612E-1,-2.3661834E-1,-1.5651787E-2,8.85346E-3,2.6325215E-2,-5.7415087E-2,6.953219E-2,-1.44351795E-2,-2.7477134E-2,3.0147374E-2,-4.477862E-2,-8.057619E-3,-1.2908451E-2,-5.8299597E-2,4.047069E-2,-4.0052354E-2,-7.3108063E-3,-4.9996424E-2],"categories":[],"categories_nodes":[],"categories_segments":[],"categories_sizes":[],"default_left":[0,0,0,0,0,0,0,0,0,0,0,0,0,0,0,0,0,0,0,0,0,0,0,0,0,0,0,0,0,0,0],"id":40,"left_children":[1,3,5,7,9,11,13,15,17,19,21,23,25,27,29,-1,-1,-1,-1,-1,-1,-1,-1,-1,-1,-1,-1,-1,-1,-1,-1],"loss_changes":[4.0463142E1,5.6197598E1,1.7430225E1,2.5391315E1,1.05674644E2,4.628681E0,3.426645E1,4.7938335E1,7.087976E1,3.0570364E2,1.1944064E2,5.0912285E0,1.6286406E1,1.459733E1,1.223548E1,0E0,0E0,0E0,0E0,0E0,0E0,0E0,0E0,0E0,0E0,0E0,0E0,0E0,0E0,0E0,0E0],"parents":[2147483647,0,0,1,1,2,2,3,3,4,4,5,5,6,6,7,7,8,8,9,9,10,10,11,11,12,12,13,13,14,14],"right_children":[2,4,6,8,10,12,14,16,18,20,22,24,26,28,30,-1,-1,-1,-1,-1,-1,-1,-1,-1,-1,-1,-1,-1,-1,-1,-1],"split_conditions":[2.1E1,1.3E1,5E0,7E0,5E0,2E0,6E0,4E0,4E0,1.8E1,1.8E1,2.3E1,2.3E1,2.3E1,7E0,-1.5651787E-2,8.85346E-3,2.6325215E-2,-5.7415087E-2,6.953219E-2,-1.44351795E-2,-2.7477134E-2,3.0147374E-2,-4.477862E-2,-8.057619E-3,-1.2908451E-2,-5.8299597E-2,4.047069E-2,-4.0052354E-2,-7.3108063E-3,-4.9996424E-2],"split_indices":[1,1,0,0,0,0,0,0,1,1,1,1,1,1,0,0,0,0,0,0,0,0,0,0,0,0,0,0,0,0,0],"split_type":[0,0,0,0,0,0,0,0,0,0,0,0,0,0,0,0,0,0,0,0,0,0,0,0,0,0,0,0,0,0,0],"sum_hessian":[8.227E3,6.939E3,1.288E3,3.65E3,3.289E3,8.04E2,4.84E2,3.208E3,4.42E2,1.736E3,1.553E3,2.33E2,5.71E2,2E2,2.84E2,1.488E3,1.72E3,1.55E2,2.87E2,9.05E2,8.31E2,9.89E2,5.64E2,1.85E2,4.8E1,4.77E2,9.4E1,1.75E2,2.5E1,1.76E2,1.08E2],"tree_param":{"num_deleted":"0","num_feature":"2","num_nodes":"31","size_leaf_vector":"1"}},{"base_weights":[-8.674571E-4,2.6353601E-2,-1.4742547E-1,-5.0538573E-2,1.11674875E-1,-2.2859035E-1,-1.240453E-2,-2.7026268E-2,-3.291967E-1,2.642081E-1,-5.889264E-2,-1.3525857E-1,-2.8032014E-1,2.7230692E-1,-2.1315749E-1,-6.9638453E-3,1.895447E-2,-1.7349072E-1,8.189571E-2,6.258663E-2,-1.2993433E-2,-2.4732184E-2,2.7137954E-2,-2.4482027E-2,1.1777234E-2,-2.2872E-2,-4.074265E-2,3.6446583E-2,-3.6201157E-2,-6.583839E-3,-4.5042653E-2],"categories":[],"categories_nodes":[],"categories_segments":[],"categories_sizes":[],"default_left":[0,0,0,0,0,0,0,0,0,0,0,0,0,0,0,0,0,0,0,0,0,0,0,0,0,0,0,0,0,0,0],"id":41,"left_children":[1,3,5,7,9,11,13,15,17,19,21,23,25,27,29,-1,-1,-1,-1,-1,-1,-1,-1,-1,-1,-1,-1,-1,-1,-1,-1],"loss_changes":[3.2829197E1,4.5535774E1,1.4123262E1,2.3912071E1,8.561221E1,3.848652E0,2.7779026E1,3.1094997E1,4.597888E2,2.476817E2,9.677706E1,8.040634E0,3.2976646E0,1.1882023E1,9.932308E0,0E0,0E0,0E0,0E0,0E0,0E0,0E0,0E0,0E0,0E0,0E0,0E0,0E0,0E0,0E0,0E0],"parents":[2147483647,0,0,1,1,2,2,3,3,4,4,5,5,6,6,7,7,8,8,9,9,10,10,11,11,12,12,13,13,14,14],"right_children":[2,4,6,8,10,12,14,16,18,20,22,24,26,28,30,-1,-1,-1,-1,-1,-1,-1,-1,-1,-1,-1,-1,-1,-1,-1,-1],"split_conditions":[2.1E1,1.3E1,5E0,1.2E1,5E0,2.2E1,6E0,1.1E1,5E0,1.8E1,1.8E1,4E0,4E0,2.3E1,7E0,-6.9638453E-3,1.895447E-2,-1.7349072E-1,8.189571E-2,6.258663E-2,-1.2993433E-2,-2.4732184E-2,2.7137954E-2,-2.4482027E-2,1.1777234E-2,-2.2872E-2,-4.074265E-2,3.6446583E-2,-3.6201157E-2,-6.583839E-3,-4.5042653E-2],"split_indices":[1,1,0,1,0,1,0,1,0,1,1,0,0,1,0,0,0,0,0,0,0,0,0,0,0,0,0,0,0,0,0],"split_type":[0,0,0,0,0,0,0,0,0,0,0,0,0,0,0,0,0,0,0,0,0,0,0,0,0,0,0,0,0,0,0],"sum_hessian":[8.227E3,6.939E3,1.288E3,3.65E3,3.289E3,8.04E2,4.84E2,3.367E3,2.83E2,1.736E3,1.553E3,2.88E2,5.16E2,2E2,2.84E2,2.814E3,5.53E2,1.27E2,1.56E2,9.05E2,8.31E2,9.89E2,5.64E2,2.01E2,8.7E1,3.69E2,1.47E2,1.75E2,2.5E1,1.76E2,1.08E2],"tree_param":{"num_deleted":"0","num_feature":"2","num_nodes":"31","size_leaf_vector":"1"}},{"base_weights":[-7.9947786E-4,-1.4989366E-1,2.457972E-2,-6.7648385E-4,-3.5158467E-1,5.3232335E-2,-1.6464703E-1,-1.3978824E-1,7.1724564E-1,-8.486033E-1,-1.3632653E-2,-2.1992433E-1,7.457987E-2,-4.857726E-2,-7.688186E-1,6.7687794E-3,-3.7507545E-2,6.260765E-2,1.0428097E-1,-2.5470985E-2,-1.307187E-1,9.709968E-2,-3.1232947E-2,-3.577182E-2,3.2450855E-2,8.660966E-3,-3.2701064E-2,-3.902365E-2,5.1713374E-2,-1.7151731E-1,-4.0579703E-2],"categories":[],"categories_nodes":[],"categories_segments":[],"categories_sizes":[],"default_left":[0,0,0,0,0,0,0,0,0,0,0,0,0,0,0,0,0,0,0,0,0,0,0,0,0,0,0,0,0,0,0],"id":42,"left_children":[1,3,5,7,9,11,13,15,17,19,21,23,25,27,29,-1,-1,-1,-1,-1,-1,-1,-1,-1,-1,-1,-1,-1,-1,-1,-1],"loss_changes":[3.1137537E1,3.60244E1,3.8135147E1,6.891167E1,8.548437E1,3.5633507E1,6.4829254E1,2.8241299E1,2.6714363E0,5.577112E1,8.9711395E1,3.334973E1,2.7401028E1,1.5038065E2,5.0492516E1,0E0,0E0,0E0,0E0,0E0,0E0,0E0,0E0,0E0,0E0,0E0,0E0,0E0,0E0,0E0,0E0],"parents":[2147483647,0,0,1,1,2,2,3,3,4,4,5,5,6,6,7,7,8,8,9,9,10,10,11,11,12,12,13,13,14,14],"right_children":[2,4,6,8,10,12,14,16,18,20,22,24,26,28,30,-1,-1,-1,-1,-1,-1,-1,-1,-1,-1,-1,-1,-1,-1,-1,-1],"split_conditions":[2E0,1.7E1,7E0,1.4E1,2E1,2E0,2E1,8E0,1.6E1,1.8E1,2.1E1,6E0,2.3E1,1.4E1,2.1E1,6.7687794E-3,-3.7507545E-2,6.260765E-2,1.0428097E-1,-2.5470985E-2,-1.307187E-1,9.709968E-2,-3.1232947E-2,-3.577182E-2,3.2450855E-2,8.660966E-3,-3.2701064E-2,-3.902365E-2,5.1713374E-2,-1.7151731E-1,-4.0579703E-2],"split_indices":[0,1,0,1,1,1,1,1,1,1,1,0,1,1,1,0,0,0,0,0,0,0,0,0,0,0,0,0,0,0,0],"split_type":[0,0,0,0,0,0,0,0,0,0,0,0,0,0,0,0,0,0,0,0,0,0,0,0,0,0,0,0,0,0,0],"sum_hessian":[8.227E3,1.196E3,7.031E3,6.88E2,5.08E2,6.107E3,9.24E2,5.77E2,1.11E2,2.05E2,3.03E2,4.42E2,5.665E3,7.76E2,1.48E2,3.07E2,2.7E2,8.9E1,2.2E1,9E1,1.15E2,7E1,2.33E2,3.53E2,8.9E1,5.501E3,1.64E2,4.84E2,2.92E2,4E1,1.08E2],"tree_param":{"num_deleted":"0","num_feature":"2","num_nodes":"31","size_leaf_vector":"1"}},{"base_weights":[-7.4169016E-4,-1.3486594E-1,2.2089293E-2,-4.110113E-4,-3.166038E-1,5.6728005E-2,-1.0844905E-1,-1.258625E-1,6.470119E-1,-7.645015E-1,-1.2052722E-2,1.7685172E-1,-4.110665E-2,-4.269156E-2,-6.933601E-1,6.0940785E-3,-3.3770584E-2,5.6416538E-2,9.430631E-2,-2.2951901E-2,-1.1775956E-1,8.752651E-2,-2.8123012E-2,-7.935416E-3,5.3714823E-2,-4.3533877E-2,9.394838E-3,-2.6536224E-2,3.077954E-2,-1.547839E-1,-3.655895E-2],"categories":[],"categories_nodes":[],"categories_segments":[],"categories_sizes":[],"default_left":[0,0,0,0,0,0,0,0,0,0,0,0,0,0,0,0,0,0,0,0,0,0,0,0,0,0,0,0,0,0,0],"id":43,"left_children":[1,3,5,7,9,11,13,15,17,19,21,23,25,27,29,-1,-1,-1,-1,-1,-1,-1,-1,-1,-1,-1,-1,-1,-1,-1,-1],"loss_changes":[2.5198666E1,2.9249228E1,3.1802608E1,5.604212E1,6.942232E1,6.532633E1,5.6702267E1,2.2893791E1,2.214962E0,4.525534E1,7.28553E1,2.303563E2,1.6317752E2,1.0364496E2,4.1165016E1,0E0,0E0,0E0,0E0,0E0,0E0,0E0,0E0,0E0,0E0,0E0,0E0,0E0,0E0,0E0,0E0],"parents":[2147483647,0,0,1,1,2,2,3,3,4,4,5,5,6,6,7,7,8,8,9,9,10,10,11,11,12,12,13,13,14,14],"right_children":[2,4,6,8,10,12,14,16,18,20,22,24,26,28,30,-1,-1,-1,-1,-1,-1,-1,-1,-1,-1,-1,-1,-1,-1,-1,-1],"split_conditions":[2E0,1.7E1,2E1,1.4E1,2E1,5E0,7E0,8E0,1.6E1,1.8E1,2.1E1,1.3E1,8E0,5E0,2.1E1,6.0940785E-3,-3.3770584E-2,5.6416538E-2,9.430631E-2,-2.2951901E-2,-1.1775956E-1,8.752651E-2,-2.8123012E-2,-7.935416E-3,5.3714823E-2,-4.3533877E-2,9.394838E-3,-2.6536224E-2,3.077954E-2,-1.547839E-1,-3.655895E-2],"split_indices":[0,1,1,1,1,0,0,1,1,1,1,1,1,0,1,0,0,0,0,0,0,0,0,0,0,0,0,0,0,0,0],"split_type":[0,0,0,0,0,0,0,0,0,0,0,0,0,0,0,0,0,0,0,0,0,0,0,0,0,0,0,0,0,0,0],"sum_hessian":[8.227E3,1.196E3,7.031E3,6.88E2,5.08E2,5.557E3,1.474E3,5.77E2,1.11E2,2.05E2,3.03E2,2.494E3,3.063E3,1.326E3,1.48E2,3.07E2,2.7E2,8.9E1,2.2E1,9E1,1.15E2,7E1,2.33E2,1.458E3,1.036E3,7.81E2,2.282E3,8.11E2,5.15E2,4E1,1.08E2],"tree_param":{"num_deleted":"0","num_feature":"2","num_nodes":"31","size_leaf_vector":"1"}},{"base_weights":[-6.8402576E-4,-1.21344395E-1,1.9855103E-2,-1.910809E-4,-2.8510332E-1,5.1056962E-2,-9.7731195E-2,-1.13323666E-1,5.8365554E-1,-6.887347E-1,-1.0652092E-2,1.591846E-1,-3.700751E-2,-3.8419444E-2,-6.2530816E-1,-3.6107965E-2,3.5506082E-3,5.083747E-2,8.5285656E-2,-2.068201E-2,-1.060851E-1,7.889715E-2,-2.532274E-2,-7.1424716E-3,4.834853E-2,-3.9186046E-2,8.4557105E-3,-2.388589E-2,2.7707526E-2,-1.3968301E-1,-3.2936584E-2],"categories":[],"categories_nodes":[],"categories_segments":[],"categories_sizes":[],"default_left":[0,0,0,0,0,0,0,0,0,0,0,0,0,0,0,0,0,0,0,0,0,0,0,0,0,0,0,0,0,0,0],"id":44,"left_children":[1,3,5,7,9,11,13,15,17,19,21,23,25,27,29,-1,-1,-1,-1,-1,-1,-1,-1,-1,-1,-1,-1,-1,-1,-1,-1],"loss_changes":[2.0393522E1,2.374835E1,2.5804773E1,4.5576023E1,5.637822E1,5.29303E1,4.6130955E1,2.132568E1,1.8361816E0,3.672222E1,5.9166348E1,1.8662749E2,1.3220662E2,8.398245E1,3.3560513E1,0E0,0E0,0E0,0E0,0E0,0E0,0E0,0E0,0E0,0E0,0E0,0E0,0E0,0E0,0E0,0E0],"parents":[2147483647,0,0,1,1,2,2,3,3,4,4,5,5,6,6,7,7,8,8,9,9,10,10,11,11,12,12,13,13,14,14],"right_children":[2,4,6,8,10,12,14,16,18,20,22,24,26,28,30,-1,-1,-1,-1,-1,-1,-1,-1,-1,-1,-1,-1,-1,-1,-1,-1],"split_conditions":[2E0,1.7E1,2E1,1.4E1,2E1,5E0,7E0,5E0,1.6E1,1.8E1,2.1E1,1.3E1,8E0,5E0,2.1E1,-3.6107965E-2,3.5506082E-3,5.083747E-2,8.5285656E-2,-2.068201E-2,-1.060851E-1,7.889715E-2,-2.532274E-2,-7.1424716E-3,4.834853E-2,-3.9186046E-2,8.4557105E-3,-2.388589E-2,2.7707526E-2,-1.3968301E-1,-3.2936584E-2],"split_indices":[0,1,1,1,1,0,0,1,1,1,1,1,1,0,1,0,0,0,0,0,0,0,0,0,0,0,0,0,0,0,0],"split_type":[0,0,0,0,0,0,0,0,0,0,0,0,0,0,0,0,0,0,0,0,0,0,0,0,0,0,0,0,0,0,0],"sum_hessian":[8.227E3,1.196E3,7.031E3,6.88E2,5.08E2,5.557E3,1.474E3,5.77E2,1.11E2,2.05E2,3.03E2,2.494E3,3.063E3,1.326E3,1.48E2,2.16E2,3.61E2,8.9E1,2.2E1,9E1,1.15E2,7E1,2.33E2,1.458E3,1.036E3,7.81E2,2.282E3,8.11E2,5.15E2,4E1,1.08E2],"tree_param":{"num_deleted":"0","num_feature":"2","num_nodes":"31","size_leaf_vector":"1"}},{"base_weights":[-6.310889E-4,-5.5227473E-2,3.6969177E-2,1.8194981E-1,-1.3587411E-1,2.0711173E-1,-1.5402833E-2,-9.2282794E-2,7.5767523E-1,-4.9286082E-1,-1.38755E-2,-4.6949068E-1,3.4193298E-1,-3.5272437E-1,7.4142605E-2,-2.2885945E-2,2.1097478E-2,1.24154046E-1,-2.3433292E-2,-3.3923022E-2,-1.4009377E-1,3.8475584E-2,-2.3817735E-2,-3.884581E-2,-5.4242503E-2,2.7277964E-1,1.0021127E-2,2.5767738E-2,-1.5863067E-1,3.8988844E-2,-6.672448E-3],"categories":[],"categories_nodes":[],"categories_segments":[],"categories_sizes":[],"default_left":[0,0,0,0,0,0,0,0,0,0,0,0,0,0,0,0,0,0,0,0,0,0,0,0,0,0,0,0,0,0,0],"id":45,"left_children":[1,3,5,7,9,11,13,15,17,19,21,23,25,27,29,-1,-1,-1,-1,-1,-1,-1,-1,-1,-1,-1,-1,-1,-1,-1,-1],"loss_changes":[1.6892797E1,6.421678E1,4.3425068E1,1.3458598E2,1.09090614E2,1.0479032E2,1.1260244E2,2.3987831E1,1.3229044E2,8.853111E1,1.6711652E2,9.181099E-1,5.5164294E2,5.8923975E2,1.3105876E2,0E0,0E0,0E0,0E0,0E0,0E0,0E0,0E0,0E0,0E0,0E0,0E0,0E0,0E0,0E0,0E0],"parents":[2147483647,0,0,1,1,2,2,3,3,4,4,5,5,6,6,7,7,8,8,9,9,10,10,11,11,12,12,13,13,14,14],"right_children":[2,4,6,8,10,12,14,16,18,20,22,24,26,28,30,-1,-1,-1,-1,-1,-1,-1,-1,-1,-1,-1,-1,-1,-1,-1,-1],"split_conditions":[4E0,8E0,5E0,5E0,1.3E1,5E0,8E0,3E0,3E0,1.2E1,1.8E1,2E0,8E0,5E0,1.3E1,-2.2885945E-2,2.1097478E-2,1.24154046E-1,-2.3433292E-2,-3.3923022E-2,-1.4009377E-1,3.8475584E-2,-2.3817735E-2,-3.884581E-2,-5.4242503E-2,2.7277964E-1,1.0021127E-2,2.5767738E-2,-1.5863067E-1,3.8988844E-2,-6.672448E-3],"split_indices":[0,1,0,1,1,1,1,0,0,1,1,1,1,1,1,0,0,0,0,0,0,0,0,0,0,0,0,0,0,0,0],"split_type":[0,0,0,0,0,0,0,0,0,0,0,0,0,0,0,0,0,0,0,0,0,0,0,0,0,0,0,0,0,0,0],"sum_hessian":[8.227E3,3.355E3,4.872E3,8.51E2,2.504E3,1.146E3,3.726E3,5.77E2,2.74E2,6.37E2,1.867E3,1.9E2,9.56E2,7.81E2,2.945E3,3.98E2,1.79E2,1.84E2,9E1,5.46E2,9.1E1,6.72E2,1.195E3,9.3E1,9.7E1,8.7E1,8.69E2,5.23E2,2.58E2,9.08E2,2.037E3],"tree_param":{"num_deleted":"0","num_feature":"2","num_nodes":"31","size_leaf_vector":"1"}},{"base_weights":[-5.6441233E-4,-1.0768706E-1,1.7670283E-2,-6.8438062E-3,-2.4398042E-1,2.7053015E-2,-3.221873E-1,-1.02791265E-1,4.883747E-1,-6.2399006E-1,1.4328679E-2,4.7052484E-2,-1.049158E-1,-5.0456416E-2,-2.6169062E-1,5.850815E-3,-2.8573379E-2,4.200555E-2,7.344772E-2,-2.2441823E-2,-9.320681E-2,7.346678E-2,-2.0429699E-2,-1.5823336E-2,6.3572763E-3,-3.270909E-2,1.5374089E-2,-1.9741977E-2,-5.5972308E-2],"categories":[],"categories_nodes":[],"categories_segments":[],"categories_sizes":[],"default_left":[0,0,0,0,0,0,0,0,0,0,0,0,0,0,0,0,0,0,0,0,0,0,0,0,0,0,0,0,0],"id":46,"left_children":[1,3,5,7,9,11,13,15,17,19,21,23,25,-1,27,-1,-1,-1,-1,-1,-1,-1,-1,-1,-1,-1,-1,-1,-1],"loss_changes":[1.6074059E1,1.6450216E1,2.2432306E1,3.2788006E1,4.9972355E1,1.806835E1,1.9532337E0,1.7072643E1,1.5745945E0,2.5149284E1,4.802541E1,2.0168419E1,5.1828117E1,0E0,2.6477919E0,0E0,0E0,0E0,0E0,0E0,0E0,0E0,0E0,0E0,0E0,0E0,0E0,0E0,0E0],"parents":[2147483647,0,0,1,1,2,2,3,3,4,4,5,5,6,6,7,7,8,8,9,9,10,10,11,11,12,12,14,14],"right_children":[2,4,6,8,10,12,14,16,18,20,22,24,26,-1,28,-1,-1,-1,-1,-1,-1,-1,-1,-1,-1,-1,-1,-1,-1],"split_conditions":[2E0,1.7E1,2.3E1,1.4E1,2E1,7E0,4E0,8E0,1.6E1,1.8E1,2.1E1,2E0,1.4E1,-5.0456416E-2,7E0,5.850815E-3,-2.8573379E-2,4.200555E-2,7.344772E-2,-2.2441823E-2,-9.320681E-2,7.346678E-2,-2.0429699E-2,-1.5823336E-2,6.3572763E-3,-3.270909E-2,1.5374089E-2,-1.9741977E-2,-5.5972308E-2],"split_indices":[0,1,1,1,1,0,0,1,1,1,1,1,1,0,0,0,0,0,0,0,0,0,0,0,0,0,0,0,0],"split_type":[0,0,0,0,0,0,0,0,0,0,0,0,0,0,0,0,0,0,0,0,0,0,0,0,0,0,0,0,0],"sum_hessian":[8.227E3,1.196E3,7.031E3,6.88E2,5.08E2,6.843E3,1.88E2,5.77E2,1.11E2,2.05E2,3.03E2,5.943E3,9E2,4.5E1,1.43E2,3.07E2,2.7E2,8.9E1,2.2E1,9E1,1.15E2,7E1,2.33E2,4.42E2,5.501E3,4.84E2,4.16E2,1.19E2,2.4E1],"tree_param":{"num_deleted":"0","num_feature":"2","num_nodes":"29","size_leaf_vector":"1"}},{"base_weights":[-5.228127E-4,-9.6893154E-2,1.5881598E-2,-6.024727E-3,-2.1970543E-1,2.4343895E-2,-2.9063603E-1,-3.0818114E-1,1.3260946E-1,-5.621526E-1,1.3070327E-2,4.234573E-2,-9.444329E-2,-3.6448434E-1,-1.59887E-1,-1.0387256E-2,-8.059534E-2,1.3167801E-1,-7.3460635E-4,-2.0222297E-2,-8.3966516E-2,6.622362E-2,-1.8395467E-2,-1.4244571E-2,5.7216734E-3,-2.9444922E-2,1.3840399E-2,-4.552045E-2,-3.0398285E-2,3.1688027E-3,-5.059896E-2],"categories":[],"categories_nodes":[],"categories_segments":[],"categories_sizes":[],"default_left":[0,0,0,0,0,0,0,0,0,0,0,0,0,0,0,0,0,0,0,0,0,0,0,0,0,0,0,0,0,0,0],"id":47,"left_children":[1,3,5,7,9,11,13,15,17,19,21,23,25,27,29,-1,-1,-1,-1,-1,-1,-1,-1,-1,-1,-1,-1,-1,-1,-1,-1],"loss_changes":[1.3009173E1,1.3356906E1,1.8246979E1,2.8902533E1,4.0581474E1,1.4639122E1,1.7666321E0,2.1985E1,7.8400536E1,2.0406502E1,3.9004E1,1.6342468E1,4.2001076E1,5.202713E-1,4.657357E0,0E0,0E0,0E0,0E0,0E0,0E0,0E0,0E0,0E0,0E0,0E0,0E0,0E0,0E0,0E0,0E0],"parents":[2147483647,0,0,1,1,2,2,3,3,4,4,5,5,6,6,7,7,8,8,9,9,10,10,11,11,12,12,13,13,14,14],"right_children":[2,4,6,8,10,12,14,16,18,20,22,24,26,28,30,-1,-1,-1,-1,-1,-1,-1,-1,-1,-1,-1,-1,-1,-1,-1,-1],"split_conditions":[2E0,1.7E1,2.3E1,5E0,2E1,7E0,6E0,4E0,7E0,1.8E1,2.1E1,2E0,1.4E1,4E0,7E0,-1.0387256E-2,-8.059534E-2,1.3167801E-1,-7.3460635E-4,-2.0222297E-2,-8.3966516E-2,6.622362E-2,-1.8395467E-2,-1.4244571E-2,5.7216734E-3,-2.9444922E-2,1.3840399E-2,-4.552045E-2,-3.0398285E-2,3.1688027E-3,-5.059896E-2],"split_indices":[0,1,1,1,1,0,0,1,1,1,1,1,1,0,0,0,0,0,0,0,0,0,0,0,0,0,0,0,0,0,0],"split_type":[0,0,0,0,0,0,0,0,0,0,0,0,0,0,0,0,0,0,0,0,0,0,0,0,0,0,0,0,0,0,0],"sum_hessian":[8.227E3,1.196E3,7.031E3,6.88E2,5.08E2,6.843E3,1.88E2,2.16E2,4.72E2,2.05E2,3.03E2,5.943E3,9E2,1.19E2,6.9E1,1.54E2,6.2E1,4.9E1,4.23E2,9E1,1.15E2,7E1,2.33E2,4.42E2,5.501E3,4.84E2,4.16E2,4.5E1,7.4E1,4.5E1,2.4E1],"tree_param":{"num_deleted":"0","num_feature":"2","num_nodes":"31","size_leaf_vector":"1"}},{"base_weights":[-4.9068645E-4,-4.6445414E-2,3.1158105E-2,1.6330875E-1,-1.1776841E-1,1.8057257E-1,-1.4833191E-2,-6.803135E-2,6.4894974E-1,-4.4319397E-1,-6.558948E-3,-4.145232E-1,2.991543E-1,-2.960578E-1,5.982142E-2,-1.8803455E-2,1.983537E-2,1.0743977E-1,-2.2310324E-2,-3.0411055E-2,-1.2653182E-1,3.4030564E-2,-2.017373E-2,-3.2027755E-2,-5.006923E-2,2.4461746E-1,8.164058E-3,2.6413789E-2,-1.4282836E-1,3.537402E-2,-7.130321E-3],"categories":[],"categories_nodes":[],"categories_segments":[],"categories_sizes":[],"default_left":[0,0,0,0,0,0,0,0,0,0,0,0,0,0,0,0,0,0,0,0,0,0,0,0,0,0,0,0,0,0,0],"id":48,"left_children":[1,3,5,7,9,11,13,15,17,19,21,23,25,27,29,-1,-1,-1,-1,-1,-1,-1,-1,-1,-1,-1,-1,-1,-1,-1,-1],"loss_changes":[1.1968346E1,5.0225986E1,3.3488785E1,9.576485E1,9.0654045E1,8.1064926E1,7.826501E1,1.8514256E1,1.0226831E2,7.2566574E1,1.265331E2,1.3907623E0,4.4672546E2,4.9637482E2,1.1356403E2,0E0,0E0,0E0,0E0,0E0,0E0,0E0,0E0,0E0,0E0,0E0,0E0,0E0,0E0,0E0,0E0],"parents":[2147483647,0,0,1,1,2,2,3,3,4,4,5,5,6,6,7,7,8,8,9,9,10,10,11,11,12,12,13,13,14,14],"right_children":[2,4,6,8,10,12,14,16,18,20,22,24,26,28,30,-1,-1,-1,-1,-1,-1,-1,-1,-1,-1,-1,-1,-1,-1,-1,-1],"split_conditions":[4E0,8E0,5E0,5E0,1.3E1,5E0,8E0,3E0,3E0,1.2E1,1.8E1,2E0,8E0,5E0,1.3E1,-1.8803455E-2,1.983537E-2,1.0743977E-1,-2.2310324E-2,-3.0411055E-2,-1.2653182E-1,3.4030564E-2,-2.017373E-2,-3.2027755E-2,-5.006923E-2,2.4461746E-1,8.164058E-3,2.6413789E-2,-1.4282836E-1,3.537402E-2,-7.130321E-3],"split_indices":[0,1,0,1,1,1,1,0,0,1,1,1,1,1,1,0,0,0,0,0,0,0,0,0,0,0,0,0,0,0,0],"split_type":[0,0,0,0,0,0,0,0,0,0,0,0,0,0,0,0,0,0,0,0,0,0,0,0,0,0,0,0,0,0,0],"sum_hessian":[8.227E3,3.355E3,4.872E3,8.51E2,2.504E3,1.146E3,3.726E3,5.77E2,2.74E2,6.37E2,1.867E3,1.9E2,9.56E2,7.81E2,2.945E3,3.98E2,1.79E2,1.84E2,9E1,5.46E2,9.1E1,6.72E2,1.195E3,9.3E1,9.7E1,8.7E1,8.69E2,5.23E2,2.58E2,9.08E2,2.037E3],"tree_param":{"num_deleted":"0","num_feature":"2","num_nodes":"31","size_leaf_vector":"1"}},{"base_weights":[-4.3851917E-4,-8.618035E-2,1.4156676E-2,-1.1356005E-2,-1.8729585E-1,3.7511196E-2,-7.385592E-2,-9.251208E-2,4.075687E-1,-5.100492E-1,3.202813E-2,1.23333305E-1,-3.2385565E-2,-1.9509424E-2,-5.573724E-1,-2.1552828E-3,-4.53057E-2,3.4559008E-2,6.323735E-2,-2.1588042E-2,-7.364226E-2,6.1683573E-2,-1.4555036E-2,-7.269966E-3,3.990216E-2,-2.6660103E-2,4.7854856E-3,-1.9497966E-2,2.56656E-2,-1.2755898E-1,-2.8210372E-2],"categories":[],"categories_nodes":[],"categories_segments":[],"categories_sizes":[],"default_left":[0,0,0,0,0,0,0,0,0,0,0,0,0,0,0,0,0,0,0,0,0,0,0,0,0,0,0,0,0,0,0],"id":49,"left_children":[1,3,5,7,9,11,13,15,17,19,21,23,25,27,29,-1,-1,-1,-1,-1,-1,-1,-1,-1,-1,-1,-1,-1,-1,-1,-1],"loss_changes":[1.0297893E1,9.0542555E0,1.4456992E1,2.3462523E1,3.604721E1,3.33447E1,3.8748337E1,1.4777786E1,1.3419666E0,1.3558968E1,3.1659948E1,1.3486877E2,5.7596184E1,6.435488E1,2.9097855E1,0E0,0E0,0E0,0E0,0E0,0E0,0E0,0E0,0E0,0E0,0E0,0E0,0E0,0E0,0E0,0E0],"parents":[2147483647,0,0,1,1,2,2,3,3,4,4,5,5,6,6,7,7,8,8,9,9,10,10,11,11,12,12,13,13,14,14],"right_children":[2,4,6,8,10,12,14,16,18,20,22,24,26,28,30,-1,-1,-1,-1,-1,-1,-1,-1,-1,-1,-1,-1,-1,-1,-1,-1],"split_conditions":[2E0,1.7E1,2E1,1.4E1,2E1,5E0,7E0,1.2E1,1.6E1,1.8E1,2.1E1,1.3E1,8E0,5E0,2.1E1,-2.1552828E-3,-4.53057E-2,3.4559008E-2,6.323735E-2,-2.1588042E-2,-7.364226E-2,6.1683573E-2,-1.4555036E-2,-7.269966E-3,3.990216E-2,-2.6660103E-2,4.7854856E-3,-1.9497966E-2,2.56656E-2,-1.2755898E-1,-2.8210372E-2],"split_indices":[0,1,1,1,1,0,0,1,1,1,1,1,1,0,1,0,0,0,0,0,0,0,0,0,0,0,0,0,0,0,0],"split_type":[0,0,0,0,0,0,0,0,0,0,0,0,0,0,0,0,0,0,0,0,0,0,0,0,0,0,0,0,0,0,0],"sum_hessian":[8.227E3,1.196E3,7.031E3,6.88E2,5.08E2,5.557E3,1.474E3,5.77E2,1.11E2,2.05E2,3.03E2,2.494E3,3.063E3,1.326E3,1.48E2,4.83E2,9.4E1,8.9E1,2.2E1,9E1,1.15E2,7E1,2.33E2,1.458E3,1.036E3,7.81E2,2.282E3,8.11E2,5.15E2,4E1,1.08E2],"tree_param":{"num_deleted":"0","num_feature":"2","num_nodes":"31","size_leaf_vector":"1"}}]},"name":"gbtree"},"learner_model_param":{"base_score":"[1.4006564E1]","boost_from_average":"1","num_class":"0","num_feature":"2","num_target":"1"},"objective":{"name":"reg:squarederror","reg_loss_param":{"scale_pos_weight":"1"}}},"version":[3,2,0]}