{"learner":{"attributes":{},"feature_names":["day_of_week","hour_of_day"],"feature_types":[],"gradient_booster":{"model":{"cats":{"enc":[],"feature_segments":[],"sorted_idx":[]},"gbtree_model_param":{"num_parallel_tree":"1","num_trees":"50"},"iteration_indptr":[0,1,2,3,4,5,6,7,8,9,10,11,12,13,14,15,16,17,18,19,20,21,22,23,24,25,26,27,28,29,30,31,32,33,34,35,36,37,38,39,40,41,42,43,44,45,46,47,48,49,50],"tree_info":[0,0,0,0,0,0,0,0,0,0,0,0,0,0,0,0,0,0,0,0,0,0,0,0,0,0,0,0,0,0,0,0,0,0,0,0,0,0,0,0,0,0,0,0,0,0,0,0,0,0],"trees":[{"base_weights":[-1.5301633E-7,-1.0335417E1,1.3179232E0,-1.0771602E1,-7.154986E0,3.0350518E0,-4.139542E0,-1.1930217E0,-9.3333906E-1,-2.684579E-1,-9.241128E-1,-1.4049709E0,3.7563698E0,-7.310337E0,-2.3760524E0,2.884618E-1,-7.385844E-1,4.1438338E-1,-1.0600182E-3,-4.9083143E-1,-1.051736E0,-4.8071206E-2,-4.8022553E-1],"categories":[],"categories_nodes":[],"categories_segments":[],"categories_sizes":[],"default_left":[0,0,0,0,0,0,0,0,0,0,0,0,0,0,0,0,0,0,0,0,0,0,0],"id":0,"left_children":[1,3,5,7,9,11,13,-1,-1,-1,-1,15,17,19,21,-1,-1,-1,-1,-1,-1,-1,-1],"loss_changes":[6.792936E4,7.0533984E2,4.1461246E4,7.118164E2,6.3733057E2,1.0782256E4,5.904201E3,0E0,0E0,0E0,0E0,1.210504E4,4.2254844E3,2.8602402E3,3.133855E3,0E0,0E0,0E0,0E0,0E0,0E0,0E0,0E0],"parents":[2147483647,0,0,1,1,2,2,3,3,4,4,5,5,6,6,11,11,12,12,13,13,14,14],"right_children":[2,4,6,8,10,12,14,-1,-1,-1,-1,16,18,20,22,-1,-1,-1,-1,-1,-1,-1,-1],"split_conditions":[4E0,3E0,2E1,5E0,2E0,7E0,4E0,-1.1930217E0,-9.3333906E-1,-2.684579E-1,-9.241128E-1,5E0,1.9E1,2.2E1,2.2E1,2.884618E-1,-7.385844E-1,4.1438338E-1,-1.0600182E-3,-4.9083143E-1,-1.051736E0,-4.8071206E-2,-4.8022553E-1],"split_indices":[1,1,1,0,0,1,0,0,0,0,0,0,1,1,1,0,0,0,0,0,0,0,0],"split_type":[0,0,0,0,0,0,0,0,0,0,0,0,0,0,0,0,0,0,0,0,0,0,0],"sum_hessian":[4.985E3,5.63E2,4.422E3,4.93E2,7E1,3.364E3,1.058E3,2.69E2,2.24E2,2.3E1,4.7E1,4.7E2,2.894E3,3.77E2,6.81E2,2.74E2,1.96E2,2.624E3,2.7E2,2.17E2,1.6E2,3.83E2,2.98E2],"tree_param":{"num_deleted":"0","num_feature":"2","num_nodes":"23","size_leaf_vector":"1"}},{"base_weights":[-1.0882049E-3,-9.307759E0,1.1856546E0,-9.698746E0,-6.4562836E0,2.7315361E0,-3.7275434E0,-1.0741613E0,-8.4041995E-1,-2.4273062E-1,-8.336267E-1,-1.2654291E0,3.380876E0,-6.583384E0,-2.1392217E0,2.5972056E-1,-6.651009E-1,3.7296087E-1,-9.543609E-4,-4.4197342E-1,-9.472157E-1,-4.327662E-2,-4.3236357E-1],"categories":[],"categories_nodes":[],"categories_segments":[],"categories_sizes":[],"default_left":[0,0,0,0,0,0,0,0,0,0,0,0,0,0,0,0,0,0,0,0,0,0,0],"id":1,"left_children":[1,3,5,7,9,11,13,-1,-1,-1,-1,15,17,19,21,-1,-1,-1,-1,-1,-1,-1,-1],"loss_changes":[5.507954E4,5.661758E2,3.360385E4,5.7664844E2,5.1754834E2,8.737764E3,4.789533E3,0E0,0E0,0E0,0E0,9.815264E3,3.4229375E3,2.320746E3,2.5403552E3,0E0,0E0,0E0,0E0,0E0,0E0,0E0,0E0],"parents":[2147483647,0,0,1,1,2,2,3,3,4,4,5,5,6,6,11,11,12,12,13,13,14,14],"right_children":[2,4,6,8,10,12,14,-1,-1,-1,-1,16,18,20,22,-1,-1,-1,-1,-1,-1,-1,-1],"split_conditions":[4E0,3E0,2E1,5E0,2E0,7E0,4E0,-1.0741613E0,-8.4041995E-1,-2.4273062E-1,-8.336267E-1,5E0,1.9E1,2.2E1,2.2E1,2.5972056E-1,-6.651009E-1,3.7296087E-1,-9.543609E-4,-4.4197342E-1,-9.472157E-1,-4.327662E-2,-4.3236357E-1],"split_indices":[1,1,1,0,0,1,0,0,0,0,0,0,1,1,1,0,0,0,0,0,0,0,0],"split_type":[0,0,0,0,0,0,0,0,0,0,0,0,0,0,0,0,0,0,0,0,0,0,0],"sum_hessian":[4.985E3,5.63E2,4.422E3,4.93E2,7E1,3.364E3,1.058E3,2.69E2,2.24E2,2.3E1,4.7E1,4.7E2,2.894E3,3.77E2,6.81E2,2.74E2,1.96E2,2.624E3,2.7E2,2.17E2,1.6E2,3.83E2,2.98E2],"tree_param":{"num_deleted":"0","num_feature":"2","num_nodes":"23","size_leaf_vector":"1"}},{"base_weights":[-1.9598468E-3,-8.382287E0,1.0666602E0,-8.732747E0,-5.825815E0,2.4583726E0,-3.3565497E0,-9.67143E-1,-7.567515E-1,-2.1946888E-1,-7.5200075E-1,-2.6763698E-1,3.2443423E0,-5.9287205E0,-1.9259969E0,3.167419E-1,-4.6434236E-1,3.8339767E-1,9.6416555E-2,-3.9797878E-1,-8.5308236E-1,-9.352094E-2,-5.288641E-1],"categories":[],"categories_nodes":[],"categories_segments":[],"categories_sizes":[],"default_left":[0,0,0,0,0,0,0,0,0,0,0,0,0,0,0,0,0,0,0,0,0,0,0],"id":2,"left_children":[1,3,5,7,9,11,13,-1,-1,-1,-1,15,17,19,21,-1,-1,-1,-1,-1,-1,-1,-1],"loss_changes":[4.466049E4,4.544375E2,2.7235518E4,4.6714062E2,4.202754E2,7.210586E3,3.8853057E3,0E0,0E0,0E0,0E0,1.1348136E4,3.5080605E3,1.8830088E3,2.2672498E3,0E0,0E0,0E0,0E0,0E0,0E0,0E0,0E0],"parents":[2147483647,0,0,1,1,2,2,3,3,4,4,5,5,6,6,11,11,12,12,13,13,14,14],"right_children":[2,4,6,8,10,12,14,-1,-1,-1,-1,16,18,20,22,-1,-1,-1,-1,-1,-1,-1,-1],"split_conditions":[4E0,3E0,2E1,5E0,2E0,9E0,4E0,-9.67143E-1,-7.567515E-1,-2.1946888E-1,-7.5200075E-1,5E0,1.8E1,2.2E1,7E0,3.167419E-1,-4.6434236E-1,3.8339767E-1,9.6416555E-2,-3.9797878E-1,-8.5308236E-1,-9.352094E-2,-5.288641E-1],"split_indices":[1,1,1,0,0,1,0,0,0,0,0,0,1,1,0,0,0,0,0,0,0,0,0],"split_type":[0,0,0,0,0,0,0,0,0,0,0,0,0,0,0,0,0,0,0,0,0,0,0],"sum_hessian":[4.985E3,5.63E2,4.422E3,4.93E2,7E1,3.364E3,1.058E3,2.69E2,2.24E2,2.3E1,4.7E1,7.53E2,2.611E3,3.77E2,6.81E2,4.22E2,3.31E2,2.074E3,5.37E2,2.17E2,1.6E2,5.27E2,1.54E2],"tree_param":{"num_deleted":"0","num_feature":"2","num_nodes":"23","size_leaf_vector":"1"}},{"base_weights":[-2.613865E-3,-7.548837E0,9.596454E-1,-7.862962E0,-5.256916E0,2.2126336E0,-3.0226638E0,-8.7078685E-1,-6.814127E0,-1.9843644E-1,-6.783673E-1,-1.880781E0,2.6613295E0,-1.4254756E0,-5.107386E0,-6.0781884E-1,-7.087733E-1,1.062214E-1,-6.370207E-1,3.8507697E-1,1.632451E-1,-3.5836348E-1,-1.9655852E-2,-7.68304E-1,-3.703414E-1],"categories":[],"categories_nodes":[],"categories_segments":[],"categories_sizes":[],"default_left":[0,0,0,0,0,0,0,0,0,0,0,0,0,0,0,0,0,0,0,0,0,0,0,0,0],"id":3,"left_children":[1,3,5,7,9,11,13,-1,15,-1,-1,17,19,21,23,-1,-1,-1,-1,-1,-1,-1,-1,-1,-1],"loss_changes":[3.62127E4,3.647168E2,2.2076516E4,3.7843164E2,3.412826E2,6.185494E3,3.5188652E3,0E0,2.2246094E0,0E0,0E0,4.4064814E3,3.7054688E3,1.593267E3,1.6313574E3,0E0,0E0,0E0,0E0,0E0,0E0,0E0,0E0,0E0,0E0],"parents":[2147483647,0,0,1,1,2,2,3,3,4,4,5,5,6,6,8,8,11,11,12,12,13,13,14,14],"right_children":[2,4,6,8,10,12,14,-1,16,-1,-1,18,20,22,24,-1,-1,-1,-1,-1,-1,-1,-1,-1,-1],"split_conditions":[4E0,3E0,2E1,5E0,2E0,6E0,2.2E1,-8.7078685E-1,1E0,-1.9843644E-1,-6.783673E-1,5E0,5E0,4E0,4E0,-6.0781884E-1,-7.087733E-1,1.062214E-1,-6.370207E-1,3.8507697E-1,1.632451E-1,-3.5836348E-1,-1.9655852E-2,-7.68304E-1,-3.703414E-1],"split_indices":[1,1,1,0,0,1,1,0,1,0,0,0,0,0,0,0,0,0,0,0,0,0,0,0,0],"split_type":[0,0,0,0,0,0,0,0,0,0,0,0,0,0,0,0,0,0,0,0,0,0,0,0,0],"sum_hessian":[4.985E3,5.63E2,4.422E3,4.93E2,7E1,3.364E3,1.058E3,2.69E2,2.24E2,2.3E1,4.7E1,3.32E2,3.032E3,6E2,4.58E2,6.7E1,1.57E2,2.01E2,1.31E2,1.405E3,1.627E3,2.17E2,3.83E2,1.6E2,2.98E2],"tree_param":{"num_deleted":"0","num_feature":"2","num_nodes":"25","size_leaf_vector":"1"}},{"base_weights":[-3.2675185E-3,-6.7993865E0,8.633421E-1,-7.0810933E0,-4.7435737E0,2.1981072E0,-2.2457337E0,-7.840307E-1,-6.138566E0,-1.7941958E-1,-6.1194384E-1,-3.148778E-1,3.006217E0,-1.0029625E0,-4.5991282E0,-5.479309E-1,-6.383445E-1,2.5997657E-1,-4.027466E-1,3.9406642E-1,2.2437477E-1,-2.9191145E-1,2.9540837E-3,-6.9195074E-1,-3.3343112E-1],"categories":[],"categories_nodes":[],"categories_segments":[],"categories_sizes":[],"default_left":[0,0,0,0,0,0,0,0,0,0,0,0,0,0,0,0,0,0,0,0,0,0,0,0,0],"id":4,"left_children":[1,3,5,7,9,11,13,-1,15,-1,-1,17,19,21,23,-1,-1,-1,-1,-1,-1,-1,-1,-1,-1],"loss_changes":[2.9371326E4,2.9304297E2,1.8359885E4,3.0536914E2,2.7713452E2,6.28617E3,3.882354E3,0E0,1.3466797E0,0E0,0E0,8.1694062E3,1.6598047E3,1.7233018E3,1.3240273E3,0E0,0E0,0E0,0E0,0E0,0E0,0E0,0E0,0E0,0E0],"parents":[2147483647,0,0,1,1,2,2,3,3,4,4,5,5,6,6,8,8,11,11,12,12,13,13,14,14],"right_children":[2,4,6,8,10,12,14,-1,16,-1,-1,18,20,22,24,-1,-1,-1,-1,-1,-1,-1,-1,-1,-1],"split_conditions":[4E0,3E0,1.9E1,5E0,2E0,9E0,2.2E1,-7.840307E-1,1E0,-1.7941958E-1,-6.1194384E-1,5E0,5E0,4E0,4E0,-5.479309E-1,-6.383445E-1,2.5997657E-1,-4.027466E-1,3.9406642E-1,2.2437477E-1,-2.9191145E-1,2.9540837E-3,-6.9195074E-1,-3.3343112E-1],"split_indices":[1,1,1,0,0,1,1,0,1,0,0,0,0,0,0,0,0,0,0,0,0,0,0,0,0],"split_type":[0,0,0,0,0,0,0,0,0,0,0,0,0,0,0,0,0,0,0,0,0,0,0,0,0],"sum_hessian":[4.985E3,5.63E2,4.422E3,4.93E2,7E1,3.094E3,1.328E3,2.69E2,2.24E2,2.3E1,4.7E1,7.53E2,2.341E3,8.7E2,4.58E2,6.7E1,1.57E2,4.22E2,3.31E2,1.05E3,1.291E3,3.04E2,5.66E2,1.6E2,2.98E2],"tree_param":{"num_deleted":"0","num_feature":"2","num_nodes":"25","size_leaf_vector":"1"}},{"base_weights":[-3.662999E-3,-6.1243443E0,7.768181E-1,-6.3769727E0,-4.280362E0,1.9784501E0,-2.0221496E0,-7.05918E-1,-5.5299816E0,-1.6222522E-1,-5.520243E-1,-1.0647868E0,2.52374E0,-9.029983E-1,-4.141449E0,-4.9394354E-1,-5.749141E-1,1.5839496E-1,-4.7568566E-1,3.5715365E-1,1.6415875E-1,-2.6281604E-1,2.6591609E-3,-6.231855E-1,-3.001995E-1],"categories":[],"categories_nodes":[],"categories_segments":[],"categories_sizes":[],"default_left":[0,0,0,0,0,0,0,0,0,0,0,0,0,0,0,0,0,0,0,0,0,0,0,0,0],"id":5,"left_children":[1,3,5,7,9,11,13,-1,15,-1,-1,17,19,21,23,-1,-1,-1,-1,-1,-1,-1,-1,-1,-1],"loss_changes":[2.3823258E4,2.3543945E2,1.4880006E4,2.4640625E2,2.2504236E2,5.138673E3,3.1484048E3,0E0,7.2265625E-1,0E0,0E0,4.6135938E3,2.4204688E3,1.396887E3,1.0745938E3,0E0,0E0,0E0,0E0,0E0,0E0,0E0,0E0,0E0,0E0],"parents":[2147483647,0,0,1,1,2,2,3,3,4,4,5,5,6,6,8,8,11,11,12,12,13,13,14,14],"right_children":[2,4,6,8,10,12,14,-1,16,-1,-1,18,20,22,24,-1,-1,-1,-1,-1,-1,-1,-1,-1,-1],"split_conditions":[4E0,3E0,1.9E1,5E0,2E0,7E0,2.2E1,-7.05918E-1,1E0,-1.6222522E-1,-5.520243E-1,5E0,5E0,4E0,4E0,-4.9394354E-1,-5.749141E-1,1.5839496E-1,-4.7568566E-1,3.5715365E-1,1.6415875E-1,-2.6281604E-1,2.6591609E-3,-6.231855E-1,-3.001995E-1],"split_indices":[1,1,1,0,0,1,1,0,1,0,0,0,0,0,0,0,0,0,0,0,0,0,0,0,0],"split_type":[0,0,0,0,0,0,0,0,0,0,0,0,0,0,0,0,0,0,0,0,0,0,0,0,0],"sum_hessian":[4.985E3,5.63E2,4.422E3,4.93E2,7E1,3.094E3,1.328E3,2.69E2,2.24E2,2.3E1,4.7E1,4.7E2,2.624E3,8.7E2,4.58E2,6.7E1,1.57E2,2.74E2,1.96E2,1.198E3,1.426E3,3.04E2,5.66E2,1.6E2,2.98E2],"tree_param":{"num_deleted":"0","num_feature":"2","num_nodes":"25","size_leaf_vector":"1"}},{"base_weights":[-3.9921557E-3,-5.516323E0,6.9891506E-1,-5.742868E0,-3.862386E0,1.4754965E0,-2.8742447E0,-6.355876E0,-4.981734E0,-1.4667867E-1,-4.9797192E-1,-1.6012574E0,1.7853341E0,-4.8964744E0,-1.8088869E0,-6.558318E-1,-5.601792E-1,-4.452756E-1,-5.1778656E-1,5.4021873E-2,-4.8662344E-1,2.3126613E-1,1.52132455E-2,-3.823411E-1,-5.61254E-1,-8.966338E-2,-5.1926583E-1],"categories":[],"categories_nodes":[],"categories_segments":[],"categories_sizes":[],"default_left":[0,0,0,0,0,0,0,0,0,0,0,0,0,0,0,0,0,0,0,0,0,0,0,0,0,0,0],"id":6,"left_children":[1,3,5,7,9,11,13,15,17,-1,-1,19,21,23,25,-1,-1,-1,-1,-1,-1,-1,-1,-1,-1,-1,-1],"loss_changes":[1.9322893E4,1.8914648E2,1.2277401E4,1.988291E2,1.8274036E2,3.4671294E3,1.6931177E3,4.479492E0,2.8808594E-1,0E0,0E0,2.3309216E3,2.8434336E3,1.875415E2,1.597422E3,0E0,0E0,0E0,0E0,0E0,0E0,0E0,0E0,0E0,0E0,0E0,0E0],"parents":[2147483647,0,0,1,1,2,2,3,3,4,4,5,5,6,6,7,7,8,8,11,11,12,12,13,13,14,14],"right_children":[2,4,6,8,10,12,14,16,18,-1,-1,20,22,24,26,-1,-1,-1,-1,-1,-1,-1,-1,-1,-1,-1,-1],"split_conditions":[4E0,3E0,2.1E1,5E0,2E0,6E0,4E0,2E0,1E0,-1.4667867E-1,-4.9797192E-1,5E0,1.8E1,2.2E1,7E0,-6.558318E-1,-5.601792E-1,-4.452756E-1,-5.1778656E-1,5.4021873E-2,-4.8662344E-1,2.3126613E-1,1.52132455E-2,-3.823411E-1,-5.61254E-1,-8.966338E-2,-5.1926583E-1],"split_indices":[1,1,1,0,0,1,0,1,1,0,0,0,1,1,0,0,0,0,0,0,0,0,0,0,0,0,0],"split_type":[0,0,0,0,0,0,0,0,0,0,0,0,0,0,0,0,0,0,0,0,0,0,0,0,0,0,0],"sum_hessian":[4.985E3,5.63E2,4.422E3,4.93E2,7E1,3.633E3,7.89E2,2.69E2,2.24E2,2.3E1,4.7E1,3.32E2,3.301E3,2.71E2,5.18E2,2.06E2,6.3E1,6.7E1,1.57E2,2.01E2,1.31E2,2.495E3,8.06E2,1.11E2,1.6E2,4.09E2,1.09E2],"tree_param":{"num_deleted":"0","num_feature":"2","num_nodes":"27","size_leaf_vector":"1"}},{"base_weights":[-4.507897E-3,-4.969697E0,6.286305E-1,-5.1729918E0,-3.485227E0,1.3278958E0,-2.5887854E0,-5.724792E0,-4.4878407E0,-1.3262194E-1,-4.4921222E-1,1.7771286E0,-6.1919004E-1,-4.410296E0,-1.6291713E0,-5.9056544E-1,-5.0503653E-1,-3.8683268E-1,-4.6254346E-1,2.0856062E-1,-6.2675797E-3,-4.838519E-1,3.8325798E-2,-3.444483E-1,-5.054773E-1,-8.07189E-2,-4.6781126E-1],"categories":[],"categories_nodes":[],"categories_segments":[],"categories_sizes":[],"default_left":[0,0,0,0,0,0,0,0,0,0,0,0,0,0,0,0,0,0,0,0,0,0,0,0,0,0,0],"id":7,"left_children":[1,3,5,7,9,11,13,15,17,-1,-1,19,21,23,25,-1,-1,-1,-1,-1,-1,-1,-1,-1,-1,-1,-1],"loss_changes":[1.5677374E4,1.5217773E2,9.954422E3,1.6107324E2,1.4838898E2,3.1797427E3,1.3736938E3,3.1083984E0,1.2866211E0,0E0,0E0,1.6760723E3,2.8864812E3,1.5189355E2,1.2969292E3,0E0,0E0,0E0,0E0,0E0,0E0,0E0,0E0,0E0,0E0,0E0,0E0],"parents":[2147483647,0,0,1,1,2,2,3,3,4,4,5,5,6,6,7,7,8,8,11,11,12,12,13,13,14,14],"right_children":[2,4,6,8,10,12,14,16,18,-1,-1,20,22,24,26,-1,-1,-1,-1,-1,-1,-1,-1,-1,-1,-1,-1],"split_conditions":[4E0,3E0,2.1E1,5E0,2E0,7E0,4E0,2E0,6E0,-1.3262194E-1,-4.4921222E-1,1.9E1,9E0,2.2E1,7E0,-5.9056544E-1,-5.0503653E-1,-3.8683268E-1,-4.6254346E-1,2.0856062E-1,-6.2675797E-3,-4.838519E-1,3.8325798E-2,-3.444483E-1,-5.054773E-1,-8.07189E-2,-4.6781126E-1],"split_indices":[1,1,1,0,0,0,0,1,0,0,0,1,1,1,0,0,0,0,0,0,0,0,0,0,0,0,0],"split_type":[0,0,0,0,0,0,0,0,0,0,0,0,0,0,0,0,0,0,0,0,0,0,0,0,0,0,0],"sum_hessian":[4.985E3,5.63E2,4.422E3,4.93E2,7E1,3.633E3,7.89E2,2.69E2,2.24E2,2.3E1,4.7E1,2.952E3,6.81E2,2.71E2,5.18E2,2.06E2,6.3E1,4.6E1,1.78E2,2.528E3,4.24E2,1.3E2,5.51E2,1.11E2,1.6E2,4.09E2,1.09E2],"tree_param":{"num_deleted":"0","num_feature":"2","num_nodes":"27","size_leaf_vector":"1"}},{"base_weights":[-4.8933667E-3,-4.4772077E0,5.653961E-1,-4.6596303E0,-3.1448994E0,1.4545863E0,-1.5057921E0,-5.156371E0,-4.0428314E0,-1.1991235E-1,-4.0522685E0,-4.648691E-1,2.0719283E0,-6.4844376E-1,-3.1294188E0,-5.3179425E-1,-4.5532203E-1,-3.5827824E-1,-4.2152402E-1,-3.3561212E-1,-4.5584798E-1,1.7582761E-1,-3.2959703E-1,2.7774745E-1,1.4963858E-1,-2.1073627E-1,1.3747998E-2,-4.552435E-1,-2.3527132E-1],"categories":[],"categories_nodes":[],"categories_segments":[],"categories_sizes":[],"default_left":[0,0,0,0,0,0,0,0,0,0,0,0,0,0,0,0,0,0,0,0,0,0,0,0,0,0,0,0,0],"id":8,"left_children":[1,3,5,7,9,11,13,15,17,-1,19,21,23,25,27,-1,-1,-1,-1,-1,-1,-1,-1,-1,-1,-1,-1,-1,-1],"loss_changes":[1.2719393E4,1.22421875E2,8.1479424E3,1.3050977E2,1.2049396E2,3.668415E3,1.8479568E3,2.0986328E0,2.7436523E0,0E0,1.616272E0,4.751432E3,9.4686426E2,9.9897754E2,4.9660596E2,0E0,0E0,0E0,0E0,0E0,0E0,0E0,0E0,0E0,0E0,0E0,0E0,0E0,0E0],"parents":[2147483647,0,0,1,1,2,2,3,3,4,4,5,5,6,6,7,7,8,8,10,10,11,11,12,12,13,13,14,14],"right_children":[2,4,6,8,10,12,14,16,18,-1,20,22,24,26,28,-1,-1,-1,-1,-1,-1,-1,-1,-1,-1,-1,-1,-1,-1],"split_conditions":[4E0,3E0,1.9E1,5E0,2E0,9E0,2.2E1,2E0,1E0,-1.1991235E-1,7E0,5E0,5E0,4E0,4E0,-5.3179425E-1,-4.5532203E-1,-3.5827824E-1,-4.2152402E-1,-3.3561212E-1,-4.5584798E-1,1.7582761E-1,-3.2959703E-1,2.7774745E-1,1.4963858E-1,-2.1073627E-1,1.3747998E-2,-4.552435E-1,-2.3527132E-1],"split_indices":[1,1,1,0,0,1,1,1,1,0,0,0,0,0,0,0,0,0,0,0,0,0,0,0,0,0,0,0,0],"split_type":[0,0,0,0,0,0,0,0,0,0,0,0,0,0,0,0,0,0,0,0,0,0,0,0,0,0,0,0,0],"sum_hessian":[4.985E3,5.63E2,4.422E3,4.93E2,7E1,3.094E3,1.328E3,2.69E2,2.24E2,2.3E1,4.7E1,7.53E2,2.341E3,8.7E2,4.58E2,2.06E2,6.3E1,6.7E1,1.57E2,2.3E1,2.4E1,4.22E2,3.31E2,1.05E3,1.291E3,3.04E2,5.66E2,1.6E2,2.98E2],"tree_param":{"num_deleted":"0","num_feature":"2","num_nodes":"29","size_leaf_vector":"1"}},{"base_weights":[-5.0643412E-3,-3.0945652E0,6.7159116E-1,-4.034236E0,-1.4937578E0,1.64656E0,-1.3558807E0,-4.197244E0,-2.8432457E0,1.039782E-1,-3.9274619E0,2.5755017E0,8.534899E-1,-5.8382565E-1,-2.8179812E0,-4.64439E-1,-3.6420143E-1,-1.0842078E-1,-3.6635306E-1,-8.8591956E-2,1.2507322E-1,-3.4772724E-1,-4.338007E-1,2.0170839E-1,4.3938977E-1,-3.1600112E-1,1.2486007E-1,-1.8973175E-1,1.2375606E-2,-4.4847092E-1,-2.2670929E-1],"categories":[],"categories_nodes":[],"categories_segments":[],"categories_sizes":[],"default_left":[0,0,0,0,0,0,0,0,0,0,0,0,0,0,0,0,0,0,0,0,0,0,0,0,0,0,0,0,0,0,0],"id":9,"left_children":[1,3,5,7,9,11,13,15,17,19,21,23,25,27,29,-1,-1,-1,-1,-1,-1,-1,-1,-1,-1,-1,-1,-1,-1,-1,-1],"loss_changes":[1.042545E4,1.3417656E3,8.0890005E3,9.75625E1,1.2952513E3,2.0333477E3,1.4985593E3,1.0572949E2,9.847473E1,2.3041223E2,9.312012E0,1.2827578E3,2.369926E3,8.097445E2,4.112776E2,0E0,0E0,0E0,0E0,0E0,0E0,0E0,0E0,0E0,0E0,0E0,0E0,0E0,0E0,0E0,0E0],"parents":[2147483647,0,0,1,1,2,2,3,3,4,4,5,5,6,6,7,7,8,8,9,9,10,10,11,11,12,12,13,13,14,14],"right_children":[2,4,6,8,10,12,14,16,18,20,22,24,26,28,30,-1,-1,-1,-1,-1,-1,-1,-1,-1,-1,-1,-1,-1,-1,-1,-1],"split_conditions":[6E0,4E0,1.9E1,3E0,5E0,5E0,2.2E1,5E0,2E0,3E0,7E0,4E0,8E0,4E0,3E0,-4.64439E-1,-3.6420143E-1,-1.0842078E-1,-3.6635306E-1,-8.8591956E-2,1.2507322E-1,-3.4772724E-1,-4.338007E-1,2.0170839E-1,4.3938977E-1,-3.1600112E-1,1.2486007E-1,-1.8973175E-1,1.2375606E-2,-4.4847092E-1,-2.2670929E-1],"split_indices":[1,1,1,1,0,0,1,0,0,0,0,0,1,0,0,0,0,0,0,0,0,0,0,0,0,0,0,0,0,0,0],"split_type":[0,0,0,0,0,0,0,0,0,0,0,0,0,0,0,0,0,0,0,0,0,0,0,0,0,0,0,0,0,0,0],"sum_hessian":[4.985E3,8.95E2,4.09E3,5.63E2,3.32E2,2.762E3,1.328E3,4.93E2,7E1,2.01E2,1.31E2,1.271E3,1.491E3,8.7E2,4.58E2,2.69E2,2.24E2,2.3E1,4.7E1,1.08E2,9.3E1,6.7E1,6.4E1,9.74E2,2.97E2,1.33E2,1.358E3,3.04E2,5.66E2,1.12E2,3.46E2],"tree_param":{"num_deleted":"0","num_feature":"2","num_nodes":"31","size_leaf_vector":"1"}},{"base_weights":[-5.04955E-3,-2.787395E0,6.043336E-1,-3.6331232E0,-1.3466197E0,1.4820668E0,-1.2209343E0,-3.779197E0,-2.5656083E0,9.3760796E-2,-3.5406365E0,2.3184557E0,7.680125E-1,-5.256469E-1,-2.537654E0,-4.181671E-1,-3.2794315E-1,-9.803049E-2,-3.3048102E-1,-7.981407E-2,1.1269895E-1,-3.1346592E-1,-3.9108804E-1,1.8155828E-1,3.955982E-1,-2.1546161E-1,1.2220996E-1,-1.7082079E-1,1.1140202E-2,-3.720449E-1,-1.8922774E-1],"categories":[],"categories_nodes":[],"categories_segments":[],"categories_sizes":[],"default_left":[0,0,0,0,0,0,0,0,0,0,0,0,0,0,0,0,0,0,0,0,0,0,0,0,0,0,0,0,0,0,0],"id":10,"left_children":[1,3,5,7,9,11,13,15,17,19,21,23,25,27,29,-1,-1,-1,-1,-1,-1,-1,-1,-1,-1,-1,-1,-1,-1,-1,-1],"loss_changes":[8.45552E3,1.0868872E3,6.5559927E3,7.825195E1,1.0526849E3,1.6483579E3,1.2153636E3,8.565137E1,7.996228E1,1.870502E2,7.581665E0,1.0402686E3,1.9827073E3,6.5635736E2,3.4333667E2,0E0,0E0,0E0,0E0,0E0,0E0,0E0,0E0,0E0,0E0,0E0,0E0,0E0,0E0,0E0,0E0],"parents":[2147483647,0,0,1,1,2,2,3,3,4,4,5,5,6,6,7,7,8,8,9,9,10,10,11,11,12,12,13,13,14,14],"right_children":[2,4,6,8,10,12,14,16,18,20,22,24,26,28,30,-1,-1,-1,-1,-1,-1,-1,-1,-1,-1,-1,-1,-1,-1,-1,-1],"split_conditions":[6E0,4E0,1.9E1,3E0,5E0,5E0,2.2E1,5E0,2E0,3E0,7E0,4E0,9E0,4E0,4E0,-4.181671E-1,-3.2794315E-1,-9.803049E-2,-3.3048102E-1,-7.981407E-2,1.1269895E-1,-3.1346592E-1,-3.9108804E-1,1.8155828E-1,3.955982E-1,-2.1546161E-1,1.2220996E-1,-1.7082079E-1,1.1140202E-2,-3.720449E-1,-1.8922774E-1],"split_indices":[1,1,1,1,0,0,1,0,0,0,0,0,1,0,0,0,0,0,0,0,0,0,0,0,0,0,0,0,0,0,0],"split_type":[0,0,0,0,0,0,0,0,0,0,0,0,0,0,0,0,0,0,0,0,0,0,0,0,0,0,0,0,0,0,0],"sum_hessian":[4.985E3,8.95E2,4.09E3,5.63E2,3.32E2,2.762E3,1.328E3,4.93E2,7E1,2.01E2,1.31E2,1.271E3,1.491E3,8.7E2,4.58E2,2.69E2,2.24E2,2.3E1,4.7E1,1.08E2,9.3E1,6.7E1,6.4E1,9.74E2,2.97E2,2E2,1.291E3,3.04E2,5.66E2,1.6E2,2.98E2],"tree_param":{"num_deleted":"0","num_feature":"2","num_nodes":"31","size_leaf_vector":"1"}},{"base_weights":[-4.96231E-3,-2.510716E0,5.4384243E-1,-3.2718935E0,-1.2139746E0,1.3340353E0,-1.099383E0,-3.4027874E0,-2.315083E0,8.454754E-2,-3.1919103E0,2.0870638E0,6.911489E-1,-4.7326517E-1,-2.2851112E0,-3.7650532E-1,-2.9529455E-1,-8.8635944E-2,-2.981214E-1,-1.18918054E-1,7.114243E-2,-2.825803E-1,-3.5258088E-1,1.6342103E-1,3.5617122E-1,-2.6325145E-1,1.0183599E-1,-2.596443E-1,-1.6295506E-2,-1.9141078E-1,-4.4271895E-1],"categories":[],"categories_nodes":[],"categories_segments":[],"categories_sizes":[],"default_left":[0,0,0,0,0,0,0,0,0,0,0,0,0,0,0,0,0,0,0,0,0,0,0,0,0,0,0,0,0,0,0],"id":11,"left_children":[1,3,5,7,9,11,13,15,17,19,21,23,25,27,29,-1,-1,-1,-1,-1,-1,-1,-1,-1,-1,-1,-1,-1,-1,-1,-1],"loss_changes":[6.857961E3,8.804248E2,5.3134863E3,6.27583E1,8.555448E2,1.3361587E3,9.8557556E2,6.9385254E1,6.4929504E1,1.6213705E2,6.1727295E0,8.436206E2,1.6252893E3,5.734297E2,3.563015E2,0E0,0E0,0E0,0E0,0E0,0E0,0E0,0E0,0E0,0E0,0E0,0E0,0E0,0E0,0E0,0E0],"parents":[2147483647,0,0,1,1,2,2,3,3,4,4,5,5,6,6,7,7,8,8,9,9,10,10,11,11,12,12,13,13,14,14],"right_children":[2,4,6,8,10,12,14,16,18,20,22,24,26,28,30,-1,-1,-1,-1,-1,-1,-1,-1,-1,-1,-1,-1,-1,-1,-1,-1],"split_conditions":[6E0,4E0,1.9E1,3E0,5E0,5E0,2.2E1,5E0,2E0,2E0,7E0,4E0,8E0,2E0,7E0,-3.7650532E-1,-2.9529455E-1,-8.8635944E-2,-2.981214E-1,-1.18918054E-1,7.114243E-2,-2.825803E-1,-3.5258088E-1,1.6342103E-1,3.5617122E-1,-2.6325145E-1,1.0183599E-1,-2.596443E-1,-1.6295506E-2,-1.9141078E-1,-4.4271895E-1],"split_indices":[1,1,1,1,0,0,1,0,0,0,0,0,1,0,0,0,0,0,0,0,0,0,0,0,0,0,0,0,0,0,0],"split_type":[0,0,0,0,0,0,0,0,0,0,0,0,0,0,0,0,0,0,0,0,0,0,0,0,0,0,0,0,0,0,0],"sum_hessian":[4.985E3,8.95E2,4.09E3,5.63E2,3.32E2,2.762E3,1.328E3,4.93E2,7E1,2.01E2,1.31E2,1.271E3,1.491E3,8.7E2,4.58E2,2.69E2,2.24E2,2.3E1,4.7E1,6.6E1,1.35E2,6.7E1,6.4E1,9.74E2,2.97E2,1.33E2,1.358E3,1.1E2,7.6E2,3.92E2,6.6E1],"tree_param":{"num_deleted":"0","num_feature":"2","num_nodes":"31","size_leaf_vector":"1"}},{"base_weights":[-4.92595E-3,-2.2615879E0,4.8932338E-1,-2.946581E0,-1.0946279E0,1.3230124E0,-8.147976E-1,-3.0638685E0,-2.0890217E0,7.585651E-2,-2.8775308E0,8.2890433E-1,2.423296E0,-2.0253737E0,-1.7985377E-1,-3.389942E-1,-2.6589632E-1,-8.014162E-2,-2.6893035E-1,-6.7446604E-2,9.4510436E-2,-2.5473782E-1,-3.178652E-1,1.1677106E-1,-6.902885E-2,3.4811944E-1,1.507068E-1,-1.1932194E-1,-2.868438E-1,5.4299034E-2,-2.2237383E-1],"categories":[],"categories_nodes":[],"categories_segments":[],"categories_sizes":[],"default_left":[0,0,0,0,0,0,0,0,0,0,0,0,0,0,0,0,0,0,0,0,0,0,0,0,0,0,0,0,0,0,0],"id":12,"left_children":[1,3,5,7,9,11,13,15,17,19,21,23,25,27,29,-1,-1,-1,-1,-1,-1,-1,-1,-1,-1,-1,-1,-1,-1,-1,-1],"loss_changes":[5.5622593E3,7.130005E2,4.4489414E3,5.032715E1,6.951427E2,1.3549639E3,1.2263976E3,5.6208984E1,5.2722504E1,1.3238512E2,5.025635E0,8.881698E2,7.440039E2,3.8173364E2,1.5495328E3,0E0,0E0,0E0,0E0,0E0,0E0,0E0,0E0,0E0,0E0,0E0,0E0,0E0,0E0,0E0,0E0],"parents":[2147483647,0,0,1,1,2,2,3,3,4,4,5,5,6,6,7,7,8,8,9,9,10,10,11,11,12,12,13,13,14,14],"right_children":[2,4,6,8,10,12,14,16,18,20,22,24,26,28,30,-1,-1,-1,-1,-1,-1,-1,-1,-1,-1,-1,-1,-1,-1,-1,-1],"split_conditions":[6E0,4E0,1.8E1,3E0,5E0,1.5E1,4E0,5E0,2E0,3E0,7E0,7E0,5E0,2.1E1,7E0,-3.389942E-1,-2.6589632E-1,-8.014162E-2,-2.6893035E-1,-6.7446604E-2,9.4510436E-2,-2.5473782E-1,-3.178652E-1,1.1677106E-1,-6.902885E-2,3.4811944E-1,1.507068E-1,-1.1932194E-1,-2.868438E-1,5.4299034E-2,-2.2237383E-1],"split_indices":[1,1,1,1,0,1,0,0,0,0,0,0,0,1,0,0,0,0,0,0,0,0,0,0,0,0,0,0,0,0,0],"split_type":[0,0,0,0,0,0,0,0,0,0,0,0,0,0,0,0,0,0,0,0,0,0,0,0,0,0,0,0,0,0,0],"sum_hessian":[4.985E3,8.95E2,4.09E3,5.63E2,3.32E2,2.495E3,1.595E3,4.93E2,7E1,2.01E2,1.31E2,1.723E3,7.72E2,5.48E2,1.047E3,2.69E2,2.24E2,2.3E1,4.7E1,1.08E2,9.3E1,6.7E1,6.4E1,1.409E3,3.14E2,3.57E2,4.15E2,2.77E2,2.71E2,7.74E2,2.73E2],"tree_param":{"num_deleted":"0","num_feature":"2","num_nodes":"31","size_leaf_vector":"1"}},{"base_weights":[-4.7398848E-3,-2.0371025E0,4.4038397E-1,-2.6536143E0,-9.8680305E-1,9.0869814E-1,-1.5176082E0,-2.7587063E0,-1.8850359E0,6.8405166E-2,-2.5941155E0,1.1930212E0,-3.2805932E-1,-2.5826488E0,-9.5651263E-1,-3.0522037E-1,-2.3942487E-1,-7.2461344E-2,-2.4259757E-1,-1.00559704E-1,5.970062E-2,-2.2963862E-1,-2.8656766E-1,1.4658687E-1,3.2424953E-2,-3.0752984E-1,5.9861E-4,-3.0115613E-1,-2.2588836E-1,-3.130865E-2,-3.346042E-1],"categories":[],"categories_nodes":[],"categories_segments":[],"categories_sizes":[],"default_left":[0,0,0,0,0,0,0,0,0,0,0,0,0,0,0,0,0,0,0,0,0,0,0,0,0,0,0,0,0,0,0],"id":13,"left_children":[1,3,5,7,9,11,13,15,17,19,21,23,25,27,29,-1,-1,-1,-1,-1,-1,-1,-1,-1,-1,-1,-1,-1,-1,-1,-1],"loss_changes":[4.5114976E3,5.7756104E2,3.752644E3,4.0354736E1,5.649619E2,1.1615022E3,4.6962537E2,4.553418E1,4.2810135E1,1.1527952E2,4.091675E0,6.3598267E2,5.671586E2,3.0969116E1,7.9690735E2,0E0,0E0,0E0,0E0,0E0,0E0,0E0,0E0,0E0,0E0,0E0,0E0,0E0,0E0,0E0,0E0],"parents":[2147483647,0,0,1,1,2,2,3,3,4,4,5,5,6,6,7,7,8,8,9,9,10,10,11,11,12,12,13,13,14,14],"right_children":[2,4,6,8,10,12,14,16,18,20,22,24,26,28,30,-1,-1,-1,-1,-1,-1,-1,-1,-1,-1,-1,-1,-1,-1,-1,-1],"split_conditions":[6E0,4E0,2.1E1,3E0,5E0,7E0,4E0,5E0,2E0,2E0,7E0,1.8E1,9E0,2E0,7E0,-3.0522037E-1,-2.3942487E-1,-7.2461344E-2,-2.4259757E-1,-1.00559704E-1,5.970062E-2,-2.2963862E-1,-2.8656766E-1,1.4658687E-1,3.2424953E-2,-3.0752984E-1,5.9861E-4,-3.0115613E-1,-2.2588836E-1,-3.130865E-2,-3.346042E-1],"split_indices":[1,1,1,1,0,0,0,0,0,0,0,1,1,0,0,0,0,0,0,0,0,0,0,0,0,0,0,0,0,0,0],"split_type":[0,0,0,0,0,0,0,0,0,0,0,0,0,0,0,0,0,0,0,0,0,0,0,0,0,0,0,0,0,0,0],"sum_hessian":[4.985E3,8.95E2,4.09E3,5.63E2,3.32E2,3.301E3,7.89E2,4.93E2,7E1,2.01E2,1.31E2,2.684E3,6.17E2,2.71E2,5.18E2,2.69E2,2.24E2,2.3E1,4.7E1,6.6E1,1.35E2,6.7E1,6.4E1,2.042E3,6.42E2,6.6E1,5.51E2,1.13E2,1.58E2,4.09E2,1.09E2],"tree_param":{"num_deleted":"0","num_feature":"2","num_nodes":"31","size_leaf_vector":"1"}},{"base_weights":[-4.7549997E-3,-1.8349737E0,3.960958E-1,-2.3897772E0,-8.897958E-1,8.1778926E-1,-1.3669775E0,-2.4839382E0,-1.7009698E0,6.1361898E-2,-2.3386145E0,1.0737854E0,-2.9575035E-1,-1.0259548E0,-2.9429688E0,-2.748114E-1,-2.1558881E-1,-1.1468685E-1,-2.6746416E-1,-5.69753E-2,7.925339E-2,-2.0701244E-1,-2.5835177E-1,1.319353E-1,2.9187504E-2,-2.0907891E-1,1.2762355E-2,-2.2199808E-1,-2.9521316E-2,-2.4079244E-1,-5.560025E-1],"categories":[],"categories_nodes":[],"categories_segments":[],"categories_sizes":[],"default_left":[0,0,0,0,0,0,0,0,0,0,0,0,0,0,0,0,0,0,0,0,0,0,0,0,0,0,0,0,0,0,0],"id":14,"left_children":[1,3,5,7,9,11,13,15,17,19,21,23,25,27,29,-1,-1,-1,-1,-1,-1,-1,-1,-1,-1,-1,-1,-1,-1,-1,-1],"loss_changes":[3.658679E3,4.677251E2,3.0426802E3,3.2355225E1,4.590358E2,9.415918E2,4.2156506E2,3.688672E1,3.523796E1,9.366516E1,3.3313599E0,5.1516675E2,4.6992984E2,5.6735815E2,1.8264575E2,0E0,0E0,0E0,0E0,0E0,0E0,0E0,0E0,0E0,0E0,0E0,0E0,0E0,0E0,0E0,0E0],"parents":[2147483647,0,0,1,1,2,2,3,3,4,4,5,5,6,6,7,7,8,8,9,9,10,10,11,11,12,12,13,13,14,14],"right_children":[2,4,6,8,10,12,14,16,18,20,22,24,26,28,30,-1,-1,-1,-1,-1,-1,-1,-1,-1,-1,-1,-1,-1,-1,-1,-1],"split_conditions":[6E0,4E0,2.1E1,3E0,5E0,7E0,2.3E1,5E0,7E0,3E0,7E0,1.8E1,1E1,4E0,7E0,-2.748114E-1,-2.1558881E-1,-1.1468685E-1,-2.6746416E-1,-5.69753E-2,7.925339E-2,-2.0701244E-1,-2.5835177E-1,1.319353E-1,2.9187504E-2,-2.0907891E-1,1.2762355E-2,-2.2199808E-1,-2.9521316E-2,-2.4079244E-1,-5.560025E-1],"split_indices":[1,1,1,1,0,0,1,0,0,0,0,1,1,0,0,0,0,0,0,0,0,0,0,0,0,0,0,0,0,0,0],"split_type":[0,0,0,0,0,0,0,0,0,0,0,0,0,0,0,0,0,0,0,0,0,0,0,0,0,0,0,0,0,0,0],"sum_hessian":[4.985E3,8.95E2,4.09E3,5.63E2,3.32E2,3.301E3,7.89E2,4.93E2,7E1,2.01E2,1.31E2,2.684E3,6.17E2,6.5E2,1.39E2,2.69E2,2.24E2,4.6E1,2.4E1,1.08E2,9.3E1,6.7E1,6.4E1,2.042E3,6.42E2,1.17E2,5E2,2.46E2,4.04E2,1.17E2,2.2E1],"tree_param":{"num_deleted":"0","num_feature":"2","num_nodes":"31","size_leaf_vector":"1"}},{"base_weights":[-4.760617E-3,-1.6529448E0,3.562215E-1,-2.1523468E0,-8.0214703E-1,9.791895E-1,-6.182675E-1,-2.2365375E0,-1.5362551E0,5.5335682E-2,-2.1082785E0,5.428268E-1,1.9511302E0,-1.617227E0,-9.436763E-2,-2.4743204E-1,-1.9412576E-1,-5.452631E-2,-1.9997458E-1,-8.504137E-2,5.0114352E-2,-2.2042923E-1,-1.5843712E-1,7.7269696E-2,-4.8783906E-2,2.6028085E-1,5.444744E-2,-1.2909077E-1,-2.3956178E-1,1.1307199E-1,-1.0362657E-1],"categories":[],"categories_nodes":[],"categories_segments":[],"categories_sizes":[],"default_left":[0,0,0,0,0,0,0,0,0,0,0,0,0,0,0,0,0,0,0,0,0,0,0,0,0,0,0,0,0,0,0],"id":15,"left_children":[1,3,5,7,9,11,13,15,17,19,21,23,25,27,29,-1,-1,-1,-1,-1,-1,-1,-1,-1,-1,-1,-1,-1,-1,-1,-1],"loss_changes":[2.9670842E3,3.7897485E2,2.484151E3,2.5818115E1,3.7307172E2,1.0575413E3,8.351216E2,2.9881836E1,3.1521027E1,8.199179E1,3.147461E0,4.0882587E2,7.071821E2,1.3635547E2,1.2104668E3,0E0,0E0,0E0,0E0,0E0,0E0,0E0,0E0,0E0,0E0,0E0,0E0,0E0,0E0,0E0,0E0],"parents":[2147483647,0,0,1,1,2,2,3,3,4,4,5,5,6,6,7,7,8,8,9,9,10,10,11,11,12,12,13,13,14,14],"right_children":[2,4,6,8,10,12,14,16,18,20,22,24,26,28,30,-1,-1,-1,-1,-1,-1,-1,-1,-1,-1,-1,-1,-1,-1,-1,-1],"split_conditions":[6E0,4E0,1.8E1,3E0,5E0,1.5E1,4E0,5E0,2E0,2E0,5E0,7E0,1.7E1,2.2E1,6E0,-2.4743204E-1,-1.9412576E-1,-5.452631E-2,-1.9997458E-1,-8.504137E-2,5.0114352E-2,-2.2042923E-1,-1.5843712E-1,7.7269696E-2,-4.8783906E-2,2.6028085E-1,5.444744E-2,-1.2909077E-1,-2.3956178E-1,1.1307199E-1,-1.0362657E-1],"split_indices":[1,1,1,1,0,1,0,0,0,0,1,0,1,1,0,0,0,0,0,0,0,0,0,0,0,0,0,0,0,0,0],"split_type":[0,0,0,0,0,0,0,0,0,0,0,0,0,0,0,0,0,0,0,0,0,0,0,0,0,0,0,0,0,0,0],"sum_hessian":[4.985E3,8.95E2,4.09E3,5.63E2,3.32E2,2.495E3,1.595E3,4.93E2,7E1,2.01E2,1.31E2,1.723E3,7.72E2,5.48E2,1.047E3,2.69E2,2.24E2,2.3E1,4.7E1,6.6E1,1.35E2,1.08E2,2.3E1,1.409E3,3.14E2,5.27E2,2.45E2,3.88E2,1.6E2,4.55E2,5.92E2],"tree_param":{"num_deleted":"0","num_feature":"2","num_nodes":"31","size_leaf_vector":"1"}},{"base_weights":[-4.510584E-3,-1.488889E0,3.2059515E-1,-1.9383463E0,-7.231748E-1,6.746197E-1,-1.1595435E0,-2.0137775E0,-1.3862143E0,4.9629387E-2,-1.9003208E0,8.888188E-1,-2.570945E-1,-8.479971E-1,-2.599952E0,-2.2278047E-1,-1.7479949E-1,-9.1007866E-2,-2.2259004E-1,-7.666419E-2,4.513981E-2,-1.6699366E-1,-2.1121024E-1,1.0734949E-1,3.0066637E-2,-2.5183448E-1,1.7834556E-3,-1.8099347E-1,-2.5924021E-2,-2.1239369E-1,-4.929075E-1],"categories":[],"categories_nodes":[],"categories_segments":[],"categories_sizes":[],"default_left":[0,0,0,0,0,0,0,0,0,0,0,0,0,0,0,0,0,0,0,0,0,0,0,0,0,0,0,0,0,0,0],"id":16,"left_children":[1,3,5,7,9,11,13,15,17,19,21,23,25,27,29,-1,-1,-1,-1,-1,-1,-1,-1,-1,-1,-1,-1,-1,-1,-1,-1],"loss_changes":[2.4066206E3,3.0696167E2,2.1444883E3,2.0697998E1,3.030255E2,6.592168E2,3.523109E2,2.4207031E1,2.6360367E1,6.659241E1,2.9133606E0,2.9131567E2,3.8424524E2,3.6822296E2,1.4474847E2,0E0,0E0,0E0,0E0,0E0,0E0,0E0,0E0,0E0,0E0,0E0,0E0,0E0,0E0,0E0,0E0],"parents":[2147483647,0,0,1,1,2,2,3,3,4,4,5,5,6,6,7,7,8,8,9,9,10,10,11,11,12,12,13,13,14,14],"right_children":[2,4,6,8,10,12,14,16,18,20,22,24,26,28,30,-1,-1,-1,-1,-1,-1,-1,-1,-1,-1,-1,-1,-1,-1,-1,-1],"split_conditions":[6E0,4E0,2.1E1,3E0,5E0,7E0,2.3E1,5E0,7E0,2E0,7E0,1.8E1,9E0,4E0,7E0,-2.2278047E-1,-1.7479949E-1,-9.1007866E-2,-2.2259004E-1,-7.666419E-2,4.513981E-2,-1.6699366E-1,-2.1121024E-1,1.0734949E-1,3.0066637E-2,-2.5183448E-1,1.7834556E-3,-1.8099347E-1,-2.5924021E-2,-2.1239369E-1,-4.929075E-1],"split_indices":[1,1,1,1,0,0,1,0,0,0,0,1,1,0,0,0,0,0,0,0,0,0,0,0,0,0,0,0,0,0,0],"split_type":[0,0,0,0,0,0,0,0,0,0,0,0,0,0,0,0,0,0,0,0,0,0,0,0,0,0,0,0,0,0,0],"sum_hessian":[4.985E3,8.95E2,4.09E3,5.63E2,3.32E2,3.301E3,7.89E2,4.93E2,7E1,2.01E2,1.31E2,2.684E3,6.17E2,6.5E2,1.39E2,2.69E2,2.24E2,4.6E1,2.4E1,6.6E1,1.35E2,6.7E1,6.4E1,2.042E3,6.42E2,6.6E1,5.51E2,2.46E2,4.04E2,1.17E2,2.2E1],"tree_param":{"num_deleted":"0","num_feature":"2","num_nodes":"31","size_leaf_vector":"1"}},{"base_weights":[-4.4898675E-3,-1.341251E0,2.8828514E-1,-1.7457726E0,-6.520877E-1,6.071237E-1,-1.0447441E0,-1.8132045E0,-1.2520096E0,4.4510476E-2,-1.7131538E0,7.999882E-1,-2.3178956E-1,-7.825993E-1,-2.6581614E0,-2.0058493E-1,-1.5739723E-1,-4.0579256E-2,-1.6490346E-1,-4.5209084E-2,6.198832E-2,-1.7944616E-1,-1.2724999E-1,9.661981E-2,2.706464E-2,-2.2702685E-1,1.605442E-3,-1.7265992E-1,-1.5442709E-2,-2.1576479E-1,-4.4575977E-1],"categories":[],"categories_nodes":[],"categories_segments":[],"categories_sizes":[],"default_left":[0,0,0,0,0,0,0,0,0,0,0,0,0,0,0,0,0,0,0,0,0,0,0,0,0,0,0,0,0,0,0],"id":17,"left_children":[1,3,5,7,9,11,13,15,17,19,21,23,25,27,29,-1,-1,-1,-1,-1,-1,-1,-1,-1,-1,-1,-1,-1,-1,-1,-1],"loss_changes":[1.9517588E3,2.4864978E2,1.7393955E3,1.65083E1,2.4620882E2,5.344376E2,3.320495E2,1.9609863E1,2.3184662E1,5.799787E1,2.4459229E0,2.3596973E2,3.122653E2,4.0356268E2,8.945282E1,0E0,0E0,0E0,0E0,0E0,0E0,0E0,0E0,0E0,0E0,0E0,0E0,0E0,0E0,0E0,0E0],"parents":[2147483647,0,0,1,1,2,2,3,3,4,4,5,5,6,6,7,7,8,8,9,9,10,10,11,11,12,12,13,13,14,14],"right_children":[2,4,6,8,10,12,14,16,18,20,22,24,26,28,30,-1,-1,-1,-1,-1,-1,-1,-1,-1,-1,-1,-1,-1,-1,-1,-1],"split_conditions":[6E0,4E0,2.1E1,3E0,5E0,7E0,7E0,5E0,2E0,3E0,5E0,1.8E1,9E0,4E0,2.3E1,-2.0058493E-1,-1.5739723E-1,-4.0579256E-2,-1.6490346E-1,-4.5209084E-2,6.198832E-2,-1.7944616E-1,-1.2724999E-1,9.661981E-2,2.706464E-2,-2.2702685E-1,1.605442E-3,-1.7265992E-1,-1.5442709E-2,-2.1576479E-1,-4.4575977E-1],"split_indices":[1,1,1,1,0,0,0,0,0,0,1,1,1,0,1,0,0,0,0,0,0,0,0,0,0,0,0,0,0,0,0],"split_type":[0,0,0,0,0,0,0,0,0,0,0,0,0,0,0,0,0,0,0,0,0,0,0,0,0,0,0,0,0,0,0],"sum_hessian":[4.985E3,8.95E2,4.09E3,5.63E2,3.32E2,3.301E3,7.89E2,4.93E2,7E1,2.01E2,1.31E2,2.684E3,6.17E2,6.8E2,1.09E2,2.69E2,2.24E2,2.3E1,4.7E1,1.08E2,9.3E1,1.08E2,2.3E1,2.042E3,6.42E2,6.6E1,5.51E2,2.71E2,4.09E2,8.7E1,2.2E1],"tree_param":{"num_deleted":"0","num_feature":"2","num_nodes":"31","size_leaf_vector":"1"}},{"base_weights":[-4.4031385E-3,-1.2080785E0,2.5922373E-1,-1.5721943E0,-5.877497E-1,5.4638004E-1,-9.413451E-1,-1.6326088E0,-1.1297028E0,4.0142126E-2,-1.5441619E0,7.200349E-1,-2.089755E-1,-6.61916E-1,-2.2339664E0,-1.8060075E-1,-1.4172745E-1,-7.2045185E-2,-1.8539065E-1,-6.4658806E-2,3.7816253E-2,-1.346246E-1,-1.727456E-1,8.6962484E-2,2.4362389E-2,-1.5687379E-1,1.1170502E-2,-1.4577132E-1,-1.7494362E-2,-1.8647224E-1,-4.0312192E-1],"categories":[],"categories_nodes":[],"categories_segments":[],"categories_sizes":[],"default_left":[0,0,0,0,0,0,0,0,0,0,0,0,0,0,0,0,0,0,0,0,0,0,0,0,0,0,0,0,0,0,0],"id":18,"left_children":[1,3,5,7,9,11,13,15,17,19,21,23,25,27,29,-1,-1,-1,-1,-1,-1,-1,-1,-1,-1,-1,-1,-1,-1,-1,-1],"loss_changes":[1.5824763E3,2.0145703E2,1.4108904E3,1.323291E1,2.0003629E2,4.332776E2,2.8386603E2,1.5885742E1,1.9707405E1,4.713453E1,2.4629517E0,1.9113806E2,2.696537E2,2.5202783E2,8.539032E1,0E0,0E0,0E0,0E0,0E0,0E0,0E0,0E0,0E0,0E0,0E0,0E0,0E0,0E0,0E0,0E0],"parents":[2147483647,0,0,1,1,2,2,3,3,4,4,5,5,6,6,7,7,8,8,9,9,10,10,11,11,12,12,13,13,14,14],"right_children":[2,4,6,8,10,12,14,16,18,20,22,24,26,28,30,-1,-1,-1,-1,-1,-1,-1,-1,-1,-1,-1,-1,-1,-1,-1,-1],"split_conditions":[6E0,4E0,2.1E1,3E0,5E0,7E0,2.3E1,5E0,7E0,2E0,7E0,1.8E1,1E1,4E0,7E0,-1.8060075E-1,-1.4172745E-1,-7.2045185E-2,-1.8539065E-1,-6.4658806E-2,3.7816253E-2,-1.346246E-1,-1.727456E-1,8.6962484E-2,2.4362389E-2,-1.5687379E-1,1.1170502E-2,-1.4577132E-1,-1.7494362E-2,-1.8647224E-1,-4.0312192E-1],"split_indices":[1,1,1,1,0,0,1,0,0,0,0,1,1,0,0,0,0,0,0,0,0,0,0,0,0,0,0,0,0,0,0],"split_type":[0,0,0,0,0,0,0,0,0,0,0,0,0,0,0,0,0,0,0,0,0,0,0,0,0,0,0,0,0,0,0],"sum_hessian":[4.985E3,8.95E2,4.09E3,5.63E2,3.32E2,3.301E3,7.89E2,4.93E2,7E1,2.01E2,1.31E2,2.684E3,6.17E2,6.5E2,1.39E2,2.69E2,2.24E2,4.6E1,2.4E1,6.6E1,1.35E2,6.7E1,6.4E1,2.042E3,6.42E2,1.17E2,5E2,2.46E2,4.04E2,1.17E2,2.2E1],"tree_param":{"num_deleted":"0","num_feature":"2","num_nodes":"31","size_leaf_vector":"1"}},{"base_weights":[-4.303854E-3,-1.0882907E0,2.3310913E-1,-1.416003E0,-5.299785E-1,6.6138023E-1,-4.368143E-1,-1.4700004E0,-1.0203583E0,3.599486E-2,-1.3920742E0,2.7800035E-1,1.5155659E0,-1.2474824E0,-1.1724963E-2,-1.5757649E-1,-1.1857406E-1,-2.97861E-2,-1.3603495E-1,-3.8271666E-2,5.211391E-2,-1.2136012E-1,-1.5573679E-1,6.2334538E-2,-1.0695205E-3,2.1007958E-1,2.5330199E-2,-1.776226E-1,-9.3938805E-2,1.04339376E-1,-8.2306124E-2],"categories":[],"categories_nodes":[],"categories_segments":[],"categories_sizes":[],"default_left":[0,0,0,0,0,0,0,0,0,0,0,0,0,0,0,0,0,0,0,0,0,0,0,0,0,0,0,0,0,0,0],"id":19,"left_children":[1,3,5,7,9,11,13,15,17,19,21,23,25,27,29,-1,-1,-1,-1,-1,-1,-1,-1,-1,-1,-1,-1,-1,-1,-1,-1],"loss_changes":[1.2834136E3,1.6318689E2,1.174033E3,1.0549194E1,1.6252853E2,8.169625E2,5.499772E2,1.29835205E1,1.7035446E1,4.123281E1,2.0040283E0,1.7188875E2,5.704945E2,8.776514E1,8.9800555E2,0E0,0E0,0E0,0E0,0E0,0E0,0E0,0E0,0E0,0E0,0E0,0E0,0E0,0E0,0E0,0E0],"parents":[2147483647,0,0,1,1,2,2,3,3,4,4,5,5,6,6,7,7,8,8,9,9,10,10,11,11,12,12,13,13,14,14],"right_children":[2,4,6,8,10,12,14,16,18,20,22,24,26,28,30,-1,-1,-1,-1,-1,-1,-1,-1,-1,-1,-1,-1,-1,-1,-1,-1],"split_conditions":[6E0,4E0,1.8E1,3E0,5E0,1.5E1,4E0,7E0,2E0,3E0,7E0,5E0,1.7E1,2E0,6E0,-1.5757649E-1,-1.1857406E-1,-2.97861E-2,-1.3603495E-1,-3.8271666E-2,5.211391E-2,-1.2136012E-1,-1.5573679E-1,6.2334538E-2,-1.0695205E-3,2.1007958E-1,2.5330199E-2,-1.776226E-1,-9.3938805E-2,1.04339376E-1,-8.2306124E-2],"split_indices":[1,1,1,1,0,1,0,0,0,0,0,0,1,0,0,0,0,0,0,0,0,0,0,0,0,0,0,0,0,0,0],"split_type":[0,0,0,0,0,0,0,0,0,0,0,0,0,0,0,0,0,0,0,0,0,0,0,0,0,0,0,0,0,0,0],"sum_hessian":[4.985E3,8.95E2,4.09E3,5.63E2,3.32E2,2.495E3,1.595E3,4.93E2,7E1,2.01E2,1.31E2,1.723E3,7.72E2,5.48E2,1.047E3,3.56E2,1.37E2,2.3E1,4.7E1,1.08E2,9.3E1,6.7E1,6.4E1,7.84E2,9.39E2,5.27E2,2.45E2,2E2,3.48E2,4.55E2,5.92E2],"tree_param":{"num_deleted":"0","num_feature":"2","num_nodes":"31","size_leaf_vector":"1"}},{"base_weights":[-4.0052924E-3,-9.802487E-1,2.0980994E-1,-1.2751862E0,-4.7777122E-1,4.5226794E-1,-8.038688E-1,-1.3235593E0,-9.20658E-1,3.2463748E-2,-1.2549659E0,6.0203004E-1,-1.9912925E-1,-5.735666E-1,-2.2223406E0,-1.4690827E-1,-1.1430489E-1,-5.687929E-2,-1.5453382E-1,-3.447959E-2,4.6957906E-2,-1.3204579E-1,-9.0523295E-2,3.262495E-3,7.1452506E-2,-1.8910445E-1,6.590771E-4,-1.2772386E-1,-1.0534131E-2,-1.8456686E-1,-3.5668966E-1],"categories":[],"categories_nodes":[],"categories_segments":[],"categories_sizes":[],"default_left":[0,0,0,0,0,0,0,0,0,0,0,0,0,0,0,0,0,0,0,0,0,0,0,0,0,0,0,0,0,0,0],"id":20,"left_children":[1,3,5,7,9,11,13,15,17,19,21,23,25,27,29,-1,-1,-1,-1,-1,-1,-1,-1,-1,-1,-1,-1,-1,-1,-1,-1],"loss_changes":[1.0409619E3,1.3217749E2,1.00582715E3,8.453857E0,1.3209253E2,3.2224524E2,2.5680023E2,1.1297363E1,1.4727043E1,3.347291E1,1.8280945E0,1.7196497E2,2.1511404E2,2.242393E2,4.9126953E1,0E0,0E0,0E0,0E0,0E0,0E0,0E0,0E0,0E0,0E0,0E0,0E0,0E0,0E0,0E0,0E0],"parents":[2147483647,0,0,1,1,2,2,3,3,4,4,5,5,6,6,7,7,8,8,9,9,10,10,11,11,12,12,13,13,14,14],"right_children":[2,4,6,8,10,12,14,16,18,20,22,24,26,28,30,-1,-1,-1,-1,-1,-1,-1,-1,-1,-1,-1,-1,-1,-1,-1,-1],"split_conditions":[6E0,4E0,2.1E1,3E0,5E0,7E0,7E0,5E0,7E0,3E0,5E0,2E0,9E0,4E0,2.3E1,-1.4690827E-1,-1.1430489E-1,-5.687929E-2,-1.5453382E-1,-3.447959E-2,4.6957906E-2,-1.3204579E-1,-9.0523295E-2,3.262495E-3,7.1452506E-2,-1.8910445E-1,6.590771E-4,-1.2772386E-1,-1.0534131E-2,-1.8456686E-1,-3.5668966E-1],"split_indices":[1,1,1,1,0,0,0,0,0,0,1,0,1,0,1,0,0,0,0,0,0,0,0,0,0,0,0,0,0,0,0],"split_type":[0,0,0,0,0,0,0,0,0,0,0,0,0,0,0,0,0,0,0,0,0,0,0,0,0,0,0,0,0,0,0],"sum_hessian":[4.985E3,8.95E2,4.09E3,5.63E2,3.32E2,3.301E3,7.89E2,4.93E2,7E1,2.01E2,1.31E2,2.684E3,6.17E2,6.8E2,1.09E2,2.69E2,2.24E2,4.6E1,2.4E1,1.08E2,9.3E1,1.08E2,2.3E1,4.43E2,2.241E3,6.6E1,5.51E2,2.71E2,4.09E2,8.7E1,2.2E1],"tree_param":{"num_deleted":"0","num_feature":"2","num_nodes":"31","size_leaf_vector":"1"}},{"base_weights":[-3.9009321E-3,-8.829857E-1,1.8863486E-1,-1.1485056E0,-4.3062496E-1,5.5152917E-1,-3.7901732E-1,-1.191732E0,-8.3156985E-1,2.9279279E-2,-1.1311555E0,2.0883231E-1,1.3151228E0,-1.0854267E0,-8.5996045E-3,-1.3227186E-1,-1.0292518E-1,-2.1480696E-2,-1.1226269E-1,-1.8247038E-2,7.1244426E-2,-9.779663E-2,-1.2740126E-1,5.113588E-2,-4.4031683E-3,2.1619128E-1,5.8323372E-2,-1.5290943E-1,-8.2679465E-2,4.7260154E-2,-1.36963E-1],"categories":[],"categories_nodes":[],"categories_segments":[],"categories_sizes":[],"default_left":[0,0,0,0,0,0,0,0,0,0,0,0,0,0,0,0,0,0,0,0,0,0,0,0,0,0,0,0,0,0,0],"id":21,"left_children":[1,3,5,7,9,11,13,15,17,19,21,23,25,27,29,-1,-1,-1,-1,-1,-1,-1,-1,-1,-1,-1,-1,-1,-1,-1,-1],"loss_changes":[8.4407336E2,1.07124695E2,8.429458E2,6.73584E0,1.07318054E2,6.5288165E2,4.1761053E2,9.152222E0,1.2504295E1,2.9351309E1,1.6427612E0,1.3190518E2,4.7781055E2,6.173163E1,6.870132E2,0E0,0E0,0E0,0E0,0E0,0E0,0E0,0E0,0E0,0E0,0E0,0E0,0E0,0E0,0E0,0E0],"parents":[2147483647,0,0,1,1,2,2,3,3,4,4,5,5,6,6,7,7,8,8,9,9,10,10,11,11,12,12,13,13,14,14],"right_children":[2,4,6,8,10,12,14,16,18,20,22,24,26,28,30,-1,-1,-1,-1,-1,-1,-1,-1,-1,-1,-1,-1,-1,-1,-1,-1],"split_conditions":[6E0,4E0,1.8E1,3E0,5E0,1.5E1,4E0,5E0,2E0,4E0,7E0,5E0,5E0,2E0,7E0,-1.3227186E-1,-1.0292518E-1,-2.1480696E-2,-1.1226269E-1,-1.8247038E-2,7.1244426E-2,-9.779663E-2,-1.2740126E-1,5.113588E-2,-4.4031683E-3,2.1619128E-1,5.8323372E-2,-1.5290943E-1,-8.2679465E-2,4.7260154E-2,-1.36963E-1],"split_indices":[1,1,1,1,0,1,0,0,0,0,0,0,0,0,0,0,0,0,0,0,0,0,0,0,0,0,0,0,0,0,0],"split_type":[0,0,0,0,0,0,0,0,0,0,0,0,0,0,0,0,0,0,0,0,0,0,0,0,0,0,0,0,0,0,0],"sum_hessian":[4.985E3,8.95E2,4.09E3,5.63E2,3.32E2,2.495E3,1.595E3,4.93E2,7E1,2.01E2,1.31E2,1.723E3,7.72E2,5.48E2,1.047E3,2.69E2,2.24E2,2.3E1,4.7E1,1.54E2,4.7E1,6.7E1,6.4E1,7.84E2,9.39E2,3.57E2,4.15E2,2E2,3.48E2,7.74E2,2.73E2],"tree_param":{"num_deleted":"0","num_feature":"2","num_nodes":"31","size_leaf_vector":"1"}},{"base_weights":[-3.6199926E-3,-7.952912E-1,1.6977063E-1,-1.0343091E0,-3.8807973E-1,3.2007936E-1,-1.0202978E0,-1.073035E0,-7.502966E-1,2.6613444E-2,-1.019746E0,5.4436797E-1,-4.5208946E-2,-6.431118E-1,-1.8751491E0,-1.1553285E-1,-8.523696E-2,-4.4767495E-2,-1.2892134E-1,-4.9325448E-2,2.8252915E-2,-1.0753416E-1,-7.247599E-2,1.879765E-2,1.7070091E-1,1.744977E-2,-1.0177721E-1,-1.1719928E-1,5.40064E-3,-1.6215476E-1,-3.0947074E-1],"categories":[],"categories_nodes":[],"categories_segments":[],"categories_sizes":[],"default_left":[0,0,0,0,0,0,0,0,0,0,0,0,0,0,0,0,0,0,0,0,0,0,0,0,0,0,0,0,0,0,0],"id":22,"left_children":[1,3,5,7,9,11,13,15,17,19,21,23,25,27,29,-1,-1,-1,-1,-1,-1,-1,-1,-1,-1,-1,-1,-1,-1,-1,-1],"loss_changes":[6.84555E2,8.680701E1,7.321151E2,5.3981323E0,8.7255714E1,2.9767627E2,1.4679303E2,7.986023E0,1.100209E1,2.7013914E1,1.3854218E0,9.323932E2,2.9569504E2,1.1804491E2,3.828134E1,0E0,0E0,0E0,0E0,0E0,0E0,0E0,0E0,0E0,0E0,0E0,0E0,0E0,0E0,0E0,0E0],"parents":[2147483647,0,0,1,1,2,2,3,3,4,4,5,5,6,6,7,7,8,8,9,9,10,10,11,11,12,12,13,13,14,14],"right_children":[2,4,6,8,10,12,14,16,18,20,22,24,26,28,30,-1,-1,-1,-1,-1,-1,-1,-1,-1,-1,-1,-1,-1,-1,-1,-1],"split_conditions":[6E0,4E0,2.2E1,3E0,5E0,1.7E1,2.3E1,7E0,7E0,2E0,5E0,1.5E1,7E0,5E0,7E0,-1.1553285E-1,-8.523696E-2,-4.4767495E-2,-1.2892134E-1,-4.9325448E-2,2.8252915E-2,-1.0753416E-1,-7.247599E-2,1.879765E-2,1.7070091E-1,1.744977E-2,-1.0177721E-1,-1.1719928E-1,5.40064E-3,-1.6215476E-1,-3.0947074E-1],"split_indices":[1,1,1,1,0,1,1,0,0,0,1,1,0,0,0,0,0,0,0,0,0,0,0,0,0,0,0,0,0,0,0],"split_type":[0,0,0,0,0,0,0,0,0,0,0,0,0,0,0,0,0,0,0,0,0,0,0,0,0,0,0,0,0,0,0],"sum_hessian":[4.985E3,8.95E2,4.09E3,5.63E2,3.32E2,3.632E3,4.58E2,4.93E2,7E1,2.01E2,1.31E2,2.25E3,1.382E3,3.19E2,1.39E2,3.56E2,1.37E2,4.6E1,2.4E1,6.6E1,1.35E2,1.08E2,2.3E1,1.723E3,5.27E2,1.128E3,2.54E2,1.81E2,1.38E2,1.17E2,2.2E1],"tree_param":{"num_deleted":"0","num_feature":"2","num_nodes":"31","size_leaf_vector":"1"}},{"base_weights":[-3.4690478E-3,-7.164045E-1,1.5267703E-1,-9.315421E-1,-3.498759E-1,3.4079075E-1,-6.3378394E-1,-9.661379E-1,-6.777133E-1,2.3847463E-2,-9.1913533E-1,6.1145276E-1,1.05891794E-1,-4.054515E-1,-1.6910027E0,-1.07583165E-1,-8.302114E-2,-1.5131935E-2,-9.267913E-2,-1.5937869E-2,6.150184E-2,-7.875132E-2,-1.0426917E-1,2.659977E-2,1.7092185E-1,-2.4427262E-1,3.1457696E-2,-2.3695385E-2,-1.480761E-1,-1.4607666E-1,-2.7986923E-1],"categories":[],"categories_nodes":[],"categories_segments":[],"categories_sizes":[],"default_left":[0,0,0,0,0,0,0,0,0,0,0,0,0,0,0,0,0,0,0,0,0,0,0,0,0,0,0,0,0,0,0],"id":23,"left_children":[1,3,5,7,9,11,13,15,17,19,21,23,25,27,29,-1,-1,-1,-1,-1,-1,-1,-1,-1,-1,-1,-1,-1,-1,-1,-1],"loss_changes":[5.5516125E2,7.03273E1,6.0545526E2,4.297943E0,7.086618E1,2.0987051E2,1.9001828E2,6.4725647E0,9.168789E0,2.197825E1,1.3255463E0,5.8128217E2,9.416265E2,1.1760199E2,3.1615967E1,0E0,0E0,0E0,0E0,0E0,0E0,0E0,0E0,0E0,0E0,0E0,0E0,0E0,0E0,0E0,0E0],"parents":[2147483647,0,0,1,1,2,2,3,3,4,4,5,5,6,6,7,7,8,8,9,9,10,10,11,11,12,12,13,13,14,14],"right_children":[2,4,6,8,10,12,14,16,18,20,22,24,26,28,30,-1,-1,-1,-1,-1,-1,-1,-1,-1,-1,-1,-1,-1,-1,-1,-1],"split_conditions":[6E0,4E0,2.1E1,3E0,5E0,5E0,2.3E1,5E0,2E0,4E0,7E0,4E0,8E0,7E0,7E0,-1.07583165E-1,-8.302114E-2,-1.5131935E-2,-9.267913E-2,-1.5937869E-2,6.150184E-2,-7.875132E-2,-1.0426917E-1,2.659977E-2,1.7092185E-1,-2.4427262E-1,3.1457696E-2,-2.3695385E-2,-1.480761E-1,-1.4607666E-1,-2.7986923E-1],"split_indices":[1,1,1,1,0,0,1,0,0,0,0,0,1,0,0,0,0,0,0,0,0,0,0,0,0,0,0,0,0,0,0],"split_type":[0,0,0,0,0,0,0,0,0,0,0,0,0,0,0,0,0,0,0,0,0,0,0,0,0,0,0,0,0,0,0],"sum_hessian":[4.985E3,8.95E2,4.09E3,5.63E2,3.32E2,3.301E3,7.89E2,4.93E2,7E1,2.01E2,1.31E2,1.533E3,1.768E3,6.5E2,1.39E2,2.69E2,2.24E2,2.3E1,4.7E1,1.54E2,4.7E1,6.7E1,6.4E1,1.167E3,3.66E2,1.33E2,1.635E3,5.63E2,8.7E1,1.17E2,2.2E1],"tree_param":{"num_deleted":"0","num_feature":"2","num_nodes":"31","size_leaf_vector":"1"}},{"base_weights":[-3.3326473E-3,-6.452506E-1,1.3725933E-1,-8.38917E-1,-3.153013E-1,4.6100453E-1,-2.5866008E-1,-8.6990994E-1,-6.1146045E-1,2.1688089E-2,-8.286085E-1,1.4616305E-1,1.4881365E0,-8.059008E-2,-1.1016066E0,-9.388232E-2,-6.8533055E-2,-3.511015E-2,-1.0764768E-1,-4.2896565E-2,2.4354184E-2,-7.099203E-2,-9.400269E-2,3.818562E-2,-5.082129E-3,2.9266548E-1,1.1025776E-1,-6.266921E-2,3.3207133E-2,-6.07408E-2,-1.6269585E-1],"categories":[],"categories_nodes":[],"categories_segments":[],"categories_sizes":[],"default_left":[0,0,0,0,0,0,0,0,0,0,0,0,0,0,0,0,0,0,0,0,0,0,0,0,0,0,0,0,0,0,0],"id":24,"left_children":[1,3,5,7,9,11,13,15,17,19,21,23,25,27,29,-1,-1,-1,-1,-1,-1,-1,-1,-1,-1,-1,-1,-1,-1,-1,-1],"loss_changes":[4.5006766E2,5.698999E1,5.244914E2,3.4440308E0,5.762001E1,7.2771936E2,2.7625174E2,5.6402283E0,8.2181015E0,2.0300274E1,1.0782242E0,8.006102E1,2.8961975E2,3.4297342E2,8.235242E1,0E0,0E0,0E0,0E0,0E0,0E0,0E0,0E0,0E0,0E0,0E0,0E0,0E0,0E0,0E0,0E0],"parents":[2147483647,0,0,1,1,2,2,3,3,4,4,5,5,6,6,7,7,8,8,9,9,10,10,11,11,12,12,13,13,14,14],"right_children":[2,4,6,8,10,12,14,16,18,20,22,24,26,28,30,-1,-1,-1,-1,-1,-1,-1,-1,-1,-1,-1,-1,-1,-1,-1,-1],"split_conditions":[6E0,4E0,1.7E1,3E0,5E0,1.5E1,7E0,7E0,7E0,2E0,7E0,5E0,3E0,4E0,2E1,-9.388232E-2,-6.8533055E-2,-3.511015E-2,-1.0764768E-1,-4.2896565E-2,2.4354184E-2,-7.099203E-2,-9.400269E-2,3.818562E-2,-5.082129E-3,2.9266548E-1,1.1025776E-1,-6.266921E-2,3.3207133E-2,-6.07408E-2,-1.6269585E-1],"split_indices":[1,1,1,1,0,1,0,0,0,0,0,0,0,0,1,0,0,0,0,0,0,0,0,0,0,0,0,0,0,0,0],"split_type":[0,0,0,0,0,0,0,0,0,0,0,0,0,0,0,0,0,0,0,0,0,0,0,0,0,0,0,0,0,0,0],"sum_hessian":[4.985E3,8.95E2,4.09E3,5.63E2,3.32E2,2.25E3,1.84E3,4.93E2,7E1,2.01E2,1.31E2,1.723E3,5.27E2,1.52E3,3.2E2,3.56E2,1.37E2,4.6E1,2.4E1,6.6E1,1.35E2,6.7E1,6.4E1,7.84E2,9.39E2,1.1E2,4.17E2,6.54E2,8.66E2,1.66E2,1.54E2],"tree_param":{"num_deleted":"0","num_feature":"2","num_nodes":"31","size_leaf_vector":"1"}},{"base_weights":[-3.060739E-3,-5.812711E-1,1.2357811E-1,-7.555665E-1,-2.8432256E-1,2.4175224E-1,-8.1204313E-1,-6.243872E-1,-8.0331576E-1,1.9427115E-2,-7.469976E-1,4.150976E-1,-4.056313E-2,-5.041452E-1,-1.5100095E0,-1.4120713E-1,-2.9943079E-2,-3.5941582E-2,-9.2703946E-2,-3.867096E-2,2.1936633E-2,-7.919311E-2,-5.1180005E-2,1.3156578E-2,1.3400857E-1,1.35918325E-2,-8.217671E-2,-9.9377975E-2,1.4058595E-2,-1.328541E-1,-2.375369E-1],"categories":[],"categories_nodes":[],"categories_segments":[],"categories_sizes":[],"default_left":[0,0,0,0,0,0,0,0,0,0,0,0,0,0,0,0,0,0,0,0,0,0,0,0,0,0,0,0,0,0,0],"id":25,"left_children":[1,3,5,7,9,11,13,15,17,19,21,23,25,27,29,-1,-1,-1,-1,-1,-1,-1,-1,-1,-1,-1,-1,-1,-1,-1,-1],"loss_changes":[3.6516617E2,4.615924E1,4.5252277E2,3.0311584E0,4.6813465E1,1.7780878E2,9.787897E1,3.9251442E1,2.2184387E1,1.6487768E1,9.897003E-1,5.9017896E2,1.9078314E2,1.0115815E2,1.8829193E1,0E0,0E0,0E0,0E0,0E0,0E0,0E0,0E0,0E0,0E0,0E0,0E0,0E0,0E0,0E0,0E0],"parents":[2147483647,0,0,1,1,2,2,3,3,4,4,5,5,6,6,7,7,8,8,9,9,10,10,11,11,12,12,13,13,14,14],"right_children":[2,4,6,8,10,12,14,16,18,20,22,24,26,28,30,-1,-1,-1,-1,-1,-1,-1,-1,-1,-1,-1,-1,-1,-1,-1,-1],"split_conditions":[6E0,4E0,2.2E1,2E0,5E0,1.7E1,2.3E1,1E0,1E0,2E0,5E0,1.5E1,7E0,5E0,7E0,-1.4120713E-1,-2.9943079E-2,-3.5941582E-2,-9.2703946E-2,-3.867096E-2,2.1936633E-2,-7.919311E-2,-5.1180005E-2,1.3156578E-2,1.3400857E-1,1.35918325E-2,-8.217671E-2,-9.9377975E-2,1.4058595E-2,-1.328541E-1,-2.375369E-1],"split_indices":[1,1,1,0,0,1,1,1,1,0,1,1,0,0,0,0,0,0,0,0,0,0,0,0,0,0,0,0,0,0,0],"split_type":[0,0,0,0,0,0,0,0,0,0,0,0,0,0,0,0,0,0,0,0,0,0,0,0,0,0,0,0,0,0,0],"sum_hessian":[4.985E3,8.95E2,4.09E3,5.63E2,3.32E2,3.632E3,4.58E2,1.54E2,4.09E2,2.01E2,1.31E2,2.25E3,1.382E3,3.19E2,1.39E2,4.4E1,1.1E2,9E1,3.19E2,6.6E1,1.35E2,1.08E2,2.3E1,1.723E3,5.27E2,1.128E3,2.54E2,1.81E2,1.38E2,1.17E2,2.2E1],"tree_param":{"num_deleted":"0","num_feature":"2","num_nodes":"31","size_leaf_vector":"1"}},{"base_weights":[-2.920008E-3,-4.1803867E-1,1.4604844E-1,7.7828445E-2,-1.0053139E0,-7.933472E-1,2.8225332E-1,-4.3369806E-1,1.2157396E0,-6.325982E-1,-1.7475978E0,-1.9109794E-1,-5.971004E-1,6.504765E-1,-8.914399E-2,-9.347219E-2,-7.208127E-3,1.8617533E-1,7.442394E-2,-2.2749046E-2,-7.127016E-2,-2.2082913E-1,-8.140608E-2,5.66999E-3,-1.23491906E-1,4.1776013E-2,1.222611E-1,1.1795961E-2,-9.1276444E-2],"categories":[],"categories_nodes":[],"categories_segments":[],"categories_sizes":[],"default_left":[0,0,0,0,0,0,0,0,0,0,0,0,0,0,0,0,0,0,0,0,0,0,0,0,0,0,0,0,0],"id":26,"left_children":[1,3,5,7,9,11,13,15,17,19,21,-1,23,25,27,-1,-1,-1,-1,-1,-1,-1,-1,-1,-1,-1,-1,-1,-1],"loss_changes":[3.083932E2,3.8360242E2,4.6980145E2,4.1670856E2,1.6572101E2,1.00848175E2,4.3850122E2,8.943486E1,6.623462E1,1.2915421E1,8.464722E1,0E0,1.6562143E2,2.1385278E2,2.7251556E2,0E0,0E0,0E0,0E0,0E0,0E0,0E0,0E0,0E0,0E0,0E0,0E0,0E0,0E0],"parents":[2147483647,0,0,1,1,2,2,3,3,4,4,5,5,6,6,7,7,8,8,9,9,10,10,12,12,13,13,14,14],"right_children":[2,4,6,8,10,12,14,16,18,20,22,-1,24,26,28,-1,-1,-1,-1,-1,-1,-1,-1,-1,-1,-1,-1,-1,-1],"split_conditions":[9E0,5E0,2E0,5E0,6E0,1E1,1.7E1,2E0,2E0,1E0,8E0,-1.9109794E-1,1.8E1,1.5E1,7E0,-9.347219E-2,-7.208127E-3,1.8617533E-1,7.442394E-2,-2.2749046E-2,-7.127016E-2,-2.2082913E-1,-8.140608E-2,5.66999E-3,-1.23491906E-1,4.1776013E-2,1.222611E-1,1.1795961E-2,-9.1276444E-2],"split_indices":[1,0,0,1,1,1,1,1,0,1,1,0,1,1,0,0,0,0,0,0,0,0,0,0,0,0,0,0,0],"split_type":[0,0,0,0,0,0,0,0,0,0,0,0,0,0,0,0,0,0,0,0,0,0,0,0,0,0,0,0,0],"sum_hessian":[4.985E3,1.316E3,3.669E3,7.14E2,6.02E2,4.64E2,3.205E3,4.93E2,2.21E2,4.02E2,2E2,6.8E1,3.96E2,1.609E3,1.596E3,2.06E2,2.87E2,9.2E1,1.29E2,6.7E1,3.35E2,1.33E2,6.7E1,1.96E2,2E2,1.145E3,4.64E2,1.276E3,3.2E2],"tree_param":{"num_deleted":"0","num_feature":"2","num_nodes":"29","size_leaf_vector":"1"}},{"base_weights":[-2.7205562E-3,3.5703883E-2,-1.3330101E0,-3.7641436E-1,1.8940653E-1,-1.1798459E-1,-2.0608519E-1,7.026919E-2,-9.054398E-1,-6.848528E-1,3.1375474E-1,-3.9053213E-2,1.0953394E-1,-5.6957185E-2,-1.5743421E-1,-1.7226516E-1,-4.9051683E-2,5.855303E-2,1.8493505E-3],"categories":[],"categories_nodes":[],"categories_segments":[],"categories_sizes":[],"default_left":[0,0,0,0,0,0,0,0,0,0,0,0,0,0,0,0,0,0,0],"id":27,"left_children":[1,3,5,7,9,-1,-1,11,13,15,17,-1,-1,-1,-1,-1,-1,-1,-1],"loss_changes":[2.5491011E2,3.0709802E2,1.3175629E1,3.112799E2,3.8407904E2,0E0,0E0,3.381607E2,1.3457498E2,8.789491E1,2.4810605E2,0E0,0E0,0E0,0E0,0E0,0E0,0E0,0E0],"parents":[2147483647,0,0,1,1,2,2,3,3,4,4,7,7,8,8,9,9,10,10],"right_children":[2,4,6,8,10,-1,-1,12,14,16,18,-1,-1,-1,-1,-1,-1,-1,-1],"split_conditions":[2.3E1,9E0,7E0,5E0,2E0,-1.1798459E-1,-2.0608519E-1,5E0,6E0,1E1,1.7E1,-3.9053213E-2,1.0953394E-1,-5.6957185E-2,-1.5743421E-1,-1.7226516E-1,-4.9051683E-2,5.855303E-2,1.8493505E-3],"split_indices":[1,1,0,0,0,0,0,1,1,1,1,0,0,0,0,0,0,0,0],"split_type":[0,0,0,0,0,0,0,0,0,0,0,0,0,0,0,0,0,0,0],"sum_hessian":[4.985E3,4.846E3,1.39E2,1.316E3,3.53E3,1.17E2,2.2E1,7.14E2,6.02E2,4.39E2,3.091E3,4.93E2,2.21E2,4.02E2,2E2,6.8E1,3.71E2,1.609E3,1.482E3],"tree_param":{"num_deleted":"0","num_feature":"2","num_nodes":"19","size_leaf_vector":"1"}},{"base_weights":[-2.574838E-3,6.460598E-2,-6.653029E-1,-3.3888212E-1,2.3002602E-1,-4.284084E-1,-1.2020237E0,6.334093E-2,-8.1525123E-1,-5.9608734E-1,3.464099E-1,-8.6452836E-1,1.4570841E-1,-1.0628611E-1,-1.8637268E-1,-3.5155814E-2,9.8629944E-2,-5.1275592E-2,-1.4176908E-1,-1.5528822E-1,-3.9361037E-2,5.537913E-2,7.7781724E-3,-1.0976284E-1,-6.395038E-2,1.3882661E-1,-5.0416637E-2],"categories":[],"categories_nodes":[],"categories_segments":[],"categories_sizes":[],"default_left":[0,0,0,0,0,0,0,0,0,0,0,0,0,0,0,0,0,0,0,0,0,0,0,0,0,0,0],"id":28,"left_children":[1,3,5,7,9,11,13,15,17,19,21,23,25,-1,-1,-1,-1,-1,-1,-1,-1,-1,-1,-1,-1,-1,-1],"loss_changes":[2.2203273E2,3.022994E2,5.784514E1,2.5239757E2,3.0902832E2,8.024878E1,1.0910934E1,2.7414502E2,1.0916083E2,7.629915E1,1.5683197E2,8.844543E0,1.12943375E2,0E0,0E0,0E0,0E0,0E0,0E0,0E0,0E0,0E0,0E0,0E0,0E0,0E0,0E0],"parents":[2147483647,0,0,1,1,2,2,3,3,4,4,5,5,6,6,7,7,8,8,9,9,10,10,11,11,12,12],"right_children":[2,4,6,8,10,12,14,16,18,20,22,24,26,-1,-1,-1,-1,-1,-1,-1,-1,-1,-1,-1,-1,-1,-1],"split_conditions":[2.2E1,9E0,2.3E1,5E0,2E0,5E0,7E0,5E0,6E0,1E1,6E0,3E0,6E0,-1.0628611E-1,-1.8637268E-1,-3.5155814E-2,9.8629944E-2,-5.1275592E-2,-1.4176908E-1,-1.5528822E-1,-3.9361037E-2,5.537913E-2,7.7781724E-3,-1.0976284E-1,-6.395038E-2,1.3882661E-1,-5.0416637E-2],"split_indices":[1,1,1,0,0,0,0,1,1,1,0,0,0,0,0,0,0,0,0,0,0,0,0,0,0,0,0],"split_type":[0,0,0,0,0,0,0,0,0,0,0,0,0,0,0,0,0,0,0,0,0,0,0,0,0,0,0],"sum_hessian":[4.985E3,4.527E3,4.58E2,1.316E3,3.211E3,3.19E2,1.39E2,7.14E2,6.02E2,3.96E2,2.815E3,1.81E2,1.38E2,1.17E2,2.2E1,4.93E2,2.21E2,4.02E2,2E2,6.8E1,3.28E2,1.588E3,1.227E3,8.7E1,9.4E1,4.7E1,9.1E1],"tree_param":{"num_deleted":"0","num_feature":"2","num_nodes":"27","size_leaf_vector":"1"}},{"base_weights":[-2.4455367E-3,5.8087695E-2,-5.9959596E-1,-3.0509198E-1,2.0698231E-1,-3.85834E-1,-1.0839118E0,5.709603E-2,-7.3404604E-1,-5.3696835E-1,3.1179106E-1,-7.790299E-1,1.3177381E-1,-9.574758E-2,-1.6854572E-1,-3.1647332E-2,8.881148E-2,-4.6160743E-2,-1.2766269E-1,-1.3998441E-1,-3.5436835E-2,4.984465E-2,7.000988E-3,-9.891129E-2,-5.762264E-2,7.0605785E-2,-1.0835319E-1],"categories":[],"categories_nodes":[],"categories_segments":[],"categories_sizes":[],"default_left":[0,0,0,0,0,0,0,0,0,0,0,0,0,0,0,0,0,0,0,0,0,0,0,0,0,0,0],"id":29,"left_children":[1,3,5,7,9,11,13,15,17,19,21,23,25,-1,-1,-1,-1,-1,-1,-1,-1,-1,-1,-1,-1,-1,-1],"loss_changes":[1.8026599E2,2.4491702E2,4.7101288E1,2.046537E2,2.506152E2,6.522946E1,9.03421E0,2.222479E2,8.854614E1,6.2055695E1,1.2705051E2,7.1842575E0,9.77774E1,0E0,0E0,0E0,0E0,0E0,0E0,0E0,0E0,0E0,0E0,0E0,0E0,0E0,0E0],"parents":[2147483647,0,0,1,1,2,2,3,3,4,4,5,5,6,6,7,7,8,8,9,9,10,10,11,11,12,12],"right_children":[2,4,6,8,10,12,14,16,18,20,22,24,26,-1,-1,-1,-1,-1,-1,-1,-1,-1,-1,-1,-1,-1,-1],"split_conditions":[2.2E1,9E0,2.3E1,5E0,2E0,5E0,7E0,5E0,6E0,1E1,6E0,3E0,7E0,-9.574758E-2,-1.6854572E-1,-3.1647332E-2,8.881148E-2,-4.6160743E-2,-1.2766269E-1,-1.3998441E-1,-3.5436835E-2,4.984465E-2,7.000988E-3,-9.891129E-2,-5.762264E-2,7.0605785E-2,-1.0835319E-1],"split_indices":[1,1,1,0,0,0,0,1,1,1,0,0,0,0,0,0,0,0,0,0,0,0,0,0,0,0,0],"split_type":[0,0,0,0,0,0,0,0,0,0,0,0,0,0,0,0,0,0,0,0,0,0,0,0,0,0,0],"sum_hessian":[4.985E3,4.527E3,4.58E2,1.316E3,3.211E3,3.19E2,1.39E2,7.14E2,6.02E2,3.96E2,2.815E3,1.81E2,1.38E2,1.17E2,2.2E1,4.93E2,2.21E2,4.02E2,2E2,6.8E1,3.28E2,1.588E3,1.227E3,8.7E1,9.4E1,9.4E1,4.4E1],"tree_param":{"num_deleted":"0","num_feature":"2","num_nodes":"27","size_leaf_vector":"1"}},{"base_weights":[-2.3403363E-3,-4.8783004E-1,5.9567537E-2,-5.698863E-1,-3.9764503E-1,1.822737E-1,-3.3039075E-1,-7.363562E-1,-1.6725233E-1,1.3442172E-1,-5.065366E-1,3.945243E-1,-1.1739352E-2,-1.839106E-1,-1.1835144E0,-8.526149E-2,-6.74628E-2,-2.4006335E-2,3.3879203E-3,2.2110319E-2,4.9297926E-3,-8.2766056E-2,-3.745638E-2,1.3149045E-2,1.2094595E-1,-1.01539366E-1,1.6617378E-2,-6.458225E-2,1.4712462E-2,-1.1156934E-1,-1.5242396E-1],"categories":[],"categories_nodes":[],"categories_segments":[],"categories_sizes":[],"default_left":[0,0,0,0,0,0,0,0,0,0,0,0,0,0,0,0,0,0,0,0,0,0,0,0,0,0,0,0,0,0,0],"id":30,"left_children":[1,3,5,7,9,11,13,15,17,19,21,23,25,27,29,-1,-1,-1,-1,-1,-1,-1,-1,-1,-1,-1,-1,-1,-1,-1,-1],"loss_changes":[1.4988644E2,3.9471283E0,2.1170204E2,1.9515587E1,1.582711E1,1.3857327E2,1.3212099E2,9.103241E-1,1.2822125E0,3.358968E-1,9.267788E0,3.4431036E2,3.142615E2,1.3847774E2,1.8812103E0,0E0,0E0,0E0,0E0,0E0,0E0,0E0,0E0,0E0,0E0,0E0,0E0,0E0,0E0,0E0,0E0],"parents":[2147483647,0,0,1,1,2,2,3,3,4,4,5,5,6,6,7,7,8,8,9,9,10,10,11,11,12,12,13,13,14,14],"right_children":[2,4,6,8,10,12,14,16,18,20,22,24,26,28,30,-1,-1,-1,-1,-1,-1,-1,-1,-1,-1,-1,-1,-1,-1,-1,-1],"split_conditions":[4E0,5E0,2E1,2E0,6E0,5E0,7E0,1E0,3E0,1E0,7E0,4E0,8E0,4E0,2.3E1,-8.526149E-2,-6.74628E-2,-2.4006335E-2,3.3879203E-3,2.2110319E-2,4.9297926E-3,-8.2766056E-2,-3.745638E-2,1.3149045E-2,1.2094595E-1,-1.01539366E-1,1.6617378E-2,-6.458225E-2,1.4712462E-2,-1.1156934E-1,-1.5242396E-1],"split_indices":[1,0,1,1,0,0,0,1,1,1,0,0,1,0,1,0,0,0,0,0,0,0,0,0,0,0,0,0,0,0,0],"split_type":[0,0,0,0,0,0,0,0,0,0,0,0,0,0,0,0,0,0,0,0,0,0,0,0,0,0,0,0,0,0,0],"sum_hessian":[4.985E3,5.63E2,4.422E3,2.92E2,2.71E2,3.364E3,1.058E3,2.06E2,8.6E1,4.6E1,2.25E2,1.606E3,1.758E3,9.04E2,1.54E2,6.7E1,1.39E2,6.3E1,2.3E1,2.2E1,2.4E1,6.4E1,1.61E2,1.215E3,3.91E2,2.64E2,1.494E3,3.77E2,5.27E2,1.32E2,2.2E1],"tree_param":{"num_deleted":"0","num_feature":"2","num_nodes":"31","size_leaf_vector":"1"}},{"base_weights":[-2.2128476E-3,2.5209313E-2,-9.5159143E-1,-4.3951955E-1,8.6386226E-2,-8.6032726E-2,-1.378443E-1,-5.1348925E-1,-3.5822308E-1,2.1459141E-1,-1.0823211E-1,-6.634584E-2,-1.5076396E-2,1.2155469E-2,-4.5641482E-2,2.0195674E-3,9.7115025E-2,1.2484938E-3,-6.747154E-2],"categories":[],"categories_nodes":[],"categories_segments":[],"categories_sizes":[],"default_left":[0,0,0,0,0,0,0,0,0,0,0,0,0,0,0,0,0,0,0],"id":31,"left_children":[1,3,5,7,9,-1,-1,11,13,15,17,-1,-1,-1,-1,-1,-1,-1,-1],"loss_changes":[1.2982957E2,1.3784146E2,4.267967E0,3.2076645E0,1.0691366E2,0E0,0E0,1.583847E1,1.2869457E1,3.7986688E2,1.16398315E2,0E0,0E0,0E0,0E0,0E0,0E0,0E0,0E0],"parents":[2147483647,0,0,1,1,2,2,3,3,4,4,7,7,8,8,9,9,10,10],"right_children":[2,4,6,8,10,-1,-1,12,14,16,18,-1,-1,-1,-1,-1,-1,-1,-1],"split_conditions":[2.3E1,4E0,7E0,5E0,1.7E1,-8.6032726E-2,-1.378443E-1,2E0,6E0,1.5E1,7E0,-6.634584E-2,-1.5076396E-2,1.2155469E-2,-4.5641482E-2,2.0195674E-3,9.7115025E-2,1.2484938E-3,-6.747154E-2],"split_indices":[1,1,0,0,1,0,0,1,0,1,0,0,0,0,0,0,0,0,0],"split_type":[0,0,0,0,0,0,0,0,0,0,0,0,0,0,0,0,0,0,0],"sum_hessian":[4.985E3,4.846E3,1.39E2,5.63E2,4.283E3,1.17E2,2.2E1,2.92E2,2.71E2,2.582E3,1.701E3,2.06E2,8.6E1,4.6E1,2.25E2,2.055E3,5.27E2,1.403E3,2.98E2],"tree_param":{"num_deleted":"0","num_feature":"2","num_nodes":"19","size_leaf_vector":"1"}},{"base_weights":[-2.053005E-3,4.5717593E-2,-4.7330183E-1,-2.2839181E-1,1.5809505E-1,-3.035036E-1,-8.580314E-1,7.3134564E-2,-5.855443E-1,-5.006706E-1,2.5091177E-1,-6.590426E-1,1.642058E-1,-7.7502355E-2,-1.24659196E-1,-2.3757685E-2,7.64208E-2,-3.325091E-2,-1.0899605E-1,-2.3660002E-2,-1.0230619E-1,5.5752277E-2,1.4979548E-2,-8.287116E-2,-4.949383E-2,1.1675687E-1,-3.6107276E-2],"categories":[],"categories_nodes":[],"categories_segments":[],"categories_sizes":[],"default_left":[0,0,0,0,0,0,0,0,0,0,0,0,0,0,0,0,0,0,0,0,0,0,0,0,0,0,0],"id":32,"left_children":[1,3,5,7,9,11,13,15,17,19,21,23,25,-1,-1,-1,-1,-1,-1,-1,-1,-1,-1,-1,-1,-1,-1],"loss_changes":[1.1226567E2,1.3951534E2,2.9724403E1,1.4187173E2,1.9652167E2,5.332068E1,3.5493546E0,1.5370949E2,7.660152E1,5.4523376E1,8.7221954E1,4.657341E0,7.368083E1,0E0,0E0,0E0,0E0,0E0,0E0,0E0,0E0,0E0,0E0,0E0,0E0,0E0,0E0],"parents":[2147483647,0,0,1,1,2,2,3,3,4,4,5,5,6,6,7,7,8,8,9,9,10,10,11,11,12,12],"right_children":[2,4,6,8,10,12,14,16,18,20,22,24,26,-1,-1,-1,-1,-1,-1,-1,-1,-1,-1,-1,-1,-1,-1],"split_conditions":[2.2E1,9E0,2.3E1,5E0,2E0,5E0,7E0,5E0,6E0,1.8E1,1.2E1,3E0,6E0,-7.7502355E-2,-1.24659196E-1,-2.3757685E-2,7.64208E-2,-3.325091E-2,-1.0899605E-1,-2.3660002E-2,-1.0230619E-1,5.5752277E-2,1.4979548E-2,-8.287116E-2,-4.949383E-2,1.1675687E-1,-3.6107276E-2],"split_indices":[1,1,1,0,0,0,0,1,1,1,1,0,0,0,0,0,0,0,0,0,0,0,0,0,0,0,0],"split_type":[0,0,0,0,0,0,0,0,0,0,0,0,0,0,0,0,0,0,0,0,0,0,0,0,0,0,0],"sum_hessian":[4.985E3,4.527E3,4.58E2,1.316E3,3.211E3,3.19E2,1.39E2,7.14E2,6.02E2,3.96E2,2.815E3,1.81E2,1.38E2,1.17E2,2.2E1,4.93E2,2.21E2,4.02E2,2E2,2.64E2,1.32E2,6.97E2,2.118E3,8.7E1,9.4E1,4.7E1,9.1E1],"tree_param":{"num_deleted":"0","num_feature":"2","num_nodes":"27","size_leaf_vector":"1"}},{"base_weights":[-1.9277635E-3,5.6747843E-2,-3.1364876E-1,-2.0562074E-1,1.7666547E-1,-2.2342193E-1,-8.693836E-1,6.589456E-2,-5.2722573E-1,-4.271879E-1,2.6061E-1,-5.287175E-1,-2.0339422E-2,-7.920805E-2,-1.12735264E-1,-4.8214685E-2,3.9752077E-2,-2.9934082E-2,-9.815063E-2,-1.2535203E-1,-2.2491986E-2,3.4853682E-2,-5.5092466E-3,-4.740185E-2,-6.713353E-2,1.784893E-2,-6.999867E-2],"categories":[],"categories_nodes":[],"categories_segments":[],"categories_sizes":[],"default_left":[0,0,0,0,0,0,0,0,0,0,0,0,0,0,0,0,0,0,0,0,0,0,0,0,0,0,0],"id":33,"left_children":[1,3,5,7,9,11,13,15,17,19,21,23,25,-1,-1,-1,-1,-1,-1,-1,-1,-1,-1,-1,-1,-1,-1],"loss_changes":[9.121383E1,1.3208493E2,3.941809E1,1.1503607E2,1.4614978E2,4.2211388E1,1.3006439E0,1.3013925E2,6.2130997E1,5.855155E1,7.024875E1,1.8036652E0,5.552963E1,0E0,0E0,0E0,0E0,0E0,0E0,0E0,0E0,0E0,0E0,0E0,0E0,0E0,0E0],"parents":[2147483647,0,0,1,1,2,2,3,3,4,4,5,5,6,6,7,7,8,8,9,9,10,10,11,11,12,12],"right_children":[2,4,6,8,10,12,14,16,18,20,22,24,26,-1,-1,-1,-1,-1,-1,-1,-1,-1,-1,-1,-1,-1,-1],"split_conditions":[2.1E1,9E0,7E0,5E0,2E0,4E0,2.3E1,3E0,6E0,1E1,7E0,3E0,2.3E1,-7.920805E-2,-1.12735264E-1,-4.8214685E-2,3.9752077E-2,-2.9934082E-2,-9.815063E-2,-1.2535203E-1,-2.2491986E-2,3.4853682E-2,-5.5092466E-3,-4.740185E-2,-6.713353E-2,1.784893E-2,-6.999867E-2],"split_indices":[1,1,0,0,0,0,1,1,1,1,0,0,1,0,0,0,0,0,0,0,0,0,0,0,0,0,0],"split_type":[0,0,0,0,0,0,0,0,0,0,0,0,0,0,0,0,0,0,0,0,0,0,0,0,0,0,0],"sum_hessian":[4.985E3,4.196E3,7.89E2,1.316E3,2.88E3,6.8E2,1.09E2,7.14E2,6.02E2,3.51E2,2.529E3,2.71E2,4.09E2,8.7E1,2.2E1,2.69E2,4.45E2,4.02E2,2E2,6.8E1,2.83E2,1.978E3,5.51E2,1.99E2,7.2E1,3.17E2,9.2E1],"tree_param":{"num_deleted":"0","num_feature":"2","num_nodes":"27","size_leaf_vector":"1"}},{"base_weights":[-1.8579967E-3,6.278887E-2,-2.4164177E-1,-7.259926E-2,3.3341384E-1,-1.2718834E-1,-9.083432E-1,-2.5598684E-3,-3.7463006E-1,8.4296614E-1,-1.061814E-2,-5.0336593E-1,1.4236152E-1,-1.1854843E-1,-7.841901E-1,-1.4273784E-2,4.973937E-2,-1.1361771E-1,-1.2386832E-2,2.3456073E-1,4.419228E-2,-6.2132116E-2,9.01228E-3,-5.6754883E-2,-4.7626693E-2,5.1143724E-2,-3.2711823E-2,-7.137725E-2,-1.019519E-1],"categories":[],"categories_nodes":[],"categories_segments":[],"categories_sizes":[],"default_left":[0,0,0,0,0,0,0,0,0,0,0,0,0,0,0,0,0,0,0,0,0,0,0,0,0,0,0,0,0],"id":34,"left_children":[1,3,5,7,9,11,13,15,17,19,21,23,25,-1,27,-1,-1,-1,-1,-1,-1,-1,-1,-1,-1,-1,-1,-1,-1],"loss_changes":[7.73045E1,1.4394379E2,8.069281E1,5.5401505E1,2.2965498E2,9.183742E1,4.4035797E0,1.4913641E2,9.4005936E1,3.17149E2,4.8228344E1,3.87146E-1,9.165575E1,0E0,1.0951385E0,0E0,0E0,0E0,0E0,0E0,0E0,0E0,0E0,0E0,0E0,0E0,0E0,0E0,0E0],"parents":[2147483647,0,0,1,1,2,2,3,3,4,4,5,5,6,6,7,7,8,8,9,9,10,10,11,11,12,12,14,14],"right_children":[2,4,6,8,10,12,14,16,18,20,22,24,26,-1,28,-1,-1,-1,-1,-1,-1,-1,-1,-1,-1,-1,-1,-1,-1],"split_conditions":[2E1,1.5E1,7E0,1.2E1,1.7E1,4E0,2.1E1,1E1,1.3E1,3E0,2E0,2.1E1,6E0,-1.1854843E-1,2.3E1,-1.4273784E-2,4.973937E-2,-1.1361771E-1,-1.2386832E-2,2.3456073E-1,4.419228E-2,-6.2132116E-2,9.01228E-3,-5.6754883E-2,-4.7626693E-2,5.1143724E-2,-3.2711823E-2,-7.137725E-2,-1.019519E-1],"split_indices":[1,1,0,1,1,0,1,1,1,0,0,1,0,0,1,0,0,0,0,0,0,0,0,0,0,0,0,0,0],"split_type":[0,0,0,0,0,0,0,0,0,0,0,0,0,0,0,0,0,0,0,0,0,0,0,0,0,0,0,0,0],"sum_hessian":[4.985E3,3.927E3,1.058E3,2.618E3,1.309E3,9.04E2,1.54E2,2.126E3,4.92E2,5.27E2,7.82E2,3.77E2,5.27E2,4.5E1,1.09E2,1.661E3,4.65E2,1.21E2,3.71E2,1.1E2,4.17E2,1.1E2,6.72E2,1.06E2,2.71E2,2.95E2,2.32E2,8.7E1,2.2E1],"tree_param":{"num_deleted":"0","num_feature":"2","num_nodes":"29","size_leaf_vector":"1"}},{"base_weights":[-1.7207909E-3,3.5314497E-2,-3.6706734E-1,-3.174878E-1,8.548983E-2,-2.2742745E-1,-6.836223E-1,-3.8337147E-1,-2.4535032E-1,2.1796283E-1,-3.5033513E-2,-5.356112E-1,1.7772989E-1,-6.313655E-2,-9.219998E-2,-5.1160343E-2,-7.3861377E-3,1.8546812E-2,-3.338597E-2,-1.6046474E-3,9.512612E-2,-7.6683074E-2,7.195011E-3,-4.1808497E-2,-8.642913E-2,9.856894E-2,-2.4574606E-2],"categories":[],"categories_nodes":[],"categories_segments":[],"categories_sizes":[],"default_left":[0,0,0,0,0,0,0,0,0,0,0,0,0,0,0,0,0,0,0,0,0,0,0,0,0,0,0],"id":35,"left_children":[1,3,5,7,9,11,13,15,17,19,21,23,25,-1,-1,-1,-1,-1,-1,-1,-1,-1,-1,-1,-1,-1,-1],"loss_changes":[6.7477104E1,8.018169E1,2.0134022E1,2.5864487E0,6.3313183E1,4.0051323E1,1.1618423E0,1.159111E1,1.04336815E1,3.2416513E2,1.6266417E2,6.6690483E0,4.780128E1,0E0,0E0,0E0,0E0,0E0,0E0,0E0,0E0,0E0,0E0,0E0,0E0,0E0,0E0],"parents":[2147483647,0,0,1,1,2,2,3,3,4,4,5,5,6,6,7,7,8,8,9,9,10,10,11,11,12,12],"right_children":[2,4,6,8,10,12,14,16,18,20,22,24,26,-1,-1,-1,-1,-1,-1,-1,-1,-1,-1,-1,-1,-1,-1],"split_conditions":[2.2E1,4E0,2.3E1,5E0,5E0,5E0,7E0,2E0,6E0,4E0,8E0,4E0,6E0,-6.313655E-2,-9.219998E-2,-5.1160343E-2,-7.3861377E-3,1.8546812E-2,-3.338597E-2,-1.6046474E-3,9.512612E-2,-7.6683074E-2,7.195011E-3,-4.1808497E-2,-8.642913E-2,9.856894E-2,-2.4574606E-2],"split_indices":[1,1,1,0,0,0,0,1,0,0,1,0,0,0,0,0,0,0,0,0,0,0,0,0,0,0,0],"split_type":[0,0,0,0,0,0,0,0,0,0,0,0,0,0,0,0,0,0,0,0,0,0,0,0,0,0,0],"sum_hessian":[4.985E3,4.527E3,4.58E2,5.63E2,3.964E3,3.19E2,1.39E2,2.92E2,2.71E2,1.888E3,2.076E3,1.81E2,1.38E2,1.17E2,2.2E1,2.06E2,8.6E1,4.6E1,2.25E2,1.432E3,4.56E2,2.64E2,1.812E3,1.35E2,4.6E1,4.7E1,9.1E1],"tree_param":{"num_deleted":"0","num_feature":"2","num_nodes":"27","size_leaf_vector":"1"}},{"base_weights":[-1.6006237E-3,5.4529063E-2,-2.0979308E-1,-6.0829874E-2,2.8511727E-1,-1.0789126E-1,-8.034147E-1,6.658559E-3,-3.518787E-1,7.43193E-1,-2.4140846E-2,-3.5186058E-1,2.1084702E-1,-1.07655205E-1,-6.818899E-1,-1.1350357E-2,4.3520536E-2,-1.03545405E-1,-1.2674949E-2,2.11475E-1,3.771977E-2,-5.5815883E-2,6.397228E-3,-2.2444576E-2,-5.0643433E-2,9.2238195E-2,-2.817194E-2,-6.344351E-2,-8.338085E-2],"categories":[],"categories_nodes":[],"categories_segments":[],"categories_sizes":[],"default_left":[0,0,0,0,0,0,0,0,0,0,0,0,0,0,0,0,0,0,0,0,0,0,0,0,0,0,0,0,0],"id":36,"left_children":[1,3,5,7,9,11,13,15,17,19,21,23,25,-1,27,-1,-1,-1,-1,-1,-1,-1,-1,-1,-1,-1,-1,-1,-1],"loss_changes":[5.8276726E1,1.04503746E2,6.3973423E1,5.144586E1,1.8559732E2,7.044913E1,4.41082E0,1.0957946E2,7.57379E1,2.642495E2,3.687898E1,9.989857E0,1.3799779E2,0E0,2.6402283E-1,0E0,0E0,0E0,0E0,0E0,0E0,0E0,0E0,0E0,0E0,0E0,0E0,0E0,0E0],"parents":[2147483647,0,0,1,1,2,2,3,3,4,4,5,5,6,6,7,7,8,8,9,9,10,10,11,11,12,12,14,14],"right_children":[2,4,6,8,10,12,14,16,18,20,22,24,26,-1,28,-1,-1,-1,-1,-1,-1,-1,-1,-1,-1,-1,-1,-1,-1],"split_conditions":[2E1,1.5E1,7E0,1.2E1,1.7E1,5E0,2.1E1,1E1,1.3E1,3E0,2E0,2.2E1,6E0,-1.07655205E-1,2.3E1,-1.1350357E-2,4.3520536E-2,-1.03545405E-1,-1.2674949E-2,2.11475E-1,3.771977E-2,-5.5815883E-2,6.397228E-3,-2.2444576E-2,-5.0643433E-2,9.2238195E-2,-2.817194E-2,-6.344351E-2,-8.338085E-2],"split_indices":[1,1,0,1,1,0,1,1,1,0,0,1,0,0,1,0,0,0,0,0,0,0,0,0,0,0,0,0,0],"split_type":[0,0,0,0,0,0,0,0,0,0,0,0,0,0,0,0,0,0,0,0,0,0,0,0,0,0,0,0,0],"sum_hessian":[4.985E3,3.927E3,1.058E3,2.618E3,1.309E3,9.04E2,1.54E2,2.126E3,4.92E2,5.27E2,7.82E2,5.12E2,3.92E2,4.5E1,1.09E2,1.661E3,4.65E2,1.21E2,3.71E2,1.1E2,4.17E2,1.1E2,6.72E2,2.82E2,2.3E2,1.6E2,2.32E2,8.7E1,2.2E1],"tree_param":{"num_deleted":"0","num_feature":"2","num_nodes":"29","size_leaf_vector":"1"}},{"base_weights":[-1.4701597E-3,1.5576528E-2,-5.9164035E-1,-2.7453905E-1,5.376738E-2,-5.549698E-2,-7.540528E-2,-3.1566438E-1,-1.7053878E-1,1.0584148E-1,-1.8439427E-1,-4.1861847E-2,-3.7626442E-3,1.0535222E-1,-3.8066056E-2,-4.831504E-3,2.2980845E-2,3.268035E-3,-5.2572455E-2],"categories":[],"categories_nodes":[],"categories_segments":[],"categories_sizes":[],"default_left":[0,0,0,0,0,0,0,0,0,0,0,0,0,0,0,0,0,0,0],"id":37,"left_children":[1,3,5,7,9,-1,-1,11,13,15,17,-1,-1,-1,-1,-1,-1,-1,-1],"loss_changes":[5.0170605E1,5.371837E1,4.153328E-1,2.3584213E0,5.3149918E1,0E0,0E0,1.1520184E1,4.2067734E1,6.720296E1,5.6995567E1,0E0,0E0,0E0,0E0,0E0,0E0,0E0,0E0],"parents":[2147483647,0,0,1,1,2,2,3,3,4,4,7,7,8,8,9,9,10,10],"right_children":[2,4,6,8,10,-1,-1,12,14,16,18,-1,-1,-1,-1,-1,-1,-1,-1],"split_conditions":[2.3E1,4E0,7E0,7E0,7E0,-5.549698E-2,-7.540528E-2,2E0,1E0,4E0,1.7E1,-4.1861847E-2,-3.7626442E-3,1.0535222E-1,-3.8066056E-2,-4.831504E-3,2.2980845E-2,3.268035E-3,-5.2572455E-2],"split_indices":[1,1,0,0,0,0,0,1,1,0,1,0,0,0,0,0,0,0,0],"split_type":[0,0,0,0,0,0,0,0,0,0,0,0,0,0,0,0,0,0,0],"sum_hessian":[4.985E3,4.846E3,1.39E2,5.63E2,4.283E3,1.17E2,2.2E1,4.02E2,1.61E2,3.515E3,7.68E2,2.93E2,1.09E2,2.3E1,1.38E2,1.567E3,1.948E3,4.7E2,2.98E2],"tree_param":{"num_deleted":"0","num_feature":"2","num_nodes":"19","size_leaf_vector":"1"}},{"base_weights":[-1.351499E-3,3.9545443E-2,-2.1862125E-1,-5.5995867E-2,1.9798948E-1,-1.5058868E-1,-5.334112E-1,7.061308E-3,-3.2793626E-1,6.593242E-1,-3.374315E-2,-3.457012E-1,-3.1222297E-2,-4.99943E-2,-6.819259E-2,-8.334905E-3,4.6011474E-2,-5.206714E-2,3.2480728E-2,1.9099677E-1,3.2563828E-2,7.1688914E-3,-4.5183104E-2,-2.8574971E-2,-4.8468485E-2,3.6608268E-2,-3.538932E-2],"categories":[],"categories_nodes":[],"categories_segments":[],"categories_sizes":[],"default_left":[0,0,0,0,0,0,0,0,0,0,0,0,0,0,0,0,0,0,0,0,0,0,0,0,0,0,0],"id":38,"left_children":[1,3,5,7,9,11,13,15,17,19,21,23,25,-1,-1,-1,-1,-1,-1,-1,-1,-1,-1,-1,-1,-1,-1],"loss_changes":[4.431259E1,6.3545067E1,1.6838295E1,4.4912388E1,1.6882733E2,1.5150916E1,3.5494614E-1,8.7161804E1,6.2191772E1,2.1972412E2,4.640441E1,1.9195728E0,5.205005E1,0E0,0E0,0E0,0E0,0E0,0E0,0E0,0E0,0E0,0E0,0E0,0E0,0E0,0E0],"parents":[2147483647,0,0,1,1,2,2,3,3,4,4,5,5,6,6,7,7,8,8,9,9,10,10,11,11,12,12],"right_children":[2,4,6,8,10,12,14,16,18,20,22,24,26,-1,-1,-1,-1,-1,-1,-1,-1,-1,-1,-1,-1,-1,-1],"split_conditions":[2.1E1,1.5E1,2.3E1,1.2E1,1.7E1,4E0,7E0,1.1E1,7E0,3E0,7E0,3E0,6E0,-4.99943E-2,-6.819259E-2,-8.334905E-3,4.6011474E-2,-5.206714E-2,3.2480728E-2,1.9099677E-1,3.2563828E-2,7.1688914E-3,-4.5183104E-2,-2.8574971E-2,-4.8468485E-2,3.6608268E-2,-3.538932E-2],"split_indices":[1,1,1,1,1,0,0,1,0,0,0,0,0,0,0,0,0,0,0,0,0,0,0,0,0,0,0],"split_type":[0,0,0,0,0,0,0,0,0,0,0,0,0,0,0,0,0,0,0,0,0,0,0,0,0,0,0],"sum_hessian":[4.985E3,4.196E3,7.89E2,2.618E3,1.578E3,6.5E2,1.39E2,2.126E3,4.92E2,5.27E2,1.051E3,2.46E2,4.04E2,1.17E2,2.2E1,1.773E3,3.53E2,3.8E2,1.12E2,1.1E2,4.17E2,8.4E2,2.11E2,1.74E2,7.2E1,1.81E2,2.23E2],"tree_param":{"num_deleted":"0","num_feature":"2","num_nodes":"27","size_leaf_vector":"1"}},{"base_weights":[-1.2144243E-3,4.324394E-2,-1.6611645E-1,-5.038922E-2,2.3040578E-1,-8.706883E-2,-6.2658083E-1,6.373118E-3,-2.9518253E-1,5.938151E-1,-1.4946103E-2,-3.000433E-1,1.9115756E-1,-8.756065E-2,-5.1674664E-1,-7.5018667E-3,4.1423377E-2,-9.079238E-2,-9.343628E-3,1.7206922E-1,2.9315202E-2,-5.0516237E-2,6.592901E-3,-3.6710415E-2,-1.1144749E-2,8.033088E-2,-2.3265148E-2,-4.847508E-2,-6.1669827E-2],"categories":[],"categories_nodes":[],"categories_segments":[],"categories_sizes":[],"default_left":[0,0,0,0,0,0,0,0,0,0,0,0,0,0,0,0,0,0,0,0,0,0,0,0,0,0,0,0,0],"id":39,"left_children":[1,3,5,7,9,11,13,15,17,19,21,23,25,-1,27,-1,-1,-1,-1,-1,-1,-1,-1,-1,-1,-1,-1,-1,-1],"loss_changes":[3.6560917E1,6.884806E1,3.849157E1,3.6392994E1,1.16812614E2,5.368324E1,3.7870178E0,7.064003E1,6.0858963E1,1.7838744E2,3.1076353E1,6.447201E0,1.02144936E2,0E0,5.283928E-2,0E0,0E0,0E0,0E0,0E0,0E0,0E0,0E0,0E0,0E0,0E0,0E0,0E0,0E0],"parents":[2147483647,0,0,1,1,2,2,3,3,4,4,5,5,6,6,7,7,8,8,9,9,10,10,11,11,12,12,14,14],"right_children":[2,4,6,8,10,12,14,16,18,20,22,24,26,-1,28,-1,-1,-1,-1,-1,-1,-1,-1,-1,-1,-1,-1,-1,-1],"split_conditions":[2E1,1.5E1,7E0,1.2E1,1.7E1,5E0,2.1E1,1.1E1,1.3E1,3E0,2E0,4E0,6E0,-8.756065E-2,2.3E1,-7.5018667E-3,4.1423377E-2,-9.079238E-2,-9.343628E-3,1.7206922E-1,2.9315202E-2,-5.0516237E-2,6.592901E-3,-3.6710415E-2,-1.1144749E-2,8.033088E-2,-2.3265148E-2,-4.847508E-2,-6.1669827E-2],"split_indices":[1,1,0,1,1,0,1,1,1,0,0,0,0,0,1,0,0,0,0,0,0,0,0,0,0,0,0,0,0],"split_type":[0,0,0,0,0,0,0,0,0,0,0,0,0,0,0,0,0,0,0,0,0,0,0,0,0,0,0,0,0],"sum_hessian":[4.985E3,3.927E3,1.058E3,2.618E3,1.309E3,9.04E2,1.54E2,2.126E3,4.92E2,5.27E2,7.82E2,5.12E2,3.92E2,4.5E1,1.09E2,1.773E3,3.53E2,1.21E2,3.71E2,1.1E2,4.17E2,1.1E2,6.72E2,3.77E2,1.35E2,1.6E2,2.32E2,8.7E1,2.2E1],"tree_param":{"num_deleted":"0","num_feature":"2","num_nodes":"29","size_leaf_vector":"1"}},{"base_weights":[-1.1126742E-3,-2.4899168E-1,2.6141575E-2,-3.115441E-1,-8.536697E-2,1.01320535E-1,-1.1038397E-1,-2.3782218E-1,-8.587961E-1,9.6773684E-2,-3.0440283E-1,3.2034907E-1,-9.3913846E-2,-5.5307704E-1,1.2162832E-1,-3.192294E-2,2.3489637E-2,-9.7679816E-2,-6.80154E-2,1.3835708E-3,-3.8411286E-2,8.407605E-3,9.853747E-2,-6.0591992E-2,3.6887948E-3,-1.6935615E-1,-3.4341197E-2,5.679337E-2,-2.2177285E-2],"categories":[],"categories_nodes":[],"categories_segments":[],"categories_sizes":[],"default_left":[0,0,0,0,0,0,0,0,0,0,0,0,0,0,0,0,0,0,0,0,0,0,0,0,0,0,0,0,0],"id":40,"left_children":[1,3,5,7,9,11,13,15,17,-1,19,21,23,25,27,-1,-1,-1,-1,-1,-1,-1,-1,-1,-1,-1,-1,-1,-1],"loss_changes":[3.3690712E1,5.0295506E0,4.6126656E1,1.4198738E1,3.21267E1,1.2395408E2,1.6399281E2,1.2235519E1,2.2099304E-1,0E0,2.9224968E0,2.1455347E2,1.0268938E2,1.3069514E2,1.607443E2,0E0,0E0,0E0,0E0,0E0,0E0,0E0,0E0,0E0,0E0,0E0,0E0,0E0,0E0],"parents":[2147483647,0,0,1,1,2,2,3,3,4,4,5,5,6,6,7,7,8,8,10,10,11,11,12,12,13,13,14,14],"right_children":[2,4,6,8,10,12,14,16,18,-1,20,22,24,26,28,-1,-1,-1,-1,-1,-1,-1,-1,-1,-1,-1,-1,-1,-1],"split_conditions":[3E0,7E0,1.8E1,6E0,1E0,5E0,4E0,5E0,1E0,9.6773684E-2,2E0,1.4E1,8E0,1.9E1,6E0,-3.192294E-2,2.3489637E-2,-9.7679816E-2,-6.80154E-2,1.3835708E-3,-3.8411286E-2,8.407605E-3,9.853747E-2,-6.0591992E-2,3.6887948E-3,-1.6935615E-1,-3.4341197E-2,5.679337E-2,-2.2177285E-2],"split_indices":[1,0,1,0,1,0,0,0,1,0,1,1,1,1,0,0,0,0,0,0,0,0,0,0,0,0,0,0,0],"split_type":[0,0,0,0,0,0,0,0,0,0,0,0,0,0,0,0,0,0,0,0,0,0,0,0,0,0,0,0,0],"sum_hessian":[4.985E3,4.93E2,4.492E3,3.56E2,1.37E2,2.897E3,1.595E3,3.15E2,4.1E1,2.3E1,1.14E2,1.365E3,1.532E3,5.48E2,1.047E3,2.69E2,4.6E1,2.2E1,1.9E1,2.3E1,9.1E1,1.008E3,3.57E2,3.11E2,1.221E3,8.4E1,4.64E2,4.55E2,5.92E2],"tree_param":{"num_deleted":"0","num_feature":"2","num_nodes":"29","size_leaf_vector":"1"}},{"base_weights":[-1.0481984E-3,1.2520167E-2,-4.707969E-1,-2.2432405E-1,3.9389372E-2,-2.9432565E-2,-5.0660086E-1,-2.808774E-1,-7.639742E-2,8.034742E-2,-1.446358E-1,-6.128493E-2,-4.24152E-1,-2.140666E-2,-7.768617E-2,8.7499544E-2,-2.7428463E-2,-5.3616655E-3,1.8838825E-2,-5.484126E-2,-2.930591E-4,-3.5875894E-2,-5.3649675E-2],"categories":[],"categories_nodes":[],"categories_segments":[],"categories_sizes":[],"default_left":[0,0,0,0,0,0,0,0,0,0,0,0,0,0,0,0,0,0,0,0,0,0,0],"id":41,"left_children":[1,3,5,7,9,-1,11,13,15,17,19,-1,21,-1,-1,-1,-1,-1,-1,-1,-1,-1,-1],"loss_changes":[3.1785276E1,3.085425E1,7.354641E-1,4.1112213E0,3.2829075E1,0E0,7.4746704E-1,1.1663647E1,2.6221048E1,5.1565033E1,4.5371696E1,0E0,3.0709362E-1,0E0,0E0,0E0,0E0,0E0,0E0,0E0,0E0,0E0,0E0],"parents":[2147483647,0,0,1,1,2,2,3,3,4,4,6,6,7,7,8,8,9,9,10,10,12,12],"right_children":[2,4,6,8,10,-1,12,14,16,18,20,-1,22,-1,-1,-1,-1,-1,-1,-1,-1,-1,-1],"split_conditions":[2.3E1,3E0,2E0,7E0,7E0,-2.9432565E-2,6E0,6E0,1E0,4E0,1E1,-6.128493E-2,7E0,-2.140666E-2,-7.768617E-2,8.7499544E-2,-2.7428463E-2,-5.3616655E-3,1.8838825E-2,-5.484126E-2,-2.930591E-4,-3.5875894E-2,-5.3649675E-2],"split_indices":[1,1,0,0,0,0,0,0,1,0,1,0,0,0,0,0,0,0,0,0,0,0,0],"split_type":[0,0,0,0,0,0,0,0,0,0,0,0,0,0,0,0,0,0,0,0,0,0,0],"sum_hessian":[4.985E3,4.846E3,1.39E2,4.93E2,4.353E3,2.5E1,1.14E2,3.56E2,1.37E2,3.561E3,7.92E2,4.7E1,6.7E1,3.15E2,4.1E1,2.3E1,1.14E2,1.59E3,1.971E3,2.05E2,5.87E2,4.5E1,2.2E1],"tree_param":{"num_deleted":"0","num_feature":"2","num_nodes":"23","size_leaf_vector":"1"}},{"base_weights":[-9.957255E-4,3.2008998E-2,-1.7633727E-1,-3.4544855E-2,1.4237791E-1,-1.2258958E-1,-4.250045E-1,2.2201953E-2,-2.793033E-1,4.7882414E-1,-2.662016E-2,-7.680856E-2,-4.146112E-2,-2.6602516E-2,-4.5725197E-1,9.971562E-3,-2.857313E-2,-4.5550104E-2,3.17251E-2,1.4578363E-1,2.1770172E-2,-3.5181228E-2,7.948988E-3,-2.1613201E-2,1.27949035E-2,-5.52841E-2,-3.830531E-2],"categories":[],"categories_nodes":[],"categories_segments":[],"categories_sizes":[],"default_left":[0,0,0,0,0,0,0,0,0,0,0,0,0,0,0,0,0,0,0,0,0,0,0,0,0,0,0],"id":42,"left_children":[1,3,5,7,9,11,13,15,17,19,21,23,-1,-1,25,-1,-1,-1,-1,-1,-1,-1,-1,-1,-1,-1,-1],"loss_changes":[2.8860119E1,3.0833881E1,1.0506477E1,3.638217E1,8.979274E1,8.671406E0,5.9609604E-1,5.0797928E1,5.196449E1,1.3466162E2,3.632843E1,1.6117182E1,0E0,0E0,6.038799E-1,0E0,0E0,0E0,0E0,0E0,0E0,0E0,0E0,0E0,0E0,0E0,0E0],"parents":[2147483647,0,0,1,1,2,2,3,3,4,4,5,5,6,6,7,7,8,8,9,9,10,10,11,11,14,14],"right_children":[2,4,6,8,10,12,14,16,18,20,22,24,-1,-1,26,-1,-1,-1,-1,-1,-1,-1,-1,-1,-1,-1,-1],"split_conditions":[2.1E1,1.5E1,2.3E1,1.2E1,1.7E1,7E0,2E0,7E0,7E0,3E0,3E0,5E0,-4.146112E-2,-2.6602516E-2,6E0,9.971562E-3,-2.857313E-2,-4.5550104E-2,3.17251E-2,1.4578363E-1,2.1770172E-2,-3.5181228E-2,7.948988E-3,-2.1613201E-2,1.27949035E-2,-5.52841E-2,-3.830531E-2],"split_indices":[1,1,1,1,1,0,0,0,0,0,0,0,0,0,0,0,0,0,0,0,0,0,0,0,0,0,0],"split_type":[0,0,0,0,0,0,0,0,0,0,0,0,0,0,0,0,0,0,0,0,0,0,0,0,0,0,0],"sum_hessian":[4.985E3,4.196E3,7.89E2,2.618E3,1.578E3,6.5E2,1.39E2,2.126E3,4.92E2,5.27E2,1.051E3,5.63E2,8.7E1,2.5E1,1.14E2,1.699E3,4.27E2,3.8E2,1.12E2,1.1E2,4.17E2,2.58E2,7.93E2,3.35E2,2.28E2,4.7E1,6.7E1],"tree_param":{"num_deleted":"0","num_feature":"2","num_nodes":"27","size_leaf_vector":"1"}},{"base_weights":[-9.088532E-4,2.8833611E-2,-1.5891925E-1,-2.0123252E-1,5.9509594E-2,-1.1040778E-1,-3.8336244E-1,-2.6301092E-1,-3.995626E-2,1.6724652E-1,-3.7799615E-2,-2.8393881E-2,-2.6662E-1,-2.4044579E-2,-4.1234046E-1,-2.0266777E-2,-7.1075924E-2,8.185242E-2,-2.1876996E-2,-2.125403E-3,7.792417E-2,-5.2640088E-2,5.540417E-3,-1.9458322E-2,5.7233747E-2,-4.0236495E-2,-6.7482027E-3,-4.987083E-2,-3.4531113E-2],"categories":[],"categories_nodes":[],"categories_segments":[],"categories_sizes":[],"default_left":[0,0,0,0,0,0,0,0,0,0,0,0,0,0,0,0,0,0,0,0,0,0,0,0,0,0,0,0,0],"id":43,"left_children":[1,3,5,7,9,11,13,15,17,19,21,23,25,-1,27,-1,-1,-1,-1,-1,-1,-1,-1,-1,-1,-1,-1,-1,-1],"loss_changes":[2.3436882E1,2.9632318E1,8.55925E0,4.9114056E0,3.88383E1,8.332765E0,4.8065567E-1,9.501574E0,2.1363182E1,2.0282193E2,8.869454E1,4.284081E1,6.0280085E0,0E0,4.9354553E-1,0E0,0E0,0E0,0E0,0E0,0E0,0E0,0E0,0E0,0E0,0E0,0E0,0E0,0E0],"parents":[2147483647,0,0,1,1,2,2,3,3,4,4,5,5,6,6,7,7,8,8,9,9,10,10,11,11,12,12,14,14],"right_children":[2,4,6,8,10,12,14,16,18,20,22,24,26,-1,28,-1,-1,-1,-1,-1,-1,-1,-1,-1,-1,-1,-1,-1,-1],"split_conditions":[2.1E1,3E0,2.3E1,7E0,5E0,6E0,2E0,6E0,1E0,4E0,8E0,5E0,2.2E1,-2.4044579E-2,6E0,-2.0266777E-2,-7.1075924E-2,8.185242E-2,-2.1876996E-2,-2.125403E-3,7.792417E-2,-5.2640088E-2,5.540417E-3,-1.9458322E-2,5.7233747E-2,-4.0236495E-2,-6.7482027E-3,-4.987083E-2,-3.4531113E-2],"split_indices":[1,1,1,0,0,0,0,0,1,0,1,0,1,0,0,0,0,0,0,0,0,0,0,0,0,0,0,0,0],"split_type":[0,0,0,0,0,0,0,0,0,0,0,0,0,0,0,0,0,0,0,0,0,0,0,0,0,0,0,0,0],"sum_hessian":[4.985E3,4.196E3,7.89E2,4.93E2,3.703E3,6.5E2,1.39E2,3.56E2,1.37E2,1.757E3,1.946E3,4.27E2,2.23E2,2.5E1,1.14E2,3.15E2,4.1E1,2.3E1,1.14E2,1.344E3,4.13E2,3.11E2,1.635E3,3.35E2,9.2E1,1.32E2,9.1E1,4.7E1,6.7E1],"tree_param":{"num_deleted":"0","num_feature":"2","num_nodes":"29","size_leaf_vector":"1"}},{"base_weights":[-8.423801E-4,3.1789683E-2,-1.2187911E-1,1.239863E-1,-5.447296E-2,-5.8263104E-2,-4.9252817E-1,-2.9178627E-2,6.379988E-1,-1.0616037E-1,6.604936E-1,-2.2123347E-1,1.5461746E-1,-7.811639E-2,-3.6734845E-2,8.832466E-3,-9.1233306E-2,1.3071782E-2,1.720961E-1,-1.9918408E-3,-6.095298E-2,-7.6463155E-2,9.547263E-2,-1.32536115E-2,-3.2893963E-2,6.309964E-2,-1.7521782E-2],"categories":[],"categories_nodes":[],"categories_segments":[],"categories_sizes":[],"default_left":[0,0,0,0,0,0,0,0,0,0,0,0,0,0,0,0,0,0,0,0,0,0,0,0,0,0,0],"id":44,"left_children":[1,3,5,7,9,11,13,15,17,19,21,23,25,-1,-1,-1,-1,-1,-1,-1,-1,-1,-1,-1,-1,-1,-1],"loss_changes":[1.9696968E1,3.1246624E1,2.4941689E1,1.4952441E2,7.50883E1,3.1431574E1,5.3133965E0,1.5200505E2,2.3929869E2,8.2209366E1,5.8176617E1,4.8572197E0,6.186129E1,0E0,0E0,0E0,0E0,0E0,0E0,0E0,0E0,0E0,0E0,0E0,0E0,0E0,0E0],"parents":[2147483647,0,0,1,1,2,2,3,3,4,4,5,5,6,6,7,7,8,8,9,9,10,10,11,11,12,12],"right_children":[2,4,6,8,10,12,14,16,18,20,22,24,26,-1,-1,-1,-1,-1,-1,-1,-1,-1,-1,-1,-1,-1,-1],"split_conditions":[2E1,5E0,7E0,4E0,1.9E1,5E0,2.1E1,1.8E1,1.6E1,1.7E1,6E0,2.2E1,6E0,-7.811639E-2,-3.6734845E-2,8.832466E-3,-9.1233306E-2,1.3071782E-2,1.720961E-1,-1.9918408E-3,-6.095298E-2,-7.6463155E-2,9.547263E-2,-1.32536115E-2,-3.2893963E-2,6.309964E-2,-1.7521782E-2],"split_indices":[1,0,0,0,1,0,1,1,1,1,0,1,0,0,0,0,0,0,0,0,0,0,0,0,0,0,0],"split_type":[0,0,0,0,0,0,0,0,0,0,0,0,0,0,0,0,0,0,0,0,0,0,0,0,0,0,0],"sum_hessian":[4.985E3,3.927E3,1.058E3,1.898E3,2.029E3,9.04E2,1.54E2,1.463E3,4.35E2,1.893E3,1.36E2,5.12E2,3.92E2,4.5E1,1.09E2,1.292E3,1.71E2,2.97E2,1.38E2,1.617E3,2.76E2,2.3E1,1.13E2,2.82E2,2.3E2,1.6E2,2.32E2],"tree_param":{"num_deleted":"0","num_feature":"2","num_nodes":"27","size_leaf_vector":"1"}},{"base_weights":[-7.6965534E-4,-1.8545681E-1,1.953665E-2,-2.4365804E-1,-3.354887E-2,7.65396E-2,-8.398095E-2,-1.9028421E-1,-6.394313E-1,7.41991E-2,-1.9510895E-1,2.4645443E-1,-7.491521E-2,-4.1716638E-1,9.064003E-2,-2.6533088E-2,2.4488358E-2,-7.4870415E-2,-4.8179593E-2,8.905193E-3,-2.6711712E-2,5.0197593E-3,7.989033E-2,-6.478726E-4,-7.5581186E-2,-1.4146763E-1,-2.3392873E-2,4.3991983E-2,-1.7809896E-2],"categories":[],"categories_nodes":[],"categories_segments":[],"categories_sizes":[],"default_left":[0,0,0,0,0,0,0,0,0,0,0,0,0,0,0,0,0,0,0,0,0,0,0,0,0,0,0,0,0],"id":45,"left_children":[1,3,5,7,9,11,13,15,17,-1,19,21,23,25,27,-1,-1,-1,-1,-1,-1,-1,-1,-1,-1,-1,-1,-1,-1],"loss_changes":[1.8702684E1,4.359394E0,2.6518759E1,7.419573E0,1.7435656E1,7.45968E1,9.289494E1,1.038487E1,3.6273766E-1,0E0,2.3769064E0,1.4806418E2,7.14301E1,1.0001603E2,9.8448975E1,0E0,0E0,0E0,0E0,0E0,0E0,0E0,0E0,0E0,0E0,0E0,0E0,0E0,0E0],"parents":[2147483647,0,0,1,1,2,2,3,3,4,4,5,5,6,6,7,7,8,8,10,10,11,11,12,12,13,13,14,14],"right_children":[2,4,6,8,10,12,14,16,18,-1,20,22,24,26,28,-1,-1,-1,-1,-1,-1,-1,-1,-1,-1,-1,-1,-1,-1],"split_conditions":[3E0,7E0,1.8E1,6E0,1E0,5E0,4E0,5E0,1E0,7.41991E-2,2E0,1.4E1,1.7E1,1.9E1,6E0,-2.6533088E-2,2.4488358E-2,-7.4870415E-2,-4.8179593E-2,8.905193E-3,-2.6711712E-2,5.0197593E-3,7.989033E-2,-6.478726E-4,-7.5581186E-2,-1.4146763E-1,-2.3392873E-2,4.3991983E-2,-1.7809896E-2],"split_indices":[1,0,1,0,1,0,0,0,1,0,1,1,1,1,0,0,0,0,0,0,0,0,0,0,0,0,0,0,0],"split_type":[0,0,0,0,0,0,0,0,0,0,0,0,0,0,0,0,0,0,0,0,0,0,0,0,0,0,0,0,0],"sum_hessian":[4.985E3,4.93E2,4.492E3,3.56E2,1.37E2,2.897E3,1.595E3,3.15E2,4.1E1,2.3E1,1.14E2,1.365E3,1.532E3,5.48E2,1.047E3,2.69E2,4.6E1,2.2E1,1.9E1,2.3E1,9.1E1,1.008E3,3.57E2,1.393E3,1.39E2,8.4E1,4.64E2,4.55E2,5.92E2],"tree_param":{"num_deleted":"0","num_feature":"2","num_nodes":"29","size_leaf_vector":"1"}},{"base_weights":[-7.325722E-4,-1.3511676E-1,2.4069622E-2,2.6756617E-1,-4.058794E-1,-1.7070393E-1,8.51187E-2,-1.5833247E-1,1.2767708E0,-1.1071682E-1,-2.8297058E-1,-8.1791304E-2,-4.5222867E-1,3.4262475E-1,1.3446989E-2,-6.494786E-2,-3.2570285E-3,1.0689004E-1,1.4839698E-1,-5.7294827E-2,-2.212945E-2,4.4625527E-3,-2.1201506E-2,-1.0146721E-2,-7.222911E-2,-8.117434E-2,5.1048726E-2,-8.485154E-2,4.8835143E-3],"categories":[],"categories_nodes":[],"categories_segments":[],"categories_sizes":[],"default_left":[0,0,0,0,0,0,0,0,0,0,0,0,0,0,0,0,0,0,0,0,0,0,0,0,0,0,0,0,0],"id":46,"left_children":[1,3,5,7,9,11,13,15,17,-1,19,21,23,25,27,-1,-1,-1,-1,-1,-1,-1,-1,-1,-1,-1,-1,-1,-1],"loss_changes":[1.6621702E1,8.482608E1,5.0074577E1,1.3473546E2,3.976719E1,2.5119274E1,5.9165012E1,1.3629486E1,2.4193573E0,0E0,6.9734306E0,1.2603254E1,2.2756031E1,1.3566943E2,7.6574104E1,0E0,0E0,0E0,0E0,0E0,0E0,0E0,0E0,0E0,0E0,0E0,0E0,0E0,0E0],"parents":[2147483647,0,0,1,1,2,2,3,3,4,4,5,5,6,6,7,7,8,8,10,10,11,11,12,12,13,13,14,14],"right_children":[2,4,6,8,10,12,14,16,18,-1,20,22,24,26,28,-1,-1,-1,-1,-1,-1,-1,-1,-1,-1,-1,-1,-1,-1],"split_conditions":[2E0,8E0,9E0,5E0,1E1,7E0,1.2E1,1E0,7E0,-1.1071682E-1,1.3E1,6E0,5E0,3E0,1.3E1,-6.494786E-2,-3.2570285E-3,1.0689004E-1,1.4839698E-1,-5.7294827E-2,-2.212945E-2,4.4625527E-3,-2.1201506E-2,-1.0146721E-2,-7.222911E-2,-8.117434E-2,5.1048726E-2,-8.485154E-2,4.8835143E-3],"split_indices":[0,1,1,1,1,1,1,1,1,0,1,0,0,0,1,0,0,0,0,0,0,0,0,0,0,0,0,0,0],"split_type":[0,0,0,0,0,0,0,0,0,0,0,0,0,0,0,0,0,0,0,0,0,0,0,0,0,0,0,0,0],"sum_hessian":[4.985E3,7.76E2,4.209E3,3.12E2,4.64E2,1.004E3,3.205E3,2.2E2,9.2E1,6.8E1,3.96E2,7.64E2,2.4E2,6.97E2,2.508E3,4.4E1,1.76E2,4.9E1,4.3E1,6.8E1,3.28E2,3.88E2,3.76E2,1.05E2,1.35E2,8.8E1,6.09E2,9.8E1,2.41E3],"tree_param":{"num_deleted":"0","num_feature":"2","num_nodes":"29","size_leaf_vector":"1"}},{"base_weights":[-7.016894E-4,1.7577203E-2,-1.8102004E-1,-1.2581873E-1,4.418719E-2,-2.9022664E-1,-7.006919E-2,2.4140717E-1,-4.150275E-1,-1.5373215E-1,1.1480677E-1,-1.1579128E-1,-6.8168956E-1,1.2720798E-1,-3.7063465E-1,-1.4280793E-2,1.1518387E-1,-9.9805504E-2,-2.9148972E-2,-7.3634125E-3,-4.073473E-2,3.0831957E-2,5.1009343E-3,-3.0384868E-2,3.202552E-2,-8.2701564E-2,-3.812089E-2,3.201052E-2,-2.8284634E-2,-6.259527E-2,-2.750719E-2],"categories":[],"categories_nodes":[],"categories_segments":[],"categories_sizes":[],"default_left":[0,0,0,0,0,0,0,0,0,0,0,0,0,0,0,0,0,0,0,0,0,0,0,0,0,0,0,0,0,0,0],"id":47,"left_children":[1,3,5,7,9,11,13,15,17,19,21,23,25,27,29,-1,-1,-1,-1,-1,-1,-1,-1,-1,-1,-1,-1,-1,-1,-1,-1],"loss_changes":[1.6437138E1,1.7283337E1,5.5411673E0,7.539951E1,5.340971E1,1.5694893E1,1.3625634E1,1.09652374E2,2.8303368E1,2.038565E1,3.474954E1,1.3299595E1,2.785141E0,1.1085209E1,2.0481186E0,0E0,0E0,0E0,0E0,0E0,0E0,0E0,0E0,0E0,0E0,0E0,0E0,0E0,0E0,0E0,0E0],"parents":[2147483647,0,0,1,1,2,2,3,3,4,4,5,5,6,6,7,7,8,8,9,9,10,10,11,11,12,12,13,13,14,14],"right_children":[2,4,6,8,10,12,14,16,18,20,22,24,26,28,30,-1,-1,-1,-1,-1,-1,-1,-1,-1,-1,-1,-1,-1,-1,-1,-1],"split_conditions":[2.2E1,2E0,5E0,8E0,9E0,4E0,2.3E1,5E0,1E1,7E0,1.2E1,3E0,2.3E1,7E0,6E0,-1.4280793E-2,1.1518387E-1,-9.9805504E-2,-2.9148972E-2,-7.3634125E-3,-4.073473E-2,3.0831957E-2,5.1009343E-3,-3.0384868E-2,3.202552E-2,-8.2701564E-2,-3.812089E-2,3.201052E-2,-2.8284634E-2,-6.259527E-2,-2.750719E-2],"split_indices":[1,0,0,1,1,0,1,1,1,1,1,0,1,0,0,0,0,0,0,0,0,0,0,0,0,0,0,0,0,0,0],"split_type":[0,0,0,0,0,0,0,0,0,0,0,0,0,0,0,0,0,0,0,0,0,0,0,0,0,0,0,0,0,0,0],"sum_hessian":[4.985E3,4.527E3,4.58E2,7.08E2,3.819E3,2.3E2,2.28E2,3.12E2,3.96E2,1.004E3,2.815E3,1.6E2,7E1,1.38E2,9E1,2.2E2,9.2E1,6.8E1,3.28E2,7.64E2,2.4E2,6.97E2,2.118E3,1.12E2,4.8E1,4.6E1,2.4E1,9.4E1,4.4E1,2.3E1,6.7E1],"tree_param":{"num_deleted":"0","num_feature":"2","num_nodes":"31","size_leaf_vector":"1"}},{"base_weights":[-6.807647E-4,2.658154E-2,-1.0180036E-1,-3.1959224E-2,1.435981E-1,-4.6823725E-2,-4.221362E-1,1.9028608E-2,-2.5187638E-1,3.5161087E-1,-4.4395447E-2,-1.7696537E-1,1.2317496E-1,-6.9709085E-2,-3.0331755E-2,8.326138E-3,-2.3614604E-2,-4.1302186E-2,2.9368369E-2,-4.7710034E-4,1.3387096E-1,-2.0196943E-2,5.9197545E-2,-1.0715879E-2,-2.6171988E-2,5.164622E-2,-1.4911011E-2],"categories":[],"categories_nodes":[],"categories_segments":[],"categories_sizes":[],"default_left":[0,0,0,0,0,0,0,0,0,0,0,0,0,0,0,0,0,0,0,0,0,0,0,0,0,0,0],"id":48,"left_children":[1,3,5,7,9,11,13,15,17,19,21,23,25,-1,-1,-1,-1,-1,-1,-1,-1,-1,-1,-1,-1,-1,-1],"loss_changes":[1.3747877E1,2.6912327E1,1.8630266E1,2.9371899E1,5.1243233E1,2.0043936E1,4.852371E0,3.4882416E1,4.346315E1,2.188161E2,6.920938E1,3.0070782E0,4.2161903E1,0E0,0E0,0E0,0E0,0E0,0E0,0E0,0E0,0E0,0E0,0E0,0E0,0E0,0E0],"parents":[2147483647,0,0,1,1,2,2,3,3,4,4,5,5,6,6,7,7,8,8,9,9,10,10,11,11,12,12],"right_children":[2,4,6,8,10,12,14,16,18,20,22,24,26,-1,-1,-1,-1,-1,-1,-1,-1,-1,-1,-1,-1,-1,-1],"split_conditions":[2E1,1.5E1,7E0,1.2E1,5E0,5E0,2.1E1,7E0,7E0,4E0,1.9E1,2.2E1,6E0,-6.9709085E-2,-3.0331755E-2,8.326138E-3,-2.3614604E-2,-4.1302186E-2,2.9368369E-2,-4.7710034E-4,1.3387096E-1,-2.0196943E-2,5.9197545E-2,-1.0715879E-2,-2.6171988E-2,5.164622E-2,-1.4911011E-2],"split_indices":[1,1,0,1,0,0,1,0,0,0,1,1,0,0,0,0,0,0,0,0,0,0,0,0,0,0,0],"split_type":[0,0,0,0,0,0,0,0,0,0,0,0,0,0,0,0,0,0,0,0,0,0,0,0,0,0,0],"sum_hessian":[4.985E3,3.927E3,1.058E3,2.618E3,1.309E3,9.04E2,1.54E2,2.126E3,4.92E2,6.21E2,6.88E2,5.12E2,3.92E2,4.5E1,1.09E2,1.699E3,4.27E2,3.8E2,1.12E2,4.57E2,1.64E2,5.52E2,1.36E2,2.82E2,2.3E2,1.6E2,2.32E2],"tree_param":{"num_deleted":"0","num_feature":"2","num_nodes":"27","size_leaf_vector":"1"}},{"base_weights":[-6.036591E-4,3.547432E-2,-7.725768E-2,-2.877354E-2,2.5310647E-1,-3.5074383E-1,6.608312E-2,1.711878E-2,-2.2671308E-1,1.0517968E0,-2.0021925E-2,-1.268411E0,-1.8224393E-1,3.5691878E-1,-1.5767261E-1,-3.8074106E-3,2.936585E-2,-7.09115E-2,-6.7896554E-3,1.6688032E-2,2.1020101E-1,-9.251308E-2,1.4914629E-2,-2.655293E-2,-1.6144091E-1,-3.3821724E-2,-8.432942E-3,2.1125479E-1,-8.056524E-3,-1.0156778E-1,3.947719E-4],"categories":[],"categories_nodes":[],"categories_segments":[],"categories_sizes":[],"default_left":[0,0,0,0,0,0,0,0,0,0,0,0,0,0,0,0,0,0,0,0,0,0,0,0,0,0,0,0,0,0,0],"id":49,"left_children":[1,3,5,7,9,11,13,15,17,19,21,23,25,27,29,-1,-1,-1,-1,-1,-1,-1,-1,-1,-1,-1,-1,-1,-1,-1,-1],"loss_changes":[1.3791635E1,4.7421604E1,6.2589134E1,2.3794626E1,1.6864716E2,8.4658966E1,6.825608E1,3.2475636E1,3.772225E1,1.8273135E2,8.84857E1,2.9065918E1,7.0729837E0,3.5040543E2,8.223596E1,0E0,0E0,0E0,0E0,0E0,0E0,0E0,0E0,0E0,0E0,0E0,0E0,0E0,0E0,0E0,0E0],"parents":[2147483647,0,0,1,1,2,2,3,3,4,4,5,5,6,6,7,7,8,8,9,9,10,10,11,11,12,12,13,13,14,14],"right_children":[2,4,6,8,10,12,14,16,18,20,22,24,26,28,30,-1,-1,-1,-1,-1,-1,-1,-1,-1,-1,-1,-1,-1,-1,-1,-1],"split_conditions":[1.8E1,1.5E1,4E0,1.2E1,3E0,1.9E1,6E0,1.1E1,1.3E1,2E0,4E0,2E0,2E0,1.9E1,1.9E1,-3.8074106E-3,2.936585E-2,-7.09115E-2,-6.7896554E-3,1.6688032E-2,2.1020101E-1,-9.251308E-2,1.4914629E-2,-2.655293E-2,-1.6144091E-1,-3.3821724E-2,-8.432942E-3,2.1125479E-1,-8.056524E-3,-1.0156778E-1,3.947719E-4],"split_indices":[1,1,0,1,0,1,0,1,1,0,0,0,0,1,1,0,0,0,0,0,0,0,0,0,0,0,0,0,0,0,0],"split_type":[0,0,0,0,0,0,0,0,0,0,0,0,0,0,0,0,0,0,0,0,0,0,0,0,0,0,0,0,0,0,0],"sum_hessian":[4.985E3,3.39E3,1.595E3,2.618E3,7.72E2,5.48E2,1.047E3,2.126E3,4.92E2,1.96E2,5.76E2,8.4E1,4.64E2,4.55E2,5.92E2,1.773E3,3.53E2,1.21E2,3.71E2,1.07E2,8.9E1,9E1,4.86E2,2.2E1,6.2E1,1.78E2,2.86E2,9E1,3.65E2,9.3E1,4.99E2],"tree_param":{"num_deleted":"0","num_feature":"2","num_nodes":"31","size_leaf_vector":"1"}}]},"name":"gbtree"},"learner_model_param":{"base_score":"[1.3714343E1]","boost_from_average":"1","num_class":"0","num_feature":"2","num_target":"1"},"objective":{"name":"reg:squarederror","reg_loss_param":{"scale_pos_weight":"1"}}},"version":[3,2,0]}