{"learner":{"attributes":{},"feature_names":["day_of_week","hour_of_day"],"feature_types":[],"gradient_booster":{"model":{"cats":{"enc":[],"feature_segments":[],"sorted_idx":[]},"gbtree_model_param":{"num_parallel_tree":"1","num_trees":"50"},"iteration_indptr":[0,1,2,3,4,5,6,7,8,9,10,11,12,13,14,15,16,17,18,19,20,21,22,23,24,25,26,27,28,29,30,31,32,33,34,35,36,37,38,39,40,41,42,43,44,45,46,47,48,49,50],"tree_info":[0,0,0,0,0,0,0,0,0,0,0,0,0,0,0,0,0,0,0,0,0,0,0,0,0,0,0,0,0,0,0,0,0,0,0,0,0,0,0,0,0,0,0,0,0,0,0,0,0,0],"trees":[{"base_weights":[2.90688E-7,-7.157391E0,1.9047006E0,-9.122466E0,-4.6742E0,4.243586E0,-4.0550284E0,-1.0488381E0,-8.161757E0,-1.6340962E-1,-7.5202775E0,1.3102666E0,4.675014E0,-1.7021235E0,-6.8229876E0,-6.6978544E-1,-8.5799724E-1,-2.9099488E-1,5.6364115E-2,-5.3257614E-1,-8.3974886E-1,6.257755E-1,-1.5405552E-1,5.2748126E-1,2.2441101E-1,-5.9942275E-1,-9.5190816E-2,-4.602735E-1,-1.0185368E0],"categories":[],"categories_nodes":[],"categories_segments":[],"categories_sizes":[],"default_left":[0,0,0,0,0,0,0,0,0,0,0,0,0,0,0,0,0,0,0,0,0,0,0,0,0,0,0,0,0],"id":0,"left_children":[1,3,5,7,9,11,13,-1,15,17,19,21,23,25,27,-1,-1,-1,-1,-1,-1,-1,-1,-1,-1,-1,-1,-1,-1],"loss_changes":[3.3468246E4,2.4752617E3,2.7045164E4,2.9100977E2,2.951525E3,1.7567383E3,3.5508574E3,0E0,4.8448242E1,1.8135878E2,2.2670947E2,2.548434E3,1.7582363E3,9.5063464E2,1.826918E3,0E0,0E0,0E0,0E0,0E0,0E0,0E0,0E0,0E0,0E0,0E0,0E0,0E0,0E0],"parents":[2147483647,0,0,1,1,2,2,3,3,4,4,5,5,6,6,8,8,9,9,10,10,11,11,12,12,13,13,14,14],"right_children":[2,4,6,8,10,12,14,-1,16,18,20,22,24,26,28,-1,-1,-1,-1,-1,-1,-1,-1,-1,-1,-1,-1,-1,-1],"split_conditions":[6E0,3E0,2E1,4E0,4E0,9E0,2.2E1,-1.0488381E0,1E0,4E0,7E0,4E0,1.8E1,4E0,7E0,-6.6978544E-1,-8.5799724E-1,-2.9099488E-1,5.6364115E-2,-5.3257614E-1,-8.3974886E-1,6.257755E-1,-1.5405552E-1,5.2748126E-1,2.2441101E-1,-5.9942275E-1,-9.5190816E-2,-4.602735E-1,-1.0185368E0],"split_indices":[1,1,1,0,0,1,1,0,1,1,0,0,1,0,0,0,0,0,0,0,0,0,0,0,0,0,0,0,0],"split_type":[0,0,0,0,0,0,0,0,0,0,0,0,0,0,0,0,0,0,0,0,0,0,0,0,0,0,0,0,0],"sum_hessian":[2.453E3,5.15E2,1.938E3,2.86E2,2.29E2,1.392E3,5.46E2,1.14E2,1.72E2,8.9E1,1.4E2,1.79E2,1.213E3,2.96E2,2.5E2,4.2E1,1.3E2,1.8E1,7.1E1,4.2E1,9.8E1,6.5E1,1.14E2,9.72E2,2.41E2,4.3E1,2.53E2,1.52E2,9.8E1],"tree_param":{"num_deleted":"0","num_feature":"2","num_nodes":"29","size_leaf_vector":"1"}},{"base_weights":[-2.0915412E-3,-6.44976E0,1.7137408E0,-8.219198E0,-4.2137666E0,3.8201058E0,-3.653499E0,-9.4486636E-1,-7.354413E0,-1.4967562E-1,-6.7779827E0,1.1818607E0,4.2081323E0,-1.5342499E0,-6.14658E0,-6.043646E-1,-7.728525E-1,-2.63427E-1,5.0805997E-2,-4.8055702E-1,-7.5662225E-1,5.641461E-1,-1.3878392E-1,4.5543942E-1,6.9151595E-2,-5.4084283E-1,-8.57092E-2,-4.1454697E-1,-9.177119E-1],"categories":[],"categories_nodes":[],"categories_segments":[],"categories_sizes":[],"default_left":[0,0,0,0,0,0,0,0,0,0,0,0,0,0,0,0,0,0,0,0,0,0,0,0,0,0,0,0,0],"id":1,"left_children":[1,3,5,7,9,11,13,-1,15,17,19,21,23,25,27,-1,-1,-1,-1,-1,-1,-1,-1,-1,-1,-1,-1,-1,-1],"loss_changes":[2.7159947E4,2.0068965E3,2.1935059E4,2.356543E2,2.395863E3,1.4210547E3,2.8806226E3,0E0,3.8126953E1,1.484169E2,1.8285693E2,2.0705996E3,1.4751035E3,7.7452344E2,1.4841309E3,0E0,0E0,0E0,0E0,0E0,0E0,0E0,0E0,0E0,0E0,0E0,0E0,0E0,0E0],"parents":[2147483647,0,0,1,1,2,2,3,3,4,4,5,5,6,6,8,8,9,9,10,10,11,11,12,12,13,13,14,14],"right_children":[2,4,6,8,10,12,14,-1,16,18,20,22,24,26,28,-1,-1,-1,-1,-1,-1,-1,-1,-1,-1,-1,-1,-1,-1],"split_conditions":[6E0,3E0,2E1,4E0,4E0,9E0,2.2E1,-9.4486636E-1,1E0,4E0,7E0,4E0,1.9E1,4E0,7E0,-6.043646E-1,-7.728525E-1,-2.63427E-1,5.0805997E-2,-4.8055702E-1,-7.5662225E-1,5.641461E-1,-1.3878392E-1,4.5543942E-1,6.9151595E-2,-5.4084283E-1,-8.57092E-2,-4.1454697E-1,-9.177119E-1],"split_indices":[1,1,1,0,0,1,1,0,1,1,0,0,1,0,0,0,0,0,0,0,0,0,0,0,0,0,0,0,0],"split_type":[0,0,0,0,0,0,0,0,0,0,0,0,0,0,0,0,0,0,0,0,0,0,0,0,0,0,0,0,0],"sum_hessian":[2.453E3,5.15E2,1.938E3,2.86E2,2.29E2,1.392E3,5.46E2,1.14E2,1.72E2,8.9E1,1.4E2,1.79E2,1.213E3,2.96E2,2.5E2,4.2E1,1.3E2,1.8E1,7.1E1,4.2E1,9.8E1,6.5E1,1.14E2,1.104E3,1.09E2,4.3E1,2.53E2,1.52E2,9.8E1],"tree_param":{"num_deleted":"0","num_feature":"2","num_nodes":"29","size_leaf_vector":"1"}},{"base_weights":[-3.8304345E-3,-5.8120937E0,1.5418465E0,-7.405369E0,-3.7986934E0,3.4387772E0,-3.2917297E0,-8.512015E-1,-6.626932E0,-1.3707064E-1,-6.1089587E0,1.0660377E0,3.7877512E0,-1.3829341E0,-5.53723E0,-5.4533356E-1,-6.9615716E-1,-2.3847075E-1,4.5795955E-2,-4.3361884E-1,-6.817243E-1,5.0858635E-1,-1.2502626E-1,4.292902E-1,1.7410581E-1,-4.8798773E-1,-7.717198E-2,-3.7336323E-1,-8.268677E-1],"categories":[],"categories_nodes":[],"categories_segments":[],"categories_sizes":[],"default_left":[0,0,0,0,0,0,0,0,0,0,0,0,0,0,0,0,0,0,0,0,0,0,0,0,0,0,0,0,0],"id":2,"left_children":[1,3,5,7,9,11,13,-1,15,17,19,21,23,25,27,-1,-1,-1,-1,-1,-1,-1,-1,-1,-1,-1,-1,-1,-1],"loss_changes":[2.2040234E4,1.6271465E3,1.7789932E4,1.9082812E2,1.9448062E3,1.1494004E3,2.336894E3,0E0,2.9979004E1,1.2145915E2,1.4748242E2,1.6823606E3,1.247666E3,6.310364E2,1.2056621E3,0E0,0E0,0E0,0E0,0E0,0E0,0E0,0E0,0E0,0E0,0E0,0E0,0E0,0E0],"parents":[2147483647,0,0,1,1,2,2,3,3,4,4,5,5,6,6,8,8,9,9,10,10,11,11,12,12,13,13,14,14],"right_children":[2,4,6,8,10,12,14,-1,16,18,20,22,24,26,28,-1,-1,-1,-1,-1,-1,-1,-1,-1,-1,-1,-1,-1,-1],"split_conditions":[6E0,3E0,2E1,4E0,4E0,9E0,2.2E1,-8.512015E-1,1E0,4E0,7E0,4E0,1.8E1,4E0,7E0,-5.4533356E-1,-6.9615716E-1,-2.3847075E-1,4.5795955E-2,-4.3361884E-1,-6.817243E-1,5.0858635E-1,-1.2502626E-1,4.292902E-1,1.7410581E-1,-4.8798773E-1,-7.717198E-2,-3.7336323E-1,-8.268677E-1],"split_indices":[1,1,1,0,0,1,1,0,1,1,0,0,1,0,0,0,0,0,0,0,0,0,0,0,0,0,0,0,0],"split_type":[0,0,0,0,0,0,0,0,0,0,0,0,0,0,0,0,0,0,0,0,0,0,0,0,0,0,0,0,0],"sum_hessian":[2.453E3,5.15E2,1.938E3,2.86E2,2.29E2,1.392E3,5.46E2,1.14E2,1.72E2,8.9E1,1.4E2,1.79E2,1.213E3,2.96E2,2.5E2,4.2E1,1.3E2,1.8E1,7.1E1,4.2E1,9.8E1,6.5E1,1.14E2,9.72E2,2.41E2,4.3E1,2.53E2,1.52E2,9.8E1],"tree_param":{"num_deleted":"0","num_feature":"2","num_nodes":"29","size_leaf_vector":"1"}},{"base_weights":[-5.1502017E-3,-5.237475E0,1.3872607E0,-6.6721234E0,-3.4245112E0,2.8546233E0,-3.707752E0,-7.668215E-1,-5.971415E0,-1.255047E-1,-5.505973E0,3.3198056E0,1.6337362E-1,-2.4914489E0,-6.08997E0,-4.9206838E-1,-6.270728E-1,-2.1587875E-1,4.127992E-2,-3.9126542E-1,-6.1424047E-1,9.615651E-2,3.7009493E-1,-3.2433653E-1,1.0189036E-1,-7.3059314E-1,-1.5735899E-1,-3.1577024E-1,-7.450161E-1],"categories":[],"categories_nodes":[],"categories_segments":[],"categories_sizes":[],"default_left":[0,0,0,0,0,0,0,0,0,0,0,0,0,0,0,0,0,0,0,0,0,0,0,0,0,0,0,0,0],"id":3,"left_children":[1,3,5,7,9,11,13,-1,15,17,19,21,23,25,27,-1,-1,-1,-1,-1,-1,-1,-1,-1,-1,-1,-1,-1,-1],"loss_changes":[1.7885996E4,1.319251E3,1.4506998E4,1.5452637E2,1.5786626E3,1.8848516E3,1.2423423E3,0E0,2.3552246E1,9.9398315E1,1.1894629E2,1.1505361E3,6.532532E2,1.2655992E3,5.587871E2,0E0,0E0,0E0,0E0,0E0,0E0,0E0,0E0,0E0,0E0,0E0,0E0,0E0,0E0],"parents":[2147483647,0,0,1,1,2,2,3,3,4,4,5,5,6,6,8,8,9,9,10,10,11,11,12,12,13,13,14,14],"right_children":[2,4,6,8,10,12,14,-1,16,18,20,22,24,26,28,-1,-1,-1,-1,-1,-1,-1,-1,-1,-1,-1,-1,-1,-1],"split_conditions":[6E0,3E0,2.1E1,4E0,4E0,1.9E1,7E0,-7.668215E-1,1E0,4E0,7E0,9E0,4E0,4E0,2.2E1,-4.9206838E-1,-6.270728E-1,-2.1587875E-1,4.127992E-2,-3.9126542E-1,-6.1424047E-1,9.615651E-2,3.7009493E-1,-3.2433653E-1,1.0189036E-1,-7.3059314E-1,-1.5735899E-1,-3.1577024E-1,-7.450161E-1],"split_indices":[1,1,1,0,0,1,0,0,1,1,0,1,0,0,1,0,0,0,0,0,0,0,0,0,0,0,0,0,0],"split_type":[0,0,0,0,0,0,0,0,0,0,0,0,0,0,0,0,0,0,0,0,0,0,0,0,0,0,0,0,0],"sum_hessian":[2.453E3,5.15E2,1.938E3,2.86E2,2.29E2,1.505E3,4.33E2,1.14E2,1.72E2,8.9E1,1.4E2,1.283E3,2.22E2,2.88E2,1.45E2,4.2E1,1.3E2,1.8E1,7.1E1,4.2E1,9.8E1,1.79E2,1.104E3,4.4E1,1.78E2,4.5E1,2.43E2,4.7E1,9.8E1],"tree_param":{"num_deleted":"0","num_feature":"2","num_nodes":"29","size_leaf_vector":"1"}},{"base_weights":[-6.5793563E-3,-4.7196693E0,1.2476553E0,-6.0114822E0,-3.0871909E0,2.5693228E0,-3.341467E0,-6.908061E-1,-5.380742E0,-1.1489412E-1,-4.9625063E0,2.9881883E0,1.4603858E-1,-2.2453766E0,-5.488239E0,-4.4400594E-1,-5.6484413E-1,-1.954271E-1,3.720928E-2,-3.5304874E-1,-5.534368E-1,1.5510625E-1,3.5083005E-1,-2.926236E-1,9.175823E-2,-6.591221E-1,-1.4168756E-1,-2.8485104E-1,-6.7126703E-1],"categories":[],"categories_nodes":[],"categories_segments":[],"categories_sizes":[],"default_left":[0,0,0,0,0,0,0,0,0,0,0,0,0,0,0,0,0,0,0,0,0,0,0,0,0,0,0,0,0],"id":4,"left_children":[1,3,5,7,9,11,13,-1,15,17,19,21,23,25,27,-1,-1,-1,-1,-1,-1,-1,-1,-1,-1,-1,-1,-1,-1],"loss_changes":[1.4512269E4,1.0696113E3,1.1769191E4,1.2512988E2,1.2814487E3,1.5281982E3,1.00890283E3,0E0,1.848584E1,8.13449E1,9.592822E1,9.5430664E2,5.3128296E2,1.0312158E3,4.527754E2,0E0,0E0,0E0,0E0,0E0,0E0,0E0,0E0,0E0,0E0,0E0,0E0,0E0,0E0],"parents":[2147483647,0,0,1,1,2,2,3,3,4,4,5,5,6,6,8,8,9,9,10,10,11,11,12,12,13,13,14,14],"right_children":[2,4,6,8,10,12,14,-1,16,18,20,22,24,26,28,-1,-1,-1,-1,-1,-1,-1,-1,-1,-1,-1,-1,-1,-1],"split_conditions":[6E0,3E0,2.1E1,4E0,4E0,1.9E1,7E0,-6.908061E-1,1E0,4E0,7E0,1E1,4E0,4E0,2.2E1,-4.4400594E-1,-5.6484413E-1,-1.954271E-1,3.720928E-2,-3.5304874E-1,-5.534368E-1,1.5510625E-1,3.5083005E-1,-2.926236E-1,9.175823E-2,-6.591221E-1,-1.4168756E-1,-2.8485104E-1,-6.7126703E-1],"split_indices":[1,1,1,0,0,1,0,0,1,1,0,1,0,0,1,0,0,0,0,0,0,0,0,0,0,0,0,0,0],"split_type":[0,0,0,0,0,0,0,0,0,0,0,0,0,0,0,0,0,0,0,0,0,0,0,0,0,0,0,0,0],"sum_hessian":[2.453E3,5.15E2,1.938E3,2.86E2,2.29E2,1.505E3,4.33E2,1.14E2,1.72E2,8.9E1,1.4E2,1.283E3,2.22E2,2.88E2,1.45E2,4.2E1,1.3E2,1.8E1,7.1E1,4.2E1,9.8E1,3.42E2,9.41E2,4.4E1,1.78E2,4.5E1,2.43E2,4.7E1,9.8E1],"tree_param":{"num_deleted":"0","num_feature":"2","num_nodes":"29","size_leaf_vector":"1"}},{"base_weights":[-7.6395557E-3,-4.2530594E0,1.1221409E0,-5.416256E0,-2.7831008E0,2.512515E0,-2.4206622E0,-6.2232614E-1,-4.8484993E0,-1.0516287E-1,-4.472685E0,7.1169835E-1,2.777453E0,-9.5107305E-1,-4.1499343E0,-4.0063792E-1,-5.087909E-1,-1.7691298E-1,3.354001E-2,-3.1856498E-1,-4.9865213E-1,4.3375275E-1,-1.3754009E-1,3.1766573E-1,1.1609099E-1,-3.4312275E-1,-5.1769566E-2,-2.8945318E-1,-6.048184E-1],"categories":[],"categories_nodes":[],"categories_segments":[],"categories_sizes":[],"default_left":[0,0,0,0,0,0,0,0,0,0,0,0,0,0,0,0,0,0,0,0,0,0,0,0,0,0,0,0,0],"id":5,"left_children":[1,3,5,7,9,11,13,-1,15,17,19,21,23,25,27,-1,-1,-1,-1,-1,-1,-1,-1,-1,-1,-1,-1,-1,-1],"loss_changes":[1.1775119E4,8.67209E2,9.557251E3,1.01325195E2,1.0401879E3,6.626289E2,1.386155E3,0E0,1.4494629E1,6.657077E1,7.736157E1,1.3681094E3,7.797451E2,3.17452E2,5.8064355E2,0E0,0E0,0E0,0E0,0E0,0E0,0E0,0E0,0E0,0E0,0E0,0E0,0E0,0E0],"parents":[2147483647,0,0,1,1,2,2,3,3,4,4,5,5,6,6,8,8,9,9,10,10,11,11,12,12,13,13,14,14],"right_children":[2,4,6,8,10,12,14,-1,16,18,20,22,24,26,28,-1,-1,-1,-1,-1,-1,-1,-1,-1,-1,-1,-1,-1,-1],"split_conditions":[6E0,3E0,2E1,4E0,4E0,9E0,2.2E1,-6.2232614E-1,1E0,4E0,7E0,4E0,1.8E1,4E0,7E0,-4.0063792E-1,-5.087909E-1,-1.7691298E-1,3.354001E-2,-3.1856498E-1,-4.9865213E-1,4.3375275E-1,-1.3754009E-1,3.1766573E-1,1.1609099E-1,-3.4312275E-1,-5.1769566E-2,-2.8945318E-1,-6.048184E-1],"split_indices":[1,1,1,0,0,1,1,0,1,1,0,0,1,0,0,0,0,0,0,0,0,0,0,0,0,0,0,0,0],"split_type":[0,0,0,0,0,0,0,0,0,0,0,0,0,0,0,0,0,0,0,0,0,0,0,0,0,0,0,0,0],"sum_hessian":[2.453E3,5.15E2,1.938E3,2.86E2,2.29E2,1.392E3,5.46E2,1.14E2,1.72E2,8.9E1,1.4E2,1.79E2,1.213E3,2.96E2,2.5E2,4.2E1,1.3E2,1.8E1,7.1E1,4.2E1,9.8E1,6.5E1,1.14E2,9.72E2,2.41E2,4.3E1,2.53E2,1.52E2,9.8E1],"tree_param":{"num_deleted":"0","num_feature":"2","num_nodes":"29","size_leaf_vector":"1"}},{"base_weights":[-8.119296E-3,-3.8325834E0,1.0096382E0,-4.8799677E0,-2.508967E0,2.0888188E0,-2.7374947E0,-5.6063473E-1,-4.3689065E0,-9.623939E-2,-4.031212E0,2.4276059E0,1.2876663E-1,-1.8258384E0,-4.5233245E0,-3.6150584E-1,-4.583002E-1,-1.6015278E-1,3.0232614E-2,-2.8744927E-1,-4.4929057E-1,1.2089621E-1,2.8687602E-1,-2.5291222E-1,7.9623155E-2,-5.6387657E-1,-1.0995251E-1,-2.5189033E-1,-5.449475E-1],"categories":[],"categories_nodes":[],"categories_segments":[],"categories_sizes":[],"default_left":[0,0,0,0,0,0,0,0,0,0,0,0,0,0,0,0,0,0,0,0,0,0,0,0,0,0,0,0,0],"id":6,"left_children":[1,3,5,7,9,11,13,-1,15,17,19,21,23,25,27,-1,-1,-1,-1,-1,-1,-1,-1,-1,-1,-1,-1,-1,-1],"loss_changes":[9.555762E3,7.0310547E2,7.846711E3,8.204736E1,8.443473E2,9.997329E2,6.9832056E2,0E0,1.135376E1,5.4480232E1,6.238623E1,6.8682275E2,3.9762637E2,7.941507E2,2.573069E2,0E0,0E0,0E0,0E0,0E0,0E0,0E0,0E0,0E0,0E0,0E0,0E0,0E0,0E0],"parents":[2147483647,0,0,1,1,2,2,3,3,4,4,5,5,6,6,8,8,9,9,10,10,11,11,12,12,13,13,14,14],"right_children":[2,4,6,8,10,12,14,-1,16,18,20,22,24,26,28,-1,-1,-1,-1,-1,-1,-1,-1,-1,-1,-1,-1,-1,-1],"split_conditions":[6E0,3E0,2.1E1,4E0,4E0,1.9E1,7E0,-5.6063473E-1,1E0,4E0,7E0,1E1,4E0,4E0,2.2E1,-3.6150584E-1,-4.583002E-1,-1.6015278E-1,3.0232614E-2,-2.8744927E-1,-4.4929057E-1,1.2089621E-1,2.8687602E-1,-2.5291222E-1,7.9623155E-2,-5.6387657E-1,-1.0995251E-1,-2.5189033E-1,-5.449475E-1],"split_indices":[1,1,1,0,0,1,0,0,1,1,0,1,0,0,1,0,0,0,0,0,0,0,0,0,0,0,0,0,0],"split_type":[0,0,0,0,0,0,0,0,0,0,0,0,0,0,0,0,0,0,0,0,0,0,0,0,0,0,0,0,0],"sum_hessian":[2.453E3,5.15E2,1.938E3,2.86E2,2.29E2,1.505E3,4.33E2,1.14E2,1.72E2,8.9E1,1.4E2,1.283E3,2.22E2,2.88E2,1.45E2,4.2E1,1.3E2,1.8E1,7.1E1,4.2E1,9.8E1,3.42E2,9.41E2,4.4E1,1.78E2,4.5E1,2.43E2,4.7E1,9.8E1],"tree_param":{"num_deleted":"0","num_feature":"2","num_nodes":"29","size_leaf_vector":"1"}},{"base_weights":[-8.726614E-3,-3.45368E0,9.08037E-1,-4.3967805E0,-2.2618384E0,1.8800929E0,-2.4671335E0,-5.0505877E-1,-3.9367542E0,-8.805899E-2,-3.633316E0,2.1851633E0,1.1511284E-1,-1.6455859E0,-4.07645E0,-3.26196E-1,-4.1282E-1,-1.4498045E-1,2.7251353E-2,-2.5937286E-1,-4.048154E-1,5.219492E-2,2.4541166E-1,-2.2818299E-1,7.170531E-2,-5.0871474E-1,-9.900227E-2,-2.2722606E-1,-4.910032E-1],"categories":[],"categories_nodes":[],"categories_segments":[],"categories_sizes":[],"default_left":[0,0,0,0,0,0,0,0,0,0,0,0,0,0,0,0,0,0,0,0,0,0,0,0,0,0,0,0,0],"id":7,"left_children":[1,3,5,7,9,11,13,-1,15,17,19,21,23,25,27,-1,-1,-1,-1,-1,-1,-1,-1,-1,-1,-1,-1,-1,-1],"loss_changes":[7.7533784E3,5.7005273E2,6.3662144E3,6.643799E1,6.853767E2,8.1064404E2,5.6709644E2,0E0,8.883301E0,4.4585808E1,5.030786E1,5.730869E2,3.2338422E2,6.469942E2,2.0841821E2,0E0,0E0,0E0,0E0,0E0,0E0,0E0,0E0,0E0,0E0,0E0,0E0,0E0,0E0],"parents":[2147483647,0,0,1,1,2,2,3,3,4,4,5,5,6,6,8,8,9,9,10,10,11,11,12,12,13,13,14,14],"right_children":[2,4,6,8,10,12,14,-1,16,18,20,22,24,26,28,-1,-1,-1,-1,-1,-1,-1,-1,-1,-1,-1,-1,-1,-1],"split_conditions":[6E0,3E0,2.1E1,4E0,4E0,1.9E1,7E0,-5.0505877E-1,1E0,4E0,7E0,9E0,4E0,4E0,2.2E1,-3.26196E-1,-4.1282E-1,-1.4498045E-1,2.7251353E-2,-2.5937286E-1,-4.048154E-1,5.219492E-2,2.4541166E-1,-2.2818299E-1,7.170531E-2,-5.0871474E-1,-9.900227E-2,-2.2722606E-1,-4.910032E-1],"split_indices":[1,1,1,0,0,1,0,0,1,1,0,1,0,0,1,0,0,0,0,0,0,0,0,0,0,0,0,0,0],"split_type":[0,0,0,0,0,0,0,0,0,0,0,0,0,0,0,0,0,0,0,0,0,0,0,0,0,0,0,0,0],"sum_hessian":[2.453E3,5.15E2,1.938E3,2.86E2,2.29E2,1.505E3,4.33E2,1.14E2,1.72E2,8.9E1,1.4E2,1.283E3,2.22E2,2.88E2,1.45E2,4.2E1,1.3E2,1.8E1,7.1E1,4.2E1,9.8E1,1.79E2,1.104E3,4.4E1,1.78E2,4.5E1,2.43E2,4.7E1,9.8E1],"tree_param":{"num_deleted":"0","num_feature":"2","num_nodes":"29","size_leaf_vector":"1"}},{"base_weights":[-9.162505E-3,-3.1122384E0,8.1662214E-1,-3.9614375E0,-2.0390544E0,1.692177E0,-2.2234757E0,-4.5499206E-1,-3.5473506E0,-8.056109E-2,-3.2746952E0,2.062843E0,4.8457336E-1,-9.817151E-1,-3.1249118E0,-2.9433504E-1,-3.7185314E-1,-1.3124546E-1,2.4564082E-2,-2.3403879E-1,-3.6474276E-1,9.445554E-2,2.533843E-1,-1.8178533E-1,1.0166772E-1,-3.245298E-1,-6.70178E-2,-2.2639087E-1,-4.4239885E-1],"categories":[],"categories_nodes":[],"categories_segments":[],"categories_sizes":[],"default_left":[0,0,0,0,0,0,0,0,0,0,0,0,0,0,0,0,0,0,0,0,0,0,0,0,0,0,0,0,0],"id":8,"left_children":[1,3,5,7,9,11,13,-1,15,17,19,21,23,25,27,-1,-1,-1,-1,-1,-1,-1,-1,-1,-1,-1,-1,-1,-1],"loss_changes":[6.2908486E3,4.6217725E2,5.1649404E3,5.3796387E1,5.563349E2,6.731123E2,4.8273804E2,0E0,6.9421387E0,3.648853E1,4.0566284E1,6.043804E2,4.367693E2,1.2758003E2,2.7073022E2,0E0,0E0,0E0,0E0,0E0,0E0,0E0,0E0,0E0,0E0,0E0,0E0,0E0,0E0],"parents":[2147483647,0,0,1,1,2,2,3,3,4,4,5,5,6,6,8,8,9,9,10,10,11,11,12,12,13,13,14,14],"right_children":[2,4,6,8,10,12,14,-1,16,18,20,22,24,26,28,-1,-1,-1,-1,-1,-1,-1,-1,-1,-1,-1,-1,-1,-1],"split_conditions":[6E0,3E0,2.1E1,4E0,4E0,1.8E1,2.2E1,-4.5499206E-1,1E0,4E0,7E0,1E1,4E0,4E0,7E0,-2.9433504E-1,-3.7185314E-1,-1.3124546E-1,2.4564082E-2,-2.3403879E-1,-3.6474276E-1,9.445554E-2,2.533843E-1,-1.8178533E-1,1.0166772E-1,-3.245298E-1,-6.70178E-2,-2.2639087E-1,-4.4239885E-1],"split_indices":[1,1,1,0,0,1,1,0,1,1,0,1,0,0,0,0,0,0,0,0,0,0,0,0,0,0,0,0,0],"split_type":[0,0,0,0,0,0,0,0,0,0,0,0,0,0,0,0,0,0,0,0,0,0,0,0,0,0,0,0,0],"sum_hessian":[2.453E3,5.15E2,1.938E3,2.86E2,2.29E2,1.505E3,4.33E2,1.14E2,1.72E2,8.9E1,1.4E2,1.151E3,3.54E2,1.83E2,2.5E2,4.2E1,1.3E2,1.8E1,7.1E1,4.2E1,9.8E1,3.42E2,8.09E2,6.6E1,2.88E2,2.1E1,1.62E2,1.52E2,9.8E1],"tree_param":{"num_deleted":"0","num_feature":"2","num_nodes":"29","size_leaf_vector":"1"}},{"base_weights":[-9.313731E-3,-2.8045547E0,7.3455095E-1,-3.5692003E0,-1.8382162E0,1.6562756E0,-1.6140726E0,-3.949792E-1,-3.0443546E-1,-7.369009E-2,-2.9514725E0,3.761136E-1,1.8447212E0,-5.936409E-1,-2.8150852E0,-1.1881166E-1,2.2141816E-2,-2.1117924E-1,-3.286369E-1,3.6468533E-1,-1.5042771E-1,2.1288824E-1,6.945826E-2,-1.5597343E-2,-1.5371571E-1,-2.0389974E-1,-3.9860582E-1],"categories":[],"categories_nodes":[],"categories_segments":[],"categories_sizes":[],"default_left":[0,0,0,0,0,0,0,0,0,0,0,0,0,0,0,0,0,0,0,0,0,0,0,0,0,0,0],"id":9,"left_children":[1,3,5,7,9,11,13,-1,-1,15,17,19,21,23,25,-1,-1,-1,-1,-1,-1,-1,-1,-1,-1,-1,-1],"loss_changes":[5.104615E3,3.747151E2,4.2001904E3,4.5303955E1,4.515876E2,3.3535474E2,6.687053E2,0E0,0E0,2.986195E1,3.270996E1,1.1125342E3,3.9528613E2,1.2240534E2,2.1997571E2,0E0,0E0,0E0,0E0,0E0,0E0,0E0,0E0,0E0,0E0,0E0,0E0],"parents":[2147483647,0,0,1,1,2,2,3,3,4,4,5,5,6,6,9,9,10,10,11,11,12,12,13,13,14,14],"right_children":[2,4,6,8,10,12,14,-1,-1,16,18,20,22,24,26,-1,-1,-1,-1,-1,-1,-1,-1,-1,-1,-1,-1],"split_conditions":[6E0,3E0,2E1,7E0,4E0,9E0,2.2E1,-3.949792E-1,-3.0443546E-1,4E0,7E0,4E0,1.8E1,7E0,7E0,-1.1881166E-1,2.2141816E-2,-2.1117924E-1,-3.286369E-1,3.6468533E-1,-1.5042771E-1,2.1288824E-1,6.945826E-2,-1.5597343E-2,-1.5371571E-1,-2.0389974E-1,-3.9860582E-1],"split_indices":[1,1,1,0,0,1,1,0,0,1,0,0,1,0,0,0,0,0,0,0,0,0,0,0,0,0,0],"split_type":[0,0,0,0,0,0,0,0,0,0,0,0,0,0,0,0,0,0,0,0,0,0,0,0,0,0,0],"sum_hessian":[2.453E3,5.15E2,1.938E3,2.86E2,2.29E2,1.392E3,5.46E2,1.62E2,1.24E2,8.9E1,1.4E2,1.79E2,1.213E3,2.96E2,2.5E2,1.8E1,7.1E1,4.2E1,9.8E1,6.5E1,1.14E2,9.72E2,2.41E2,2.03E2,9.3E1,1.52E2,9.8E1],"tree_param":{"num_deleted":"0","num_feature":"2","num_nodes":"27","size_leaf_vector":"1"}},{"base_weights":[-9.038626E-3,-2.526688E0,6.6095424E-1,-3.2147174E0,-1.6571617E0,1.3756562E0,-1.8206176E0,-3.707341E-1,-2.8686686E0,-6.739487E-2,-2.6601536E0,1.6030722E0,6.0060773E-2,-1.1992291E0,-3.038156E0,-2.3585041E-1,-3.0142292E-1,-1.0755582E-1,1.9958427E-2,-1.9055246E-1,-2.9610515E-1,7.300938E-2,1.9192384E-1,-1.9073038E-1,5.5431407E-2,-4.209717E-1,-6.2676325E-2,-1.8336333E-1,-3.5914788E-1],"categories":[],"categories_nodes":[],"categories_segments":[],"categories_sizes":[],"default_left":[0,0,0,0,0,0,0,0,0,0,0,0,0,0,0,0,0,0,0,0,0,0,0,0,0,0,0,0,0],"id":10,"left_children":[1,3,5,7,9,11,13,-1,15,17,19,21,23,25,27,-1,-1,-1,-1,-1,-1,-1,-1,-1,-1,-1,-1,-1,-1],"loss_changes":[4.1410947E3,3.033745E2,3.4414846E3,3.8290283E1,3.665611E2,4.5047998E2,3.2470544E2,0E0,5.737915E0,2.4438936E1,2.6374084E1,3.5299097E2,2.1789719E2,4.9542456E2,9.0721924E1,0E0,0E0,0E0,0E0,0E0,0E0,0E0,0E0,0E0,0E0,0E0,0E0,0E0,0E0],"parents":[2147483647,0,0,1,1,2,2,3,3,4,4,5,5,6,6,8,8,9,9,10,10,11,11,12,12,13,13,14,14],"right_children":[2,4,6,8,10,12,14,-1,16,18,20,22,24,26,28,-1,-1,-1,-1,-1,-1,-1,-1,-1,-1,-1,-1,-1,-1],"split_conditions":[6E0,3E0,2.1E1,4E0,4E0,1.9E1,7E0,-3.707341E-1,1E0,4E0,7E0,1E1,4E0,4E0,2.2E1,-2.3585041E-1,-3.0142292E-1,-1.0755582E-1,1.9958427E-2,-1.9055246E-1,-2.9610515E-1,7.300938E-2,1.9192384E-1,-1.9073038E-1,5.5431407E-2,-4.209717E-1,-6.2676325E-2,-1.8336333E-1,-3.5914788E-1],"split_indices":[1,1,1,0,0,1,0,0,1,1,0,1,0,0,1,0,0,0,0,0,0,0,0,0,0,0,0,0,0],"split_type":[0,0,0,0,0,0,0,0,0,0,0,0,0,0,0,0,0,0,0,0,0,0,0,0,0,0,0,0,0],"sum_hessian":[2.453E3,5.15E2,1.938E3,2.86E2,2.29E2,1.505E3,4.33E2,1.14E2,1.72E2,8.9E1,1.4E2,1.283E3,2.22E2,2.88E2,1.45E2,4.2E1,1.3E2,1.8E1,7.1E1,4.2E1,9.8E1,3.42E2,9.41E2,4.4E1,1.78E2,4.5E1,2.43E2,4.7E1,9.8E1],"tree_param":{"num_deleted":"0","num_feature":"2","num_nodes":"29","size_leaf_vector":"1"}},{"base_weights":[-9.103873E-3,-2.2768917E0,5.943967E-1,-2.8964093E0,-1.4939423E0,1.2381771E0,-1.64092E0,-3.3398304E0,-2.5849073E0,-6.162883E-2,-2.3975894E0,1.5150915E0,3.360821E-1,-7.0082307E-1,-2.3235373E0,-3.9217293E-1,-3.1517282E-1,-2.1281388E-1,-2.715107E-1,-9.736636E-2,1.7990297E-2,-1.7194033E-1,-2.667937E-1,1.08932614E-1,2.4717906E-1,-1.6170378E-1,7.877186E-2,-2.5187945E-1,-4.511532E-2,-4.7715908E-1,-2.0436922E-1],"categories":[],"categories_nodes":[],"categories_segments":[],"categories_sizes":[],"default_left":[0,0,0,0,0,0,0,0,0,0,0,0,0,0,0,0,0,0,0,0,0,0,0,0,0,0,0,0,0,0,0],"id":11,"left_children":[1,3,5,7,9,11,13,15,17,19,21,23,25,27,29,-1,-1,-1,-1,-1,-1,-1,-1,-1,-1,-1,-1,-1,-1,-1,-1],"loss_changes":[3.3599258E3,2.4595923E2,2.7923552E3,3.1009033E1,2.9754266E2,3.7569434E2,2.7688086E2,2.2729492E-1,4.510376E0,2.0000853E1,2.1264587E1,4.6655078E2,3.1441937E2,8.23799E1,1.622024E2,0E0,0E0,0E0,0E0,0E0,0E0,0E0,0E0,0E0,0E0,0E0,0E0,0E0,0E0,0E0,0E0],"parents":[2147483647,0,0,1,1,2,2,3,3,4,4,5,5,6,6,7,7,8,8,9,9,10,10,11,11,12,12,13,13,14,14],"right_children":[2,4,6,8,10,12,14,16,18,20,22,24,26,28,30,-1,-1,-1,-1,-1,-1,-1,-1,-1,-1,-1,-1,-1,-1,-1,-1],"split_conditions":[6E0,3E0,2.1E1,4E0,4E0,1.8E1,2.2E1,1E0,1E0,4E0,7E0,1.5E1,4E0,4E0,4E0,-3.9217293E-1,-3.1517282E-1,-2.1281388E-1,-2.715107E-1,-9.736636E-2,1.7990297E-2,-1.7194033E-1,-2.667937E-1,1.08932614E-1,2.4717906E-1,-1.6170378E-1,7.877186E-2,-2.5187945E-1,-4.511532E-2,-4.7715908E-1,-2.0436922E-1],"split_indices":[1,1,1,0,0,1,1,1,1,1,0,1,0,0,0,0,0,0,0,0,0,0,0,0,0,0,0,0,0,0,0],"split_type":[0,0,0,0,0,0,0,0,0,0,0,0,0,0,0,0,0,0,0,0,0,0,0,0,0,0,0,0,0,0,0],"sum_hessian":[2.453E3,5.15E2,1.938E3,2.86E2,2.29E2,1.505E3,4.33E2,1.14E2,1.72E2,8.9E1,1.4E2,1.151E3,3.54E2,1.83E2,2.5E2,2.3E1,9.1E1,4.2E1,1.3E2,1.8E1,7.1E1,4.2E1,9.8E1,7.98E2,3.53E2,6.6E1,2.88E2,2.1E1,1.62E2,2.4E1,2.26E2],"tree_param":{"num_deleted":"0","num_feature":"2","num_nodes":"31","size_leaf_vector":"1"}},{"base_weights":[-9.177544E-3,-2.0525162E0,5.345934E-1,-2.6109207E0,-1.3468006E0,1.2119089E0,-1.1912478E0,-2.8979406E0,-2.2157593E0,-5.634776E-2,-2.160942E0,1.5876159E-1,1.367061E0,-4.2439055E-1,-2.0938988E0,-3.545897E-1,-2.7661628E-1,-1.920274E-1,-2.3421459E-1,-8.814219E-2,1.6216272E-2,-1.551461E-1,-2.4038385E-1,3.1085086E-1,-1.5355173E-1,1.5854327E-1,4.8341375E-2,-2.0194193E-4,-1.3365111E-1,-1.4721364E-1,-3.0336538E-1],"categories":[],"categories_nodes":[],"categories_segments":[],"categories_sizes":[],"default_left":[0,0,0,0,0,0,0,0,0,0,0,0,0,0,0,0,0,0,0,0,0,0,0,0,0,0,0,0,0,0,0],"id":12,"left_children":[1,3,5,7,9,11,13,15,17,19,21,23,25,27,29,-1,-1,-1,-1,-1,-1,-1,-1,-1,-1,-1,-1,-1,-1,-1,-1],"loss_changes":[2.7277566E3,1.9982617E2,2.2680168E3,2.6130127E1,2.415188E2,2.2739648E2,3.7774713E2,4.109497E0,1.7059326E-1,1.6368795E1,1.7144287E1,9.0435803E2,2.3349121E2,1.1441756E2,1.4219446E2,0E0,0E0,0E0,0E0,0E0,0E0,0E0,0E0,0E0,0E0,0E0,0E0,0E0,0E0,0E0,0E0],"parents":[2147483647,0,0,1,1,2,2,3,3,4,4,5,5,6,6,7,7,8,8,9,9,10,10,11,11,12,12,13,13,14,14],"right_children":[2,4,6,8,10,12,14,16,18,20,22,24,26,28,30,-1,-1,-1,-1,-1,-1,-1,-1,-1,-1,-1,-1,-1,-1,-1,-1],"split_conditions":[6E0,3E0,2E1,7E0,4E0,9E0,2.2E1,1E0,1E0,4E0,7E0,4E0,1.8E1,7E0,7E0,-3.545897E-1,-2.7661628E-1,-1.920274E-1,-2.3421459E-1,-8.814219E-2,1.6216272E-2,-1.551461E-1,-2.4038385E-1,3.1085086E-1,-1.5355173E-1,1.5854327E-1,4.8341375E-2,-2.0194193E-4,-1.3365111E-1,-1.4721364E-1,-3.0336538E-1],"split_indices":[1,1,1,0,0,1,1,1,1,1,0,0,1,0,0,0,0,0,0,0,0,0,0,0,0,0,0,0,0,0,0],"split_type":[0,0,0,0,0,0,0,0,0,0,0,0,0,0,0,0,0,0,0,0,0,0,0,0,0,0,0,0,0,0,0],"sum_hessian":[2.453E3,5.15E2,1.938E3,2.86E2,2.29E2,1.392E3,5.46E2,1.62E2,1.24E2,8.9E1,1.4E2,1.79E2,1.213E3,2.96E2,2.5E2,2.3E1,1.39E2,4.2E1,8.2E1,1.8E1,7.1E1,4.2E1,9.8E1,6.5E1,1.14E2,9.72E2,2.41E2,2.03E2,9.3E1,1.52E2,9.8E1],"tree_param":{"num_deleted":"0","num_feature":"2","num_nodes":"31","size_leaf_vector":"1"}},{"base_weights":[-8.970697E-3,-1.8502198E0,4.810208E-1,-2.353513E0,-1.214153E0,1.0067768E0,-1.3444849E0,-2.7221928E0,-2.0948327E0,-5.1512126E-2,-1.9476533E0,1.2710669E0,3.510391E-1,-8.370596E-1,-2.3397002E0,-3.2060817E-1,-2.566372E-1,-1.7327122E-1,-2.1977055E-1,-7.979185E-2,1.4617167E-2,-1.3999236E-1,-2.1658829E-1,1.5264933E-1,2.6805092E-2,-4.4623885E-1,6.065945E-2,-3.357056E-1,-3.5854775E-2,-1.4790486E-1,-2.7333528E-1],"categories":[],"categories_nodes":[],"categories_segments":[],"categories_sizes":[],"default_left":[0,0,0,0,0,0,0,0,0,0,0,0,0,0,0,0,0,0,0,0,0,0,0,0,0,0,0,0,0,0,0],"id":13,"left_children":[1,3,5,7,9,11,13,15,17,19,21,23,25,27,29,-1,-1,-1,-1,-1,-1,-1,-1,-1,-1,-1,-1,-1,-1,-1,-1],"loss_changes":[2.21488E3,1.6232874E2,1.8623485E3,2.166858E1,1.9604306E2,2.6055127E2,2.1721045E2,4.4299316E-1,2.6365967E0,1.3396353E1,1.3821777E1,2.7449E2,5.3656915E2,3.4728656E2,4.542169E1,0E0,0E0,0E0,0E0,0E0,0E0,0E0,0E0,0E0,0E0,0E0,0E0,0E0,0E0,0E0,0E0],"parents":[2147483647,0,0,1,1,2,2,3,3,4,4,5,5,6,6,7,7,8,8,9,9,10,10,11,11,12,12,13,13,14,14],"right_children":[2,4,6,8,10,12,14,16,18,20,22,24,26,28,30,-1,-1,-1,-1,-1,-1,-1,-1,-1,-1,-1,-1,-1,-1,-1,-1],"split_conditions":[6E0,3E0,2.1E1,4E0,4E0,7E0,7E0,1E0,1E0,4E0,7E0,1.8E1,7E0,4E0,2.2E1,-3.2060817E-1,-2.566372E-1,-1.7327122E-1,-2.1977055E-1,-7.979185E-2,1.4617167E-2,-1.3999236E-1,-2.1658829E-1,1.5264933E-1,2.6805092E-2,-4.4623885E-1,6.065945E-2,-3.357056E-1,-3.5854775E-2,-1.4790486E-1,-2.7333528E-1],"split_indices":[1,1,1,0,0,0,0,1,1,1,0,1,1,0,1,0,0,0,0,0,0,0,0,0,0,0,0,0,0,0,0],"split_type":[0,0,0,0,0,0,0,0,0,0,0,0,0,0,0,0,0,0,0,0,0,0,0,0,0,0,0,0,0,0,0],"sum_hessian":[2.453E3,5.15E2,1.938E3,2.86E2,2.29E2,1.505E3,4.33E2,1.14E2,1.72E2,8.9E1,1.4E2,1.072E3,4.33E2,2.88E2,1.45E2,2.3E1,9.1E1,4.2E1,1.3E2,1.8E1,7.1E1,4.2E1,9.8E1,8.54E2,2.18E2,2.1E1,4.12E2,4.5E1,2.43E2,4.7E1,9.8E1],"tree_param":{"num_deleted":"0","num_feature":"2","num_nodes":"31","size_leaf_vector":"1"}},{"base_weights":[-9.047821E-3,-1.6678956E0,4.3240368E-1,-2.1215427E0,-1.0945712E0,1.0650096E0,-8.064658E-1,-2.3587863E0,-1.7952046E-1,-4.7084924E-2,-1.7554166E0,3.636076E-1,1.3192728E0,-2.340208E-1,-1.7291996E0,-2.8988323E-1,-2.2493584E-1,-7.223261E-2,1.3175768E-2,-1.2631865E-1,-1.9514821E-1,7.949921E-2,-1.2428143E-1,1.4897163E-1,8.25587E-2,-1.7519696E-1,6.0462016E-3,-3.8499156E-1,-1.4880231E-1],"categories":[],"categories_nodes":[],"categories_segments":[],"categories_sizes":[],"default_left":[0,0,0,0,0,0,0,0,0,0,0,0,0,0,0,0,0,0,0,0,0,0,0,0,0,0,0,0,0],"id":14,"left_children":[1,3,5,7,9,11,13,15,-1,17,19,21,23,25,27,-1,-1,-1,-1,-1,-1,-1,-1,-1,-1,-1,-1,-1,-1],"loss_changes":[1.7977874E3,1.3188269E2,1.5204846E3,1.7985474E1,1.591294E2,2.2850952E2,3.4610394E2,3.1121826E0,0E0,1.0963742E1,1.1142761E1,2.3868205E2,7.803552E1,1.8159192E2,1.22649475E2,0E0,0E0,0E0,0E0,0E0,0E0,0E0,0E0,0E0,0E0,0E0,0E0,0E0,0E0],"parents":[2147483647,0,0,1,1,2,2,3,3,4,4,5,5,6,6,7,7,9,9,10,10,11,11,12,12,13,13,14,14],"right_children":[2,4,6,8,10,12,14,16,-1,18,20,22,24,26,28,-1,-1,-1,-1,-1,-1,-1,-1,-1,-1,-1,-1,-1,-1],"split_conditions":[6E0,3E0,1.9E1,7E0,4E0,1E1,2.2E1,1E0,-1.7952046E-1,4E0,7E0,7E0,1.7E1,4E0,4E0,-2.8988323E-1,-2.2493584E-1,-7.223261E-2,1.3175768E-2,-1.2631865E-1,-1.9514821E-1,7.949921E-2,-1.2428143E-1,1.4897163E-1,8.25587E-2,-1.7519696E-1,6.0462016E-3,-3.8499156E-1,-1.4880231E-1],"split_indices":[1,1,1,0,0,1,1,1,0,1,0,0,1,0,0,0,0,0,0,0,0,0,0,0,0,0,0,0,0],"split_type":[0,0,0,0,0,0,0,0,0,0,0,0,0,0,0,0,0,0,0,0,0,0,0,0,0,0,0,0,0],"sum_hessian":[2.453E3,5.15E2,1.938E3,2.86E2,2.29E2,1.283E3,6.55E2,1.62E2,1.24E2,8.9E1,1.4E2,3.42E2,9.41E2,4.05E2,2.5E2,2.3E1,1.39E2,1.8E1,7.1E1,4.2E1,9.8E1,2.7E2,7.2E1,6.98E2,2.43E2,6.5E1,3.4E2,2.4E1,2.26E2],"tree_param":{"num_deleted":"0","num_feature":"2","num_nodes":"29","size_leaf_vector":"1"}},{"base_weights":[-8.791303E-3,-1.5031891E0,3.888972E-1,-1.8457035E0,-8.8557905E-1,8.19689E-1,-1.1068661E0,-1.9118075E0,-1.383091E0,1.187647E-2,-1.5066849E0,1.0488086E0,2.5133634E-1,-6.464377E-1,-2.010681E0,-2.2190237E-1,-1.6965377E-1,-6.538956E-2,-1.8450029E-1,-1.13980524E-1,-1.7021526E-1,1.2543105E-1,2.4171785E-2,-3.917801E-1,4.7281258E-2,-2.7478018E-1,-2.4762956E-2,-1.648899E-1,-2.6723242E-1],"categories":[],"categories_nodes":[],"categories_segments":[],"categories_sizes":[],"default_left":[0,0,0,0,0,0,0,0,0,0,0,0,0,0,0,0,0,0,0,0,0,0,0,0,0,0,0,0,0],"id":15,"left_children":[1,3,5,7,9,11,13,15,17,-1,19,21,23,25,27,-1,-1,-1,-1,-1,-1,-1,-1,-1,-1,-1,-1,-1,-1],"loss_changes":[1.4590085E3,1.0752026E2,1.2503263E3,7.4779053E0,1.1620645E2,1.9584894E2,1.7930591E2,1.521582E1,1.3950645E1,0E0,6.306885E0,1.7766309E2,4.025927E2,2.4151346E2,3.0541687E1,0E0,0E0,0E0,0E0,0E0,0E0,0E0,0E0,0E0,0E0,0E0,0E0,0E0,0E0],"parents":[2147483647,0,0,1,1,2,2,3,3,4,4,5,5,6,6,7,7,8,8,10,10,11,11,12,12,13,13,14,14],"right_children":[2,4,6,8,10,12,14,16,18,-1,20,22,24,26,28,-1,-1,-1,-1,-1,-1,-1,-1,-1,-1,-1,-1,-1,-1],"split_conditions":[6E0,4E0,2.1E1,3E0,4E0,7E0,7E0,4E0,4E0,1.187647E-2,7E0,1.8E1,7E0,4E0,2.3E1,-2.2190237E-1,-1.6965377E-1,-6.538956E-2,-1.8450029E-1,-1.13980524E-1,-1.7021526E-1,1.2543105E-1,2.4171785E-2,-3.917801E-1,4.7281258E-2,-2.7478018E-1,-2.4762956E-2,-1.648899E-1,-2.6723242E-1],"split_indices":[1,1,1,1,0,0,0,0,0,0,0,1,1,0,1,0,0,0,0,0,0,0,0,0,0,0,0,0,0],"split_type":[0,0,0,0,0,0,0,0,0,0,0,0,0,0,0,0,0,0,0,0,0,0,0,0,0,0,0,0,0],"sum_hessian":[2.453E3,5.15E2,1.938E3,3.3E2,1.85E2,1.505E3,4.33E2,2.86E2,4.4E1,7.1E1,1.14E2,1.072E3,4.33E2,2.88E2,1.45E2,1.14E2,1.72E2,1.8E1,2.6E1,4.2E1,7.2E1,8.54E2,2.18E2,2.1E1,4.12E2,4.5E1,2.43E2,9.6E1,4.9E1],"tree_param":{"num_deleted":"0","num_feature":"2","num_nodes":"29","size_leaf_vector":"1"}},{"base_weights":[-8.662071E-3,-1.354641E0,3.4952965E-1,-1.6630709E0,-7.9848516E-1,8.6816037E-1,-6.661279E-1,-1.721991E0,-1.250335E0,1.070536E-2,-1.3584878E0,5.4527456E-1,1.397209E0,-1.8906006E-1,-1.4351456E0,-1.9209109E-1,-1.4488235E-1,-5.9194744E-2,-1.6673361E-1,-1.02847554E-1,-1.5342693E-1,9.397913E-2,-5.6572616E-2,2.1166828E-1,6.749576E-2,-1.5081118E-1,6.679469E-3,-3.2165346E-1,-1.23263516E-1],"categories":[],"categories_nodes":[],"categories_segments":[],"categories_sizes":[],"default_left":[0,0,0,0,0,0,0,0,0,0,0,0,0,0,0,0,0,0,0,0,0,0,0,0,0,0,0,0,0],"id":16,"left_children":[1,3,5,7,9,11,13,15,17,-1,19,21,23,25,27,-1,-1,-1,-1,-1,-1,-1,-1,-1,-1,-1,-1,-1,-1],"loss_changes":[1.1835923E3,8.7184326E1,1.021949E3,5.8963013E0,9.446678E1,2.1857404E2,2.403978E2,1.2812134E1,1.1367699E1,0E0,5.0931854E0,3.5074E2,2.5111682E2,1.3711989E2,8.6583374E1,0E0,0E0,0E0,0E0,0E0,0E0,0E0,0E0,0E0,0E0,0E0,0E0,0E0,0E0],"parents":[2147483647,0,0,1,1,2,2,3,3,4,4,5,5,6,6,7,7,8,8,10,10,11,11,12,12,13,13,14,14],"right_children":[2,4,6,8,10,12,14,16,18,-1,20,22,24,26,28,-1,-1,-1,-1,-1,-1,-1,-1,-1,-1,-1,-1,-1,-1],"split_conditions":[6E0,4E0,1.9E1,3E0,4E0,1.5E1,2.2E1,7E0,4E0,1.070536E-2,7E0,7E0,1.7E1,4E0,4E0,-1.9209109E-1,-1.4488235E-1,-5.9194744E-2,-1.6673361E-1,-1.02847554E-1,-1.5342693E-1,9.397913E-2,-5.6572616E-2,2.1166828E-1,6.749576E-2,-1.5081118E-1,6.679469E-3,-3.2165346E-1,-1.23263516E-1],"split_indices":[1,1,1,1,0,1,1,0,0,0,0,0,1,0,0,0,0,0,0,0,0,0,0,0,0,0,0,0,0],"split_type":[0,0,0,0,0,0,0,0,0,0,0,0,0,0,0,0,0,0,0,0,0,0,0,0,0,0,0,0,0],"sum_hessian":[2.453E3,5.15E2,1.938E3,3.3E2,1.85E2,1.283E3,6.55E2,2.86E2,4.4E1,7.1E1,1.14E2,7.98E2,4.85E2,4.05E2,2.5E2,1.62E2,1.24E2,1.8E1,2.6E1,4.2E1,7.2E1,5.89E2,2.09E2,2.42E2,2.43E2,6.5E1,3.4E2,2.4E1,2.26E2],"tree_param":{"num_deleted":"0","num_feature":"2","num_nodes":"29","size_leaf_vector":"1"}},{"base_weights":[-8.236282E-3,-1.2207437E0,3.1443626E-1,-1.4984646E0,-7.1995676E-1,6.673992E-1,-9.1108614E-1,-1.5509661E0,-1.1303221E0,9.649734E-3,-1.2248676E0,-3.0186313E-1,7.591914E-1,-4.9322376E-1,-1.7319844E0,-1.8086302E-1,-1.3707215E-1,-5.358684E-2,-1.5067776E-1,-9.280203E-2,-1.3829438E-1,1.5899841E-1,-4.0786973E-1,9.5534414E-2,1.92354E-2,-2.2423275E-1,-1.6145332E-2,-1.4266783E-1,-2.2896384E-1],"categories":[],"categories_nodes":[],"categories_segments":[],"categories_sizes":[],"default_left":[0,0,0,0,0,0,0,0,0,0,0,0,0,0,0,0,0,0,0,0,0,0,0,0,0,0,0,0,0],"id":17,"left_children":[1,3,5,7,9,11,13,15,17,-1,19,21,23,25,27,-1,-1,-1,-1,-1,-1,-1,-1,-1,-1,-1,-1,-1,-1],"loss_changes":[9.604938E2,7.0685974E1,8.3934973E2,4.64447E0,7.6794174E1,1.34219E2,1.4801749E2,1.0849915E1,9.262901E0,0E0,4.1129303E0,9.4250543E2,1.5280908E2,1.6734491E2,2.1590698E1,0E0,0E0,0E0,0E0,0E0,0E0,0E0,0E0,0E0,0E0,0E0,0E0,0E0,0E0],"parents":[2147483647,0,0,1,1,2,2,3,3,4,4,5,5,6,6,7,7,8,8,10,10,11,11,12,12,13,13,14,14],"right_children":[2,4,6,8,10,12,14,16,18,-1,20,22,24,26,28,-1,-1,-1,-1,-1,-1,-1,-1,-1,-1,-1,-1,-1,-1],"split_conditions":[6E0,4E0,2.1E1,3E0,4E0,8E0,7E0,4E0,4E0,9.649734E-3,7E0,6E0,1.8E1,4E0,2.3E1,-1.8086302E-1,-1.3707215E-1,-5.358684E-2,-1.5067776E-1,-9.280203E-2,-1.3829438E-1,1.5899841E-1,-4.0786973E-1,9.5534414E-2,1.92354E-2,-2.2423275E-1,-1.6145332E-2,-1.4266783E-1,-2.2896384E-1],"split_indices":[1,1,1,1,0,1,0,0,0,0,0,0,1,0,1,0,0,0,0,0,0,0,0,0,0,0,0,0,0],"split_type":[0,0,0,0,0,0,0,0,0,0,0,0,0,0,0,0,0,0,0,0,0,0,0,0,0,0,0,0,0],"sum_hessian":[2.453E3,5.15E2,1.938E3,3.3E2,1.85E2,1.505E3,4.33E2,2.86E2,4.4E1,7.1E1,1.14E2,1.3E2,1.375E3,2.88E2,1.45E2,1.14E2,1.72E2,1.8E1,2.6E1,4.2E1,7.2E1,8.7E1,4.3E1,1.021E3,3.54E2,4.5E1,2.43E2,9.6E1,4.9E1],"tree_param":{"num_deleted":"0","num_feature":"2","num_nodes":"29","size_leaf_vector":"1"}},{"base_weights":[-8.020075E-3,-1.1001105E0,2.826074E-1,-1.3501959E0,-6.491516E-1,6.550807E-1,-6.664564E-1,-1.3969774E0,-1.0218291E0,8.698198E-3,-1.1043904E0,-2.735768E-1,7.508836E-1,-2.4706058E-1,-1.4406149E0,-1.5631406E-1,-1.1691248E-1,-4.851018E-2,-1.3616806E-1,-8.373764E-2,-1.24654405E-1,2.2010635E-1,-2.7440718E-1,8.599024E-2,2.8737906E-2,-1.5741669E-1,6.6054584E-3,-1.21213555E-1,-2.0652537E-1],"categories":[],"categories_nodes":[],"categories_segments":[],"categories_sizes":[],"default_left":[0,0,0,0,0,0,0,0,0,0,0,0,0,0,0,0,0,0,0,0,0,0,0,0,0,0,0,0,0],"id":18,"left_children":[1,3,5,7,9,11,13,15,17,-1,19,21,23,25,27,-1,-1,-1,-1,-1,-1,-1,-1,-1,-1,-1,-1,-1,-1],"loss_changes":[7.7918964E2,5.7317078E1,6.858748E2,3.6571655E0,6.2427734E1,1.24138E2,1.7724342E2,9.038513E0,7.547783E0,0E0,3.3212433E0,8.069196E2,6.357312E1,1.4803517E2,2.4898315E1,0E0,0E0,0E0,0E0,0E0,0E0,0E0,0E0,0E0,0E0,0E0,0E0,0E0,0E0],"parents":[2147483647,0,0,1,1,2,2,3,3,4,4,5,5,6,6,7,7,8,8,10,10,11,11,12,12,13,13,14,14],"right_children":[2,4,6,8,10,12,14,16,18,-1,20,22,24,26,28,-1,-1,-1,-1,-1,-1,-1,-1,-1,-1,-1,-1,-1,-1],"split_conditions":[6E0,4E0,2E1,3E0,4E0,8E0,7E0,7E0,4E0,8.698198E-3,7E0,4E0,1.8E1,4E0,2.3E1,-1.5631406E-1,-1.1691248E-1,-4.851018E-2,-1.3616806E-1,-8.373764E-2,-1.24654405E-1,2.2010635E-1,-2.7440718E-1,8.599024E-2,2.8737906E-2,-1.5741669E-1,6.6054584E-3,-1.21213555E-1,-2.0652537E-1],"split_indices":[1,1,1,1,0,1,0,0,0,0,0,0,1,0,1,0,0,0,0,0,0,0,0,0,0,0,0,0,0],"split_type":[0,0,0,0,0,0,0,0,0,0,0,0,0,0,0,0,0,0,0,0,0,0,0,0,0,0,0,0,0],"sum_hessian":[2.453E3,5.15E2,1.938E3,3.3E2,1.85E2,1.392E3,5.46E2,2.86E2,4.4E1,7.1E1,1.14E2,1.3E2,1.262E3,3.55E2,1.91E2,1.62E2,1.24E2,1.8E1,2.6E1,4.2E1,7.2E1,6.5E1,6.5E1,1.021E3,2.41E2,6.7E1,2.88E2,1.42E2,4.9E1],"tree_param":{"num_deleted":"0","num_feature":"2","num_nodes":"29","size_leaf_vector":"1"}},{"base_weights":[-7.656655E-3,-9.9137396E-1,2.5413075E-1,-1.2165596E0,-5.853103E-1,5.458212E-1,-7.586341E-1,-1.2582318E0,-9.2375004E-1,7.840438E-3,-9.957637E-1,7.151436E-1,1.2593924E-1,-4.8368004E-1,-1.8041955E-1,-1.4743851E-1,-1.1072729E-1,-4.3914445E-2,-1.2305559E-1,-7.5558655E-2,-1.1235974E-1,8.4772624E-2,1.9426106E-2,-8.642738E-2,8.5133076E-2,-1.8689746E-1,-2.6965594E-2],"categories":[],"categories_nodes":[],"categories_segments":[],"categories_sizes":[],"default_left":[0,0,0,0,0,0,0,0,0,0,0,0,0,0,0,0,0,0,0,0,0,0,0,0,0,0,0],"id":19,"left_children":[1,3,5,7,9,11,13,15,17,-1,19,21,23,25,-1,-1,-1,-1,-1,-1,-1,-1,-1,-1,-1,-1,-1],"loss_changes":[6.3221783E2,4.6470856E1,5.732215E2,2.876587E0,5.074893E1,1.06979614E2,1.2389427E2,7.7323303E0,6.1502E0,0E0,2.681839E0,7.393671E1,3.1247458E2,1.0178383E2,0E0,0E0,0E0,0E0,0E0,0E0,0E0,0E0,0E0,0E0,0E0,0E0,0E0],"parents":[2147483647,0,0,1,1,2,2,3,3,4,4,5,5,6,6,7,7,8,8,10,10,11,11,12,12,13,13],"right_children":[2,4,6,8,10,12,14,16,18,-1,20,22,24,26,-1,-1,-1,-1,-1,-1,-1,-1,-1,-1,-1,-1,-1],"split_conditions":[6E0,4E0,2.1E1,3E0,4E0,7E0,2.3E1,4E0,4E0,7.840438E-3,7E0,1.8E1,1.4E1,4E0,-1.8041955E-1,-1.4743851E-1,-1.1072729E-1,-4.3914445E-2,-1.2305559E-1,-7.5558655E-2,-1.1235974E-1,8.4772624E-2,1.9426106E-2,-8.642738E-2,8.5133076E-2,-1.8689746E-1,-2.6965594E-2],"split_indices":[1,1,1,1,0,0,1,0,0,0,0,1,1,0,0,0,0,0,0,0,0,0,0,0,0,0,0],"split_type":[0,0,0,0,0,0,0,0,0,0,0,0,0,0,0,0,0,0,0,0,0,0,0,0,0,0,0],"sum_hessian":[2.453E3,5.15E2,1.938E3,3.3E2,1.85E2,1.505E3,4.33E2,2.86E2,4.4E1,7.1E1,1.14E2,1.072E3,4.33E2,3.44E2,8.9E1,1.14E2,1.72E2,1.8E1,2.6E1,4.2E1,7.2E1,8.54E2,2.18E2,1.83E2,2.5E2,4.5E1,2.99E2],"tree_param":{"num_deleted":"0","num_feature":"2","num_nodes":"27","size_leaf_vector":"1"}},{"base_weights":[-7.2562243E-3,-7.751292E-1,2.6695782E-1,-1.1062463E-1,-1.2459668E0,6.819675E-1,-4.6351188E-1,-7.608388E-1,1.9008044E0,-9.7695893E-1,-2.502838E0,4.2081657E-1,1.0400498E0,-2.7820733E-1,-1.6257805E-1,-1.3282287E-1,-2.7386784E-3,2.6497027E-1,4.585285E-3,-7.246735E-2,-1.01338446E-1,-6.527167E-2,-3.413064E-1,6.945281E-2,-2.7799845E-2,1.6405812E-1,4.377172E-2,-1.5079103E-1,-4.6091294E-3],"categories":[],"categories_nodes":[],"categories_segments":[],"categories_sizes":[],"default_left":[0,0,0,0,0,0,0,0,0,0,0,0,0,0,0,0,0,0,0,0,0,0,0,0,0,0,0,0,0],"id":20,"left_children":[1,3,5,7,9,11,13,15,17,19,21,23,25,27,-1,-1,-1,-1,-1,-1,-1,-1,-1,-1,-1,-1,-1,-1,-1],"loss_changes":[5.16925E2,2.0197864E2,5.4871814E2,3.5326047E2,1.2535968E2,1.0747699E2,1.4083282E2,8.48589E1,9.156375E1,2.1419678E0,1.0891809E2,1.2815515E2,1.7507758E2,1.6177145E2,0E0,0E0,0E0,0E0,0E0,0E0,0E0,0E0,0E0,0E0,0E0,0E0,0E0,0E0,0E0],"parents":[2147483647,0,0,1,1,2,2,3,3,4,4,5,5,6,6,7,7,8,8,9,9,10,10,11,11,12,12,13,13],"right_children":[2,4,6,8,10,12,14,16,18,20,22,24,26,28,-1,-1,-1,-1,-1,-1,-1,-1,-1,-1,-1,-1,-1,-1,-1],"split_conditions":[8E0,4E0,1.9E1,5E0,6E0,1.5E1,2.3E1,3E0,7E0,1E0,6E0,7E0,1.7E1,4E0,-1.6257805E-1,-1.3282287E-1,-2.7386784E-3,2.6497027E-1,4.585285E-3,-7.246735E-2,-1.01338446E-1,-6.527167E-2,-3.413064E-1,6.945281E-2,-2.7799845E-2,1.6405812E-1,4.377172E-2,-1.5079103E-1,-4.6091294E-3],"split_indices":[1,0,1,1,1,1,1,1,1,1,0,0,1,0,0,0,0,0,0,0,0,0,0,0,0,0,0,0,0],"split_type":[0,0,0,0,0,0,0,0,0,0,0,0,0,0,0,0,0,0,0,0,0,0,0,0,0,0,0,0,0],"sum_hessian":[2.453E3,6.45E2,1.808E3,2.68E2,3.77E2,1.153E3,6.55E2,2.03E2,6.5E1,3.12E2,6.5E1,6.68E2,4.85E2,5.66E2,8.9E1,1.14E2,8.9E1,4.6E1,1.9E1,4.2E1,2.7E2,2.2E1,4.3E1,4.8E2,1.88E2,2.42E2,2.43E2,8.9E1,4.77E2],"tree_param":{"num_deleted":"0","num_feature":"2","num_nodes":"29","size_leaf_vector":"1"}},{"base_weights":[-6.7404094E-3,-6.983073E-1,2.4022418E-1,-9.906407E-2,-1.1229055E0,6.1398697E-1,-4.1764542E-1,-6.854194E-1,1.7148079E0,-8.798184E-1,-2.2587142E0,3.787974E-1,9.364722E-1,-2.5066066E-1,-1.465009E-1,-1.196561E-1,-2.4678262E-3,2.3903699E-1,4.149685E-3,-6.538915E-2,-9.1242E-2,-5.902831E-2,-3.0795142E-1,6.252201E-2,-2.5034592E-2,1.4771976E-1,3.9412487E-2,-1.3587946E-1,-4.1491813E-3],"categories":[],"categories_nodes":[],"categories_segments":[],"categories_sizes":[],"default_left":[0,0,0,0,0,0,0,0,0,0,0,0,0,0,0,0,0,0,0,0,0,0,0,0,0,0,0,0,0],"id":21,"left_children":[1,3,5,7,9,11,13,15,17,19,21,23,25,27,-1,-1,-1,-1,-1,-1,-1,-1,-1,-1,-1,-1,-1,-1,-1],"loss_changes":[4.1929266E2,1.6425543E2,4.450663E2,2.872766E2,1.0237872E2,8.717053E1,1.1436308E2,6.886784E1,7.450888E1,1.7088165E0,8.8565796E1,1.03875046E2,1.4194263E2,1.313669E2,0E0,0E0,0E0,0E0,0E0,0E0,0E0,0E0,0E0,0E0,0E0,0E0,0E0,0E0,0E0],"parents":[2147483647,0,0,1,1,2,2,3,3,4,4,5,5,6,6,7,7,8,8,9,9,10,10,11,11,12,12,13,13],"right_children":[2,4,6,8,10,12,14,16,18,20,22,24,26,28,-1,-1,-1,-1,-1,-1,-1,-1,-1,-1,-1,-1,-1,-1,-1],"split_conditions":[8E0,4E0,1.9E1,5E0,6E0,1.5E1,2.3E1,3E0,7E0,1E0,6E0,7E0,1.7E1,4E0,-1.465009E-1,-1.196561E-1,-2.4678262E-3,2.3903699E-1,4.149685E-3,-6.538915E-2,-9.1242E-2,-5.902831E-2,-3.0795142E-1,6.252201E-2,-2.5034592E-2,1.4771976E-1,3.9412487E-2,-1.3587946E-1,-4.1491813E-3],"split_indices":[1,0,1,1,1,1,1,1,1,1,0,0,1,0,0,0,0,0,0,0,0,0,0,0,0,0,0,0,0],"split_type":[0,0,0,0,0,0,0,0,0,0,0,0,0,0,0,0,0,0,0,0,0,0,0,0,0,0,0,0,0],"sum_hessian":[2.453E3,6.45E2,1.808E3,2.68E2,3.77E2,1.153E3,6.55E2,2.03E2,6.5E1,3.12E2,6.5E1,6.68E2,4.85E2,5.66E2,8.9E1,1.14E2,8.9E1,4.6E1,1.9E1,4.2E1,2.7E2,2.2E1,4.3E1,4.8E2,1.88E2,2.42E2,2.43E2,8.9E1,4.77E2],"tree_param":{"num_deleted":"0","num_feature":"2","num_nodes":"29","size_leaf_vector":"1"}},{"base_weights":[-6.255824E-3,-6.290997E-1,2.161673E-1,-8.870751E-2,-1.0120003E0,4.6855855E-1,-5.84539E-1,-6.17476E-1,1.5470119E0,-7.923371E-1,-2.0384033E0,5.527825E-1,3.0608114E-2,-2.591927E-1,-1.2245427E0,-1.0779454E-1,-2.2237578E-3,2.156419E-1,3.7553979E-3,-5.90023E-2,-8.215149E-2,-5.3382095E-2,-2.778562E-1,3.4097303E-2,8.432099E-2,-1.0119102E-1,2.9252274E-2,-1.4057016E-1,-4.1985326E-3,-8.918675E-2,-1.3734707E-1],"categories":[],"categories_nodes":[],"categories_segments":[],"categories_sizes":[],"default_left":[0,0,0,0,0,0,0,0,0,0,0,0,0,0,0,0,0,0,0,0,0,0,0,0,0,0,0,0,0,0,0],"id":22,"left_children":[1,3,5,7,9,11,13,15,17,19,21,23,25,27,29,-1,-1,-1,-1,-1,-1,-1,-1,-1,-1,-1,-1,-1,-1,-1,-1],"loss_changes":[3.4010062E2,1.3357832E2,3.65857E2,2.3361786E2,8.360989E1,5.07381E1,9.00513E1,5.5890205E1,6.0630753E1,1.3629608E0,7.20163E1,7.070108E1,6.1186337E1,7.1910706E1,6.0085754E0,0E0,0E0,0E0,0E0,0E0,0E0,0E0,0E0,0E0,0E0,0E0,0E0,0E0,0E0,0E0,0E0],"parents":[2147483647,0,0,1,1,2,2,3,3,4,4,5,5,6,6,7,7,8,8,9,9,10,10,11,11,12,12,13,13,14,14],"right_children":[2,4,6,8,10,12,14,16,18,20,22,24,26,28,30,-1,-1,-1,-1,-1,-1,-1,-1,-1,-1,-1,-1,-1,-1,-1,-1],"split_conditions":[8E0,4E0,2.1E1,5E0,6E0,1.9E1,7E0,3E0,7E0,1E0,6E0,1.5E1,4E0,4E0,2.2E1,-1.0779454E-1,-2.2237578E-3,2.156419E-1,3.7553979E-3,-5.90023E-2,-8.215149E-2,-5.3382095E-2,-2.778562E-1,3.4097303E-2,8.432099E-2,-1.0119102E-1,2.9252274E-2,-1.4057016E-1,-4.1985326E-3,-8.918675E-2,-1.3734707E-1],"split_indices":[1,0,1,1,1,1,0,1,1,1,0,1,0,0,1,0,0,0,0,0,0,0,0,0,0,0,0,0,0,0,0],"split_type":[0,0,0,0,0,0,0,0,0,0,0,0,0,0,0,0,0,0,0,0,0,0,0,0,0,0,0,0,0,0,0],"sum_hessian":[2.453E3,6.45E2,1.808E3,2.68E2,3.77E2,1.375E3,4.33E2,2.03E2,6.5E1,3.12E2,6.5E1,1.153E3,2.22E2,2.88E2,1.45E2,1.14E2,8.9E1,4.6E1,1.9E1,4.2E1,2.7E2,2.2E1,4.3E1,6.68E2,4.85E2,4.4E1,1.78E2,4.5E1,2.43E2,4.7E1,9.8E1],"tree_param":{"num_deleted":"0","num_feature":"2","num_nodes":"31","size_leaf_vector":"1"}},{"base_weights":[-5.91052E-3,-5.6675166E-1,1.9437101E-1,-7.942994E-2,-9.1205007E-1,4.2173657E-1,-5.269409E-1,-5.562676E-1,1.3956355E0,-7.135544E-1,-1.839582E0,5.577815E-1,1.5487243E-1,-2.3377474E-1,-1.1036401E0,-9.7108826E-2,-2.0038318E-3,1.9453663E-1,3.3986282E-3,-5.3239275E-2,-7.396666E-2,-4.8276003E-2,-2.507021E-1,3.0692635E-2,1.24611214E-1,6.263901E-2,-1.38726635E-2,-1.2681873E-1,-3.7804449E-3,-8.0453895E-2,-1.237511E-1],"categories":[],"categories_nodes":[],"categories_segments":[],"categories_sizes":[],"default_left":[0,0,0,0,0,0,0,0,0,0,0,0,0,0,0,0,0,0,0,0,0,0,0,0,0,0,0,0,0,0,0],"id":23,"left_children":[1,3,5,7,9,11,13,15,17,19,21,23,25,27,29,-1,-1,-1,-1,-1,-1,-1,-1,-1,-1,-1,-1,-1,-1,-1,-1],"loss_changes":[2.7575848E2,1.0863086E2,2.969009E2,1.89982E2,6.828134E1,4.9869995E1,7.3117805E1,4.5358097E1,4.9337555E1,1.0868683E0,5.8559067E1,1.5692108E2,6.45986E1,5.8536438E1,4.850357E0,0E0,0E0,0E0,0E0,0E0,0E0,0E0,0E0,0E0,0E0,0E0,0E0,0E0,0E0,0E0,0E0],"parents":[2147483647,0,0,1,1,2,2,3,3,4,4,5,5,6,6,7,7,8,8,9,9,10,10,11,11,12,12,13,13,14,14],"right_children":[2,4,6,8,10,12,14,16,18,20,22,24,26,28,30,-1,-1,-1,-1,-1,-1,-1,-1,-1,-1,-1,-1,-1,-1,-1,-1],"split_conditions":[8E0,4E0,2.1E1,5E0,6E0,1.7E1,7E0,3E0,7E0,1E0,6E0,1.5E1,6E0,4E0,2.2E1,-9.7108826E-2,-2.0038318E-3,1.9453663E-1,3.3986282E-3,-5.3239275E-2,-7.396666E-2,-4.8276003E-2,-2.507021E-1,3.0692635E-2,1.24611214E-1,6.263901E-2,-1.38726635E-2,-1.2681873E-1,-3.7804449E-3,-8.0453895E-2,-1.237511E-1],"split_indices":[1,0,1,1,1,1,0,1,1,1,0,1,0,0,1,0,0,0,0,0,0,0,0,0,0,0,0,0,0,0,0],"split_type":[0,0,0,0,0,0,0,0,0,0,0,0,0,0,0,0,0,0,0,0,0,0,0,0,0,0,0,0,0,0,0],"sum_hessian":[2.453E3,6.45E2,1.808E3,2.68E2,3.77E2,1.375E3,4.33E2,2.03E2,6.5E1,3.12E2,6.5E1,9.1E2,4.65E2,2.88E2,1.45E2,1.14E2,8.9E1,4.6E1,1.9E1,4.2E1,2.7E2,2.2E1,4.3E1,6.68E2,2.42E2,1.78E2,2.87E2,4.5E1,2.43E2,4.7E1,9.8E1],"tree_param":{"num_deleted":"0","num_feature":"2","num_nodes":"31","size_leaf_vector":"1"}},{"base_weights":[-5.5062417E-3,-5.1058334E-1,1.7486154E-1,-1.5165499E-1,-8.943347E-1,3.2294267E-1,-7.4559003E-1,-4.9944237E-1,8.301964E-1,-6.672999E-1,-2.262017E0,4.5086145E-1,-4.1444562E-2,-1.8300453E-1,-6.228721E-1,-8.16805E-2,-9.3871E-3,1.754969E-1,-2.244348E-2,-4.803915E-2,-6.997659E-2,-2.766498E-1,-1.6317861E-1,2.7627919E-2,6.902538E-2,1.9206695E-2,-4.9632248E-2,-2.5864257E-2,-1.1744367E-1],"categories":[],"categories_nodes":[],"categories_segments":[],"categories_sizes":[],"default_left":[0,0,0,0,0,0,0,0,0,0,0,0,0,0,0,0,0,0,0,0,0,0,0,0,0,0,0,0,0],"id":24,"left_children":[1,3,5,7,9,11,13,15,17,19,21,23,25,-1,27,-1,-1,-1,-1,-1,-1,-1,-1,-1,-1,-1,-1,-1,-1],"loss_changes":[2.236478E2,8.884392E1,2.4681024E2,1.1480893E2,9.537015E1,7.268675E1,3.2263718E1,3.1844196E1,8.6219765E1,1.2961731E0,9.474991E0,4.8039185E1,4.3220333E1,0E0,4.529966E1,0E0,0E0,0E0,0E0,0E0,0E0,0E0,0E0,0E0,0E0,0E0,0E0,0E0,0E0],"parents":[2147483647,0,0,1,1,2,2,3,3,4,4,5,5,6,6,7,7,8,8,9,9,10,10,11,11,12,12,14,14],"right_children":[2,4,6,8,10,12,14,16,18,20,22,24,26,-1,28,-1,-1,-1,-1,-1,-1,-1,-1,-1,-1,-1,-1,-1,-1],"split_conditions":[8E0,6E0,2.2E1,6E0,5E0,1.9E1,4E0,3E0,7E0,1E0,7E0,1.5E1,7E0,-1.8300453E-1,2.3E1,-8.16805E-2,-9.3871E-3,1.754969E-1,-2.244348E-2,-4.803915E-2,-6.997659E-2,-2.766498E-1,-1.6317861E-1,2.7627919E-2,6.902538E-2,1.9206695E-2,-4.9632248E-2,-2.5864257E-2,-1.1744367E-1],"split_indices":[1,0,1,1,1,1,0,1,1,1,0,1,0,0,1,0,0,0,0,0,0,0,0,0,0,0,0,0,0],"split_type":[0,0,0,0,0,0,0,0,0,0,0,0,0,0,0,0,0,0,0,0,0,0,0,0,0,0,0,0,0],"sum_hessian":[2.453E3,6.45E2,1.808E3,3.34E2,3.11E2,1.558E3,2.5E2,2.47E2,8.7E1,2.68E2,4.3E1,1.153E3,4.05E2,2.4E1,2.26E2,1.38E2,1.09E2,4.6E1,4.1E1,4.2E1,2.26E2,2.2E1,2.1E1,6.68E2,4.85E2,2.68E2,1.37E2,1.37E2,8.9E1],"tree_param":{"num_deleted":"0","num_feature":"2","num_nodes":"29","size_leaf_vector":"1"}},{"base_weights":[-5.2636187E-3,-4.6029255E-1,1.5723166E-1,-6.1823674E-2,-7.426413E-1,2.906909E-1,-6.7233086E-1,-4.5138642E-1,1.143216E0,-5.7877016E-1,-1.5085357E0,4.635792E-1,4.7560032E-2,-1.654361E-1,-5.61216E-1,-7.4065894E-2,8.923347E-3,1.583206E-1,5.2078823E-3,-6.252398E-2,-4.9332455E-2,-4.1511517E-2,-2.0458117E-1,2.4869254E-2,1.0532731E-1,5.444939E-2,-2.0854708E-2,-1.8629575E-2,-1.0440796E-1],"categories":[],"categories_nodes":[],"categories_segments":[],"categories_sizes":[],"default_left":[0,0,0,0,0,0,0,0,0,0,0,0,0,0,0,0,0,0,0,0,0,0,0,0,0,0,0,0,0],"id":25,"left_children":[1,3,5,7,9,11,13,15,17,19,21,23,25,-1,27,-1,-1,-1,-1,-1,-1,-1,-1,-1,-1,-1,-1,-1,-1],"loss_changes":[1.8152126E2,7.263373E1,2.0047487E2,1.26795006E2,4.656894E1,6.5509705E1,2.6460197E1,3.1968937E1,3.1603455E1,9.343567E-1,3.7923676E1,1.1517757E2,8.271067E1,0E0,4.0900513E1,0E0,0E0,0E0,0E0,0E0,0E0,0E0,0E0,0E0,0E0,0E0,0E0,0E0,0E0],"parents":[2147483647,0,0,1,1,2,2,3,3,4,4,5,5,6,6,7,7,8,8,9,9,10,10,11,11,12,12,14,14],"right_children":[2,4,6,8,10,12,14,16,18,20,22,24,26,-1,28,-1,-1,-1,-1,-1,-1,-1,-1,-1,-1,-1,-1,-1,-1],"split_conditions":[8E0,4E0,2.2E1,5E0,6E0,1.7E1,4E0,4E0,7E0,4E0,6E0,1.5E1,6E0,-1.654361E-1,7E0,-7.4065894E-2,8.923347E-3,1.583206E-1,5.2078823E-3,-6.252398E-2,-4.9332455E-2,-4.1511517E-2,-2.0458117E-1,2.4869254E-2,1.0532731E-1,5.444939E-2,-2.0854708E-2,-1.8629575E-2,-1.0440796E-1],"split_indices":[1,0,1,1,1,1,0,1,1,1,0,1,0,0,0,0,0,0,0,0,0,0,0,0,0,0,0,0,0],"split_type":[0,0,0,0,0,0,0,0,0,0,0,0,0,0,0,0,0,0,0,0,0,0,0,0,0,0,0,0,0],"sum_hessian":[2.453E3,6.45E2,1.808E3,2.68E2,3.77E2,1.558E3,2.5E2,2.03E2,6.5E1,3.12E2,6.5E1,9.1E2,6.48E2,2.4E1,2.26E2,1.32E2,7.1E1,4.6E1,1.9E1,1.98E2,1.14E2,2.2E1,4.3E1,6.68E2,2.42E2,2.2E2,4.28E2,1.28E2,9.8E1],"tree_param":{"num_deleted":"0","num_feature":"2","num_nodes":"29","size_leaf_vector":"1"}},{"base_weights":[-4.893959E-3,-4.1466513E-1,1.4143942E-1,-1.2089583E-1,-7.287615E-1,3.6808962E-1,-2.5748706E-1,-4.0296876E-1,6.754108E-1,-5.433266E-1,-1.8458799E0,2.2385985E-1,5.6587076E-1,-1.0321617E0,-1.3406871E-1,-6.6417195E-2,-6.9239573E-3,1.4282532E-1,-1.831369E-2,-3.7239987E-2,-5.7331134E-2,-2.3061903E-1,-1.2807427E-1,4.457825E-2,-3.4211192E-2,1.21583775E-1,3.0983834E-2,-1.8114804E-1,-7.5338975E-2,2.2876719E-2,-6.439308E-2],"categories":[],"categories_nodes":[],"categories_segments":[],"categories_sizes":[],"default_left":[0,0,0,0,0,0,0,0,0,0,0,0,0,0,0,0,0,0,0,0,0,0,0,0,0,0,0,0,0,0,0],"id":26,"left_children":[1,3,5,7,9,11,13,15,17,19,21,23,25,27,29,-1,-1,-1,-1,-1,-1,-1,-1,-1,-1,-1,-1,-1,-1,-1,-1],"loss_changes":[1.4720834E2,5.951953E1,1.6365872E2,7.5518715E1,6.3628723E1,3.279225E1,6.258116E1,2.1572449E1,5.7140465E1,1.1651764E0,8.492462E0,8.418022E1,8.049982E1,1.8187943E1,1.0504019E2,0E0,0E0,0E0,0E0,0E0,0E0,0E0,0E0,0E0,0E0,0E0,0E0,0E0,0E0,0E0,0E0],"parents":[2147483647,0,0,1,1,2,2,3,3,4,4,5,5,6,6,7,7,8,8,9,9,10,10,11,11,12,12,13,13,14,14],"right_children":[2,4,6,8,10,12,14,16,18,20,22,24,26,28,30,-1,-1,-1,-1,-1,-1,-1,-1,-1,-1,-1,-1,-1,-1,-1,-1],"split_conditions":[8E0,6E0,1.9E1,6E0,5E0,1.5E1,4E0,3E0,7E0,1E0,7E0,7E0,1.6E1,2E1,7E0,-6.6417195E-2,-6.9239573E-3,1.4282532E-1,-1.831369E-2,-3.7239987E-2,-5.7331134E-2,-2.3061903E-1,-1.2807427E-1,4.457825E-2,-3.4211192E-2,1.21583775E-1,3.0983834E-2,-1.8114804E-1,-7.5338975E-2,2.2876719E-2,-6.439308E-2],"split_indices":[1,0,1,1,1,1,0,1,1,1,0,0,1,1,0,0,0,0,0,0,0,0,0,0,0,0,0,0,0,0,0],"split_type":[0,0,0,0,0,0,0,0,0,0,0,0,0,0,0,0,0,0,0,0,0,0,0,0,0,0,0,0,0,0,0],"sum_hessian":[2.453E3,6.45E2,1.808E3,3.34E2,3.11E2,1.153E3,6.55E2,2.47E2,8.7E1,2.68E2,4.3E1,6.68E2,4.85E2,8.9E1,5.66E2,1.38E2,1.09E2,4.6E1,4.1E1,4.2E1,2.26E2,2.2E1,2.1E1,4.8E2,1.88E2,1.36E2,3.49E2,2.2E1,6.7E1,3.31E2,2.35E2],"tree_param":{"num_deleted":"0","num_feature":"2","num_nodes":"31","size_leaf_vector":"1"}},{"base_weights":[-4.6233893E-3,-3.738211E-1,1.2722093E-1,-4.7968075E-2,-6.047223E-1,2.4189876E-1,-5.8556783E-1,-3.66431E-1,9.370987E-1,-4.6932274E-1,-1.2376821E0,3.7917984E-1,4.8824873E-2,-3.69334E-1,-9.682824E-1,-6.0928382E-2,8.726136E-3,1.288466E-1,6.4530754E-3,-5.0913174E-2,-3.9635476E-2,-3.578913E-2,-1.6694437E-1,2.0148939E-2,8.6681664E-2,5.0374668E-2,-1.856426E-2,-1.4232169E-1,-1.757369E-2,-1.0928704E-1,-8.467546E-2],"categories":[],"categories_nodes":[],"categories_segments":[],"categories_sizes":[],"default_left":[0,0,0,0,0,0,0,0,0,0,0,0,0,0,0,0,0,0,0,0,0,0,0,0,0,0,0,0,0,0,0],"id":27,"left_children":[1,3,5,7,9,11,13,15,17,19,21,23,25,27,29,-1,-1,-1,-1,-1,-1,-1,-1,-1,-1,-1,-1,-1,-1,-1,-1],"loss_changes":[1.19499985E2,4.8575943E1,1.4801126E2,8.473064E1,3.1814667E1,4.13034E1,2.04141E1,2.2529982E1,2.0151913E1,7.0739746E-1,2.4473274E1,7.876204E1,6.931869E1,3.280254E1,4.3728638E-1,0E0,0E0,0E0,0E0,0E0,0E0,0E0,0E0,0E0,0E0,0E0,0E0,0E0,0E0,0E0,0E0],"parents":[2147483647,0,0,1,1,2,2,3,3,4,4,5,5,6,6,7,7,8,8,9,9,10,10,11,11,12,12,13,13,14,14],"right_children":[2,4,6,8,10,12,14,16,18,20,22,24,26,28,30,-1,-1,-1,-1,-1,-1,-1,-1,-1,-1,-1,-1,-1,-1,-1,-1],"split_conditions":[8E0,4E0,2.2E1,5E0,6E0,1.7E1,2.3E1,4E0,7E0,4E0,6E0,1.5E1,6E0,4E0,7E0,-6.0928382E-2,8.726136E-3,1.288466E-1,6.4530754E-3,-5.0913174E-2,-3.9635476E-2,-3.578913E-2,-1.6694437E-1,2.0148939E-2,8.6681664E-2,5.0374668E-2,-1.856426E-2,-1.4232169E-1,-1.757369E-2,-1.0928704E-1,-8.467546E-2],"split_indices":[1,0,1,1,1,1,1,1,1,1,0,1,0,0,0,0,0,0,0,0,0,0,0,0,0,0,0,0,0,0,0],"split_type":[0,0,0,0,0,0,0,0,0,0,0,0,0,0,0,0,0,0,0,0,0,0,0,0,0,0,0,0,0,0,0],"sum_hessian":[2.453E3,6.45E2,1.808E3,2.68E2,3.77E2,1.558E3,2.5E2,2.03E2,6.5E1,3.12E2,6.5E1,9.1E2,6.48E2,1.61E2,8.9E1,1.32E2,7.1E1,4.6E1,1.9E1,1.98E2,1.14E2,2.2E1,4.3E1,6.68E2,2.42E2,2.2E2,4.28E2,2.4E1,1.37E2,4E1,4.9E1],"tree_param":{"num_deleted":"0","num_feature":"2","num_nodes":"31","size_leaf_vector":"1"}},{"base_weights":[-4.3344754E-3,-3.367643E-1,1.14379734E-1,-9.618968E-2,-5.9399426E-1,2.177977E-1,-5.28421E-1,-5.0730276E-1,2.649329E-1,-4.4256243E-1,-1.5062933E0,-1.0276714E-1,2.961661E-1,-3.3338788E-1,-8.736092E-1,-1.0502396E-1,-4.062745E-2,4.4862926E-2,-3.2649357E-2,-2.8629664E-2,-4.7021385E-2,-1.9259118E-1,-9.991335E-2,2.9041825E-2,-1.0845628E-1,8.0195956E-2,1.583884E-2,-1.2865882E-1,-1.5829084E-2,-9.862487E-2,-7.6377265E-2],"categories":[],"categories_nodes":[],"categories_segments":[],"categories_sizes":[],"default_left":[0,0,0,0,0,0,0,0,0,0,0,0,0,0,0,0,0,0,0,0,0,0,0,0,0,0,0,0,0,0,0],"id":28,"left_children":[1,3,5,7,9,11,13,15,17,19,21,23,25,27,29,-1,-1,-1,-1,-1,-1,-1,-1,-1,-1,-1,-1,-1,-1,-1,-1],"loss_changes":[9.688353E1,3.991928E1,1.2037223E2,4.986924E1,4.2436516E1,3.9195877E1,1.660685E1,8.18507E0,1.9593555E1,1.0277176E0,7.4395447E0,1.1882548E2,8.7190865E1,2.6834558E1,3.6021423E-1,0E0,0E0,0E0,0E0,0E0,0E0,0E0,0E0,0E0,0E0,0E0,0E0,0E0,0E0,0E0,0E0],"parents":[2147483647,0,0,1,1,2,2,3,3,4,4,5,5,6,6,7,7,8,8,9,9,10,10,11,11,12,12,13,13,14,14],"right_children":[2,4,6,8,10,12,14,16,18,20,22,24,26,28,30,-1,-1,-1,-1,-1,-1,-1,-1,-1,-1,-1,-1,-1,-1,-1,-1],"split_conditions":[8E0,6E0,2.2E1,4E0,5E0,5E0,2.3E1,1E0,4E0,1E0,7E0,1.8E1,1.2E1,4E0,7E0,-1.0502396E-1,-4.062745E-2,4.4862926E-2,-3.2649357E-2,-2.8629664E-2,-4.7021385E-2,-1.9259118E-1,-9.991335E-2,2.9041825E-2,-1.0845628E-1,8.0195956E-2,1.583884E-2,-1.2865882E-1,-1.5829084E-2,-9.862487E-2,-7.6377265E-2],"split_indices":[1,0,1,1,1,0,1,1,0,1,0,1,1,0,0,0,0,0,0,0,0,0,0,0,0,0,0,0,0,0,0],"split_type":[0,0,0,0,0,0,0,0,0,0,0,0,0,0,0,0,0,0,0,0,0,0,0,0,0,0,0,0,0,0,0],"sum_hessian":[2.453E3,6.45E2,1.808E3,3.34E2,3.11E2,1.558E3,2.5E2,1.56E2,1.78E2,2.68E2,4.3E1,3.06E2,1.252E3,1.61E2,8.9E1,2.3E1,1.33E2,1.36E2,4.2E1,4.2E1,2.26E2,2.2E1,2.1E1,2.19E2,8.7E1,2.67E2,9.85E2,2.4E1,1.37E2,4E1,4.9E1],"tree_param":{"num_deleted":"0","num_feature":"2","num_nodes":"31","size_leaf_vector":"1"}},{"base_weights":[-4.228726E-3,-3.537047E-1,8.87748E-2,-4.5015195E-1,-1.8016843E-1,1.7277922E-1,-4.7685167E-1,-5.12323E-1,-4.0247434E-1,-3.1949963E-2,-4.0916484E-2,2.5912565E-1,-4.461292E-2,-2.7710268E-1,-7.8073794E-1,-7.382577E-2,-3.8255315E-2,-3.4804016E-2,-4.4073123E-2,2.446601E-3,-2.8295716E-2,8.596238E-4,3.3115372E-2,-6.47685E-2,3.2790344E-2,-1.1630757E-1,-1.0325441E-2,-8.5693814E-2,-6.889229E-2],"categories":[],"categories_nodes":[],"categories_segments":[],"categories_sizes":[],"default_left":[0,0,0,0,0,0,0,0,0,0,0,0,0,0,0,0,0,0,0,0,0,0,0,0,0,0,0,0,0],"id":29,"left_children":[1,3,5,7,9,11,13,15,17,19,-1,21,23,25,27,-1,-1,-1,-1,-1,-1,-1,-1,-1,-1,-1,-1,-1,-1],"loss_changes":[7.979252E1,8.555244E0,9.221422E1,7.749405E-1,6.300045E0,3.1715847E1,1.50196E1,3.8223114E0,2.464428E-1,1.6212558E0,0E0,2.1813736E1,1.0827105E2,2.3445711E1,1.0227203E-1,0E0,0E0,0E0,0E0,0E0,0E0,0E0,0E0,0E0,0E0,0E0,0E0,0E0,0E0],"parents":[2147483647,0,0,1,1,2,2,3,3,4,4,5,5,6,6,7,7,8,8,9,9,11,11,12,12,13,13,14,14],"right_children":[2,4,6,8,10,12,14,16,18,20,-1,22,24,26,28,-1,-1,-1,-1,-1,-1,-1,-1,-1,-1,-1,-1,-1,-1],"split_conditions":[6E0,4E0,2.2E1,2E0,7E0,7E0,7E0,4E0,4E0,5E0,-4.0916484E-2,1E1,1.4E1,4E0,2.3E1,-7.382577E-2,-3.8255315E-2,-3.4804016E-2,-4.4073123E-2,2.446601E-3,-2.8295716E-2,8.596238E-4,3.3115372E-2,-6.47685E-2,3.2790344E-2,-1.1630757E-1,-1.0325441E-2,-8.5693814E-2,-6.889229E-2],"split_indices":[1,1,1,1,0,0,0,0,0,1,0,1,1,0,1,0,0,0,0,0,0,0,0,0,0,0,0,0,0],"split_type":[0,0,0,0,0,0,0,0,0,0,0,0,0,0,0,0,0,0,0,0,0,0,0,0,0,0,0,0,0],"sum_hessian":[2.453E3,5.15E2,1.938E3,3.3E2,1.85E2,1.688E3,2.5E2,1.39E2,1.91E2,1.13E2,7.2E1,1.208E3,4.8E2,1.52E2,9.8E1,4.9E1,9E1,8.3E1,1.08E2,9.3E1,2E1,2.7E2,9.38E2,1.83E2,2.97E2,2.4E1,1.28E2,4.9E1,4.9E1],"tree_param":{"num_deleted":"0","num_feature":"2","num_nodes":"29","size_leaf_vector":"1"}},{"base_weights":[-4.0247734E-3,-3.1883365E-1,7.975316E-2,-4.0571368E-1,-1.6251045E-1,1.8933433E-1,-3.0068234E-1,-4.5033056E-1,-3.4954566E-1,-2.8981555E-2,-3.688089E-2,-5.756154E-2,2.6192537E-1,-1.0680827E-1,-6.823873E-2,-8.788419E-2,-3.8239002E-2,-2.209671E-2,-3.9706245E-2,2.204567E-3,-2.5600905E-2,7.739423E-4,-2.9919168E-2,1.1170139E-1,2.1198204E-2,2.0926027E-3,-8.7995544E-2],"categories":[],"categories_nodes":[],"categories_segments":[],"categories_sizes":[],"default_left":[0,0,0,0,0,0,0,0,0,0,0,0,0,0,0,0,0,0,0,0,0,0,0,0,0,0,0],"id":30,"left_children":[1,3,5,7,9,11,13,15,17,19,-1,21,23,25,-1,-1,-1,-1,-1,-1,-1,-1,-1,-1,-1,-1,-1],"loss_changes":[6.474732E1,6.942051E0,8.089106E1,6.7209244E-1,5.113016E0,2.7006248E1,3.2044277E1,4.933441E0,8.34816E-1,1.3262863E0,0E0,5.4144025E0,4.947296E1,2.8559305E1,0E0,0E0,0E0,0E0,0E0,0E0,0E0,0E0,0E0,0E0,0E0,0E0,0E0],"parents":[2147483647,0,0,1,1,2,2,3,3,4,4,5,5,6,6,7,7,8,8,9,9,11,11,12,12,13,13],"right_children":[2,4,6,8,10,12,14,16,18,20,-1,22,24,26,-1,-1,-1,-1,-1,-1,-1,-1,-1,-1,-1,-1,-1],"split_conditions":[6E0,4E0,2.1E1,7E0,7E0,1E1,7E0,1E0,1E0,5E0,-3.688089E-2,7E0,1.1E1,2.3E1,-6.823873E-2,-8.788419E-2,-3.8239002E-2,-2.209671E-2,-3.9706245E-2,2.204567E-3,-2.5600905E-2,7.739423E-4,-2.9919168E-2,1.1170139E-1,2.1198204E-2,2.0926027E-3,-8.7995544E-2],"split_indices":[1,1,1,0,0,1,0,1,1,1,0,0,1,1,0,0,0,0,0,0,0,0,0,0,0,0,0],"split_type":[0,0,0,0,0,0,0,0,0,0,0,0,0,0,0,0,0,0,0,0,0,0,0,0,0,0,0],"sum_hessian":[2.453E3,5.15E2,1.938E3,3.3E2,1.85E2,1.505E3,4.33E2,1.8E2,1.5E2,1.13E2,7.2E1,3.42E2,1.163E3,2.88E2,1.45E2,2.3E1,1.57E2,4.2E1,1.08E2,9.3E1,2E1,2.7E2,7.2E1,6.3E1,1.1E3,2.48E2,4E1],"tree_param":{"num_deleted":"0","num_feature":"2","num_nodes":"27","size_leaf_vector":"1"}},{"base_weights":[-3.744052E-3,-2.8743133E-1,7.175176E-2,-3.6571005E-1,-1.4658354E-1,1.7046966E-1,-2.709692E-1,-4.2061216E-1,-3.2377252E-1,-2.6288819E-2,-3.324331E-2,-5.1890645E-2,2.358469E-1,-9.642454E-2,-6.1461605E-2,-5.1338952E-2,-1.9938434E-2,-2.7586652E-2,-3.5772055E-2,1.9864347E-3,-2.3162734E-2,-1.7669722E-2,6.3444423E-3,1.0070574E-1,1.9080302E-2,1.8841999E-3,-7.9410605E-2],"categories":[],"categories_nodes":[],"categories_segments":[],"categories_sizes":[],"default_left":[0,0,0,0,0,0,0,0,0,0,0,0,0,0,0,0,0,0,0,0,0,0,0,0,0,0,0],"id":31,"left_children":[1,3,5,7,9,11,13,15,17,19,-1,21,23,25,-1,-1,-1,-1,-1,-1,-1,-1,-1,-1,-1,-1,-1],"loss_changes":[5.2578434E1,5.6354904E0,6.564778E1,6.259308E-1,4.149611E0,2.1905418E1,2.5972809E1,2.7711315E0,2.1357155E-1,1.0849817E0,0E0,4.94855E0,4.0243248E1,2.3256151E1,0E0,0E0,0E0,0E0,0E0,0E0,0E0,0E0,0E0,0E0,0E0,0E0,0E0],"parents":[2147483647,0,0,1,1,2,2,3,3,4,4,5,5,6,6,7,7,8,8,9,9,11,11,12,12,13,13],"right_children":[2,4,6,8,10,12,14,16,18,20,-1,22,24,26,-1,-1,-1,-1,-1,-1,-1,-1,-1,-1,-1,-1,-1],"split_conditions":[6E0,4E0,2.1E1,2E0,7E0,1E1,7E0,7E0,4E0,5E0,-3.324331E-2,4E0,1.1E1,2.3E1,-6.1461605E-2,-5.1338952E-2,-1.9938434E-2,-2.7586652E-2,-3.5772055E-2,1.9864347E-3,-2.3162734E-2,-1.7669722E-2,6.3444423E-3,1.0070574E-1,1.9080302E-2,1.8841999E-3,-7.9410605E-2],"split_indices":[1,1,1,1,0,1,0,0,0,1,0,0,1,1,0,0,0,0,0,0,0,0,0,0,0,0,0],"split_type":[0,0,0,0,0,0,0,0,0,0,0,0,0,0,0,0,0,0,0,0,0,0,0,0,0,0,0],"sum_hessian":[2.453E3,5.15E2,1.938E3,3.3E2,1.85E2,1.505E3,4.33E2,1.39E2,1.91E2,1.13E2,7.2E1,3.42E2,1.163E3,2.88E2,1.45E2,9.7E1,4.2E1,8.3E1,1.08E2,9.3E1,2E1,1.64E2,1.78E2,6.3E1,1.1E3,2.48E2,4E1],"tree_param":{"num_deleted":"0","num_feature":"2","num_nodes":"27","size_leaf_vector":"1"}},{"base_weights":[-3.4594394E-3,-2.2431956E-1,7.541237E-2,2.7080119E-2,-4.0263227E-1,2.1450795E-1,-1.6939208E-1,-2.286304E-1,8.170478E-1,-2.7805614E-1,-9.873245E-1,9.478172E-2,3.7887493E-1,-8.321675E-1,-6.389088E-2,-4.0460896E-2,-1.228555E-4,1.134146E-1,3.1014632E-3,-1.5582631E-2,-2.9746985E-2,-3.0005995E-2,-1.3241373E-1,2.7619585E-2,-3.6741395E-2,9.692036E-2,1.1752035E-2,-1.6528551E-1,-5.4234423E-2,2.182034E-2,-4.6046466E-2],"categories":[],"categories_nodes":[],"categories_segments":[],"categories_sizes":[],"default_left":[0,0,0,0,0,0,0,0,0,0,0,0,0,0,0,0,0,0,0,0,0,0,0,0,0,0,0,0,0,0,0],"id":32,"left_children":[1,3,5,7,9,11,13,15,17,19,21,23,25,27,29,-1,-1,-1,-1,-1,-1,-1,-1,-1,-1,-1,-1,-1,-1,-1,-1],"loss_changes":[4.2764706E1,2.8969631E1,6.1634995E1,5.452562E1,2.7258492E1,2.2673698E1,4.581672E1,8.163145E0,1.6415306E1,6.963711E-1,1.4880318E1,5.6196342E1,7.486864E1,2.0510475E1,6.3531445E1,0E0,0E0,0E0,0E0,0E0,0E0,0E0,0E0,0E0,0E0,0E0,0E0,0E0,0E0,0E0,0E0],"parents":[2147483647,0,0,1,1,2,2,3,3,4,4,5,5,6,6,7,7,8,8,9,9,10,10,11,11,12,12,13,13,14,14],"right_children":[2,4,6,8,10,12,14,16,18,20,22,24,26,28,30,-1,-1,-1,-1,-1,-1,-1,-1,-1,-1,-1,-1,-1,-1,-1,-1],"split_conditions":[8E0,4E0,1.9E1,5E0,6E0,1.5E1,4E0,3E0,7E0,6E0,6E0,7E0,6E0,2E1,7E0,-4.0460896E-2,-1.228555E-4,1.134146E-1,3.1014632E-3,-1.5582631E-2,-2.9746985E-2,-3.0005995E-2,-1.3241373E-1,2.7619585E-2,-3.6741395E-2,9.692036E-2,1.1752035E-2,-1.6528551E-1,-5.4234423E-2,2.182034E-2,-4.6046466E-2],"split_indices":[1,0,1,1,1,1,0,1,1,0,0,0,0,1,0,0,0,0,0,0,0,0,0,0,0,0,0,0,0,0,0],"split_type":[0,0,0,0,0,0,0,0,0,0,0,0,0,0,0,0,0,0,0,0,0,0,0,0,0,0,0,0,0,0,0],"sum_hessian":[2.453E3,6.45E2,1.808E3,2.68E2,3.77E2,1.153E3,6.55E2,2.03E2,6.5E1,3.12E2,6.5E1,6.68E2,4.85E2,8.9E1,5.66E2,1.14E2,8.9E1,4.6E1,1.9E1,4.4E1,2.68E2,2.2E1,4.3E1,4.8E2,1.88E2,1.48E2,3.37E2,2.2E1,6.7E1,3.31E2,2.35E2],"tree_param":{"num_deleted":"0","num_feature":"2","num_nodes":"31","size_leaf_vector":"1"}},{"base_weights":[-3.2259456E-3,-2.0209163E-1,6.779145E-2,2.465438E-2,-3.629186E-1,2.3801285E-1,-1.0477751E-1,-2.0596626E-1,7.3710823E-1,-2.5039536E-1,-8.9105266E-1,8.5289374E-2,6.5749425E-1,2.1341316E-1,-2.543431E-1,-7.066448E-2,-1.3844001E-2,1.0231443E-1,2.8068353E-3,-1.4058999E-2,-2.6783345E-2,-2.7135817E-2,-1.1947327E-1,2.48633E-2,-3.308671E-2,3.101684E-2,1.5114544E-1,2.090683E-1,-1.4283302E-2,-1.3915375E-1,-1.1433142E-2],"categories":[],"categories_nodes":[],"categories_segments":[],"categories_sizes":[],"default_left":[0,0,0,0,0,0,0,0,0,0,0,0,0,0,0,0,0,0,0,0,0,0,0,0,0,0,0,0,0,0,0],"id":33,"left_children":[1,3,5,7,9,11,13,15,17,19,21,23,25,27,29,-1,-1,-1,-1,-1,-1,-1,-1,-1,-1,-1,-1,-1,-1,-1,-1],"loss_changes":[3.467135E1,2.3566545E1,5.3164185E1,4.4350285E1,2.2240425E1,5.8306824E1,4.2838024E1,6.7991962E0,1.3356804E1,5.61676E-1,1.209626E1,4.555854E1,7.1605606E1,1.9290442E2,9.728383E1,0E0,0E0,0E0,0E0,0E0,0E0,0E0,0E0,0E0,0E0,0E0,0E0,0E0,0E0,0E0,0E0],"parents":[2147483647,0,0,1,1,2,2,3,3,4,4,5,5,6,6,7,7,8,8,9,9,10,10,11,11,12,12,13,13,14,14],"right_children":[2,4,6,8,10,12,14,16,18,20,22,24,26,28,30,-1,-1,-1,-1,-1,-1,-1,-1,-1,-1,-1,-1,-1,-1,-1,-1],"split_conditions":[8E0,4E0,1.7E1,5E0,6E0,1.5E1,6E0,1E0,7E0,6E0,6E0,7E0,7E0,1.8E1,1.8E1,-7.066448E-2,-1.3844001E-2,1.0231443E-1,2.8068353E-3,-1.4058999E-2,-2.6783345E-2,-2.7135817E-2,-1.1947327E-1,2.48633E-2,-3.308671E-2,3.101684E-2,1.5114544E-1,2.090683E-1,-1.4283302E-2,-1.3915375E-1,-1.1433142E-2],"split_indices":[1,0,1,1,1,1,0,1,1,0,0,0,0,1,1,0,0,0,0,0,0,0,0,0,0,0,0,0,0,0,0],"split_type":[0,0,0,0,0,0,0,0,0,0,0,0,0,0,0,0,0,0,0,0,0,0,0,0,0,0,0,0,0,0,0],"sum_hessian":[2.453E3,6.45E2,1.808E3,2.68E2,3.77E2,9.1E2,8.98E2,2.03E2,6.5E1,3.12E2,6.5E1,6.68E2,2.42E2,2.87E2,6.11E2,2.3E1,1.8E2,4.6E1,1.9E1,4.4E1,2.68E2,2.2E1,4.3E1,4.8E2,1.88E2,1.73E2,6.9E1,4.5E1,2.42E2,6.6E1,5.45E2],"tree_param":{"num_deleted":"0","num_feature":"2","num_nodes":"31","size_leaf_vector":"1"}},{"base_weights":[-2.882587E-3,1.8867707E-2,-5.7439995E-1,-1.4841883E-1,1.14035465E-1,-7.2676554E-2,-4.3797217E-2,-2.7426872E-1,-6.924319E-2,2.93277E-1,-4.0784128E-2,-3.115924E-2,-2.2771336E-2,-1.630958E-2,6.587719E-4,1.33532975E-2,5.92494E-2,1.9274816E-2,-1.6930519E-2],"categories":[],"categories_nodes":[],"categories_segments":[],"categories_sizes":[],"default_left":[0,0,0,0,0,0,0,0,0,0,0,0,0,0,0,0,0,0,0],"id":34,"left_children":[1,3,5,7,9,-1,-1,11,13,15,17,-1,-1,-1,-1,-1,-1,-1,-1],"loss_changes":[3.0515701E1,3.7668396E1,1.5525169E0,8.530331E0,4.1859116E1,0E0,0E0,5.0419617E-1,3.758813E0,3.3331783E1,2.4343826E1,0E0,0E0,0E0,0E0,0E0,0E0,0E0,0E0],"parents":[2147483647,0,0,1,1,2,2,3,3,4,4,7,7,8,8,9,9,10,10],"right_children":[2,4,6,8,10,-1,-1,12,14,16,18,-1,-1,-1,-1,-1,-1,-1,-1],"split_conditions":[2.3E1,1E1,7E0,4E0,1.7E1,-7.2676554E-2,-4.3797217E-2,7E0,4E0,1.5E1,6E0,-3.115924E-2,-2.2771336E-2,-1.630958E-2,6.587719E-4,1.33532975E-2,5.92494E-2,1.9274816E-2,-1.6930519E-2],"split_indices":[1,1,0,1,1,0,0,0,0,1,0,0,0,0,0,0,0,0,0],"split_type":[0,0,0,0,0,0,0,0,0,0,0,0,0,0,0,0,0,0,0],"sum_hessian":[2.453E3,2.364E3,8.9E1,8.57E2,1.507E3,4E1,4.9E1,3.3E2,5.27E2,6.98E2,8.09E2,1.8E2,1.5E2,2.35E2,2.92E2,4.56E2,2.42E2,2.87E2,5.22E2],"tree_param":{"num_deleted":"0","num_feature":"2","num_nodes":"19","size_leaf_vector":"1"}},{"base_weights":[-2.6397046E-3,3.2277223E-2,-3.0923042E-1,-1.3365802E-1,1.3794921E-1,-1.0079645E-1,-2.3091507E-1,-2.4700478E-1,-6.234849E-2,8.851606E-1,1.0059759E-1,-4.1846823E-2,-5.18254E-1,-2.9056672E-2,-2.1395437E-2,-9.709578E-4,-2.0132085E-2,2.9619834E-1,-1.261676E-2,2.011364E-2,1.9176524E-4,2.5698459E-2,-5.729298E-2,-6.558614E-2,-3.9505083E-2],"categories":[],"categories_nodes":[],"categories_segments":[],"categories_sizes":[],"default_left":[0,0,0,0,0,0,0,0,0,0,0,0,0,0,0,0,0,0,0,0,0,0,0,0,0],"id":35,"left_children":[1,3,5,7,9,-1,11,13,15,17,19,21,23,-1,-1,-1,-1,-1,-1,-1,-1,-1,-1,-1,-1],"loss_changes":[2.6280556E1,3.8664936E1,1.3502371E1,6.9195595E0,3.7505127E1,0E0,1.2310466E1,4.1438675E-1,3.8605525E0,1.347961E2,1.2738389E1,2.2048422E1,1.2667313E0,0E0,0E0,0E0,0E0,0E0,0E0,0E0,0E0,0E0,0E0,0E0,0E0],"parents":[2147483647,0,0,1,1,2,2,3,3,4,4,6,6,7,7,8,8,9,9,10,10,11,11,12,12],"right_children":[2,4,6,8,10,-1,12,14,16,18,20,22,24,-1,-1,-1,-1,-1,-1,-1,-1,-1,-1,-1,-1],"split_conditions":[2.2E1,1E1,4E0,4E0,1.1E1,-1.0079645E-1,2.3E1,2E0,7E0,6E0,1.7E1,7E0,7E0,-2.9056672E-2,-2.1395437E-2,-9.709578E-4,-2.0132085E-2,2.9619834E-1,-1.261676E-2,2.011364E-2,1.9176524E-4,2.5698459E-2,-5.729298E-2,-6.558614E-2,-3.9505083E-2],"split_indices":[1,1,0,1,1,0,1,1,0,0,1,0,0,0,0,0,0,0,0,0,0,0,0,0,0],"split_type":[0,0,0,0,0,0,0,0,0,0,0,0,0,0,0,0,0,0,0,0,0,0,0,0,0],"sum_hessian":[2.453E3,2.203E3,2.5E2,8.57E2,1.346E3,2.4E1,2.26E2,3.3E2,5.27E2,6.3E1,1.283E3,1.37E2,8.9E1,1.39E2,1.91E2,3.83E2,1.44E2,2E1,4.3E1,6.35E2,6.48E2,8.8E1,4.9E1,4E1,4.9E1],"tree_param":{"num_deleted":"0","num_feature":"2","num_nodes":"25","size_leaf_vector":"1"}},{"base_weights":[-2.3777534E-3,2.9155012E-2,-2.792536E-1,-1.20375685E-1,1.243801E-1,-9.112E-2,-2.0842579E-1,-2.2245677E-1,-5.6153685E-2,8.010759E-1,9.055384E-2,-3.7891187E-2,-4.6759635E-1,-2.5522232E-2,-1.8170832E-2,-1.4588845E-2,1.6315792E-3,2.67989E-1,-1.1383724E-2,1.8105505E-2,1.7259286E-4,2.3157474E-2,-5.167827E-2,-5.91875E-2,-3.563359E-2],"categories":[],"categories_nodes":[],"categories_segments":[],"categories_sizes":[],"default_left":[0,0,0,0,0,0,0,0,0,0,0,0,0,0,0,0,0,0,0,0,0,0,0,0,0],"id":36,"left_children":[1,3,5,7,9,-1,11,13,15,17,19,21,23,-1,-1,-1,-1,-1,-1,-1,-1,-1,-1,-1,-1],"loss_changes":[2.1433186E1,3.1397888E1,1.1044683E1,5.6124306E0,3.0760403E1,0E0,1.0015125E1,3.955574E-1,3.4359808E0,1.10317986E2,1.0321806E1,1.7927877E1,1.0335503E0,0E0,0E0,0E0,0E0,0E0,0E0,0E0,0E0,0E0,0E0,0E0,0E0],"parents":[2147483647,0,0,1,1,2,2,3,3,4,4,6,6,7,7,8,8,9,9,10,10,11,11,12,12],"right_children":[2,4,6,8,10,-1,12,14,16,18,20,22,24,-1,-1,-1,-1,-1,-1,-1,-1,-1,-1,-1,-1],"split_conditions":[2.2E1,1E1,4E0,4E0,1.1E1,-9.112E-2,2.3E1,7E0,4E0,6E0,1.7E1,7E0,7E0,-2.5522232E-2,-1.8170832E-2,-1.4588845E-2,1.6315792E-3,2.67989E-1,-1.1383724E-2,1.8105505E-2,1.7259286E-4,2.3157474E-2,-5.167827E-2,-5.91875E-2,-3.563359E-2],"split_indices":[1,1,0,1,1,0,1,0,0,0,1,0,0,0,0,0,0,0,0,0,0,0,0,0,0],"split_type":[0,0,0,0,0,0,0,0,0,0,0,0,0,0,0,0,0,0,0,0,0,0,0,0,0],"sum_hessian":[2.453E3,2.203E3,2.5E2,8.57E2,1.346E3,2.4E1,2.26E2,3.3E2,5.27E2,6.3E1,1.283E3,1.37E2,8.9E1,1.8E2,1.5E2,2.35E2,2.92E2,2E1,4.3E1,6.35E2,6.48E2,8.8E1,4.9E1,4E1,4.9E1],"tree_param":{"num_deleted":"0","num_feature":"2","num_nodes":"25","size_leaf_vector":"1"}},{"base_weights":[-2.138064E-3,5.7783876E-2,-1.2586933E-1,-1.030064E-1,1.5429546E-1,-3.4872612E-1,1.02933E-1,1.0116168E-1,-8.457752E-1,-4.0536183E-1,2.3807262E-1,-2.0337033E-1,-2.8766015E-1,1.2034931E0,-2.4841818E-1,-5.3846394E-3,3.2373616E-1,-1.7747091E-1,-3.7191074E-2,-1.5745657E-2,-8.976733E-2,8.617686E-2,1.2541789E-3,-1.2442533E-2,-7.421682E-2,1.3452826E-1,6.949755E-2,2.350149E-2,-5.240912E-2],"categories":[],"categories_nodes":[],"categories_segments":[],"categories_sizes":[],"default_left":[0,0,0,0,0,0,0,0,0,0,0,0,0,0,0,0,0,0,0,0,0,0,0,0,0,0,0,0,0],"id":37,"left_children":[1,3,5,7,9,11,13,15,17,19,21,23,-1,25,27,-1,-1,-1,-1,-1,-1,-1,-1,-1,-1,-1,-1,-1,-1],"loss_changes":[1.8201765E1,2.568287E1,4.087901E1,9.426002E1,4.8577133E1,1.4859616E2,1.5342549E2,2.3740886E2,5.8325256E1,1.6334946E1,1.2658559E2,1.6283785E1,0E0,5.9868927E0,4.0237274E1,0E0,0E0,0E0,0E0,0E0,0E0,0E0,0E0,0E0,0E0,0E0,0E0,0E0,0E0],"parents":[2147483647,0,0,1,1,2,2,3,3,4,4,5,5,6,6,7,7,8,8,9,9,10,10,11,11,13,13,14,14],"right_children":[2,4,6,8,10,12,14,16,18,20,22,24,-1,26,28,-1,-1,-1,-1,-1,-1,-1,-1,-1,-1,-1,-1,-1,-1],"split_conditions":[7E0,5E0,1.4E1,1.8E1,8E0,1.3E1,1.7E1,1.6E1,2E1,6E0,1.4E1,1.2E1,-2.8766015E-1,1.6E1,2E1,-5.3846394E-3,3.2373616E-1,-1.7747091E-1,-3.7191074E-2,-1.5745657E-2,-8.976733E-2,8.617686E-2,1.2541789E-3,-1.2442533E-2,-7.421682E-2,1.3452826E-1,6.949755E-2,2.350149E-2,-5.240912E-2],"split_indices":[0,0,1,1,1,1,1,1,1,1,1,1,0,1,1,0,0,0,0,0,0,0,0,0,0,0,0,0,0],"split_type":[0,0,0,0,0,0,0,0,0,0,0,0,0,0,0,0,0,0,0,0,0,0,0,0,0,0,0,0,0],"sum_hessian":[2.453E3,1.653E3,8E2,6.2E2,1.033E3,4.05E2,3.95E2,4.87E2,1.33E2,1.34E2,8.99E2,3.84E2,2.1E1,9.5E1,3E2,4.65E2,2.2E1,4.4E1,8.9E1,9E1,4.4E1,2.38E2,6.61E2,3.36E2,4.8E1,7.3E1,2.2E1,1.09E2,1.91E2],"tree_param":{"num_deleted":"0","num_feature":"2","num_nodes":"29","size_leaf_vector":"1"}},{"base_weights":[-1.9706446E-3,5.205718E-2,-1.1353126E-1,-9.253885E-2,1.3884836E-1,-3.1477553E-1,9.308162E-2,9.1697745E-2,-7.6279944E-1,-3.6560717E-1,2.1436241E-1,-1.8325846E-1,-2.6020163E-1,1.0852683E0,-2.2367254E-1,-4.8473435E-3,2.9277012E-1,-1.6011818E-1,-3.3513274E-2,-1.4188396E-2,-8.099007E-2,7.7595316E-2,1.1289091E-3,-1.12019805E-2,-6.6946596E-2,1.2125714E-1,6.284991E-2,2.1172656E-2,-4.7195498E-2],"categories":[],"categories_nodes":[],"categories_segments":[],"categories_sizes":[],"default_left":[0,0,0,0,0,0,0,0,0,0,0,0,0,0,0,0,0,0,0,0,0,0,0,0,0,0,0,0,0],"id":38,"left_children":[1,3,5,7,9,11,13,15,17,19,21,23,-1,25,27,-1,-1,-1,-1,-1,-1,-1,-1,-1,-1,-1,-1,-1,-1],"loss_changes":[1.4797095E1,2.0769985E1,3.3334606E1,7.675509E1,3.9467033E1,1.216525E2,1.2469733E2,1.9413458E2,4.750885E1,1.3303923E1,1.02630905E2,1.3260163E1,0E0,4.820122E0,3.263861E1,0E0,0E0,0E0,0E0,0E0,0E0,0E0,0E0,0E0,0E0,0E0,0E0,0E0,0E0],"parents":[2147483647,0,0,1,1,2,2,3,3,4,4,5,5,6,6,7,7,8,8,9,9,10,10,11,11,13,13,14,14],"right_children":[2,4,6,8,10,12,14,16,18,20,22,24,-1,26,28,-1,-1,-1,-1,-1,-1,-1,-1,-1,-1,-1,-1,-1,-1],"split_conditions":[7E0,5E0,1.4E1,1.8E1,8E0,1.3E1,1.7E1,1.6E1,2E1,6E0,1.4E1,1.2E1,-2.6020163E-1,1.6E1,2E1,-4.8473435E-3,2.9277012E-1,-1.6011818E-1,-3.3513274E-2,-1.4188396E-2,-8.099007E-2,7.7595316E-2,1.1289091E-3,-1.12019805E-2,-6.6946596E-2,1.2125714E-1,6.284991E-2,2.1172656E-2,-4.7195498E-2],"split_indices":[0,0,1,1,1,1,1,1,1,1,1,1,0,1,1,0,0,0,0,0,0,0,0,0,0,0,0,0,0],"split_type":[0,0,0,0,0,0,0,0,0,0,0,0,0,0,0,0,0,0,0,0,0,0,0,0,0,0,0,0,0],"sum_hessian":[2.453E3,1.653E3,8E2,6.2E2,1.033E3,4.05E2,3.95E2,4.87E2,1.33E2,1.34E2,8.99E2,3.84E2,2.1E1,9.5E1,3E2,4.65E2,2.2E1,4.4E1,8.9E1,9E1,4.4E1,2.38E2,6.61E2,3.36E2,4.8E1,7.3E1,2.2E1,1.09E2,1.91E2],"tree_param":{"num_deleted":"0","num_feature":"2","num_nodes":"29","size_leaf_vector":"1"}},{"base_weights":[-1.8154889E-3,1.2147825E-2,-3.6872017E-1,-9.586323E-2,7.359433E-2,-5.364559E-2,-2.2380253E-2,-1.8120681E-1,-4.21803E-2,6.2818944E-1,4.8980024E-2,-2.1444082E-2,-1.4016995E-2,2.217396E-4,-1.5946675E-2,2.2686914E-1,-1.6905442E-2,1.0075031E-2,-7.1058883E-3],"categories":[],"categories_nodes":[],"categories_segments":[],"categories_sizes":[],"default_left":[0,0,0,0,0,0,0,0,0,0,0,0,0,0,0,0,0,0,0],"id":39,"left_children":[1,3,5,7,9,-1,-1,11,13,15,17,-1,-1,-1,-1,-1,-1,-1,-1],"loss_changes":[1.2576825E1,1.5703328E1,2.067647E0,3.9232774E0,2.0554905E1,0E0,0E0,4.213667E-1,2.7497804E0,8.4087845E1,8.987037E0,0E0,0E0,0E0,0E0,0E0,0E0,0E0,0E0],"parents":[2147483647,0,0,1,1,2,2,3,3,4,4,7,7,8,8,9,9,10,10],"right_children":[2,4,6,8,10,-1,-1,12,14,16,18,-1,-1,-1,-1,-1,-1,-1,-1],"split_conditions":[2.3E1,1E1,7E0,4E0,1.1E1,-5.364559E-2,-2.2380253E-2,7E0,7E0,6E0,7E0,-2.1444082E-2,-1.4016995E-2,2.217396E-4,-1.5946675E-2,2.2686914E-1,-1.6905442E-2,1.0075031E-2,-7.1058883E-3],"split_indices":[1,1,0,1,1,0,0,0,0,0,0,0,0,0,0,0,0,0,0],"split_type":[0,0,0,0,0,0,0,0,0,0,0,0,0,0,0,0,0,0,0],"sum_hessian":[2.453E3,2.364E3,8.9E1,8.57E2,1.507E3,4E1,4.9E1,3.3E2,5.27E2,6.3E1,1.444E3,1.8E2,1.5E2,3.83E2,1.44E2,2E1,4.3E1,1.009E3,4.35E2],"tree_param":{"num_deleted":"0","num_feature":"2","num_nodes":"19","size_leaf_vector":"1"}},{"base_weights":[-1.5987641E-3,1.1001694E-2,-3.3269304E-1,-8.633653E-2,6.637649E-2,-4.8411917E-2,-2.0186977E-2,-1.6319323E-1,-3.799201E-2,5.686506E-1,4.4084504E-2,-1.9311527E-2,-1.2624568E-2,-1.2139363E-2,2.9314382E-3,2.0526253E-1,-1.5253379E-2,9.0685645E-3,-6.3968794E-3],"categories":[],"categories_nodes":[],"categories_segments":[],"categories_sizes":[],"default_left":[0,0,0,0,0,0,0,0,0,0,0,0,0,0,0,0,0,0,0],"id":40,"left_children":[1,3,5,7,9,-1,-1,11,13,15,17,-1,-1,-1,-1,-1,-1,-1,-1],"loss_changes":[1.02416E1,1.2753281E1,1.685175E0,3.1817856E0,1.6859537E1,0E0,0E0,3.4155464E-1,2.9674666E0,6.880713E1,7.281965E0,0E0,0E0,0E0,0E0,0E0,0E0,0E0,0E0],"parents":[2147483647,0,0,1,1,2,2,3,3,4,4,7,7,8,8,9,9,10,10],"right_children":[2,4,6,8,10,-1,-1,12,14,16,18,-1,-1,-1,-1,-1,-1,-1,-1],"split_conditions":[2.3E1,1E1,7E0,4E0,1.1E1,-4.8411917E-2,-2.0186977E-2,7E0,4E0,6E0,7E0,-1.9311527E-2,-1.2624568E-2,-1.2139363E-2,2.9314382E-3,2.0526253E-1,-1.5253379E-2,9.0685645E-3,-6.3968794E-3],"split_indices":[1,1,0,1,1,0,0,0,0,0,0,0,0,0,0,0,0,0,0],"split_type":[0,0,0,0,0,0,0,0,0,0,0,0,0,0,0,0,0,0,0],"sum_hessian":[2.453E3,2.364E3,8.9E1,8.57E2,1.507E3,4E1,4.9E1,3.3E2,5.27E2,6.3E1,1.444E3,1.8E2,1.5E2,2.35E2,2.92E2,2E1,4.3E1,1.009E3,4.35E2],"tree_param":{"num_deleted":"0","num_feature":"2","num_nodes":"19","size_leaf_vector":"1"}},{"base_weights":[-1.4052013E-3,1.9238994E-2,-1.8267372E-1,-4.8435695E-2,1.1902048E-1,-7.7422634E-2,-1.16720036E-1,2.6437826E-2,-2.0136367E-1,6.175145E-1,2.8407624E-2,3.777359E-3,-3.001858E-1,9.903827E-3,-8.592487E-2,-2.6496947E-2,7.62537E-2,2.5915263E-2,1.2765782E-1,3.674548E-2,-1.3030845E-2,2.0545986E-2,-3.5529304E-2,-4.368876E-2,-1.8208664E-2],"categories":[],"categories_nodes":[],"categories_segments":[],"categories_sizes":[],"default_left":[0,0,0,0,0,0,0,0,0,0,0,0,0,0,0,0,0,0,0,0,0,0,0,0,0],"id":41,"left_children":[1,3,5,7,9,-1,11,13,15,17,19,21,23,-1,-1,-1,-1,-1,-1,-1,-1,-1,-1,-1,-1],"loss_changes":[9.186732E0,1.4888672E1,9.702415E0,1.505096E1,4.0228897E1,0E0,5.019457E0,5.686309E1,2.6687824E1,3.202629E1,4.0676117E1,1.006671E1,1.3734426E0,0E0,0E0,0E0,0E0,0E0,0E0,0E0,0E0,0E0,0E0,0E0,0E0],"parents":[2147483647,0,0,1,1,2,2,3,3,4,4,6,6,7,7,8,8,9,9,10,10,11,11,12,12],"right_children":[2,4,6,8,10,-1,12,14,16,18,20,22,24,-1,-1,-1,-1,-1,-1,-1,-1,-1,-1,-1,-1],"split_conditions":[2.2E1,1.5E1,4E0,7E0,1.6E1,-7.7422634E-2,2.3E1,1.4E1,1.4E1,7E0,6E0,7E0,7E0,9.903827E-3,-8.592487E-2,-2.6496947E-2,7.62537E-2,2.5915263E-2,1.2765782E-1,3.674548E-2,-1.3030845E-2,2.0545986E-2,-3.5529304E-2,-4.368876E-2,-1.8208664E-2],"split_indices":[1,1,0,0,1,0,1,1,1,0,0,0,0,0,0,0,0,0,0,0,0,0,0,0,0],"split_type":[0,0,0,0,0,0,0,0,0,0,0,0,0,0,0,0,0,0,0,0,0,0,0,0,0],"sum_hessian":[2.453E3,2.203E3,2.5E2,1.313E3,8.9E2,2.4E1,2.26E2,8.82E2,4.31E2,1.36E2,7.54E2,1.37E2,8.9E1,8.16E2,6.6E1,4.05E2,2.6E1,8.9E1,4.7E1,2.4E2,5.14E2,8.8E1,4.9E1,4E1,4.9E1],"tree_param":{"num_deleted":"0","num_feature":"2","num_nodes":"25","size_leaf_vector":"1"}},{"base_weights":[-1.2658015E-3,1.7383853E-2,-1.6502106E-1,-4.361189E-2,1.07317664E-1,-6.999006E-2,-1.0538667E-1,2.3708312E-2,-1.8111219E-1,5.568844E-1,2.5598504E-2,3.2910851E-3,-2.7085492E-1,8.914702E-3,-7.74607E-2,-5.4112445E-3,-6.250476E-2,2.3352541E-2,1.1515808E-1,3.3086218E-2,-1.1730274E-2,1.8514475E-2,-3.204743E-2,-3.9426442E-2,-1.6424207E-2],"categories":[],"categories_nodes":[],"categories_segments":[],"categories_sizes":[],"default_left":[0,0,0,0,0,0,0,0,0,0,0,0,0,0,0,0,0,0,0,0,0,0,0,0,0],"id":42,"left_children":[1,3,5,7,9,-1,11,13,15,17,19,21,23,-1,-1,-1,-1,-1,-1,-1,-1,-1,-1,-1,-1],"loss_changes":[7.4973335E0,1.2094897E1,7.9324417E0,1.2167398E1,3.2719494E1,0E0,4.082968E0,4.619761E1,2.4322203E1,2.607624E1,3.2973843E1,8.184485E0,1.1193786E0,0E0,0E0,0E0,0E0,0E0,0E0,0E0,0E0,0E0,0E0,0E0,0E0],"parents":[2147483647,0,0,1,1,2,2,3,3,4,4,6,6,7,7,8,8,9,9,10,10,11,11,12,12],"right_children":[2,4,6,8,10,-1,12,14,16,18,20,22,24,-1,-1,-1,-1,-1,-1,-1,-1,-1,-1,-1,-1],"split_conditions":[2.2E1,1.5E1,4E0,7E0,1.6E1,-6.999006E-2,2.3E1,1.4E1,1.2E1,7E0,6E0,7E0,7E0,8.914702E-3,-7.74607E-2,-5.4112445E-3,-6.250476E-2,2.3352541E-2,1.1515808E-1,3.3086218E-2,-1.1730274E-2,1.8514475E-2,-3.204743E-2,-3.9426442E-2,-1.6424207E-2],"split_indices":[1,1,0,0,1,0,1,1,1,0,0,0,0,0,0,0,0,0,0,0,0,0,0,0,0],"split_type":[0,0,0,0,0,0,0,0,0,0,0,0,0,0,0,0,0,0,0,0,0,0,0,0,0],"sum_hessian":[2.453E3,2.203E3,2.5E2,1.313E3,8.9E2,2.4E1,2.26E2,8.82E2,4.31E2,1.36E2,7.54E2,1.37E2,8.9E1,8.16E2,6.6E1,3.36E2,9.5E1,8.9E1,4.7E1,2.4E2,5.14E2,8.8E1,4.9E1,4E1,4.9E1],"tree_param":{"num_deleted":"0","num_feature":"2","num_nodes":"25","size_leaf_vector":"1"}},{"base_weights":[-1.1865457E-3,-1.0082385E-1,3.2551706E-2,7.2783686E-2,-7.323138E-1,-2.122806E-1,9.6047975E-2,-5.025808E-2,2.5625524E-1,-1.5316186E0,-3.2452458E-1,-1.133226E-1,-6.783651E-1,4.7539875E-1,1.053364E-2,-1.4115003E-2,7.630371E-2,-1.7345718E-1,-1.2620734E-1,-2.0868873E-2,-4.2606186E-2,2.3959915E-3,-1.3468727E-2,-1.04348725E-2,-9.630018E-2,6.224894E-2,1.9650228E-2,-2.5676696E-2,7.3123686E-3],"categories":[],"categories_nodes":[],"categories_segments":[],"categories_sizes":[],"default_left":[0,0,0,0,0,0,0,0,0,0,0,0,0,0,0,0,0,0,0,0,0,0,0,0,0,0,0,0,0],"id":43,"left_children":[1,3,5,7,9,11,13,15,-1,17,19,21,23,25,27,-1,-1,-1,-1,-1,-1,-1,-1,-1,-1,-1,-1,-1,-1],"loss_changes":[8.252619E0,6.8134415E1,2.853164E1,1.4962543E2,4.3179962E1,1.7357542E1,4.7259964E1,3.4555347E1,0E0,2.7257538E-1,9.69635E-1,9.2125463E-1,1.0682991E1,1.0871864E1,1.9927898E1,0E0,0E0,0E0,0E0,0E0,0E0,0E0,0E0,0E0,0E0,0E0,0E0,0E0,0E0],"parents":[2147483647,0,0,1,1,2,2,3,3,4,4,5,5,6,6,7,7,9,9,10,10,11,11,12,12,13,13,14,14],"right_children":[2,4,6,8,10,12,14,16,-1,18,20,22,24,26,28,-1,-1,-1,-1,-1,-1,-1,-1,-1,-1,-1,-1,-1,-1],"split_conditions":[5E0,1.8E1,8E0,1.6E1,2E1,6E0,1.2E1,1.3E1,2.5625524E-1,1.9E1,2.2E1,1E0,6E0,7E0,1.5E1,-1.4115003E-2,7.630371E-2,-1.7345718E-1,-1.2620734E-1,-2.0868873E-2,-4.2606186E-2,2.3959915E-3,-1.3468727E-2,-1.04348725E-2,-9.630018E-2,6.224894E-2,1.9650228E-2,-2.5676696E-2,7.3123686E-3],"split_indices":[0,1,1,1,1,1,1,1,0,1,1,1,0,0,1,0,0,0,0,0,0,0,0,0,0,0,0,0,0],"split_type":[0,0,0,0,0,0,0,0,0,0,0,0,0,0,0,0,0,0,0,0,0,0,0,0,0,0,0,0,0],"sum_hessian":[2.453E3,6.2E2,1.833E3,4.87E2,1.33E2,3.77E2,1.456E3,4.65E2,2.2E1,4.4E1,8.9E1,3.12E2,6.5E1,2.67E2,1.189E3,4.19E2,4.6E1,2.2E1,2.2E1,4.3E1,4.6E1,4.2E1,2.7E2,2.2E1,4.3E1,1.74E2,9.3E1,2.25E2,9.64E2],"tree_param":{"num_deleted":"0","num_feature":"2","num_nodes":"29","size_leaf_vector":"1"}},{"base_weights":[-1.1083455E-3,-9.0813585E-2,2.9266825E-2,6.615767E-2,-6.617924E-1,-1.9136421E-1,8.648664E-2,-4.509899E-2,2.317438E-1,-1.385116E0,-2.9277733E-1,-1.0202572E-1,-6.121458E-1,5.2844965E-1,2.5351634E-2,-1.2706885E-2,6.883572E-2,-1.5686563E-1,-1.1413534E-1,-1.8829403E-2,-3.8436215E-2,2.1619576E-3,-1.2126824E-2,-9.436748E-3,-8.688902E-2,1.4494817E-1,2.746806E-2,-5.8176615E-3,1.0527051E-2],"categories":[],"categories_nodes":[],"categories_segments":[],"categories_sizes":[],"default_left":[0,0,0,0,0,0,0,0,0,0,0,0,0,0,0,0,0,0,0,0,0,0,0,0,0,0,0,0,0],"id":44,"left_children":[1,3,5,7,9,11,13,15,-1,17,19,21,23,25,27,-1,-1,-1,-1,-1,-1,-1,-1,-1,-1,-1,-1,-1,-1],"loss_changes":[6.6893463E0,5.570231E1,2.316982E1,1.2233383E2,3.536138E1,1.4147318E1,3.935388E1,2.8103994E1,0E0,2.2292328E-1,7.888446E-1,7.473259E-1,8.691826E0,4.0971973E1,8.557418E0,0E0,0E0,0E0,0E0,0E0,0E0,0E0,0E0,0E0,0E0,0E0,0E0,0E0,0E0],"parents":[2147483647,0,0,1,1,2,2,3,3,4,4,5,5,6,6,7,7,9,9,10,10,11,11,12,12,13,13,14,14],"right_children":[2,4,6,8,10,12,14,16,-1,18,20,22,24,26,28,-1,-1,-1,-1,-1,-1,-1,-1,-1,-1,-1,-1,-1,-1],"split_conditions":[5E0,1.8E1,8E0,1.6E1,2E1,6E0,1.1E1,1.3E1,2.317438E-1,1.9E1,2.2E1,1E0,6E0,6E0,1.8E1,-1.2706885E-2,6.883572E-2,-1.5686563E-1,-1.1413534E-1,-1.8829403E-2,-3.8436215E-2,2.1619576E-3,-1.2126824E-2,-9.436748E-3,-8.688902E-2,1.4494817E-1,2.746806E-2,-5.8176615E-3,1.0527051E-2],"split_indices":[0,1,1,1,1,1,1,1,0,1,1,1,0,0,1,0,0,0,0,0,0,0,0,0,0,0,0,0,0],"split_type":[0,0,0,0,0,0,0,0,0,0,0,0,0,0,0,0,0,0,0,0,0,0,0,0,0,0,0,0,0],"sum_hessian":[2.453E3,6.2E2,1.833E3,4.87E2,1.33E2,3.77E2,1.456E3,4.65E2,2.2E1,4.4E1,8.9E1,3.12E2,6.5E1,1.76E2,1.28E3,4.19E2,4.6E1,2.2E1,2.2E1,4.3E1,4.6E1,4.2E1,2.7E2,2.2E1,4.3E1,3.7E1,1.39E2,6.26E2,6.54E2],"tree_param":{"num_deleted":"0","num_feature":"2","num_nodes":"29","size_leaf_vector":"1"}},{"base_weights":[-9.85083E-4,8.949431E-3,-2.6203108E-1,-8.179731E-2,4.12387E-2,-3.7320357E-2,-1.65629E-2,6.0131736E-2,-5.980628E-1,-1.7250888E-1,1.0027039E-1,-4.0468755E-3,2.0957708E-1,-1.2526262E-1,-2.6413595E-2,-9.18549E-3,-5.523906E-2,3.9588228E-2,2.8222923E-3],"categories":[],"categories_nodes":[],"categories_segments":[],"categories_sizes":[],"default_left":[0,0,0,0,0,0,0,0,0,0,0,0,0,0,0,0,0,0,0],"id":45,"left_children":[1,3,5,7,9,-1,-1,11,13,15,17,-1,-1,-1,-1,-1,-1,-1,-1],"loss_changes":[6.366462E0,6.933168E0,9.027395E-1,4.5538536E1,2.2035498E1,0E0,0E0,1.00020515E2,2.8958366E1,1.1530793E1,2.912461E1,0E0,0E0,0E0,0E0,0E0,0E0,0E0,0E0],"parents":[2147483647,0,0,1,1,2,2,3,3,4,4,7,7,8,8,9,9,10,10],"right_children":[2,4,6,8,10,-1,-1,12,14,16,18,-1,-1,-1,-1,-1,-1,-1,-1],"split_conditions":[2.3E1,5E0,7E0,1.8E1,8E0,-3.7320357E-2,-1.65629E-2,1.6E1,2E1,6E0,1.2E1,-4.0468755E-3,2.0957708E-1,-1.2526262E-1,-2.6413595E-2,-9.18549E-3,-5.523906E-2,3.9588228E-2,2.8222923E-3],"split_indices":[1,0,0,1,1,0,0,1,1,1,1,0,0,0,0,0,0,0,0],"split_type":[0,0,0,0,0,0,0,0,0,0,0,0,0,0,0,0,0,0,0],"sum_hessian":[2.453E3,2.364E3,8.9E1,6.2E2,1.744E3,4E1,4.9E1,4.87E2,1.33E2,3.77E2,1.367E3,4.65E2,2.2E1,4.4E1,8.9E1,3.12E2,6.5E1,2.67E2,1.1E3],"tree_param":{"num_deleted":"0","num_feature":"2","num_nodes":"19","size_leaf_vector":"1"}},{"base_weights":[-8.957046E-4,2.0700306E-2,-1.014594E-1,-3.519404E-2,1.2440719E-1,-2.1703469E-2,-2.586375E-1,1.9764218E-2,-1.4744623E-1,4.7695547E-1,3.9750677E-2,-3.8283142E-1,4.646698E-2,-3.122805E-2,-1.4939732E-2,7.631056E-3,-6.700586E-2,-2.0855473E-2,7.769055E-2,1.7424896E-2,1.0345936E-1,2.6155373E-2,-7.837382E-3,-1.9870168E-2,-5.2955236E-2,3.7111867E-2,-7.1026506E-3],"categories":[],"categories_nodes":[],"categories_segments":[],"categories_sizes":[],"default_left":[0,0,0,0,0,0,0,0,0,0,0,0,0,0,0,0,0,0,0,0,0,0,0,0,0,0,0],"id":46,"left_children":[1,3,5,7,9,11,13,15,17,19,21,23,25,-1,-1,-1,-1,-1,-1,-1,-1,-1,-1,-1,-1,-1,-1],"loss_changes":[5.331635E0,1.1719363E1,5.4349604E0,8.109223E0,2.1111656E1,7.132465E0,8.0890274E-1,3.4494278E1,2.456387E1,2.2945421E1,1.5007113E1,1.1374984E0,9.333607E0,0E0,0E0,0E0,0E0,0E0,0E0,0E0,0E0,0E0,0E0,0E0,0E0,0E0,0E0],"parents":[2147483647,0,0,1,1,2,2,3,3,4,4,5,5,6,6,7,7,8,8,9,9,10,10,11,11,12,12],"right_children":[2,4,6,8,10,12,14,16,18,20,22,24,26,-1,-1,-1,-1,-1,-1,-1,-1,-1,-1,-1,-1,-1,-1],"split_conditions":[2.1E1,1.5E1,7E0,7E0,1.6E1,4E0,2.3E1,1.4E1,1.4E1,7E0,6E0,2.2E1,6E0,-3.122805E-2,-1.4939732E-2,7.631056E-3,-6.700586E-2,-2.0855473E-2,7.769055E-2,1.7424896E-2,1.0345936E-1,2.6155373E-2,-7.837382E-3,-1.9870168E-2,-5.2955236E-2,3.7111867E-2,-7.1026506E-3],"split_indices":[1,1,0,0,1,0,1,1,1,0,0,1,0,0,0,0,0,0,0,0,0,0,0,0,0,0,0],"split_type":[0,0,0,0,0,0,0,0,0,0,0,0,0,0,0,0,0,0,0,0,0,0,0,0,0,0,0],"sum_hessian":[2.453E3,2.02E3,4.33E2,1.313E3,7.07E2,2.88E2,1.45E2,8.82E2,4.31E2,1.36E2,5.71E2,4.5E1,2.43E2,9.6E1,4.9E1,8.16E2,6.6E1,4.05E2,2.6E1,8.9E1,4.7E1,1.98E2,3.73E2,2.1E1,2.4E1,6.4E1,1.79E2],"tree_param":{"num_deleted":"0","num_feature":"2","num_nodes":"27","size_leaf_vector":"1"}},{"base_weights":[-7.867883E-4,-8.1878796E-2,2.667173E-2,4.566773E-2,-5.457656E-1,-1.4472671E-1,7.112056E-2,-4.4486586E-2,1.870287E-1,-1.1557218E0,-2.3472339E-1,-7.010107E-2,-4.9644035E-1,4.4137454E-1,1.9905822E-2,-1.1796794E-2,6.131018E-2,-1.3238126E-1,-9.373822E-2,-1.4767346E-2,-3.1122282E-2,4.8849992E-3,-8.871655E-3,-3.980355E-3,-7.2385415E-2,1.2623696E-1,2.1538034E-2,-6.491308E-3,1.01068495E-2],"categories":[],"categories_nodes":[],"categories_segments":[],"categories_sizes":[],"default_left":[0,0,0,0,0,0,0,0,0,0,0,0,0,0,0,0,0,0,0,0,0,0,0,0,0,0,0,0,0],"id":47,"left_children":[1,3,5,7,9,11,13,15,-1,17,19,21,23,25,27,-1,-1,-1,-1,-1,-1,-1,-1,-1,-1,-1,-1,-1,-1],"loss_changes":[5.466423E0,3.6767723E1,1.3982549E1,8.035789E1,2.515149E1,9.886511E0,2.7619514E1,2.2589668E1,0E0,4.1062164E-1,5.5337524E-1,6.974193E-1,6.824991E0,3.2568718E1,8.825129E0,0E0,0E0,0E0,0E0,0E0,0E0,0E0,0E0,0E0,0E0,0E0,0E0,0E0,0E0],"parents":[2147483647,0,0,1,1,2,2,3,3,4,4,5,5,6,6,7,7,9,9,10,10,11,11,12,12,13,13,14,14],"right_children":[2,4,6,8,10,12,14,16,-1,18,20,22,24,26,28,-1,-1,-1,-1,-1,-1,-1,-1,-1,-1,-1,-1,-1,-1],"split_conditions":[5E0,1.8E1,8E0,1.6E1,2E1,6E0,1.1E1,1.3E1,1.870287E-1,1.9E1,2.2E1,1E0,6E0,6E0,1.8E1,-1.1796794E-2,6.131018E-2,-1.3238126E-1,-9.373822E-2,-1.4767346E-2,-3.1122282E-2,4.8849992E-3,-8.871655E-3,-3.980355E-3,-7.2385415E-2,1.2623696E-1,2.1538034E-2,-6.491308E-3,1.01068495E-2],"split_indices":[0,1,1,1,1,1,1,1,0,1,1,1,0,0,1,0,0,0,0,0,0,0,0,0,0,0,0,0,0],"split_type":[0,0,0,0,0,0,0,0,0,0,0,0,0,0,0,0,0,0,0,0,0,0,0,0,0,0,0,0,0],"sum_hessian":[2.453E3,6.2E2,1.833E3,4.87E2,1.33E2,3.77E2,1.456E3,4.65E2,2.2E1,4.4E1,8.9E1,3.12E2,6.5E1,1.76E2,1.28E3,4.19E2,4.6E1,2.2E1,2.2E1,4.3E1,4.6E1,4.2E1,2.7E2,2.2E1,4.3E1,3.7E1,1.39E2,6.26E2,6.54E2],"tree_param":{"num_deleted":"0","num_feature":"2","num_nodes":"29","size_leaf_vector":"1"}},{"base_weights":[-6.93811E-4,8.227966E-3,-2.3513058E-1,-7.3747925E-2,3.7396334E-2,-3.397245E-2,-1.44660985E-2,4.1585784E-2,-4.9321884E-1,-1.3046665E-1,8.375219E-2,-3.9931554E-3,1.69139E-1,-1.0451742E-1,-2.1176092E-2,-6.310382E-3,-4.47953E-2,3.3232857E-2,2.3168884E-3],"categories":[],"categories_nodes":[],"categories_segments":[],"categories_sizes":[],"default_left":[0,0,0,0,0,0,0,0,0,0,0,0,0,0,0,0,0,0,0],"id":48,"left_children":[1,3,5,7,9,-1,-1,11,13,15,17,-1,-1,-1,-1,-1,-1,-1,-1],"loss_changes":[5.134703E0,5.6577163E0,8.0248594E-1,3.0063953E1,1.3589527E1,0E0,0E0,6.569752E1,2.0595871E1,8.055935E0,2.0593803E1,0E0,0E0,0E0,0E0,0E0,0E0,0E0,0E0],"parents":[2147483647,0,0,1,1,2,2,3,3,4,4,7,7,8,8,9,9,10,10],"right_children":[2,4,6,8,10,-1,-1,12,14,16,18,-1,-1,-1,-1,-1,-1,-1,-1],"split_conditions":[2.3E1,5E0,7E0,1.8E1,8E0,-3.397245E-2,-1.44660985E-2,1.6E1,2E1,6E0,1.2E1,-3.9931554E-3,1.69139E-1,-1.0451742E-1,-2.1176092E-2,-6.310382E-3,-4.47953E-2,3.3232857E-2,2.3168884E-3],"split_indices":[1,0,0,1,1,0,0,1,1,1,1,0,0,0,0,0,0,0,0],"split_type":[0,0,0,0,0,0,0,0,0,0,0,0,0,0,0,0,0,0,0],"sum_hessian":[2.453E3,2.364E3,8.9E1,6.2E2,1.744E3,4E1,4.9E1,4.87E2,1.33E2,3.77E2,1.367E3,4.65E2,2.2E1,4.4E1,8.9E1,3.12E2,6.5E1,2.67E2,1.1E3],"tree_param":{"num_deleted":"0","num_feature":"2","num_nodes":"19","size_leaf_vector":"1"}},{"base_weights":[-6.344822E-4,7.415217E-3,-2.1215564E-1,-6.630931E-2,3.3647604E-2,-3.0658035E-2,-1.3048428E-2,3.7766013E-2,-4.4483504E-1,-1.2526245E-1,7.432266E-2,-1.02215065E-2,8.892774E-2,-9.429799E-2,-1.9082004E-2,-5.681351E-3,-6.093365E-2,2.770631E-2,2.0853959E-3],"categories":[],"categories_nodes":[],"categories_segments":[],"categories_sizes":[],"default_left":[0,0,0,0,0,0,0,0,0,0,0,0,0,0,0,0,0,0,0],"id":49,"left_children":[1,3,5,7,9,-1,-1,11,13,15,17,-1,-1,-1,-1,-1,-1,-1,-1],"loss_changes":[4.179954E0,4.5760713E0,6.540575E-1,2.4481213E1,1.12884245E1,0E0,0E0,5.825829E1,1.677592E1,1.1761212E1,1.5062195E1,0E0,0E0,0E0,0E0,0E0,0E0,0E0,0E0],"parents":[2147483647,0,0,1,1,2,2,3,3,4,4,7,7,8,8,9,9,10,10],"right_children":[2,4,6,8,10,-1,-1,12,14,16,18,-1,-1,-1,-1,-1,-1,-1,-1],"split_conditions":[2.3E1,5E0,7E0,1.8E1,7E0,-3.0658035E-2,-1.3048428E-2,1.3E1,2E1,6E0,1.2E1,-1.02215065E-2,8.892774E-2,-9.429799E-2,-1.9082004E-2,-5.681351E-3,-6.093365E-2,2.770631E-2,2.0853959E-3],"split_indices":[1,0,0,1,1,0,0,1,1,1,1,0,0,0,0,0,0,0,0],"split_type":[0,0,0,0,0,0,0,0,0,0,0,0,0,0,0,0,0,0,0],"sum_hessian":[2.453E3,2.364E3,8.9E1,6.2E2,1.744E3,4E1,4.9E1,4.87E2,1.33E2,3.55E2,1.389E3,4.19E2,6.8E1,4.4E1,8.9E1,3.12E2,4.3E1,2.89E2,1.1E3],"tree_param":{"num_deleted":"0","num_feature":"2","num_nodes":"19","size_leaf_vector":"1"}}]},"name":"gbtree"},"learner_model_param":{"base_score":"[1.2738279E1]","boost_from_average":"1","num_class":"0","num_feature":"2","num_target":"1"},"objective":{"name":"reg:squarederror","reg_loss_param":{"scale_pos_weight":"1"}}},"version":[3,2,0]}