{"learner":{"attributes":{},"feature_names":["day_of_week","hour_of_day"],"feature_types":[],"gradient_booster":{"model":{"cats":{"enc":[],"feature_segments":[],"sorted_idx":[]},"gbtree_model_param":{"num_parallel_tree":"1","num_trees":"50"},"iteration_indptr":[0,1,2,3,4,5,6,7,8,9,10,11,12,13,14,15,16,17,18,19,20,21,22,23,24,25,26,27,28,29,30,31,32,33,34,35,36,37,38,39,40,41,42,43,44,45,46,47,48,49,50],"tree_info":[0,0,0,0,0,0,0,0,0,0,0,0,0,0,0,0,0,0,0,0,0,0,0,0,0,0,0,0,0,0,0,0,0,0,0,0,0,0,0,0,0,0,0,0,0,0,0,0,0,0],"trees":[{"base_weights":[1.6736821E-7,-1.0939453E1,1.1601115E0,-1.1349177E1,-6.4995866E0,3.4053812E0,-4.319174E0,-1.2191266E1,-9.3239635E-1,-1.5270925E-1,-8.794646E-1,-2.1794991E0,4.0266438E0,-2.2707174E0,-8.151913E0,-1.2471851E0,-1.0863019E0,8.161725E-2,-7.1512973E-1,4.3393135E-1,1.3662164E-1,-4.687179E-1,-4.7197584E-2,-1.1039476E0,-5.6301326E-1],"categories":[],"categories_nodes":[],"categories_segments":[],"categories_sizes":[],"default_left":[0,0,0,0,0,0,0,0,0,0,0,0,0,0,0,0,0,0,0,0,0,0,0,0,0],"id":0,"left_children":[1,3,5,7,9,11,13,15,-1,-1,-1,17,19,21,23,-1,-1,-1,-1,-1,-1,-1,-1,-1,-1],"loss_changes":[1.044341E5,1.3615234E3,9.154511E4,1.1159297E3,7.740093E2,1.832173E4,1.6963629E4,5.309375E1,0E0,0E0,0E0,7.8846963E3,3.9452969E3,6.130826E3,5.421047E3,0E0,0E0,0E0,0E0,0E0,0E0,0E0,0E0,0E0,0E0],"parents":[2147483647,0,0,1,1,2,2,3,3,4,4,5,5,6,6,7,7,11,11,12,12,13,13,14,14],"right_children":[2,4,6,8,10,12,14,16,-1,-1,-1,18,20,22,24,-1,-1,-1,-1,-1,-1,-1,-1,-1,-1],"split_conditions":[4E0,3E0,1.9E1,6E0,2E0,6E0,2.2E1,5E0,-9.3239635E-1,-1.5270925E-1,-8.794646E-1,5E0,7E0,4E0,4E0,-1.2471851E0,-1.0863019E0,8.161725E-2,-7.1512973E-1,4.3393135E-1,1.3662164E-1,-4.687179E-1,-4.7197584E-2,-1.1039476E0,-5.6301326E-1],"split_indices":[1,1,1,0,0,1,1,0,0,0,0,0,0,0,0,0,0,0,0,0,0,0,0,0,0],"split_type":[0,0,0,0,0,0,0,0,0,0,0,0,0,0,0,0,0,0,0,0,0,0,0,0,0],"sum_hessian":[8.227E3,7.88E2,7.439E3,7.2E2,6.8E1,5.277E3,2.162E3,5.05E2,2.15E2,2.2E1,4.6E1,5.28E2,4.749E3,1.41E3,7.52E2,4.1E2,9.5E1,3.3E2,1.98E2,4.249E3,5E2,6.01E2,8.09E2,3.49E2,4.03E2],"tree_param":{"num_deleted":"0","num_feature":"2","num_nodes":"25","size_leaf_vector":"1"}},{"base_weights":[-7.950288E-4,-9.850955E0,1.0437987E0,-1.0218789E1,-5.8645873E0,2.8083193E0,-4.652386E0,-1.0976751E1,-8.3958834E-1,-1.381023E-1,-7.933894E-1,-1.9627466E0,3.2975655E0,-2.6408546E0,-7.3389354E0,-1.1227702E0,-9.7880334E-1,7.348019E-2,-6.439761E-1,3.8805923E-1,5.4923225E-2,-4.7893134E-1,-8.286642E-2,-9.9386835E-1,-5.068514E-1],"categories":[],"categories_nodes":[],"categories_segments":[],"categories_sizes":[],"default_left":[0,0,0,0,0,0,0,0,0,0,0,0,0,0,0,0,0,0,0,0,0,0,0,0,0],"id":1,"left_children":[1,3,5,7,9,11,13,15,-1,-1,-1,17,19,21,23,-1,-1,-1,-1,-1,-1,-1,-1,-1,-1],"loss_changes":[8.467159E4,1.097E3,7.4792766E4,9.0403906E2,6.2921606E2,1.3267207E4,9.491797E3,4.1046875E1,0E0,0E0,0E0,6.3934453E3,8.254793E3,3.9205942E3,4.3942305E3,0E0,0E0,0E0,0E0,0E0,0E0,0E0,0E0,0E0,0E0],"parents":[2147483647,0,0,1,1,2,2,3,3,4,4,5,5,6,6,7,7,11,11,12,12,13,13,14,14],"right_children":[2,4,6,8,10,12,14,16,-1,-1,-1,18,20,22,24,-1,-1,-1,-1,-1,-1,-1,-1,-1,-1],"split_conditions":[4E0,3E0,2E1,6E0,2E0,6E0,2.2E1,5E0,-8.3958834E-1,-1.381023E-1,-7.933894E-1,5E0,1.8E1,4E0,4E0,-1.1227702E0,-9.7880334E-1,7.348019E-2,-6.439761E-1,3.8805923E-1,5.4923225E-2,-4.7893134E-1,-8.286642E-2,-9.9386835E-1,-5.068514E-1],"split_indices":[1,1,1,0,0,1,1,0,0,0,0,0,1,0,0,0,0,0,0,0,0,0,0,0,0],"split_type":[0,0,0,0,0,0,0,0,0,0,0,0,0,0,0,0,0,0,0,0,0,0,0,0,0],"sum_hessian":[8.227E3,7.88E2,7.439E3,7.2E2,6.8E1,5.68E3,1.759E3,5.05E2,2.15E2,2.2E1,4.6E1,5.28E2,5.152E3,1.007E3,7.52E2,4.1E2,9.5E1,3.3E2,1.98E2,4.25E3,9.02E2,4.6E2,5.47E2,3.49E2,4.03E2],"tree_param":{"num_deleted":"0","num_feature":"2","num_nodes":"25","size_leaf_vector":"1"}},{"base_weights":[-1.4527385E-3,-8.870769E0,9.3912405E-1,-9.20099E0,-5.2916284E0,2.7667255E0,-3.5208948E0,-9.883229E0,-7.5601826E0,-1.2489249E-1,-7.157385E-1,-1.7675508E0,3.2711184E0,-1.871437E0,-6.607035E0,-1.0107664E0,-8.819426E-1,-7.084613E-1,-8.1839055E-1,6.615431E-2,-5.799021E-1,3.5531816E-1,8.7184004E-2,-3.8661432E-1,-3.866413E-2,-8.947655E-1,-4.5629168E-1],"categories":[],"categories_nodes":[],"categories_segments":[],"categories_sizes":[],"default_left":[0,0,0,0,0,0,0,0,0,0,0,0,0,0,0,0,0,0,0,0,0,0,0,0,0,0,0],"id":2,"left_children":[1,3,5,7,9,11,13,15,17,-1,-1,19,21,23,25,-1,-1,-1,-1,-1,-1,-1,-1,-1,-1,-1,-1],"loss_changes":[6.864855E4,8.8384375E2,6.06542E4,7.323867E2,5.115072E2,1.2076863E4,1.0998295E4,3.1660156E1,6.0908203E0,0E0,0E0,5.184238E3,3.2114531E3,4.177508E3,3.5619062E3,0E0,0E0,0E0,0E0,0E0,0E0,0E0,0E0,0E0,0E0,0E0,0E0],"parents":[2147483647,0,0,1,1,2,2,3,3,4,4,5,5,6,6,7,7,8,8,11,11,12,12,13,13,14,14],"right_children":[2,4,6,8,10,12,14,16,18,-1,-1,20,22,24,26,-1,-1,-1,-1,-1,-1,-1,-1,-1,-1,-1,-1],"split_conditions":[4E0,3E0,1.9E1,6E0,2E0,6E0,2.2E1,5E0,2E0,-1.2489249E-1,-7.157385E-1,5E0,7E0,4E0,4E0,-1.0107664E0,-8.819426E-1,-7.084613E-1,-8.1839055E-1,6.615431E-2,-5.799021E-1,3.5531816E-1,8.7184004E-2,-3.8661432E-1,-3.866413E-2,-8.947655E-1,-4.5629168E-1],"split_indices":[1,1,1,0,0,1,1,0,1,0,0,0,0,0,0,0,0,0,0,0,0,0,0,0,0,0,0],"split_type":[0,0,0,0,0,0,0,0,0,0,0,0,0,0,0,0,0,0,0,0,0,0,0,0,0,0,0],"sum_hessian":[8.227E3,7.88E2,7.439E3,7.2E2,6.8E1,5.277E3,2.162E3,5.05E2,2.15E2,2.2E1,4.6E1,5.28E2,4.749E3,1.41E3,7.52E2,4.1E2,9.5E1,1.29E2,8.6E1,3.3E2,1.98E2,4.249E3,5E2,6.01E2,8.09E2,3.49E2,4.03E2],"tree_param":{"num_deleted":"0","num_feature":"2","num_nodes":"27","size_leaf_vector":"1"}},{"base_weights":[-2.0495956E-3,-7.989091E0,8.4496355E-1,-8.285634E0,-4.7746487E0,2.281785E0,-3.7933476E0,-8.898647E0,-6.811233E0,-1.1294627E-1,-6.456875E-1,-8.68728E-1,2.7737083E0,-2.1799138E0,-5.9481254E0,-9.099356E-1,-7.9466695E-1,-6.3816017E-1,-7.3749214E-1,1.1303269E-1,-5.9174E-1,3.3111793E-1,3.826719E-2,-3.9256448E-1,-7.073557E-2,-8.0554456E-1,-4.107754E-1],"categories":[],"categories_nodes":[],"categories_segments":[],"categories_sizes":[],"default_left":[0,0,0,0,0,0,0,0,0,0,0,0,0,0,0,0,0,0,0,0,0,0,0,0,0,0,0],"id":3,"left_children":[1,3,5,7,9,11,13,15,17,-1,-1,19,21,23,25,-1,-1,-1,-1,-1,-1,-1,-1,-1,-1,-1,-1],"loss_changes":[5.567023E4,7.1253125E2,4.9591973E4,5.910469E2,4.1581726E2,8.806891E3,6.105834E3,2.4375E1,5.2460938E0,0E0,0E0,7.757784E3,6.3137734E3,2.5884785E3,2.8872344E3,0E0,0E0,0E0,0E0,0E0,0E0,0E0,0E0,0E0,0E0,0E0,0E0],"parents":[2147483647,0,0,1,1,2,2,3,3,4,4,5,5,6,6,7,7,8,8,11,11,12,12,13,13,14,14],"right_children":[2,4,6,8,10,12,14,16,18,-1,-1,20,22,24,26,-1,-1,-1,-1,-1,-1,-1,-1,-1,-1,-1,-1],"split_conditions":[4E0,3E0,2E1,6E0,2E0,7E0,2.2E1,5E0,2E0,-1.1294627E-1,-6.456875E-1,6E0,1.8E1,4E0,4E0,-9.099356E-1,-7.9466695E-1,-6.3816017E-1,-7.3749214E-1,1.1303269E-1,-5.9174E-1,3.3111793E-1,3.826719E-2,-3.9256448E-1,-7.073557E-2,-8.0554456E-1,-4.107754E-1],"split_indices":[1,1,1,0,0,1,1,0,1,0,0,0,1,0,0,0,0,0,0,0,0,0,0,0,0,0,0],"split_type":[0,0,0,0,0,0,0,0,0,0,0,0,0,0,0,0,0,0,0,0,0,0,0,0,0,0,0],"sum_hessian":[8.227E3,7.88E2,7.439E3,7.2E2,6.8E1,5.68E3,1.759E3,5.05E2,2.15E2,2.2E1,4.6E1,7.67E2,4.913E3,1.007E3,7.52E2,4.1E2,9.5E1,1.29E2,8.6E1,5.5E2,2.17E2,4.011E3,9.02E2,4.6E2,5.47E2,3.49E2,4.03E2],"tree_param":{"num_deleted":"0","num_feature":"2","num_nodes":"27","size_leaf_vector":"1"}},{"base_weights":[-2.528544E-3,-7.1950474E0,7.602268E-1,-7.4613423E0,-4.308179E0,2.0535872E0,-3.4149668E0,-8.012151E0,-6.1364784E0,-1.0214269E-1,-5.824926E0,-1.5313903E0,2.4212177E0,-1.9623816E0,-5.354928E0,-8.1916344E-1,-7.1602803E-1,-5.7483506E-1,-6.6459054E-1,-4.8494068E-1,-6.5577406E-1,4.8289772E-2,-4.8740935E-1,2.861797E-1,3.4444716E-2,-3.5339317E-1,-6.3674875E-2,-7.2522026E-1,-3.6979955E-1],"categories":[],"categories_nodes":[],"categories_segments":[],"categories_sizes":[],"default_left":[0,0,0,0,0,0,0,0,0,0,0,0,0,0,0,0,0,0,0,0,0,0,0,0,0,0,0,0,0],"id":4,"left_children":[1,3,5,7,9,11,13,15,17,-1,19,21,23,25,27,-1,-1,-1,-1,-1,-1,-1,-1,-1,-1,-1,-1,-1,-1],"loss_changes":[4.5145367E4,5.7440625E2,4.018324E4,4.7698047E2,3.3802722E2,7.490965E3,4.9490996E3,1.8710938E1,4.505371E0,0E0,1.7978516E0,3.5641987E3,4.713918E3,2.0977146E3,2.3403535E3,0E0,0E0,0E0,0E0,0E0,0E0,0E0,0E0,0E0,0E0,0E0,0E0,0E0,0E0],"parents":[2147483647,0,0,1,1,2,2,3,3,4,4,5,5,6,6,7,7,8,8,10,10,11,11,12,12,13,13,14,14],"right_children":[2,4,6,8,10,12,14,16,18,-1,20,22,24,26,28,-1,-1,-1,-1,-1,-1,-1,-1,-1,-1,-1,-1,-1,-1],"split_conditions":[4E0,3E0,2E1,6E0,2E0,6E0,2.2E1,5E0,2E0,-1.0214269E-1,7E0,5E0,1.8E1,4E0,4E0,-8.1916344E-1,-7.1602803E-1,-5.7483506E-1,-6.6459054E-1,-4.8494068E-1,-6.5577406E-1,4.8289772E-2,-4.8740935E-1,2.861797E-1,3.4444716E-2,-3.5339317E-1,-6.3674875E-2,-7.2522026E-1,-3.6979955E-1],"split_indices":[1,1,1,0,0,1,1,0,1,0,0,0,1,0,0,0,0,0,0,0,0,0,0,0,0,0,0,0,0],"split_type":[0,0,0,0,0,0,0,0,0,0,0,0,0,0,0,0,0,0,0,0,0,0,0,0,0,0,0,0,0],"sum_hessian":[8.227E3,7.88E2,7.439E3,7.2E2,6.8E1,5.68E3,1.759E3,5.05E2,2.15E2,2.2E1,4.6E1,5.28E2,5.152E3,1.007E3,7.52E2,4.1E2,9.5E1,1.29E2,8.6E1,2.3E1,2.3E1,3.3E2,1.98E2,4.25E3,9.02E2,4.6E2,5.47E2,3.49E2,4.03E2],"tree_param":{"num_deleted":"0","num_feature":"2","num_nodes":"29","size_leaf_vector":"1"}},{"base_weights":[-2.961911E-3,-6.480634E0,6.839852E-1,-6.7190566E0,-3.8953736E0,2.0289092E0,-2.5981195E0,-7.21397E0,-5.5285687E0,-9.237255E-2,-5.266704E0,3.1298308E-3,2.6909277E0,-1.4100657E0,-4.8208895E0,-7.3744637E-1,-6.451711E-1,-5.177938E-1,-5.988954E-1,-4.3846723E-1,-5.92929E-1,1.9509687E-1,-2.3694561E-1,2.93637E-1,9.7775936E-2,-2.9272E-1,-2.8077563E-2,-6.529054E-1,-3.329111E-1],"categories":[],"categories_nodes":[],"categories_segments":[],"categories_sizes":[],"default_left":[0,0,0,0,0,0,0,0,0,0,0,0,0,0,0,0,0,0,0,0,0,0,0,0,0,0,0,0,0],"id":5,"left_children":[1,3,5,7,9,11,13,15,17,-1,19,21,23,25,27,-1,-1,-1,-1,-1,-1,-1,-1,-1,-1,-1,-1,-1,-1],"loss_changes":[3.6617543E4,4.6015234E2,3.2846777E4,3.8492383E2,2.7631787E2,7.078338E3,5.7051895E3,1.4324219E1,3.8574219E0,0E0,1.4697266E0,6.0170835E3,1.6698125E3,2.416623E3,1.8970605E3,0E0,0E0,0E0,0E0,0E0,0E0,0E0,0E0,0E0,0E0,0E0,0E0,0E0,0E0],"parents":[2147483647,0,0,1,1,2,2,3,3,4,4,5,5,6,6,7,7,8,8,10,10,11,11,12,12,13,13,14,14],"right_children":[2,4,6,8,10,12,14,16,18,-1,20,22,24,26,28,-1,-1,-1,-1,-1,-1,-1,-1,-1,-1,-1,-1,-1,-1],"split_conditions":[4E0,3E0,1.9E1,6E0,2E0,9E0,2.2E1,5E0,2E0,-9.237255E-2,7E0,5E0,1.8E1,4E0,4E0,-7.3744637E-1,-6.451711E-1,-5.177938E-1,-5.988954E-1,-4.3846723E-1,-5.92929E-1,1.9509687E-1,-2.3694561E-1,2.93637E-1,9.7775936E-2,-2.9272E-1,-2.8077563E-2,-6.529054E-1,-3.329111E-1],"split_indices":[1,1,1,0,0,1,1,0,1,0,0,0,1,0,0,0,0,0,0,0,0,0,0,0,0,0,0,0,0],"split_type":[0,0,0,0,0,0,0,0,0,0,0,0,0,0,0,0,0,0,0,0,0,0,0,0,0,0,0,0,0],"sum_hessian":[8.227E3,7.88E2,7.439E3,7.2E2,6.8E1,5.277E3,2.162E3,5.05E2,2.15E2,2.2E1,4.6E1,1.3E3,3.977E3,1.41E3,7.52E2,4.1E2,9.5E1,1.29E2,8.6E1,2.3E1,2.3E1,7.14E2,5.86E2,3.478E3,4.99E2,6.01E2,8.09E2,3.49E2,4.03E2],"tree_param":{"num_deleted":"0","num_feature":"2","num_nodes":"29","size_leaf_vector":"1"}},{"base_weights":[-3.2222234E-3,-5.8371625E0,6.154582E-1,-6.050617E0,-3.5221226E0,1.4794521E0,-3.559415E0,-6.495305E0,-4.980882E0,-8.3536886E-2,-4.761978E0,-1.4120997E0,1.7505453E0,-5.3941207E0,-2.121487E0,-6.638811E-1,-5.81326E-1,-4.664127E-1,-5.3969425E-1,-3.9644745E-1,-5.3610665E-1,2.4024667E-2,-4.153379E-1,2.3394464E-1,-5.5632927E-3,-4.5658907E-1,-5.878014E-1,-1.531475E-1,-5.507957E-1],"categories":[],"categories_nodes":[],"categories_segments":[],"categories_sizes":[],"default_left":[0,0,0,0,0,0,0,0,0,0,0,0,0,0,0,0,0,0,0,0,0,0,0,0,0,0,0,0,0],"id":6,"left_children":[1,3,5,7,9,11,13,15,17,-1,19,21,23,25,27,-1,-1,-1,-1,-1,-1,-1,-1,-1,-1,-1,-1,-1,-1],"loss_changes":[2.9701281E4,3.6857812E2,2.6841832E4,3.1062695E2,2.2587384E2,4.835089E3,3.3548682E3,1.0931641E1,3.2944336E0,0E0,1.2015381E0,2.3971257E3,5.9959844E3,1.975957E2,1.4241719E3,0E0,0E0,0E0,0E0,0E0,0E0,0E0,0E0,0E0,0E0,0E0,0E0,0E0,0E0],"parents":[2147483647,0,0,1,1,2,2,3,3,4,4,5,5,6,6,7,7,8,8,10,10,11,11,12,12,13,13,14,14],"right_children":[2,4,6,8,10,12,14,16,18,-1,20,22,24,26,28,-1,-1,-1,-1,-1,-1,-1,-1,-1,-1,-1,-1,-1,-1],"split_conditions":[4E0,3E0,2.1E1,6E0,2E0,6E0,4E0,5E0,2E0,-8.3536886E-2,7E0,5E0,1.8E1,2.2E1,7E0,-6.638811E-1,-5.81326E-1,-4.664127E-1,-5.3969425E-1,-3.9644745E-1,-5.3610665E-1,2.4024667E-2,-4.153379E-1,2.3394464E-1,-5.5632927E-3,-4.5658907E-1,-5.878014E-1,-1.531475E-1,-5.507957E-1],"split_indices":[1,1,1,0,0,1,0,0,1,0,0,0,1,1,0,0,0,0,0,0,0,0,0,0,0,0,0,0,0],"split_type":[0,0,0,0,0,0,0,0,0,0,0,0,0,0,0,0,0,0,0,0,0,0,0,0,0,0,0,0,0],"sum_hessian":[8.227E3,7.88E2,7.439E3,7.2E2,6.8E1,6.164E3,1.275E3,5.05E2,2.15E2,2.2E1,4.6E1,5.28E2,5.636E3,5.59E2,7.16E2,4.1E2,9.5E1,1.29E2,8.6E1,2.3E1,2.3E1,3.3E2,1.98E2,4.25E3,1.386E3,2.1E2,3.49E2,6.11E2,1.05E2],"tree_param":{"num_deleted":"0","num_feature":"2","num_nodes":"29","size_leaf_vector":"1"}},{"base_weights":[-3.529106E-3,-5.2575874E0,5.536558E-1,-5.4486775E0,-3.1846364E0,1.652311E0,-2.127461E0,-5.848235E0,-4.487452E0,-7.554638E-2,-4.305622E0,-7.52998E-1,2.0614498E0,-1.1523076E0,-3.9519148E0,-5.976545E-1,-5.237989E-1,-4.2013025E-1,-4.863452E-1,-3.584546E-1,-4.8472974E-1,8.344098E-2,-4.7617537E-1,2.2900105E-1,1.3274974E-2,-2.4720776E-1,-1.700191E-2,-4.864287E-1,-2.2134034E-1],"categories":[],"categories_nodes":[],"categories_segments":[],"categories_sizes":[],"default_left":[0,0,0,0,0,0,0,0,0,0,0,0,0,0,0,0,0,0,0,0,0,0,0,0,0,0,0,0,0],"id":7,"left_children":[1,3,5,7,9,11,13,15,17,-1,19,21,23,25,27,-1,-1,-1,-1,-1,-1,-1,-1,-1,-1,-1,-1,-1,-1],"loss_changes":[2.4090234E4,2.951875E2,2.1918947E4,2.5066602E2,1.8463898E2,5.195659E3,3.8436875E3,8.316406E0,2.807129E0,0E0,9.822998E-1,4.8911646E3,1.9882578E3,1.8287931E3,1.1836191E3,0E0,0E0,0E0,0E0,0E0,0E0,0E0,0E0,0E0,0E0,0E0,0E0,0E0,0E0],"parents":[2147483647,0,0,1,1,2,2,3,3,4,4,5,5,6,6,7,7,8,8,10,10,11,11,12,12,13,13,14,14],"right_children":[2,4,6,8,10,12,14,16,18,-1,20,22,24,26,28,-1,-1,-1,-1,-1,-1,-1,-1,-1,-1,-1,-1,-1,-1],"split_conditions":[4E0,3E0,1.9E1,6E0,2E0,7E0,2.2E1,5E0,2E0,-7.554638E-2,7E0,6E0,7E0,4E0,5E0,-5.976545E-1,-5.237989E-1,-4.2013025E-1,-4.863452E-1,-3.584546E-1,-4.8472974E-1,8.344098E-2,-4.7617537E-1,2.2900105E-1,1.3274974E-2,-2.4720776E-1,-1.700191E-2,-4.864287E-1,-2.2134034E-1],"split_indices":[1,1,1,0,0,1,1,0,1,0,0,0,0,0,0,0,0,0,0,0,0,0,0,0,0,0,0,0,0],"split_type":[0,0,0,0,0,0,0,0,0,0,0,0,0,0,0,0,0,0,0,0,0,0,0,0,0,0,0,0,0],"sum_hessian":[8.227E3,7.88E2,7.439E3,7.2E2,6.8E1,5.277E3,2.162E3,5.05E2,2.15E2,2.2E1,4.6E1,7.67E2,4.51E3,1.41E3,7.52E2,4.1E2,9.5E1,1.29E2,8.6E1,2.3E1,2.3E1,5.5E2,2.17E2,4.032E3,4.78E2,6.01E2,8.09E2,4.92E2,2.6E2],"tree_param":{"num_deleted":"0","num_feature":"2","num_nodes":"29","size_leaf_vector":"1"}},{"base_weights":[-3.6704412E-3,-4.7355638E0,4.9813968E-1,-4.906623E0,-2.8794875E0,1.2070452E0,-2.927331E0,-5.2656283E0,-4.042904E0,-6.8320215E-2,-3.893E0,1.4693352E0,-9.178146E-1,-4.460722E0,-1.7256205E0,-5.368345E-1,-4.5372882E-1,-3.7844044E-1,-4.382697E-1,-3.241027E-1,-4.3827644E-1,1.8623039E-1,1.1737756E-2,-4.909134E-1,1.2994348E-2,-3.86543E-1,-4.8068532E-1,-1.1864754E-1,-4.8221418E-1],"categories":[],"categories_nodes":[],"categories_segments":[],"categories_sizes":[],"default_left":[0,0,0,0,0,0,0,0,0,0,0,0,0,0,0,0,0,0,0,0,0,0,0,0,0,0,0,0,0],"id":8,"left_children":[1,3,5,7,9,11,13,15,17,-1,19,21,23,25,27,-1,-1,-1,-1,-1,-1,-1,-1,-1,-1,-1,-1,-1,-1],"loss_changes":[1.9539844E4,2.3637695E2,1.8070346E4,2.022793E2,1.509317E2,3.4372852E3,2.3435771E3,1.3498047E1,2.3867188E0,0E0,8.0303955E-1,2.9154287E3,2.8359912E3,9.680664E1,1.1912917E3,0E0,0E0,0E0,0E0,0E0,0E0,0E0,0E0,0E0,0E0,0E0,0E0,0E0,0E0],"parents":[2147483647,0,0,1,1,2,2,3,3,4,4,5,5,6,6,7,7,8,8,10,10,11,11,12,12,13,13,14,14],"right_children":[2,4,6,8,10,12,14,16,18,-1,20,22,24,26,28,-1,-1,-1,-1,-1,-1,-1,-1,-1,-1,-1,-1,-1,-1],"split_conditions":[4E0,3E0,2.1E1,6E0,2E0,7E0,4E0,2E0,2E0,-6.8320215E-2,7E0,1.8E1,9E0,2.2E1,7E0,-5.368345E-1,-4.5372882E-1,-3.7844044E-1,-4.382697E-1,-3.241027E-1,-4.3827644E-1,1.8623039E-1,1.1737756E-2,-4.909134E-1,1.2994348E-2,-3.86543E-1,-4.8068532E-1,-1.1864754E-1,-4.8221418E-1],"split_indices":[1,1,1,0,0,0,0,1,1,0,0,1,1,1,0,0,0,0,0,0,0,0,0,0,0,0,0,0,0],"split_type":[0,0,0,0,0,0,0,0,0,0,0,0,0,0,0,0,0,0,0,0,0,0,0,0,0,0,0,0,0],"sum_hessian":[8.227E3,7.88E2,7.439E3,7.2E2,6.8E1,6.164E3,1.275E3,5.05E2,2.15E2,2.2E1,4.6E1,5.487E3,6.77E2,5.59E2,7.16E2,4.37E2,6.8E1,1.29E2,8.6E1,2.3E1,2.3E1,4.251E3,1.236E3,1.4E2,5.37E2,2.1E2,3.49E2,6.11E2,1.05E2],"tree_param":{"num_deleted":"0","num_feature":"2","num_nodes":"29","size_leaf_vector":"1"}},{"base_weights":[-3.8361812E-3,-4.2653503E0,4.4809106E-1,-4.418467E0,-2.603578E0,1.2306358E0,-2.0780933E0,-4.8585663E0,-3.8226492E0,-6.178524E-2,-3.5199208E0,-1.3123844E0,1.49146E0,-1.2077044E0,-3.2404757E0,-4.3500265E-1,-5.1024526E-1,-3.2132694E-1,-3.979952E-1,-2.9304287E-1,-3.9627498E-1,-5.256233E-3,-3.4012723E-1,1.7588475E-1,2.310435E-2,-2.2618233E-1,-3.1873282E-2,-4.004148E-1,-1.7855681E-1],"categories":[],"categories_nodes":[],"categories_segments":[],"categories_sizes":[],"default_left":[0,0,0,0,0,0,0,0,0,0,0,0,0,0,0,0,0,0,0,0,0,0,0,0,0,0,0,0,0],"id":9,"left_children":[1,3,5,7,9,11,13,15,17,-1,19,21,23,25,27,-1,-1,-1,-1,-1,-1,-1,-1,-1,-1,-1,-1,-1,-1],"loss_changes":[1.584817E4,1.8925293E2,1.4710337E4,1.7048828E2,1.2337796E2,3.7700586E3,1.7767222E3,2.8779297E1,1.7023438E1,0E0,6.5649414E-1,1.3919521E3,1.7362559E3,9.4385754E2,8.294878E2,0E0,0E0,0E0,0E0,0E0,0E0,0E0,0E0,0E0,0E0,0E0,0E0,0E0,0E0],"parents":[2147483647,0,0,1,1,2,2,3,3,4,4,5,5,6,6,7,7,8,8,10,10,11,11,12,12,13,13,14,14],"right_children":[2,4,6,8,10,12,14,16,18,-1,20,22,24,26,28,-1,-1,-1,-1,-1,-1,-1,-1,-1,-1,-1,-1,-1,-1],"split_conditions":[4E0,3E0,2E1,5E0,2E0,6E0,2.2E1,2E0,1E0,-6.178524E-2,7E0,5E0,1.8E1,4E0,5E0,-4.3500265E-1,-5.1024526E-1,-3.2132694E-1,-3.979952E-1,-2.9304287E-1,-3.9627498E-1,-5.256233E-3,-3.4012723E-1,1.7588475E-1,2.310435E-2,-2.2618233E-1,-3.1873282E-2,-4.004148E-1,-1.7855681E-1],"split_indices":[1,1,1,0,0,1,1,0,1,0,0,0,1,0,0,0,0,0,0,0,0,0,0,0,0,0,0,0,0],"split_type":[0,0,0,0,0,0,0,0,0,0,0,0,0,0,0,0,0,0,0,0,0,0,0,0,0,0,0,0,0],"sum_hessian":[8.227E3,7.88E2,7.439E3,7.2E2,6.8E1,5.68E3,1.759E3,4.1E2,3.1E2,2.2E1,4.6E1,5.28E2,5.152E3,1.007E3,7.52E2,1.39E2,2.71E2,6.8E1,2.42E2,2.3E1,2.3E1,3.3E2,1.98E2,4.25E3,9.02E2,4.6E2,5.47E2,4.92E2,2.6E2],"tree_param":{"num_deleted":"0","num_feature":"2","num_nodes":"29","size_leaf_vector":"1"}},{"base_weights":[-3.8654918E-3,-3.8418772E0,4.0314996E-1,-3.978929E0,-2.3541055E0,9.8325175E-1,-2.3999305E0,-4.2765603E0,-3.263279E0,-5.5875298E-2,-3.182595E0,1.2171077E0,-9.1112065E-1,-3.6818357E0,-1.3953743E0,-4.3636996E-1,-3.6614367E-1,-3.0422494E-1,-3.5560447E-1,-2.6495957E-1,-3.5829863E-1,1.4593291E-1,-2.4242384E-2,-4.336504E-1,-1.1696529E-3,-3.5243544E-1,-4.5204163E-1,-9.031099E-2,-4.2243406E-1],"categories":[],"categories_nodes":[],"categories_segments":[],"categories_sizes":[],"default_left":[0,0,0,0,0,0,0,0,0,0,0,0,0,0,0,0,0,0,0,0,0,0,0,0,0,0,0,0,0],"id":10,"left_children":[1,3,5,7,9,11,13,15,17,-1,19,21,23,25,27,-1,-1,-1,-1,-1,-1,-1,-1,-1,-1,-1,-1,-1,-1],"loss_changes":[1.2854755E4,1.5151172E2,1.2100336E4,1.3961719E2,1.0085446E2,2.7322676E3,1.6380269E3,1.1144531E1,3.1589355E0,0E0,5.3671265E-1,1.9405264E3,2.0887808E3,5.8021973E1,9.946786E2,0E0,0E0,0E0,0E0,0E0,0E0,0E0,0E0,0E0,0E0,0E0,0E0,0E0,0E0],"parents":[2147483647,0,0,1,1,2,2,3,3,4,4,5,5,6,6,7,7,8,8,10,10,11,11,12,12,13,13,14,14],"right_children":[2,4,6,8,10,12,14,16,18,-1,20,22,24,26,28,-1,-1,-1,-1,-1,-1,-1,-1,-1,-1,-1,-1,-1,-1],"split_conditions":[4E0,3E0,2.1E1,6E0,2E0,7E0,4E0,2E0,2E0,-5.5875298E-2,7E0,1.9E1,9E0,2.3E1,7E0,-4.3636996E-1,-3.6614367E-1,-3.0422494E-1,-3.5560447E-1,-2.6495957E-1,-3.5829863E-1,1.4593291E-1,-2.4242384E-2,-4.336504E-1,-1.1696529E-3,-3.5243544E-1,-4.5204163E-1,-9.031099E-2,-4.2243406E-1],"split_indices":[1,1,1,0,0,0,0,1,1,0,0,1,1,1,0,0,0,0,0,0,0,0,0,0,0,0,0,0,0],"split_type":[0,0,0,0,0,0,0,0,0,0,0,0,0,0,0,0,0,0,0,0,0,0,0,0,0,0,0,0,0],"sum_hessian":[8.227E3,7.88E2,7.439E3,7.2E2,6.8E1,6.164E3,1.275E3,5.05E2,2.15E2,2.2E1,4.6E1,5.487E3,6.77E2,5.59E2,7.16E2,4.37E2,6.8E1,1.29E2,8.6E1,2.3E1,2.3E1,4.706E3,7.81E2,1.4E2,5.37E2,4.75E2,8.4E1,6.11E2,1.05E2],"tree_param":{"num_deleted":"0","num_feature":"2","num_nodes":"29","size_leaf_vector":"1"}},{"base_weights":[-3.937524E-3,-3.4604037E0,3.6261564E-1,-3.5830643E0,-2.1285377E0,1.0987644E0,-1.4338503E0,-3.9513204E0,-3.0848768E0,-5.0530758E-2,-2.8775964E0,-3.2360516E-2,1.8085614E0,-7.751856E-1,-2.666177E0,-3.5189876E-1,-4.1593176E-1,-2.5584805E-1,-3.2216525E-1,-2.3956764E-1,-3.2396165E-1,6.227104E-2,-1.6543324E-1,2.0447771E-1,5.085924E-2,-2.1361771E-1,-1.6438708E-2,-3.3118853E-1,-1.4362906E-1],"categories":[],"categories_nodes":[],"categories_segments":[],"categories_sizes":[],"default_left":[0,0,0,0,0,0,0,0,0,0,0,0,0,0,0,0,0,0,0,0,0,0,0,0,0,0,0,0,0],"id":11,"left_children":[1,3,5,7,9,11,13,15,17,-1,19,21,23,25,27,-1,-1,-1,-1,-1,-1,-1,-1,-1,-1,-1,-1,-1,-1],"loss_changes":[1.0425954E4,1.2127051E2,9.840724E3,1.2008594E2,8.244263E1,4.2376016E3,1.7536187E3,2.2321777E1,1.4148926E1,0E0,4.3878174E-1,2.1642937E3,9.9479785E2,1.1726013E3,5.932363E2,0E0,0E0,0E0,0E0,0E0,0E0,0E0,0E0,0E0,0E0,0E0,0E0,0E0,0E0],"parents":[2147483647,0,0,1,1,2,2,3,3,4,4,5,5,6,6,7,7,8,8,10,10,11,11,12,12,13,13,14,14],"right_children":[2,4,6,8,10,12,14,16,18,-1,20,22,24,26,28,-1,-1,-1,-1,-1,-1,-1,-1,-1,-1,-1,-1,-1,-1],"split_conditions":[4E0,3E0,1.9E1,5E0,2E0,1.1E1,2.2E1,2E0,1E0,-5.0530758E-2,7E0,6E0,1.8E1,3E0,5E0,-3.5189876E-1,-4.1593176E-1,-2.5584805E-1,-3.2216525E-1,-2.3956764E-1,-3.2396165E-1,6.227104E-2,-1.6543324E-1,2.0447771E-1,5.085924E-2,-2.1361771E-1,-1.6438708E-2,-3.3118853E-1,-1.4362906E-1],"split_indices":[1,1,1,0,0,1,1,0,1,0,0,0,1,0,0,0,0,0,0,0,0,0,0,0,0,0,0,0,0],"split_type":[0,0,0,0,0,0,0,0,0,0,0,0,0,0,0,0,0,0,0,0,0,0,0,0,0,0,0,0,0],"sum_hessian":[8.227E3,7.88E2,7.439E3,7.2E2,6.8E1,5.277E3,2.162E3,4.1E2,3.1E2,2.2E1,4.6E1,2.035E3,3.242E3,1.41E3,7.52E2,1.39E2,2.71E2,6.8E1,2.42E2,2.3E1,2.3E1,1.45E3,5.85E2,2.743E3,4.99E2,4.36E2,9.74E2,4.92E2,2.6E2],"tree_param":{"num_deleted":"0","num_feature":"2","num_nodes":"29","size_leaf_vector":"1"}},{"base_weights":[-3.849082E-3,-2.3717115E0,4.473197E-1,-3.2266245E0,-1.3352557E0,1.2387064E0,-1.2907913E0,-3.5580566E0,-2.7782476E0,-2.6878542E-1,-2.8663936E0,7.715861E-1,2.0412195E0,-2.2196126E0,-5.615251E-1,-3.1696028E-1,-3.744915E-1,-2.3063405E-1,-2.900813E-1,-1.0485828E-1,-2.8962647E-3,-2.640985E-1,-5.031172E-1,9.942374E-2,-1.079566E-1,3.1540212E-1,1.00001834E-1,-1.031119E-1,-3.0475947E-1,-1.1570427E-2,-2.666011E-1],"categories":[],"categories_nodes":[],"categories_segments":[],"categories_sizes":[],"default_left":[0,0,0,0,0,0,0,0,0,0,0,0,0,0,0,0,0,0,0,0,0,0,0,0,0,0,0,0,0,0,0],"id":12,"left_children":[1,3,5,7,9,11,13,15,17,19,21,23,25,27,29,-1,-1,-1,-1,-1,-1,-1,-1,-1,-1,-1,-1,-1,-1,-1,-1],"loss_changes":[8.791079E3,1.1626577E3,9.509179E3,9.7259766E1,9.740785E2,1.7790581E3,1.4638789E3,1.796289E1,1.1298096E1,6.5985275E1,1.0626306E2,1.2392056E3,2.0210088E3,9.3268994E2,1.1377568E3,0E0,0E0,0E0,0E0,0E0,0E0,0E0,0E0,0E0,0E0,0E0,0E0,0E0,0E0,0E0,0E0],"parents":[2147483647,0,0,1,1,2,2,3,3,4,4,5,5,6,6,7,7,8,8,9,9,10,10,11,11,12,12,13,13,14,14],"right_children":[2,4,6,8,10,12,14,16,18,20,22,24,26,28,30,-1,-1,-1,-1,-1,-1,-1,-1,-1,-1,-1,-1,-1,-1,-1,-1],"split_conditions":[6E0,3E0,1.9E1,5E0,5E0,1.5E1,4E0,2E0,1E0,2E0,5E0,7E0,1.7E1,2.1E1,7E0,-3.1696028E-1,-3.744915E-1,-2.3063405E-1,-2.900813E-1,-1.0485828E-1,-2.8962647E-3,-2.640985E-1,-5.031172E-1,9.942374E-2,-1.079566E-1,3.1540212E-1,1.00001834E-1,-1.031119E-1,-3.0475947E-1,-1.1570427E-2,-2.666011E-1],"split_indices":[1,1,1,0,0,1,0,0,1,0,1,0,1,1,0,0,0,0,0,0,0,0,0,0,0,0,0,0,0,0,0],"split_type":[0,0,0,0,0,0,0,0,0,0,0,0,0,0,0,0,0,0,0,0,0,0,0,0,0,0,0,0,0,0,0],"sum_hessian":[8.227E3,1.316E3,6.911E3,7.2E2,5.96E2,4.749E3,2.162E3,4.1E2,3.1E2,3.52E2,2.44E2,3.003E3,1.746E3,9.5E2,1.212E3,1.39E2,2.71E2,6.8E1,2.42E2,8.2E1,2.7E2,2.23E2,2.1E1,2.681E3,3.22E2,8.43E2,9.03E2,3.91E2,5.59E2,1.001E3,2.11E2],"tree_param":{"num_deleted":"0","num_feature":"2","num_nodes":"31","size_leaf_vector":"1"}},{"base_weights":[-3.752151E-3,-2.136125E0,4.0254685E-1,-2.9056432E0,-1.2031958E0,1.1149207E0,-1.1620295E0,-3.1334462E0,-2.3585413E0,-2.4221213E-1,-2.5828857E0,5.5199885E-1,1.6696105E0,-5.906964E-1,-2.231072E0,-3.203801E-1,-2.6414344E-1,-2.1792634E-1,-2.5993183E-1,-9.4498776E-2,-2.6077116E-3,-2.0771945E-1,-3.3594805E-1,9.439069E-2,-3.468254E-2,2.015157E-1,3.5803232E-2,-1.7481886E-1,-7.129663E-3,-2.76227E-1,-1.21914975E-1],"categories":[],"categories_nodes":[],"categories_segments":[],"categories_sizes":[],"default_left":[0,0,0,0,0,0,0,0,0,0,0,0,0,0,0,0,0,0,0,0,0,0,0,0,0,0,0,0,0,0,0],"id":13,"left_children":[1,3,5,7,9,11,13,15,17,19,21,23,25,27,29,-1,-1,-1,-1,-1,-1,-1,-1,-1,-1,-1,-1,-1,-1,-1,-1],"loss_changes":[7.1294424E3,9.419863E2,7.705157E3,8.246924E1,7.9091254E2,1.482252E3,1.3197979E3,9.052246E0,3.6593018E0,5.3594093E1,8.9237305E1,8.313003E2,1.0833604E3,8.481703E2,4.013933E2,0E0,0E0,0E0,0E0,0E0,0E0,0E0,0E0,0E0,0E0,0E0,0E0,0E0,0E0,0E0,0E0],"parents":[2147483647,0,0,1,1,2,2,3,3,4,4,5,5,6,6,7,7,8,8,9,9,10,10,11,11,12,12,13,13,14,14],"right_children":[2,4,6,8,10,12,14,16,18,20,22,24,26,28,30,-1,-1,-1,-1,-1,-1,-1,-1,-1,-1,-1,-1,-1,-1,-1,-1],"split_conditions":[6E0,3E0,1.9E1,6E0,5E0,1.3E1,2.2E1,2E0,2E0,2E0,7E0,6E0,1.8E1,3E0,5E0,-3.203801E-1,-2.6414344E-1,-2.1792634E-1,-2.5993183E-1,-9.4498776E-2,-2.6077116E-3,-2.0771945E-1,-3.3594805E-1,9.439069E-2,-3.468254E-2,2.015157E-1,3.5803232E-2,-1.7481886E-1,-7.129663E-3,-2.76227E-1,-1.21914975E-1],"split_indices":[1,1,1,0,0,1,1,1,1,0,0,0,1,0,0,0,0,0,0,0,0,0,0,0,0,0,0,0,0,0,0],"split_type":[0,0,0,0,0,0,0,0,0,0,0,0,0,0,0,0,0,0,0,0,0,0,0,0,0,0,0,0,0,0,0],"sum_hessian":[8.227E3,1.316E3,6.911E3,7.2E2,5.96E2,4.749E3,2.162E3,5.05E2,2.15E2,3.52E2,2.44E2,2.358E3,2.391E3,1.41E3,7.52E2,4.37E2,6.8E1,1.29E2,8.6E1,8.2E1,2.7E2,1.5E2,9.4E1,1.642E3,7.16E2,1.892E3,4.99E2,4.36E2,9.74E2,4.92E2,2.6E2],"tree_param":{"num_deleted":"0","num_feature":"2","num_nodes":"31","size_leaf_vector":"1"}},{"base_weights":[-3.6181768E-3,-1.9238056E0,3.622514E-1,-2.616552E0,-1.0839496E0,8.1935793E-1,-1.6573975E0,-2.8936367E0,-2.2419593E0,-2.1826619E-1,-2.326816E0,9.831469E-1,-5.395245E-1,-2.5218437E0,-9.799257E-1,-2.5641295E-1,-3.052598E-1,-1.834584E-1,-2.3484078E-1,-6.0311407E-2,1.1886696E-2,-2.1174632E-1,-4.352645E-1,1.2485385E-1,1.6815575E-2,-4.5380822E-1,-2.1896563E-2,-2.4004018E-1,-3.1722492E-1,-5.6394845E-2,-3.372361E-1],"categories":[],"categories_nodes":[],"categories_segments":[],"categories_sizes":[],"default_left":[0,0,0,0,0,0,0,0,0,0,0,0,0,0,0,0,0,0,0,0,0,0,0,0,0,0,0,0,0,0,0],"id":14,"left_children":[1,3,5,7,9,11,13,15,17,19,21,23,25,27,29,-1,-1,-1,-1,-1,-1,-1,-1,-1,-1,-1,-1,-1,-1,-1,-1],"loss_changes":[5.7811807E3,7.634043E2,6.38248E3,6.834766E1,6.4182184E2,1.2551567E3,7.4480273E2,1.3700684E1,9.177856E0,4.587167E1,9.469116E1,1.0879541E3,7.7704254E2,3.661743E1,7.116556E2,0E0,0E0,0E0,0E0,0E0,0E0,0E0,0E0,0E0,0E0,0E0,0E0,0E0,0E0,0E0,0E0],"parents":[2147483647,0,0,1,1,2,2,3,3,4,4,5,5,6,6,7,7,8,8,9,9,10,10,11,11,12,12,13,13,14,14],"right_children":[2,4,6,8,10,12,14,16,18,20,22,24,26,28,30,-1,-1,-1,-1,-1,-1,-1,-1,-1,-1,-1,-1,-1,-1,-1,-1],"split_conditions":[6E0,3E0,2.1E1,5E0,5E0,7E0,4E0,2E0,1E0,3E0,5E0,1.8E1,8E0,2.3E1,7E0,-2.5641295E-1,-3.052598E-1,-1.834584E-1,-2.3484078E-1,-6.0311407E-2,1.1886696E-2,-2.1174632E-1,-4.352645E-1,1.2485385E-1,1.6815575E-2,-4.5380822E-1,-2.1896563E-2,-2.4004018E-1,-3.1722492E-1,-5.6394845E-2,-3.372361E-1],"split_indices":[1,1,1,0,0,0,0,0,1,0,1,1,1,1,0,0,0,0,0,0,0,0,0,0,0,0,0,0,0,0,0],"split_type":[0,0,0,0,0,0,0,0,0,0,0,0,0,0,0,0,0,0,0,0,0,0,0,0,0,0,0,0,0,0,0],"sum_hessian":[8.227E3,1.316E3,6.911E3,7.2E2,5.96E2,5.636E3,1.275E3,4.1E2,3.1E2,3.52E2,2.44E2,5.03E3,6.06E2,5.59E2,7.16E2,1.39E2,2.71E2,6.8E1,2.42E2,1.64E2,1.88E2,2.23E2,2.1E1,3.794E3,1.236E3,4.4E1,5.62E2,4.75E2,8.4E1,6.11E2,1.05E2],"tree_param":{"num_deleted":"0","num_feature":"2","num_nodes":"31","size_leaf_vector":"1"}},{"base_weights":[-3.6158087E-3,-1.7326972E0,3.2584077E-1,-2.356256E0,-9.7671956E-1,7.373634E-1,-1.492403E0,-2.5452704E0,-1.9025639E0,-1.9657676E-1,-2.0967755E0,8.84861E-1,-4.8635593E-1,-2.2706544E0,-8.8248223E-1,-2.6051274E-1,-2.1284221E-1,-1.7489508E-1,-2.1102324E-1,-7.9204306E-2,-1.3476108E-3,-1.9066623E-1,-3.9371654E-1,1.12371825E-1,1.5135417E-2,-4.094359E-1,-1.9710816E-2,-2.1608661E-1,-2.8587565E-1,-5.0764598E-2,-3.038306E-1],"categories":[],"categories_nodes":[],"categories_segments":[],"categories_sizes":[],"default_left":[0,0,0,0,0,0,0,0,0,0,0,0,0,0,0,0,0,0,0,0,0,0,0,0,0,0,0,0,0,0,0],"id":15,"left_children":[1,3,5,7,9,11,13,15,17,19,21,23,25,27,29,-1,-1,-1,-1,-1,-1,-1,-1,-1,-1,-1,-1,-1,-1,-1,-1],"loss_changes":[4.687704E3,6.185281E2,5.172994E3,5.6986572E1,5.212485E2,1.0178843E3,6.03677E2,7.0805664E0,3.199768E0,3.8477013E1,7.8214355E1,8.812781E2,6.326623E2,2.997998E1,5.778516E2,0E0,0E0,0E0,0E0,0E0,0E0,0E0,0E0,0E0,0E0,0E0,0E0,0E0,0E0,0E0,0E0],"parents":[2147483647,0,0,1,1,2,2,3,3,4,4,5,5,6,6,7,7,8,8,9,9,10,10,11,11,12,12,13,13,14,14],"right_children":[2,4,6,8,10,12,14,16,18,20,22,24,26,28,30,-1,-1,-1,-1,-1,-1,-1,-1,-1,-1,-1,-1,-1,-1,-1,-1],"split_conditions":[6E0,3E0,2.1E1,6E0,5E0,7E0,4E0,2E0,2E0,2E0,5E0,1.8E1,8E0,2.3E1,7E0,-2.6051274E-1,-2.1284221E-1,-1.7489508E-1,-2.1102324E-1,-7.9204306E-2,-1.3476108E-3,-1.9066623E-1,-3.9371654E-1,1.12371825E-1,1.5135417E-2,-4.094359E-1,-1.9710816E-2,-2.1608661E-1,-2.8587565E-1,-5.0764598E-2,-3.038306E-1],"split_indices":[1,1,1,0,0,0,0,1,1,0,1,1,1,1,0,0,0,0,0,0,0,0,0,0,0,0,0,0,0,0,0],"split_type":[0,0,0,0,0,0,0,0,0,0,0,0,0,0,0,0,0,0,0,0,0,0,0,0,0,0,0,0,0,0,0],"sum_hessian":[8.227E3,1.316E3,6.911E3,7.2E2,5.96E2,5.636E3,1.275E3,5.05E2,2.15E2,3.52E2,2.44E2,5.03E3,6.06E2,5.59E2,7.16E2,4.37E2,6.8E1,1.29E2,8.6E1,8.2E1,2.7E2,2.23E2,2.1E1,3.794E3,1.236E3,4.4E1,5.62E2,4.75E2,8.4E1,6.11E2,1.05E2],"tree_param":{"num_deleted":"0","num_feature":"2","num_nodes":"31","size_leaf_vector":"1"}},{"base_weights":[-3.580124E-3,-1.5605848E0,2.9308924E-1,-2.121822E0,-8.801614E-1,8.229415E-1,-8.706145E-1,-2.353648E0,-1.8086319E0,-1.7714733E-1,-1.8894831E0,4.1260526E-1,1.5280515E0,-1.3543228E0,-1.0567527E-1,-2.0740505E-1,-2.4889052E-1,-1.4566073E-1,-1.9011466E-1,2.0934634E-3,-7.3115E-2,-1.4117788E-1,-2.6288924E-1,8.962018E-2,-6.2018507E-3,2.431166E-1,6.83188E-2,-9.068909E-2,-2.1075812E-1,5.409347E-2,-2.0206062E-1],"categories":[],"categories_nodes":[],"categories_segments":[],"categories_sizes":[],"default_left":[0,0,0,0,0,0,0,0,0,0,0,0,0,0,0,0,0,0,0,0,0,0,0,0,0,0,0,0,0,0,0],"id":16,"left_children":[1,3,5,7,9,11,13,15,17,19,21,23,25,27,29,-1,-1,-1,-1,-1,-1,-1,-1,-1,-1,-1,-1,-1,-1,-1,-1],"loss_changes":[3.8010986E3,5.0106763E2,4.2625938E3,4.8091797E1,4.2327704E2,1.3736973E3,8.001831E2,1.0380859E1,7.359253E0,3.8752796E1,8.282727E1,6.89553E2,1.3313147E3,4.4465576E2,1.0399541E3,0E0,0E0,0E0,0E0,0E0,0E0,0E0,0E0,0E0,0E0,0E0,0E0,0E0,0E0,0E0,0E0],"parents":[2147483647,0,0,1,1,2,2,3,3,4,4,5,5,6,6,7,7,8,8,9,9,10,10,11,11,12,12,13,13,14,14],"right_children":[2,4,6,8,10,12,14,16,18,20,22,24,26,28,30,-1,-1,-1,-1,-1,-1,-1,-1,-1,-1,-1,-1,-1,-1,-1,-1],"split_conditions":[6E0,3E0,1.9E1,5E0,5E0,1.5E1,5E0,2E0,1E0,4E0,7E0,5E0,1.7E1,2.2E1,7E0,-2.0740505E-1,-2.4889052E-1,-1.4566073E-1,-1.9011466E-1,2.0934634E-3,-7.3115E-2,-1.4117788E-1,-2.6288924E-1,8.962018E-2,-6.2018507E-3,2.431166E-1,6.83188E-2,-9.068909E-2,-2.1075812E-1,5.409347E-2,-2.0206062E-1],"split_indices":[1,1,1,0,0,1,0,0,1,0,0,0,1,1,0,0,0,0,0,0,0,0,0,0,0,0,0,0,0,0,0],"split_type":[0,0,0,0,0,0,0,0,0,0,0,0,0,0,0,0,0,0,0,0,0,0,0,0,0,0,0,0,0,0,0],"sum_hessian":[8.227E3,1.316E3,6.911E3,7.2E2,5.96E2,4.749E3,2.162E3,4.1E2,3.1E2,3.52E2,2.44E2,3.003E3,1.746E3,1.324E3,8.38E2,1.39E2,2.71E2,6.8E1,2.42E2,2.6E2,9.2E1,1.5E2,9.4E1,1.487E3,1.516E3,8.43E2,9.03E2,8.32E2,4.92E2,6.27E2,2.11E2],"tree_param":{"num_deleted":"0","num_feature":"2","num_nodes":"31","size_leaf_vector":"1"}},{"base_weights":[-3.3826705E-3,-1.4054884E0,2.6377252E-1,-1.9107386E0,-7.929409E-1,6.04191E-1,-1.2403048E0,-2.0674686E0,-1.5347383E0,-1.5963358E-1,-1.702184E0,7.3082423E-1,-4.4637904E-1,-1.8791298E0,-7.396323E-1,-2.1183899E-1,-1.7142656E-1,-1.4031623E-1,-1.7137054E-1,-5.0521698E-2,1.4291084E-2,-1.5252243E-1,-3.4265837E-1,9.23584E-2,1.3886437E-2,-3.6879575E-1,-1.8649023E-2,-1.78789E-1,-2.367965E-1,-3.3450697E-2,-2.4997337E-1],"categories":[],"categories_nodes":[],"categories_segments":[],"categories_sizes":[],"default_left":[0,0,0,0,0,0,0,0,0,0,0,0,0,0,0,0,0,0,0,0,0,0,0,0,0,0,0,0,0,0,0],"id":17,"left_children":[1,3,5,7,9,11,13,15,17,19,21,23,25,27,29,-1,-1,-1,-1,-1,-1,-1,-1,-1,-1,-1,-1,-1,-1,-1,-1],"loss_changes":[3.0824136E3,4.06083E2,3.5398022E3,3.9315674E1,3.4349902E2,7.5025635E2,4.0672827E2,5.4692383E0,2.6817017E0,3.6979877E1,6.953522E1,5.7393945E2,5.1067938E2,2.0743042E1,5.1042908E2,0E0,0E0,0E0,0E0,0E0,0E0,0E0,0E0,0E0,0E0,0E0,0E0,0E0,0E0,0E0,0E0],"parents":[2147483647,0,0,1,1,2,2,3,3,4,4,5,5,6,6,7,7,8,8,9,9,10,10,11,11,12,12,13,13,14,14],"right_children":[2,4,6,8,10,12,14,16,18,20,22,24,26,28,30,-1,-1,-1,-1,-1,-1,-1,-1,-1,-1,-1,-1,-1,-1,-1,-1],"split_conditions":[6E0,3E0,2.1E1,6E0,5E0,7E0,4E0,2E0,2E0,3E0,5E0,1.8E1,8E0,2.3E1,2.3E1,-2.1183899E-1,-1.7142656E-1,-1.4031623E-1,-1.7137054E-1,-5.0521698E-2,1.4291084E-2,-1.5252243E-1,-3.4265837E-1,9.23584E-2,1.3886437E-2,-3.6879575E-1,-1.8649023E-2,-1.78789E-1,-2.367965E-1,-3.3450697E-2,-2.4997337E-1],"split_indices":[1,1,1,0,0,0,0,1,1,0,1,1,1,1,1,0,0,0,0,0,0,0,0,0,0,0,0,0,0,0,0],"split_type":[0,0,0,0,0,0,0,0,0,0,0,0,0,0,0,0,0,0,0,0,0,0,0,0,0,0,0,0,0,0,0],"sum_hessian":[8.227E3,1.316E3,6.911E3,7.2E2,5.96E2,5.636E3,1.275E3,5.05E2,2.15E2,3.52E2,2.44E2,5.03E3,6.06E2,5.59E2,7.16E2,4.37E2,6.8E1,1.29E2,8.6E1,1.64E2,1.88E2,2.23E2,2.1E1,3.794E3,1.236E3,4.4E1,5.62E2,4.75E2,8.4E1,5.83E2,1.33E2],"tree_param":{"num_deleted":"0","num_feature":"2","num_nodes":"31","size_leaf_vector":"1"}},{"base_weights":[-3.312236E-3,-1.2658707E0,2.3725386E-1,-1.7206286E0,-7.1453685E-1,6.143914E-1,-8.670796E-1,-1.9147561E0,-1.4585483E0,-1.4377263E-1,-1.5339868E0,-3.6783203E-2,8.8355124E-1,-6.964487E-1,-2.7208679E0,-1.67743E-1,-2.0298699E-1,-1.1540436E-1,-1.5390103E-1,4.533852E-3,-6.72958E-2,-1.09358095E-1,-2.217853E-1,4.4026732E-2,-1.1383126E-1,1.14179745E-1,9.78249E-3,-1.19089186E-1,3.4217488E-2,-2.2662361E-1,-4.9753714E-1],"categories":[],"categories_nodes":[],"categories_segments":[],"categories_sizes":[],"default_left":[0,0,0,0,0,0,0,0,0,0,0,0,0,0,0,0,0,0,0,0,0,0,0,0,0,0,0,0,0,0,0],"id":18,"left_children":[1,3,5,7,9,11,13,15,17,19,21,23,25,27,29,-1,-1,-1,-1,-1,-1,-1,-1,-1,-1,-1,-1,-1,-1,-1,-1],"loss_changes":[2.4993806E3,3.289734E2,2.8792812E3,3.388965E1,2.7900388E2,9.0319934E2,5.5481726E2,7.823242E0,5.843811E0,3.535693E1,7.13634E1,7.929328E2,7.397009E2,8.2874817E2,1.4041992E2,0E0,0E0,0E0,0E0,0E0,0E0,0E0,0E0,0E0,0E0,0E0,0E0,0E0,0E0,0E0,0E0],"parents":[2147483647,0,0,1,1,2,2,3,3,4,4,5,5,6,6,7,7,8,8,9,9,10,10,11,11,12,12,13,13,14,14],"right_children":[2,4,6,8,10,12,14,16,18,20,22,24,26,28,30,-1,-1,-1,-1,-1,-1,-1,-1,-1,-1,-1,-1,-1,-1,-1,-1],"split_conditions":[6E0,3E0,2E1,5E0,5E0,1.1E1,7E0,2E0,1E0,4E0,7E0,6E0,1.8E1,5E0,2.3E1,-1.67743E-1,-2.0298699E-1,-1.1540436E-1,-1.5390103E-1,4.533852E-3,-6.72958E-2,-1.09358095E-1,-2.217853E-1,4.4026732E-2,-1.1383126E-1,1.14179745E-1,9.78249E-3,-1.19089186E-1,3.4217488E-2,-2.2662361E-1,-4.9753714E-1],"split_indices":[1,1,1,0,0,1,0,0,1,0,0,0,1,0,1,0,0,0,0,0,0,0,0,0,0,0,0,0,0,0,0],"split_type":[0,0,0,0,0,0,0,0,0,0,0,0,0,0,0,0,0,0,0,0,0,0,0,0,0,0,0,0,0,0,0],"sum_hessian":[8.227E3,1.316E3,6.911E3,7.2E2,5.96E2,5.152E3,1.759E3,4.1E2,3.1E2,3.52E2,2.44E2,1.507E3,3.645E3,1.612E3,1.47E2,1.39E2,2.71E2,6.8E1,2.42E2,2.6E2,9.2E1,1.5E2,9.4E1,1.052E3,4.55E2,2.743E3,9.02E2,1.092E3,5.2E2,1.24E2,2.3E1],"tree_param":{"num_deleted":"0","num_feature":"2","num_nodes":"31","size_leaf_vector":"1"}},{"base_weights":[-3.1985333E-3,-1.1400687E0,2.1341912E-1,-1.5494535E0,-6.437429E-1,4.946509E-1,-1.029149E0,-1.7241825E0,-1.3135594E0,-1.2957303E-1,-1.3819396E0,-3.3151675E-2,6.8724936E-1,-8.0720043E-1,-2.10261E0,-1.9717115E-1,-1.6189696E-1,-1.04031205E-1,-1.3857426E-1,-4.5950767E-2,1.5915068E-2,-1.2173336E-1,-2.995114E-1,3.9628178E-2,-1.0247313E-1,1.0276594E-1,1.3296703E-3,-1.4906375E-1,-2.4877017E-2,-1.7969407E-1,-4.4985652E-1],"categories":[],"categories_nodes":[],"categories_segments":[],"categories_sizes":[],"default_left":[0,0,0,0,0,0,0,0,0,0,0,0,0,0,0,0,0,0,0,0,0,0,0,0,0,0,0,0,0,0,0],"id":19,"left_children":[1,3,5,7,9,11,13,15,17,19,21,23,25,27,29,-1,-1,-1,-1,-1,-1,-1,-1,-1,-1,-1,-1,-1,-1,-1,-1],"loss_changes":[2.026521E3,2.6660168E2,2.415905E3,2.7453003E1,2.2641737E2,5.7304626E2,3.023141E2,7.5115967E0,4.692505E0,3.369989E1,6.141086E1,6.425388E2,9.474918E2,4.0379858E2,1.5157294E2,0E0,0E0,0E0,0E0,0E0,0E0,0E0,0E0,0E0,0E0,0E0,0E0,0E0,0E0,0E0,0E0],"parents":[2147483647,0,0,1,1,2,2,3,3,4,4,5,5,6,6,7,7,8,8,9,9,10,10,11,11,12,12,13,13,14,14],"right_children":[2,4,6,8,10,12,14,16,18,20,22,24,26,28,30,-1,-1,-1,-1,-1,-1,-1,-1,-1,-1,-1,-1,-1,-1,-1,-1],"split_conditions":[6E0,3E0,2.1E1,5E0,5E0,1.1E1,2.3E1,1E0,1E0,3E0,5E0,6E0,1.8E1,4E0,7E0,-1.9717115E-1,-1.6189696E-1,-1.04031205E-1,-1.3857426E-1,-4.5950767E-2,1.5915068E-2,-1.2173336E-1,-2.995114E-1,3.9628178E-2,-1.0247313E-1,1.0276594E-1,1.3296703E-3,-1.4906375E-1,-2.4877017E-2,-1.7969407E-1,-4.4985652E-1],"split_indices":[1,1,1,0,0,1,1,1,1,0,1,0,1,0,0,0,0,0,0,0,0,0,0,0,0,0,0,0,0,0,0],"split_type":[0,0,0,0,0,0,0,0,0,0,0,0,0,0,0,0,0,0,0,0,0,0,0,0,0,0,0,0,0,0,0],"sum_hessian":[8.227E3,1.316E3,6.911E3,7.2E2,5.96E2,5.636E3,1.275E3,4.1E2,3.1E2,3.52E2,2.44E2,1.507E3,4.129E3,1.058E3,2.17E2,1.17E2,2.93E2,6.8E1,2.42E2,1.64E2,1.88E2,2.23E2,2.1E1,1.052E3,4.55E2,2.743E3,1.386E3,4.75E2,5.83E2,1.94E2,2.3E1],"tree_param":{"num_deleted":"0","num_feature":"2","num_nodes":"31","size_leaf_vector":"1"}},{"base_weights":[-3.099414E-3,-1.0268613E0,1.9196679E-1,-1.3953427E0,-5.8012444E-1,4.45193E-1,-9.2686397E-1,-1.5153232E0,-1.1078175E0,6.384172E-2,-1.0771424E0,5.5358917E-1,-4.539609E-1,-7.2664475E-1,-1.8952368E0,-1.5583144E-1,-1.22046106E-1,-1.0006689E-1,-1.2551911E-1,-4.1383516E-2,8.757268E-2,-7.596366E-2,-1.8779503E-1,1.970744E-2,8.152849E-2,-3.1158596E-1,-2.4039181E-2,-1.341887E-1,-2.2393608E-2,-1.618168E-1,-4.0674528E-1],"categories":[],"categories_nodes":[],"categories_segments":[],"categories_sizes":[],"default_left":[0,0,0,0,0,0,0,0,0,0,0,0,0,0,0,0,0,0,0,0,0,0,0,0,0,0,0,0,0,0,0],"id":20,"left_children":[1,3,5,7,9,11,13,15,17,19,21,23,25,27,29,-1,-1,-1,-1,-1,-1,-1,-1,-1,-1,-1,-1,-1,-1,-1,-1],"loss_changes":[1.6433397E3,2.1598743E2,1.9587017E3,2.319397E1,1.911462E2,5.496605E2,2.4602246E2,4.5125732E0,2.1547852E0,1.0158309E2,8.425946E1,4.692235E2,3.4433002E2,3.272351E2,1.2462225E2,0E0,0E0,0E0,0E0,0E0,0E0,0E0,0E0,0E0,0E0,0E0,0E0,0E0,0E0,0E0,0E0],"parents":[2147483647,0,0,1,1,2,2,3,3,4,4,5,5,6,6,7,7,8,8,9,9,10,10,11,11,12,12,13,13,14,14],"right_children":[2,4,6,8,10,12,14,16,18,20,22,24,26,28,30,-1,-1,-1,-1,-1,-1,-1,-1,-1,-1,-1,-1,-1,-1,-1,-1],"split_conditions":[6E0,3E0,2.1E1,6E0,4E0,7E0,2.3E1,2E0,2E0,3E0,7E0,1.3E1,8E0,4E0,7E0,-1.5583144E-1,-1.22046106E-1,-1.0006689E-1,-1.2551911E-1,-4.1383516E-2,8.757268E-2,-7.596366E-2,-1.8779503E-1,1.970744E-2,8.152849E-2,-3.1158596E-1,-2.4039181E-2,-1.341887E-1,-2.2393608E-2,-1.618168E-1,-4.0674528E-1],"split_indices":[1,1,1,0,0,0,1,1,1,0,0,1,1,0,0,0,0,0,0,0,0,0,0,0,0,0,0,0,0,0,0],"split_type":[0,0,0,0,0,0,0,0,0,0,0,0,0,0,0,0,0,0,0,0,0,0,0,0,0,0,0,0,0,0,0],"sum_hessian":[8.227E3,1.316E3,6.911E3,7.2E2,5.96E2,5.636E3,1.275E3,5.05E2,2.15E2,2.6E2,3.36E2,5.03E3,6.06E2,1.058E3,2.17E2,4.37E2,6.8E1,1.29E2,8.6E1,1.64E2,9.6E1,2.42E2,9.4E1,2.13E3,2.9E3,4.4E1,5.62E2,4.75E2,5.83E2,1.94E2,2.3E1],"tree_param":{"num_deleted":"0","num_feature":"2","num_nodes":"31","size_leaf_vector":"1"}},{"base_weights":[-2.993478E-3,-9.247227E-1,1.7263158E-1,-1.2565068E0,-5.224763E-1,5.065687E-1,-5.607821E-1,-1.4027755E0,-1.0591662E0,5.76345E-2,-9.702106E-1,1.6936097E-1,1.0861138E0,-9.2689884E-1,1.8080182E-2,-1.19949035E-1,-1.5022503E-1,-8.230086E-2,-1.12186454E-1,-3.7270237E-2,7.8905664E-2,-6.8398535E-2,-1.6921319E-1,5.344E-2,-1.8881138E-2,1.821577E-1,3.9826304E-2,-6.6920206E-2,-1.3604376E-1,5.183599E-2,-1.4639656E-1],"categories":[],"categories_nodes":[],"categories_segments":[],"categories_sizes":[],"default_left":[0,0,0,0,0,0,0,0,0,0,0,0,0,0,0,0,0,0,0,0,0,0,0,0,0,0,0,0,0,0,0],"id":21,"left_children":[1,3,5,7,9,11,13,15,17,19,21,23,25,27,29,-1,-1,-1,-1,-1,-1,-1,-1,-1,-1,-1,-1,-1,-1,-1,-1],"loss_changes":[1.3320979E3,1.7510901E2,1.6931299E3,1.9325684E1,1.5511803E2,9.280946E2,4.5842395E2,6.5092163E0,3.6815796E0,8.244589E1,6.847763E1,3.9286453E2,8.8306226E2,1.471206E2,6.228248E2,0E0,0E0,0E0,0E0,0E0,0E0,0E0,0E0,0E0,0E0,0E0,0E0,0E0,0E0,0E0,0E0],"parents":[2147483647,0,0,1,1,2,2,3,3,4,4,5,5,6,6,7,7,8,8,9,9,10,10,11,11,12,12,13,13,14,14],"right_children":[2,4,6,8,10,12,14,16,18,20,22,24,26,28,30,-1,-1,-1,-1,-1,-1,-1,-1,-1,-1,-1,-1,-1,-1,-1,-1],"split_conditions":[6E0,3E0,1.9E1,5E0,4E0,1.5E1,5E0,2E0,1E0,3E0,7E0,5E0,1.7E1,2.2E1,7E0,-1.19949035E-1,-1.5022503E-1,-8.230086E-2,-1.12186454E-1,-3.7270237E-2,7.8905664E-2,-6.8398535E-2,-1.6921319E-1,5.344E-2,-1.8881138E-2,1.821577E-1,3.9826304E-2,-6.6920206E-2,-1.3604376E-1,5.183599E-2,-1.4639656E-1],"split_indices":[1,1,1,0,0,1,0,0,1,0,0,0,1,1,0,0,0,0,0,0,0,0,0,0,0,0,0,0,0,0,0],"split_type":[0,0,0,0,0,0,0,0,0,0,0,0,0,0,0,0,0,0,0,0,0,0,0,0,0,0,0,0,0,0,0],"sum_hessian":[8.227E3,1.316E3,6.911E3,7.2E2,5.96E2,4.749E3,2.162E3,4.1E2,3.1E2,2.6E2,3.36E2,3.003E3,1.746E3,1.324E3,8.38E2,1.39E2,2.71E2,6.8E1,2.42E2,1.64E2,9.6E1,2.42E2,9.4E1,1.487E3,1.516E3,8.43E2,9.03E2,8.32E2,4.92E2,6.27E2,2.11E2],"tree_param":{"num_deleted":"0","num_feature":"2","num_nodes":"31","size_leaf_vector":"1"}},{"base_weights":[-2.7794293E-3,-6.67469E-1,1.9977903E-1,-4.105186E-2,-1.5478513E0,5.6742543E-1,-5.0484145E-1,-7.2104E-1,1.3922963E0,-9.1762125E-1,-2.8072312E0,2.6846993E-1,9.776297E-1,-1.154457E0,-2.2315046E-1,-1.2631553E-1,-8.780931E-3,3.0503893E-1,8.405723E-2,-7.533909E-2,-1.1347314E-1,-1.6210723E-1,-3.9812014E-1,3.5569545E-2,-3.9559387E-2,1.6396354E-1,3.5848107E-2,-1.3232529E-1,-9.7083725E-2,-2.2031802E-3,-1.7474133E-1],"categories":[],"categories_nodes":[],"categories_segments":[],"categories_sizes":[],"default_left":[0,0,0,0,0,0,0,0,0,0,0,0,0,0,0,0,0,0,0,0,0,0,0,0,0,0,0,0,0,0,0],"id":22,"left_children":[1,3,5,7,9,11,13,15,17,19,21,23,25,27,29,-1,-1,-1,-1,-1,-1,-1,-1,-1,-1,-1,-1,-1,-1,-1,-1],"loss_changes":[1.107939E3,1.0598938E3,1.6341223E3,1.0965215E3,6.3158936E2,5.0805054E2,3.955515E2,2.6181482E2,3.285971E2,1.8185486E1,3.6395532E2,1.3909871E2,7.154724E2,1.8985657E1,4.6286365E2,0E0,0E0,0E0,0E0,0E0,0E0,0E0,0E0,0E0,0E0,0E0,0E0,0E0,0E0,0E0,0E0],"parents":[2147483647,0,0,1,1,2,2,3,3,4,4,5,5,6,6,7,7,8,8,9,9,10,10,11,11,12,12,13,13,14,14],"right_children":[2,4,6,8,10,12,14,16,18,20,22,24,26,28,30,-1,-1,-1,-1,-1,-1,-1,-1,-1,-1,-1,-1,-1,-1,-1,-1],"split_conditions":[8E0,5E0,1.9E1,5E0,5E0,1.5E1,3E0,3E0,2E0,7E0,6E0,7E0,1.7E1,2E0,2.3E1,-1.2631553E-1,-8.780931E-3,3.0503893E-1,8.405723E-2,-7.533909E-2,-1.1347314E-1,-1.6210723E-1,-3.9812014E-1,3.5569545E-2,-3.9559387E-2,1.6396354E-1,3.5848107E-2,-1.3232529E-1,-9.7083725E-2,-2.2031802E-3,-1.7474133E-1],"split_indices":[1,0,1,1,1,1,0,1,0,0,0,0,1,0,1,0,0,0,0,0,0,0,0,0,0,0,0,0,0,0,0],"split_type":[0,0,0,0,0,0,0,0,0,0,0,0,0,0,0,0,0,0,0,0,0,0,0,0,0,0,0,0,0,0,0],"sum_hessian":[8.227E3,1.921E3,6.306E3,1.123E3,7.98E2,4.144E3,2.162E3,7.62E2,3.61E2,5.33E2,2.65E2,2.398E3,1.746E3,6.53E2,1.509E3,4.1E2,3.52E2,8.9E1,2.72E2,3.06E2,2.27E2,1.33E2,1.32E2,2.12E3,2.78E2,8.43E2,9.03E2,3.37E2,3.16E2,1.334E3,1.75E2],"tree_param":{"num_deleted":"0","num_feature":"2","num_nodes":"31","size_leaf_vector":"1"}},{"base_weights":[-2.5873585E-3,-6.009797E-1,1.797676E-1,-3.6720704E-2,-1.3940036E0,5.725356E-1,-3.5825342E-1,-6.491133E-1,1.2541419E0,-8.2621264E-1,-2.528614E0,2.4162082E-1,1.2081863E0,-1.1702912E0,-1.3086909E-2,-1.1371471E-1,-7.905374E-3,2.74874E-1,7.5682335E-2,-6.782969E-2,-1.02175616E-1,-1.4601746E-1,-3.5860747E-1,3.201421E-2,-3.561757E-2,2.0949824E-1,3.405259E-2,-1.475157E-1,-8.442281E-2,1.8946422E-2,-1.2900573E-1],"categories":[],"categories_nodes":[],"categories_segments":[],"categories_sizes":[],"default_left":[0,0,0,0,0,0,0,0,0,0,0,0,0,0,0,0,0,0,0,0,0,0,0,0,0,0,0,0,0,0,0],"id":23,"left_children":[1,3,5,7,9,11,13,15,17,19,21,23,25,27,29,-1,-1,-1,-1,-1,-1,-1,-1,-1,-1,-1,-1,-1,-1,-1,-1],"loss_changes":[8.979458E2,8.599879E2,1.3329843E3,8.893526E2,5.126437E2,7.6663025E2,7.4611194E2,2.1218304E2,2.669912E2,1.4752319E1,2.952992E2,1.1272247E2,9.595449E2,7.7682495E1,4.8366458E2,0E0,0E0,0E0,0E0,0E0,0E0,0E0,0E0,0E0,0E0,0E0,0E0,0E0,0E0,0E0,0E0],"parents":[2147483647,0,0,1,1,2,2,3,3,4,4,5,5,6,6,7,7,8,8,9,9,10,10,11,11,12,12,13,13,14,14],"right_children":[2,4,6,8,10,12,14,16,18,20,22,24,26,28,30,-1,-1,-1,-1,-1,-1,-1,-1,-1,-1,-1,-1,-1,-1,-1,-1],"split_conditions":[8E0,5E0,1.8E1,5E0,5E0,1.5E1,3E0,3E0,2E0,7E0,6E0,7E0,5E0,2E0,7E0,-1.1371471E-1,-7.905374E-3,2.74874E-1,7.5682335E-2,-6.782969E-2,-1.02175616E-1,-1.4601746E-1,-3.5860747E-1,3.201421E-2,-3.561757E-2,2.0949824E-1,3.405259E-2,-1.475157E-1,-8.442281E-2,1.8946422E-2,-1.2900573E-1],"split_indices":[1,0,1,1,1,1,0,1,0,0,0,0,0,0,0,0,0,0,0,0,0,0,0,0,0,0,0,0,0,0,0],"split_type":[0,0,0,0,0,0,0,0,0,0,0,0,0,0,0,0,0,0,0,0,0,0,0,0,0,0,0,0,0,0,0],"sum_hessian":[8.227E3,1.921E3,6.306E3,1.123E3,7.98E2,3.645E3,2.661E3,7.62E2,3.61E2,5.33E2,2.65E2,2.398E3,1.247E3,7.93E2,1.868E3,4.1E2,3.52E2,8.9E1,2.72E2,3.06E2,2.27E2,1.33E2,1.32E2,2.12E3,2.78E2,6.16E2,6.31E2,4.08E2,3.85E2,1.613E3,2.55E2],"tree_param":{"num_deleted":"0","num_feature":"2","num_nodes":"31","size_leaf_vector":"1"}},{"base_weights":[-2.39529E-3,-5.4111356E-1,1.6177452E-1,-3.2844882E-2,-1.2554476E0,3.741135E-1,-6.757267E-1,-5.843615E-1,1.1296966E0,-7.4390966E-1,-2.2776499E0,5.153477E-1,2.5820062E-3,-5.193285E-1,-1.432378E0,-1.0237091E-1,-7.117109E-3,2.4769206E-1,6.8141885E-2,-6.106881E-2,-9.200286E-2,-1.3152473E-1,-3.2301638E-1,2.1745669E-2,1.08756356E-1,-1.0884722E-1,4.7758847E-2,-8.298071E-2,6.8086875E-4,-1.2017846E-1,-3.2462674E-1],"categories":[],"categories_nodes":[],"categories_segments":[],"categories_sizes":[],"default_left":[0,0,0,0,0,0,0,0,0,0,0,0,0,0,0,0,0,0,0,0,0,0,0,0,0,0,0,0,0,0,0],"id":24,"left_children":[1,3,5,7,9,11,13,15,17,19,21,23,25,27,29,-1,-1,-1,-1,-1,-1,-1,-1,-1,-1,-1,-1,-1,-1,-1,-1],"loss_changes":[7.277824E2,6.977863E2,1.1218529E3,7.2132513E2,4.16099E2,2.6404266E2,1.5025659E2,1.7195999E2,2.16935E2,1.1967285E1,2.3959424E2,6.2125336E2,7.193435E2,1.7299786E2,8.728177E1,0E0,0E0,0E0,0E0,0E0,0E0,0E0,0E0,0E0,0E0,0E0,0E0,0E0,0E0,0E0,0E0],"parents":[2147483647,0,0,1,1,2,2,3,3,4,4,5,5,6,6,7,7,8,8,9,9,10,10,11,11,12,12,13,13,14,14],"right_children":[2,4,6,8,10,12,14,16,18,20,22,24,26,28,30,-1,-1,-1,-1,-1,-1,-1,-1,-1,-1,-1,-1,-1,-1,-1,-1],"split_conditions":[8E0,5E0,2.1E1,5E0,5E0,1.8E1,2.3E1,3E0,2E0,7E0,6E0,1.5E1,3E0,5E0,7E0,-1.0237091E-1,-7.117109E-3,2.4769206E-1,6.8141885E-2,-6.106881E-2,-9.200286E-2,-1.3152473E-1,-3.2301638E-1,2.1745669E-2,1.08756356E-1,-1.0884722E-1,4.7758847E-2,-8.298071E-2,6.8086875E-4,-1.2017846E-1,-3.2462674E-1],"split_indices":[1,0,1,1,1,1,1,1,0,0,0,1,0,0,0,0,0,0,0,0,0,0,0,0,0,0,0,0,0,0,0],"split_type":[0,0,0,0,0,0,0,0,0,0,0,0,0,0,0,0,0,0,0,0,0,0,0,0,0,0,0,0,0,0,0],"sum_hessian":[8.227E3,1.921E3,6.306E3,1.123E3,7.98E2,5.031E3,1.275E3,7.62E2,3.61E2,5.33E2,2.65E2,3.645E3,1.386E3,1.058E3,2.17E2,4.1E2,3.52E2,8.9E1,2.72E2,3.06E2,2.27E2,1.33E2,1.32E2,2.398E3,1.247E3,4.2E2,9.66E2,6.65E2,3.93E2,1.94E2,2.3E1],"tree_param":{"num_deleted":"0","num_feature":"2","num_nodes":"31","size_leaf_vector":"1"}},{"base_weights":[-2.2602477E-3,-4.8721096E-1,1.4552435E-1,-2.9376773E-2,-1.1306633E0,3.367158E-1,-6.085671E-1,-5.2606875E-1,1.0175993E0,-6.698053E-1,-2.0515938E0,4.6384853E-1,2.2797745E-3,-4.6747333E-1,-1.2911807E0,-9.215873E-2,-6.407402E-3,2.2319806E-1,6.1352648E-2,-5.498181E-2,-8.284293E-2,-1.1847037E-1,-2.9095763E-1,1.9572007E-2,9.7889364E-2,-9.7988315E-2,4.2987887E-2,-7.469509E-2,6.129459E-4,-1.0822226E-1,-2.9351664E-1],"categories":[],"categories_nodes":[],"categories_segments":[],"categories_sizes":[],"default_left":[0,0,0,0,0,0,0,0,0,0,0,0,0,0,0,0,0,0,0,0,0,0,0,0,0,0,0,0,0,0,0],"id":25,"left_children":[1,3,5,7,9,11,13,15,17,19,21,23,25,27,29,-1,-1,-1,-1,-1,-1,-1,-1,-1,-1,-1,-1,-1,-1,-1,-1],"loss_changes":[5.897572E2,5.6617737E2,9.095218E2,5.85043E2,3.3773596E2,2.1394836E2,1.2229123E2,1.39362E2,1.7626349E2,9.708054E0,1.9439758E2,5.033147E2,5.8292236E2,1.4017522E2,7.171179E1,0E0,0E0,0E0,0E0,0E0,0E0,0E0,0E0,0E0,0E0,0E0,0E0,0E0,0E0,0E0,0E0],"parents":[2147483647,0,0,1,1,2,2,3,3,4,4,5,5,6,6,7,7,8,8,9,9,10,10,11,11,12,12,13,13,14,14],"right_children":[2,4,6,8,10,12,14,16,18,20,22,24,26,28,30,-1,-1,-1,-1,-1,-1,-1,-1,-1,-1,-1,-1,-1,-1,-1,-1],"split_conditions":[8E0,5E0,2.1E1,5E0,5E0,1.8E1,2.3E1,3E0,2E0,7E0,6E0,1.5E1,3E0,5E0,7E0,-9.215873E-2,-6.407402E-3,2.2319806E-1,6.1352648E-2,-5.498181E-2,-8.284293E-2,-1.1847037E-1,-2.9095763E-1,1.9572007E-2,9.7889364E-2,-9.7988315E-2,4.2987887E-2,-7.469509E-2,6.129459E-4,-1.0822226E-1,-2.9351664E-1],"split_indices":[1,0,1,1,1,1,1,1,0,0,0,1,0,0,0,0,0,0,0,0,0,0,0,0,0,0,0,0,0,0,0],"split_type":[0,0,0,0,0,0,0,0,0,0,0,0,0,0,0,0,0,0,0,0,0,0,0,0,0,0,0,0,0,0,0],"sum_hessian":[8.227E3,1.921E3,6.306E3,1.123E3,7.98E2,5.031E3,1.275E3,7.62E2,3.61E2,5.33E2,2.65E2,3.645E3,1.386E3,1.058E3,2.17E2,4.1E2,3.52E2,8.9E1,2.72E2,3.06E2,2.27E2,1.33E2,1.32E2,2.398E3,1.247E3,4.2E2,9.66E2,6.65E2,3.93E2,1.94E2,2.3E1],"tree_param":{"num_deleted":"0","num_feature":"2","num_nodes":"31","size_leaf_vector":"1"}},{"base_weights":[-2.1280819E-3,-4.386776E-1,1.3090669E-1,-2.6273267E-2,-1.0182818E0,3.437561E-1,-4.1918996E-1,-4.7359088E-1,9.166262E-1,-7.702422E-1,-2.4868805E0,-1.0968174E-1,4.146877E-1,-2.81611E-1,-1.9157822E0,-8.296527E-2,-5.768442E-3,2.0112626E-1,5.5239946E-2,2.6153945E-3,-1.112797E-1,-3.07574E-1,-1.5367272E-1,4.1314304E-2,-2.2300799E-1,2.1819167E-2,6.433985E-2,-5.6331154E-2,3.0990584E-2,-2.8818342E-1,-1.5058199E-1],"categories":[],"categories_nodes":[],"categories_segments":[],"categories_sizes":[],"default_left":[0,0,0,0,0,0,0,0,0,0,0,0,0,0,0,0,0,0,0,0,0,0,0,0,0,0,0,0,0,0,0],"id":26,"left_children":[1,3,5,7,9,11,13,15,17,19,21,23,25,27,29,-1,-1,-1,-1,-1,-1,-1,-1,-1,-1,-1,-1,-1,-1,-1,-1],"loss_changes":[4.7790894E2,4.5939142E2,7.386166E2,4.7450983E2,2.8913672E2,1.4632312E2,3.6184375E2,1.1294357E2,1.4321683E2,1.8690353E2,5.961682E1,6.8381696E2,1.7661157E2,2.6894974E2,5.4275146E1,0E0,0E0,0E0,0E0,0E0,0E0,0E0,0E0,0E0,0E0,0E0,0E0,0E0,0E0,0E0,0E0],"parents":[2147483647,0,0,1,1,2,2,3,3,4,4,5,5,6,6,7,7,8,8,9,9,10,10,11,11,12,12,13,13,14,14],"right_children":[2,4,6,8,10,12,14,16,18,20,22,24,26,28,30,-1,-1,-1,-1,-1,-1,-1,-1,-1,-1,-1,-1,-1,-1,-1,-1],"split_conditions":[8E0,5E0,2E1,5E0,7E0,2E0,7E0,3E0,2E0,6E0,6E0,1.8E1,1.5E1,5E0,2.1E1,-8.296527E-2,-5.768442E-3,2.0112626E-1,5.5239946E-2,2.6153945E-3,-1.112797E-1,-3.07574E-1,-1.5367272E-1,4.1314304E-2,-2.2300799E-1,2.1819167E-2,6.433985E-2,-5.6331154E-2,3.0990584E-2,-2.8818342E-1,-1.5058199E-1],"split_indices":[1,0,1,1,1,0,0,1,0,0,0,1,1,0,1,0,0,0,0,0,0,0,0,0,0,0,0,0,0,0,0],"split_type":[0,0,0,0,0,0,0,0,0,0,0,0,0,0,0,0,0,0,0,0,0,0,0,0,0,0,0,0,0,0,0],"sum_hessian":[8.227E3,1.921E3,6.306E3,1.123E3,7.98E2,4.547E3,1.759E3,7.62E2,3.61E2,6.84E2,1.14E2,6.15E2,3.932E3,1.612E3,1.47E2,4.1E2,3.52E2,8.9E1,2.72E2,2.06E2,4.78E2,6.9E1,4.5E1,4.94E2,1.21E2,2.116E3,1.816E3,1.092E3,5.2E2,4.2E1,1.05E2],"tree_param":{"num_deleted":"0","num_feature":"2","num_nodes":"31","size_leaf_vector":"1"}},{"base_weights":[-2.0325999E-3,9.113439E-2,-5.097035E-1,-3.950192E-1,2.768053E-1,-3.828643E-1,-1.1235245E0,-2.349682E-2,-9.17167E-1,3.4870243E-1,-2.945213E-1,-7.316514E-1,-9.7923316E-2,-9.4717246E-1,-2.5095722E-1,-4.263479E-2,8.2567126E-2,-5.2229848E-2,-1.7064252E-1,7.920577E-3,5.5400707E-2,-1.0364748E-2,-2.6003525E-1,-9.5801756E-2,-5.9565663E-2,2.3072748E-2,-6.309891E-2,-5.4469675E-2,-1.05409585E-1],"categories":[],"categories_nodes":[],"categories_segments":[],"categories_sizes":[],"default_left":[0,0,0,0,0,0,0,0,0,0,0,0,0,0,0,0,0,0,0,0,0,0,0,0,0,0,0,0,0],"id":27,"left_children":[1,3,5,7,9,11,13,15,17,19,21,23,25,27,-1,-1,-1,-1,-1,-1,-1,-1,-1,-1,-1,-1,-1,-1,-1],"loss_changes":[3.892158E2,6.2771893E2,9.8914825E1,3.7282642E2,2.0680081E2,1.05175766E2,5.090927E1,3.8485922E2,2.4811969E2,2.4727637E2,2.4751964E2,1.4082825E1,1.02458E2,7.8174744E0,0E0,0E0,0E0,0E0,0E0,0E0,0E0,0E0,0E0,0E0,0E0,0E0,0E0,0E0,0E0],"parents":[2147483647,0,0,1,1,2,2,3,3,4,4,5,5,6,6,7,7,8,8,9,9,10,10,11,11,12,12,13,13],"right_children":[2,4,6,8,10,12,14,16,18,20,22,24,26,28,-1,-1,-1,-1,-1,-1,-1,-1,-1,-1,-1,-1,-1,-1,-1],"split_conditions":[2.1E1,8E0,2.3E1,5E0,7E0,4E0,7E0,5E0,5E0,4E0,2E1,2E0,6E0,2E0,-2.5095722E-1,-4.263479E-2,8.2567126E-2,-5.2229848E-2,-1.7064252E-1,7.920577E-3,5.5400707E-2,-1.0364748E-2,-2.6003525E-1,-9.5801756E-2,-5.9565663E-2,2.3072748E-2,-6.309891E-2,-5.4469675E-2,-1.05409585E-1],"split_indices":[1,1,1,0,0,0,0,1,1,0,1,0,0,0,0,0,0,0,0,0,0,0,0,0,0,0,0,0,0],"split_type":[0,0,0,0,0,0,0,0,0,0,0,0,0,0,0,0,0,0,0,0,0,0,0,0,0,0,0,0,0],"sum_hessian":[8.227E3,6.952E3,1.275E3,1.921E3,5.031E3,1.058E3,2.17E2,1.123E3,7.98E2,4.469E3,5.62E2,4.75E2,5.83E2,1.94E2,2.3E1,7.62E2,3.61E2,5.33E2,2.65E2,1.933E3,2.536E3,5.2E2,4.2E1,1.76E2,2.99E2,3.61E2,2.22E2,4.2E1,1.52E2],"tree_param":{"num_deleted":"0","num_feature":"2","num_nodes":"29","size_leaf_vector":"1"}},{"base_weights":[-1.9505804E-3,8.19647E-2,-4.592084E-1,-2.535399E-1,3.1135526E-1,-3.4476256E-1,-1.0130568E0,-6.2199837E-1,-1.2715581E-1,5.190353E-1,3.9840654E-2,-5.706452E-1,3.7934344E-2,-8.532751E-1,-2.2690716E-1,-6.9433846E-2,-2.9992381E-2,4.221595E-3,-5.2170873E-2,9.451772E-2,1.1617619E-2,-8.565472E-2,2.1075327E-2,-3.6670636E-2,-7.398649E-2,8.235392E-2,-5.681731E-2,-9.8974876E-2,-5.6510102E-2],"categories":[],"categories_nodes":[],"categories_segments":[],"categories_sizes":[],"default_left":[0,0,0,0,0,0,0,0,0,0,0,0,0,0,0,0,0,0,0,0,0,0,0,0,0,0,0,0,0],"id":28,"left_children":[1,3,5,7,9,11,13,15,17,19,21,23,25,27,-1,-1,-1,-1,-1,-1,-1,-1,-1,-1,-1,-1,-1,-1,-1],"loss_changes":[3.1575354E2,5.351928E2,8.053082E1,1.314269E2,2.3286243E2,9.156648E1,4.1813873E1,1.6590271E1,1.4062418E2,4.0161005E2,2.7456888E2,2.2712631E1,1.8807533E2,7.10968E0,0E0,0E0,0E0,0E0,0E0,0E0,0E0,0E0,0E0,0E0,0E0,0E0,0E0,0E0,0E0],"parents":[2147483647,0,0,1,1,2,2,3,3,4,4,5,5,6,6,7,7,8,8,9,9,10,10,11,11,12,12,13,13],"right_children":[2,4,6,8,10,12,14,16,18,20,22,24,26,28,-1,-1,-1,-1,-1,-1,-1,-1,-1,-1,-1,-1,-1,-1,-1],"split_conditions":[2.1E1,1.1E1,2.3E1,3E0,1.7E1,5E0,7E0,7E0,6E0,5E0,2E0,2.2E1,6E0,5E0,-2.2690716E-1,-6.9433846E-2,-2.9992381E-2,4.221595E-3,-5.2170873E-2,9.451772E-2,1.1617619E-2,-8.565472E-2,2.1075327E-2,-3.6670636E-2,-7.398649E-2,8.235392E-2,-5.681731E-2,-9.8974876E-2,-5.6510102E-2],"split_indices":[1,1,1,1,1,0,0,0,0,0,0,1,0,0,0,0,0,0,0,0,0,0,0,0,0,0,0,0,0],"split_type":[0,0,0,0,0,0,0,0,0,0,0,0,0,0,0,0,0,0,0,0,0,0,0,0,0,0,0,0,0],"sum_hessian":[8.227E3,6.952E3,1.275E3,2.823E3,4.129E3,1.058E3,2.17E2,7.2E2,2.103E3,2.339E3,1.79E3,6.65E2,3.93E2,1.94E2,2.3E1,5.87E2,1.33E2,1.472E3,6.31E2,1.136E3,1.203E3,2.86E2,1.504E3,3.03E2,3.62E2,1.71E2,2.22E2,1.3E2,6.4E1],"tree_param":{"num_deleted":"0","num_feature":"2","num_nodes":"29","size_leaf_vector":"1"}},{"base_weights":[-1.8253016E-3,-3.2593206E-1,9.6943535E-2,1.5378919E-3,-7.861953E-1,3.212064E-1,-2.1025382E-1,-3.4840614E-1,7.3912287E-1,-5.7200927E-1,-2.0551624E0,9.458523E-2,7.565774E-1,-6.1910665E-1,1.1719174E-1,-6.3509315E-2,-1.3627758E-3,4.0053427E-2,1.7141746E-1,1.4174185E-2,-8.792628E-2,-2.6085165E-1,-1.168425E-1,1.5480876E-2,-3.635821E-2,1.5507995E-1,-1.999161E-3,-9.182058E-2,-4.6066504E-2,3.427418E-2,-9.616772E-2],"categories":[],"categories_nodes":[],"categories_segments":[],"categories_sizes":[],"default_left":[0,0,0,0,0,0,0,0,0,0,0,0,0,0,0,0,0,0,0,0,0,0,0,0,0,0,0,0,0,0,0],"id":29,"left_children":[1,3,5,7,9,11,13,15,17,19,21,23,25,27,29,-1,-1,-1,-1,-1,-1,-1,-1,-1,-1,-1,-1,-1,-1,-1,-1],"loss_changes":[2.6342343E2,2.8968964E2,4.3457544E2,2.9037704E2,2.1598865E2,3.596584E2,3.5645322E2,7.3221504E1,1.1882457E2,1.5034691E2,5.338028E1,6.625058E1,7.697577E2,5.5686493E1,3.602279E2,0E0,0E0,0E0,0E0,0E0,0E0,0E0,0E0,0E0,0E0,0E0,0E0,0E0,0E0,0E0,0E0],"parents":[2147483647,0,0,1,1,2,2,3,3,4,4,5,5,6,6,7,7,8,8,9,9,10,10,11,11,12,12,13,13,14,14],"right_children":[2,4,6,8,10,12,14,16,18,20,22,24,26,28,30,-1,-1,-1,-1,-1,-1,-1,-1,-1,-1,-1,-1,-1,-1,-1,-1],"split_conditions":[8E0,5E0,1.8E1,5E0,7E0,1.5E1,4E0,3E0,4E0,6E0,6E0,7E0,5E0,2E0,7E0,-6.3509315E-2,-1.3627758E-3,4.0053427E-2,1.7141746E-1,1.4174185E-2,-8.792628E-2,-2.6085165E-1,-1.168425E-1,1.5480876E-2,-3.635821E-2,1.5507995E-1,-1.999161E-3,-9.182058E-2,-4.6066504E-2,3.427418E-2,-9.616772E-2],"split_indices":[1,0,1,1,1,1,0,1,0,0,0,0,0,0,0,0,0,0,0,0,0,0,0,0,0,0,0,0,0,0,0],"split_type":[0,0,0,0,0,0,0,0,0,0,0,0,0,0,0,0,0,0,0,0,0,0,0,0,0,0,0,0,0,0,0],"sum_hessian":[8.227E3,1.921E3,6.306E3,1.123E3,7.98E2,3.645E3,2.661E3,7.62E2,3.61E2,6.84E2,1.14E2,2.398E3,1.247E3,1.183E3,1.478E3,4.1E2,3.52E2,2.69E2,9.2E1,2.06E2,4.78E2,6.9E1,4.5E1,2.12E3,2.78E2,6.16E2,6.31E2,4.08E2,7.75E2,1.223E3,2.55E2],"tree_param":{"num_deleted":"0","num_feature":"2","num_nodes":"31","size_leaf_vector":"1"}},{"base_weights":[-1.6879732E-3,7.0336856E-2,-3.9415422E-1,-2.0940034E-1,2.6159775E-1,-2.9086837E-1,-8.94088E-1,-4.9946973E-1,-1.0989966E-1,4.3444166E-1,3.562549E-2,-4.7857836E-1,2.7166415E-2,-7.583804E-1,-1.9594583E-1,-6.010888E-2,-2.5910525E-2,-3.6581345E-3,-7.01345E-2,1.5460521E-2,9.302719E-2,-7.6227754E-2,1.8776007E-2,-2.9557467E-2,-6.305193E-2,7.075896E-2,-4.9776614E-2,-3.0513555E-2,-8.808062E-2],"categories":[],"categories_nodes":[],"categories_segments":[],"categories_sizes":[],"default_left":[0,0,0,0,0,0,0,0,0,0,0,0,0,0,0,0,0,0,0,0,0,0,0,0,0,0,0,0,0],"id":30,"left_children":[1,3,5,7,9,11,13,15,17,19,21,23,25,27,-1,-1,-1,-1,-1,-1,-1,-1,-1,-1,-1,-1,-1,-1,-1],"loss_changes":[2.3261119E2,3.720597E2,6.562756E1,8.1451675E1,1.6129376E2,6.323349E1,3.003218E1,1.7455124E1,9.1211716E1,3.245344E2,2.1755019E2,1.8332275E1,1.4107968E2,1.0551575E1,0E0,0E0,0E0,0E0,0E0,0E0,0E0,0E0,0E0,0E0,0E0,0E0,0E0,0E0,0E0],"parents":[2147483647,0,0,1,1,2,2,3,3,4,4,5,5,6,6,7,7,8,8,9,9,10,10,11,11,12,12,13,13],"right_children":[2,4,6,8,10,12,14,16,18,20,22,24,26,28,-1,-1,-1,-1,-1,-1,-1,-1,-1,-1,-1,-1,-1,-1,-1],"split_conditions":[2.1E1,1.1E1,2.3E1,3E0,1.7E1,5E0,7E0,6E0,7E0,1.5E1,2E0,2.2E1,6E0,2E0,-1.9594583E-1,-6.010888E-2,-2.5910525E-2,-3.6581345E-3,-7.01345E-2,1.5460521E-2,9.302719E-2,-7.6227754E-2,1.8776007E-2,-2.9557467E-2,-6.305193E-2,7.075896E-2,-4.9776614E-2,-3.0513555E-2,-8.808062E-2],"split_indices":[1,1,1,1,1,0,0,0,0,1,0,1,0,0,0,0,0,0,0,0,0,0,0,0,0,0,0,0,0],"split_type":[0,0,0,0,0,0,0,0,0,0,0,0,0,0,0,0,0,0,0,0,0,0,0,0,0,0,0,0,0],"sum_hessian":[8.227E3,6.952E3,1.275E3,2.823E3,4.129E3,1.058E3,2.17E2,7.2E2,2.103E3,2.339E3,1.79E3,6.65E2,3.93E2,1.94E2,2.3E1,5.05E2,2.15E2,1.872E3,2.31E2,1.496E3,8.43E2,2.86E2,1.504E3,3.03E2,3.62E2,1.71E2,2.22E2,4.2E1,1.52E2],"tree_param":{"num_deleted":"0","num_feature":"2","num_nodes":"29","size_leaf_vector":"1"}},{"base_weights":[-1.5793572E-3,6.328748E-2,-3.5504138E-1,-1.8851681E-1,2.3545021E-1,-2.618491E-1,-8.0612206E-1,-4.496421E-1,-9.894464E-2,3.9104357E-1,3.2030933E-2,-4.308596E-1,2.450329E-2,-6.831506E-1,-1.771677E-1,-5.410987E-2,-2.3331486E-2,2.9024219E-3,-3.9704464E-2,7.411359E-2,6.010836E-3,-6.863153E-2,1.689966E-2,-2.6611457E-2,-5.6764096E-2,6.372422E-2,-4.482124E-2,-2.7533162E-2,-7.933014E-2],"categories":[],"categories_nodes":[],"categories_segments":[],"categories_sizes":[],"default_left":[0,0,0,0,0,0,0,0,0,0,0,0,0,0,0,0,0,0,0,0,0,0,0,0,0,0,0,0,0],"id":31,"left_children":[1,3,5,7,9,11,13,15,17,19,21,23,25,27,-1,-1,-1,-1,-1,-1,-1,-1,-1,-1,-1,-1,-1,-1,-1],"loss_changes":[1.8867377E2,3.0146606E2,5.342845E1,6.600763E1,1.307048E2,5.1262512E1,2.4674057E1,1.4138412E1,8.027389E1,2.710629E2,1.7633029E2,1.4856621E1,1.14408226E2,8.541283E0,0E0,0E0,0E0,0E0,0E0,0E0,0E0,0E0,0E0,0E0,0E0,0E0,0E0,0E0,0E0],"parents":[2147483647,0,0,1,1,2,2,3,3,4,4,5,5,6,6,7,7,8,8,9,9,10,10,11,11,12,12,13,13],"right_children":[2,4,6,8,10,12,14,16,18,20,22,24,26,28,-1,-1,-1,-1,-1,-1,-1,-1,-1,-1,-1,-1,-1,-1,-1],"split_conditions":[2.1E1,1.1E1,2.3E1,3E0,1.7E1,5E0,7E0,6E0,6E0,5E0,2E0,2.2E1,6E0,2E0,-1.771677E-1,-5.410987E-2,-2.3331486E-2,2.9024219E-3,-3.9704464E-2,7.411359E-2,6.010836E-3,-6.863153E-2,1.689966E-2,-2.6611457E-2,-5.6764096E-2,6.372422E-2,-4.482124E-2,-2.7533162E-2,-7.933014E-2],"split_indices":[1,1,1,1,1,0,0,0,0,0,0,1,0,0,0,0,0,0,0,0,0,0,0,0,0,0,0,0,0],"split_type":[0,0,0,0,0,0,0,0,0,0,0,0,0,0,0,0,0,0,0,0,0,0,0,0,0,0,0,0,0],"sum_hessian":[8.227E3,6.952E3,1.275E3,2.823E3,4.129E3,1.058E3,2.17E2,7.2E2,2.103E3,2.339E3,1.79E3,6.65E2,3.93E2,1.94E2,2.3E1,5.05E2,2.15E2,1.472E3,6.31E2,1.136E3,1.203E3,2.86E2,1.504E3,3.03E2,3.62E2,1.71E2,2.22E2,4.2E1,1.52E2],"tree_param":{"num_deleted":"0","num_feature":"2","num_nodes":"29","size_leaf_vector":"1"}},{"base_weights":[-1.4741799E-3,4.7856826E-2,-3.8445774E-1,-5.019895E-1,9.0076916E-2,-2.0861374E-1,-1.3228631E0,-6.7013794E-1,-4.2471364E-1,1.6451411E-1,-2.6603985E-1,-4.9055746E-1,2.732309E-1,-2.3078649E-1,-9.1080713E-1,-5.0649643E-2,-1.5466335E-1,-5.4390606E-2,1.9056808E-2,-1.98414E-3,3.361031E-2,-4.444049E-2,1.1227028E-2,-2.5477065E-2,-2.868963E-1,9.151605E-2,-3.364986E-2,-7.00002E-2,-1.601891E-1],"categories":[],"categories_nodes":[],"categories_segments":[],"categories_sizes":[],"default_left":[0,0,0,0,0,0,0,0,0,0,0,0,0,0,0,0,0,0,0,0,0,0,0,0,0,0,0,0,0],"id":32,"left_children":[1,3,5,7,9,11,13,15,17,19,21,23,25,-1,27,-1,-1,-1,-1,-1,-1,-1,-1,-1,-1,-1,-1,-1,-1],"loss_changes":[1.5546971E2,1.6927939E2,1.5467119E2,6.472168E0,1.7953168E2,1.07729675E2,5.796762E1,2.2452461E1,2.6431587E1,1.7718518E2,7.906581E1,2.796674E2,1.1498915E2,0E0,1.4321175E1,0E0,0E0,0E0,0E0,0E0,0E0,0E0,0E0,0E0,0E0,0E0,0E0,0E0,0E0],"parents":[2147483647,0,0,1,1,2,2,3,3,4,4,5,5,6,6,7,7,8,8,9,9,10,10,11,11,12,12,14,14],"right_children":[2,4,6,8,10,12,14,16,18,20,22,24,26,-1,28,-1,-1,-1,-1,-1,-1,-1,-1,-1,-1,-1,-1,-1,-1],"split_conditions":[7E0,2E0,2E1,1E0,2.1E1,1.4E1,2.1E1,6E0,6E0,1.3E1,5E0,1.3E1,1.7E1,-2.3078649E-1,2.3E1,-5.0649643E-2,-1.5466335E-1,-5.4390606E-2,1.9056808E-2,-1.98414E-3,3.361031E-2,-4.444049E-2,1.1227028E-2,-2.5477065E-2,-2.868963E-1,9.151605E-2,-3.364986E-2,-7.00002E-2,-1.601891E-1],"split_indices":[0,1,1,1,1,1,1,0,0,1,0,1,1,0,1,0,0,0,0,0,0,0,0,0,0,0,0,0,0],"split_type":[0,0,0,0,0,0,0,0,0,0,0,0,0,0,0,0,0,0,0,0,0,0,0,0,0,0,0,0,0],"sum_hessian":[8.227E3,7.289E3,9.38E2,5.19E2,6.77E3,7.91E2,1.47E2,1.61E2,3.58E2,5.6E3,1.17E3,4.99E2,2.92E2,4.2E1,1.05E2,1.37E2,2.4E1,3E2,5.8E1,2.7E3,2.9E3,7.95E2,3.75E2,4.55E2,4.4E1,1.42E2,1.5E2,8.2E1,2.3E1],"tree_param":{"num_deleted":"0","num_feature":"2","num_nodes":"29","size_leaf_vector":"1"}},{"base_weights":[-1.4430479E-3,-2.2768953E-1,6.7503706E-2,6.119588E-2,-6.337966E-1,2.2973803E-1,-1.5472539E-1,-2.2702762E-1,6.685255E-1,-2.7031434E-1,-1.3611113E0,5.8660608E-2,5.584119E-1,-4.9909857E-1,1.2106406E-1,-4.581127E-2,-3.821715E-3,1.6896467E-1,3.294434E-2,-5.618298E-3,-3.014404E-2,-6.145392E-2,-2.1030627E-1,-1.8703422E-2,1.9019479E-2,1.2671015E-1,-1.3434105E-2,-8.212872E-2,-3.4932103E-2,2.9982155E-2,-7.340932E-2],"categories":[],"categories_nodes":[],"categories_segments":[],"categories_sizes":[],"default_left":[0,0,0,0,0,0,0,0,0,0,0,0,0,0,0,0,0,0,0,0,0,0,0,0,0,0,0,0,0,0,0],"id":33,"left_children":[1,3,5,7,9,11,13,15,17,19,21,23,25,27,29,-1,-1,-1,-1,-1,-1,-1,-1,-1,-1,-1,-1,-1,-1,-1,-1],"loss_changes":[1.2836362E2,2.2552475E2,2.2742299E2,1.9690425E2,2.108605E2,2.0497704E2,2.5288252E2,3.3273163E1,1.2478366E2,3.5422096E0,1.4605038E2,7.75647E1,6.1287177E2,5.6848938E1,2.2630861E2,0E0,0E0,0E0,0E0,0E0,0E0,0E0,0E0,0E0,0E0,0E0,0E0,0E0,0E0,0E0,0E0],"parents":[2147483647,0,0,1,1,2,2,3,3,4,4,5,5,6,6,7,7,8,8,9,9,10,10,11,11,12,12,13,13,14,14],"right_children":[2,4,6,8,10,12,14,16,18,20,22,24,26,28,30,-1,-1,-1,-1,-1,-1,-1,-1,-1,-1,-1,-1,-1,-1,-1,-1],"split_conditions":[8E0,5E0,1.8E1,5E0,5E0,1.5E1,4E0,2E0,2E0,1E0,6E0,4E0,5E0,2E1,7E0,-4.581127E-2,-3.821715E-3,1.6896467E-1,3.294434E-2,-5.618298E-3,-3.014404E-2,-6.145392E-2,-2.1030627E-1,-1.8703422E-2,1.9019479E-2,1.2671015E-1,-1.3434105E-2,-8.212872E-2,-3.4932103E-2,2.9982155E-2,-7.340932E-2],"split_indices":[1,0,1,1,1,1,0,1,0,1,0,0,0,1,0,0,0,0,0,0,0,0,0,0,0,0,0,0,0,0,0],"split_type":[0,0,0,0,0,0,0,0,0,0,0,0,0,0,0,0,0,0,0,0,0,0,0,0,0,0,0,0,0,0,0],"sum_hessian":[8.227E3,1.921E3,6.306E3,1.123E3,7.98E2,3.645E3,2.661E3,7.62E2,3.61E2,5.33E2,2.65E2,2.398E3,1.247E3,1.183E3,1.478E3,3.42E2,4.2E2,8.9E1,2.72E2,6.8E1,4.65E2,1.33E2,1.32E2,8.36E2,1.562E3,6.16E2,6.31E2,3.74E2,8.09E2,1.223E3,2.55E2],"tree_param":{"num_deleted":"0","num_feature":"2","num_nodes":"31","size_leaf_vector":"1"}},{"base_weights":[-1.3235498E-3,3.7163552E-2,-3.8343278E-1,-2.050013E-1,1.2094459E-1,-2.6184228E-1,-6.806304E-1,5.521182E-2,-5.7080173E-1,-8.680097E-2,2.5145033E-1,-4.4922575E-1,1.3058324E-1,-1.7091211E-2,-8.012966E-1,-2.0439008E-2,6.022313E-2,-2.4334978E-2,-1.2260218E-1,-5.7506114E-2,1.2460812E-2,7.3651075E-2,1.18919285E-2,-3.2158185E-2,-7.91104E-2,5.050778E-2,-2.3275515E-2,-7.0559196E-2,-1.378026E-1],"categories":[],"categories_nodes":[],"categories_segments":[],"categories_sizes":[],"default_left":[0,0,0,0,0,0,0,0,0,0,0,0,0,0,0,0,0,0,0,0,0,0,0,0,0,0,0,0,0],"id":34,"left_children":[1,3,5,7,9,11,13,15,17,19,21,23,25,-1,27,-1,-1,-1,-1,-1,-1,-1,-1,-1,-1,-1,-1,-1,-1],"loss_changes":[1.210175E2,1.5170404E2,2.7032486E1,1.8297913E2,1.506289E2,3.9472923E1,1.3271309E1,1.5973927E2,1.7112955E2,2.2138101E2,2.1925475E2,1.5586441E1,2.3793434E1,0E0,8.742111E0,0E0,0E0,0E0,0E0,0E0,0E0,0E0,0E0,0E0,0E0,0E0,0E0,0E0,0E0],"parents":[2147483647,0,0,1,1,2,2,3,3,4,4,5,5,6,6,7,7,8,8,9,9,10,10,11,11,12,12,14,14],"right_children":[2,4,6,8,10,12,14,16,18,20,22,24,26,-1,28,-1,-1,-1,-1,-1,-1,-1,-1,-1,-1,-1,-1,-1,-1],"split_conditions":[2.2E1,8E0,2.3E1,5E0,4E0,5E0,2E0,5E0,5E0,1.3E1,5E0,4E0,6E0,-1.7091211E-2,7E0,-2.0439008E-2,6.022313E-2,-2.4334978E-2,-1.2260218E-1,-5.7506114E-2,1.2460812E-2,7.3651075E-2,1.18919285E-2,-3.2158185E-2,-7.91104E-2,5.050778E-2,-2.3275515E-2,-7.0559196E-2,-1.378026E-1],"split_indices":[1,1,1,0,0,0,0,1,1,1,0,0,0,0,0,0,0,0,0,0,0,0,0,0,0,0,0,0,0],"split_type":[0,0,0,0,0,0,0,0,0,0,0,0,0,0,0,0,0,0,0,0,0,0,0,0,0,0,0,0,0],"sum_hessian":[8.227E3,7.475E3,7.52E2,1.921E3,5.554E3,5.35E2,2.17E2,1.123E3,7.98E2,2.143E3,3.411E3,3.62E2,1.73E2,4.2E1,1.75E2,7.62E2,3.61E2,5.33E2,2.65E2,6.47E2,1.496E3,7.31E2,2.68E3,2.65E2,9.7E1,8.5E1,8.8E1,1.52E2,2.3E1],"tree_param":{"num_deleted":"0","num_feature":"2","num_nodes":"29","size_leaf_vector":"1"}},{"base_weights":[-1.2369137E-3,4.774347E-2,-2.6813295E-1,-1.2691024E-1,1.6715613E-1,-1.967635E-1,-6.1360145E-1,-3.0920383E-1,-6.4381436E-2,3.011462E-1,-7.999604E-3,-4.3466634E-1,-8.799907E-2,-1.5421832E-2,-7.223508E-1,-3.6568727E-2,-5.9043677E-3,-1.1157893E-3,-4.9379226E-2,5.9852947E-2,2.0061587E-3,-6.631934E-2,1.1694964E-2,-5.402265E-2,-3.121098E-2,3.8523402E-3,-3.746913E-2,-6.354939E-2,-1.2459653E-1],"categories":[],"categories_nodes":[],"categories_segments":[],"categories_sizes":[],"default_left":[0,0,0,0,0,0,0,0,0,0,0,0,0,0,0,0,0,0,0,0,0,0,0,0,0,0,0,0,0],"id":35,"left_children":[1,3,5,7,9,11,13,15,17,19,21,23,25,-1,27,-1,-1,-1,-1,-1,-1,-1,-1,-1,-1,-1,-1,-1,-1],"loss_changes":[1.0757474E2,1.4503204E2,3.1340195E1,3.2169735E1,9.692992E1,2.7363766E1,1.0779358E1,1.0166077E1,4.8080917E1,1.9558824E2,1.4669951E2,4.126503E0,2.6421188E1,0E0,7.2125854E0,0E0,0E0,0E0,0E0,0E0,0E0,0E0,0E0,0E0,0E0,0E0,0E0,0E0,0E0],"parents":[2147483647,0,0,1,1,2,2,3,3,4,4,5,5,6,6,7,7,8,8,9,9,10,10,11,11,12,12,14,14],"right_children":[2,4,6,8,10,12,14,16,18,20,22,24,26,-1,28,-1,-1,-1,-1,-1,-1,-1,-1,-1,-1,-1,-1,-1,-1],"split_conditions":[2.1E1,1.1E1,2.3E1,3E0,1.7E1,3E0,2E0,7E0,7E0,5E0,2E0,2E0,6E0,-1.5421832E-2,7E0,-3.6568727E-2,-5.9043677E-3,-1.1157893E-3,-4.9379226E-2,5.9852947E-2,2.0061587E-3,-6.631934E-2,1.1694964E-2,-5.402265E-2,-3.121098E-2,3.8523402E-3,-3.746913E-2,-6.354939E-2,-1.2459653E-1],"split_indices":[1,1,1,1,1,0,0,0,0,0,0,0,0,0,0,0,0,0,0,0,0,0,0,0,0,0,0,0,0],"split_type":[0,0,0,0,0,0,0,0,0,0,0,0,0,0,0,0,0,0,0,0,0,0,0,0,0,0,0,0,0],"sum_hessian":[8.227E3,6.952E3,1.275E3,2.823E3,4.129E3,1.058E3,2.17E2,7.2E2,2.103E3,2.339E3,1.79E3,3.31E2,7.27E2,4.2E1,1.75E2,5.87E2,1.33E2,1.872E3,2.31E2,1.136E3,1.203E3,2.86E2,1.504E3,1.76E2,1.55E2,5.05E2,2.22E2,1.52E2,2.3E1],"tree_param":{"num_deleted":"0","num_feature":"2","num_nodes":"29","size_leaf_vector":"1"}},{"base_weights":[-1.1628906E-3,3.595516E-2,-2.8933054E-1,-9.279558E-2,1.4478622E-1,-1.4443165E-1,-1.0627804E0,9.067015E-2,-4.2695335E-1,-2.981406E-1,2.5786385E-1,-3.7952822E-1,2.5724995E-1,-2.0337825E-1,-6.588571E-1,-2.3650004E-2,8.282701E-2,-7.382964E-2,-2.8228594E-2,2.517955E-2,-5.860841E-2,3.1676475E-2,-2.2951989E-2,-1.5753457E-2,-2.62063E-1,8.124744E-2,-2.7026227E-2,-5.1567968E-2,-1.1265601E-1],"categories":[],"categories_nodes":[],"categories_segments":[],"categories_sizes":[],"default_left":[0,0,0,0,0,0,0,0,0,0,0,0,0,0,0,0,0,0,0,0,0,0,0,0,0,0,0,0,0],"id":36,"left_children":[1,3,5,7,9,11,13,15,17,19,21,23,25,-1,27,-1,-1,-1,-1,-1,-1,-1,-1,-1,-1,-1,-1,-1,-1],"loss_changes":[8.8018906E1,1.021615E2,1.0508212E2,2.0480243E2,1.9796317E2,7.488934E1,5.6707153E1,5.207246E2,5.3120377E1,1.2746137E2,9.0443375E1,2.4834232E2,8.6035675E1,0E0,6.517292E0,0E0,0E0,0E0,0E0,0E0,0E0,0E0,0E0,0E0,0E0,0E0,0E0,0E0,0E0],"parents":[2147483647,0,0,1,1,2,2,3,3,4,4,5,5,6,6,7,7,8,8,9,9,10,10,11,11,12,12,14,14],"right_children":[2,4,6,8,10,12,14,16,18,20,22,24,26,-1,28,-1,-1,-1,-1,-1,-1,-1,-1,-1,-1,-1,-1,-1,-1],"split_conditions":[7E0,4E0,2E1,1.8E1,8E0,1.4E1,2.1E1,1.3E1,2E1,5E0,2.2E1,1.3E1,1.7E1,-2.0337825E-1,2.3E1,-2.3650004E-2,8.282701E-2,-7.382964E-2,-2.8228594E-2,2.517955E-2,-5.860841E-2,3.1676475E-2,-2.2951989E-2,-1.5753457E-2,-2.62063E-1,8.124744E-2,-2.7026227E-2,-5.1567968E-2,-1.1265601E-1],"split_indices":[0,0,1,1,1,1,1,1,1,0,1,1,1,0,1,0,0,0,0,0,0,0,0,0,0,0,0,0,0],"split_type":[0,0,0,0,0,0,0,0,0,0,0,0,0,0,0,0,0,0,0,0,0,0,0,0,0,0,0,0,0],"sum_hessian":[8.227E3,7.289E3,9.38E2,3.339E3,3.95E3,7.91E2,1.47E2,2.156E3,1.183E3,8.03E2,3.147E3,4.99E2,2.92E2,4.2E1,1.05E2,1.494E3,6.62E2,3.74E2,8.09E2,2.76E2,5.27E2,2.808E3,3.39E2,4.55E2,4.4E1,1.42E2,1.5E2,8.2E1,2.3E1],"tree_param":{"num_deleted":"0","num_feature":"2","num_nodes":"29","size_leaf_vector":"1"}},{"base_weights":[-1.1268983E-3,3.9869096E-2,-2.2451563E-1,-5.1216792E-2,1.8924312E-1,-1.6371745E-1,-5.188311E-1,-2.5383052E-1,-1.0623534E-2,5.974063E-1,-3.2074617E-3,-2.783999E-1,3.05522E-2,-1.11583015E-2,-6.1538124E-1,-3.2578636E-2,-8.409219E-3,3.3137307E-3,-3.447336E-2,1.181016E-1,3.8081852E-3,-5.868969E-2,1.0810289E-2,-4.584399E-2,-2.127969E-2,4.9368717E-2,-3.26801E-2,-5.481095E-2,-1.018598E-1],"categories":[],"categories_nodes":[],"categories_segments":[],"categories_sizes":[],"default_left":[0,0,0,0,0,0,0,0,0,0,0,0,0,0,0,0,0,0,0,0,0,0,0,0,0,0,0,0,0],"id":37,"left_children":[1,3,5,7,9,11,13,15,17,19,21,23,25,-1,27,-1,-1,-1,-1,-1,-1,-1,-1,-1,-1,-1,-1,-1,-1],"loss_changes":[7.5361336E1,9.461127E1,2.2747604E1,3.5528233E1,2.0690591E2,2.360231E1,8.503067E0,8.778652E0,5.2646793E1,2.7545953E2,1.1642592E2,7.7686806E0,6.536942E1,0E0,4.215721E0,0E0,0E0,0E0,0E0,0E0,0E0,0E0,0E0,0E0,0E0,0E0,0E0,0E0,0E0],"parents":[2147483647,0,0,1,1,2,2,3,3,4,4,5,5,6,6,7,7,8,8,9,9,10,10,11,11,12,12,14,14],"right_children":[2,4,6,8,10,12,14,16,18,20,22,24,26,-1,28,-1,-1,-1,-1,-1,-1,-1,-1,-1,-1,-1,-1,-1,-1],"split_conditions":[2.1E1,1.5E1,2.3E1,3E0,1.7E1,5E0,2E0,6E0,7E0,5E0,2E0,2E0,6E0,-1.11583015E-2,7E0,-3.2578636E-2,-8.409219E-3,3.3137307E-3,-3.447336E-2,1.181016E-1,3.8081852E-3,-5.868969E-2,1.0810289E-2,-4.584399E-2,-2.127969E-2,4.9368717E-2,-3.26801E-2,-5.481095E-2,-1.018598E-1],"split_indices":[1,1,1,1,1,0,0,0,0,0,0,0,0,0,0,0,0,0,0,0,0,0,0,0,0,0,0,0,0],"split_type":[0,0,0,0,0,0,0,0,0,0,0,0,0,0,0,0,0,0,0,0,0,0,0,0,0,0,0,0,0],"sum_hessian":[8.227E3,6.952E3,1.275E3,4.319E3,2.633E3,1.058E3,2.17E2,7.2E2,3.599E3,8.43E2,1.79E3,6.65E2,3.93E2,4.2E1,1.75E2,5.05E2,2.15E2,3.183E3,4.16E2,4.12E2,4.31E2,2.86E2,1.504E3,1.76E2,4.89E2,1.71E2,2.22E2,1.52E2,2.3E1],"tree_param":{"num_deleted":"0","num_feature":"2","num_nodes":"29","size_leaf_vector":"1"}},{"base_weights":[-1.0403463E-3,2.997099E-2,-2.4179818E-1,-8.364236E-2,1.260071E-1,-1.1324129E-1,-9.2811745E-1,7.0485204E-2,-3.6435986E-1,-2.6213408E-1,2.2509842E-1,-3.1465983E-1,2.3086283E-1,-1.845692E-1,-5.4713804E-1,-2.0854281E-2,6.995597E-2,-7.615107E-2,-2.6625508E-2,-4.600389E-4,-8.2298964E-2,2.7534101E-2,-1.9065615E-2,-1.150201E-2,-2.3306833E-1,7.413984E-2,-2.5415337E-2,-4.3244645E-2,-9.209823E-2],"categories":[],"categories_nodes":[],"categories_segments":[],"categories_sizes":[],"default_left":[0,0,0,0,0,0,0,0,0,0,0,0,0,0,0,0,0,0,0,0,0,0,0,0,0,0,0,0,0],"id":38,"left_children":[1,3,5,7,9,11,13,15,17,19,21,23,25,-1,27,-1,-1,-1,-1,-1,-1,-1,-1,-1,-1,-1,-1,-1,-1],"loss_changes":[6.1439323E1,7.955161E1,8.274387E1,1.4453514E2,1.5202008E2,5.496533E1,5.0727554E1,3.7876282E2,4.592871E1,1.16125336E2,6.580977E1,2.009711E2,7.274051E1,0E0,4.1466656E0,0E0,0E0,0E0,0E0,0E0,0E0,0E0,0E0,0E0,0E0,0E0,0E0,0E0,0E0],"parents":[2147483647,0,0,1,1,2,2,3,3,4,4,5,5,6,6,7,7,8,8,9,9,10,10,11,11,12,12,14,14],"right_children":[2,4,6,8,10,12,14,16,18,20,22,24,26,-1,28,-1,-1,-1,-1,-1,-1,-1,-1,-1,-1,-1,-1,-1,-1],"split_conditions":[7E0,4E0,2E1,1.8E1,8E0,1.4E1,2.1E1,1.3E1,1.9E1,6E0,2.2E1,1.3E1,1.7E1,-1.845692E-1,2.3E1,-2.0854281E-2,6.995597E-2,-7.615107E-2,-2.6625508E-2,-4.600389E-4,-8.2298964E-2,2.7534101E-2,-1.9065615E-2,-1.150201E-2,-2.3306833E-1,7.413984E-2,-2.5415337E-2,-4.3244645E-2,-9.209823E-2],"split_indices":[0,0,1,1,1,1,1,1,1,0,1,1,1,0,1,0,0,0,0,0,0,0,0,0,0,0,0,0,0],"split_type":[0,0,0,0,0,0,0,0,0,0,0,0,0,0,0,0,0,0,0,0,0,0,0,0,0,0,0,0,0],"sum_hessian":[8.227E3,7.289E3,9.38E2,3.339E3,3.95E3,7.91E2,1.47E2,2.156E3,1.183E3,8.03E2,3.147E3,4.99E2,2.92E2,4.2E1,1.05E2,1.494E3,6.62E2,2.33E2,9.5E2,5.51E2,2.52E2,2.808E3,3.39E2,4.55E2,4.4E1,1.42E2,1.5E2,8.2E1,2.3E1],"tree_param":{"num_deleted":"0","num_feature":"2","num_nodes":"29","size_leaf_vector":"1"}},{"base_weights":[-1.014634E-3,3.310539E-2,-1.8693587E-1,-4.2557094E-2,1.5718618E-1,-1.3505162E-1,-4.3812156E-1,-2.0770562E-1,-9.4696935E-3,4.9050096E-1,2.5456875E-5,-2.327392E-1,3.0417837E-2,-7.4678087E-3,-5.2442807E-1,-2.7999608E-2,-3.739692E-3,2.6718115E-3,-2.8575867E-2,1.0056374E-1,-3.1144443E-4,-5.2193284E-2,9.956168E-3,-3.8637977E-2,-1.7676549E-2,4.402602E-2,-2.8583018E-2,-8.0254816E-2,-4.31267E-2],"categories":[],"categories_nodes":[],"categories_segments":[],"categories_sizes":[],"default_left":[0,0,0,0,0,0,0,0,0,0,0,0,0,0,0,0,0,0,0,0,0,0,0,0,0,0,0,0,0],"id":39,"left_children":[1,3,5,7,9,11,13,15,17,19,21,23,25,-1,27,-1,-1,-1,-1,-1,-1,-1,-1,-1,-1,-1,-1,-1,-1],"loss_changes":[5.2201633E1,6.528328E1,1.65704E1,2.360396E1,1.3797943E2,1.7125086E1,6.7989616E0,8.866259E0,3.6001488E1,2.1461485E2,9.310115E1,5.6591873E0,5.1192898E1,0E0,4.2140427E0,0E0,0E0,0E0,0E0,0E0,0E0,0E0,0E0,0E0,0E0,0E0,0E0,0E0,0E0],"parents":[2147483647,0,0,1,1,2,2,3,3,4,4,5,5,6,6,7,7,8,8,9,9,10,10,11,11,12,12,14,14],"right_children":[2,4,6,8,10,12,14,16,18,20,22,24,26,-1,28,-1,-1,-1,-1,-1,-1,-1,-1,-1,-1,-1,-1,-1,-1],"split_conditions":[2.1E1,1.5E1,2.3E1,3E0,1.7E1,5E0,2E0,6E0,7E0,5E0,2E0,2E0,6E0,-7.4678087E-3,4E0,-2.7999608E-2,-3.739692E-3,2.6718115E-3,-2.8575867E-2,1.0056374E-1,-3.1144443E-4,-5.2193284E-2,9.956168E-3,-3.8637977E-2,-1.7676549E-2,4.402602E-2,-2.8583018E-2,-8.0254816E-2,-4.31267E-2],"split_indices":[1,1,1,1,1,0,0,0,0,0,0,0,0,0,0,0,0,0,0,0,0,0,0,0,0,0,0,0,0],"split_type":[0,0,0,0,0,0,0,0,0,0,0,0,0,0,0,0,0,0,0,0,0,0,0,0,0,0,0,0,0],"sum_hessian":[8.227E3,6.952E3,1.275E3,4.319E3,2.633E3,1.058E3,2.17E2,7.2E2,3.599E3,8.43E2,1.79E3,6.65E2,3.93E2,4.2E1,1.75E2,5.05E2,2.15E2,3.183E3,4.16E2,4.12E2,4.31E2,2.86E2,1.504E3,1.76E2,4.89E2,1.71E2,2.22E2,4.2E1,1.33E2],"tree_param":{"num_deleted":"0","num_feature":"2","num_nodes":"29","size_leaf_vector":"1"}},{"base_weights":[-9.341796E-4,2.5148898E-2,-2.034312E-1,-7.4895464E-2,1.09715596E-1,-8.837662E-2,-8.177542E-1,5.4171618E-2,-3.099654E-1,-2.3090474E-1,1.9667527E-1,-1.6022259E-1,7.176579E-2,-1.6751398E-1,-4.6223217E-1,-1.8384837E-2,5.908016E-2,-5.8556944E-2,-1.8198827E-2,3.5819173E-4,-7.4159935E-2,4.454368E-2,1.2058326E-2,-5.285976E-3,-9.5064454E-2,-3.614844E-2,-7.9139195E-2],"categories":[],"categories_nodes":[],"categories_segments":[],"categories_sizes":[],"default_left":[0,0,0,0,0,0,0,0,0,0,0,0,0,0,0,0,0,0,0,0,0,0,0,0,0,0,0],"id":40,"left_children":[1,3,5,7,9,11,13,15,17,19,21,23,-1,-1,25,-1,-1,-1,-1,-1,-1,-1,-1,-1,-1,-1,-1],"loss_changes":[4.3463326E1,6.1684692E1,6.629689E1,1.013517E2,1.1707495E2,4.5979965E1,4.4338966E1,2.7561932E2,4.1654312E1,9.62825E1,5.9534042E1,6.1729233E1,0E0,0E0,3.229107E0,0E0,0E0,0E0,0E0,0E0,0E0,0E0,0E0,0E0,0E0,0E0,0E0],"parents":[2147483647,0,0,1,1,2,2,3,3,4,4,5,5,6,6,7,7,8,8,9,9,10,10,11,11,14,14],"right_children":[2,4,6,8,10,12,14,16,18,20,22,24,-1,-1,26,-1,-1,-1,-1,-1,-1,-1,-1,-1,-1,-1,-1],"split_conditions":[7E0,4E0,2E1,1.8E1,8E0,1.9E1,2.1E1,1.3E1,2E1,6E0,1.2E1,1.7E1,7.176579E-2,-1.6751398E-1,2.3E1,-1.8384837E-2,5.908016E-2,-5.8556944E-2,-1.8198827E-2,3.5819173E-4,-7.4159935E-2,4.454368E-2,1.2058326E-2,-5.285976E-3,-9.5064454E-2,-3.614844E-2,-7.9139195E-2],"split_indices":[0,0,1,1,1,1,1,1,1,0,1,1,0,0,1,0,0,0,0,0,0,0,0,0,0,0,0],"split_type":[0,0,0,0,0,0,0,0,0,0,0,0,0,0,0,0,0,0,0,0,0,0,0,0,0,0,0],"sum_hessian":[8.227E3,7.289E3,9.38E2,3.339E3,3.95E3,7.91E2,1.47E2,2.156E3,1.183E3,8.03E2,3.147E3,7.27E2,6.4E1,4.2E1,1.05E2,1.494E3,6.62E2,3.74E2,8.09E2,5.51E2,2.52E2,7.36E2,2.411E3,6.41E2,8.6E1,8.2E1,2.3E1],"tree_param":{"num_deleted":"0","num_feature":"2","num_nodes":"27","size_leaf_vector":"1"}},{"base_weights":[-8.8514166E-4,2.8761141E-2,-1.6242881E-1,-3.870823E-2,1.3940613E-1,-1.1632801E-1,-3.856321E-1,-1.6165942E-2,-1.9319595E-1,4.1509232E-1,9.412528E-3,-2.000103E-1,2.5420057E-2,-4.960854E-3,-4.6553767E-1,-2.3245059E-2,1.8423289E-3,-7.699989E-3,-7.4890345E-2,8.599295E-2,-1.1141062E-3,-4.606204E-2,9.904047E-3,-1.1005226E-2,-2.7479608E-2,3.845016E-2,-2.5165368E-2,-6.1009254E-2,-3.1405E-2],"categories":[],"categories_nodes":[],"categories_segments":[],"categories_sizes":[],"default_left":[0,0,0,0,0,0,0,0,0,0,0,0,0,0,0,0,0,0,0,0,0,0,0,0,0,0,0,0,0],"id":41,"left_children":[1,3,5,7,9,11,13,15,17,19,21,23,25,-1,27,-1,-1,-1,-1,-1,-1,-1,-1,-1,-1,-1,-1,-1,-1],"loss_changes":[3.9409958E1,5.1910564E1,1.3084988E1,1.5041306E1,9.4391914E1,1.2566735E1,5.8302383E0,2.8215586E1,3.5456398E1,1.6003574E2,7.549701E1,4.450329E0,3.9296635E1,0E0,3.6624947E0,0E0,0E0,0E0,0E0,0E0,0E0,0E0,0E0,0E0,0E0,0E0,0E0,0E0,0E0],"parents":[2147483647,0,0,1,1,2,2,3,3,4,4,5,5,6,6,7,7,8,8,9,9,10,10,11,11,12,12,14,14],"right_children":[2,4,6,8,10,12,14,16,18,20,22,24,26,-1,28,-1,-1,-1,-1,-1,-1,-1,-1,-1,-1,-1,-1,-1,-1],"split_conditions":[2.1E1,1.5E1,2.3E1,7E0,1.7E1,5E0,2E0,2E0,1.3E1,5E0,2E0,2.2E1,6E0,-4.960854E-3,5E0,-2.3245059E-2,1.8423289E-3,-7.699989E-3,-7.4890345E-2,8.599295E-2,-1.1141062E-3,-4.606204E-2,9.904047E-3,-1.1005226E-2,-2.7479608E-2,3.845016E-2,-2.5165368E-2,-6.1009254E-2,-3.1405E-2],"split_indices":[1,1,1,0,1,0,0,1,1,0,0,1,0,0,0,0,0,0,0,0,0,0,0,0,0,0,0,0,0],"split_type":[0,0,0,0,0,0,0,0,0,0,0,0,0,0,0,0,0,0,0,0,0,0,0,0,0,0,0,0,0],"sum_hessian":[8.227E3,6.952E3,1.275E3,4.319E3,2.633E3,1.058E3,2.17E2,3.77E3,5.49E2,8.43E2,1.79E3,6.65E2,3.93E2,4.2E1,1.75E2,5.19E2,3.251E3,4.55E2,9.4E1,4.12E2,4.31E2,2.86E2,1.504E3,3.03E2,3.62E2,1.71E2,2.22E2,8.8E1,8.7E1],"tree_param":{"num_deleted":"0","num_feature":"2","num_nodes":"29","size_leaf_vector":"1"}},{"base_weights":[-8.183353E-4,2.5876956E-2,-1.4628193E-1,-3.486162E-2,1.2548393E-1,-1.04718946E-1,-3.4751543E-1,5.940558E-2,-6.9566466E-2,3.7368363E-1,8.450974E-3,-1.8006703E-1,2.2911882E-2,-2.3921107E-1,-5.8290434E-1,-6.544377E-3,9.796299E-2,-2.3363586E-5,-2.8870905E-2,7.741449E-2,-1.0029749E-3,-4.1471846E-2,8.914278E-3,-3.1073023E-2,-1.3250082E-2,3.46275E-2,-2.2660097E-2,-3.8820025E-2,7.015886E-2,-5.1525798E-2,-6.854537E-2],"categories":[],"categories_nodes":[],"categories_segments":[],"categories_sizes":[],"default_left":[0,0,0,0,0,0,0,0,0,0,0,0,0,0,0,0,0,0,0,0,0,0,0,0,0,0,0,0,0,0,0],"id":42,"left_children":[1,3,5,7,9,11,13,15,17,19,21,23,25,27,29,-1,-1,-1,-1,-1,-1,-1,-1,-1,-1,-1,-1,-1,-1,-1,-1],"loss_changes":[3.1954695E1,4.2069927E1,1.0635899E1,1.4137136E1,7.650807E1,1.0188254E1,5.4181786E0,1.336805E2,4.7981873E1,1.2969878E2,6.1193E1,4.0981197E0,3.1867668E1,2.143787E1,1.185379E-1,0E0,0E0,0E0,0E0,0E0,0E0,0E0,0E0,0E0,0E0,0E0,0E0,0E0,0E0,0E0,0E0],"parents":[2147483647,0,0,1,1,2,2,3,3,4,4,5,5,6,6,7,7,8,8,9,9,10,10,11,11,12,12,13,13,14,14],"right_children":[2,4,6,8,10,12,14,16,18,20,22,24,26,28,30,-1,-1,-1,-1,-1,-1,-1,-1,-1,-1,-1,-1,-1,-1,-1,-1],"split_conditions":[2.1E1,1.5E1,2.3E1,3E0,1.7E1,5E0,6E0,1.3E1,1.2E1,5E0,2E0,2E0,6E0,5E0,7E0,-6.544377E-3,9.796299E-2,-2.3363586E-5,-2.8870905E-2,7.741449E-2,-1.0029749E-3,-4.1471846E-2,8.914278E-3,-3.1073023E-2,-1.3250082E-2,3.46275E-2,-2.2660097E-2,-3.8820025E-2,7.015886E-2,-5.1525798E-2,-6.854537E-2],"split_indices":[1,1,1,0,1,0,0,1,1,0,0,0,0,0,0,0,0,0,0,0,0,0,0,0,0,0,0,0,0,0,0],"split_type":[0,0,0,0,0,0,0,0,0,0,0,0,0,0,0,0,0,0,0,0,0,0,0,0,0,0,0,0,0,0,0],"sum_hessian":[8.227E3,6.952E3,1.275E3,4.319E3,2.633E3,1.058E3,2.17E2,1.162E3,3.157E3,8.43E2,1.79E3,6.65E2,3.93E2,1.5E2,6.7E1,1.024E3,1.38E2,2.399E3,7.58E2,4.12E2,4.31E2,2.86E2,1.504E3,1.76E2,4.89E2,1.71E2,2.22E2,1.3E2,2E1,4.4E1,2.3E1],"tree_param":{"num_deleted":"0","num_feature":"2","num_nodes":"31","size_leaf_vector":"1"}},{"base_weights":[-7.383221E-4,2.0496994E-2,-1.6559958E-1,-6.995788E-2,9.695835E-2,-6.530373E-2,-7.0119905E-1,2.487062E-2,-2.802855E-1,-2.0132962E-1,1.7311037E-1,-3.4391618E-1,1.450329E-1,-1.5299019E-1,-3.5841206E-1,2.0608304E-2,-3.197838E-2,3.2846563E-2,-4.118296E-2,2.4947114E-2,-4.37448E-2,3.991359E-2,1.03975255E-2,8.507241E-2,-4.370458E-2,8.492505E-2,-3.7292838E-3,-2.7852206E-2,-6.1976444E-2],"categories":[],"categories_nodes":[],"categories_segments":[],"categories_sizes":[],"default_left":[0,0,0,0,0,0,0,0,0,0,0,0,0,0,0,0,0,0,0,0,0,0,0,0,0,0,0,0,0],"id":43,"left_children":[1,3,5,7,9,11,13,15,17,19,21,23,25,-1,27,-1,-1,-1,-1,-1,-1,-1,-1,-1,-1,-1,-1,-1,-1],"loss_changes":[2.8808645E1,5.0426624E1,5.0395798E1,6.662345E1,8.978273E1,4.646298E1,4.1493813E1,1.4390129E2,8.325587E1,8.568875E1,4.915011E1,3.8310238E1,5.80671E1,0E0,2.0406017E0,0E0,0E0,0E0,0E0,0E0,0E0,0E0,0E0,0E0,0E0,0E0,0E0,0E0,0E0],"parents":[2147483647,0,0,1,1,2,2,3,3,4,4,5,5,6,6,7,7,8,8,9,9,10,10,11,11,12,12,14,14],"right_children":[2,4,6,8,10,12,14,16,18,20,22,24,26,-1,28,-1,-1,-1,-1,-1,-1,-1,-1,-1,-1,-1,-1,-1,-1],"split_conditions":[7E0,4E0,2E1,3E0,8E0,1E1,2.1E1,1.8E1,5E0,5E0,1.2E1,1E0,1.2E1,-1.5299019E-1,2.3E1,2.0608304E-2,-3.197838E-2,3.2846563E-2,-4.118296E-2,2.4947114E-2,-4.37448E-2,3.991359E-2,1.03975255E-2,8.507241E-2,-4.370458E-2,8.492505E-2,-3.7292838E-3,-2.7852206E-2,-6.1976444E-2],"split_indices":[0,0,1,0,1,1,1,1,1,0,1,1,1,0,1,0,0,0,0,0,0,0,0,0,0,0,0,0,0],"split_type":[0,0,0,0,0,0,0,0,0,0,0,0,0,0,0,0,0,0,0,0,0,0,0,0,0,0,0,0,0],"sum_hessian":[8.227E3,7.289E3,9.38E2,3.339E3,3.95E3,7.91E2,1.47E2,2.302E3,1.037E3,8.03E2,3.147E3,3.4E2,4.51E2,4.2E1,1.05E2,1.509E3,7.93E2,1.84E2,8.53E2,2.76E2,5.27E2,7.36E2,2.411E3,2.4E1,3.16E2,9.2E1,3.59E2,8.2E1,2.3E1],"tree_param":{"num_deleted":"0","num_feature":"2","num_nodes":"29","size_leaf_vector":"1"}},{"base_weights":[-6.77615E-4,1.844899E-2,-1.4916779E-1,-6.296809E-2,8.727071E-2,-5.861871E-2,-6.327198E-1,2.2378415E-2,-2.5226486E-1,-1.812199E-1,1.5581556E-1,-2.305981E-1,2.3506156E-1,-1.3804695E-1,-3.2341838E-1,1.85488E-2,-2.8784556E-2,2.9579675E-2,-3.7069473E-2,1.9226704E-3,-6.1784174E-2,3.5927687E-2,9.358223E-3,-5.8975434E-3,-1.9645835E-1,7.2456144E-2,-2.300612E-2,-2.5100553E-2,-5.603704E-2],"categories":[],"categories_nodes":[],"categories_segments":[],"categories_sizes":[],"default_left":[0,0,0,0,0,0,0,0,0,0,0,0,0,0,0,0,0,0,0,0,0,0,0,0,0,0,0,0,0],"id":44,"left_children":[1,3,5,7,9,11,13,15,17,19,21,23,25,-1,27,-1,-1,-1,-1,-1,-1,-1,-1,-1,-1,-1,-1,-1,-1],"loss_changes":[2.33712E1,4.085328E1,4.10772E1,5.3966072E1,7.274106E1,4.0055714E1,3.3782978E1,1.1658634E2,6.7482994E1,7.037744E1,3.982659E1,1.4867975E2,6.6876205E1,0E0,1.6781311E0,0E0,0E0,0E0,0E0,0E0,0E0,0E0,0E0,0E0,0E0,0E0,0E0,0E0,0E0],"parents":[2147483647,0,0,1,1,2,2,3,3,4,4,5,5,6,6,7,7,8,8,9,9,10,10,11,11,12,12,14,14],"right_children":[2,4,6,8,10,12,14,16,18,20,22,24,26,-1,28,-1,-1,-1,-1,-1,-1,-1,-1,-1,-1,-1,-1,-1,-1],"split_conditions":[7E0,4E0,2E1,3E0,8E0,1.4E1,2.1E1,1.8E1,5E0,6E0,1.2E1,1.3E1,1.7E1,-1.3804695E-1,2.3E1,1.85488E-2,-2.8784556E-2,2.9579675E-2,-3.7069473E-2,1.9226704E-3,-6.1784174E-2,3.5927687E-2,9.358223E-3,-5.8975434E-3,-1.9645835E-1,7.2456144E-2,-2.300612E-2,-2.5100553E-2,-5.603704E-2],"split_indices":[0,0,1,0,1,1,1,1,1,0,1,1,1,0,1,0,0,0,0,0,0,0,0,0,0,0,0,0,0],"split_type":[0,0,0,0,0,0,0,0,0,0,0,0,0,0,0,0,0,0,0,0,0,0,0,0,0,0,0,0,0],"sum_hessian":[8.227E3,7.289E3,9.38E2,3.339E3,3.95E3,7.91E2,1.47E2,2.302E3,1.037E3,8.03E2,3.147E3,4.99E2,2.92E2,4.2E1,1.05E2,1.509E3,7.93E2,1.84E2,8.53E2,5.51E2,2.52E2,7.36E2,2.411E3,4.55E2,4.4E1,1.42E2,1.5E2,8.2E1,2.3E1],"tree_param":{"num_deleted":"0","num_feature":"2","num_nodes":"29","size_leaf_vector":"1"}},{"base_weights":[-6.5883825E-4,-7.01501E-2,3.5649024E-2,-4.8497E-2,-2.9486743E-1,7.956157E-2,-1.0650963E-1,3.4081783E-2,-2.566827E-1,-2.618623E0,5.975438E-1,1.7237969E-1,-2.3189532E-2,-5.879668E-2,-2.6853094E-1,-1.4598279E-2,2.1508692E-2,8.619356E-4,-5.6091066E-2,-3.020074E-1,-1.7400667E-1,4.59118E-2,1.4374188E-1,-7.666632E-4,7.118697E-2,-1.3324092E-2,2.5375554E-2,-1.5229518E-2,3.2913875E-2,-1.9697396E-2,-4.992467E-2],"categories":[],"categories_nodes":[],"categories_segments":[],"categories_sizes":[],"default_left":[0,0,0,0,0,0,0,0,0,0,0,0,0,0,0,0,0,0,0,0,0,0,0,0,0,0,0,0,0,0,0],"id":45,"left_children":[1,3,5,7,9,11,13,15,17,19,21,23,25,27,29,-1,-1,-1,-1,-1,-1,-1,-1,-1,-1,-1,-1,-1,-1,-1,-1],"loss_changes":[2.0762398E1,1.3726795E1,3.374945E1,4.4311813E1,5.1585364E2,3.9392487E1,9.848347E0,6.0197357E1,5.908624E1,1.9080963E1,2.0266907E1,2.1078448E2,5.9801544E1,3.584997E1,4.6893635E0,0E0,0E0,0E0,0E0,0E0,0E0,0E0,0E0,0E0,0E0,0E0,0E0,0E0,0E0,0E0,0E0],"parents":[2147483647,0,0,1,1,2,2,3,3,4,4,5,5,6,6,7,7,8,8,9,9,10,10,11,11,12,12,13,13,14,14],"right_children":[2,4,6,8,10,12,14,16,18,20,22,24,26,28,30,-1,-1,-1,-1,-1,-1,-1,-1,-1,-1,-1,-1,-1,-1,-1,-1],"split_conditions":[1.1E1,1E1,2.1E1,6E0,5E0,5E0,6E0,6E0,5E0,4E0,7E0,4E0,1.8E1,5E0,2.3E1,-1.4598279E-2,2.1508692E-2,8.619356E-4,-5.6091066E-2,-3.020074E-1,-1.7400667E-1,4.59118E-2,1.4374188E-1,-7.666632E-4,7.118697E-2,-1.3324092E-2,2.5375554E-2,-1.5229518E-2,3.2913875E-2,-1.9697396E-2,-4.992467E-2],"split_indices":[1,1,1,0,0,0,0,1,1,0,0,0,1,0,1,0,0,0,0,0,0,0,0,0,0,0,0,0,0,0,0],"split_type":[0,0,0,0,0,0,0,0,0,0,0,0,0,0,0,0,0,0,0,0,0,0,0,0,0,0,0,0,0,0,0],"sum_hessian":[8.227E3,2.823E3,5.404E3,2.576E3,2.47E2,4.129E3,1.275E3,1.845E3,7.31E2,6.8E1,1.79E2,2.169E3,1.96E3,9.86E2,2.89E2,9.25E2,9.2E2,3.91E2,3.4E2,4.5E1,2.3E1,1.55E2,2.4E1,1.627E3,5.42E2,1.403E3,5.57E2,7.95E2,1.91E2,2.22E2,6.7E1],"tree_param":{"num_deleted":"0","num_feature":"2","num_nodes":"31","size_leaf_vector":"1"}},{"base_weights":[-6.29817E-4,1.5823197E-2,-1.2836342E-1,-5.0572176E-2,7.194689E-2,-4.764327E-2,-5.594579E-1,2.5564063E-2,-2.1944615E-1,-1.5636586E-1,1.3023517E-1,-2.855094E-1,1.3191424E-1,-1.2704179E-1,-2.6577175E-1,1.7125463E-2,-2.5153711E-2,2.8089583E-2,-3.275771E-2,2.2525173E-2,-3.5627436E-2,3.211977E-2,7.183152E-3,4.21792E-3,-5.6205865E-2,6.6426426E-2,-5.171933E-3,-2.0674739E-2,-4.5882385E-2],"categories":[],"categories_nodes":[],"categories_segments":[],"categories_sizes":[],"default_left":[0,0,0,0,0,0,0,0,0,0,0,0,0,0,0,0,0,0,0,0,0,0,0,0,0,0,0,0,0],"id":46,"left_children":[1,3,5,7,9,11,13,15,17,19,21,23,25,-1,27,-1,-1,-1,-1,-1,-1,-1,-1,-1,-1,-1,-1,-1,-1],"loss_changes":[1.7294018E1,2.7168756E1,3.2648674E1,4.2949417E1,5.2600098E1,3.38645E1,3.0564625E1,9.3017555E1,5.6250347E1,6.1416294E1,3.5086285E1,3.092582E1,4.422067E1,0E0,1.1129856E0,0E0,0E0,0E0,0E0,0E0,0E0,0E0,0E0,0E0,0E0,0E0,0E0,0E0,0E0],"parents":[2147483647,0,0,1,1,2,2,3,3,4,4,5,5,6,6,7,7,8,8,9,9,10,10,11,11,12,12,14,14],"right_children":[2,4,6,8,10,12,14,16,18,20,22,24,26,-1,28,-1,-1,-1,-1,-1,-1,-1,-1,-1,-1,-1,-1,-1,-1],"split_conditions":[7E0,4E0,2E1,3E0,8E0,1E1,2.1E1,1.8E1,5E0,5E0,1.2E1,4E0,1.3E1,-1.2704179E-1,2.3E1,1.7125463E-2,-2.5153711E-2,2.8089583E-2,-3.275771E-2,2.2525173E-2,-3.5627436E-2,3.211977E-2,7.183152E-3,4.21792E-3,-5.6205865E-2,6.6426426E-2,-5.171933E-3,-2.0674739E-2,-4.5882385E-2],"split_indices":[0,0,1,0,1,1,1,1,1,0,1,1,1,0,1,0,0,0,0,0,0,0,0,0,0,0,0,0,0],"split_type":[0,0,0,0,0,0,0,0,0,0,0,0,0,0,0,0,0,0,0,0,0,0,0,0,0,0,0,0,0],"sum_hessian":[8.227E3,7.289E3,9.38E2,3.339E3,3.95E3,7.91E2,1.47E2,2.302E3,1.037E3,8.03E2,3.147E3,3.4E2,4.51E2,4.2E1,1.05E2,1.509E3,7.93E2,1.84E2,8.53E2,2.76E2,5.27E2,7.36E2,2.411E3,1.56E2,1.84E2,1.15E2,3.36E2,8.2E1,2.3E1],"tree_param":{"num_deleted":"0","num_feature":"2","num_nodes":"29","size_leaf_vector":"1"}},{"base_weights":[-5.876893E-4,-5.587817E-2,4.403091E-2,-2.3387838E-2,-4.2131644E-1,1.3726096E-1,-7.195427E-2,-6.622551E-2,1.9541317E-1,-1.3961885E0,2.8299895E-1,5.725615E-1,-1.0418092E-1,-9.222197E-1,-1.28142005E-2,-4.413495E-3,-2.9550431E-2,-1.5718156E-2,4.8898425E-2,-7.544504E-2,-1.7814319E-1,9.5471956E-2,-2.6698997E-2,4.404202E-2,9.3673356E-2,-2.264149E-2,1.2595467E-3,-4.861902E-2,-1.754406E-1,-1.6424041E-2,1.12949E-2],"categories":[],"categories_nodes":[],"categories_segments":[],"categories_sizes":[],"default_left":[0,0,0,0,0,0,0,0,0,0,0,0,0,0,0,0,0,0,0,0,0,0,0,0,0,0,0,0,0,0,0],"id":47,"left_children":[1,3,5,7,9,11,13,15,17,19,21,23,25,27,29,-1,-1,-1,-1,-1,-1,-1,-1,-1,-1,-1,-1,-1,-1,-1,-1],"loss_changes":[2.0300802E1,4.3624195E1,4.925367E1,3.1655937E1,2.0638034E2,2.654366E2,1.0206624E2,1.4290225E1,5.731878E1,2.9806366E1,6.490671E1,4.2945526E1,2.3198166E1,4.704425E1,3.6182808E1,0E0,0E0,0E0,0E0,0E0,0E0,0E0,0E0,0E0,0E0,0E0,0E0,0E0,0E0,0E0,0E0],"parents":[2147483647,0,0,1,1,2,2,3,3,4,4,5,5,6,6,7,7,8,8,9,9,10,10,11,11,12,12,13,13,14,14],"right_children":[2,4,6,8,10,12,14,16,18,20,22,24,26,28,30,-1,-1,-1,-1,-1,-1,-1,-1,-1,-1,-1,-1,-1,-1,-1,-1],"split_conditions":[1.3E1,1.2E1,5E0,1.1E1,5E0,1.8E1,1.4E1,1E1,4E0,3E0,6E0,4E0,3E0,7E0,1.8E1,-4.413495E-3,-2.9550431E-2,-1.5718156E-2,4.8898425E-2,-7.544504E-2,-1.7814319E-1,9.5471956E-2,-2.6698997E-2,4.404202E-2,9.3673356E-2,-2.264149E-2,1.2595467E-3,-4.861902E-2,-1.754406E-1,-1.6424041E-2,1.12949E-2],"split_indices":[1,1,0,1,0,1,1,1,0,0,0,0,0,0,1,0,0,0,0,0,0,0,0,0,0,0,0,0,0,0,0],"split_type":[0,0,0,0,0,0,0,0,0,0,0,0,0,0,0,0,0,0,0,0,0,0,0,0,0,0,0,0,0,0,0],"sum_hessian":[8.227E3,3.674E3,4.553E3,3.375E3,2.99E2,2.524E3,2.029E3,2.823E3,5.52E2,1.25E2,1.74E2,9E2,1.624E3,1.31E2,1.898E3,2.576E3,2.47E2,2.51E2,3.01E2,4.8E1,7.7E1,7.8E1,9.6E1,6.62E2,2.38E2,7.93E2,8.31E2,8.7E1,4.4E1,8.61E2,1.037E3],"tree_param":{"num_deleted":"0","num_feature":"2","num_nodes":"31","size_leaf_vector":"1"}},{"base_weights":[-5.652838E-4,-5.0340794E-2,3.9602824E-2,-2.1049203E-2,-3.7980103E-1,9.8728746E-2,-1.1187185E-1,-5.9614882E-2,1.7593186E-1,-1.2585826E0,2.5509197E-1,2.1893752E-1,-1.8425664E-2,2.4999504E-1,-2.8227824E-1,-3.972307E-3,-2.660729E-2,-1.4152548E-2,4.4024747E-2,-6.805449E-2,-1.6055731E-1,8.604558E-2,-2.4056612E-2,4.1716136E-2,-3.5249114E-2,-1.4261852E-2,4.713778E-2,-8.364663E-2,6.4621024E-2,-4.7267042E-2,-1.430794E-2],"categories":[],"categories_nodes":[],"categories_segments":[],"categories_sizes":[],"default_left":[0,0,0,0,0,0,0,0,0,0,0,0,0,0,0,0,0,0,0,0,0,0,0,0,0,0,0,0,0,0,0],"id":48,"left_children":[1,3,5,7,9,11,13,15,17,19,21,23,25,27,29,-1,-1,-1,-1,-1,-1,-1,-1,-1,-1,-1,-1,-1,-1,-1,-1],"loss_changes":[1.645296E1,3.545728E1,4.0797028E1,2.5656975E1,1.6770074E2,4.61399E1,7.893938E1,1.1587104E1,4.6463943E1,2.4179596E1,5.271635E1,1.8330588E2,1.01045166E2,1.7703423E2,2.2989433E1,0E0,0E0,0E0,0E0,0E0,0E0,0E0,0E0,0E0,0E0,0E0,0E0,0E0,0E0,0E0,0E0],"parents":[2147483647,0,0,1,1,2,2,3,3,4,4,5,5,6,6,7,7,8,8,9,9,10,10,11,11,12,12,13,13,14,14],"right_children":[2,4,6,8,10,12,14,16,18,20,22,24,26,28,30,-1,-1,-1,-1,-1,-1,-1,-1,-1,-1,-1,-1,-1,-1,-1,-1],"split_conditions":[1.3E1,1.2E1,6E0,1.1E1,5E0,1.9E1,1.6E1,1E1,4E0,3E0,6E0,5E0,5E0,1.4E1,1.9E1,-3.972307E-3,-2.660729E-2,-1.4152548E-2,4.4024747E-2,-6.805449E-2,-1.6055731E-1,8.604558E-2,-2.4056612E-2,4.1716136E-2,-3.5249114E-2,-1.4261852E-2,4.713778E-2,-8.364663E-2,6.4621024E-2,-4.7267042E-2,-1.430794E-2],"split_indices":[1,1,0,1,0,1,1,1,0,0,0,0,0,1,1,0,0,0,0,0,0,0,0,0,0,0,0,0,0,0,0],"split_type":[0,0,0,0,0,0,0,0,0,0,0,0,0,0,0,0,0,0,0,0,0,0,0,0,0,0,0,0,0,0,0],"sum_hessian":[8.227E3,3.674E3,4.553E3,3.375E3,2.99E2,3.275E3,1.278E3,2.823E3,5.52E2,1.25E2,1.74E2,1.616E3,1.659E3,4.09E2,8.69E2,2.576E3,2.47E2,2.51E2,3.01E2,4.8E1,7.7E1,7.8E1,9.6E1,1.2E3,4.16E2,1.324E3,3.35E2,1.09E2,3E2,3.66E2,5.03E2],"tree_param":{"num_deleted":"0","num_feature":"2","num_nodes":"31","size_leaf_vector":"1"}},{"base_weights":[-5.3393183E-4,-1.3608994E-1,1.2483704E-2,-2.3064107E-1,8.603492E-2,4.5324482E-2,-6.8270124E-2,-6.299861E-2,-2.9396343E-1,2.2215949E-1,-1.1835853E-2,4.8295808E-1,-7.3002297E-3,-6.6418856E-1,1.4219779E-2,-2.8944492E-2,6.211474E-3,-3.1582475E-2,-2.2896094E-2,-8.837136E-3,4.0501133E-2,-1.7740699E-3,1.8575414E-1,-2.1859478E-2,8.88681E-3,-1.7442877E-3,-1.9574817E-1,2.388994E-2,-2.5412086E-2],"categories":[],"categories_nodes":[],"categories_segments":[],"categories_sizes":[],"default_left":[0,0,0,0,0,0,0,0,0,0,0,0,0,0,0,0,0,0,0,0,0,0,0,0,0,0,0,0,0],"id":49,"left_children":[1,3,5,7,9,11,13,15,17,19,-1,21,23,25,27,-1,-1,-1,-1,-1,-1,-1,-1,-1,-1,-1,-1,-1,-1],"loss_changes":[1.452098E1,1.5162399E1,1.991445E1,5.352932E0,6.0360556E0,1.229395E2,1.0672984E2,3.9843826E0,4.492092E-1,7.41734E0,0E0,3.9440146E2,9.686381E1,2.2078384E2,1.1509531E2,0E0,0E0,0E0,0E0,0E0,0E0,0E0,0E0,0E0,0E0,0E0,0E0,0E0,0E0],"parents":[2147483647,0,0,1,1,2,2,3,3,4,4,5,5,6,6,7,7,8,8,9,9,11,11,12,12,13,13,14,14],"right_children":[2,4,6,8,10,12,14,16,18,20,-1,22,24,26,28,-1,-1,-1,-1,-1,-1,-1,-1,-1,-1,-1,-1,-1,-1],"split_conditions":[3E0,6E0,6E0,2E0,2E0,7E0,7E0,1E0,5E0,1E0,-1.1835853E-2,6E0,1.3E1,5E0,1.6E1,-2.8944492E-2,6.211474E-3,-3.1582475E-2,-2.2896094E-2,-8.837136E-3,4.0501133E-2,-1.7740699E-3,1.8575414E-1,-2.1859478E-2,8.88681E-3,-1.7442877E-3,-1.9574817E-1,2.388994E-2,-2.5412086E-2],"split_indices":[1,0,0,0,1,1,1,1,0,1,0,1,1,1,1,0,0,0,0,0,0,0,0,0,0,0,0,0,0],"split_type":[0,0,0,0,0,0,0,0,0,0,0,0,0,0,0,0,0,0,0,0,0,0,0,0,0,0,0,0,0],"sum_hessian":[8.227E3,7.2E2,7.507E3,5.05E2,2.15E2,5.337E3,2.17E3,1.39E2,3.66E2,1.29E2,8.6E1,5.72E2,4.765E3,2.63E2,1.907E3,4.9E1,9E1,2.71E2,9.5E1,4.8E1,8.1E1,4.2E2,1.52E2,1.49E3,3.275E3,1.76E2,8.7E1,1.038E3,8.69E2],"tree_param":{"num_deleted":"0","num_feature":"2","num_nodes":"29","size_leaf_vector":"1"}}]},"name":"gbtree"},"learner_model_param":{"base_score":"[1.4051051E1]","boost_from_average":"1","num_class":"0","num_feature":"2","num_target":"1"},"objective":{"name":"reg:squarederror","reg_loss_param":{"scale_pos_weight":"1"}}},"version":[3,2,0]}