{"learner":{"attributes":{},"feature_names":["day_of_week","hour_of_day"],"feature_types":[],"gradient_booster":{"model":{"cats":{"enc":[],"feature_segments":[],"sorted_idx":[]},"gbtree_model_param":{"num_parallel_tree":"1","num_trees":"50"},"iteration_indptr":[0,1,2,3,4,5,6,7,8,9,10,11,12,13,14,15,16,17,18,19,20,21,22,23,24,25,26,27,28,29,30,31,32,33,34,35,36,37,38,39,40,41,42,43,44,45,46,47,48,49,50],"tree_info":[0,0,0,0,0,0,0,0,0,0,0,0,0,0,0,0,0,0,0,0,0,0,0,0,0,0,0,0,0,0,0,0,0,0,0,0,0,0,0,0,0,0,0,0,0,0,0,0,0,0],"trees":[{"base_weights":[1.692913E-7,-7.7616E-1,9.373627E-1,-2.6938775E-1,-4.7653788E-1,-3.0992046E-2,-7.790177E-1,-1.2460317E-1,-1.704544E-2],"categories":[],"categories_nodes":[],"categories_segments":[],"categories_sizes":[],"default_left":[0,0,0,0,0,0,0,0,0],"id":0,"left_children":[1,3,-1,-1,5,-1,7,-1,-1],"loss_changes":[1.236824E3,8.892698E1,0E0,0E0,6.663147E0,0E0,1.3429569E1,0E0,0E0],"parents":[2147483647,0,0,1,1,4,4,6,6],"right_children":[2,4,-1,-1,6,-1,8,-1,-1],"split_conditions":[1.2E1,4E0,9.373627E-1,-2.6938775E-1,3E0,-3.0992046E-2,4E0,-1.2460317E-1,-1.704544E-2],"split_indices":[1,0,0,0,1,0,1,0,0],"split_type":[0,0,0,0,0,0,0,0,0],"sum_hessian":[1.68E2,1.56E2,1.2E1,2E1,1.36E2,8.9E1,4.7E1,2.6E1,2.1E1],"tree_param":{"num_deleted":"0","num_feature":"2","num_nodes":"9","size_leaf_vector":"1"}},{"base_weights":[2.9311632E-3,-7.013594E-1,8.508369E-1,-2.4373177E-1,-4.3014422E-1,-2.7927278E-2,-7.040669E-1,-1.12604335E-1,-1.5418365E-2],"categories":[],"categories_nodes":[],"categories_segments":[],"categories_sizes":[],"default_left":[0,0,0,0,0,0,0,0,0],"id":1,"left_children":[1,3,-1,-1,5,-1,7,-1,-1],"loss_changes":[1.01832794E3,7.287006E1,0E0,0E0,5.465185E0,0E0,1.0964197E1,0E0,0E0],"parents":[2147483647,0,0,1,1,4,4,6,6],"right_children":[2,4,-1,-1,6,-1,8,-1,-1],"split_conditions":[1.2E1,4E0,8.508369E-1,-2.4373177E-1,3E0,-2.7927278E-2,4E0,-1.12604335E-1,-1.5418365E-2],"split_indices":[1,0,0,0,1,0,1,0,0],"split_type":[0,0,0,0,0,0,0,0,0],"sum_hessian":[1.68E2,1.56E2,1.2E1,2E1,1.36E2,8.9E1,4.7E1,2.6E1,2.1E1],"tree_param":{"num_deleted":"0","num_feature":"2","num_nodes":"9","size_leaf_vector":"1"}},{"base_weights":[5.307714E-3,-6.337691E-1,7.722981E-1,-2.2051919E-1,-3.8826802E-1,-2.5165567E-2,-6.363273E-1,-1.0176096E-1,-1.3946592E-2],"categories":[],"categories_nodes":[],"categories_segments":[],"categories_sizes":[],"default_left":[0,0,0,0,0,0,0,0,0],"id":2,"left_children":[1,3,-1,-1,5,-1,7,-1,-1],"loss_changes":[8.384341E2,5.9712193E1,0E0,0E0,4.4825134E0,0E0,8.951412E0,0E0,0E0],"parents":[2147483647,0,0,1,1,4,4,6,6],"right_children":[2,4,-1,-1,6,-1,8,-1,-1],"split_conditions":[1.2E1,4E0,7.722981E-1,-2.2051919E-1,3E0,-2.5165567E-2,4E0,-1.0176096E-1,-1.3946592E-2],"split_indices":[1,0,0,0,1,0,1,0,0],"split_type":[0,0,0,0,0,0,0,0,0],"sum_hessian":[1.68E2,1.56E2,1.2E1,2E1,1.36E2,8.9E1,4.7E1,2.6E1,2.1E1],"tree_param":{"num_deleted":"0","num_feature":"2","num_nodes":"9","size_leaf_vector":"1"}},{"base_weights":[7.2082737E-3,-5.726941E-1,7.0100904E-1,-1.9951738E0,-3.5046953E-1,-1.7373045E-1,-2.9632884E-1,-2.2676973E-2,-5.7510525E-1,-9.196177E-2,-1.2615332E-2],"categories":[],"categories_nodes":[],"categories_segments":[],"categories_sizes":[],"default_left":[0,0,0,0,0,0,0,0,0,0,0],"id":3,"left_children":[1,3,-1,5,7,-1,-1,-1,9,-1,-1],"loss_changes":[6.903216E2,4.893001E1,0E0,9.4451904E-2,3.6764565E0,0E0,0E0,0E0,7.3081264E0,0E0,0E0],"parents":[2147483647,0,0,1,1,3,3,4,4,8,8],"right_children":[2,4,-1,6,8,-1,-1,-1,10,-1,-1],"split_conditions":[1.2E1,4E0,7.0100904E-1,2E0,3E0,-1.7373045E-1,-2.9632884E-1,-2.2676973E-2,4E0,-9.196177E-2,-1.2615332E-2],"split_indices":[1,0,0,1,1,0,0,0,1,0,0],"split_type":[0,0,0,0,0,0,0,0,0,0,0],"sum_hessian":[1.68E2,1.56E2,1.2E1,2E1,1.36E2,1.8E1,2E0,8.9E1,4.7E1,2.6E1,2.1E1],"tree_param":{"num_deleted":"0","num_feature":"2","num_nodes":"11","size_leaf_vector":"1"}},{"base_weights":[7.101008E-3,-5.192293E-1,6.363005E-1,-1.8180403E0,-3.1635147E-1,-1.5727179E-1,-2.7657357E-1,-2.0434476E-2,-5.1977336E-1,-8.3106175E-2,-1.1411154E-2],"categories":[],"categories_nodes":[],"categories_segments":[],"categories_sizes":[],"default_left":[0,0,0,0,0,0,0,0,0,0,0],"id":4,"left_children":[1,3,-1,5,7,-1,-1,-1,9,-1,-1],"loss_changes":[5.6866034E2,4.079435E1,0E0,5.325928E-1,3.0152779E0,0E0,0E0,0E0,5.966501E0,0E0,0E0],"parents":[2147483647,0,0,1,1,3,3,4,4,8,8],"right_children":[2,4,-1,6,8,-1,-1,-1,10,-1,-1],"split_conditions":[1.2E1,4E0,6.363005E-1,2E0,3E0,-1.5727179E-1,-2.7657357E-1,-2.0434476E-2,4E0,-8.3106175E-2,-1.1411154E-2],"split_indices":[1,0,0,1,1,0,0,0,1,0,0],"split_type":[0,0,0,0,0,0,0,0,0,0,0],"sum_hessian":[1.68E2,1.56E2,1.2E1,2E1,1.36E2,1.8E1,2E0,8.9E1,4.7E1,2.6E1,2.1E1],"tree_param":{"num_deleted":"0","num_feature":"2","num_nodes":"11","size_leaf_vector":"1"}},{"base_weights":[6.908665E-3,-4.7080192E-1,5.7756513E-1,-1.6568954E0,-2.8555545E-1,-1.4237234E-1,-2.5813532E-1,-1.841374E-2,-4.6976528E-1,-7.510338E-2,-1.0321912E-2],"categories":[],"categories_nodes":[],"categories_segments":[],"categories_sizes":[],"default_left":[0,0,0,0,0,0,0,0,0,0,0],"id":5,"left_children":[1,3,-1,5,7,-1,-1,-1,9,-1,-1],"loss_changes":[4.684476E2,3.4022846E1,0E0,8.515816E-1,2.4729605E0,0E0,0E0,0E0,4.8711767E0,0E0,0E0],"parents":[2147483647,0,0,1,1,3,3,4,4,8,8],"right_children":[2,4,-1,6,8,-1,-1,-1,10,-1,-1],"split_conditions":[1.2E1,4E0,5.7756513E-1,2E0,3E0,-1.4237234E-1,-2.5813532E-1,-1.841374E-2,4E0,-7.510338E-2,-1.0321912E-2],"split_indices":[1,0,0,1,1,0,0,0,1,0,0],"split_type":[0,0,0,0,0,0,0,0,0,0,0],"sum_hessian":[1.68E2,1.56E2,1.2E1,2E1,1.36E2,1.8E1,2E0,8.9E1,4.7E1,2.6E1,2.1E1],"tree_param":{"num_deleted":"0","num_feature":"2","num_nodes":"11","size_leaf_vector":"1"}},{"base_weights":[6.650967E-3,-4.269342E-1,5.242514E-1,-1.5102776E0,-2.5775796E-1,-1.2888442E-1,-2.409263E-1,-1.6592843E-2,-4.2456838E-1,-6.7871206E-2,-9.3366215E-3],"categories":[],"categories_nodes":[],"categories_segments":[],"categories_sizes":[],"default_left":[0,0,0,0,0,0,0,0,0,0,0],"id":6,"left_children":[1,3,-1,5,7,-1,-1,-1,9,-1,-1],"loss_changes":[3.859008E2,2.838504E1,0E0,1.0752068E0,2.0281353E0,0E0,0E0,0E0,3.9769325E0,0E0,0E0],"parents":[2147483647,0,0,1,1,3,3,4,4,8,8],"right_children":[2,4,-1,6,8,-1,-1,-1,10,-1,-1],"split_conditions":[1.2E1,4E0,5.242514E-1,2E0,3E0,-1.2888442E-1,-2.409263E-1,-1.6592843E-2,4E0,-6.7871206E-2,-9.3366215E-3],"split_indices":[1,0,0,1,1,0,0,0,1,0,0],"split_type":[0,0,0,0,0,0,0,0,0,0,0],"sum_hessian":[1.68E2,1.56E2,1.2E1,2E1,1.36E2,1.8E1,2E0,8.9E1,4.7E1,2.6E1,2.1E1],"tree_param":{"num_deleted":"0","num_feature":"2","num_nodes":"11","size_leaf_vector":"1"}},{"base_weights":[6.3447133E-3,-3.8719374E-1,4.7585902E-1,-1.37686E0,-2.3266684E-1,-1.1667433E-1,-2.2486456E-1,-1.4951988E-2,-3.8372016E-1,-6.1335474E-2,-8.445413E-3],"categories":[],"categories_nodes":[],"categories_segments":[],"categories_sizes":[],"default_left":[0,0,0,0,0,0,0,0,0,0,0],"id":7,"left_children":[1,3,-1,5,7,-1,-1,-1,9,-1,-1],"loss_changes":[3.1790485E2,2.368967E1,0E0,1.2231178E0,1.6632953E0,0E0,0E0,0E0,3.2468467E0,0E0,0E0],"parents":[2147483647,0,0,1,1,3,3,4,4,8,8],"right_children":[2,4,-1,6,8,-1,-1,-1,10,-1,-1],"split_conditions":[1.2E1,4E0,4.7585902E-1,2E0,3E0,-1.1667433E-1,-2.2486456E-1,-1.4951988E-2,4E0,-6.1335474E-2,-8.445413E-3],"split_indices":[1,0,0,1,1,0,0,0,1,0,0],"split_type":[0,0,0,0,0,0,0,0,0,0,0],"sum_hessian":[1.68E2,1.56E2,1.2E1,2E1,1.36E2,1.8E1,2E0,8.9E1,4.7E1,2.6E1,2.1E1],"tree_param":{"num_deleted":"0","num_feature":"2","num_nodes":"11","size_leaf_vector":"1"}},{"base_weights":[6.0038143E-3,-3.5118932E-1,4.319336E-1,-1.2554376E0,-2.1001847E-1,-1.0562097E-1,-2.0987359E-1,-1.3473377E-2,-3.468019E-1,-5.5429082E-2,-7.63927E-3],"categories":[],"categories_nodes":[],"categories_segments":[],"categories_sizes":[],"default_left":[0,0,0,0,0,0,0,0,0,0,0],"id":8,"left_children":[1,3,-1,5,7,-1,-1,-1,9,-1,-1],"loss_changes":[2.6189395E2,1.9777933E1,0E0,1.3114777E0,1.364059E0,0E0,0E0,0E0,2.6507883E0,0E0,0E0],"parents":[2147483647,0,0,1,1,3,3,4,4,8,8],"right_children":[2,4,-1,6,8,-1,-1,-1,10,-1,-1],"split_conditions":[1.2E1,4E0,4.319336E-1,2E0,3E0,-1.0562097E-1,-2.0987359E-1,-1.3473377E-2,4E0,-5.5429082E-2,-7.63927E-3],"split_indices":[1,0,0,1,1,0,0,0,1,0,0],"split_type":[0,0,0,0,0,0,0,0,0,0,0],"sum_hessian":[1.68E2,1.56E2,1.2E1,2E1,1.36E2,1.8E1,2E0,8.9E1,4.7E1,2.6E1,2.1E1],"tree_param":{"num_deleted":"0","num_feature":"2","num_nodes":"11","size_leaf_vector":"1"}},{"base_weights":[5.639556E-3,-3.185674E-1,3.920628E-1,-1.1449176E0,-1.8957525E-1,-9.561478E-2,-1.9588201E-1,-1.2140997E-2,-3.134357E-1,-5.0091483E-2,-6.9100573E-3],"categories":[],"categories_nodes":[],"categories_segments":[],"categories_sizes":[],"default_left":[0,0,0,0,0,0,0,0,0,0,0],"id":9,"left_children":[1,3,-1,5,7,-1,-1,-1,9,-1,-1],"loss_changes":[2.1575502E2,1.6518E1,0E0,1.3535233E0,1.1186342E0,0E0,0E0,0E0,2.1641579E0,0E0,0E0],"parents":[2147483647,0,0,1,1,3,3,4,4,8,8],"right_children":[2,4,-1,6,8,-1,-1,-1,10,-1,-1],"split_conditions":[1.2E1,4E0,3.920628E-1,2E0,3E0,-9.561478E-2,-1.9588201E-1,-1.2140997E-2,4E0,-5.0091483E-2,-6.9100573E-3],"split_indices":[1,0,0,1,1,0,0,0,1,0,0],"split_type":[0,0,0,0,0,0,0,0,0,0,0],"sum_hessian":[1.68E2,1.56E2,1.2E1,2E1,1.36E2,1.8E1,2E0,8.9E1,4.7E1,2.6E1,2.1E1],"tree_param":{"num_deleted":"0","num_feature":"2","num_nodes":"11","size_leaf_vector":"1"}},{"base_weights":[5.261568E-3,-2.8900766E-1,3.5587236E-1,-1.0443066E0,-1.7112234E-1,-8.655655E-2,-1.828232E-1,-1.0940368E-2,-2.832798E-1,-4.5267876E-2,-6.250477E-3],"categories":[],"categories_nodes":[],"categories_segments":[],"categories_sizes":[],"default_left":[0,0,0,0,0,0,0,0,0,0,0],"id":10,"left_children":[1,3,-1,5,7,-1,-1,-1,9,-1,-1],"loss_changes":[1.7774748E2,1.3800364E1,0E0,1.3600616E0,9.1735125E-1,0E0,0E0,0E0,1.7668602E0,0E0,0E0],"parents":[2147483647,0,0,1,1,3,3,4,4,8,8],"right_children":[2,4,-1,6,8,-1,-1,-1,10,-1,-1],"split_conditions":[1.2E1,4E0,3.5587236E-1,2E0,3E0,-8.655655E-2,-1.828232E-1,-1.0940368E-2,4E0,-4.5267876E-2,-6.250477E-3],"split_indices":[1,0,0,1,1,0,0,0,1,0,0],"split_type":[0,0,0,0,0,0,0,0,0,0,0],"sum_hessian":[1.68E2,1.56E2,1.2E1,2E1,1.36E2,1.8E1,2E0,8.9E1,4.7E1,2.6E1,2.1E1],"tree_param":{"num_deleted":"0","num_feature":"2","num_nodes":"11","size_leaf_vector":"1"}},{"base_weights":[4.8777335E-3,-2.622204E-1,3.2302263E-1,-9.527038E-1,-1.5446588E-1,-7.835647E-2,-1.7063498E-1,-9.858469E-3,-2.5602508E-1,-4.090873E-2,-5.65385E-3],"categories":[],"categories_nodes":[],"categories_segments":[],"categories_sizes":[],"default_left":[0,0,0,0,0,0,0,0,0,0,0],"id":11,"left_children":[1,3,-1,5,7,-1,-1,-1,9,-1,-1],"loss_changes":[1.4643791E2,1.1534065E1,0E0,1.3398552E0,7.5226855E-1,0E0,0E0,0E0,1.4424963E0,0E0,0E0],"parents":[2147483647,0,0,1,1,3,3,4,4,8,8],"right_children":[2,4,-1,6,8,-1,-1,-1,10,-1,-1],"split_conditions":[1.2E1,4E0,3.2302263E-1,2E0,3E0,-7.835647E-2,-1.7063498E-1,-9.858469E-3,4E0,-4.090873E-2,-5.65385E-3],"split_indices":[1,0,0,1,1,0,0,0,1,0,0],"split_type":[0,0,0,0,0,0,0,0,0,0,0],"sum_hessian":[1.68E2,1.56E2,1.2E1,2E1,1.36E2,1.8E1,2E0,8.9E1,4.7E1,2.6E1,2.1E1],"tree_param":{"num_deleted":"0","num_feature":"2","num_nodes":"11","size_leaf_vector":"1"}},{"base_weights":[4.494264E-3,-2.3794356E-1,2.9320514E-1,-8.6929005E-1,-1.39431E-1,-7.093322E-2,-1.5925932E-1,-8.883558E-3,-2.3139259E-1,-3.696936E-2,-5.1141675E-3],"categories":[],"categories_nodes":[],"categories_segments":[],"categories_sizes":[],"default_left":[0,0,0,0,0,0,0,0,0,0,0],"id":12,"left_children":[1,3,-1,5,7,-1,-1,-1,9,-1,-1],"loss_changes":[1.2064552E2,9.643498E0,0E0,1.2999802E0,6.1688256E-1,0E0,0E0,0E0,1.17768E0,0E0,0E0],"parents":[2147483647,0,0,1,1,3,3,4,4,8,8],"right_children":[2,4,-1,6,8,-1,-1,-1,10,-1,-1],"split_conditions":[1.2E1,4E0,2.9320514E-1,2E0,3E0,-7.093322E-2,-1.5925932E-1,-8.883558E-3,4E0,-3.696936E-2,-5.1141675E-3],"split_indices":[1,0,0,1,1,0,0,0,1,0,0],"split_type":[0,0,0,0,0,0,0,0,0,0,0],"sum_hessian":[1.68E2,1.56E2,1.2E1,2E1,1.36E2,1.8E1,2E0,8.9E1,4.7E1,2.6E1,2.1E1],"tree_param":{"num_deleted":"0","num_feature":"2","num_nodes":"11","size_leaf_vector":"1"}},{"base_weights":[4.115985E-3,-2.1594015E-1,2.6614004E-1,-7.933227E-1,-1.2586005E-1,-6.421324E-2,-1.4864203E-1,-8.005088E-3,-2.0913017E-1,-3.340937E-2,-4.6259966E-3],"categories":[],"categories_nodes":[],"categories_segments":[],"categories_sizes":[],"default_left":[0,0,0,0,0,0,0,0,0,0,0],"id":13,"left_children":[1,3,-1,5,7,-1,-1,-1,9,-1,-1],"loss_changes":[9.939775E1,8.065828E0,0E0,1.2461042E0,5.058503E-1,0E0,0E0,0E0,9.614804E-1,0E0,0E0],"parents":[2147483647,0,0,1,1,3,3,4,4,8,8],"right_children":[2,4,-1,6,8,-1,-1,-1,10,-1,-1],"split_conditions":[1.2E1,4E0,2.6614004E-1,2E0,3E0,-6.421324E-2,-1.4864203E-1,-8.005088E-3,4E0,-3.340937E-2,-4.6259966E-3],"split_indices":[1,0,0,1,1,0,0,0,1,0,0],"split_type":[0,0,0,0,0,0,0,0,0,0,0],"sum_hessian":[1.68E2,1.56E2,1.2E1,2E1,1.36E2,1.8E1,2E0,8.9E1,4.7E1,2.6E1,2.1E1],"tree_param":{"num_deleted":"0","num_feature":"2","num_nodes":"11","size_leaf_vector":"1"}},{"base_weights":[3.7473051E-3,-1.959951E-1,2.4157329E-1,-7.241264E-1,-1.1361005E-1,-5.8129884E-2,-1.3873257E-1,-7.213469E-3,-1.8900949E-1,-3.019214E-2,-4.184443E-3],"categories":[],"categories_nodes":[],"categories_segments":[],"categories_sizes":[],"default_left":[0,0,0,0,0,0,0,0,0,0,0],"id":14,"left_children":[1,3,-1,5,7,-1,-1,-1,9,-1,-1],"loss_changes":[8.1893585E1,6.7488213E0,0E0,1.1827354E0,4.1479492E-1,0E0,0E0,0E0,7.8496706E-1,0E0,0E0],"parents":[2147483647,0,0,1,1,3,3,4,4,8,8],"right_children":[2,4,-1,6,8,-1,-1,-1,10,-1,-1],"split_conditions":[1.2E1,4E0,2.4157329E-1,2E0,3E0,-5.8129884E-2,-1.3873257E-1,-7.213469E-3,4E0,-3.019214E-2,-4.184443E-3],"split_indices":[1,0,0,1,1,0,0,0,1,0,0],"split_type":[0,0,0,0,0,0,0,0,0,0,0],"sum_hessian":[1.68E2,1.56E2,1.2E1,2E1,1.36E2,1.8E1,2E0,8.9E1,4.7E1,2.6E1,2.1E1],"tree_param":{"num_deleted":"0","num_feature":"2","num_nodes":"11","size_leaf_vector":"1"}},{"base_weights":[3.3910782E-3,-1.7791435E-1,2.192742E-1,-6.610882E-1,-1.0255256E-1,-5.2622844E-2,-1.2948373E-1,-6.5001245E-3,-1.7082478E-1,-2.728474E-2,-3.7850465E-3],"categories":[],"categories_nodes":[],"categories_segments":[],"categories_sizes":[],"default_left":[0,0,0,0,0,0,0,0,0,0,0],"id":15,"left_children":[1,3,-1,5,7,-1,-1,-1,9,-1,-1],"loss_changes":[6.747318E1,5.6490207E0,0E0,1.1134319E0,3.401246E-1,0E0,0E0,0E0,6.408591E-1,0E0,0E0],"parents":[2147483647,0,0,1,1,3,3,4,4,8,8],"right_children":[2,4,-1,6,8,-1,-1,-1,10,-1,-1],"split_conditions":[1.2E1,4E0,2.192742E-1,2E0,3E0,-5.2622844E-2,-1.2948373E-1,-6.5001245E-3,4E0,-2.728474E-2,-3.7850465E-3],"split_indices":[1,0,0,1,1,0,0,0,1,0,0],"split_type":[0,0,0,0,0,0,0,0,0,0,0],"sum_hessian":[1.68E2,1.56E2,1.2E1,2E1,1.36E2,1.8E1,2E0,8.9E1,4.7E1,2.6E1,2.1E1],"tree_param":{"num_deleted":"0","num_feature":"2","num_nodes":"11","size_leaf_vector":"1"}},{"base_weights":[3.0496232E-3,-1.6152208E-1,1.9903348E-1,-6.0365117E-1,-9.257147E-2,-4.763753E-2,-1.2085148E-1,-5.8573224E-3,-1.5438959E-1,-2.465733E-2,-3.423734E-3],"categories":[],"categories_nodes":[],"categories_segments":[],"categories_sizes":[],"default_left":[0,0,0,0,0,0,0,0,0,0,0],"id":16,"left_children":[1,3,-1,5,7,-1,-1,-1,9,-1,-1],"loss_changes":[5.559308E1,4.7302747E0,0E0,1.0409689E0,2.7889073E-1,0E0,0E0,0E0,5.232098E-1,0E0,0E0],"parents":[2147483647,0,0,1,1,3,3,4,4,8,8],"right_children":[2,4,-1,6,8,-1,-1,-1,10,-1,-1],"split_conditions":[1.2E1,4E0,1.9903348E-1,2E0,3E0,-4.763753E-2,-1.2085148E-1,-5.8573224E-3,4E0,-2.465733E-2,-3.423734E-3],"split_indices":[1,0,0,1,1,0,0,0,1,0,0],"split_type":[0,0,0,0,0,0,0,0,0,0,0],"sum_hessian":[1.68E2,1.56E2,1.2E1,2E1,1.36E2,1.8E1,2E0,8.9E1,4.7E1,2.6E1,2.1E1],"tree_param":{"num_deleted":"0","num_feature":"2","num_nodes":"11","size_leaf_vector":"1"}},{"base_weights":[2.7246263E-3,-1.4665914E-1,1.8066113E-1,-5.513094E-1,-8.356195E-2,-4.3124508E-2,-1.1279471E-1,-5.278084E-3,-1.3953565E-1,-2.2282917E-2,-3.0969274E-3],"categories":[],"categories_nodes":[],"categories_segments":[],"categories_sizes":[],"default_left":[0,0,0,0,0,0,0,0,0,0,0],"id":17,"left_children":[1,3,-1,5,7,-1,-1,-1,9,-1,-1],"loss_changes":[4.5805614E1,3.9625015E0,0E0,9.6748495E-1,2.2867703E-1,0E0,0E0,0E0,4.2715716E-1,0E0,0E0],"parents":[2147483647,0,0,1,1,3,3,4,4,8,8],"right_children":[2,4,-1,6,8,-1,-1,-1,10,-1,-1],"split_conditions":[1.2E1,4E0,1.8066113E-1,2E0,3E0,-4.3124508E-2,-1.1279471E-1,-5.278084E-3,4E0,-2.2282917E-2,-3.0969274E-3],"split_indices":[1,0,0,1,1,0,0,0,1,0,0],"split_type":[0,0,0,0,0,0,0,0,0,0,0],"sum_hessian":[1.68E2,1.56E2,1.2E1,2E1,1.36E2,1.8E1,2E0,8.9E1,4.7E1,2.6E1,2.1E1],"tree_param":{"num_deleted":"0","num_feature":"2","num_nodes":"11","size_leaf_vector":"1"}},{"base_weights":[2.4172172E-3,-1.3318156E-1,1.6398473E-1,-5.036032E-1,-7.542947E-2,-3.903903E-2,-1.0527506E-1,-4.7561373E-3,-1.261107E-1,-2.0137144E-2,-2.801295E-3],"categories":[],"categories_nodes":[],"categories_segments":[],"categories_sizes":[],"default_left":[0,0,0,0,0,0,0,0,0,0,0],"id":18,"left_children":[1,3,-1,5,7,-1,-1,-1,9,-1,-1],"loss_changes":[3.7742058E1,3.3206556E0,0E0,8.94598E-1,1.874994E-1,0E0,0E0,0E0,3.4873867E-1,0E0,0E0],"parents":[2147483647,0,0,1,1,3,3,4,4,8,8],"right_children":[2,4,-1,6,8,-1,-1,-1,10,-1,-1],"split_conditions":[1.2E1,4E0,1.6398473E-1,2E0,3E0,-3.903903E-2,-1.0527506E-1,-4.7561373E-3,4E0,-2.0137144E-2,-2.801295E-3],"split_indices":[1,0,0,1,1,0,0,0,1,0,0],"split_type":[0,0,0,0,0,0,0,0,0,0,0],"sum_hessian":[1.68E2,1.56E2,1.2E1,2E1,1.36E2,1.8E1,2E0,8.9E1,4.7E1,2.6E1,2.1E1],"tree_param":{"num_deleted":"0","num_feature":"2","num_nodes":"11","size_leaf_vector":"1"}},{"base_weights":[2.1279817E-3,-1.2095904E-1,1.4884768E-1,-4.6011496E-1,-6.808873E-2,-3.534059E-2,-9.825673E-2,-4.285821E-3,-1.1397744E-1,-1.8198002E-2,-2.5338954E-3],"categories":[],"categories_nodes":[],"categories_segments":[],"categories_sizes":[],"default_left":[0,0,0,0,0,0,0,0,0,0,0],"id":19,"left_children":[1,3,-1,5,7,-1,-1,-1,9,-1,-1],"loss_changes":[3.109864E1,2.7838824E0,0E0,8.2351255E-1,1.5373313E-1,0E0,0E0,0E0,2.8471577E-1,0E0,0E0],"parents":[2147483647,0,0,1,1,3,3,4,4,8,8],"right_children":[2,4,-1,6,8,-1,-1,-1,10,-1,-1],"split_conditions":[1.2E1,4E0,1.4884768E-1,2E0,3E0,-3.534059E-2,-9.825673E-2,-4.285821E-3,4E0,-1.8198002E-2,-2.5338954E-3],"split_indices":[1,0,0,1,1,0,0,0,1,0,0],"split_type":[0,0,0,0,0,0,0,0,0,0,0],"sum_hessian":[1.68E2,1.56E2,1.2E1,2E1,1.36E2,1.8E1,2E0,8.9E1,4.7E1,2.6E1,2.1E1],"tree_param":{"num_deleted":"0","num_feature":"2","num_nodes":"11","size_leaf_vector":"1"}},{"base_weights":[1.857419E-3,-1.0987343E-1,1.3510793E-1,-4.2046526E-1,-6.1462462E-2,-3.199254E-2,-9.1706276E-2,-3.8620017E-3,-1.0301158E-1,-1.64456E-2,-2.2920175E-3],"categories":[],"categories_nodes":[],"categories_segments":[],"categories_sizes":[],"default_left":[0,0,0,0,0,0,0,0,0,0,0],"id":20,"left_children":[1,3,-1,5,7,-1,-1,-1,9,-1,-1],"loss_changes":[2.5625147E1,2.3348174E0,0E0,7.5509334E-1,1.2604612E-1,0E0,0E0,0E0,2.3244679E-1,0E0,0E0],"parents":[2147483647,0,0,1,1,3,3,4,4,8,8],"right_children":[2,4,-1,6,8,-1,-1,-1,10,-1,-1],"split_conditions":[1.2E1,4E0,1.3510793E-1,2E0,3E0,-3.199254E-2,-9.1706276E-2,-3.8620017E-3,4E0,-1.64456E-2,-2.2920175E-3],"split_indices":[1,0,0,1,1,0,0,0,1,0,0],"split_type":[0,0,0,0,0,0,0,0,0,0,0],"sum_hessian":[1.68E2,1.56E2,1.2E1,2E1,1.36E2,1.8E1,2E0,8.9E1,4.7E1,2.6E1,2.1E1],"tree_param":{"num_deleted":"0","num_feature":"2","num_nodes":"11","size_leaf_vector":"1"}},{"base_weights":[1.605443E-3,-9.9817924E-2,1.22636415E-1,-3.8430923E-1,-5.548117E-2,-2.8961673E-2,-8.559253E-2,-3.4800984E-3,-9.310066E-2,-1.486194E-2,-2.0732165E-3],"categories":[],"categories_nodes":[],"categories_segments":[],"categories_sizes":[],"default_left":[0,0,0,0,0,0,0,0,0,0,0],"id":21,"left_children":[1,3,-1,5,7,-1,-1,-1,9,-1,-1],"loss_changes":[2.111545E1,1.958985E0,0E0,6.8993807E-1,1.0334301E-1,0E0,0E0,0E0,1.8977362E-1,0E0,0E0],"parents":[2147483647,0,0,1,1,3,3,4,4,8,8],"right_children":[2,4,-1,6,8,-1,-1,-1,10,-1,-1],"split_conditions":[1.2E1,4E0,1.22636415E-1,2E0,3E0,-2.8961673E-2,-8.559253E-2,-3.4800984E-3,4E0,-1.486194E-2,-2.0732165E-3],"split_indices":[1,0,0,1,1,0,0,0,1,0,0],"split_type":[0,0,0,0,0,0,0,0,0,0,0],"sum_hessian":[1.68E2,1.56E2,1.2E1,2E1,1.36E2,1.8E1,2E0,8.9E1,4.7E1,2.6E1,2.1E1],"tree_param":{"num_deleted":"0","num_feature":"2","num_nodes":"11","size_leaf_vector":"1"}},{"base_weights":[1.3718097E-3,-9.06959E-2,1.113161E-1,-3.5133326E-1,-5.0082177E-2,-2.6217936E-2,-7.988636E-2,-3.135977E-3,-8.414331E-2,-1.3430779E-2,-1.8753117E-3],"categories":[],"categories_nodes":[],"categories_segments":[],"categories_sizes":[],"default_left":[0,0,0,0,0,0,0,0,0,0,0],"id":22,"left_children":[1,3,-1,5,7,-1,-1,-1,9,-1,-1],"loss_changes":[1.7399778E1,1.6443207E0,0E0,6.2843513E-1,8.472702E-2,0E0,0E0,0E0,1.5493405E-1,0E0,0E0],"parents":[2147483647,0,0,1,1,3,3,4,4,8,8],"right_children":[2,4,-1,6,8,-1,-1,-1,10,-1,-1],"split_conditions":[1.2E1,4E0,1.113161E-1,2E0,3E0,-2.6217936E-2,-7.988636E-2,-3.135977E-3,4E0,-1.3430779E-2,-1.8753117E-3],"split_indices":[1,0,0,1,1,0,0,0,1,0,0],"split_type":[0,0,0,0,0,0,0,0,0,0,0],"sum_hessian":[1.68E2,1.56E2,1.2E1,2E1,1.36E2,1.8E1,2E0,8.9E1,4.7E1,2.6E1,2.1E1],"tree_param":{"num_deleted":"0","num_feature":"2","num_nodes":"11","size_leaf_vector":"1"}},{"base_weights":[1.1564528E-3,-8.241952E-2,1.0104082E-1,-3.2125252E-1,-4.520848E-2,-2.3734134E-2,-7.4560605E-2,-2.825845E-3,-7.6047935E-2,-1.2137462E-2,-1.6963006E-3],"categories":[],"categories_nodes":[],"categories_segments":[],"categories_sizes":[],"default_left":[0,0,0,0,0,0,0,0,0,0,0],"id":23,"left_children":[1,3,-1,5,7,-1,-1,-1,9,-1,-1],"loss_changes":[1.4338291E1,1.3807709E0,0E0,5.708053E-1,6.946495E-2,0E0,0E0,0E0,1.264911E-1,0E0,0E0],"parents":[2147483647,0,0,1,1,3,3,4,4,8,8],"right_children":[2,4,-1,6,8,-1,-1,-1,10,-1,-1],"split_conditions":[1.2E1,4E0,1.0104082E-1,2E0,3E0,-2.3734134E-2,-7.4560605E-2,-2.825845E-3,4E0,-1.2137462E-2,-1.6963006E-3],"split_indices":[1,0,0,1,1,0,0,0,1,0,0],"split_type":[0,0,0,0,0,0,0,0,0,0,0],"sum_hessian":[1.68E2,1.56E2,1.2E1,2E1,1.36E2,1.8E1,2E0,8.9E1,4.7E1,2.6E1,2.1E1],"tree_param":{"num_deleted":"0","num_feature":"2","num_nodes":"11","size_leaf_vector":"1"}},{"base_weights":[9.5838483E-4,-7.490985E-2,9.171395E-2,-6.2407415E-2,-6.95899E-2,-2.148564E-2,-4.080933E-2,-2.546408E-3,-6.873148E-3],"categories":[],"categories_nodes":[],"categories_segments":[],"categories_sizes":[],"default_left":[0,0,0,0,0,0,0,0,0],"id":24,"left_children":[1,3,-1,5,-1,-1,7,-1,-1],"loss_changes":[1.181573E1,1.1754992E0,0E0,5.015859E-1,0E0,0E0,5.6950524E-2,0E0,0E0],"parents":[2147483647,0,0,1,1,3,3,6,6],"right_children":[2,4,-1,6,-1,-1,8,-1,-1],"split_conditions":[1.2E1,9E0,9.171395E-2,4E0,-6.95899E-2,-2.148564E-2,3E0,-2.546408E-3,-6.873148E-3],"split_indices":[1,1,0,0,0,0,1,0,0],"split_type":[0,0,0,0,0,0,0,0,0],"sum_hessian":[1.68E2,1.56E2,1.2E1,1.54E2,2E0,1.8E1,1.36E2,8.9E1,4.7E1],"tree_param":{"num_deleted":"0","num_feature":"2","num_nodes":"9","size_leaf_vector":"1"}},{"base_weights":[8.105237E-4,-6.805902E-2,8.324804E-2,-5.6366123E-2,-6.495057E-2,-1.9450169E-2,-3.6797207E-2,-2.2946063E-3,-6.2001497E-3],"categories":[],"categories_nodes":[],"categories_segments":[],"categories_sizes":[],"default_left":[0,0,0,0,0,0,0,0,0],"id":25,"left_children":[1,3,-1,5,-1,-1,7,-1,-1],"loss_changes":[9.736424E0,1.0308007E0,0E0,4.1183314E-1,0E0,0E0,4.6405137E-2,0E0,0E0],"parents":[2147483647,0,0,1,1,3,3,6,6],"right_children":[2,4,-1,6,-1,-1,8,-1,-1],"split_conditions":[1.2E1,9E0,8.324804E-2,4E0,-6.495057E-2,-1.9450169E-2,3E0,-2.2946063E-3,-6.2001497E-3],"split_indices":[1,1,0,0,0,0,1,0,0],"split_type":[0,0,0,0,0,0,0,0,0],"sum_hessian":[1.68E2,1.56E2,1.2E1,1.54E2,2E0,1.8E1,1.36E2,8.9E1,4.7E1],"tree_param":{"num_deleted":"0","num_feature":"2","num_nodes":"9","size_leaf_vector":"1"}},{"base_weights":[6.723397E-4,-6.184485E-2,7.5563595E-2,-5.0909843E-2,-6.0620528E-2,-1.7607518E-2,-3.3179544E-2,-2.0677017E-3,-5.593054E-3],"categories":[],"categories_nodes":[],"categories_segments":[],"categories_sizes":[],"default_left":[0,0,0,0,0,0,0,0,0],"id":26,"left_children":[1,3,-1,5,-1,-1,7,-1,-1],"loss_changes":[8.023229E0,9.036941E-1,0E0,3.381369E-1,0E0,0E0,3.7812486E-2,0E0,0E0],"parents":[2147483647,0,0,1,1,3,3,6,6],"right_children":[2,4,-1,6,-1,-1,8,-1,-1],"split_conditions":[1.2E1,9E0,7.5563595E-2,4E0,-6.0620528E-2,-1.7607518E-2,3E0,-2.0677017E-3,-5.593054E-3],"split_indices":[1,1,0,0,0,0,1,0,0],"split_type":[0,0,0,0,0,0,0,0,0],"sum_hessian":[1.68E2,1.56E2,1.2E1,1.54E2,2E0,1.8E1,1.36E2,8.9E1,4.7E1],"tree_param":{"num_deleted":"0","num_feature":"2","num_nodes":"9","size_leaf_vector":"1"}},{"base_weights":[5.4395903E-4,-5.620752E-2,6.858854E-2,-4.5981973E-2,-5.6579154E-2,-1.5939442E-2,-2.9917605E-2,-1.8632424E-3,-5.045404E-3],"categories":[],"categories_nodes":[],"categories_segments":[],"categories_sizes":[],"default_left":[0,0,0,0,0,0,0,0,0],"id":27,"left_children":[1,3,-1,5,-1,-1,7,-1,-1],"loss_changes":[6.611661E0,7.920755E-1,0E0,2.7762568E-1,0E0,0E0,3.0810684E-2,0E0,0E0],"parents":[2147483647,0,0,1,1,3,3,6,6],"right_children":[2,4,-1,6,-1,-1,8,-1,-1],"split_conditions":[1.2E1,9E0,6.858854E-2,4E0,-5.6579154E-2,-1.5939442E-2,3E0,-1.8632424E-3,-5.045404E-3],"split_indices":[1,1,0,0,0,0,1,0,0],"split_type":[0,0,0,0,0,0,0,0,0],"sum_hessian":[1.68E2,1.56E2,1.2E1,1.54E2,2E0,1.8E1,1.36E2,8.9E1,4.7E1],"tree_param":{"num_deleted":"0","num_feature":"2","num_nodes":"9","size_leaf_vector":"1"}},{"base_weights":[4.2556587E-4,-5.1092546E-2,6.2257316E-2,-4.1531056E-2,-5.2807212E-2,-1.4429383E-2,-2.6976136E-2,-3.3242311E-3,7.2898867E-4],"categories":[],"categories_nodes":[],"categories_segments":[],"categories_sizes":[],"default_left":[0,0,0,0,0,0,0,0,0],"id":28,"left_children":[1,3,-1,5,-1,-1,7,-1,-1],"loss_changes":[5.448575E0,6.940886E-1,0E0,2.279416E-1,0E0,0E0,2.9658556E-2,0E0,0E0],"parents":[2147483647,0,0,1,1,3,3,6,6],"right_children":[2,4,-1,6,-1,-1,8,-1,-1],"split_conditions":[1.2E1,9E0,6.2257316E-2,4E0,-5.2807212E-2,-1.4429383E-2,4E0,-3.3242311E-3,7.2898867E-4],"split_indices":[1,1,0,0,0,0,1,0,0],"split_type":[0,0,0,0,0,0,0,0,0],"sum_hessian":[1.68E2,1.56E2,1.2E1,1.54E2,2E0,1.8E1,1.36E2,1.15E2,2.1E1],"tree_param":{"num_deleted":"0","num_feature":"2","num_nodes":"9","size_leaf_vector":"1"}},{"base_weights":[3.3804792E-4,-4.6428174E-2,5.6510415E-2,-3.748788E-2,-4.9286734E-2,-1.3062397E-2,-2.4297563E-2,-1.3502514E-3,-4.4032084E-3],"categories":[],"categories_nodes":[],"categories_segments":[],"categories_sizes":[],"default_left":[0,0,0,0,0,0,0,0,0],"id":29,"left_children":[1,3,-1,5,-1,-1,7,-1,-1],"loss_changes":[4.48986E0,6.0815704E-1,0E0,1.8724282E-1,0E0,0E0,2.8591268E-2,0E0,0E0],"parents":[2147483647,0,0,1,1,3,3,6,6],"right_children":[2,4,-1,6,-1,-1,8,-1,-1],"split_conditions":[1.2E1,9E0,5.6510415E-2,4E0,-4.9286734E-2,-1.3062397E-2,3E0,-1.3502514E-3,-4.4032084E-3],"split_indices":[1,1,0,0,0,0,1,0,0],"split_type":[0,0,0,0,0,0,0,0,0],"sum_hessian":[1.68E2,1.56E2,1.2E1,1.54E2,2E0,1.8E1,1.36E2,8.9E1,4.7E1],"tree_param":{"num_deleted":"0","num_feature":"2","num_nodes":"9","size_leaf_vector":"1"}},{"base_weights":[2.3573813E-4,-4.2219084E-2,5.1294126E-2,-3.3860438E-2,-4.600095E-2,-1.1824899E-2,-2.1909757E-2,-2.7923859E-3,1.079685E-3],"categories":[],"categories_nodes":[],"categories_segments":[],"categories_sizes":[],"default_left":[0,0,0,0,0,0,0,0,0],"id":30,"left_children":[1,3,-1,5,-1,-1,7,-1,-1],"loss_changes":[3.7002485E0,5.3269345E-1,0E0,1.5372676E-1,0E0,0E0,2.7249508E-2,0E0,0E0],"parents":[2147483647,0,0,1,1,3,3,6,6],"right_children":[2,4,-1,6,-1,-1,8,-1,-1],"split_conditions":[1.2E1,9E0,5.1294126E-2,4E0,-4.600095E-2,-1.1824899E-2,4E0,-2.7923859E-3,1.079685E-3],"split_indices":[1,1,0,0,0,0,1,0,0],"split_type":[0,0,0,0,0,0,0,0,0],"sum_hessian":[1.68E2,1.56E2,1.2E1,1.54E2,2E0,1.8E1,1.36E2,1.15E2,2.1E1],"tree_param":{"num_deleted":"0","num_feature":"2","num_nodes":"9","size_leaf_vector":"1"}},{"base_weights":[1.6335482E-4,-3.8376413E-2,4.655926E-2,-3.0561743E-2,-4.293422E-2,-1.0704653E-2,-1.9731287E-2,-9.4057823E-4,-3.868054E-3],"categories":[],"categories_nodes":[],"categories_segments":[],"categories_sizes":[],"default_left":[0,0,0,0,0,0,0,0,0],"id":31,"left_children":[1,3,-1,5,-1,-1,7,-1,-1],"loss_changes":[3.0493112E0,4.6655566E-1,0E0,1.2628445E-1,0E0,0E0,2.6441686E-2,0E0,0E0],"parents":[2147483647,0,0,1,1,3,3,6,6],"right_children":[2,4,-1,6,-1,-1,8,-1,-1],"split_conditions":[1.2E1,9E0,4.655926E-2,4E0,-4.293422E-2,-1.0704653E-2,3E0,-9.4057823E-4,-3.868054E-3],"split_indices":[1,1,0,0,0,0,1,0,0],"split_type":[0,0,0,0,0,0,0,0,0],"sum_hessian":[1.68E2,1.56E2,1.2E1,1.54E2,2E0,1.8E1,1.36E2,8.9E1,4.7E1],"tree_param":{"num_deleted":"0","num_feature":"2","num_nodes":"9","size_leaf_vector":"1"}},{"base_weights":[7.680534E-5,-3.4910914E-2,4.2261492E-2,-2.760552E-2,-4.007194E-2,-9.690516E-3,-1.779312E-2,-2.356679E-3,1.3458643E-3],"categories":[],"categories_nodes":[],"categories_segments":[],"categories_sizes":[],"default_left":[0,0,0,0,0,0,0,0,0],"id":32,"left_children":[1,3,-1,5,-1,-1,7,-1,-1],"loss_changes":[2.5131898E0,4.0850088E-1,0E0,1.03675075E-1,0E0,0E0,2.5037099E-2,0E0,0E0],"parents":[2147483647,0,0,1,1,3,3,6,6],"right_children":[2,4,-1,6,-1,-1,8,-1,-1],"split_conditions":[1.2E1,9E0,4.2261492E-2,4E0,-4.007194E-2,-9.690516E-3,4E0,-2.356679E-3,1.3458643E-3],"split_indices":[1,1,0,0,0,0,1,0,0],"split_type":[0,0,0,0,0,0,0,0,0],"sum_hessian":[1.68E2,1.56E2,1.2E1,1.54E2,2E0,1.8E1,1.36E2,1.15E2,2.1E1],"tree_param":{"num_deleted":"0","num_feature":"2","num_nodes":"9","size_leaf_vector":"1"}},{"base_weights":[1.8720091E-5,-3.1743266E-2,3.8360436E-2,-2.4914056E-2,-3.7400473E-2,-8.772469E-3,-1.6021239E-2,-6.145159E-4,-3.420511E-3],"categories":[],"categories_nodes":[],"categories_segments":[],"categories_sizes":[],"default_left":[0,0,0,0,0,0,0,0,0],"id":33,"left_children":[1,3,-1,5,-1,-1,7,-1,-1],"loss_changes":[2.0711784E0,3.5765E-1,0E0,8.51719E-2,0E0,0E0,2.4392996E-2,0E0,0E0],"parents":[2147483647,0,0,1,1,3,3,6,6],"right_children":[2,4,-1,6,-1,-1,8,-1,-1],"split_conditions":[1.2E1,9E0,3.8360436E-2,4E0,-3.7400473E-2,-8.772469E-3,3E0,-6.145159E-4,-3.420511E-3],"split_indices":[1,1,0,0,0,0,1,0,0],"split_type":[0,0,0,0,0,0,0,0,0],"sum_hessian":[1.68E2,1.56E2,1.2E1,1.54E2,2E0,1.8E1,1.36E2,8.9E1,4.7E1],"tree_param":{"num_deleted":"0","num_feature":"2","num_nodes":"9","size_leaf_vector":"1"}},{"base_weights":[-5.3179334E-5,-2.888864E-2,3.4819458E-2,-2.2505183E-2,-3.4907106E-2,-7.941397E-3,-1.4448453E-2,-1.9992231E-3,1.543912E-3],"categories":[],"categories_nodes":[],"categories_segments":[],"categories_sizes":[],"default_left":[0,0,0,0,0,0,0,0,0],"id":34,"left_children":[1,3,-1,5,-1,-1,7,-1,-1],"loss_changes":[1.7071373E0,3.1303185E-1,0E0,6.99199E-2,0E0,0E0,2.3008198E-2,0E0,0E0],"parents":[2147483647,0,0,1,1,3,3,6,6],"right_children":[2,4,-1,6,-1,-1,8,-1,-1],"split_conditions":[1.2E1,9E0,3.4819458E-2,4E0,-3.4907106E-2,-7.941397E-3,4E0,-1.9992231E-3,1.543912E-3],"split_indices":[1,1,0,0,0,0,1,0,0],"split_type":[0,0,0,0,0,0,0,0,0],"sum_hessian":[1.68E2,1.56E2,1.2E1,1.54E2,2E0,1.8E1,1.36E2,1.15E2,2.1E1],"tree_param":{"num_deleted":"0","num_feature":"2","num_nodes":"9","size_leaf_vector":"1"}},{"base_weights":[-9.80119E-5,-2.6275542E-2,3.1605355E-2,-2.0308781E-2,-3.257997E-2,-7.189048E-3,-1.3006875E-2,-3.560151E-4,-3.0448507E-3],"categories":[],"categories_nodes":[],"categories_segments":[],"categories_sizes":[],"default_left":[0,0,0,0,0,0,0,0,0],"id":35,"left_children":[1,3,-1,5,-1,-1,7,-1,-1],"loss_changes":[1.4069597E0,2.7397203E-1,0E0,5.7444856E-2,0E0,0E0,2.2464579E-2,0E0,0E0],"parents":[2147483647,0,0,1,1,3,3,6,6],"right_children":[2,4,-1,6,-1,-1,8,-1,-1],"split_conditions":[1.2E1,9E0,3.1605355E-2,4E0,-3.257997E-2,-7.189048E-3,3E0,-3.560151E-4,-3.0448507E-3],"split_indices":[1,1,0,0,0,0,1,0,0],"split_type":[0,0,0,0,0,0,0,0,0],"sum_hessian":[1.68E2,1.56E2,1.2E1,1.54E2,2E0,1.8E1,1.36E2,8.9E1,4.7E1],"tree_param":{"num_deleted":"0","num_feature":"2","num_nodes":"9","size_leaf_vector":"1"}},{"base_weights":[-1.5654508E-4,-2.3922812E-2,2.8687889E-2,-1.834608E-2,-3.0407969E-2,-6.507984E-3,-1.1730843E-2,-1.7054387E-3,1.6871972E-3],"categories":[],"categories_nodes":[],"categories_segments":[],"categories_sizes":[],"default_left":[0,0,0,0,0,0,0,0,0],"id":36,"left_children":[1,3,-1,5,-1,-1,7,-1,-1],"loss_changes":[1.1597404E0,2.3971182E-1,0E0,4.7155567E-2,0E0,0E0,2.1148505E-2,0E0,0E0],"parents":[2147483647,0,0,1,1,3,3,6,6],"right_children":[2,4,-1,6,-1,-1,8,-1,-1],"split_conditions":[1.2E1,9E0,2.8687889E-2,4E0,-3.0407969E-2,-6.507984E-3,4E0,-1.7054387E-3,1.6871972E-3],"split_indices":[1,1,0,0,0,0,1,0,0],"split_type":[0,0,0,0,0,0,0,0,0],"sum_hessian":[1.68E2,1.56E2,1.2E1,1.54E2,2E0,1.8E1,1.36E2,1.15E2,2.1E1],"tree_param":{"num_deleted":"0","num_feature":"2","num_nodes":"9","size_leaf_vector":"1"}},{"base_weights":[-1.8956323E-4,-2.1765692E-2,2.6039828E-2,-1.6553488E-2,-2.8380772E-2,-5.891449E-3,-1.0557777E-2,-1.5212165E-4,-2.7281374E-3],"categories":[],"categories_nodes":[],"categories_segments":[],"categories_sizes":[],"default_left":[0,0,0,0,0,0,0,0,0],"id":37,"left_children":[1,3,-1,5,-1,-1,7,-1,-1],"loss_changes":[9.558664E-1,2.097352E-1,0E0,3.8745563E-2,0E0,0E0,2.066246E-2,0E0,0E0],"parents":[2147483647,0,0,1,1,3,3,6,6],"right_children":[2,4,-1,6,-1,-1,8,-1,-1],"split_conditions":[1.2E1,9E0,2.6039828E-2,4E0,-2.8380772E-2,-5.891449E-3,3E0,-1.5212165E-4,-2.7281374E-3],"split_indices":[1,1,0,0,0,0,1,0,0],"split_type":[0,0,0,0,0,0,0,0,0],"sum_hessian":[1.68E2,1.56E2,1.2E1,1.54E2,2E0,1.8E1,1.36E2,8.9E1,4.7E1],"tree_param":{"num_deleted":"0","num_feature":"2","num_nodes":"9","size_leaf_vector":"1"}},{"base_weights":[-2.3632677E-4,-1.982572E-2,2.3636144E-2,-1.4954685E-2,-2.648872E-2,-5.3332984E-3,-9.522989E-3,-1.4635294E-3,1.7865658E-3],"categories":[],"categories_nodes":[],"categories_segments":[],"categories_sizes":[],"default_left":[0,0,0,0,0,0,0,0,0],"id":38,"left_children":[1,3,-1,5,-1,-1,7,-1,-1],"loss_changes":[7.8796834E-1,1.8344998E-1,0E0,3.180329E-2,0E0,0E0,1.9444086E-2,0E0,0E0],"parents":[2147483647,0,0,1,1,3,3,6,6],"right_children":[2,4,-1,6,-1,-1,8,-1,-1],"split_conditions":[1.2E1,9E0,2.3636144E-2,4E0,-2.648872E-2,-5.3332984E-3,4E0,-1.4635294E-3,1.7865658E-3],"split_indices":[1,1,0,0,0,0,1,0,0],"split_type":[0,0,0,0,0,0,0,0,0],"sum_hessian":[1.68E2,1.56E2,1.2E1,1.54E2,2E0,1.8E1,1.36E2,1.15E2,2.1E1],"tree_param":{"num_deleted":"0","num_feature":"2","num_nodes":"9","size_leaf_vector":"1"}},{"base_weights":[-2.5933134E-4,-1.8043919E-2,2.1454372E-2,-1.3491685E-2,-2.4722805E-2,-4.8280517E-3,-8.568477E-3,7.635753E-6,-2.459903E-3],"categories":[],"categories_nodes":[],"categories_segments":[],"categories_sizes":[],"default_left":[0,0,0,0,0,0,0,0,0],"id":39,"left_children":[1,3,-1,5,-1,-1,7,-1,-1],"loss_changes":[6.494822E-1,1.6046256E-1,0E0,2.613357E-2,0E0,0E0,1.898754E-2,0E0,0E0],"parents":[2147483647,0,0,1,1,3,3,6,6],"right_children":[2,4,-1,6,-1,-1,8,-1,-1],"split_conditions":[1.2E1,9E0,2.1454372E-2,4E0,-2.4722805E-2,-4.8280517E-3,3E0,7.635753E-6,-2.459903E-3],"split_indices":[1,1,0,0,0,0,1,0,0],"split_type":[0,0,0,0,0,0,0,0,0],"sum_hessian":[1.68E2,1.56E2,1.2E1,1.54E2,2E0,1.8E1,1.36E2,8.9E1,4.7E1],"tree_param":{"num_deleted":"0","num_feature":"2","num_nodes":"9","size_leaf_vector":"1"}},{"base_weights":[-2.9583054E-4,-1.6443336E-2,1.9473912E-2,-1.2189454E-2,-2.3074618E-2,-1.7138425E-2,1.8508347E-3,-7.631779E-4,-5.453026E-3],"categories":[],"categories_nodes":[],"categories_segments":[],"categories_sizes":[],"default_left":[0,0,0,0,0,0,0,0,0],"id":40,"left_children":[1,3,-1,5,-1,7,-1,-1,-1],"loss_changes":[5.354386E-1,1.4031154E-1,0E0,2.3865197E-2,0E0,4.7216944E-2,0E0,0E0,0E0],"parents":[2147483647,0,0,1,1,3,3,5,5],"right_children":[2,4,-1,6,-1,8,-1,-1,-1],"split_conditions":[1.2E1,9E0,1.9473912E-2,4E0,-2.3074618E-2,3E0,1.8508347E-3,-7.631779E-4,-5.453026E-3],"split_indices":[1,1,0,1,0,1,0,0,0],"split_type":[0,0,0,0,0,0,0,0,0],"sum_hessian":[1.68E2,1.56E2,1.2E1,1.54E2,2E0,1.33E2,2.1E1,1.07E2,2.6E1],"tree_param":{"num_deleted":"0","num_feature":"2","num_nodes":"9","size_leaf_vector":"1"}},{"base_weights":[-3.1348199E-4,-1.4973877E-2,1.7676309E-2,-1.0998771E-2,-2.153631E-2,-4.2983606E-3,-6.482634E-3,-1.0831392E-3,1.674184E-3],"categories":[],"categories_nodes":[],"categories_segments":[],"categories_sizes":[],"default_left":[0,0,0,0,0,0,0,0,0],"id":41,"left_children":[1,3,-1,5,-1,-1,7,-1,-1],"loss_changes":[4.4137296E-1,1.2269251E-1,0E0,2.2110773E-2,0E0,0E0,1.4018008E-2,0E0,0E0],"parents":[2147483647,0,0,1,1,3,3,6,6],"right_children":[2,4,-1,6,-1,-1,8,-1,-1],"split_conditions":[1.2E1,9E0,1.7676309E-2,4E0,-2.153631E-2,-4.2983606E-3,4E0,-1.0831392E-3,1.674184E-3],"split_indices":[1,1,0,0,0,0,1,0,0],"split_type":[0,0,0,0,0,0,0,0,0],"sum_hessian":[1.68E2,1.56E2,1.2E1,1.54E2,2E0,1.8E1,1.36E2,1.15E2,2.1E1],"tree_param":{"num_deleted":"0","num_feature":"2","num_nodes":"9","size_leaf_vector":"1"}},{"base_weights":[-3.2676465E-4,-1.3637128E-2,1.6044661E-2,-9.922661E-3,-2.0100554E-2,-3.8911419E-3,-5.8298944E-3,1.8946118E-4,-2.0191888E-3],"categories":[],"categories_nodes":[],"categories_segments":[],"categories_sizes":[],"default_left":[0,0,0,0,0,0,0,0,0],"id":42,"left_children":[1,3,-1,5,-1,-1,7,-1,-1],"loss_changes":[3.6383995E-1,1.0727336E-1,0E0,1.8163007E-2,0E0,0E0,1.523694E-2,0E0,0E0],"parents":[2147483647,0,0,1,1,3,3,6,6],"right_children":[2,4,-1,6,-1,-1,8,-1,-1],"split_conditions":[1.2E1,9E0,1.6044661E-2,4E0,-2.0100554E-2,-3.8911419E-3,3E0,1.8946118E-4,-2.0191888E-3],"split_indices":[1,1,0,0,0,0,1,0,0],"split_type":[0,0,0,0,0,0,0,0,0],"sum_hessian":[1.68E2,1.56E2,1.2E1,1.54E2,2E0,1.8E1,1.36E2,8.9E1,4.7E1],"tree_param":{"num_deleted":"0","num_feature":"2","num_nodes":"9","size_leaf_vector":"1"}},{"base_weights":[-3.5181307E-4,-1.2437751E-2,1.4563619E-2,-8.9671705E-3,-1.8760515E-2,-1.3175222E-2,1.7071291E-3,-4.7741068E-4,-4.6291715E-3],"categories":[],"categories_nodes":[],"categories_segments":[],"categories_sizes":[],"default_left":[0,0,0,0,0,0,0,0,0],"id":43,"left_children":[1,3,-1,5,-1,7,-1,-1,-1],"loss_changes":[2.999953E-1,9.3763135E-2,0E0,1.7208453E-2,0E0,3.705987E-2,0E0,0E0,0E0],"parents":[2147483647,0,0,1,1,3,3,5,5],"right_children":[2,4,-1,6,-1,8,-1,-1,-1],"split_conditions":[1.2E1,9E0,1.4563619E-2,4E0,-1.8760515E-2,3E0,1.7071291E-3,-4.7741068E-4,-4.6291715E-3],"split_indices":[1,1,0,1,0,1,0,0,0],"split_type":[0,0,0,0,0,0,0,0,0],"sum_hessian":[1.68E2,1.56E2,1.2E1,1.54E2,2E0,1.33E2,2.1E1,1.07E2,2.6E1],"tree_param":{"num_deleted":"0","num_feature":"2","num_nodes":"9","size_leaf_vector":"1"}},{"base_weights":[-3.6165948E-4,-1.13352E-2,1.3219276E-2,-8.092463E-3,-1.7509816E-2,-3.4772772E-3,-4.3332055E-3,2.1794213E-4,-1.6454107E-3],"categories":[],"categories_nodes":[],"categories_segments":[],"categories_sizes":[],"default_left":[0,0,0,0,0,0,0,0,0],"id":44,"left_children":[1,3,-1,5,-1,-1,7,-1,-1],"loss_changes":[2.4732435E-1,8.195631E-2,0E0,1.5395539E-2,0E0,0E0,1.0850489E-2,0E0,0E0],"parents":[2147483647,0,0,1,1,3,3,6,6],"right_children":[2,4,-1,6,-1,-1,8,-1,-1],"split_conditions":[1.2E1,9E0,1.3219276E-2,4E0,-1.7509816E-2,-3.4772772E-3,3E0,2.1794213E-4,-1.6454107E-3],"split_indices":[1,1,0,0,0,0,1,0,0],"split_type":[0,0,0,0,0,0,0,0,0],"sum_hessian":[1.68E2,1.56E2,1.2E1,1.54E2,2E0,1.8E1,1.36E2,8.9E1,4.7E1],"tree_param":{"num_deleted":"0","num_feature":"2","num_nodes":"9","size_leaf_vector":"1"}},{"base_weights":[-3.798216E-4,-1.0344402E-2,1.19990865E-2,-7.3148143E-3,-1.6342496E-2,-1.12542715E-2,1.7012553E-3,-3.9012433E-4,-4.024956E-3],"categories":[],"categories_nodes":[],"categories_segments":[],"categories_sizes":[],"default_left":[0,0,0,0,0,0,0,0,0],"id":45,"left_children":[1,3,-1,5,-1,7,-1,-1,-1],"loss_changes":[2.0394716E-1,7.1616605E-2,0E0,1.5046139E-2,0E0,2.8412204E-2,0E0,0E0,0E0],"parents":[2147483647,0,0,1,1,3,3,5,5],"right_children":[2,4,-1,6,-1,8,-1,-1,-1],"split_conditions":[1.2E1,9E0,1.19990865E-2,4E0,-1.6342496E-2,3E0,1.7012553E-3,-3.9012433E-4,-4.024956E-3],"split_indices":[1,1,0,1,0,1,0,0,0],"split_type":[0,0,0,0,0,0,0,0,0],"sum_hessian":[1.68E2,1.56E2,1.2E1,1.54E2,2E0,1.33E2,2.1E1,1.07E2,2.6E1],"tree_param":{"num_deleted":"0","num_feature":"2","num_nodes":"9","size_leaf_vector":"1"}},{"base_weights":[-3.8372554E-4,-9.431449E-3,1.0891445E-2,-6.6009522E-3,-1.5252995E-2,-3.1108956E-3,-3.1538496E-3,-6.64332E-4,1.5388533E-3],"categories":[],"categories_nodes":[],"categories_segments":[],"categories_sizes":[],"default_left":[0,0,0,0,0,0,0,0,0],"id":46,"left_children":[1,3,-1,5,-1,-1,7,-1,-1],"loss_changes":[1.6815126E-1,6.2584415E-2,0E0,1.2996536E-2,0E0,0E0,8.966554E-3,0E0,0E0],"parents":[2147483647,0,0,1,1,3,3,6,6],"right_children":[2,4,-1,6,-1,-1,8,-1,-1],"split_conditions":[1.2E1,9E0,1.0891445E-2,4E0,-1.5252995E-2,-3.1108956E-3,4E0,-6.64332E-4,1.5388533E-3],"split_indices":[1,1,0,0,0,0,1,0,0],"split_type":[0,0,0,0,0,0,0,0,0],"sum_hessian":[1.68E2,1.56E2,1.2E1,1.54E2,2E0,1.8E1,1.36E2,1.15E2,2.1E1],"tree_param":{"num_deleted":"0","num_feature":"2","num_nodes":"9","size_leaf_vector":"1"}},{"base_weights":[-3.8446282E-4,-8.599752E-3,9.8860515E-3,-5.955336E-3,-1.423613E-2,-2.8161802E-3,-2.8321377E-3,3.006469E-4,-1.3720522E-3],"categories":[],"categories_nodes":[],"categories_segments":[],"categories_sizes":[],"default_left":[0,0,0,0,0,0,0,0,0],"id":47,"left_children":[1,3,-1,5,-1,-1,7,-1,-1],"loss_changes":[1.386403E-1,5.46864E-2,0E0,1.0670299E-2,0E0,0E0,8.750751E-3,0E0,0E0],"parents":[2147483647,0,0,1,1,3,3,6,6],"right_children":[2,4,-1,6,-1,-1,8,-1,-1],"split_conditions":[1.2E1,9E0,9.8860515E-3,4E0,-1.423613E-2,-2.8161802E-3,3E0,3.006469E-4,-1.3720522E-3],"split_indices":[1,1,0,0,0,0,1,0,0],"split_type":[0,0,0,0,0,0,0,0,0],"sum_hessian":[1.68E2,1.56E2,1.2E1,1.54E2,2E0,1.8E1,1.36E2,8.9E1,4.7E1],"tree_param":{"num_deleted":"0","num_feature":"2","num_nodes":"9","size_leaf_vector":"1"}},{"base_weights":[-3.9483703E-4,-7.855317E-3,8.973518E-3,-5.384988E-3,-1.3287054E-2,-8.729246E-3,1.5229356E-3,-2.2275271E-4,-3.4412816E-3],"categories":[],"categories_nodes":[],"categories_segments":[],"categories_sizes":[],"default_left":[0,0,0,0,0,0,0,0,0],"id":48,"left_children":[1,3,-1,5,-1,7,-1,-1,-1],"loss_changes":[1.1434272E-1,4.7770597E-2,0E0,1.0818591E-2,0E0,2.2299651E-2,0E0,0E0,0E0],"parents":[2147483647,0,0,1,1,3,3,5,5],"right_children":[2,4,-1,6,-1,8,-1,-1,-1],"split_conditions":[1.2E1,9E0,8.973518E-3,4E0,-1.3287054E-2,3E0,1.5229356E-3,-2.2275271E-4,-3.4412816E-3],"split_indices":[1,1,0,1,0,1,0,0,0],"split_type":[0,0,0,0,0,0,0,0,0],"sum_hessian":[1.68E2,1.56E2,1.2E1,1.54E2,2E0,1.33E2,2.1E1,1.07E2,2.6E1],"tree_param":{"num_deleted":"0","num_feature":"2","num_nodes":"9","size_leaf_vector":"1"}},{"base_weights":[-3.9358163E-4,-7.16811E-3,8.145215E-3,-4.8603597E-3,-1.240125E-2,-2.528281E-3,-1.9925719E-3,-4.965879E-4,1.3775436E-3],"categories":[],"categories_nodes":[],"categories_segments":[],"categories_sizes":[],"default_left":[0,0,0,0,0,0,0,0,0],"id":49,"left_children":[1,3,-1,5,-1,-1,7,-1,-1],"loss_changes":[9.428865E-2,4.173194E-2,0E0,9.027546E-3,0E0,0E0,6.4913947E-3,0E0,0E0],"parents":[2147483647,0,0,1,1,3,3,6,6],"right_children":[2,4,-1,6,-1,-1,8,-1,-1],"split_conditions":[1.2E1,9E0,8.145215E-3,4E0,-1.240125E-2,-2.528281E-3,4E0,-4.965879E-4,1.3775436E-3],"split_indices":[1,1,0,0,0,0,1,0,0],"split_type":[0,0,0,0,0,0,0,0,0],"sum_hessian":[1.68E2,1.56E2,1.2E1,1.54E2,2E0,1.8E1,1.36E2,1.15E2,2.1E1],"tree_param":{"num_deleted":"0","num_feature":"2","num_nodes":"9","size_leaf_vector":"1"}}]},"name":"gbtree"},"learner_model_param":{"base_score":"[5.178571E0]","boost_from_average":"1","num_class":"0","num_feature":"2","num_target":"1"},"objective":{"name":"reg:squarederror","reg_loss_param":{"scale_pos_weight":"1"}}},"version":[3,2,1]}