{"learner":{"attributes":{},"feature_names":["day_of_week","hour_of_day"],"feature_types":[],"gradient_booster":{"model":{"cats":{"enc":[],"feature_segments":[],"sorted_idx":[]},"gbtree_model_param":{"num_parallel_tree":"1","num_trees":"50"},"iteration_indptr":[0,1,2,3,4,5,6,7,8,9,10,11,12,13,14,15,16,17,18,19,20,21,22,23,24,25,26,27,28,29,30,31,32,33,34,35,36,37,38,39,40,41,42,43,44,45,46,47,48,49,50],"tree_info":[0,0,0,0,0,0,0,0,0,0,0,0,0,0,0,0,0,0,0,0,0,0,0,0,0,0,0,0,0,0,0,0,0,0,0,0,0,0,0,0,0,0,0,0,0,0,0,0,0,0],"trees":[{"base_weights":[9.736102E-9,-1.0869046E1,1.176931E0,-1.1246872E1,-6.681385E0,3.1508014E0,-5.140567E0,-1.2423929E0,-9.703379E0,-2.7717134E-1,-8.839796E-1,-1.7675416E0,3.6946278E0,-2.708963E0,-8.2241955E0,-1.0554044E0,-9.3135273E-1,1.1368606E-1,-6.631953E-1,4.3083295E-1,7.502394E-2,-5.334531E-1,-5.6411546E-2,-1.0777072E0,-5.803272E-1],"categories":[],"categories_nodes":[],"categories_segments":[],"categories_sizes":[],"default_left":[0,0,0,0,0,0,0,0,0,0,0,0,0,0,0,0,0,0,0,0,0,0,0,0,0],"id":0,"left_children":[1,3,5,7,9,11,13,-1,15,-1,-1,17,19,21,23,-1,-1,-1,-1,-1,-1,-1,-1,-1,-1],"loss_changes":[1.0526633E5,1.1969531E3,9.2605375E4,1.2165938E3,5.5776733E2,1.5140125E4,1.3234473E4,0E0,8.824219E0,0E0,0E0,7.9758496E3,9.203305E3,5.5721196E3,4.7519297E3,0E0,0E0,0E0,0E0,0E0,0E0,0E0,0E0,0E0,0E0],"parents":[2147483647,0,0,1,1,2,2,3,3,4,4,5,5,6,6,8,8,11,11,12,12,13,13,14,14],"right_children":[2,4,6,8,10,12,14,-1,16,-1,-1,18,20,22,24,-1,-1,-1,-1,-1,-1,-1,-1,-1,-1],"split_conditions":[4E0,3E0,2E1,5E0,2E0,6E0,2.2E1,-1.2423929E0,6E0,-2.7717134E-1,-8.839796E-1,5E0,1.8E1,4E0,4E0,-1.0554044E0,-9.3135273E-1,1.1368606E-1,-6.631953E-1,4.3083295E-1,7.502394E-2,-5.334531E-1,-5.6411546E-2,-1.0777072E0,-5.803272E-1],"split_indices":[1,1,1,0,0,1,1,0,0,0,0,0,1,0,0,0,0,0,0,0,0,0,0,0,0],"split_type":[0,0,0,0,0,0,0,0,0,0,0,0,0,0,0,0,0,0,0,0,0,0,0,0,0],"sum_hessian":[8.227E3,8.03E2,7.424E3,7.35E2,6.8E1,5.657E3,1.767E3,4.13E2,3.22E2,2.5E1,4.3E1,5.63E2,5.094E3,9.89E2,7.78E2,9.3E1,2.29E2,3.53E2,2.1E2,4.215E3,8.79E2,4.44E2,5.45E2,3.77E2,4.01E2],"tree_param":{"num_deleted":"0","num_feature":"2","num_nodes":"25","size_leaf_vector":"1"}},{"base_weights":[-8.1204093E-4,-9.787602E0,1.0589294E0,-1.0126572E1,-6.0300746E0,2.8357136E0,-4.6277814E0,-1.1184537E0,-8.739192E0,-2.5052026E-1,-7.975907E-1,-1.5917615E0,3.3252642E0,-2.4386625E0,-7.403905E0,-9.509867E-1,-8.386224E-1,1.0234962E-1,-5.971901E-1,3.877599E-1,6.75301E-2,-4.8022768E-1,-5.0780702E-2,-9.7022164E-1,-5.224388E-1],"categories":[],"categories_nodes":[],"categories_segments":[],"categories_sizes":[],"default_left":[0,0,0,0,0,0,0,0,0,0,0,0,0,0,0,0,0,0,0,0,0,0,0,0,0],"id":1,"left_children":[1,3,5,7,9,11,13,-1,15,-1,-1,17,19,21,23,-1,-1,-1,-1,-1,-1,-1,-1,-1,-1],"loss_changes":[8.534679E4,9.629844E2,7.503576E4,9.825469E2,4.532766E2,1.2268855E4,1.0726547E4,0E0,8.111328E0,0E0,0E0,6.466841E3,7.4547617E3,4.5157207E3,3.8514844E3,0E0,0E0,0E0,0E0,0E0,0E0,0E0,0E0,0E0,0E0],"parents":[2147483647,0,0,1,1,2,2,3,3,4,4,5,5,6,6,8,8,11,11,12,12,13,13,14,14],"right_children":[2,4,6,8,10,12,14,-1,16,-1,-1,18,20,22,24,-1,-1,-1,-1,-1,-1,-1,-1,-1,-1],"split_conditions":[4E0,3E0,2E1,5E0,2E0,6E0,2.2E1,-1.1184537E0,6E0,-2.5052026E-1,-7.975907E-1,5E0,1.8E1,4E0,4E0,-9.509867E-1,-8.386224E-1,1.0234962E-1,-5.971901E-1,3.877599E-1,6.75301E-2,-4.8022768E-1,-5.0780702E-2,-9.7022164E-1,-5.224388E-1],"split_indices":[1,1,1,0,0,1,1,0,0,0,0,0,1,0,0,0,0,0,0,0,0,0,0,0,0],"split_type":[0,0,0,0,0,0,0,0,0,0,0,0,0,0,0,0,0,0,0,0,0,0,0,0,0],"sum_hessian":[8.227E3,8.03E2,7.424E3,7.35E2,6.8E1,5.657E3,1.767E3,4.13E2,3.22E2,2.5E1,4.3E1,5.63E2,5.094E3,9.89E2,7.78E2,9.3E1,2.29E2,3.53E2,2.1E2,4.215E3,8.79E2,4.44E2,5.45E2,3.77E2,4.01E2],"tree_param":{"num_deleted":"0","num_feature":"2","num_nodes":"25","size_leaf_vector":"1"}},{"base_weights":[-1.4625288E-3,-8.813763E0,9.5275843E-1,-9.117866E0,-5.4422574E0,2.8017592E0,-3.5087337E0,-1.0068784E0,-7.8708134E0,-2.2643171E-1,-7.196443E-1,-1.4334626E0,3.3107977E0,-1.7472351E0,-6.6654305E0,-8.568997E-1,-7.551248E-1,9.214359E-2,-5.377541E-1,4.194593E-1,2.4390712E-1,-4.0573832E-1,-1.23509355E-2,-8.734561E-1,-4.703249E-1],"categories":[],"categories_nodes":[],"categories_segments":[],"categories_sizes":[],"default_left":[0,0,0,0,0,0,0,0,0,0,0,0,0,0,0,0,0,0,0,0,0,0,0,0,0],"id":2,"left_children":[1,3,5,7,9,11,13,-1,15,-1,-1,17,19,21,23,-1,-1,-1,-1,-1,-1,-1,-1,-1,-1],"loss_changes":[6.919667E4,7.7470703E2,6.1260906E4,7.9353516E2,3.6835913E2,1.1323172E4,1.2088037E4,0E0,7.359375E0,0E0,0E0,5.243333E3,3.6007656E3,5.2434624E3,3.121668E3,0E0,0E0,0E0,0E0,0E0,0E0,0E0,0E0,0E0,0E0],"parents":[2147483647,0,0,1,1,2,2,3,3,4,4,5,5,6,6,8,8,11,11,12,12,13,13,14,14],"right_children":[2,4,6,8,10,12,14,-1,16,-1,-1,18,20,22,24,-1,-1,-1,-1,-1,-1,-1,-1,-1,-1],"split_conditions":[4E0,3E0,1.9E1,5E0,2E0,6E0,2.2E1,-1.0068784E0,6E0,-2.2643171E-1,-7.196443E-1,5E0,5E0,4E0,4E0,-8.568997E-1,-7.551248E-1,9.214359E-2,-5.377541E-1,4.194593E-1,2.4390712E-1,-4.0573832E-1,-1.23509355E-2,-8.734561E-1,-4.703249E-1],"split_indices":[1,1,1,0,0,1,1,0,0,0,0,0,0,0,0,0,0,0,0,0,0,0,0,0,0],"split_type":[0,0,0,0,0,0,0,0,0,0,0,0,0,0,0,0,0,0,0,0,0,0,0,0,0],"sum_hessian":[8.227E3,8.03E2,7.424E3,7.35E2,6.8E1,5.249E3,2.175E3,4.13E2,3.22E2,2.5E1,4.3E1,5.63E2,4.686E3,1.397E3,7.78E2,9.3E1,2.29E2,3.53E2,2.1E2,2.325E3,2.361E3,5.76E2,8.21E2,3.77E2,4.01E2],"tree_param":{"num_deleted":"0","num_feature":"2","num_nodes":"25","size_leaf_vector":"1"}},{"base_weights":[-1.9371524E-3,-7.93682E0,8.5727465E-1,-8.209638E0,-4.9117427E0,2.521625E0,-3.1586702E0,-9.0643376E-1,-7.0887227E0,-2.0465942E-1,-6.493154E-1,2.4837393E-1,3.3202708E0,-1.5728108E0,-6.0006127E0,-7.7212137E-1,-6.7994064E-1,2.540306E-1,-2.5462517E-1,3.590274E-1,1.3602915E-1,-3.6523482E-1,-1.1117327E-2,-7.863416E-1,-4.2340946E-1],"categories":[],"categories_nodes":[],"categories_segments":[],"categories_sizes":[],"default_left":[0,0,0,0,0,0,0,0,0,0,0,0,0,0,0,0,0,0,0,0,0,0,0,0,0],"id":3,"left_children":[1,3,5,7,9,11,13,-1,15,-1,-1,17,19,21,23,-1,-1,-1,-1,-1,-1,-1,-1,-1,-1],"loss_changes":[5.610321E4,6.2321094E2,4.963621E4,6.408711E2,2.9934863E2,9.530672E3,9.797621E3,0E0,6.607422E0,0E0,0E0,8.755823E3,2.0510586E3,4.248857E3,2.5301445E3,0E0,0E0,0E0,0E0,0E0,0E0,0E0,0E0,0E0,0E0],"parents":[2147483647,0,0,1,1,2,2,3,3,4,4,5,5,6,6,8,8,11,11,12,12,13,13,14,14],"right_children":[2,4,6,8,10,12,14,-1,16,-1,-1,18,20,22,24,-1,-1,-1,-1,-1,-1,-1,-1,-1,-1],"split_conditions":[4E0,3E0,1.9E1,5E0,2E0,9E0,2.2E1,-9.0643376E-1,6E0,-2.0465942E-1,-6.493154E-1,5E0,1.8E1,4E0,4E0,-7.7212137E-1,-6.7994064E-1,2.540306E-1,-2.5462517E-1,3.590274E-1,1.3602915E-1,-3.6523482E-1,-1.1117327E-2,-7.863416E-1,-4.2340946E-1],"split_indices":[1,1,1,0,0,1,1,0,0,0,0,0,1,0,0,0,0,0,0,0,0,0,0,0,0],"split_type":[0,0,0,0,0,0,0,0,0,0,0,0,0,0,0,0,0,0,0,0,0,0,0,0,0],"sum_hessian":[8.227E3,8.03E2,7.424E3,7.35E2,6.8E1,5.249E3,2.175E3,4.13E2,3.22E2,2.5E1,4.3E1,1.365E3,3.884E3,1.397E3,7.78E2,9.3E1,2.29E2,7.5E2,6.15E2,3.413E3,4.71E2,5.76E2,8.21E2,3.77E2,4.01E2],"tree_param":{"num_deleted":"0","num_feature":"2","num_nodes":"25","size_leaf_vector":"1"}},{"base_weights":[-2.2667248E-3,-7.1471334E0,7.714E-1,-7.391878E0,-4.4329443E0,2.0774412E0,-3.4086635E0,-8.160092E-1,-6.384346E0,-1.8498063E-1,-5.8585954E-1,-1.3550934E0,2.4570038E0,-1.8366443E0,-5.4021044E0,-6.957306E-1,-6.122422E-1,5.762398E-2,-4.5889172E-1,2.8703645E-1,4.7383897E-2,-3.5538888E-1,-4.336948E-2,-6.5437907E-1,-3.057731E-1],"categories":[],"categories_nodes":[],"categories_segments":[],"categories_sizes":[],"default_left":[0,0,0,0,0,0,0,0,0,0,0,0,0,0,0,0,0,0,0,0,0,0,0,0,0],"id":4,"left_children":[1,3,5,7,9,11,13,-1,15,-1,-1,17,19,21,23,-1,-1,-1,-1,-1,-1,-1,-1,-1,-1],"loss_changes":[4.54878E4,5.013164E2,4.054264E4,5.175664E2,2.4326587E2,7.374924E3,5.530506E3,0E0,5.876953E0,0E0,0E0,3.5251577E3,4.17533E3,2.383574E3,2.0650137E3,0E0,0E0,0E0,0E0,0E0,0E0,0E0,0E0,0E0,0E0],"parents":[2147483647,0,0,1,1,2,2,3,3,4,4,5,5,6,6,8,8,11,11,12,12,13,13,14,14],"right_children":[2,4,6,8,10,12,14,-1,16,-1,-1,18,20,22,24,-1,-1,-1,-1,-1,-1,-1,-1,-1,-1],"split_conditions":[4E0,3E0,2E1,5E0,2E0,6E0,2.2E1,-8.160092E-1,6E0,-1.8498063E-1,-5.8585954E-1,5E0,1.8E1,4E0,5E0,-6.957306E-1,-6.122422E-1,5.762398E-2,-4.5889172E-1,2.8703645E-1,4.7383897E-2,-3.5538888E-1,-4.336948E-2,-6.5437907E-1,-3.057731E-1],"split_indices":[1,1,1,0,0,1,1,0,0,0,0,0,1,0,0,0,0,0,0,0,0,0,0,0,0],"split_type":[0,0,0,0,0,0,0,0,0,0,0,0,0,0,0,0,0,0,0,0,0,0,0,0,0],"sum_hessian":[8.227E3,8.03E2,7.424E3,7.35E2,6.8E1,5.657E3,1.767E3,4.13E2,3.22E2,2.5E1,4.3E1,5.63E2,5.094E3,9.89E2,7.78E2,9.3E1,2.29E2,3.53E2,2.1E2,4.215E3,8.79E2,4.44E2,5.45E2,5.22E2,2.56E2],"tree_param":{"num_deleted":"0","num_feature":"2","num_nodes":"25","size_leaf_vector":"1"}},{"base_weights":[-2.565504E-3,-6.436021E0,6.940676E-1,-6.655576E0,-4.000822E0,2.049337E0,-2.5760877E0,-7.3460543E-1,-5.7499614E0,-1.6719405E-1,-5.2860516E-1,1.10668525E-1,2.730462E0,-1.2998508E0,-4.8631268E0,-6.2689775E-1,-5.5128425E-1,1.576532E-1,-3.4458888E-1,2.9443982E-1,1.17726676E-1,-3.0251166E-1,-8.722535E-3,-6.426507E-1,-3.380985E-1],"categories":[],"categories_nodes":[],"categories_segments":[],"categories_sizes":[],"default_left":[0,0,0,0,0,0,0,0,0,0,0,0,0,0,0,0,0,0,0,0,0,0,0,0,0],"id":5,"left_children":[1,3,5,7,9,11,13,-1,15,-1,-1,17,19,21,23,-1,-1,-1,-1,-1,-1,-1,-1,-1,-1],"loss_changes":[3.6880367E4,4.032422E2,3.291244E4,4.1798438E2,1.9768921E2,6.9321973E3,6.344996E3,0E0,5.192383E0,0E0,0E0,7.126974E3,1.287459E3,2.9244932E3,1.783334E3,0E0,0E0,0E0,0E0,0E0,0E0,0E0,0E0,0E0,0E0],"parents":[2147483647,0,0,1,1,2,2,3,3,4,4,5,5,6,6,8,8,11,11,12,12,13,13,14,14],"right_children":[2,4,6,8,10,12,14,-1,16,-1,-1,18,20,22,24,-1,-1,-1,-1,-1,-1,-1,-1,-1,-1],"split_conditions":[4E0,3E0,1.9E1,5E0,2E0,9E0,2.2E1,-7.3460543E-1,6E0,-1.6719405E-1,-5.2860516E-1,6E0,1.8E1,4E0,4E0,-6.2689775E-1,-5.5128425E-1,1.576532E-1,-3.4458888E-1,2.9443982E-1,1.17726676E-1,-3.0251166E-1,-8.722535E-3,-6.426507E-1,-3.380985E-1],"split_indices":[1,1,1,0,0,1,1,0,0,0,0,0,1,0,0,0,0,0,0,0,0,0,0,0,0],"split_type":[0,0,0,0,0,0,0,0,0,0,0,0,0,0,0,0,0,0,0,0,0,0,0,0,0],"sum_hessian":[8.227E3,8.03E2,7.424E3,7.35E2,6.8E1,5.249E3,2.175E3,4.13E2,3.22E2,2.5E1,4.3E1,1.365E3,3.884E3,1.397E3,7.78E2,9.3E1,2.29E2,9.67E2,3.98E2,3.413E3,4.71E2,5.76E2,8.21E2,3.77E2,4.01E2],"tree_param":{"num_deleted":"0","num_feature":"2","num_nodes":"25","size_leaf_vector":"1"}},{"base_weights":[-2.755567E-3,-5.7956634E0,6.245172E-1,-5.992617E0,-3.6108234E0,1.6870519E0,-2.7761872E0,-6.613223E0,-5.178613E0,-1.5111768E-1,-4.7694597E-1,-1.2512178E0,2.0119777E0,-1.5129094E0,-4.3780727E0,-6.094416E-1,-6.839743E-1,-5.648748E-1,-4.9639556E-1,3.6157098E-2,-3.9511043E-1,2.3455429E-1,4.1161045E-2,-2.8974673E-1,-3.8169842E-2,-5.333677E-1,-2.4163651E-1],"categories":[],"categories_nodes":[],"categories_segments":[],"categories_sizes":[],"default_left":[0,0,0,0,0,0,0,0,0,0,0,0,0,0,0,0,0,0,0,0,0,0,0,0,0,0,0],"id":6,"left_children":[1,3,5,7,9,11,13,15,17,-1,-1,19,21,23,25,-1,-1,-1,-1,-1,-1,-1,-1,-1,-1,-1,-1],"loss_changes":[2.9901977E4,3.2433594E2,2.6833928E4,3.3756055E2,1.6065057E2,5.4043223E3,3.5711465E3,6.96875E0,4.555664E0,0E0,0E0,2.45728E3,2.7188828E3,1.549459E3,1.4474385E3,0E0,0E0,0E0,0E0,0E0,0E0,0E0,0E0,0E0,0E0,0E0,0E0],"parents":[2147483647,0,0,1,1,2,2,3,3,4,4,5,5,6,6,7,7,8,8,11,11,12,12,13,13,14,14],"right_children":[2,4,6,8,10,12,14,16,18,-1,-1,20,22,24,26,-1,-1,-1,-1,-1,-1,-1,-1,-1,-1,-1,-1],"split_conditions":[4E0,3E0,2E1,5E0,2E0,6E0,2.2E1,2E0,6E0,-1.5111768E-1,-4.7694597E-1,5E0,1.8E1,4E0,5E0,-6.094416E-1,-6.839743E-1,-5.648748E-1,-4.9639556E-1,3.6157098E-2,-3.9511043E-1,2.3455429E-1,4.1161045E-2,-2.8974673E-1,-3.8169842E-2,-5.333677E-1,-2.4163651E-1],"split_indices":[1,1,1,0,0,1,1,0,0,0,0,0,1,0,0,0,0,0,0,0,0,0,0,0,0,0,0],"split_type":[0,0,0,0,0,0,0,0,0,0,0,0,0,0,0,0,0,0,0,0,0,0,0,0,0,0,0],"sum_hessian":[8.227E3,8.03E2,7.424E3,7.35E2,6.8E1,5.657E3,1.767E3,4.13E2,3.22E2,2.5E1,4.3E1,5.63E2,5.094E3,9.89E2,7.78E2,1.34E2,2.79E2,9.3E1,2.29E2,3.53E2,2.1E2,4.215E3,8.79E2,4.44E2,5.45E2,5.22E2,2.56E2],"tree_param":{"num_deleted":"0","num_feature":"2","num_nodes":"27","size_leaf_vector":"1"}},{"base_weights":[-2.9865E-3,-5.2198067E0,5.61906E-1,-5.396555E0,-3.2588437E0,1.3565658E0,-3.1762347E0,-5.9550247E0,-4.6640377E0,-1.3658716E-1,-4.3033534E-1,1.6347686E0,-9.143323E-1,-4.8707867E0,-1.7997072E0,-5.489489E-1,-6.158212E-1,-4.0498486E-1,-4.808963E-1,1.9739698E-1,-4.5415025E-2,-5.8248776E-1,3.6117435E-2,-4.6084937E-1,-6.1533695E-1,-1.1847278E-1,-5.35077E-1],"categories":[],"categories_nodes":[],"categories_segments":[],"categories_sizes":[],"default_left":[0,0,0,0,0,0,0,0,0,0,0,0,0,0,0,0,0,0,0,0,0,0,0,0,0,0,0],"id":7,"left_children":[1,3,5,7,9,11,13,15,17,-1,-1,19,21,23,25,-1,-1,-1,-1,-1,-1,-1,-1,-1,-1,-1,-1],"loss_changes":[2.4250375E4,2.6108008E2,2.2060646E4,2.7331445E2,1.3055084E2,3.870455E3,3.0282754E3,5.354492E0,9.275391E0,0E0,0E0,3.8668203E3,4.1923403E3,1.6777051E2,1.5660183E3,0E0,0E0,0E0,0E0,0E0,0E0,0E0,0E0,0E0,0E0,0E0,0E0],"parents":[2147483647,0,0,1,1,2,2,3,3,4,4,5,5,6,6,7,7,8,8,11,11,12,12,13,13,14,14],"right_children":[2,4,6,8,10,12,14,16,18,-1,-1,20,22,24,26,-1,-1,-1,-1,-1,-1,-1,-1,-1,-1,-1,-1],"split_conditions":[4E0,3E0,2.1E1,5E0,2E0,7E0,4E0,2E0,1E0,-1.3658716E-1,-4.3033534E-1,1.9E1,9E0,2.3E1,7E0,-5.489489E-1,-6.158212E-1,-4.0498486E-1,-4.808963E-1,1.9739698E-1,-4.5415025E-2,-5.8248776E-1,3.6117435E-2,-4.6084937E-1,-6.1533695E-1,-1.1847278E-1,-5.35077E-1],"split_indices":[1,1,1,0,0,0,0,0,1,0,0,1,1,1,0,0,0,0,0,0,0,0,0,0,0,0,0],"split_type":[0,0,0,0,0,0,0,0,0,0,0,0,0,0,0,0,0,0,0,0,0,0,0,0,0,0,0],"sum_hessian":[8.227E3,8.03E2,7.424E3,7.35E2,6.8E1,6.123E3,1.301E3,4.13E2,3.22E2,2.5E1,4.3E1,5.455E3,6.68E2,5.82E2,7.19E2,1.34E2,2.79E2,6.7E1,2.55E2,4.693E3,7.62E2,1.37E2,5.31E2,4.87E2,9.5E1,6.14E2,1.05E2],"tree_param":{"num_deleted":"0","num_feature":"2","num_nodes":"27","size_leaf_vector":"1"}},{"base_weights":[-3.2642463E-3,-4.7010818E0,5.0542915E-1,-4.859686E0,-2.9411757E0,1.2208447E0,-2.8599396E0,-5.3623357E0,-4.200377E0,-1.2345379E-1,-3.8827989E-1,-1.2242197E0,1.468605E0,-4.385554E0,-1.6206439E0,-4.9446058E-1,-5.5445904E-1,-4.6334845E-1,-4.0051055E-1,1.2867691E-2,-3.4882063E-1,1.8293713E-1,-4.6554346E-2,-4.1485888E-1,-5.5444425E-1,-9.574302E-2,-4.361405E-1],"categories":[],"categories_nodes":[],"categories_segments":[],"categories_sizes":[],"default_left":[0,0,0,0,0,0,0,0,0,0,0,0,0,0,0,0,0,0,0,0,0,0,0,0,0,0,0],"id":8,"left_children":[1,3,5,7,9,11,13,15,17,-1,-1,19,21,23,25,-1,-1,-1,-1,-1,-1,-1,-1,-1,-1,-1,-1],"loss_changes":[1.966523E4,2.10125E2,1.7880195E4,2.2138867E2,1.0609015E2,3.7116562E3,2.4545664E3,4.102539E0,8.759277E0,0E0,0E0,1.7279467E3,3.8811816E3,1.3710059E2,1.3045754E3,0E0,0E0,0E0,0E0,0E0,0E0,0E0,0E0,0E0,0E0,0E0,0E0],"parents":[2147483647,0,0,1,1,2,2,3,3,4,4,5,5,6,6,7,7,8,8,11,11,12,12,13,13,14,14],"right_children":[2,4,6,8,10,12,14,16,18,-1,-1,20,22,24,26,-1,-1,-1,-1,-1,-1,-1,-1,-1,-1,-1,-1],"split_conditions":[4E0,3E0,2.1E1,5E0,2E0,6E0,4E0,2E0,6E0,-1.2345379E-1,-3.8827989E-1,5E0,1.9E1,2.3E1,2.3E1,-4.9446058E-1,-5.5445904E-1,-4.6334845E-1,-4.0051055E-1,1.2867691E-2,-3.4882063E-1,1.8293713E-1,-4.6554346E-2,-4.1485888E-1,-5.5444425E-1,-9.574302E-2,-4.361405E-1],"split_indices":[1,1,1,0,0,1,0,0,0,0,0,0,1,1,1,0,0,0,0,0,0,0,0,0,0,0,0],"split_type":[0,0,0,0,0,0,0,0,0,0,0,0,0,0,0,0,0,0,0,0,0,0,0,0,0,0,0],"sum_hessian":[8.227E3,8.03E2,7.424E3,7.35E2,6.8E1,6.123E3,1.301E3,4.13E2,3.22E2,2.5E1,4.3E1,5.63E2,5.56E3,5.82E2,7.19E2,1.34E2,2.79E2,9.3E1,2.29E2,3.53E2,2.1E2,4.686E3,8.74E2,4.87E2,9.5E1,5.8E2,1.39E2],"tree_param":{"num_deleted":"0","num_feature":"2","num_nodes":"27","size_leaf_vector":"1"}},{"base_weights":[-3.4393568E-3,-4.2339892E0,4.5465702E-1,-4.376316E0,-2.6544745E0,1.0987275E0,-2.5750988E0,-4.8286357E0,-3.7830136E0,-1.11583196E-1,-3.5033435E-1,1.3449203E0,-9.1072994E-1,-3.948661E0,-1.4593182E0,-4.4538078E-1,-4.9921113E-1,-3.2340208E-1,-3.9140627E-1,1.710263E-1,3.518305E-3,-5.1507825E-1,1.9084517E-2,-3.2732412E-1,-4.3063006E-1,-9.0720855E-2,-4.6488294E-1],"categories":[],"categories_nodes":[],"categories_segments":[],"categories_sizes":[],"default_left":[0,0,0,0,0,0,0,0,0,0,0,0,0,0,0,0,0,0,0,0,0,0,0,0,0,0,0],"id":9,"left_children":[1,3,5,7,9,11,13,15,17,-1,-1,19,21,23,25,-1,-1,-1,-1,-1,-1,-1,-1,-1,-1,-1,-1],"loss_changes":[1.5947784E4,1.6912793E2,1.4491797E4,1.7924805E2,8.621219E1,3.030853E3,1.9896758E3,3.133789E0,1.0580078E1,0E0,0E0,2.6106533E3,3.1257056E3,1.26731445E2,1.2636737E3,0E0,0E0,0E0,0E0,0E0,0E0,0E0,0E0,0E0,0E0,0E0,0E0],"parents":[2147483647,0,0,1,1,2,2,3,3,4,4,5,5,6,6,7,7,8,8,11,11,12,12,13,13,14,14],"right_children":[2,4,6,8,10,12,14,16,18,-1,-1,20,22,24,26,-1,-1,-1,-1,-1,-1,-1,-1,-1,-1,-1,-1],"split_conditions":[4E0,3E0,2.1E1,5E0,2E0,7E0,4E0,2E0,1E0,-1.11583196E-1,-3.5033435E-1,1.8E1,9E0,2.2E1,7E0,-4.4538078E-1,-4.9921113E-1,-3.2340208E-1,-3.9140627E-1,1.710263E-1,3.518305E-3,-5.1507825E-1,1.9084517E-2,-3.2732412E-1,-4.3063006E-1,-9.0720855E-2,-4.6488294E-1],"split_indices":[1,1,1,0,0,0,0,0,1,0,0,1,1,1,0,0,0,0,0,0,0,0,0,0,0,0,0],"split_type":[0,0,0,0,0,0,0,0,0,0,0,0,0,0,0,0,0,0,0,0,0,0,0,0,0,0,0],"sum_hessian":[8.227E3,8.03E2,7.424E3,7.35E2,6.8E1,6.123E3,1.301E3,4.13E2,3.22E2,2.5E1,4.3E1,5.455E3,6.68E2,5.82E2,7.19E2,1.34E2,2.79E2,6.7E1,2.55E2,4.265E3,1.19E3,1.37E2,5.31E2,2.05E2,3.77E2,6.14E2,1.05E2],"tree_param":{"num_deleted":"0","num_feature":"2","num_nodes":"27","size_leaf_vector":"1"}},{"base_weights":[-3.551882E-3,-3.8132286E0,4.089712E-1,-3.940939E0,-2.3957217E0,1.2241724E0,-1.5580395E0,-4.2559795E0,-3.2293454E-1,-1.0085409E-1,-3.160971E-1,1.21232726E-1,1.9443789E0,-7.6041144E-1,-2.9874697E0,-4.3480536E-1,-3.805186E-1,5.0857224E-2,-3.3766356E-1,2.5123757E-1,1.3755159E-1,-2.0252936E-1,1.2839316E-2,-3.6891636E-1,-1.5478848E-1],"categories":[],"categories_nodes":[],"categories_segments":[],"categories_sizes":[],"default_left":[0,0,0,0,0,0,0,0,0,0,0,0,0,0,0,0,0,0,0,0,0,0,0,0,0],"id":10,"left_children":[1,3,5,7,9,11,13,15,-1,-1,-1,17,19,21,23,-1,-1,-1,-1,-1,-1,-1,-1,-1,-1],"loss_changes":[1.2932517E4,1.3610742E2,1.1907965E4,1.5125293E2,7.005826E1,4.1700713E3,2.4787026E3,4.498047E0,0E0,0E0,0E0,2.8130566E3,1.022749E3,1.571938E3,7.8119434E2,0E0,0E0,0E0,0E0,0E0,0E0,0E0,0E0,0E0,0E0],"parents":[2147483647,0,0,1,1,2,2,3,3,4,4,5,5,6,6,7,7,11,11,12,12,13,13,14,14],"right_children":[2,4,6,8,10,12,14,16,-1,-1,-1,18,20,22,24,-1,-1,-1,-1,-1,-1,-1,-1,-1,-1],"split_conditions":[4E0,3E0,1.9E1,6E0,2E0,1.1E1,2.2E1,5E0,-3.2293454E-1,-1.0085409E-1,-3.160971E-1,7E0,5E0,4E0,5E0,-4.3480536E-1,-3.805186E-1,5.0857224E-2,-3.3766356E-1,2.5123757E-1,1.3755159E-1,-2.0252936E-1,1.2839316E-2,-3.6891636E-1,-1.5478848E-1],"split_indices":[1,1,1,0,0,1,1,0,0,0,0,0,0,0,0,0,0,0,0,0,0,0,0,0,0],"split_type":[0,0,0,0,0,0,0,0,0,0,0,0,0,0,0,0,0,0,0,0,0,0,0,0,0],"sum_hessian":[8.227E3,8.03E2,7.424E3,7.35E2,6.8E1,5.249E3,2.175E3,5.06E2,2.29E2,2.5E1,4.3E1,2.074E3,3.175E3,1.397E3,7.78E2,4.13E2,9.3E1,1.868E3,2.06E2,1.587E3,1.588E3,5.76E2,8.21E2,5.22E2,2.56E2],"tree_param":{"num_deleted":"0","num_feature":"2","num_nodes":"25","size_leaf_vector":"1"}},{"base_weights":[-3.4602853E-3,-3.4338403E0,3.6799142E-1,-3.5483916E0,-2.1621923E0,8.950873E-1,-2.111504E0,-3.8319898E0,-2.9078147E-1,-9.1156594E-2,-2.852058E-1,-1.1866975E0,1.1060622E0,-2.9076793E0,-7.283757E-1,-3.9142987E-1,-3.4287152E-1,-1.0541155E-2,-2.995174E-1,1.4807104E-1,-6.824886E-3,-2.1871217E-1,-3.3209524E-1,2.329169E-2,-4.0950972E-1],"categories":[],"categories_nodes":[],"categories_segments":[],"categories_sizes":[],"default_left":[0,0,0,0,0,0,0,0,0,0,0,0,0,0,0,0,0,0,0,0,0,0,0,0,0],"id":11,"left_children":[1,3,5,7,9,11,13,15,-1,-1,-1,17,19,21,23,-1,-1,-1,-1,-1,-1,-1,-1,-1,-1],"loss_changes":[1.048555E4,1.0944531E2,9.705859E3,1.2256348E2,5.693091E1,2.691E3,1.4316611E3,3.4077148E0,0E0,0E0,0E0,1.1025751E3,2.4466816E3,2.3870801E2,1.5447188E3,0E0,0E0,0E0,0E0,0E0,0E0,0E0,0E0,0E0,0E0],"parents":[2147483647,0,0,1,1,2,2,3,3,4,4,5,5,6,6,7,7,11,11,12,12,13,13,14,14],"right_children":[2,4,6,8,10,12,14,16,-1,-1,-1,18,20,22,24,-1,-1,-1,-1,-1,-1,-1,-1,-1,-1],"split_conditions":[4E0,3E0,2.1E1,6E0,2E0,6E0,5E0,5E0,-2.9078147E-1,-9.1156594E-2,-2.852058E-1,5E0,1.8E1,2.2E1,7E0,-3.9142987E-1,-3.4287152E-1,-1.0541155E-2,-2.995174E-1,1.4807104E-1,-6.824886E-3,-2.1871217E-1,-3.3209524E-1,2.329169E-2,-4.0950972E-1],"split_indices":[1,1,1,0,0,1,0,0,0,0,0,0,1,1,0,0,0,0,0,0,0,0,0,0,0],"split_type":[0,0,0,0,0,0,0,0,0,0,0,0,0,0,0,0,0,0,0,0,0,0,0,0,0],"sum_hessian":[8.227E3,8.03E2,7.424E3,7.35E2,6.8E1,6.123E3,1.301E3,5.06E2,2.29E2,2.5E1,4.3E1,5.63E2,5.56E3,8.25E2,4.76E2,4.13E2,9.3E1,3.53E2,2.1E2,4.215E3,1.345E3,3.03E2,5.22E2,3.71E2,1.05E2],"tree_param":{"num_deleted":"0","num_feature":"2","num_nodes":"25","size_leaf_vector":"1"}},{"base_weights":[-3.4191902E-3,-3.092199E0,3.310431E-1,-3.194945E0,-1.9514275E0,9.9619585E-1,-1.2739123E0,-3.450239E0,-2.6182976E-1,-8.239151E-2,-2.5733343E-1,-7.2025515E-2,1.5635049E0,-2.3120782E0,-4.630503E-1,-3.523814E-1,-3.089491E-1,6.760072E-2,-2.0898986E-1,1.7400633E-1,4.537107E-2,-1.3003708E-1,-2.9536614E-1,-8.770153E-3,-3.3660147E-1],"categories":[],"categories_nodes":[],"categories_segments":[],"categories_sizes":[],"default_left":[0,0,0,0,0,0,0,0,0,0,0,0,0,0,0,0,0,0,0,0,0,0,0,0,0],"id":12,"left_children":[1,3,5,7,9,11,13,15,-1,-1,-1,17,19,21,23,-1,-1,-1,-1,-1,-1,-1,-1,-1,-1],"loss_changes":[8.501209E3,8.800244E1,7.927757E3,9.931641E1,4.6263123E1,3.1816743E3,1.8307063E3,2.5698242E0,0E0,0E0,0E0,2.7516033E3,6.711006E2,6.153955E2,1.3323152E3,0E0,0E0,0E0,0E0,0E0,0E0,0E0,0E0,0E0,0E0],"parents":[2147483647,0,0,1,1,2,2,3,3,4,4,5,5,6,6,7,7,11,11,12,12,13,13,14,14],"right_children":[2,4,6,8,10,12,14,16,-1,-1,-1,18,20,22,24,-1,-1,-1,-1,-1,-1,-1,-1,-1,-1],"split_conditions":[4E0,3E0,1.9E1,6E0,2E0,1E1,4E0,5E0,-2.6182976E-1,-8.239151E-2,-2.5733343E-1,6E0,1.8E1,2.1E1,2.3E1,-3.523814E-1,-3.089491E-1,6.760072E-2,-2.0898986E-1,1.7400633E-1,4.537107E-2,-1.3003708E-1,-2.9536614E-1,-8.770153E-3,-3.3660147E-1],"split_indices":[1,1,1,0,0,1,0,0,0,0,0,0,1,1,1,0,0,0,0,0,0,0,0,0,0],"split_type":[0,0,0,0,0,0,0,0,0,0,0,0,0,0,0,0,0,0,0,0,0,0,0,0,0],"sum_hessian":[8.227E3,8.03E2,7.424E3,7.35E2,6.8E1,5.249E3,2.175E3,5.06E2,2.29E2,2.5E1,4.3E1,1.821E3,3.428E3,9.53E2,1.222E3,4.13E2,9.3E1,1.329E3,4.92E2,2.957E3,4.71E2,3.71E2,5.82E2,1.083E3,1.39E2],"tree_param":{"num_deleted":"0","num_feature":"2","num_nodes":"25","size_leaf_vector":"1"}},{"base_weights":[-3.3145829E-3,-2.077717E0,4.0993395E-1,-2.876705E0,-1.1439624E0,1.1326152E0,-1.1468753E0,-3.1065197E0,-2.3576061E-1,1.624801E-1,-2.197046E0,1.7604417E0,5.1387805E-1,-2.081316E0,-4.1702783E-1,-2.8418407E-1,-3.1939867E-1,-1.1060788E-1,7.892277E-2,-1.7260502E-1,-3.480055E-1,2.02123E-1,-2.3289965E-2,-2.773897E-1,9.3244776E-2,-1.17068306E-1,-2.658802E-1,-7.893964E-3,-3.031818E-1],"categories":[],"categories_nodes":[],"categories_segments":[],"categories_sizes":[],"default_left":[0,0,0,0,0,0,0,0,0,0,0,0,0,0,0,0,0,0,0,0,0,0,0,0,0,0,0,0,0],"id":13,"left_children":[1,3,5,7,9,11,13,15,-1,17,19,21,23,25,27,-1,-1,-1,-1,-1,-1,-1,-1,-1,-1,-1,-1,-1,-1],"loss_changes":[7.0542534E3,1.0165718E3,7.721576E3,8.047803E1,8.698584E2,1.8198057E3,1.4831626E3,2.6606445E0,0E0,2.258767E2,2.0549524E2,1.2096191E3,3.2530833E3,4.985747E2,1.080929E3,0E0,0E0,0E0,0E0,0E0,0E0,0E0,0E0,0E0,0E0,0E0,0E0,0E0,0E0],"parents":[2147483647,0,0,1,1,2,2,3,3,4,4,5,5,6,6,7,7,9,9,10,10,11,11,12,12,13,13,14,14],"right_children":[2,4,6,8,10,12,14,16,-1,18,20,22,24,26,28,-1,-1,-1,-1,-1,-1,-1,-1,-1,-1,-1,-1,-1,-1],"split_conditions":[6E0,3E0,1.9E1,6E0,4E0,5E0,4E0,2E0,-2.3576061E-1,2E0,7E0,1.8E1,8E0,2.1E1,2.3E1,-2.8418407E-1,-3.1939867E-1,-1.1060788E-1,7.892277E-2,-1.7260502E-1,-3.480055E-1,2.02123E-1,-2.3289965E-2,-2.773897E-1,9.3244776E-2,-1.17068306E-1,-2.658802E-1,-7.893964E-3,-3.031818E-1],"split_indices":[1,1,1,0,0,0,0,0,0,0,0,1,1,1,1,0,0,0,0,0,0,0,0,0,0,0,0,0,0],"split_type":[0,0,0,0,0,0,0,0,0,0,0,0,0,0,0,0,0,0,0,0,0,0,0,0,0,0,0,0,0],"sum_hessian":[8.227E3,1.366E3,6.861E3,7.35E2,6.31E2,4.686E3,2.175E3,5.06E2,2.29E2,2.82E2,3.49E2,2.325E3,2.361E3,9.53E2,1.222E3,1.34E2,3.72E2,9.3E1,1.89E2,2.57E2,9.2E1,2.056E3,2.69E2,2.66E2,2.095E3,3.71E2,5.82E2,1.083E3,1.39E2],"tree_param":{"num_deleted":"0","num_feature":"2","num_nodes":"29","size_leaf_vector":"1"}},{"base_weights":[-3.237432E-3,-1.8709633E0,3.6883843E-1,-2.590175E0,-1.0304403E0,1.0193523E0,-1.0325068E0,-2.8650546E0,-2.229833E0,1.4611995E-1,-1.9788293E0,1.5844738E0,4.6241242E-1,-4.6707472E-1,-2.0459108E0,-2.5597617E-1,-3.0020174E-1,-1.7355527E-1,-2.3524158E-1,-9.966474E-2,7.1072005E-2,-1.768112E-1,-4.64743E-1,1.8192047E-1,-2.0969614E-2,-2.4975462E-1,8.392476E-2,-1.6415E-1,4.412874E-3,-1.7853749E-1,-4.743788E-1],"categories":[],"categories_nodes":[],"categories_segments":[],"categories_sizes":[],"default_left":[0,0,0,0,0,0,0,0,0,0,0,0,0,0,0,0,0,0,0,0,0,0,0,0,0,0,0,0,0,0,0],"id":14,"left_children":[1,3,5,7,9,11,13,15,17,19,21,23,25,27,29,-1,-1,-1,-1,-1,-1,-1,-1,-1,-1,-1,-1,-1,-1,-1,-1],"loss_changes":[5.7186216E3,8.237012E2,6.256415E3,6.6512695E1,7.05498E2,1.4744473E3,1.2459167E3,9.626465E0,1.5487793E1,1.8330177E2,1.8859497E2,9.799697E2,2.63671E3,8.3939014E2,5.390847E2,0E0,0E0,0E0,0E0,0E0,0E0,0E0,0E0,0E0,0E0,0E0,0E0,0E0,0E0,0E0,0E0],"parents":[2147483647,0,0,1,1,2,2,3,3,4,4,5,5,6,6,7,7,8,8,9,9,10,10,11,11,12,12,13,13,14,14],"right_children":[2,4,6,8,10,12,14,16,18,20,22,24,26,28,30,-1,-1,-1,-1,-1,-1,-1,-1,-1,-1,-1,-1,-1,-1,-1,-1],"split_conditions":[6E0,3E0,1.9E1,5E0,4E0,5E0,2.2E1,2E0,1E0,2E0,5E0,1.8E1,8E0,3E0,7E0,-2.5597617E-1,-3.0020174E-1,-1.7355527E-1,-2.3524158E-1,-9.966474E-2,7.1072005E-2,-1.768112E-1,-4.64743E-1,1.8192047E-1,-2.0969614E-2,-2.4975462E-1,8.392476E-2,-1.6415E-1,4.412874E-3,-1.7853749E-1,-4.743788E-1],"split_indices":[1,1,1,0,0,0,1,0,1,0,1,1,1,0,0,0,0,0,0,0,0,0,0,0,0,0,0,0,0,0,0],"split_type":[0,0,0,0,0,0,0,0,0,0,0,0,0,0,0,0,0,0,0,0,0,0,0,0,0,0,0,0,0,0,0],"sum_hessian":[8.227E3,1.366E3,6.861E3,7.35E2,6.31E2,4.686E3,2.175E3,4.13E2,3.22E2,2.82E2,3.49E2,2.325E3,2.361E3,1.397E3,7.78E2,1.34E2,2.79E2,6.7E1,2.55E2,9.3E1,1.89E2,3.25E2,2.4E1,2.056E3,2.69E2,2.66E2,2.095E3,4.23E2,9.74E2,7.11E2,6.7E1],"tree_param":{"num_deleted":"0","num_feature":"2","num_nodes":"31","size_leaf_vector":"1"}},{"base_weights":[-3.211964E-3,-1.6850631E0,3.3183524E-1,-2.3324685E0,-9.2845654E-1,9.174157E-1,-9.296295E-1,-2.5239732E0,-1.9001845E0,-1.373862E-1,-2.1051779E0,1.0902853E0,-5.8256096E-1,-1.5099953E0,-2.9798718E-3,-2.3056816E-1,-2.596213E-1,-2.2265013E-1,-1.8132427E-1,1.3140718E-2,-9.201815E-2,-1.8681881E-1,-4.201277E-1,6.452396E-2,1.5442215E-1,-3.9825436E-1,-4.689097E-3,-6.60362E-2,-2.035845E-1,6.944155E-2,-1.9927822E-1],"categories":[],"categories_nodes":[],"categories_segments":[],"categories_sizes":[],"default_left":[0,0,0,0,0,0,0,0,0,0,0,0,0,0,0,0,0,0,0,0,0,0,0,0,0,0,0,0,0,0,0],"id":15,"left_children":[1,3,5,7,9,11,13,15,17,19,21,23,25,27,29,-1,-1,-1,-1,-1,-1,-1,-1,-1,-1,-1,-1,-1,-1,-1,-1],"loss_changes":[4.637033E3,6.674336E2,5.0697373E3,5.6133545E1,5.8802E2,1.2159763E3,1.1702391E3,2.008789E0,2.488037E0,7.9866394E1,1.1832678E2,8.481035E2,8.831284E2,5.964468E2,1.1656464E3,0E0,0E0,0E0,0E0,0E0,0E0,0E0,0E0,0E0,0E0,0E0,0E0,0E0,0E0,0E0,0E0],"parents":[2147483647,0,0,1,1,2,2,3,3,4,4,5,5,6,6,7,7,8,8,9,9,10,10,11,11,12,12,13,13,14,14],"right_children":[2,4,6,8,10,12,14,16,18,20,22,24,26,28,30,-1,-1,-1,-1,-1,-1,-1,-1,-1,-1,-1,-1,-1,-1,-1,-1],"split_conditions":[6E0,3E0,1.9E1,6E0,5E0,7E0,5E0,2E0,1E0,4E0,5E0,1.3E1,9E0,2.1E1,7E0,-2.3056816E-1,-2.596213E-1,-2.2265013E-1,-1.8132427E-1,1.3140718E-2,-9.201815E-2,-1.8681881E-1,-4.201277E-1,6.452396E-2,1.5442215E-1,-3.9825436E-1,-4.689097E-3,-6.60362E-2,-2.035845E-1,6.944155E-2,-1.9927822E-1],"split_indices":[1,1,1,0,0,0,0,0,1,0,1,1,1,1,0,0,0,0,0,0,0,0,0,0,0,0,0,0,0,0,0],"split_type":[0,0,0,0,0,0,0,0,0,0,0,0,0,0,0,0,0,0,0,0,0,0,0,0,0,0,0,0,0,0,0],"sum_hessian":[8.227E3,1.366E3,6.861E3,7.35E2,6.31E2,4.686E3,2.175E3,5.06E2,2.29E2,3.78E2,2.53E2,4.202E3,4.84E2,1.337E3,8.38E2,1.34E2,3.72E2,4.3E1,1.86E2,2.82E2,9.6E1,2.29E2,2.4E1,2.123E3,2.079E3,6.5E1,4.19E2,5.12E2,8.25E2,6.21E2,2.17E2],"tree_param":{"num_deleted":"0","num_feature":"2","num_nodes":"31","size_leaf_vector":"1"}},{"base_weights":[-3.153792E-3,-1.5177127E0,2.9856658E-1,-2.1004364E0,-8.36696E-1,6.747681E-1,-1.3084652E0,-2.3303022E0,-1.7993071E0,-1.2385574E-1,-1.8970495E0,8.210317E-1,-5.427755E-1,-1.8325069E0,-3.9826202E-1,-2.0768213E-1,-2.4441937E-1,-1.3321252E-1,-1.9163738E-1,-9.110438E-2,1.3530346E-2,-1.3807154E-1,-2.776072E-1,1.0585208E-1,6.7595667E-3,-3.5903233E-1,-1.6367603E-2,-1.2986054E-1,-2.1393397E-1,3.5447955E-2,-3.036202E-1],"categories":[],"categories_nodes":[],"categories_segments":[],"categories_sizes":[],"default_left":[0,0,0,0,0,0,0,0,0,0,0,0,0,0,0,0,0,0,0,0,0,0,0,0,0,0,0,0,0,0,0],"id":16,"left_children":[1,3,5,7,9,11,13,15,17,19,21,23,25,27,29,-1,-1,-1,-1,-1,-1,-1,-1,-1,-1,-1,-1,-1,-1,-1,-1],"loss_changes":[3.7604292E3,5.40729E2,4.1494272E3,4.6752197E1,4.774703E2,9.907615E2,6.2030396E2,6.8757324E0,1.5112427E1,7.744193E1,1.1144989E2,8.883301E2,6.891406E2,1.3253589E2,9.4824896E2,0E0,0E0,0E0,0E0,0E0,0E0,0E0,0E0,0E0,0E0,0E0,0E0,0E0,0E0,0E0,0E0],"parents":[2147483647,0,0,1,1,2,2,3,3,4,4,5,5,6,6,7,7,8,8,9,9,10,10,11,11,12,12,13,13,14,14],"right_children":[2,4,6,8,10,12,14,16,18,20,22,24,26,28,30,-1,-1,-1,-1,-1,-1,-1,-1,-1,-1,-1,-1,-1,-1,-1,-1],"split_conditions":[6E0,3E0,2.1E1,5E0,5E0,7E0,5E0,2E0,1E0,2E0,7E0,1.8E1,9E0,2.2E1,7E0,-2.0768213E-1,-2.4441937E-1,-1.3321252E-1,-1.9163738E-1,-9.110438E-2,1.3530346E-2,-1.3807154E-1,-2.776072E-1,1.0585208E-1,6.7595667E-3,-3.5903233E-1,-1.6367603E-2,-1.2986054E-1,-2.1393397E-1,3.5447955E-2,-3.036202E-1],"split_indices":[1,1,1,0,0,0,0,0,1,0,0,1,1,1,0,0,0,0,0,0,0,0,0,0,0,0,0,0,0,0,0],"split_type":[0,0,0,0,0,0,0,0,0,0,0,0,0,0,0,0,0,0,0,0,0,0,0,0,0,0,0,0,0,0,0],"sum_hessian":[8.227E3,1.366E3,6.861E3,7.35E2,6.31E2,5.56E3,1.301E3,4.13E2,3.22E2,3.78E2,2.53E2,4.964E3,5.96E2,8.25E2,4.76E2,1.34E2,2.79E2,6.7E1,2.55E2,9.3E1,2.85E2,1.61E2,9.2E1,3.774E3,1.19E3,6.5E1,5.31E2,3.03E2,5.22E2,3.71E2,1.05E2],"tree_param":{"num_deleted":"0","num_feature":"2","num_nodes":"31","size_leaf_vector":"1"}},{"base_weights":[-3.0991575E-3,-1.3668706E0,2.6858237E-1,-1.8914485E0,-7.53807E-1,7.462269E-1,-7.603646E-1,-2.0507627E0,-1.532041E0,1.3921538E-1,-1.4737257E0,1.2233853E0,2.7602518E-1,-1.4712572E0,-2.0521174E-1,-2.098364E-1,-1.8192977E-1,-1.8787265E-1,-1.4422752E-1,-8.209085E-2,6.134913E-2,-1.0975549E-1,-2.5014496E-1,6.45633E-2,1.8280329E-1,-2.262117E-1,5.99216E-2,-8.7958775E-2,-1.8462655E-1,6.7614145E-3,-2.3161979E-1],"categories":[],"categories_nodes":[],"categories_segments":[],"categories_sizes":[],"default_left":[0,0,0,0,0,0,0,0,0,0,0,0,0,0,0,0,0,0,0,0,0,0,0,0,0,0,0,0,0,0,0],"id":17,"left_children":[1,3,5,7,9,11,13,15,17,19,21,23,25,27,29,-1,-1,-1,-1,-1,-1,-1,-1,-1,-1,-1,-1,-1,-1,-1,-1],"loss_changes":[3.0489355E3,4.3820093E2,3.3730405E3,3.9000732E1,4.0652014E2,1.051241E3,8.584656E2,1.7685547E0,4.44812E0,1.2937152E2,1.3256445E2,8.113767E2,1.938914E3,2.1005054E2,7.0452106E2,0E0,0E0,0E0,0E0,0E0,0E0,0E0,0E0,0E0,0E0,0E0,0E0,0E0,0E0,0E0,0E0],"parents":[2147483647,0,0,1,1,2,2,3,3,4,4,5,5,6,6,7,7,8,8,9,9,10,10,11,11,12,12,13,13,14,14],"right_children":[2,4,6,8,10,12,14,16,18,20,22,24,26,28,30,-1,-1,-1,-1,-1,-1,-1,-1,-1,-1,-1,-1,-1,-1,-1,-1],"split_conditions":[6E0,3E0,1.9E1,6E0,4E0,5E0,4E0,5E0,1E0,2E0,7E0,1.3E1,8E0,2.1E1,2.3E1,-2.098364E-1,-1.8192977E-1,-1.8787265E-1,-1.4422752E-1,-8.209085E-2,6.134913E-2,-1.0975549E-1,-2.5014496E-1,6.45633E-2,1.8280329E-1,-2.262117E-1,5.99216E-2,-8.7958775E-2,-1.8462655E-1,6.7614145E-3,-2.3161979E-1],"split_indices":[1,1,1,0,0,0,0,0,1,0,0,1,1,1,1,0,0,0,0,0,0,0,0,0,0,0,0,0,0,0,0],"split_type":[0,0,0,0,0,0,0,0,0,0,0,0,0,0,0,0,0,0,0,0,0,0,0,0,0,0,0,0,0,0,0],"sum_hessian":[8.227E3,1.366E3,6.861E3,7.35E2,6.31E2,4.686E3,2.175E3,5.06E2,2.29E2,2.82E2,3.49E2,2.325E3,2.361E3,9.53E2,1.222E3,4.13E2,9.3E1,4.3E1,1.86E2,9.3E1,1.89E2,2.57E2,9.2E1,1.19E3,1.135E3,2.66E2,2.095E3,3.71E2,5.82E2,1.083E3,1.39E2],"tree_param":{"num_deleted":"0","num_feature":"2","num_nodes":"31","size_leaf_vector":"1"}},{"base_weights":[-2.9741817E-3,-1.2309915E0,2.4166334E-1,-1.7032871E0,-6.790286E-1,5.496204E-1,-1.0738443E0,-1.846459E0,-1.3802807E0,1.2522061E-1,-1.3273814E0,6.778109E-1,-5.174071E-1,-1.5071436E0,-3.212676E-1,-1.6623956E-1,-1.9081269E-1,-1.6951235E-1,-1.298819E-1,-7.396914E-2,5.524654E-2,-1.1520934E-1,-3.560041E-1,8.798891E-2,3.6733546E-3,-3.1006533E-1,-1.9595666E-2,-1.04685E-1,-1.7718132E-1,3.5403606E-2,-2.6881704E-1],"categories":[],"categories_nodes":[],"categories_segments":[],"categories_sizes":[],"default_left":[0,0,0,0,0,0,0,0,0,0,0,0,0,0,0,0,0,0,0,0,0,0,0,0,0,0,0,0,0,0,0],"id":18,"left_children":[1,3,5,7,9,11,13,15,17,19,21,23,25,27,29,-1,-1,-1,-1,-1,-1,-1,-1,-1,-1,-1,-1,-1,-1,-1,-1],"loss_changes":[2.4721458E3,3.552063E2,2.780523E3,3.1488037E1,3.2971454E2,7.6099976E2,4.240863E2,2.5827637E0,3.6973267E0,1.0498539E2,1.328739E2,6.431726E2,4.951327E2,9.877319E1,7.63378E2,0E0,0E0,0E0,0E0,0E0,0E0,0E0,0E0,0E0,0E0,0E0,0E0,0E0,0E0,0E0,0E0],"parents":[2147483647,0,0,1,1,2,2,3,3,4,4,5,5,6,6,7,7,8,8,9,9,10,10,11,11,12,12,13,13,14,14],"right_children":[2,4,6,8,10,12,14,16,18,20,22,24,26,28,30,-1,-1,-1,-1,-1,-1,-1,-1,-1,-1,-1,-1,-1,-1,-1,-1],"split_conditions":[6E0,3E0,2.1E1,6E0,4E0,7E0,5E0,2E0,1E0,2E0,5E0,1.8E1,9E0,2.2E1,7E0,-1.6623956E-1,-1.9081269E-1,-1.6951235E-1,-1.298819E-1,-7.396914E-2,5.524654E-2,-1.1520934E-1,-3.560041E-1,8.798891E-2,3.6733546E-3,-3.1006533E-1,-1.9595666E-2,-1.04685E-1,-1.7718132E-1,3.5403606E-2,-2.6881704E-1],"split_indices":[1,1,1,0,0,0,0,0,1,0,1,1,1,1,0,0,0,0,0,0,0,0,0,0,0,0,0,0,0,0,0],"split_type":[0,0,0,0,0,0,0,0,0,0,0,0,0,0,0,0,0,0,0,0,0,0,0,0,0,0,0,0,0,0,0],"sum_hessian":[8.227E3,1.366E3,6.861E3,7.35E2,6.31E2,5.56E3,1.301E3,5.06E2,2.29E2,2.82E2,3.49E2,4.964E3,5.96E2,8.25E2,4.76E2,1.34E2,3.72E2,4.3E1,1.86E2,9.3E1,1.89E2,3.25E2,2.4E1,3.774E3,1.19E3,6.5E1,5.31E2,3.03E2,5.22E2,3.71E2,1.05E2],"tree_param":{"num_deleted":"0","num_feature":"2","num_nodes":"31","size_leaf_vector":"1"}},{"base_weights":[-2.9080082E-3,-1.1087309E0,2.1738678E-1,-1.5338504E0,-6.1190087E-1,4.9461502E-1,-9.668556E-1,-1.7066363E0,-1.3076361E0,-7.454149E-2,-1.4112997E0,6.1004764E-1,-4.6621823E-1,-7.041293E-1,-2.1567485E0,-1.4973874E-1,-1.801429E-1,-8.4332205E-2,-1.4258616E-1,-6.665094E-2,1.2028203E-2,-1.20875314E-1,-3.218277E-1,7.919227E-2,3.3063074E-3,-2.795286E-1,-1.763974E-2,-1.2033146E-1,1.738328E-2,-1.761382E-1,-5.407373E-1],"categories":[],"categories_nodes":[],"categories_segments":[],"categories_sizes":[],"default_left":[0,0,0,0,0,0,0,0,0,0,0,0,0,0,0,0,0,0,0,0,0,0,0,0,0,0,0,0,0,0,0],"id":19,"left_children":[1,3,5,7,9,11,13,15,17,19,21,23,25,27,29,-1,-1,-1,-1,-1,-1,-1,-1,-1,-1,-1,-1,-1,-1,-1,-1],"loss_changes":[2.0046399E3,2.8778833E2,2.2533098E3,2.6536133E1,2.7137955E2,6.1706323E2,4.055077E2,5.514282E0,1.652826E1,4.3789963E1,8.907321E1,5.209967E2,4.024893E2,4.6827698E2,2.9249463E2,0E0,0E0,0E0,0E0,0E0,0E0,0E0,0E0,0E0,0E0,0E0,0E0,0E0,0E0,0E0,0E0],"parents":[2147483647,0,0,1,1,2,2,3,3,4,4,5,5,6,6,7,7,8,8,9,9,10,10,11,11,12,12,13,13,14,14],"right_children":[2,4,6,8,10,12,14,16,18,20,22,24,26,28,30,-1,-1,-1,-1,-1,-1,-1,-1,-1,-1,-1,-1,-1,-1,-1,-1],"split_conditions":[6E0,3E0,2.1E1,5E0,5E0,7E0,2.3E1,2E0,1E0,2E0,5E0,1.8E1,9E0,5E0,7E0,-1.4973874E-1,-1.801429E-1,-8.4332205E-2,-1.4258616E-1,-6.665094E-2,1.2028203E-2,-1.20875314E-1,-3.218277E-1,7.919227E-2,3.3063074E-3,-2.795286E-1,-1.763974E-2,-1.2033146E-1,1.738328E-2,-1.761382E-1,-5.407373E-1],"split_indices":[1,1,1,0,0,0,1,0,1,0,1,1,1,0,0,0,0,0,0,0,0,0,0,0,0,0,0,0,0,0,0],"split_type":[0,0,0,0,0,0,0,0,0,0,0,0,0,0,0,0,0,0,0,0,0,0,0,0,0,0,0,0,0,0,0],"sum_hessian":[8.227E3,1.366E3,6.861E3,7.35E2,6.31E2,5.56E3,1.301E3,4.13E2,3.22E2,3.78E2,2.53E2,4.964E3,5.96E2,1.067E3,2.34E2,1.34E2,2.79E2,6.7E1,2.55E2,9.3E1,2.85E2,2.29E2,2.4E1,3.774E3,1.19E3,6.5E1,5.31E2,6.8E2,3.87E2,2.1E2,2.4E1],"tree_param":{"num_deleted":"0","num_feature":"2","num_nodes":"31","size_leaf_vector":"1"}},{"base_weights":[-2.8714007E-3,-9.9862885E-1,1.954969E-1,-1.3812219E0,-5.514974E-1,5.0067884E-1,-6.840831E-1,-1.5004125E0,-1.1124791E0,-2.9749015E-1,-2.020448E0,1.3707891E-1,8.109256E-1,-4.906061E-1,-1.9441241E0,-1.5338881E-1,-1.257678E-1,-1.4470483E-1,-1.0278078E-1,-1.7037136E-2,-2.9093224E-1,-1.13103166E-1,-2.2486301E-1,2.751178E-2,-1.17243744E-1,1.3576737E-1,1.7499434E-2,-8.7369435E-2,1.6611308E-2,-1.5860786E-1,-4.8882648E-1],"categories":[],"categories_nodes":[],"categories_segments":[],"categories_sizes":[],"default_left":[0,0,0,0,0,0,0,0,0,0,0,0,0,0,0,0,0,0,0,0,0,0,0,0,0,0,0,0,0,0,0],"id":20,"left_children":[1,3,5,7,9,11,13,15,17,19,21,23,25,27,29,-1,-1,-1,-1,-1,-1,-1,-1,-1,-1,-1,-1,-1,-1,-1,-1],"loss_changes":[1.625445E3,2.3309009E2,1.8423223E3,2.1906128E1,2.3521336E2,5.7463403E2,4.3006512E2,2.1906738E0,5.0282288E0,1.7879129E2,1.6330994E1,4.2457608E2,9.555737E2,3.8607098E2,2.3996906E2,0E0,0E0,0E0,0E0,0E0,0E0,0E0,0E0,0E0,0E0,0E0,0E0,0E0,0E0,0E0,0E0],"parents":[2147483647,0,0,1,1,2,2,3,3,4,4,5,5,6,6,7,7,8,8,9,9,10,10,11,11,12,12,13,13,14,14],"right_children":[2,4,6,8,10,12,14,16,18,20,22,24,26,28,30,-1,-1,-1,-1,-1,-1,-1,-1,-1,-1,-1,-1,-1,-1,-1,-1],"split_conditions":[6E0,3E0,2E1,6E0,7E0,1.3E1,2.3E1,2E0,1E0,5E0,4E0,7E0,1.7E1,5E0,7E0,-1.5338881E-1,-1.257678E-1,-1.4470483E-1,-1.0278078E-1,-1.7037136E-2,-2.9093224E-1,-1.13103166E-1,-2.2486301E-1,2.751178E-2,-1.17243744E-1,1.3576737E-1,1.7499434E-2,-8.7369435E-2,1.6611308E-2,-1.5860786E-1,-4.8882648E-1],"split_indices":[1,1,1,0,0,1,1,1,1,1,1,0,1,0,0,0,0,0,0,0,0,0,0,0,0,0,0,0,0,0,0],"split_type":[0,0,0,0,0,0,0,0,0,0,0,0,0,0,0,0,0,0,0,0,0,0,0,0,0,0,0,0,0,0,0],"sum_hessian":[8.227E3,1.366E3,6.861E3,7.35E2,6.31E2,5.094E3,1.767E3,5.06E2,2.29E2,5.39E2,9.2E1,2.346E3,2.748E3,1.533E3,2.34E2,4.4E2,6.6E1,4.3E1,1.86E2,5.15E2,2.4E1,2E1,7.2E1,2.123E3,2.23E2,1.477E3,1.271E3,9.68E2,5.65E2,2.1E2,2.4E1],"tree_param":{"num_deleted":"0","num_feature":"2","num_nodes":"31","size_leaf_vector":"1"}},{"base_weights":[-2.806223E-3,-8.9962363E-1,1.7585193E-1,-1.2438152E0,-4.9736944E-1,4.0324673E-1,-7.955139E-1,-1.3881546E0,-1.0549598E0,1.4347996E-1,-1.0141209E0,5.0225526E-1,-4.2084116E-1,-5.842036E-1,-1.7524668E0,-1.6099925E-1,-1.2974477E-1,-6.1458845E-2,-1.1678125E-1,-5.8371097E-2,5.0249297E-2,-7.1896456E-2,-1.8220372E-1,6.4867795E-2,3.773135E-3,-2.4045253E-1,-1.7395394E-2,-9.959187E-2,1.3992568E-2,-1.4282225E-1,-4.4189915E-1],"categories":[],"categories_nodes":[],"categories_segments":[],"categories_sizes":[],"default_left":[0,0,0,0,0,0,0,0,0,0,0,0,0,0,0,0,0,0,0,0,0,0,0,0,0,0,0,0,0,0,0],"id":21,"left_children":[1,3,5,7,9,11,13,15,17,19,21,23,25,27,29,-1,-1,-1,-1,-1,-1,-1,-1,-1,-1,-1,-1,-1,-1,-1,-1],"loss_changes":[1.3184791E3,1.8864587E2,1.5160238E3,1.8598389E1,2.0943854E2,4.5394293E2,2.622588E2,6.241699E0,1.5334442E1,7.41764E1,8.215161E1,3.3767908E2,2.919602E2,3.185475E2,1.968711E2,0E0,0E0,0E0,0E0,0E0,0E0,0E0,0E0,0E0,0E0,0E0,0E0,0E0,0E0,0E0,0E0],"parents":[2147483647,0,0,1,1,2,2,3,3,4,4,5,5,6,6,7,7,8,8,9,9,10,10,11,11,12,12,13,13,14,14],"right_children":[2,4,6,8,10,12,14,16,18,20,22,24,26,28,30,-1,-1,-1,-1,-1,-1,-1,-1,-1,-1,-1,-1,-1,-1,-1,-1],"split_conditions":[6E0,3E0,2.1E1,5E0,4E0,7E0,2.3E1,1E0,1E0,2E0,7E0,1.8E1,9E0,5E0,7E0,-1.6099925E-1,-1.2974477E-1,-6.1458845E-2,-1.1678125E-1,-5.8371097E-2,5.0249297E-2,-7.1896456E-2,-1.8220372E-1,6.4867795E-2,3.773135E-3,-2.4045253E-1,-1.7395394E-2,-9.959187E-2,1.3992568E-2,-1.4282225E-1,-4.4189915E-1],"split_indices":[1,1,1,0,0,0,1,1,1,0,0,1,1,0,0,0,0,0,0,0,0,0,0,0,0,0,0,0,0,0,0],"split_type":[0,0,0,0,0,0,0,0,0,0,0,0,0,0,0,0,0,0,0,0,0,0,0,0,0,0,0,0,0,0,0],"sum_hessian":[8.227E3,1.366E3,6.861E3,7.35E2,6.31E2,5.56E3,1.301E3,4.13E2,3.22E2,2.82E2,3.49E2,4.964E3,5.96E2,1.067E3,2.34E2,1.15E2,2.98E2,6.7E1,2.55E2,9.3E1,1.89E2,2.57E2,9.2E1,3.774E3,1.19E3,6.5E1,5.31E2,6.8E2,3.87E2,2.1E2,2.4E1],"tree_param":{"num_deleted":"0","num_feature":"2","num_nodes":"31","size_leaf_vector":"1"}},{"base_weights":[-2.7185378E-3,-8.101961E-1,1.5814193E-1,-1.1200709E0,-4.4804725E-1,4.4729736E-1,-4.6475777E-1,-1.2193403E0,-8.9637655E-1,1.2910357E-1,-9.1343474E-1,1.450608E-1,9.73387E-1,-1.0121948E0,-3.735E-2,-1.0705755E-1,-1.2699139E-1,-1.2455701E-1,-8.0942E-2,-5.259604E-2,4.5250833E-2,-7.842853E-2,-2.5610062E-1,4.570956E-2,-1.5697097E-2,1.726595E-1,2.3387244E-2,-9.117928E-2,-1.9000396E-1,2.4222909E-2,-1.3273464E-1],"categories":[],"categories_nodes":[],"categories_segments":[],"categories_sizes":[],"default_left":[0,0,0,0,0,0,0,0,0,0,0,0,0,0,0,0,0,0,0,0,0,0,0,0,0,0,0,0,0,0,0],"id":22,"left_children":[1,3,5,7,9,11,13,15,17,19,21,23,25,27,29,-1,-1,-1,-1,-1,-1,-1,-1,-1,-1,-1,-1,-1,-1,-1,-1],"loss_changes":[1.068873E3,1.5290393E2,1.2361559E3,1.525061E1,1.6987238E2,7.451083E2,5.0910016E2,2.454956E0,5.9756927E0,6.0191776E1,7.2465485E1,2.8073166E2,9.520803E2,8.330847E1,4.4140378E2,0E0,0E0,0E0,0E0,0E0,0E0,0E0,0E0,0E0,0E0,0E0,0E0,0E0,0E0,0E0,0E0],"parents":[2147483647,0,0,1,1,2,2,3,3,4,4,5,5,6,6,7,7,8,8,9,9,10,10,11,11,12,12,13,13,14,14],"right_children":[2,4,6,8,10,12,14,16,18,20,22,24,26,28,30,-1,-1,-1,-1,-1,-1,-1,-1,-1,-1,-1,-1,-1,-1,-1,-1],"split_conditions":[6E0,3E0,1.9E1,6E0,4E0,1.5E1,4E0,2E0,1E0,2E0,5E0,5E0,1.7E1,2.3E1,7E0,-1.0705755E-1,-1.2699139E-1,-1.2455701E-1,-8.0942E-2,-5.259604E-2,4.5250833E-2,-7.842853E-2,-2.5610062E-1,4.570956E-2,-1.5697097E-2,1.726595E-1,2.3387244E-2,-9.117928E-2,-1.9000396E-1,2.4222909E-2,-1.3273464E-1],"split_indices":[1,1,1,0,0,1,0,0,1,0,1,0,1,1,0,0,0,0,0,0,0,0,0,0,0,0,0,0,0,0,0],"split_type":[0,0,0,0,0,0,0,0,0,0,0,0,0,0,0,0,0,0,0,0,0,0,0,0,0,0,0,0,0,0,0],"sum_hessian":[8.227E3,1.366E3,6.861E3,7.35E2,6.31E2,4.686E3,2.175E3,5.06E2,2.29E2,2.82E2,3.49E2,2.977E3,1.709E3,9.53E2,1.222E3,1.34E2,3.72E2,4.3E1,1.86E2,9.3E1,1.89E2,3.25E2,2.4E1,1.464E3,1.513E3,8.46E2,8.63E2,8.58E2,9.5E1,1.005E3,2.17E2],"tree_param":{"num_deleted":"0","num_feature":"2","num_nodes":"31","size_leaf_vector":"1"}},{"base_weights":[-2.5614963E-3,-7.297481E-1,1.4230394E-1,-1.0086609E0,-4.037835E-1,3.3228275E-1,-6.6922784E-1,-1.1298087E0,-8.50259E-1,-2.0318499E-1,-1.5642072E0,4.1725683E-1,-3.74968E-1,-5.513615E-1,-1.9939148E0,-1.3323894E-1,-1.047437E-1,-4.3044876E-2,-9.5844984E-2,-1.0046736E-2,-2.3151496E-1,-7.750928E-2,-1.7697851E-1,5.972053E-3,5.5445522E-2,-2.152256E-1,-1.5377255E-2,-9.51474E-2,3.3854254E-2,-5.045827E-2,-2.8187683E-1],"categories":[],"categories_nodes":[],"categories_segments":[],"categories_sizes":[],"default_left":[0,0,0,0,0,0,0,0,0,0,0,0,0,0,0,0,0,0,0,0,0,0,0,0,0,0,0,0,0,0,0],"id":23,"left_children":[1,3,5,7,9,11,13,15,17,19,21,23,25,27,29,-1,-1,-1,-1,-1,-1,-1,-1,-1,-1,-1,-1,-1,-1,-1,-1],"loss_changes":[8.668759E2,1.2387457E2,1.0581632E3,1.3163208E1,1.4679866E2,3.343614E2,2.0218976E2,5.5127563E0,1.425798E1,1.1691283E2,1.3715134E1,2.4351697E2,2.343665E2,4.26528E2,1.2879669E2,0E0,0E0,0E0,0E0,0E0,0E0,0E0,0E0,0E0,0E0,0E0,0E0,0E0,0E0,0E0,0E0],"parents":[2147483647,0,0,1,1,2,2,3,3,4,4,5,5,6,6,7,7,8,8,9,9,10,10,11,11,12,12,13,13,14,14],"right_children":[2,4,6,8,10,12,14,16,18,20,22,24,26,28,30,-1,-1,-1,-1,-1,-1,-1,-1,-1,-1,-1,-1,-1,-1,-1,-1],"split_conditions":[6E0,3E0,2.1E1,5E0,7E0,7E0,7E0,1E0,1E0,5E0,4E0,1.1E1,9E0,5E0,2.2E1,-1.3323894E-1,-1.047437E-1,-4.3044876E-2,-9.5844984E-2,-1.0046736E-2,-2.3151496E-1,-7.750928E-2,-1.7697851E-1,5.972053E-3,5.5445522E-2,-2.152256E-1,-1.5377255E-2,-9.51474E-2,3.3854254E-2,-5.045827E-2,-2.8187683E-1],"split_indices":[1,1,1,0,0,0,0,1,1,1,1,1,1,0,1,0,0,0,0,0,0,0,0,0,0,0,0,0,0,0,0],"split_type":[0,0,0,0,0,0,0,0,0,0,0,0,0,0,0,0,0,0,0,0,0,0,0,0,0,0,0,0,0,0,0],"sum_hessian":[8.227E3,1.366E3,6.861E3,7.35E2,6.31E2,5.56E3,1.301E3,4.13E2,3.22E2,5.39E2,9.2E1,4.964E3,5.96E2,1.196E3,1.05E2,1.15E2,2.98E2,6.7E1,2.55E2,5.15E2,2.4E1,2E1,7.2E1,1.377E3,3.587E3,6.5E1,5.31E2,8.25E2,3.71E2,3.8E1,6.7E1],"tree_param":{"num_deleted":"0","num_feature":"2","num_nodes":"31","size_leaf_vector":"1"}},{"base_weights":[-2.479606E-3,-6.5741175E-1,1.279918E-1,-9.0830696E-1,-3.6418986E-1,4.145346E-1,-3.2844663E-1,-1.0174026E0,-7.656632E-1,1.2617868E-1,-7.596473E-1,9.152496E-1,-6.2495563E-2,-1.6883925E0,-8.131301E-2,-1.20029904E-1,-9.4304346E-2,-3.880367E-2,-8.6297944E-2,-4.6398383E-2,4.174897E-2,-5.220851E-2,-1.4105229E-1,3.649795E-2,2.2108857E-1,-2.0449696E-1,2.1700975E-2,-3.5075504E-1,-1.0112256E-1,4.207457E-3,-1.4289553E-1],"categories":[],"categories_nodes":[],"categories_segments":[],"categories_sizes":[],"default_left":[0,0,0,0,0,0,0,0,0,0,0,0,0,0,0,0,0,0,0,0,0,0,0,0,0,0,0,0,0,0,0],"id":24,"left_children":[1,3,5,7,9,11,13,15,17,19,21,23,25,27,29,-1,-1,-1,-1,-1,-1,-1,-1,-1,-1,-1,-1,-1,-1,-1,-1],"loss_changes":[7.031661E2,1.0023657E2,8.9761127E2,1.06744995E1,1.2265322E2,1.00707465E3,8.894885E2,4.4984436E0,1.153511E1,4.8847305E1,5.3381805E1,1.465731E3,1.1973257E3,4.9782568E2,3.7269882E2,0E0,0E0,0E0,0E0,0E0,0E0,0E0,0E0,0E0,0E0,0E0,0E0,0E0,0E0,0E0,0E0],"parents":[2147483647,0,0,1,1,2,2,3,3,4,4,5,5,6,6,7,7,8,8,9,9,10,10,11,11,12,12,13,13,14,14],"right_children":[2,4,6,8,10,12,14,16,18,20,22,24,26,28,30,-1,-1,-1,-1,-1,-1,-1,-1,-1,-1,-1,-1,-1,-1,-1,-1],"split_conditions":[6E0,3E0,1.8E1,5E0,4E0,5E0,2E0,1E0,1E0,2E0,7E0,1.4E1,8E0,2E1,2.3E1,-1.20029904E-1,-9.4304346E-2,-3.880367E-2,-8.6297944E-2,-4.6398383E-2,4.174897E-2,-5.220851E-2,-1.4105229E-1,3.649795E-2,2.2108857E-1,-2.0449696E-1,2.1700975E-2,-3.5075504E-1,-1.0112256E-1,4.207457E-3,-1.4289553E-1],"split_indices":[1,1,1,0,0,0,0,1,1,0,0,1,1,1,1,0,0,0,0,0,0,0,0,0,0,0,0,0,0,0,0],"split_type":[0,0,0,0,0,0,0,0,0,0,0,0,0,0,0,0,0,0,0,0,0,0,0,0,0,0,0,0,0,0,0],"sum_hessian":[8.227E3,1.366E3,6.861E3,7.35E2,6.31E2,4.215E3,2.646E3,4.13E2,3.22E2,2.82E2,3.49E2,2.056E3,2.159E3,4.06E2,2.24E3,1.15E2,2.98E2,6.7E1,2.55E2,9.3E1,1.89E2,2.57E2,9.2E1,1.444E3,6.12E2,2.66E2,1.893E3,1.09E2,2.97E2,2.053E3,1.87E2],"tree_param":{"num_deleted":"0","num_feature":"2","num_nodes":"31","size_leaf_vector":"1"}},{"base_weights":[-2.3596885E-3,-5.9206367E-1,1.15117386E-1,-8.1793743E-1,-3.2808396E-1,2.7474356E-1,-5.667538E-1,-8.9476246E-1,-6.4503205E-1,1.1354421E-1,-6.842345E-1,3.4835723E-1,-3.3793083E-1,-4.5985824E-1,-1.7685201E0,-7.3777325E-2,-9.520552E-2,-1.0438555E-1,-5.477419E-2,-4.1807927E-2,3.7596032E-2,-5.7795312E-2,-2.0427747E-1,-1.5408493E-2,4.354187E-2,-9.747498E-2,1.7330943E-2,-8.133521E-2,3.262863E-2,-4.5951832E-2,-2.4932635E-1],"categories":[],"categories_nodes":[],"categories_segments":[],"categories_sizes":[],"default_left":[0,0,0,0,0,0,0,0,0,0,0,0,0,0,0,0,0,0,0,0,0,0,0,0,0,0,0,0,0,0,0],"id":25,"left_children":[1,3,5,7,9,11,13,15,17,19,21,23,25,27,29,-1,-1,-1,-1,-1,-1,-1,-1,-1,-1,-1,-1,-1,-1,-1,-1],"loss_changes":[5.700768E2,8.124054E1,7.4704663E2,9.199493E0,9.94825E1,2.5092557E2,1.664462E2,3.857727E0,8.3526E0,3.963754E1,4.9355026E1,2.1725287E2,1.9453271E2,3.329084E2,9.941547E1,0E0,0E0,0E0,0E0,0E0,0E0,0E0,0E0,0E0,0E0,0E0,0E0,0E0,0E0,0E0,0E0],"parents":[2147483647,0,0,1,1,2,2,3,3,4,4,5,5,6,6,7,7,8,8,9,9,10,10,11,11,12,12,13,13,14,14],"right_children":[2,4,6,8,10,12,14,16,18,20,22,24,26,28,30,-1,-1,-1,-1,-1,-1,-1,-1,-1,-1,-1,-1,-1,-1,-1,-1],"split_conditions":[6E0,3E0,2.1E1,6E0,4E0,7E0,7E0,1E0,1E0,2E0,5E0,2E0,1.4E1,5E0,2.2E1,-7.3777325E-2,-9.520552E-2,-1.0438555E-1,-5.477419E-2,-4.1807927E-2,3.7596032E-2,-5.7795312E-2,-2.0427747E-1,-1.5408493E-2,4.354187E-2,-9.747498E-2,1.7330943E-2,-8.133521E-2,3.262863E-2,-4.5951832E-2,-2.4932635E-1],"split_indices":[1,1,1,0,0,0,0,1,1,0,1,0,1,0,1,0,0,0,0,0,0,0,0,0,0,0,0,0,0,0,0],"split_type":[0,0,0,0,0,0,0,0,0,0,0,0,0,0,0,0,0,0,0,0,0,0,0,0,0,0,0,0,0,0,0],"sum_hessian":[8.227E3,1.366E3,6.861E3,7.35E2,6.31E2,5.56E3,1.301E3,5.06E2,2.29E2,2.82E2,3.49E2,4.964E3,5.96E2,1.196E3,1.05E2,1.39E2,3.67E2,4.3E1,1.86E2,9.3E1,1.89E2,3.25E2,2.4E1,7.33E2,4.231E3,2.65E2,3.31E2,8.25E2,3.71E2,3.8E1,6.7E1],"tree_param":{"num_deleted":"0","num_feature":"2","num_nodes":"31","size_leaf_vector":"1"}},{"base_weights":[-2.2438196E-3,-5.33292E-1,1.03548236E-1,-7.365895E-1,-2.9569662E-1,3.4737E-1,-2.8483716E-1,-8.056195E-1,-5.8122087E-1,-1.3702896E-1,-1.2138132E0,7.964075E-1,-8.041591E-2,-8.886093E-1,1.8820786E-1,-6.645229E-2,-8.5710846E-2,-9.418424E-2,-4.932606E-2,-5.3932043E-3,-1.8466683E-1,-5.118953E-2,-1.3991073E-1,2.9988691E-2,1.9655363E-1,-1.86085E-1,1.7061701E-2,-1.4673893E-1,-5.762552E-2,4.2894475E-2,-9.4240844E-2],"categories":[],"categories_nodes":[],"categories_segments":[],"categories_sizes":[],"default_left":[0,0,0,0,0,0,0,0,0,0,0,0,0,0,0,0,0,0,0,0,0,0,0,0,0,0,0,0,0,0,0],"id":26,"left_children":[1,3,5,7,9,11,13,15,17,19,21,23,25,27,29,-1,-1,-1,-1,-1,-1,-1,-1,-1,-1,-1,-1,-1,-1,-1,-1],"loss_changes":[4.6230984E2,6.581177E1,6.499085E2,7.425415E0,9.1900536E1,8.099236E2,7.5618066E2,3.1137695E0,6.831108E0,7.661592E1,1.1379486E1,1.1934921E3,9.657242E2,2.0940656E2,4.0459302E2,0E0,0E0,0E0,0E0,0E0,0E0,0E0,0E0,0E0,0E0,0E0,0E0,0E0,0E0,0E0,0E0],"parents":[2147483647,0,0,1,1,2,2,3,3,4,4,5,5,6,6,7,7,8,8,9,9,10,10,11,11,12,12,13,13,14,14],"right_children":[2,4,6,8,10,12,14,16,18,20,22,24,26,28,30,-1,-1,-1,-1,-1,-1,-1,-1,-1,-1,-1,-1,-1,-1,-1,-1],"split_conditions":[6E0,3E0,1.8E1,6E0,7E0,5E0,4E0,1E0,1E0,5E0,4E0,1.4E1,8E0,2E0,7E0,-6.645229E-2,-8.5710846E-2,-9.418424E-2,-4.932606E-2,-5.3932043E-3,-1.8466683E-1,-5.118953E-2,-1.3991073E-1,2.9988691E-2,1.9655363E-1,-1.86085E-1,1.7061701E-2,-1.4673893E-1,-5.762552E-2,4.2894475E-2,-9.4240844E-2],"split_indices":[1,1,1,0,0,0,0,1,1,1,1,1,1,0,0,0,0,0,0,0,0,0,0,0,0,0,0,0,0,0,0],"split_type":[0,0,0,0,0,0,0,0,0,0,0,0,0,0,0,0,0,0,0,0,0,0,0,0,0,0,0,0,0,0,0],"sum_hessian":[8.227E3,1.366E3,6.861E3,7.35E2,6.31E2,4.215E3,2.646E3,5.06E2,2.29E2,5.39E2,9.2E1,2.056E3,2.159E3,1.162E3,1.484E3,1.39E2,3.67E2,4.3E1,1.86E2,5.15E2,2.4E1,2E1,7.2E1,1.444E3,6.12E2,2.66E2,1.893E3,4.06E2,7.56E2,1.224E3,2.6E2],"tree_param":{"num_deleted":"0","num_feature":"2","num_nodes":"31","size_leaf_vector":"1"}},{"base_weights":[-2.1258113E-3,6.89102E-2,-6.81479E-1,-2.6120666E-1,2.766529E-1,-5.3981626E-1,-2.154749E0,-1.699378E-1,-8.852017E-1,5.910608E-1,-4.5108326E-2,-8.8251823E-1,4.06357E-1,-1.5518074E-1,-3.1297368E-1,-6.6097304E-2,-6.512338E-5,-5.7000853E-2,-1.1260756E-1,2.065798E-2,1.2562823E-1,-1.0541748E-1,1.3962931E-2,-7.890819E-2,-1.1183842E-1,9.2782445E-2,-5.874277E-2],"categories":[],"categories_nodes":[],"categories_segments":[],"categories_sizes":[],"default_left":[0,0,0,0,0,0,0,0,0,0,0,0,0,0,0,0,0,0,0,0,0,0,0,0,0,0,0],"id":27,"left_children":[1,3,5,7,9,11,13,15,17,19,21,23,25,-1,-1,-1,-1,-1,-1,-1,-1,-1,-1,-1,-1,-1,-1],"loss_changes":[3.9711823E2,5.109886E2,1.6141992E2,1.6375548E2,4.6265088E2,2.3122845E2,3.5117798E1,2.0881125E2,2.7221405E1,5.913251E2,4.2162598E2,1.0643616E1,9.900804E1,0E0,0E0,0E0,0E0,0E0,0E0,0E0,0E0,0E0,0E0,0E0,0E0,0E0,0E0],"parents":[2147483647,0,0,1,1,2,2,3,3,4,4,5,5,6,6,7,7,8,8,9,9,10,10,11,11,12,12],"right_children":[2,4,6,8,10,12,14,16,18,20,22,24,26,-1,-1,-1,-1,-1,-1,-1,-1,-1,-1,-1,-1,-1,-1],"split_conditions":[2.2E1,1.1E1,7E0,7E0,1.7E1,5E0,2.3E1,4E0,4E0,1.5E1,2E0,2.3E1,2.3E1,-1.5518074E-1,-3.1297368E-1,-6.6097304E-2,-6.512338E-5,-5.7000853E-2,-1.1260756E-1,2.065798E-2,1.2562823E-1,-1.0541748E-1,1.3962931E-2,-7.890819E-2,-1.1183842E-1,9.2782445E-2,-5.874277E-2],"split_indices":[1,1,0,0,1,0,1,1,1,1,0,1,1,0,0,0,0,0,0,0,0,0,0,0,0,0,0],"split_type":[0,0,0,0,0,0,0,0,0,0,0,0,0,0,0,0,0,0,0,0,0,0,0,0,0,0,0],"sum_hessian":[8.227E3,7.449E3,7.78E2,2.877E3,4.572E3,7.11E2,6.7E1,2.511E3,3.66E2,2.312E3,2.26E3,5.22E2,1.89E2,4.3E1,2.4E1,6.43E2,1.868E3,1.6E2,2.06E2,1.466E3,8.46E2,3.49E2,1.911E3,3.77E2,1.45E2,1.24E2,6.5E1],"tree_param":{"num_deleted":"0","num_feature":"2","num_nodes":"27","size_leaf_vector":"1"}},{"base_weights":[-2.0112512E-3,6.1994795E-2,-6.1413324E-1,-4.3674168E-1,1.7404456E-1,-4.860548E-1,-1.9461586E0,-5.9905523E-1,-2.4702728E-1,2.849347E-1,-7.618918E-2,-7.9463124E-1,3.659007E-1,-1.4001532E-1,-2.829282E-1,-6.81065E-2,-4.9208585E-2,1.13447085E-2,-5.3779077E-2,6.8885945E-2,-9.986068E-3,-1.0120436E-1,3.1884912E-2,-7.103826E-2,-1.0073119E-1,9.709931E-2,-4.4289168E-2],"categories":[],"categories_nodes":[],"categories_segments":[],"categories_sizes":[],"default_left":[0,0,0,0,0,0,0,0,0,0,0,0,0,0,0,0,0,0,0,0,0,0,0,0,0,0,0],"id":28,"left_children":[1,3,5,7,9,11,13,15,17,19,21,23,25,-1,-1,-1,-1,-1,-1,-1,-1,-1,-1,-1,-1,-1,-1],"loss_changes":[3.2240707E2,4.1640662E2,1.3195438E2,4.194632E1,1.688433E2,1.8747086E2,2.8827484E1,6.12146E0,6.630269E1,6.5535474E2,6.912888E2,8.655579E0,9.3414925E1,0E0,0E0,0E0,0E0,0E0,0E0,0E0,0E0,0E0,0E0,0E0,0E0,0E0,0E0],"parents":[2147483647,0,0,1,1,2,2,3,3,4,4,5,5,6,6,7,7,8,8,9,9,10,10,11,11,12,12],"right_children":[2,4,6,8,10,12,14,16,18,20,22,24,26,-1,-1,-1,-1,-1,-1,-1,-1,-1,-1,-1,-1,-1,-1],"split_conditions":[2.2E1,6E0,7E0,3E0,1.8E1,5E0,2.3E1,5E0,4E0,5E0,3E0,2.3E1,6E0,-1.4001532E-1,-2.829282E-1,-6.81065E-2,-4.9208585E-2,1.13447085E-2,-5.3779077E-2,6.8885945E-2,-9.986068E-3,-1.0120436E-1,3.1884912E-2,-7.103826E-2,-1.0073119E-1,9.709931E-2,-4.4289168E-2],"split_indices":[1,1,0,1,1,0,1,0,0,0,0,1,0,0,0,0,0,0,0,0,0,0,0,0,0,0,0],"split_type":[0,0,0,0,0,0,0,0,0,0,0,0,0,0,0,0,0,0,0,0,0,0,0,0,0,0,0],"sum_hessian":[8.227E3,7.449E3,7.78E2,1.366E3,6.083E3,7.11E2,6.7E1,7.35E2,6.31E2,4.215E3,1.868E3,5.22E2,1.89E2,4.3E1,2.4E1,4.13E2,3.22E2,2.82E2,3.49E2,2.056E3,2.159E3,5.54E2,1.314E3,3.77E2,1.45E2,1.08E2,8.1E1],"tree_param":{"num_deleted":"0","num_feature":"2","num_nodes":"27","size_leaf_vector":"1"}},{"base_weights":[-1.8965232E-3,5.577263E-2,-5.5341554E-1,-2.2946118E-1,2.3527123E-1,-4.3761632E-1,-1.7577627E0,-1.5167698E-1,-7.6124436E-1,5.0367236E-1,-3.940684E-2,-7.1549654E-1,3.2958874E-1,-1.2633201E-1,-2.557671E-1,-5.3591438E-2,-1.9199435E-3,-4.6389114E-2,-9.888416E-2,1.5688237E-2,1.1037164E-1,-8.8896535E-2,1.1612919E-2,-6.395322E-2,-9.072706E-2,8.747846E-2,-3.9914217E-2],"categories":[],"categories_nodes":[],"categories_segments":[],"categories_sizes":[],"default_left":[0,0,0,0,0,0,0,0,0,0,0,0,0,0,0,0,0,0,0,0,0,0,0,0,0,0,0],"id":29,"left_children":[1,3,5,7,9,11,13,15,17,19,21,23,25,-1,-1,-1,-1,-1,-1,-1,-1,-1,-1,-1,-1,-1,-1],"loss_changes":[2.617276E2,3.814871E2,1.0787198E2,1.18931076E2,3.3715924E2,1.5202792E2,2.3663437E1,1.27857605E2,2.4378647E1,4.8113745E2,2.988649E2,7.0388184E0,7.583638E1,0E0,0E0,0E0,0E0,0E0,0E0,0E0,0E0,0E0,0E0,0E0,0E0,0E0,0E0],"parents":[2147483647,0,0,1,1,2,2,3,3,4,4,5,5,6,6,7,7,8,8,9,9,10,10,11,11,12,12],"right_children":[2,4,6,8,10,12,14,16,18,20,22,24,26,-1,-1,-1,-1,-1,-1,-1,-1,-1,-1,-1,-1,-1,-1],"split_conditions":[2.2E1,1.1E1,7E0,7E0,1.7E1,5E0,2.3E1,4E0,4E0,1.5E1,2E0,2.3E1,6E0,-1.2633201E-1,-2.557671E-1,-5.3591438E-2,-1.9199435E-3,-4.6389114E-2,-9.888416E-2,1.5688237E-2,1.1037164E-1,-8.8896535E-2,1.1612919E-2,-6.395322E-2,-9.072706E-2,8.747846E-2,-3.9914217E-2],"split_indices":[1,1,0,0,1,0,1,1,1,1,0,1,0,0,0,0,0,0,0,0,0,0,0,0,0,0,0],"split_type":[0,0,0,0,0,0,0,0,0,0,0,0,0,0,0,0,0,0,0,0,0,0,0,0,0,0,0],"sum_hessian":[8.227E3,7.449E3,7.78E2,2.877E3,4.572E3,7.11E2,6.7E1,2.511E3,3.66E2,2.312E3,2.26E3,5.22E2,1.89E2,4.3E1,2.4E1,6.43E2,1.868E3,1.6E2,2.06E2,1.466E3,8.46E2,3.49E2,1.911E3,3.77E2,1.45E2,1.08E2,8.1E1],"tree_param":{"num_deleted":"0","num_feature":"2","num_nodes":"27","size_leaf_vector":"1"}},{"base_weights":[-1.7847917E-3,5.7282276E-2,-4.631258E-1,-3.2592404E-1,1.3233133E-1,-2.8886908E-1,-1.3507442E0,4.49916E-2,-1.044171E0,-2.1483433E-1,2.5020903E-1,-6.8842E-1,4.103071E-1,-1.1539574E0,-2.3121345E-1,-3.9328262E-2,1.3640355E-1,-2.7064797E-1,-4.270633E-2,1.0494537E-2,-1.2180604E-1,4.365893E-2,-8.805474E-3,-5.7855636E-2,-1.41138E-1,1.5809011E-1,-5.5413194E-2,-1.748527E-1,-7.9184406E-2],"categories":[],"categories_nodes":[],"categories_segments":[],"categories_sizes":[],"default_left":[0,0,0,0,0,0,0,0,0,0,0,0,0,0,0,0,0,0,0,0,0,0,0,0,0,0,0,0,0],"id":30,"left_children":[1,3,5,7,9,11,13,15,17,19,21,23,25,27,-1,-1,-1,-1,-1,-1,-1,-1,-1,-1,-1,-1,-1,-1,-1],"loss_changes":[2.2424002E2,2.09842E2,1.4407484E2,3.184058E2,2.4972554E2,2.1873924E2,2.6277802E1,4.566596E2,4.1635428E2,4.964229E2,2.8721158E2,3.8738083E1,3.2263153E2,2.6389343E1,0E0,0E0,0E0,0E0,0E0,0E0,0E0,0E0,0E0,0E0,0E0,0E0,0E0,0E0,0E0],"parents":[2147483647,0,0,1,1,2,2,3,3,4,4,5,5,6,6,7,7,8,8,9,9,10,10,11,11,12,12,13,13],"right_children":[2,4,6,8,10,12,14,16,18,20,22,24,26,28,-1,-1,-1,-1,-1,-1,-1,-1,-1,-1,-1,-1,-1,-1,-1],"split_conditions":[7E0,2E0,2E1,1.8E1,9E0,1.4E1,2.3E1,1.4E1,2E1,6E0,1.9E1,1.2E1,1.7E1,2.1E1,-2.3121345E-1,-3.9328262E-2,1.3640355E-1,-2.7064797E-1,-4.270633E-2,1.0494537E-2,-1.2180604E-1,4.365893E-2,-8.805474E-3,-5.7855636E-2,-1.41138E-1,1.5809011E-1,-5.5413194E-2,-1.748527E-1,-7.9184406E-2],"split_indices":[0,0,1,1,1,1,1,1,1,0,1,1,1,1,0,0,0,0,0,0,0,0,0,0,0,0,0,0,0],"split_type":[0,0,0,0,0,0,0,0,0,0,0,0,0,0,0,0,0,0,0,0,0,0,0,0,0,0,0,0,0],"sum_hessian":[8.227E3,7.294E3,9.33E2,1.194E3,6.1E3,7.81E2,1.52E2,7.88E2,4.06E2,1.546E3,4.554E3,4.97E2,2.84E2,1.28E2,2.4E1,5.92E2,1.96E2,1.09E2,2.97E2,1.173E3,3.73E2,2.936E3,1.618E3,4.33E2,6.4E1,1.28E2,1.56E2,4.7E1,8.1E1],"tree_param":{"num_deleted":"0","num_feature":"2","num_nodes":"29","size_leaf_vector":"1"}},{"base_weights":[-1.7127243E-3,4.7570724E-2,-4.7303492E-1,-1.9047666E-1,1.9737452E-1,-3.784987E-1,-1.4559283E0,-1.2650587E-1,-6.278177E-1,4.1340768E-1,-2.371439E-2,-6.2631446E-1,3.0563897E-1,-1.0624746E-1,-2.0901695E-1,-4.792982E-2,-1.6755862E-3,2.6467327E-2,-6.8825945E-2,1.1725832E-2,9.2584886E-2,-7.2973736E-2,1.0553862E-2,-5.5853575E-2,-7.9750665E-2,7.495786E-2,-5.397867E-2],"categories":[],"categories_nodes":[],"categories_segments":[],"categories_sizes":[],"default_left":[0,0,0,0,0,0,0,0,0,0,0,0,0,0,0,0,0,0,0,0,0,0,0,0,0,0,0],"id":31,"left_children":[1,3,5,7,9,11,13,15,17,19,21,23,25,-1,-1,-1,-1,-1,-1,-1,-1,-1,-1,-1,-1,-1,-1],"loss_changes":[1.9114563E2,2.657076E2,7.1832855E1,8.0438515E1,2.1842786E2,1.20903984E2,1.4748276E1,9.725399E1,1.9979523E1,3.5091028E2,2.064059E2,5.6230316E0,7.171501E1,0E0,0E0,0E0,0E0,0E0,0E0,0E0,0E0,0E0,0E0,0E0,0E0,0E0,0E0],"parents":[2147483647,0,0,1,1,2,2,3,3,4,4,5,5,6,6,7,7,8,8,9,9,10,10,11,11,12,12],"right_children":[2,4,6,8,10,12,14,16,18,20,22,24,26,-1,-1,-1,-1,-1,-1,-1,-1,-1,-1,-1,-1,-1,-1],"split_conditions":[2.2E1,1.1E1,7E0,7E0,1.7E1,5E0,2.3E1,3E0,1E0,1.5E1,2E0,2.3E1,2.3E1,-1.0624746E-1,-2.0901695E-1,-4.792982E-2,-1.6755862E-3,2.6467327E-2,-6.8825945E-2,1.1725832E-2,9.2584886E-2,-7.2973736E-2,1.0553862E-2,-5.5853575E-2,-7.9750665E-2,7.495786E-2,-5.397867E-2],"split_indices":[1,1,0,0,1,0,1,1,1,1,0,1,1,0,0,0,0,0,0,0,0,0,0,0,0,0,0],"split_type":[0,0,0,0,0,0,0,0,0,0,0,0,0,0,0,0,0,0,0,0,0,0,0,0,0,0,0],"sum_hessian":[8.227E3,7.449E3,7.78E2,2.877E3,4.572E3,7.11E2,6.7E1,2.511E3,3.66E2,2.312E3,2.26E3,5.22E2,1.89E2,4.3E1,2.4E1,5.95E2,1.916E3,2.3E1,3.43E2,1.466E3,8.46E2,3.49E2,1.911E3,3.77E2,1.45E2,1.24E2,6.5E1],"tree_param":{"num_deleted":"0","num_feature":"2","num_nodes":"27","size_leaf_vector":"1"}},{"base_weights":[-1.6000589E-3,4.89036E-2,-3.9605677E-1,-4.1316673E-1,9.363066E-2,-2.4568062E-1,-1.1620575E0,-4.6228257E-1,-1.7827472E-1,1.6948757E-1,-2.5220802E-1,-5.768806E-1,3.3390978E-1,-1.0120695E0,-1.8895131E-1,-2.4281483E-2,-5.5518486E-2,-1.5300094E-1,1.2887259E-2,4.379213E-3,3.4272436E-2,-4.3529492E-2,1.5500153E-2,-4.6965253E-2,-1.2839592E-1,1.3578682E-1,-5.0955873E-2,-1.5876517E-1,-6.6280104E-2],"categories":[],"categories_nodes":[],"categories_segments":[],"categories_sizes":[],"default_left":[0,0,0,0,0,0,0,0,0,0,0,0,0,0,0,0,0,0,0,0,0,0,0,0,0,0,0,0,0],"id":32,"left_children":[1,3,5,7,9,11,13,15,17,19,21,23,25,27,-1,-1,-1,-1,-1,-1,-1,-1,-1,-1,-1,-1,-1,-1,-1],"loss_changes":[1.6393352E2,1.508048E2,1.0730034E2,7.347351E0,1.74553E2,1.5030559E2,1.4781448E1,1.0712181E1,4.7112698E1,1.18789764E2,8.930947E1,3.7154694E1,2.4683977E2,2.488092E1,0E0,0E0,0E0,0E0,0E0,0E0,0E0,0E0,0E0,0E0,0E0,0E0,0E0,0E0,0E0],"parents":[2147483647,0,0,1,1,2,2,3,3,4,4,5,5,6,6,7,7,8,8,9,9,10,10,11,11,12,12,13,13],"right_children":[2,4,6,8,10,12,14,16,18,20,22,24,26,28,-1,-1,-1,-1,-1,-1,-1,-1,-1,-1,-1,-1,-1,-1,-1],"split_conditions":[7E0,4E0,2E1,6E0,2.1E1,1.4E1,2.3E1,2E0,1E0,1.5E1,5E0,1.2E1,1.7E1,2.1E1,-1.8895131E-1,-2.4281483E-2,-5.5518486E-2,-1.5300094E-1,1.2887259E-2,4.379213E-3,3.4272436E-2,-4.3529492E-2,1.5500153E-2,-4.6965253E-2,-1.2839592E-1,1.3578682E-1,-5.0955873E-2,-1.5876517E-1,-6.6280104E-2],"split_indices":[0,1,1,0,1,1,1,0,1,1,0,1,1,1,0,0,0,0,0,0,0,0,0,0,0,0,0,0,0],"split_type":[0,0,0,0,0,0,0,0,0,0,0,0,0,0,0,0,0,0,0,0,0,0,0,0,0,0,0,0,0],"sum_hessian":[8.227E3,7.294E3,9.33E2,6.43E2,6.651E3,7.81E2,1.52E2,5.31E2,1.12E2,5.455E3,1.196E3,4.97E2,2.84E2,1.28E2,2.4E1,1.59E2,3.72E2,2E1,9.2E1,3.162E3,2.293E3,8.25E2,3.71E2,4.33E2,6.4E1,1.28E2,1.56E2,4.7E1,8.1E1],"tree_param":{"num_deleted":"0","num_feature":"2","num_nodes":"29","size_leaf_vector":"1"}},{"base_weights":[-1.5268959E-3,4.3984443E-2,-3.5699123E-1,-2.697367E-1,1.0542565E-1,-2.2122824E-1,-1.0485578E0,3.5272587E-2,-8.6035734E-1,-1.6640937E-1,1.9772495E-1,-5.195448E-1,3.0081692E-1,-9.1260725E-1,-1.70812E-1,-3.426517E-2,1.1727031E-1,-2.3999417E-1,-2.891673E-2,1.2539417E-2,-1.08194664E-1,3.488876E-2,-7.66187E-3,-4.2279553E-2,-1.1575394E-1,1.2231348E-1,-4.589272E-2,-1.4321946E-1,-5.9732925E-2],"categories":[],"categories_nodes":[],"categories_segments":[],"categories_sizes":[],"default_left":[0,0,0,0,0,0,0,0,0,0,0,0,0,0,0,0,0,0,0,0,0,0,0,0,0,0,0,0,0],"id":33,"left_children":[1,3,5,7,9,11,13,15,17,19,21,23,25,27,-1,-1,-1,-1,-1,-1,-1,-1,-1,-1,-1,-1,-1,-1,-1],"loss_changes":[1.3312547E2,1.4064252E2,8.746049E1,2.1530334E2,1.5310812E2,1.21940834E2,1.2160339E1,3.3956345E2,3.5721985E2,4.1342758E2,1.8892491E2,3.0249908E1,2.002681E2,2.0276566E1,0E0,0E0,0E0,0E0,0E0,0E0,0E0,0E0,0E0,0E0,0E0,0E0,0E0,0E0,0E0],"parents":[2147483647,0,0,1,1,2,2,3,3,4,4,5,5,6,6,7,7,8,8,9,9,10,10,11,11,12,12,13,13],"right_children":[2,4,6,8,10,12,14,16,18,20,22,24,26,28,-1,-1,-1,-1,-1,-1,-1,-1,-1,-1,-1,-1,-1,-1,-1],"split_conditions":[7E0,2E0,2E1,1.8E1,9E0,1.4E1,2.3E1,1.4E1,2E1,6E0,1.9E1,1.2E1,1.7E1,2.1E1,-1.70812E-1,-3.426517E-2,1.1727031E-1,-2.3999417E-1,-2.891673E-2,1.2539417E-2,-1.08194664E-1,3.488876E-2,-7.66187E-3,-4.2279553E-2,-1.1575394E-1,1.2231348E-1,-4.589272E-2,-1.4321946E-1,-5.9732925E-2],"split_indices":[0,0,1,1,1,1,1,1,1,0,1,1,1,1,0,0,0,0,0,0,0,0,0,0,0,0,0,0,0],"split_type":[0,0,0,0,0,0,0,0,0,0,0,0,0,0,0,0,0,0,0,0,0,0,0,0,0,0,0,0,0],"sum_hessian":[8.227E3,7.294E3,9.33E2,1.194E3,6.1E3,7.81E2,1.52E2,7.88E2,4.06E2,1.546E3,4.554E3,4.97E2,2.84E2,1.28E2,2.4E1,5.92E2,1.96E2,1.09E2,2.97E2,1.173E3,3.73E2,2.936E3,1.618E3,4.33E2,6.4E1,1.28E2,1.56E2,4.7E1,8.1E1],"tree_param":{"num_deleted":"0","num_feature":"2","num_nodes":"29","size_leaf_vector":"1"}},{"base_weights":[-1.4605946E-3,1.9472467E-2,-7.1353483E-1,-1.4667243E-1,1.1291502E-1,-6.117401E-1,-1.5441406E-1,-9.84778E-2,-4.761499E-1,3.238981E-1,-6.1101675E-2,-8.503286E-1,-4.0901393E-1,-3.7166096E-2,-1.3493121E-3,-2.168185E-2,-6.755518E-2,8.69014E-3,7.33993E-2,-6.2660344E-2,4.5225117E-3,-5.6018658E-2,-1.1171957E-1,-2.905655E-2,-4.943451E-2],"categories":[],"categories_nodes":[],"categories_segments":[],"categories_sizes":[],"default_left":[0,0,0,0,0,0,0,0,0,0,0,0,0,0,0,0,0,0,0,0,0,0,0,0,0],"id":34,"left_children":[1,3,5,7,9,11,-1,13,15,17,19,21,23,-1,-1,-1,-1,-1,-1,-1,-1,-1,-1,-1,-1],"loss_changes":[1.2265959E2,1.2412344E2,1.892492E1,4.5652996E1,1.8788829E2,9.857887E0,0E0,5.8314537E1,1.8831535E1,2.2473929E2,1.6868735E2,6.8073807E0,1.0288124E0,0E0,0E0,0E0,0E0,0E0,0E0,0E0,0E0,0E0,0E0,0E0,0E0],"parents":[2147483647,0,0,1,1,2,2,3,3,4,4,5,5,7,7,8,8,9,9,10,10,11,11,12,12],"right_children":[2,4,6,8,10,12,-1,14,16,18,20,22,24,-1,-1,-1,-1,-1,-1,-1,-1,-1,-1,-1,-1],"split_conditions":[2.3E1,1.1E1,7E0,7E0,1.7E1,4E0,-1.5441406E-1,3E0,4E0,1.5E1,2E0,2E0,5E0,-3.7166096E-2,-1.3493121E-3,-2.168185E-2,-6.755518E-2,8.69014E-3,7.33993E-2,-6.2660344E-2,4.5225117E-3,-5.6018658E-2,-1.1171957E-1,-2.905655E-2,-4.943451E-2],"split_indices":[1,1,0,0,1,0,0,1,1,1,0,0,0,0,0,0,0,0,0,0,0,0,0,0,0],"split_type":[0,0,0,0,0,0,0,0,0,0,0,0,0,0,0,0,0,0,0,0,0,0,0,0,0],"sum_hessian":[8.227E3,7.993E3,2.34E2,2.877E3,5.116E3,2.1E2,2.4E1,2.511E3,3.66E2,2.312E3,2.804E3,9.5E1,1.15E2,5.95E2,1.916E3,1.6E2,2.06E2,1.466E3,8.46E2,4.43E2,2.361E3,4.7E1,4.8E1,5E1,6.5E1],"tree_param":{"num_deleted":"0","num_feature":"2","num_nodes":"25","size_leaf_vector":"1"}},{"base_weights":[-1.375762E-3,3.466338E-2,-3.460359E-1,-1.3204983E-1,1.3957612E-1,-2.776801E-1,-1.0566726E0,-8.864565E-2,-4.2877802E-1,2.9154423E-1,-1.594878E-2,-4.8023814E-1,2.8134903E-1,-8.399126E-2,-1.3959031E-1,-3.5586696E-2,-1.7180218E-3,-1.9527135E-2,-6.083229E-2,7.821745E-3,6.6068105E-2,-5.485074E-2,8.154675E-3,-4.3429207E-2,-5.9590515E-2,7.5226374E-2,-3.4805402E-2],"categories":[],"categories_nodes":[],"categories_segments":[],"categories_sizes":[],"default_left":[0,0,0,0,0,0,0,0,0,0,0,0,0,0,0,0,0,0,0,0,0,0,0,0,0,0,0],"id":35,"left_children":[1,3,5,7,9,11,13,15,17,19,21,23,25,-1,-1,-1,-1,-1,-1,-1,-1,-1,-1,-1,-1,-1,-1],"loss_changes":[1.0221409E2,1.3032146E2,3.7547386E1,3.7028454E1,1.080867E2,8.075903E1,3.8277206E0,4.7965775E1,1.5267662E1,1.8208955E2,1.1744057E2,2.5206604E0,5.657691E1,0E0,0E0,0E0,0E0,0E0,0E0,0E0,0E0,0E0,0E0,0E0,0E0,0E0,0E0],"parents":[2147483647,0,0,1,1,2,2,3,3,4,4,5,5,6,6,7,7,8,8,9,9,10,10,11,11,12,12],"right_children":[2,4,6,8,10,12,14,16,18,20,22,24,26,-1,-1,-1,-1,-1,-1,-1,-1,-1,-1,-1,-1,-1,-1],"split_conditions":[2.2E1,1.1E1,7E0,7E0,1.7E1,5E0,2.3E1,2E0,4E0,1.5E1,2E0,2.3E1,6E0,-8.399126E-2,-1.3959031E-1,-3.5586696E-2,-1.7180218E-3,-1.9527135E-2,-6.083229E-2,7.821745E-3,6.6068105E-2,-5.485074E-2,8.154675E-3,-4.3429207E-2,-5.9590515E-2,7.5226374E-2,-3.4805402E-2],"split_indices":[1,1,0,0,1,0,1,1,1,1,0,1,0,0,0,0,0,0,0,0,0,0,0,0,0,0,0],"split_type":[0,0,0,0,0,0,0,0,0,0,0,0,0,0,0,0,0,0,0,0,0,0,0,0,0,0,0],"sum_hessian":[8.227E3,7.449E3,7.78E2,2.877E3,4.572E3,7.11E2,6.7E1,2.511E3,3.66E2,2.312E3,2.26E3,5.22E2,1.89E2,4.3E1,2.4E1,5.29E2,1.982E3,1.6E2,2.06E2,1.466E3,8.46E2,3.49E2,1.911E3,3.77E2,1.45E2,1.08E2,8.1E1],"tree_param":{"num_deleted":"0","num_feature":"2","num_nodes":"27","size_leaf_vector":"1"}},{"base_weights":[-1.2840508E-3,3.6256522E-2,-2.9449305E-1,-2.042647E-1,8.336136E-2,-1.786343E-1,-8.847351E-1,4.0311584E-1,-4.3162307E-1,-3.3739996E-1,1.1967716E-1,-4.0590334E-1,2.1911521E-1,-1.3043723E-1,-6.8636423E-1,-2.2662856E-2,1.8493645E-1,-2.2345626E-1,-2.2844262E-2,-4.3976326E-2,3.4753242E-4,1.8612077E-2,-9.697239E-3,-3.0703053E-2,-1.059825E-1,1.0024631E-1,-4.25923E-2,-2.0160645E-2,-9.5429346E-2],"categories":[],"categories_nodes":[],"categories_segments":[],"categories_sizes":[],"default_left":[0,0,0,0,0,0,0,0,0,0,0,0,0,0,0,0,0,0,0,0,0,0,0,0,0,0,0,0,0],"id":36,"left_children":[1,3,5,7,9,11,13,15,17,19,21,23,25,-1,27,-1,-1,-1,-1,-1,-1,-1,-1,-1,-1,-1,-1,-1,-1],"loss_changes":[9.05782E1,8.266728E1,6.3713257E1,1.6519519E2,9.326541E1,7.0778725E1,1.1841034E1,2.9732913E2,3.1818973E2,1.6924686E1,8.087465E1,3.1872833E1,1.4443442E2,0E0,1.357497E1,0E0,0E0,0E0,0E0,0E0,0E0,0E0,0E0,0E0,0E0,0E0,0E0,0E0,0E0],"parents":[2147483647,0,0,1,1,2,2,3,3,4,4,5,5,6,6,7,7,8,8,9,9,10,10,11,11,12,12,14,14],"right_children":[2,4,6,8,10,12,14,16,18,20,22,24,26,-1,28,-1,-1,-1,-1,-1,-1,-1,-1,-1,-1,-1,-1,-1,-1],"split_conditions":[7E0,2E0,2E1,8E0,4E0,1.4E1,2.1E1,5E0,1E1,6E0,2E1,1.2E1,1.7E1,-1.3043723E-1,2.2E1,-2.2662856E-2,1.8493645E-1,-2.2345626E-1,-2.2844262E-2,-4.3976326E-2,3.4753242E-4,1.8612077E-2,-9.697239E-3,-3.0703053E-2,-1.059825E-1,1.0024631E-1,-4.25923E-2,-2.0160645E-2,-9.5429346E-2],"split_indices":[0,0,1,1,1,1,1,1,1,0,1,1,1,0,1,0,0,0,0,0,0,0,0,0,0,0,0,0,0],"split_type":[0,0,0,0,0,0,0,0,0,0,0,0,0,0,0,0,0,0,0,0,0,0,0,0,0,0,0,0,0],"sum_hessian":[8.227E3,7.294E3,9.33E2,1.194E3,6.1E3,7.81E2,1.52E2,3.25E2,8.69E2,4.84E2,5.616E3,4.97E2,2.84E2,4.7E1,1.05E2,2.27E2,9.8E1,8.7E1,7.82E2,3.72E2,1.12E2,4.298E3,1.318E3,4.33E2,6.4E1,1.28E2,1.56E2,3.8E1,6.7E1],"tree_param":{"num_deleted":"0","num_feature":"2","num_nodes":"29","size_leaf_vector":"1"}},{"base_weights":[-1.2095433E-3,1.5625989E-2,-5.738991E-1,-1.17509514E-1,9.050353E-2,-5.005174E-1,-1.1702843E-1,-2.2968108E-2,-2.2464876E-1,2.4940939E-1,-4.0562347E-2,-6.9204044E-1,-3.3770084E-1,3.0444095E-2,-1.07638635E-1,-5.419007E-2,6.1938584E-2,6.2294477E-3,5.731971E-2,-4.8898228E-2,4.374714E-3,-4.2461757E-2,-9.398824E-2,-1.9414945E-2,-4.4351026E-2],"categories":[],"categories_nodes":[],"categories_segments":[],"categories_sizes":[],"default_left":[0,0,0,0,0,0,0,0,0,0,0,0,0,0,0,0,0,0,0,0,0,0,0,0,0],"id":37,"left_children":[1,3,5,7,9,11,-1,13,15,17,19,21,23,-1,-1,-1,-1,-1,-1,-1,-1,-1,-1,-1,-1],"loss_changes":[7.933951E1,7.970169E1,9.69873E0,2.9146378E1,1.06582565E2,6.345932E0,0E0,5.2802264E2,3.615595E2,1.4009856E2,1.0606738E2,5.9636574E0,1.6758261E0,0E0,0E0,0E0,0E0,0E0,0E0,0E0,0E0,0E0,0E0,0E0,0E0],"parents":[2147483647,0,0,1,1,2,2,3,3,4,4,5,5,7,7,8,8,9,9,10,10,11,11,12,12],"right_children":[2,4,6,8,10,12,-1,14,16,18,20,22,24,-1,-1,-1,-1,-1,-1,-1,-1,-1,-1,-1,-1],"split_conditions":[2.3E1,1.1E1,7E0,5E0,1.7E1,4E0,-1.1702843E-1,8E0,9E0,1.5E1,2E0,2E0,5E0,3.0444095E-2,-1.07638635E-1,-5.419007E-2,6.1938584E-2,6.2294477E-3,5.731971E-2,-4.8898228E-2,4.374714E-3,-4.2461757E-2,-9.398824E-2,-1.9414945E-2,-4.4351026E-2],"split_indices":[1,1,0,0,1,0,0,1,1,1,0,0,0,0,0,0,0,0,0,0,0,0,0,0,0],"split_type":[0,0,0,0,0,0,0,0,0,0,0,0,0,0,0,0,0,0,0,0,0,0,0,0,0],"sum_hessian":[8.227E3,7.993E3,2.34E2,2.877E3,5.116E3,2.1E2,2.4E1,1.529E3,1.348E3,2.312E3,2.804E3,9.5E1,1.15E2,1.167E3,3.62E2,9.8E2,3.68E2,1.466E3,8.46E2,4.43E2,2.361E3,4.7E1,4.8E1,5E1,6.5E1],"tree_param":{"num_deleted":"0","num_feature":"2","num_nodes":"25","size_leaf_vector":"1"}},{"base_weights":[-1.1332281E-3,3.169611E-2,-2.5754532E-1,-2.7483737E-1,5.8959138E-2,-1.5437599E-1,-7.83172E-1,-3.5226366E-1,1.6438434E-1,1.05297774E-1,-1.5416268E-1,-2.3674832E-1,7.4282624E-2,-1.18093625E-1,-5.9566396E-1,-2.0348836E-2,-4.051655E-2,-1.1606844E-1,5.595566E-2,2.1037921E-2,-4.2385585E-3,-2.8991167E-2,1.4767286E-2,-9.554961E-3,-1.1949402E-1,-1.8622505E-2,-8.217295E-2],"categories":[],"categories_nodes":[],"categories_segments":[],"categories_sizes":[],"default_left":[0,0,0,0,0,0,0,0,0,0,0,0,0,0,0,0,0,0,0,0,0,0,0,0,0,0,0],"id":38,"left_children":[1,3,5,7,9,11,13,15,17,19,21,23,-1,-1,25,-1,-1,-1,-1,-1,-1,-1,-1,-1,-1,-1,-1],"loss_changes":[6.927016E1,6.0980743E1,5.0528576E1,2.0326248E1,6.618392E1,5.79693E1,1.0707901E1,3.9079018E0,4.77762E1,8.5424286E1,4.908853E1,9.689267E1,0E0,0E0,9.65834E0,0E0,0E0,0E0,0E0,0E0,0E0,0E0,0E0,0E0,0E0,0E0,0E0],"parents":[2147483647,0,0,1,1,2,2,3,3,4,4,5,5,6,6,7,7,8,8,9,9,10,10,11,11,14,14],"right_children":[2,4,6,8,10,12,14,16,18,20,22,24,-1,-1,26,-1,-1,-1,-1,-1,-1,-1,-1,-1,-1,-1,-1],"split_conditions":[7E0,3E0,2E1,6E0,2.1E1,1.9E1,2.1E1,2E0,1E0,5E0,5E0,1.7E1,7.4282624E-2,-1.18093625E-1,2.2E1,-2.0348836E-2,-4.051655E-2,-1.1606844E-1,5.595566E-2,2.1037921E-2,-4.2385585E-3,-2.8991167E-2,1.4767286E-2,-9.554961E-3,-1.1949402E-1,-1.8622505E-2,-8.217295E-2],"split_indices":[0,1,1,0,1,1,1,0,1,0,0,1,0,0,1,0,0,0,0,0,0,0,0,0,0,0,0],"split_type":[0,0,0,0,0,0,0,0,0,0,0,0,0,0,0,0,0,0,0,0,0,0,0,0,0,0,0],"sum_hessian":[8.227E3,7.294E3,9.33E2,5.95E2,6.699E3,7.81E2,1.52E2,5.06E2,8.9E1,5.503E3,1.196E3,7.16E2,6.5E1,4.7E1,1.05E2,1.34E2,3.72E2,2E1,6.9E1,3.215E3,2.288E3,8.25E2,3.71E2,6.25E2,9.1E1,3.8E1,6.7E1],"tree_param":{"num_deleted":"0","num_feature":"2","num_nodes":"27","size_leaf_vector":"1"}},{"base_weights":[-1.0677163E-3,1.3472076E-2,-4.956636E-1,-1.0589783E-1,8.060773E-2,-4.360411E-1,-9.79051E-2,-2.6896324E-2,-1.9542074E-1,2.170448E-1,-3.1926878E-2,-5.955685E-1,-3.0025947E-1,2.724548E-2,-9.900236E-2,-5.5787086E-2,4.057179E-2,4.51737E-2,-5.197229E-4,-4.401137E-2,4.481608E-3,-3.5465308E-2,-8.194128E-2,-1.4669244E-2,-4.143755E-2],"categories":[],"categories_nodes":[],"categories_segments":[],"categories_sizes":[],"default_left":[0,0,0,0,0,0,0,0,0,0,0,0,0,0,0,0,0,0,0,0,0,0,0,0,0],"id":39,"left_children":[1,3,5,7,9,11,-1,13,15,17,19,21,23,-1,-1,-1,-1,-1,-1,-1,-1,-1,-1,-1,-1],"loss_changes":[5.917687E1,6.4072266E1,6.345974E0,2.034924E1,7.8572784E1,4.3916245E0,0E0,4.4138898E2,2.9415018E2,1.20644905E2,8.788765E1,4.8864326E0,1.9720507E0,0E0,0E0,0E0,0E0,0E0,0E0,0E0,0E0,0E0,0E0,0E0,0E0],"parents":[2147483647,0,0,1,1,2,2,3,3,4,4,5,5,7,7,8,8,9,9,10,10,11,11,12,12],"right_children":[2,4,6,8,10,12,-1,14,16,18,20,22,24,-1,-1,-1,-1,-1,-1,-1,-1,-1,-1,-1,-1],"split_conditions":[2.3E1,1.1E1,7E0,5E0,1.7E1,4E0,-9.79051E-2,8E0,8E0,5E0,2E0,2E0,5E0,2.724548E-2,-9.900236E-2,-5.5787086E-2,4.057179E-2,4.51737E-2,-5.197229E-4,-4.401137E-2,4.481608E-3,-3.5465308E-2,-8.194128E-2,-1.4669244E-2,-4.143755E-2],"split_indices":[1,1,0,0,1,0,0,1,1,0,0,0,0,0,0,0,0,0,0,0,0,0,0,0,0],"split_type":[0,0,0,0,0,0,0,0,0,0,0,0,0,0,0,0,0,0,0,0,0,0,0,0,0],"sum_hessian":[8.227E3,7.993E3,2.34E2,2.877E3,5.116E3,2.1E2,2.4E1,1.529E3,1.348E3,2.312E3,2.804E3,9.5E1,1.15E2,1.167E3,3.62E2,8.41E2,5.07E2,1.124E3,1.188E3,4.43E2,2.361E3,4.7E1,4.8E1,5E1,6.5E1],"tree_param":{"num_deleted":"0","num_feature":"2","num_nodes":"25","size_leaf_vector":"1"}},{"base_weights":[-1.0039217E-3,2.6792653E-2,-2.1810777E-1,-1.7097798E-1,6.55255E-2,-6.687787E-2,-5.2377707E-1,3.018282E-1,-3.479479E-1,-1.1349953E-1,1.263128E-1,-3.1003833E-1,8.72353E-1,-1.7576313E-1,-2.9012716E-1,-5.556153E-3,2.4245368E-1,-1.8301515E-1,-1.8092126E-2,1.3179473E-2,-8.831839E-2,5.066669E-3,3.6878064E-2,-2.1322442E-2,-9.5168754E-2,1.1640289E-1,3.0202413E-2,2.8038904E-2,-6.946771E-2],"categories":[],"categories_nodes":[],"categories_segments":[],"categories_sizes":[],"default_left":[0,0,0,0,0,0,0,0,0,0,0,0,0,0,0,0,0,0,0,0,0,0,0,0,0,0,0,0,0],"id":40,"left_children":[1,3,5,7,9,11,13,15,17,19,21,23,25,-1,27,-1,-1,-1,-1,-1,-1,-1,-1,-1,-1,-1,-1,-1,-1],"loss_changes":[4.9659714E1,5.5892506E1,4.3140373E1,1.0009363E2,6.640816E1,1.4323872E2,8.857166E1,2.4744945E2,2.150526E2,2.921887E2,8.3528E1,3.0733116E1,2.1107727E1,0E0,6.0434174E1,0E0,0E0,0E0,0E0,0E0,0E0,0E0,0E0,0E0,0E0,0E0,0E0,0E0,0E0],"parents":[2147483647,0,0,1,1,2,2,3,3,4,4,5,5,6,6,7,7,8,8,9,9,10,10,11,11,12,12,14,14],"right_children":[2,4,6,8,10,12,14,16,18,20,22,24,26,-1,28,-1,-1,-1,-1,-1,-1,-1,-1,-1,-1,-1,-1,-1,-1],"split_conditions":[7E0,2E0,1.7E1,8E0,9E0,1.4E1,1.8E1,7E0,1E1,6E0,6E0,1.2E1,1.6E1,-1.7576313E-1,2E1,-5.556153E-3,2.4245368E-1,-1.8301515E-1,-1.8092126E-2,1.3179473E-2,-8.831839E-2,5.066669E-3,3.6878064E-2,-2.1322442E-2,-9.5168754E-2,1.1640289E-1,3.0202413E-2,2.8038904E-2,-6.946771E-2],"split_indices":[0,0,1,1,1,1,1,1,1,0,0,1,1,0,1,0,0,0,0,0,0,0,0,0,0,0,0,0,0],"split_type":[0,0,0,0,0,0,0,0,0,0,0,0,0,0,0,0,0,0,0,0,0,0,0,0,0,0,0,0,0],"sum_hessian":[8.227E3,7.294E3,9.33E2,1.194E3,6.1E3,6.25E2,3.08E2,3.25E2,8.69E2,1.546E3,4.554E3,4.97E2,1.28E2,4.8E1,2.6E2,2.79E2,4.6E1,8.7E1,7.82E2,1.173E3,3.73E2,3.472E3,1.082E3,4.33E2,6.4E1,8.4E1,4.4E1,1.08E2,1.52E2],"tree_param":{"num_deleted":"0","num_feature":"2","num_nodes":"29","size_leaf_vector":"1"}},{"base_weights":[-9.258905E-4,1.214246E-2,-4.454683E-1,-1.6336185E-1,4.8337728E-2,-3.9917406E-1,-8.18373E-2,-2.938509E-1,1.36685E-1,1.3311796E-1,-4.75495E-2,-5.3091025E-1,-2.8670982E-1,-2.5950233E-2,-1.5584904E-1,5.1042903E-2,-1.5744308E-2,1.2127548E-1,3.532914E-4,-1.3643512E-1,7.604754E-3,-3.0221144E-2,-7.441069E-2,-1.3727824E-2,-3.978356E-2],"categories":[],"categories_nodes":[],"categories_segments":[],"categories_sizes":[],"default_left":[0,0,0,0,0,0,0,0,0,0,0,0,0,0,0,0,0,0,0,0,0,0,0,0,0],"id":41,"left_children":[1,3,5,7,9,11,-1,13,15,17,19,21,23,-1,-1,-1,-1,-1,-1,-1,-1,-1,-1,-1,-1],"loss_changes":[4.780545E1,5.0789185E1,3.7302094E0,5.356208E1,5.38876E1,2.973877E0,0E0,4.099254E1,4.5700737E1,4.921808E2,5.0642764E2,4.4558716E0,1.8716478E0,0E0,0E0,0E0,0E0,0E0,0E0,0E0,0E0,0E0,0E0,0E0,0E0],"parents":[2147483647,0,0,1,1,2,2,3,3,4,4,5,5,7,7,8,8,9,9,10,10,11,11,12,12],"right_children":[2,4,6,8,10,12,-1,14,16,18,20,22,24,-1,-1,-1,-1,-1,-1,-1,-1,-1,-1,-1,-1],"split_conditions":[2.3E1,6E0,7E0,6E0,5E0,4E0,-8.18373E-2,5E0,7E0,8E0,8E0,2E0,5E0,-2.5950233E-2,-1.5584904E-1,5.1042903E-2,-1.5744308E-2,1.2127548E-1,3.532914E-4,-1.3643512E-1,7.604754E-3,-3.0221144E-2,-7.441069E-2,-1.3727824E-2,-3.978356E-2],"split_indices":[1,1,0,0,0,0,0,1,0,1,1,0,0,0,0,0,0,0,0,0,0,0,0,0,0],"split_type":[0,0,0,0,0,0,0,0,0,0,0,0,0,0,0,0,0,0,0,0,0,0,0,0,0],"sum_hessian":[8.227E3,7.993E3,2.34E2,1.366E3,6.627E3,2.1E2,2.4E1,9.52E2,4.14E2,3.517E3,3.11E3,9.5E1,1.15E2,9.28E2,2.4E1,1.82E2,2.32E2,3.76E2,3.141E3,2.66E2,2.844E3,4.7E1,4.8E1,5E1,6.5E1],"tree_param":{"num_deleted":"0","num_feature":"2","num_nodes":"25","size_leaf_vector":"1"}},{"base_weights":[-8.809277E-4,2.1851467E-2,-2.1828203E-1,-6.991258E-2,1.12995945E-1,-3.4014824E-1,3.0567437E-2,-4.3911036E-2,-3.848998E-1,2.8601196E-1,-7.5855985E-2,-2.7559394E-1,-3.91064E-1,6.839492E-1,-4.4761494E-1,-8.380848E-3,1.6343325E-2,-1.8709557E-1,-1.1085249E-2,1.0016968E-1,-2.8613988E-2,-4.1300952E-2,3.554536E-2,-3.676462E-2,-1.3207758E-2,-3.541998E-2,-4.2499717E-2,9.85268E-2,-3.158483E-2,-3.0208588E-2,-6.1652333E-2],"categories":[],"categories_nodes":[],"categories_segments":[],"categories_sizes":[],"default_left":[0,0,0,0,0,0,0,0,0,0,0,0,0,0,0,0,0,0,0,0,0,0,0,0,0,0,0,0,0,0,0],"id":42,"left_children":[1,3,5,7,9,11,13,15,17,19,21,23,25,27,29,-1,-1,-1,-1,-1,-1,-1,-1,-1,-1,-1,-1,-1,-1,-1,-1],"loss_changes":[4.0667934E1,6.2318108E1,2.363462E1,3.0393137E1,1.2215863E2,1.6112366E0,8.0602104E1,2.8396662E1,1.15044235E2,7.9918286E2,2.6015338E2,3.042818E0,2.122345E-1,3.31483E1,3.4763374E0,0E0,0E0,0E0,0E0,0E0,0E0,0E0,0E0,0E0,0E0,0E0,0E0,0E0,0E0,0E0,0E0],"parents":[2147483647,0,0,1,1,2,2,3,3,4,4,5,5,6,6,7,7,8,8,9,9,10,10,11,11,12,12,13,13,14,14],"right_children":[2,4,6,8,10,12,14,16,18,20,22,24,26,28,30,-1,-1,-1,-1,-1,-1,-1,-1,-1,-1,-1,-1,-1,-1,-1,-1],"split_conditions":[2.2E1,1.3E1,5E0,1.2E1,5E0,3E0,6E0,1.1E1,3E0,1.8E1,1.8E1,2E0,4E0,2.3E1,7E0,-8.380848E-3,1.6343325E-2,-1.8709557E-1,-1.1085249E-2,1.0016968E-1,-2.8613988E-2,-4.1300952E-2,3.554536E-2,-3.676462E-2,-1.3207758E-2,-3.541998E-2,-4.2499717E-2,9.85268E-2,-3.158483E-2,-3.0208588E-2,-6.1652333E-2],"split_indices":[1,1,0,1,0,0,0,1,0,1,1,0,0,1,0,0,0,0,0,0,0,0,0,0,0,0,0,0,0,0,0],"split_type":[0,0,0,0,0,0,0,0,0,0,0,0,0,0,0,0,0,0,0,0,0,0,0,0,0,0,0,0,0,0,0],"sum_hessian":[8.227E3,7.449E3,7.78E2,3.712E3,3.737E3,5.22E2,2.56E2,3.43E3,2.82E2,1.95E3,1.787E3,2.33E2,2.89E2,1.08E2,1.48E2,2.877E3,5.53E2,4.3E1,2.39E2,8.66E2,1.084E3,1.003E3,7.84E2,1.41E2,9.2E1,1.44E2,1.45E2,8.3E1,2.5E1,8.1E1,6.7E1],"tree_param":{"num_deleted":"0","num_feature":"2","num_nodes":"31","size_leaf_vector":"1"}},{"base_weights":[-8.2651206E-4,-1.6426413E-1,2.6939876E-2,2.623399E-1,-3.2392925E-1,2.4073334E-1,-1.1795867E-2,-4.3158505E-2,2.0767486E-1,-9.9485445E-1,-2.5203068E-2,6.593766E-1,-5.248524E-1,-2.9831925E-1,4.8880015E-2,-2.1841122E-2,7.115731E-2,-1.6412786E-1,-6.7507446E-2,1.8135929E-1,-3.5980742E-2,1.1835953E-2,3.0001274E-1,-8.128455E-2,-1.1582525E-2,-1.5061021E-2,-4.494711E-2,3.7099358E-2,-4.8577613E-3],"categories":[],"categories_nodes":[],"categories_segments":[],"categories_sizes":[],"default_left":[0,0,0,0,0,0,0,0,0,0,0,0,0,0,0,0,0,0,0,0,0,0,0,0,0,0,0,0,0],"id":43,"left_children":[1,3,5,7,9,11,13,15,-1,17,19,21,23,25,27,-1,-1,-1,-1,-1,-1,-1,-1,-1,-1,-1,-1,-1,-1],"loss_changes":[3.7343685E1,8.148094E1,5.825455E1,1.807911E2,1.7434285E2,3.461735E2,1.0355999E2,3.7190662E1,0E0,5.429123E1,3.7165982E2,8.835825E2,4.490429E1,2.3174187E1,1.5434317E2,0E0,0E0,0E0,0E0,0E0,0E0,0E0,0E0,0E0,0E0,0E0,0E0,0E0,0E0],"parents":[2147483647,0,0,1,1,2,2,3,3,4,4,5,5,6,6,7,7,9,9,10,10,11,11,12,12,13,13,14,14],"right_children":[2,4,6,8,10,12,14,16,-1,18,20,22,24,26,28,-1,-1,-1,-1,-1,-1,-1,-1,-1,-1,-1,-1,-1,-1],"split_conditions":[2E0,8E0,3E0,7E0,1.4E1,1.8E1,4E0,5E0,2.0767486E-1,1E1,1.6E1,1.4E1,2.1E1,1.4E1,5E0,-2.1841122E-2,7.115731E-2,-1.6412786E-1,-6.7507446E-2,1.8135929E-1,-3.5980742E-2,1.1835953E-2,3.0001274E-1,-8.128455E-2,-1.1582525E-2,-1.5061021E-2,-4.494711E-2,3.7099358E-2,-4.8577613E-3],"split_indices":[0,1,0,1,1,1,0,1,0,1,1,1,1,1,0,0,0,0,0,0,0,0,0,0,0,0,0,0,0],"split_type":[0,0,0,0,0,0,0,0,0,0,0,0,0,0,0,0,0,0,0,0,0,0,0,0,0,0,0,0,0],"sum_hessian":[8.227E3,1.194E3,7.033E3,3.25E2,8.69E2,1.078E3,5.955E3,2.79E2,4.6E1,2.67E2,6.02E2,6.97E2,3.81E2,1.04E3,4.915E3,2.27E2,5.2E1,8.7E1,1.8E2,9.2E1,5.1E2,5.67E2,1.3E2,2.23E2,1.58E2,5.27E2,5.13E2,1.141E3,3.774E3],"tree_param":{"num_deleted":"0","num_feature":"2","num_nodes":"29","size_leaf_vector":"1"}},{"base_weights":[-6.997964E-4,2.1630924E-2,-1.7511296E-1,-6.702551E-2,9.5368594E-2,-2.9120598E-2,-4.7031075E-1,9.804595E-2,-3.72272E-1,-1.9956788E-1,1.7461415E-1,-2.5018325E-1,8.2450986E-1,-1.5476859E-1,-2.6624295E-1,-1.5343505E-2,6.880721E-2,-8.978251E-2,-1.5315835E-2,1.9026525E-2,-9.896969E-2,3.798633E-2,1.1172932E-2,-1.6273081E-2,-8.302476E-2,1.3764137E-1,5.5173177E-2,2.146667E-2,-6.0711164E-2],"categories":[],"categories_nodes":[],"categories_segments":[],"categories_sizes":[],"default_left":[0,0,0,0,0,0,0,0,0,0,0,0,0,0,0,0,0,0,0,0,0,0,0,0,0,0,0,0,0],"id":44,"left_children":[1,3,5,7,9,11,13,15,17,19,21,23,25,-1,27,-1,-1,-1,-1,-1,-1,-1,-1,-1,-1,-1,-1,-1,-1],"loss_changes":[3.2049973E1,4.7696133E1,4.023855E1,1.6697025E2,9.312712E1,1.1833612E2,6.7523926E1,3.1927173E2,1.3378876E2,2.6015588E2,4.0485718E1,2.5127462E1,1.8661186E1,0E0,4.2915283E1,0E0,0E0,0E0,0E0,0E0,0E0,0E0,0E0,0E0,0E0,0E0,0E0,0E0,0E0],"parents":[2147483647,0,0,1,1,2,2,3,3,4,4,5,5,6,6,7,7,8,8,9,9,10,10,11,11,12,12,14,14],"right_children":[2,4,6,8,10,12,14,16,18,20,22,24,26,-1,28,-1,-1,-1,-1,-1,-1,-1,-1,-1,-1,-1,-1,-1,-1],"split_conditions":[7E0,4E0,1.7E1,1.8E1,8E0,1.4E1,1.8E1,1.3E1,2E1,6E0,1.2E1,1.2E1,1.5E1,-1.5476859E-1,2E1,-1.5343505E-2,6.880721E-2,-8.978251E-2,-1.5315835E-2,1.9026525E-2,-9.896969E-2,3.798633E-2,1.1172932E-2,-1.6273081E-2,-8.302476E-2,1.3764137E-1,5.5173177E-2,2.146667E-2,-6.0711164E-2],"split_indices":[0,0,1,1,1,1,1,1,1,0,1,1,1,0,1,0,0,0,0,0,0,0,0,0,0,0,0,0,0],"split_type":[0,0,0,0,0,0,0,0,0,0,0,0,0,0,0,0,0,0,0,0,0,0,0,0,0,0,0,0,0],"sum_hessian":[8.227E3,7.294E3,9.33E2,3.312E3,3.982E3,6.25E2,3.08E2,2.15E3,1.162E3,8.43E2,3.139E3,4.97E2,1.28E2,4.8E1,2.6E2,1.508E3,6.42E2,3.41E2,8.21E2,5.65E2,2.78E2,7.35E2,2.404E3,4.33E2,6.4E1,4.1E1,8.7E1,1.08E2,1.52E2],"tree_param":{"num_deleted":"0","num_feature":"2","num_nodes":"29","size_leaf_vector":"1"}},{"base_weights":[-6.522759E-4,9.507857E-3,-3.4626696E-1,-1.4228119E-1,3.4956127E-2,-3.124683E-1,-6.1767694E-2,2.5219047E-1,-2.9836318E-1,-1.0815709E-1,8.768711E-2,-3.8795447E-1,-2.473033E-1,-2.3378048E-3,1.8885094E-1,-9.023E-2,-6.7203183E-4,1.21975215E-2,-5.106417E-2,1.4539954E-2,-7.963039E-3,-1.8639334E-2,-5.7748467E-2,-1.29479095E-2,-3.3460226E-2],"categories":[],"categories_nodes":[],"categories_segments":[],"categories_sizes":[],"default_left":[0,0,0,0,0,0,0,0,0,0,0,0,0,0,0,0,0,0,0,0,0,0,0,0,0],"id":45,"left_children":[1,3,5,7,9,11,-1,13,15,17,19,21,23,-1,-1,-1,-1,-1,-1,-1,-1,-1,-1,-1,-1],"loss_changes":[2.8895842E1,3.088395E1,1.962719E0,7.075752E1,5.1680367E1,9.4197845E-1,0E0,1.4704341E2,1.449521E2,1.7086226E2,4.833171E1,3.559743E0,1.1498446E0,0E0,0E0,0E0,0E0,0E0,0E0,0E0,0E0,0E0,0E0,0E0,0E0],"parents":[2147483647,0,0,1,1,2,2,3,3,4,4,5,5,7,7,8,8,9,9,10,10,11,11,12,12],"right_children":[2,4,6,8,10,12,-1,14,16,18,20,22,24,-1,-1,-1,-1,-1,-1,-1,-1,-1,-1,-1,-1],"split_conditions":[2.3E1,2E0,7E0,8E0,9E0,4E0,-6.1767694E-2,7E0,1.4E1,6E0,2E1,2E0,5E0,-2.3378048E-3,1.8885094E-1,-9.023E-2,-6.7203183E-4,1.21975215E-2,-5.106417E-2,1.4539954E-2,-7.963039E-3,-1.8639334E-2,-5.7748467E-2,-1.29479095E-2,-3.3460226E-2],"split_indices":[1,0,0,1,1,0,0,1,1,0,1,0,0,0,0,0,0,0,0,0,0,0,0,0,0],"split_type":[0,0,0,0,0,0,0,0,0,0,0,0,0,0,0,0,0,0,0,0,0,0,0,0,0],"sum_hessian":[8.227E3,7.993E3,2.34E2,1.147E3,6.846E3,2.1E2,2.4E1,3.25E2,8.22E2,1.843E3,5.003E3,9.5E1,1.15E2,2.79E2,4.6E1,2.67E2,5.55E2,1.173E3,6.7E2,3.72E3,1.283E3,4.7E1,4.8E1,5E1,6.5E1],"tree_param":{"num_deleted":"0","num_feature":"2","num_nodes":"25","size_leaf_vector":"1"}},{"base_weights":[-6.01624E-4,8.565153E-3,-3.1242552E-1,-5.353433E-2,6.2410742E-2,-2.818033E-1,-5.583799E-2,-2.961042E-2,-3.4339085E-1,2.1186392E-1,-1.6360814E-2,-3.4995472E-1,-2.2297283E-1,-6.4460547E-3,1.5148756E-2,-1.6068374E-1,-1.10328235E-2,1.0559845E-1,-1.4912738E-3,2.8124687E-3,-4.09805E-2,-1.681424E-2,-5.2091468E-2,-1.1678505E-2,-3.0164862E-2],"categories":[],"categories_nodes":[],"categories_segments":[],"categories_sizes":[],"default_left":[0,0,0,0,0,0,0,0,0,0,0,0,0,0,0,0,0,0,0,0,0,0,0,0,0],"id":46,"left_children":[1,3,5,7,9,11,-1,13,15,17,19,21,23,-1,-1,-1,-1,-1,-1,-1,-1,-1,-1,-1,-1],"loss_changes":[2.3521759E1,2.6733545E1,1.612587E0,2.5737637E1,5.0413998E1,7.6795006E-1,0E0,2.1663795E1,8.31555E1,2.829446E2,4.910621E1,2.8963432E0,9.3388367E-1,0E0,0E0,0E0,0E0,0E0,0E0,0E0,0E0,0E0,0E0,0E0,0E0],"parents":[2147483647,0,0,1,1,2,2,3,3,4,4,5,5,7,7,8,8,9,9,10,10,11,11,12,12],"right_children":[2,4,6,8,10,12,-1,14,16,18,20,22,24,-1,-1,-1,-1,-1,-1,-1,-1,-1,-1,-1,-1],"split_conditions":[2.3E1,1.3E1,7E0,1.2E1,1.7E1,4E0,-5.583799E-2,1.1E1,3E0,3E0,7E0,2E0,5E0,-6.4460547E-3,1.5148756E-2,-1.6068374E-1,-1.10328235E-2,1.0559845E-1,-1.4912738E-3,2.8124687E-3,-4.09805E-2,-1.681424E-2,-5.2091468E-2,-1.1678505E-2,-3.0164862E-2],"split_indices":[1,1,0,1,1,0,0,1,0,0,0,0,0,0,0,0,0,0,0,0,0,0,0,0,0],"split_type":[0,0,0,0,0,0,0,0,0,0,0,0,0,0,0,0,0,0,0,0,0,0,0,0,0],"sum_hessian":[8.227E3,7.993E3,2.34E2,3.712E3,4.281E3,2.1E2,2.4E1,3.43E3,2.82E2,1.477E3,2.804E3,9.5E1,1.15E2,2.877E3,5.53E2,4.3E1,2.39E2,3.12E2,1.165E3,2.52E3,2.84E2,4.7E1,4.8E1,5E1,6.5E1],"tree_param":{"num_deleted":"0","num_feature":"2","num_nodes":"25","size_leaf_vector":"1"}},{"base_weights":[-5.7341455E-4,-1.4193787E-1,2.3442948E-2,2.3397008E-1,-2.8263217E-1,2.0718129E-1,-9.847367E-3,-1.7264463E-1,1.1680527E0,-8.290031E-1,-3.9331943E-2,5.5784637E-1,-4.3410507E-1,-2.629625E-1,4.375367E-2,-7.2929086E-3,-4.01367E-2,6.6543095E-2,1.7099868E-1,-1.3682687E-1,-5.622386E-2,1.4623182E-1,-3.1254943E-2,9.33769E-3,2.567471E-1,-6.8069495E-2,-8.397781E-3,-3.9168887E-2,-5.5699307E-3,3.1022966E-2,-3.6871321E-3],"categories":[],"categories_nodes":[],"categories_segments":[],"categories_sizes":[],"default_left":[0,0,0,0,0,0,0,0,0,0,0,0,0,0,0,0,0,0,0,0,0,0,0,0,0,0,0,0,0,0,0],"id":47,"left_children":[1,3,5,7,9,11,13,15,17,19,21,23,25,27,29,-1,-1,-1,-1,-1,-1,-1,-1,-1,-1,-1,-1,-1,-1,-1,-1],"loss_changes":[2.7937881E1,6.3267418E1,4.3026962E1,1.2402028E2,1.1561838E2,2.4288416E2,8.081795E1,5.170764E0,2.5828537E1,3.7784363E1,2.4785408E2,6.512799E2,3.2923897E1,2.7752312E1,1.0562986E2,0E0,0E0,0E0,0E0,0E0,0E0,0E0,0E0,0E0,0E0,0E0,0E0,0E0,0E0,0E0,0E0],"parents":[2147483647,0,0,1,1,2,2,3,3,4,4,5,5,6,6,7,7,8,8,9,9,10,10,11,11,12,12,13,13,14,14],"right_children":[2,4,6,8,10,12,14,16,18,20,22,24,26,28,30,-1,-1,-1,-1,-1,-1,-1,-1,-1,-1,-1,-1,-1,-1,-1,-1],"split_conditions":[2E0,8E0,3E0,5E0,1.4E1,1.8E1,4E0,4E0,7E0,1E1,1.6E1,1.4E1,2.1E1,1.7E1,5E0,-7.2929086E-3,-4.01367E-2,6.6543095E-2,1.7099868E-1,-1.3682687E-1,-5.622386E-2,1.4623182E-1,-3.1254943E-2,9.33769E-3,2.567471E-1,-6.8069495E-2,-8.397781E-3,-3.9168887E-2,-5.5699307E-3,3.1022966E-2,-3.6871321E-3],"split_indices":[0,1,0,1,1,1,0,1,1,1,1,1,1,1,0,0,0,0,0,0,0,0,0,0,0,0,0,0,0,0,0],"split_type":[0,0,0,0,0,0,0,0,0,0,0,0,0,0,0,0,0,0,0,0,0,0,0,0,0,0,0,0,0,0,0],"sum_hessian":[8.227E3,1.194E3,7.033E3,3.25E2,8.69E2,1.078E3,5.955E3,2.27E2,9.8E1,2.67E2,6.02E2,6.97E2,3.81E2,1.04E3,4.915E3,1.59E2,6.8E1,5.2E1,4.6E1,8.7E1,1.8E2,9.2E1,5.1E2,5.67E2,1.3E2,2.23E2,1.58E2,6.41E2,3.99E2,1.141E3,3.774E3],"tree_param":{"num_deleted":"0","num_feature":"2","num_nodes":"31","size_leaf_vector":"1"}},{"base_weights":[-4.8165652E-4,-1.2765051E-1,2.1123016E-2,2.1115597E-1,-2.5445887E-1,1.8663877E-1,-8.86567E-3,-1.5558828E-1,1.0536462E0,-7.4682355E-1,-3.5208117E-2,5.024428E-1,-3.908948E-1,-2.3670909E-1,3.938369E-2,-6.5681743E-3,-3.6181238E-2,6.0014285E-2,1.5426256E-1,-1.2329961E-1,-5.0632626E-2,1.317658E-1,-2.8135553E-2,8.405525E-3,2.3126845E-1,-6.1292943E-2,-7.5632944E-3,9.070076E-4,-3.2627095E-2,2.7923385E-2,-3.3185382E-3],"categories":[],"categories_nodes":[],"categories_segments":[],"categories_sizes":[],"default_left":[0,0,0,0,0,0,0,0,0,0,0,0,0,0,0,0,0,0,0,0,0,0,0,0,0,0,0,0,0,0,0],"id":48,"left_children":[1,3,5,7,9,11,13,15,17,19,21,23,25,27,29,-1,-1,-1,-1,-1,-1,-1,-1,-1,-1,-1,-1,-1,-1,-1,-1],"loss_changes":[2.2608646E1,5.1395096E1,3.491562E1,1.00890915E2,9.389135E1,1.9699242E2,6.548542E1,4.203558E0,2.1027817E1,3.071112E1,2.0117244E2,5.284586E2,2.6693275E1,2.2917904E1,8.557571E1,0E0,0E0,0E0,0E0,0E0,0E0,0E0,0E0,0E0,0E0,0E0,0E0,0E0,0E0,0E0,0E0],"parents":[2147483647,0,0,1,1,2,2,3,3,4,4,5,5,6,6,7,7,8,8,9,9,10,10,11,11,12,12,13,13,14,14],"right_children":[2,4,6,8,10,12,14,16,18,20,22,24,26,28,30,-1,-1,-1,-1,-1,-1,-1,-1,-1,-1,-1,-1,-1,-1,-1,-1],"split_conditions":[2E0,8E0,3E0,5E0,1.4E1,1.8E1,4E0,4E0,7E0,1E1,1.6E1,1.4E1,2.1E1,8E0,5E0,-6.5681743E-3,-3.6181238E-2,6.0014285E-2,1.5426256E-1,-1.2329961E-1,-5.0632626E-2,1.317658E-1,-2.8135553E-2,8.405525E-3,2.3126845E-1,-6.1292943E-2,-7.5632944E-3,9.070076E-4,-3.2627095E-2,2.7923385E-2,-3.3185382E-3],"split_indices":[0,1,0,1,1,1,0,1,1,1,1,1,1,1,0,0,0,0,0,0,0,0,0,0,0,0,0,0,0,0,0],"split_type":[0,0,0,0,0,0,0,0,0,0,0,0,0,0,0,0,0,0,0,0,0,0,0,0,0,0,0,0,0,0,0],"sum_hessian":[8.227E3,1.194E3,7.033E3,3.25E2,8.69E2,1.078E3,5.955E3,2.27E2,9.8E1,2.67E2,6.02E2,6.97E2,3.81E2,1.04E3,4.915E3,1.59E2,6.8E1,5.2E1,4.6E1,8.7E1,1.8E2,9.2E1,5.1E2,5.67E2,1.3E2,2.23E2,1.58E2,2.78E2,7.62E2,1.141E3,3.774E3],"tree_param":{"num_deleted":"0","num_feature":"2","num_nodes":"31","size_leaf_vector":"1"}},{"base_weights":[-4.0124307E-4,-1.730502E-1,1.2593164E-2,-3.368457E-1,3.5935318E-1,3.3002697E-2,-1.429288E-1,-3.9900982E-1,-1.0312265E-1,-3.2793295E-2,5.410208E-1,-1.1287886E-1,6.2147293E-2,-1.94882E-2,-3.7416703E-1,-2.91265E-2,-7.000994E-2,1.5241203E-1,-6.8280764E-2,-7.932045E-2,6.3393295E-2,7.703314E-2,-1.5034412E-2,2.794461E-2,-2.2909377E-2,2.2796905E-2,2.705353E-3,-2.3550453E-2,7.3755726E-2,-1.3633119E-1,-1.8703194E-2],"categories":[],"categories_nodes":[],"categories_segments":[],"categories_sizes":[],"default_left":[0,0,0,0,0,0,0,0,0,0,0,0,0,0,0,0,0,0,0,0,0,0,0,0,0,0,0,0,0,0,0],"id":49,"left_children":[1,3,5,7,9,11,13,15,17,19,21,23,25,27,29,-1,-1,-1,-1,-1,-1,-1,-1,-1,-1,-1,-1,-1,-1,-1,-1],"loss_changes":[1.8461456E1,5.035128E1,2.4296339E1,6.366226E0,9.706427E0,2.877374E1,2.5339947E1,1.1085499E1,8.970977E1,2.2810226E1,1.4859779E1,5.1448463E1,3.2814735E1,9.502352E1,5.6942055E1,0E0,0E0,0E0,0E0,0E0,0E0,0E0,0E0,0E0,0E0,0E0,0E0,0E0,0E0,0E0,0E0],"parents":[2147483647,0,0,1,1,2,2,3,3,4,4,5,5,6,6,7,7,8,8,9,9,10,10,11,11,12,12,13,13,14,14],"right_children":[2,4,6,8,10,12,14,16,18,20,22,24,26,28,30,-1,-1,-1,-1,-1,-1,-1,-1,-1,-1,-1,-1,-1,-1,-1,-1],"split_conditions":[2E0,6E0,7E0,5E0,1E0,2E0,1.7E1,4E0,1E0,7E0,7E0,8E0,3E0,1.4E1,1.8E1,-2.91265E-2,-7.000994E-2,1.5241203E-1,-6.8280764E-2,-7.932045E-2,6.3393295E-2,7.703314E-2,-1.5034412E-2,2.794461E-2,-2.2909377E-2,2.2796905E-2,2.705353E-3,-2.3550453E-2,7.3755726E-2,-1.3633119E-1,-1.8703194E-2],"split_indices":[1,0,0,0,1,0,1,0,1,0,0,1,0,1,1,0,0,0,0,0,0,0,0,0,0,0,0,0,0,0,0],"split_type":[0,0,0,0,0,0,0,0,0,0,0,0,0,0,0,0,0,0,0,0,0,0,0,0,0,0,0,0,0,0,0],"sum_hessian":[8.227E3,5.75E2,7.652E3,4.4E2,1.35E2,6.765E3,8.87E2,3.47E2,9.3E1,4.3E1,9.2E1,1.126E3,5.639E3,5.79E2,3.08E2,2.57E2,9E1,2.4E1,6.9E1,2E1,2.3E1,6.9E1,2.3E1,2.57E2,8.69E2,9.84E2,4.655E3,4.51E2,1.28E2,4.8E1,2.6E2],"tree_param":{"num_deleted":"0","num_feature":"2","num_nodes":"31","size_leaf_vector":"1"}}]},"name":"gbtree"},"learner_model_param":{"base_score":"[1.3882582E1]","boost_from_average":"1","num_class":"0","num_feature":"2","num_target":"1"},"objective":{"name":"reg:squarederror","reg_loss_param":{"scale_pos_weight":"1"}}},"version":[3,2,0]}